\data\
ngram 1=13984
ngram 2=33321
ngram 3=38376

\1-grams:
-4.5737443	<unk>	0
0	<s>	-0.3067823
-4.4586368	</s>	0
-4.4586368	Umnqopho	-0.048783764
-3.9827116	wewebhusayidi	-0.048783764
-3.711987	yemiSebenzi	-0.33811283
-3.7849357	yomBuso	-0.095484026
-3.1711648	weSewula	-0.87322605
-3.053376	Afrika	-0.15565254
-3.6495473	kunikela	-0.07737791
-4.4586368	ngomthombo	-0.048783764
-3.4269414	munye	-0.10313619
-4.2830343	welwazi	-0.048783764
-3.3623269	ngemisebenzi	-0.13105263
-3.5028784	enikelwa	-0.102840275
-3.9827116	mbuso	-0.048783764
-1.3190143	.	-1.8541139
-4.4586368	kukwehlisa	-0.048783764
-4.130475	ukungalingani	-0.048783764
-3.9827116	okukhona	-0.048783764
-3.1341298	phakathi	-0.10077909
-4.130475	kwalabo	-0.048783764
-4.4586368	abanikelwe	-0.048783764
-3.3060925	amandla	-0.04878374
-3.7849357	nalabo	-0.048783764
-4.4586368	abangakanikelwa	-0.048783764
-1.3588213	,	-0.1852123
-3.5028784	umnotho	-0.08425274
-3.8726614	wokuthoma	-0.048783764
-4.4586368	newesibili	-0.048783764
-4.4586368	Iwebhusayidi	-0.048783764
-4.2830343	kungenelela	-0.048783764
-3.9827116	okuqakathekileko	-0.048783764
-4.2830343	okuhlose	-0.048783764
-3.0388823	ukuqinisekisa	-0.39867178
-2.4602585	bonyana	-0.0931727
-3.594967	izakhamuzi	-0.048783764
-4.4586368	zizakukghona	-0.048783764
-3.6495473	ukuthintana	-0.04878374
-4.2830343	nombuso	-0.048783764
-4.130475	Abasebenzisi	-0.048783764
-4.4586368	abahlosiweko	-0.048783764
-4.4586368	balewebhusayithi	-0.048783764
-4.4586368	zizakhamuzi	-0.048783764
-3.711987	zeSewula	-0.47964737
-3.3333	kiwo	-0.31862855
-2.9490643	woke	-0.16583116
-3.9827116	amahlangothi	-0.048783764
-3.5464864	wenarha	-0.11379315
-4.130475	amabhizinisi	-0.048783764
-3.9827116	akhona	-0.048783764
-4.4586368	nasazokuba	-0.048783764
-2.6280286	khona	-0.2006141
-2.0062258	namkha	-0.11439529
-3.594967	iinhlangano	-0.048783764
-4.4586368	izakhamizi	-0.048783764
-4.130475	neenhlangano	-0.048783764
-3.6495473	ezibuya	-0.07737791
-3.6495473	kwezinye	-0.20402862
-3.5028784	iinarha	-0.06059475
-4.130475	ezifuna	-0.12966344
-2.8946621	imisebenzi	-0.09098151
-4.130475	embusweni	-0.12966344
-4.4586368	afrika	-0.048783764
-4.2830343	Ikoro	-0.048783764
-3.4269414	eqakathekileko	-0.048783764
-4.4586368	yabasebenzisi	-0.048783764
-4.2830343	ibunjwa	-0.048783764
-4.2830343	ziinkhungo	-0.048783764
-4.4586368	zokungenelela	-0.048783764
-3.3333	ezifana	-0.088682406
-3.3623269	nama	-0.0741062
-4.2830343	Community	-0.048783764
-4.4586368	Centres	-0.048783764
-2.1582282	(	-0.16402908
-2.8746762	ama	-0.09807968
-2.1933863	)	-0.37340456
-4.4586368	abaSebenzi	-0.048783764
-4.4586368	bokuThuthukiswa	-0.048783764
-4.4586368	komPhakathi	-0.048783764
-2.3720615	kanye	-0.12565377
-2.9728885	ne	-0.10457076
-4.130475	Pele	-0.048783764
-4.4586368	Gateway	-0.048783764
-4.4586368	Call	-0.048783764
-4.130475	Centre	-0.048783764
-4.4586368	ezizakurhelebha	-0.048783764
-3.9827116	ukukghonakalisa	-0.048783764
-3.5028784	ukusetjenziswa	-0.048783764
-4.2830343	kwewebhusayidi	-0.048783764
-4.4586368	ngilabo	-0.048783764
-4.2830343	abangakghoniko	-0.048783764
-3.3333	ukusebenzisa	-0.06126046
-3.3623269	bunqopha	-0.07935282
-2.6686099	i	-0.16120827
-4.4586368	Ubungako	-0.048783764
-4.130475	belwazi	-0.048783764
-4.130475	elikulewebhusayidi	-0.048783764
-3.9827116	Ilwazi	-0.048783794
-3.4269414	yombuso	-0.108074
-4.4586368	inelwazi	-0.048783764
-3.4632523	ezingeni	-0.06763584
-4.130475	lombuso	-0.048783764
-3.9827116	wesitjhaba	-0.048783764
-4.4586368	lihlukaniswa	-0.048783764
-2.9980958	ngokuya	-0.13045049
-4.4586368	kwemihlobo	-0.048783764
-3.6495473	emithathu	-0.10798822
-3.711987	yemisebenzi	-0.0816209
-2.2185133	:	-0.42179573
-4.2830343	Imisebenzi	-0.048783764
-4.2830343	eyenzelwa	-0.048783764
-2.9264793	abantu	-0.0868659
-4.2830343	ehlelwe	-0.048783764
-4.130475	kwezehlakalo	-0.12966344
-4.130475	zepilo	-0.107988186
-3.7849357	ekhambelana	-0.048783764
-3.9827116	namabhizinisi	-0.048783764
-4.4586368	amaphandle	-0.048783764
-2.7865813	ilwazi	-0.1171745
-4.4586368	eliqaliswe	-0.048783764
-4.4586368	ezakhamizini	-0.048783764
-4.4586368	zeenarha	-0.048783764
-3.7849357	zangaphandle	-0.048783764
-3.3623269	efaneleko	-0.09761302
-4.4586368	Elinye	-0.048783764
-3.9827116	nelinye	-0.06489205
-4.2830343	lamahlangothi	-0.048783764
-3.1341298	la	-0.09092645
-4.4586368	libunjwa	-0.048783764
-2.9980958	ngendlela	-0.07394952
-4.130475	ekhambisana	-0.048783764
-4.4586368	nokulandelana	-0.048783764
-4.130475	izehlakalo	-0.048783764
-4.2830343	ezitholakala	-0.048783764
-3.8726614	epilweni	-0.048783764
-4.4586368	yesakhamuzi	-0.048783764
-3.594967	ibhizinisi	-0.07737791
-4.4586368	Izehlakalo	-0.048783764
-2.9264793	godu	-0.053844616
-4.4586368	zihlukaniswa	-0.048783764
-4.130475	kweengaba	-0.048783764
-3.7849357	ngomunye	-0.27116606
-3.5464864	nomunye	-0.123740904
-3.053376	umsebenzi	-0.09120823
-4.4586368	lihlelwa	-0.048783764
-4.130475	kweendawo	-0.048783764
-4.130475	ezilikhomba	-0.048783764
-3.4632523	eziqakathekileko	-0.048783764
-4.4586368	oku	-0.048783764
-4.4586368	yihlathululo	-0.048783764
-3.3060925	amagadango	-0.084063835
-3.2804892	okufanele	-0.06059475
-4.4586368	alandelwe	-0.048783764
-2.2544503	;	-0.58616936
-3.8726614	imithetho	-0.048783764
-4.2830343	esetjenziswako	-0.048783764
-3.594967	amazinga	-0.04878374
-3.6495473	wokusebenza	-0.07737791
-3.711987	nesikhathi	-0.04878374
-3.7849357	iindleko	-0.048783764
-3.3934336	amaforomo	-0.09761302
-4.4586368	azaliswako	-0.048783764
-3.8726614	nemininingwana	-0.048783764
-3.711987	yokuthintana	-0.048783764
-4.4586368	elikhambelanako	-0.048783764
-4.4586368	Isigabesi	-0.048783764
-4.130475	sewebhusayidi	-0.12966344
-4.4586368	sivezwa	-0.048783764
-4.4586368	ngebha	-0.048783764
-3.8726614	yokuzuma	-0.048783764
-2.7865813	ku	-0.17403242
-4.4586368	inamathintwano	-0.048783764
-4.2830343	akhambelana	-0.048783764
-4.130475	namawebhusayidi	-0.048783764
-4.4586368	walesosehlakalo	-0.048783764
-4.130475	sepilo	-0.048783764
-4.4586368	Amalimi	-0.048783764
-4.4586368	Kilewebhusayidi	-0.048783764
-4.2830343	kutholakala	-0.048783764
-3.594967	amalimi	-0.14105956
-3.3934336	ali	-0.10066373
-4.4586368	okungilawa	-0.048783764
-4.4586368	Afrikaans	-0.048783764
-4.2830343	isiNdebele	-0.17655694
-4.4586368	isiXhosa	-0.048783764
-4.4586368	isiZulu	-0.048783764
-4.4586368	isiPedi	-0.048783764
-4.4586368	isiSuthu	-0.048783764
-4.4586368	isiTsonga	-0.048783764
-4.4586368	isiVenda	-0.048783764
-4.4586368	iSiswati	-0.048783764
-2.5383375	kunye	-0.11555532
-4.4586368	nesiTswana	-0.048783764
-4.4586368	lokusebenzela	-0.048783764
-4.4586368	litlolwe	-0.048783764
-3.7849357	ngesiNgisi	-0.12966344
-3.9827116	kuthi	-0.048783764
-3.053376	ngemva	-0.1400111
-3.5028784	kwalokho	-0.06615626
-4.4586368	litjhugululelwe	-0.048783764
-3.7849357	kwamanye	-0.0873435
-4.130475	ngamanye	-0.048783764
-4.4586368	libekwa	-0.048783764
-3.8726614	webhusayidi	-0.048783764
-4.4586368	kokutjhugululwa	-0.048783764
-4.2830343	Ezinye	-0.048783764
-4.4586368	iimbumbi	-0.048783764
-4.4586368	zewebhusayidi	-0.048783764
-4.4586368	Sebenzisa	-0.048783764
-3.5464864	ikhasi	-0.06763584
-4.130475	lokuthintana	-0.048783764
-3.5464864	nathi	-0.06763584
-4.2830343	Thintana	-0.048783764
-3.7849357	ukuveza	-0.048783764
-3.8726614	imibono	-0.048783764
-3.9827116	ukubuza	-0.048783764
-4.2830343	ngewebhusayidi	-0.048783764
-4.4586368	Ithintwano	-0.048783764
-4.4586368	www.gov.za	-0.048783764
-4.130475	linikela	-0.048783764
-3.9827116	ngokufikelela	-0.048783764
-2.6392417	le	-0.23955816
-4.4586368	lomBuso	-0.048783764
-4.2830343	elinikela	-0.048783764
-3.711987	lewebhusayidi	-0.0816209
-3.594967	iwebhusayidi	-0.048783764
-4.2830343	newebhusayidi	-0.048783764
-4.4586368	yeLwazi	-0.048783764
-4.4586368	ngomBuso	-0.048783764
-4.4586368	www.info.gov.za	-0.048783764
-4.4586368	Umebhe	-0.048783764
-4.4586368	wesayithi	-0.048783764
-4.130475	unikela	-0.048783764
-4.4586368	ngesithombe	-0.048783764
-4.4586368	esibonwako	-0.048783764
-4.4586368	sesakhiwo	-0.048783764
-4.4586368	Senziwe	-0.048783764
-4.4586368	ngokweenkhundla	-0.048783764
-4.4586368	sephula	-0.048783764
-4.2830343	lesayithi	-0.048783764
-3.5028784	libe	-0.06615626
-4.4586368	ziindawo	-0.048783764
-4.4586368	zeenhloko	-0.048783764
-3.9827116	ezithileko	-0.048783764
-4.4586368	Ngalokho	-0.048783794
-4.4586368	likukghonakalisa	-0.048783764
-4.4586368	ukuzijayeza	-0.048783764
-2.77868	mayelana	-0.07445207
-4.4586368	nokungaphakathi	-0.048783764
-4.2830343	kwesakhiwo	-0.048783764
-4.4586368	Ikhasi	-0.048783764
-4.2830343	lekhaya	-0.048783764
-4.4586368	ngerhemo	-0.048783764
-4.130475	lemisebenzi	-0.048783764
-4.4586368	efikelelwa	-0.048783764
-2.6449585	khulu	-0.15336156
-4.4586368	Okufakiweko	-0.048783764
-3.594967	emisebenzini	-0.04878374
-4.4586368	okungemikhulu	-0.048783764
-3.9827116	emihlanu	-0.048783764
-4.4586368	evakatjhelwa	-0.048783764
-4.2830343	basebenzisi	-0.048783764
-4.4586368	Irhemo	-0.048783764
-4.4586368	litjhugululwa	-0.048783764
-4.4586368	kweembalobalo	-0.048783764
-4.2830343	zamakhasi	-0.048783764
-4.2830343	avakatjhelweko	-0.17655694
-4.4586368	Ibhoksi	-0.048783764
-4.4586368	lokuzuma	-0.048783764
-4.130475	likhona	-0.048783764
-4.130475	amakhasi	-0.048783764
-4.4586368	Lokha	-0.048783764
-4.4586368	nawufaka	-0.048783764
-3.7849357	ezeleko	-0.048783764
-4.4586368	izakuzunywa	-0.048783764
-2.2735994	bona	-0.091508105
-4.2830343	kutholakale	-0.048783764
-3.711987	amagama	-0.048783764
-3.3623269	lawo	-0.06126046
-4.4586368	Godu	-0.048783764
-4.2830343	ungenza	-0.048783764
-4.4586368	ukuzuma	-0.048783764
-4.4586368	okungcono	-0.048783764
-4.4586368	ngokukhetha	-0.048783764
-3.7849357	ithintwano	-0.0873435
-4.4586368	lokuZuma	-0.048783764
-4.4586368	okuNgcono	-0.048783764
-4.4586368	Khulu	-0.048783764
-4.4586368	Ukuzuma	-0.048783764
-2.8463225	lokhu	-0.09113842
-4.4586368	kuzuma	-0.048783764
-4.130475	amawebhusayidi	-0.048783764
-3.711987	wombuso	-0.0816209
-4.4586368	Amathintwano	-0.048783764
-4.2830343	wangaphandle	-0.048783764
-4.4586368	atjengiswa	-0.048783764
-4.4586368	ngamagama	-0.048783764
-4.4586368	athi	-0.048783764
-3.3623269	'	-0.12012985
-4.4586368	Outside	-0.048783764
-4.4586368	link	-0.048783764
-4.4586368	langaphandle	-0.048783764
-4.2830343	elivela	-0.048783764
-4.2830343	ebhoksini	-0.048783764
-2.9980958	lokha	-0.065713376
-4.4586368	ikhesa	-0.048783764
-4.4586368	nayikhamba	-0.048783764
-3.6495473	phezu	-0.07737791
-4.4586368	kwethintwano	-0.048783764
-4.4586368	izakuvula	-0.048783764
-4.4586368	iwindo	-0.048783764
-4.4586368	lebhrawuza	-0.048783764
-4.4586368	elitja	-0.048783764
-4.2830343	Izinga	-0.048783764
-4.2830343	lokulethwa	-0.048783764
-3.2334096	ebujameni	-0.2048132
-4.4586368	banjesi	-0.048783764
-4.4586368	ilethwa	-0.048783764
-3.2334096	njalo	-0.09463014
-4.4586368	Umthethomgomo	-0.048783764
-2.9264793	wethu	-0.106077604
-3.594967	ngelwazi	-0.04878374
-4.4586368	nalithoma	-0.048783764
-3.711987	ukutholakala	-0.048783764
-4.2830343	Kodwana	-0.048783764
-4.4586368	abathuthukisi	-0.048783764
-4.4586368	bewebhusayidi	-0.048783764
-2.9853094	angeze	-0.05945601
-4.2830343	baqinisekisa	-0.048783764
-4.4586368	elivezwa	-0.048783764
-4.4586368	emawebhusayidini	-0.048783764
-4.4586368	esithintana	-0.048783764
-3.6495473	nawo	-0.0741062
-4.4586368	ngelanjesi	-0.048783764
-4.2830343	Qala	-0.048783764
-4.2830343	iimFuno	-0.048783764
-4.4586368	noBujamo	-0.048783764
-3.3333	indima	-0.20383811
-4.2830343	4.3	-0.048783764
-4.4586368	Ubunikazi	-0.048783764
-4.4586368	Iminyango	-0.048783764
-4.2830343	banikazi	-0.048783764
-4.4586368	elisemawebhusayidini	-0.048783764
-4.130475	wayo	-0.12966344
-4.4586368	Lomsebenzi	-0.048783764
-4.2830343	unikelwa	-0.048783764
-3.7849357	abaphathi	-0.048783764
-4.2830343	bokuthintana	-0.048783764
-4.4586368	beminyango	-0.048783764
-3.9827116	abasebenza	-0.048783764
-3.7849357	ukuphatha	-0.0816209
-4.2830343	ewebhusayidini	-0.048783764
-3.6495473	I	-0.055544745
-4.2830343	Communications	-0.048783764
-4.4586368	GCIS	-0.048783764
-3.9827116	isebenza	-0.048783764
-3.8726614	ukuphathwa	-0.048783764
-3.6495473	mazombe	-0.0741062
-4.4586368	nokukhanjelaniswa	-0.048783764
-4.2830343	kokungaphakathi	-0.048783764
-4.4586368	Ubunjalo	-0.048783764
-4.130475	bomtlolo	-0.12966344
-4.4586368	Indlela	-0.048783764
-4.4586368	yokuvezwa	-0.048783764
-4.2830343	kwelwazi	-0.048783764
-3.1000063	yi	-0.10767625
-3.7849357	imihlobo	-0.0873435
-2.755804	ye	-0.21346182
-4.130475	yemitlolo	-0.048783764
-3.9827116	isibonelo	-0.23660932
-4.4586368	imiThetho	-0.048783764
-4.130475	inikelwa	-0.048783764
-3.8726614	ukugcina	-0.048783764
-4.4586368	ubunjalo	-0.048783764
-4.130475	bokuthoma	-0.048783764
-4.4586368	Ukuvula	-0.048783764
-2.960813	imitlolo	-0.12876697
-4.2830343	utlhoga	-0.048783764
-3.2804892	ukuba	-0.09761302
-4.2830343	ne-	-0.048783764
-4.4586368	Adobe	-0.048783764
-4.2830343	Acrobat	-0.048783764
-4.2830343	Reader	-0.048783764
-4.130475	4	-0.048783764
-4.2830343	engaphezulu	-0.048783764
-4.4586368	kwale	-0.048783764
-4.4586368	ifakwe	-0.048783764
-3.9827116	ekhomphyutheni	-0.23660932
-3.2334096	yakho	-0.27092344
-4.4586368	Izakuvula	-0.048783764
-4.2830343	ebhrawuzeni	-0.048783764
-4.4586368	Kwesinye	-0.048783764
-2.8845541	isikhathi	-0.11323172
-3.9827116	kuthatha	-0.44792518
-4.2830343	ukuvula	-0.048783764
-4.4586368	Kilokhu	-0.048783764
-4.4586368	siphakamisa	-0.048783764
-4.4586368	uyikhuphele	-0.048783764
-4.4586368	bewuyivule	-0.048783764
-3.4269414	ukusuka	-0.09843464
-2.837268	lapho	-0.08630657
-4.4586368	Isiyeleliso	-0.048783764
-4.4586368	zokukhupha	-0.048783764
-4.130475	uyise	-0.048783764
-4.4586368	nawusebenzisa	-0.048783764
-4.4586368	Explorer	-0.048783764
-4.2830343	njengebhrawuza	-0.17655694
-4.4586368	Ngemawusi	-0.048783764
-4.4586368	gandelela	-0.048783764
-4.4586368	ngesidleni	-0.048783764
-3.4269414	umtlolo	-0.10313619
-3.8726614	ofuna	-0.048783764
-4.4586368	ukukhupha	-0.048783764
-4.4586368	Ku	-0.048783764
-4.4586368	menu	-0.048783764
-4.2830343	khetha	-0.12966344
-4.4586368	Save	-0.048783764
-4.4586368	target	-0.048783764
-4.4586368	as	-0.048783764
-4.2830343	Bulunga	-0.048783764
-4.4586368	ithagethi	-0.048783764
-4.130475	njenge	-0.048783764
-4.4586368	Ewindweni	-0.048783764
-4.4586368	elithi	-0.048783764
-4.4586368	Njenge	-0.048783764
-3.4269414	indawo	-0.048783764
-4.4586368	drive	-0.048783764
-3.594967	ufuna	-0.06939094
-4.4586368	ukubulungela	-0.048783764
-4.4586368	bewugandelele	-0.048783764
-4.2830343	ibhathini	-0.17655694
-3.7849357	ethi	-0.0816209
-4.4586368	Ifayili	-0.048783764
-4.130475	izakukhutjhwa	-0.107988186
-4.4586368	isiwe	-0.048783764
-3.4632523	endaweni	-0.0816209
-4.4586368	oyikhethileko	-0.048783764
-4.4586368	Vula	-0.048783764
-4.2830343	bewuvule	-0.17655694
-4.4586368	oyikhuphileko	-0.048783764
-4.4586368	Gandelelela	-0.048783764
-3.3623269	phasi	-0.14330068
-4.4586368	ngemawusi	-0.048783764
-4.2830343	ugandelele	-0.048783764
-4.4586368	ngesinceleni	-0.048783764
-4.4586368	sayo	-0.048783764
-4.4586368	ethintanweni	-0.048783764
-4.4586368	lomtlolo	-0.048783764
-4.4586368	ukuwubulunga	-0.048783764
-4.130475	ukubulunga	-0.048783764
-4.4586368	isiFundo	-0.048783764
-3.6495473	sakho	-0.06615626
-4.4586368	Ufuna	-0.048783764
-3.3934336	irhelebho	-0.07935282
-4.4586368	ngemiraro	-0.048783764
-4.4586368	oyifumene	-0.048783764
-3.5028784	kilewebhusayidi	-0.1696008
-3.2804892	?	-1.1011376
-4.4586368	Sibawa	-0.048783764
-4.4586368	usithinte	-0.048783764
-4.2830343	electronic@gcis.gov.za	-0.048783764
-3.0112703	nayikuthi	-0.10101842
-4.4586368	uhlangabezana	-0.048783764
-4.4586368	nemiraro	-0.048783764
-4.4586368	Nangabe	-0.048783764
-3.3623269	ihlangano	-0.20459555
-3.9827116	yebumbano	-0.2315415
-3.7849357	ikhampani	-0.071506515
-4.4586368	yehlanganyela	-0.048783764
-4.4586368	ayisakwazi	-0.048783764
-4.4586368	ukubhadala	-0.048783764
-3.9827116	iinkolodo	-0.048783764
-4.4586368	ifezakalise	-0.048783764
-3.9827116	iimbopho	-0.107988186
-3.8726614	zayo	-0.0873435
-4.2830343	ngenca	-0.048783764
-4.4586368	yokutjhona	-0.048783764
-4.2830343	ukungalawuleki	-0.048783764
-2.819707	kuhle	-0.16477253
-3.8726614	kungaba	-0.048783764
-3.9827116	ngimuphi	-0.048783764
-4.130475	unobangela	-0.048783764
-3.711987	umNqophisi	-0.07737791
-4.2830343	wezeRhwebo	-0.17655694
-4.130475	namaBubulo	-0.048783764
-3.9827116	kungenzeka	-0.048783764
-4.4586368	ayilawule	-0.048783764
-4.4586368	ayivale	-0.048783764
-3.2804892	leyo	-0.07884491
-4.4586368	bhizimisi	-0.048783764
-4.4586368	Ihlangano	-0.048783764
-4.130475	yesikhatjhana	-0.071506515
-3.3934336	elinye	-0.31862855
-3.8726614	ilunga	-0.0873435
-3.7849357	lehlangano	-0.16459468
-2.937625	nanyana	-0.06103035
-4.130475	ngubani	-0.048783764
-4.2830343	onekareko	-0.048783764
-3.7849357	angenza	-0.4127006
-2.8555696	isibawo	-0.19239871
-3.211655	ekhotho	-0.24203293
-3.1522527	kobana	-0.056485604
-4.2830343	ilawulwe	-0.048783764
-4.2830343	ngumNqophisi	-0.17655694
-4.4586368	ivalwe	-0.048783764
-4.4586368	Ikhotho	-0.04878374
-4.4586368	ezokulalela	-0.048783764
-3.7849357	leso	-0.0816209
-4.4586368	makube	-0.048783764
-4.4586368	liphiko	-0.048783764
-4.2830343	lekhotho	-0.048783764
-3.711987	ekulu	-0.048783764
-4.4586368	iKhotho	-0.048783764
-4.2830343	kaMarhastrada	-0.048783764
-4.2830343	enamandla	-0.048783764
-4.4586368	wokulawula	-0.048783764
-4.2830343	ubulungiswa	-0.048783764
-4.4586368	isebenzela	-0.048783764
-4.130475	ingathatha	-0.12966344
-4.4586368	siqunto	-0.048783764
-4.4586368	nakube	-0.048783764
-4.130475	kuyindlela	-0.048783764
-3.7849357	elungileko	-0.27116606
-3.594967	ikhotho	-0.048783764
-4.2830343	ibeka	-0.048783764
-4.4586368	alawule	-0.048783764
-3.9827116	uzakuba	-0.048783764
-4.2830343	negunya	-0.048783764
-4.2830343	lokuphatha	-0.048783764
-3.4269414	iindaba	-0.06489205
-4.2830343	zehlangano	-0.17655694
-4.4586368	ngemibandela	-0.048783764
-4.4586368	yemiThetho	-0.048783764
-4.4586368	yemaKhampani	-0.048783764
-4.4586368	1973	-0.048783764
-3.8726614	yenza	-0.2583829
-4.4586368	ngokutlolela	-0.048783764
-4.4586368	angayesula	-0.048783764
-3.6495473	nangabe	-0.048783764
-4.4586368	uyaneliseka	-0.048783764
-3.4269414	nge	-0.06379939
-4.4586368	Isiqunto	-0.048783764
-4.130475	sokobanyana	-0.048783764
-4.4586368	isulwe	-0.048783764
-4.4586368	sathathwa	-0.048783764
-3.9827116	emhlanganweni	-0.048783764
-4.2830343	ogade	-0.048783764
-4.4586368	ukhanjelwe	-0.048783764
-4.2830343	linani	-0.048783764
-3.5028784	elikhulu	-0.048783764
-4.130475	lamalunga	-0.048783764
-4.2830343	wehlangano	-0.048783764
-4.4586368	samukelwe	-0.048783764
-4.4586368	linengi	-0.048783764
-4.2830343	agade	-0.048783764
-2.2687323	begodu	-0.07266568
-4.4586368	Zoke	-0.048783764
-4.4586368	ebekumele	-0.048783764
-4.4586368	zikhulunywe	-0.048783764
-3.1000063	ngaphambi	-0.14659084
-4.4586368	kokwesulwa	-0.048783764
-3.6495473	kufaka	-0.14585927
-2.837268	hlangana	-0.08255877
-2.8946621	indlela	-0.08117805
-3.2334096	ipahla	-0.20175742
-4.4586368	neenkwelede	-0.048783764
-4.4586368	zizakusetjenzwa	-0.048783764
-2.9980958	ngayo	-0.2425781
-4.2830343	ithatha	-0.048783764
-3.9827116	isiqunto	-0.048783764
-4.4586368	sokuvala	-0.048783764
-4.2830343	izakuqunta	-0.048783764
-3.9827116	yehlangano	-0.048783764
-4.4586368	izakuhlukaniswa	-0.048783764
-4.4586368	ngokulinganako	-0.048783764
-4.4586368	nangokuthembeka	-0.048783764
-4.4586368	izakuyelela	-0.048783764
-2.9728885	zoke	-0.11493252
-3.9827116	iimphakamiso	-0.048783764
-4.2830343	ezizakwenziwa	-0.048783764
-4.130475	mNqophisi	-0.048783764
-3.594967	manqophana	-0.10099703
-4.2830343	nokwabiwa	-0.17655694
-4.130475	kwepahla	-0.23660932
-3.0839002	omunye	-0.40191585
-3.256312	umuntu	-0.09120823
-3.6495473	wenza	-0.16755451
-4.2830343	uNgqongqotjhe	-0.048783764
-3.8726614	uzakunikela	-0.048783764
-3.0112703	ikambiso	-0.0809047
-3.3333	okumele	-0.062845536
-4.4586368	UNgqongqotjhe	-0.048783764
-3.594967	nomsebenzi	-0.04878374
-4.2830343	isiPhathiswa	-0.048783764
-4.4586368	sokuTlolisa	-0.048783764
-3.594967	amalunga	-0.124253675
-4.4586368	neenhlanganao	-0.048783764
-4.4586368	ezinekareko	-0.048783764
-4.130475	kilesi	-0.048783764
-4.4586368	simo	-0.048783764
-4.4586368	Endabeni	-0.048783764
-4.2830343	yekhampani	-0.048783764
-3.3060925	enye	-0.2855213
-3.711987	nenye	-0.07273597
-4.4586368	enekareko	-0.048783764
-4.130475	umnqophisi	-0.048783764
-4.2830343	umhloli	-0.048783764
-4.2830343	weencwadi	-0.048783764
-4.4586368	zekhampani	-0.048783764
-4.2830343	I-	-0.048783764
-3.711987	South	-0.3405943
-3.4269414	African	-0.12652755
-4.4586368	Revenue	-0.048783764
-4.130475	Service	-0.095484026
-4.4586368	SARS	-0.048783764
-4.130475	umTlolisi	-0.048783764
-3.7849357	wamaKhampani	-0.0816209
-4.4586368	sokwesula	-0.048783764
-4.2830343	kwekhampani	-0.048783764
-4.4586368	Ukuphathwa	-0.048783764
-4.130475	ngokuhlukileko	-0.12966344
-4.4586368	ngakwezomthelo	-0.048783764
-3.9827116	kunikelwa	-0.095484026
-4.4586368	ezingenzi	-0.048783764
-3.6495473	inzuzo	-0.04878374
-4.4586368	ezihlonyelwe	-0.048783764
-4.4586368	kuzuze	-0.048783764
-3.256312	umphakathi	-0.0902922
-4.4586368	kuphathwa	-0.048783764
-3.1341298	kuphela	-0.11680216
-4.4586368	ezikhambisana	-0.048783764
-3.9827116	neenjamiso	-0.17655694
-4.130475	zomThetho	-0.107988186
-4.2830343	weenHlangano	-0.17655694
-4.4586368	eziNgenzi	-0.048783764
-4.4586368	iNzuzo	-0.048783764
-2.9156125	ka	-0.2871672
-3.9827116	nemithetho	-0.048783764
-4.130475	ekhambelanako	-0.32298645
-4.4586368	Iinhlangano	-0.048783764
-4.4586368	ezifisa	-0.048783764
-2.8028283	ukwenza	-0.24660565
-4.4586368	sokubekelwa	-0.048783764
-3.6495473	ngeqadi	-0.04878374
-4.130475	ekubhadeleni	-0.12966344
-3.3060925	umthelo	-0.21035218
-2.3908832	kufanele	-0.13171214
-4.4586368	ziwele	-0.048783764
-3.9827116	ngakwelinye	-0.107988186
-3.7849357	alandelako	-0.16459468
-4.4586368	Ikhampani	-0.048783764
-4.2830343	ewela	-0.17655694
-2.8845541	ngaphasi	-0.17212567
-4.130475	kwesiGaba	-0.12966344
-4.2830343	21	-0.048783764
-4.130475	somThetho	-0.048783764
-4.4586368	yesiGaba	-0.048783764
-4.4586368	enememorandamu	-0.048783764
-2.9264793	of	-0.15701552
-4.4586368	association	-0.048783764
-4.4586368	nestatimende	-0.048783764
-4.2830343	sokusungula	-0.048783764
-4.4586368	netloliswe	-0.048783764
-4.4586368	noMtlolisi	-0.048783764
-4.4586368	enomtlolo	-0.048783764
-4.4586368	wokusungula	-0.048783764
-4.2830343	deed	-0.048783764
-4.130475	etloliswe	-0.048783764
-3.4269414	no	-0.06489205
-3.9827116	the	-0.048783764
-4.2830343	High	-0.048783764
-4.2830343	Court	-0.048783764
-4.4586368	Ihlanganisela	-0.048783764
-3.256312	yabantu	-0.11767425
-4.4586368	yokuzithandela	-0.048783764
-4.4586368	iphethwe	-0.048783764
-4.4586368	mthethosisekelo	-0.048783764
-4.4586368	Lapho	-0.04878374
-3.8726614	isitatimende	-0.048783764
-4.4586368	nasingakhambisaniko	-0.048783764
-4.4586368	zesiGaba	-0.048783764
-4.4586368	30	-0.048783764
-4.4586368	siphekelelwe	-0.048783764
-4.130475	sibopho	-0.048783764
-3.8726614	esitloliweko	-0.048783764
-4.4586368	esitlikitlwe	-0.048783764
-4.130475	mbawi	-0.048783764
-4.4586368	Ukubekelwa	-0.048783764
-2.7270644	ngaphandle	-0.18072641
-4.4586368	okudlulileko	-0.048783764
-4.2830343	kuzakuragela	-0.17655694
-2.617098	phambili	-0.13117638
-3.594967	nokusebenza	-0.048783764
-4.2830343	bekube	-0.048783764
-3.594967	sikhathi	-0.048783764
-3.594967	umbawi	-0.0741062
-4.4586368	aziswe	-0.048783764
-4.4586368	ngokuthathwa	-0.048783764
-4.4586368	kwesiqunto	-0.048783764
-3.594967	komthetho	-0.13840303
-3.711987	omutjha	-0.14603667
-3.9827116	kwanjesi	-0.048783764
-4.4586368	ezingabekelwa	-0.048783764
-4.2830343	wengeniso	-0.048783764
-4.4586368	zingaletha	-0.048783764
-3.116733	iforomo	-0.2877078
-3.9827116	elizalisiweko	-0.16459468
-3.5464864	lesibawo	-0.103348054
-3.7849357	nemitlolo	-0.0741062
-4.2830343	esekelako	-0.048783764
-4.2830343	nesibopho	-0.048783764
-4.4586368	esitlikitliweko	-0.048783764
-4.2830343	abasebenzisa	-0.048783764
-4.130475	isikhundla	-0.048783764
-3.3333	se	-0.12548731
-4.4586368	bathembisa	-0.048783764
-3.711987	ukukhambisana	-0.048783764
-4.130475	Imitlolo	-0.048783764
-3.7849357	yokusekela	-0.048783764
-3.3333	elandelako	-0.20103155
-4.2830343	iphekelele	-0.048783764
-4.2830343	Namathisela	-0.048783764
-3.6495473	ikhophi	-0.09102486
-4.4586368	yeMemorandamu	-0.048783764
-4.130475	Association	-0.12966344
-3.6495473	amakhophi	-0.16822283
-4.4586368	weenqunto	-0.048783764
-4.4586368	ezitlolisiweko	-0.048783764
-4.4586368	ezitjhugulula	-0.048783764
-4.4586368	imemorandamu	-0.048783764
-4.2830343	netjhuguluko	-0.048783764
-3.8726614	elilandelako	-0.1919848
-4.4586368	lama	-0.048783764
-4.4586368	amendment	-0.048783764
-3.9827116	ihlanganisela	-0.107988186
-4.4586368	yomthethosisekelo	-0.048783764
-4.4586368	wamuva	-0.048783764
-3.5464864	nje	-0.048783764
-4.4586368	ezihlonywe	-0.048783764
-3.3934336	ngomnqopho	-0.14259882
-3.9827116	wokunikela	-0.095484026
-3.9827116	ngama	-0.048783764
-4.4586368	imifundalize	-0.048783764
-4.4586368	nabonongorwana	-0.048783764
-4.4586368	bezefundo	-0.048783764
-4.2830343	irhubhululo	-0.048783764
-3.711987	nokufundisa	-0.0816209
-3.711987	ukungezelela	-0.06939094
-4.2830343	engehla	-0.048783764
-4.4586368	zizalise	-0.048783764
-4.4586368	iNcwadi	-0.048783764
-4.4586368	yesiBopho	-0.048783764
-4.4586368	esiTloliweko	-0.048783764
-4.4586368	EI	-0.048783764
-4.130475	3	-0.095484026
-4.2830343	Iinkolo	-0.048783764
-3.7849357	zombuso	-0.0873435
-4.4586368	nezizijameleko	-0.048783764
-4.2830343	zangeqadi	-0.048783764
-4.130475	iinkhungo	-0.048783764
-3.7849357	zefundo	-0.13262075
-4.130475	ephakamileko	-0.048783764
-4.4586368	nebandulo	-0.048783764
-4.4586368	labadala	-0.048783764
-4.2830343	neenkhungo	-0.17655694
-4.2830343	eliragela	-0.17655694
-4.4586368	zinamathisele	-0.048783764
-4.4586368	yesitifikeyidi	-0.048783764
-3.9827116	sokuzitlolisa	-0.048783764
-3.9827116	esikhutjhwe	-0.048783764
-4.4586368	ngabasemaGunyeni	-0.048783764
-4.4586368	bezeFundo	-0.048783764
-3.8726614	abafaneleko	-0.1919848
-4.4586368	Isondlo	-0.048783764
-4.4586368	sokubonelela	-0.048783764
-3.711987	umntwana	-0.048783764
-4.4586368	ngendlu	-0.048783764
-3.711987	ukudla	-0.071506515
-4.2830343	izembatho	-0.048783764
-3.7849357	ifundo	-0.048783764
-4.4586368	netlhogomelo	-0.048783764
-4.4586368	lezokwelatjhwa	-0.048783764
-4.4586368	ngokhunye	-0.048783764
-4.4586368	okungatlhogeka	-0.048783764
-3.116733	ukunikela	-0.05738315
-4.4586368	ngalezi	-0.048783764
-4.4586368	zinto	-0.048783764
-4.4586368	Lesi	-0.048783764
-4.2830343	somthetho	-0.048783764
-4.2830343	sokondla	-0.048783764
-4.4586368	sibizwa	-0.048783764
-4.4586368	ngesibopho	-0.048783764
-4.130475	sesondlo	-0.048783764
-4.130475	sokusekela	-0.048783764
-4.4586368	Ngubani	-0.048783764
-3.9827116	anikele	-0.048783764
-4.4586368	ngesondlo	-0.048783764
-4.4586368	Isibopho	-0.048783764
-4.4586368	sisekelwe	-0.048783764
-4.4586368	etjhebiswaneni	-0.048783764
-4.4586368	leengazi	-0.048783764
-4.4586368	loku	-0.048783764
-4.2830343	eqinisweni	-0.048783764
-3.256312	lokobana	-0.058965106
-3.8726614	laba	-0.048783764
-4.130475	batjhadile	-0.048783764
-4.4586368	Umntwana	-0.048783764
-4.130475	asekelwe	-0.048783764
-4.2830343	ondliwe	-0.048783764
-4.4586368	babelethi	-0.048783764
-3.594967	bakhe	-0.114508554
-4.2830343	bahlala	-0.048783764
-3.9827116	bobabili	-0.095484026
-3.9827116	ngokuhlukana	-0.048783764
-4.4586368	bahlukanisile	-0.048783764
-4.130475	ababelethi	-0.048783764
-4.2830343	aba	-0.048783764
-3.1000063	/	-0.065500274
-4.4586368	ugogo	-0.048783764
-4.4586368	nobamkhulu	-0.048783764
-4.4586368	bomntwana	-0.048783764
-4.4586368	bebatjhadile	-0.048783764
-4.2830343	kuhluka	-0.048783764
-3.116733	ubujamo	-0.07320985
-3.3934336	nobujamo	-0.07935282
-4.2830343	lomndeni	-0.048783764
-4.4586368	asipheleli	-0.048783764
-4.2830343	ekusekeleni	-0.048783764
-4.2830343	kungaqalwa	-0.048783764
-3.9827116	ubudala	-0.048783764
-4.4586368	lingabawa	-0.048783764
-4.4586368	ukubasekela	-0.048783764
-4.4586368	ukubondla	-0.048783764
-3.9827116	kuye	-0.048783764
-3.711987	ngokuthi	-0.048783764
-4.2830343	obulandelako	-0.048783764
-4.2830343	kuhlangabezanwa	-0.048783764
-3.4632523	nabo	-0.124253675
-4.4586368	Ilunga	-0.048783764
-4.2830343	elifuna	-0.048783764
-3.8726614	ukusekelwa	-0.048783764
-4.2830343	alikghoni	-0.048783764
-4.4586368	ukuzisekela	-0.048783764
-4.2830343	okufunwa	-0.048783764
-3.9827116	kilo	-0.107988186
-2.9264793	imali	-0.17406422
-3.9827116	yesondlo	-0.048783764
-3.3934336	ukubhadela	-0.12012985
-3.8726614	efunekako	-0.14781787
-4.4586368	Ngiziphi	-0.048783764
-4.4586368	ezingafunwa	-0.048783764
-4.4586368	Ungafuna	-0.048783764
-3.4632523	isekelo	-0.048783794
-4.4586368	elizwakalako	-0.048783764
-4.4586368	elitlhogekako	-0.048783764
-4.130475	ukuqalelela	-0.048783764
-4.4586368	onelungelo	-0.048783764
-4.2830343	lesondlo	-0.048783764
-3.9827116	ngezinga	-0.048783764
-4.4586368	lokuphila	-0.048783764
-3.4632523	elifaneleko	-0.06763584
-4.4586368	nokukhulisa	-0.048783764
-4.130475	Lokhu	-0.048783764
-4.4586368	ngezinto	-0.048783764
-4.4586368	nokudla	-0.048783764
-4.4586368	nendlu	-0.048783764
-4.2830343	nokubhadela	-0.048783764
-4.2830343	ingalaya	-0.048783764
-4.4586368	womntwana	-0.048783764
-3.5028784	ukufaka	-0.27728662
-3.594967	isandla	-0.048783794
-4.4586368	ekubhadelweni	-0.048783764
-4.2830343	kweendleko	-0.048783764
-4.2830343	zokuphila	-0.048783764
-3.7849357	ukuthoma	-0.16755451
-3.5464864	ngelanga	-0.048783764
-4.4586368	abelethwa	-0.048783764
-3.7849357	ngalo	-0.048783764
-4.130475	ukufika	-0.048783764
-4.4586368	okukhutjhwa	-0.048783764
-3.711987	umlayo	-0.07737791
-4.130475	wesondlo	-0.048783764
-4.130475	inganikela	-0.048783764
-3.9827116	ngomlayo	-0.107988186
-4.4586368	wokubhadelwa	-0.048783764
-4.4586368	zokwelapha	-0.048783764
-4.4586368	ilaye	-0.048783764
-4.2830343	atloliswe	-0.048783764
-3.8726614	ehlelweni	-0.048783764
-4.4586368	lezokwelapha	-0.048783764
-4.2830343	lomunye	-0.048783764
-4.2830343	wabathintekako	-0.048783764
-4.4586368	njengomthembele	-0.048783764
-3.5028784	kibo	-0.38381526
-4.4586368	Ukukghonakalisa	-0.048783764
-4.2830343	olungileko	-0.048783764
-3.4632523	abathintekako	-0.10313619
-4.4586368	banikele	-0.048783764
-3.711987	ubufakazi	-0.048783764
-4.4586368	beendleko	-0.048783764
-4.4586368	Umbono	-0.048783764
-3.7849357	wakho	-0.04878374
-4.130475	ngokuziphatha	-0.048783764
-3.3934336	komunye	-0.31715083
-4.2830343	umbelethi	-0.048783764
-4.4586368	awunamphumela	-0.048783764
-4.4586368	elungelweni	-0.048783764
-4.4586368	lomntwanakho	-0.048783764
-4.4586368	Usezakubhadela	-0.048783764
-3.711987	isondlo	-0.0741062
-4.4586368	atjhada	-0.048783764
-4.2830343	butjha	-0.048783764
-4.4586368	azibandakanya	-0.048783764
-3.5464864	kwelinye	-0.30093864
-3.6495473	itjhebiswano	-0.07737791
-4.4586368	angakuvumeli	-0.048783764
-3.711987	ukubona	-0.048783764
-3.7849357	abantwana	-0.048783764
-3.4269414	nabanye	-0.048783794
-3.9827116	ngokukhamba	-0.23660932
-3.4632523	kwesikhathi	-0.088682406
-3.8726614	sokubhadela	-0.048783764
-4.2830343	nelungelo	-0.048783764
-3.5464864	lakho	-0.071506515
-4.2830343	lokufikelela	-0.048783764
-4.4586368	ziindaba	-0.048783764
-3.8726614	ezihlukeneko	-0.048783764
-4.4586368	azikhambelani	-0.048783764
-4.4586368	Ukudlula	-0.048783764
-4.4586368	bomunye	-0.048783764
-4.130475	othintekako	-0.048783764
-4.4586368	abanamthelela	-0.048783764
-4.4586368	esibopheni	-0.048783764
-3.1341298	inani	-0.062845536
-4.4586368	elizakubhadelwa	-0.048783764
-4.4586368	lingatjhugululwa	-0.048783764
-4.2830343	yikhotho	-0.048783764
-4.4586368	angaletha	-0.048783764
-4.4586368	Amagadango	-0.048783764
-4.4586368	Yenza	-0.048783764
-4.130475	kamarhastrada	-0.095484026
-4.2830343	esiyingini	-0.048783764
-4.2830343	uhlala	-0.17655694
-3.9827116	Nayikuthi	-0.053963017
-4.4586368	uyasola	-0.048783764
-4.2830343	yendawo	-0.048783764
-4.4586368	izakutjela	-0.048783764
-4.4586368	usenze	-0.048783764
-4.4586368	kuyiphi	-0.048783764
-4.4586368	Tjhinga	-0.048783764
-4.4586368	bewuzalise	-0.048783764
-3.7849357	iForomo	-0.07737791
-3.711987	A	-0.0816209
-4.4586368	Application	-0.048783764
-3.8726614	for	-0.11714548
-4.4586368	a	-0.048783764
-4.4586368	maintenance	-0.048783764
-4.4586368	order	-0.048783764
-4.2830343	Isibawo	-0.0816209
-4.2830343	somlayo	-0.048783764
-4.4586368	Ukungezelela	-0.048783764
-3.7849357	eforomini	-0.4127006
-4.2830343	letha	-0.048783764
-4.4586368	bengeniso	-0.048783764
-4.4586368	yenyanga	-0.048783764
-4.130475	neendleko	-0.048783764
-4.130475	obufana	-0.048783764
-4.4586368	namarasidi	-0.048783764
-4.2830343	wokuthenga	-0.048783764
-3.5464864	igezi	-0.06763584
-3.711987	ukubhadelwa	-0.07737791
-4.2830343	kwesikolodo	-0.048783764
-4.4586368	serente	-0.048783764
-4.2830343	izakubeka	-0.048783764
-3.5028784	ilanga	-0.06379939
-3.711987	wena	-0.048783764
-4.2830343	noziphendulelako	-0.048783764
-3.9827116	abhadele	-0.16459468
-4.4586368	enizakuya	-0.048783764
-4.4586368	Isiphathiswa	-0.048783764
-4.4586368	sezondlo	-0.048783764
-4.4586368	nomphenyi	-0.048783764
-4.4586368	bazakuphenya	-0.048783764
-4.4586368	sokufuna	-0.048783764
-4.4586368	bazakutjheja	-0.048783764
-4.2830343	bakho	-0.048783764
-4.2830343	izakunikela	-0.048783764
-4.4586368	amasamoni	-0.048783764
-4.4586368	okuyincwadi	-0.048783764
-4.4586368	ekulaya	-0.048783764
-4.4586368	uvele	-0.048783764
-4.2830343	oziphendulelako	-0.048783764
-4.2830343	ukuvela	-0.17655694
-3.594967	elithileko	-0.04878374
-4.2830343	ukukhulumisana	-0.048783764
-4.130475	ngendaba	-0.048783764
-4.4586368	Umuntu	-0.048783764
-4.4586368	angavuma	-0.048783764
-4.4586368	efunwako	-0.048783764
-4.4586368	ayiphikise	-0.048783764
-4.4586368	uyavuma	-0.048783764
-4.4586368	umarhastrada	-0.048783764
-4.4586368	uzakubuyekeza	-0.048783764
-4.4586368	Uzakwenza	-0.048783764
-4.2830343	uzakuqunta	-0.048783764
-4.4586368	kokubawa	-0.048783764
-4.4586368	okuthiwa	-0.048783764
-4.4586368	akavumelani	-0.048783764
-4.4586368	nokukhutjhwa	-0.048783764
-4.130475	komlayo	-0.048783764
-4.4586368	avele	-0.048783764
-4.4586368	nabofakazi	-0.048783764
-3.711987	babo	-0.14603667
-4.4586368	bazakulalelwa	-0.048783764
-4.4586368	ifumana	-0.048783764
-4.4586368	izakwenza	-0.048783764
-4.130475	wenani	-0.048783764
-4.4586368	libhadelwe	-0.048783764
-3.5464864	nayo	-0.114508554
-3.8726614	kuzakwenziwa	-0.095484026
-3.8726614	nini	-0.048783764
-3.9827116	njani	-0.107988186
-4.4586368	ibhadelwe	-0.048783764
-3.7849357	ngenye	-0.17655694
-4.2830343	yeendlela	-0.048783764
-3.9827116	ezilandelako	-0.23660932
-4.4586368	E	-0.048783764
-4.130475	lakamarhastrada	-0.12966344
-3.5464864	wendawo	-0.2107328
-2.8028283	e	-0.21766408
-4.4586368	elenzelwe	-0.048783764
-4.4586368	lomnqopho	-0.048783764
-3.711987	yebhanga	-0.048783764
-4.4586368	society	-0.048783764
-4.4586368	ekhonjwe	-0.048783764
-3.5464864	mumuntu	-0.048783764
-4.4586368	Bunqopha	-0.048783764
-4.2830343	emuntwini	-0.048783764
-4.2830343	afumane	-0.048783764
-4.4586368	Ngokusebenzisa	-0.048783764
-4.4586368	obeka	-0.048783764
-4.4586368	umqatjhi	-0.048783764
-4.2830343	nguye	-0.048783764
-4.4586368	ngokudoswa	-0.048783764
-3.8726614	kwemali	-0.048783764
-4.4586368	emrholweni	-0.048783764
-3.6495473	womsebenzi	-0.071506515
-4.130475	ngokukhambisana	-0.048783764
-4.130475	nomThetho	-0.12966344
-4.2830343	weSondlo	-0.048783764
-4.130475	Iforomo	-0.048783764
-4.2830343	lizaliswe	-0.048783764
-3.6495473	ingasi	-0.0873435
-4.4586368	nakungasi	-0.048783764
-4.4586368	asizukutjhejwa	-0.048783764
-4.2830343	ufunde	-0.048783764
-4.4586368	umhlahlandlela	-0.048783764
-3.7849357	wesibawo	-0.0816209
-4.4586368	ukukurhelebha	-0.048783764
-4.2830343	ekambisweni	-0.048783764
-4.4586368	yelayisense	-0.048783764
-4.4586368	Esigabeni	-0.048783764
-4.4586368	somHlobo	-0.048783764
-4.2830343	wetlayendi	-0.048783764
-4.130475	qala	-0.048783764
-4.2830343	ibhoksana	-0.048783764
-4.4586368	loLetha	-0.048783764
-3.8726614	ngeNarheni	-0.0873435
-4.4586368	kokutlolisa	-0.048783764
-4.4586368	seMininingwana	-0.048783764
-4.4586368	yoLetha	-0.048783764
-4.130475	veza	-0.107988186
-3.7849357	igama	-0.10066373
-3.594967	lokwenza	-0.04878374
-3.6495473	lebhizinisi	-0.06939094
-4.4586368	lesitrada	-0.048783764
-3.6495473	nenomboro	-0.0741062
-4.2830343	yebhizinisi	-0.048783764
-4.4586368	yefluru	-0.048783764
-4.2830343	yomakho	-0.048783764
-4.4586368	lenziwa	-0.048783764
-4.4586368	isabhabhu	-0.048783764
-4.2830343	litholakala	-0.048783764
-4.2830343	idorobha	-0.048783764
-4.2830343	nekhowudu	-0.048783764
-4.2830343	yesitrada	-0.17655694
-4.2830343	yesabhabhu	-0.17655694
-4.4586368	ozakutlama	-0.048783764
-4.130475	nokuletha	-0.12966344
-3.3623269	kwa	-0.108074
-3.4632523	nokobana	-0.048783764
-4.4586368	uzakutlama	-0.048783764
-4.2830343	bewulethe	-0.048783764
-3.9827116	umsebenzeli	-0.048783764
-4.4586368	uzakuqatjhwa	-0.048783764
-4.4586368	Isigaba	-0.048783764
-4.4586368	seGunya	-0.048783764
-4.4586368	isiBawo	-0.048783764
-4.4586368	sizaliswe	-0.048783764
-4.4586368	nguSomabhizinisi	-0.048783764
-4.130475	oyi	-0.12966344
-4.4586368	proprietor	-0.048783764
-4.2830343	Mnqophisi	-0.048783764
-3.9827116	ma	-0.048783764
-4.4586368	liLunga	-0.048783764
-4.130475	ophethe	-0.048783764
-3.7849357	owenza	-0.27116606
-4.4586368	njengoletha	-0.048783764
-3.0388823	ngenarheni	-0.16227473
-4.2830343	Igama	-0.04878374
-4.4586368	lombawi	-0.048783764
-4.2830343	lokuzitlolisa	-0.048783764
-4.2830343	livezwe	-0.048783764
-3.9827116	kileli	-0.048783764
-4.4586368	ziko	-0.048783764
-4.4586368	Nakuvela	-0.048783764
-4.4586368	*	-0.048783764
-4.4586368	sula	-0.048783764
-2.9490643	lokho	-0.07658269
-3.8726614	okufaneleko	-0.048783764
-4.2830343	esigabeni	-0.048783764
-4.2830343	sesiFungo	-0.17655694
-3.9827116	okulandelako	-0.107988186
-4.2830343	nesibongo	-0.12966344
-4.2830343	somuntu	-0.048783764
-4.4586368	selayisense	-0.048783764
-3.9827116	bomuntu	-0.095484026
-4.4586368	umPhathi	-0.048783764
-4.4586368	uMnikazi	-0.048783764
-4.4586368	atlikitle	-0.048783764
-4.2830343	okutlikitlwe	-0.048783764
-4.4586368	kwatlikitlelwa	-0.048783764
-4.4586368	Zalisa	-0.048783764
-4.130475	bewulilethe	-0.048783764
-4.2830343	eliseduze	-0.095484026
-4.4586368	lomThelo	-0.048783764
-4.4586368	wePahla	-0.048783764
-3.8726614	wamambala	-0.048783764
-4.2830343	aqinisekisiweko	-0.0741062
-4.2830343	wokulandelako	-0.17655694
-3.2334096	imvumo	-0.15615699
-3.711987	yomNyango	-0.0816209
-4.2830343	wezokuRhwebelana	-0.17655694
-4.130475	nayifunekako	-0.12966344
-3.3060925	yokwenza	-0.27552137
-3.0248568	kwe	-0.09078558
-4.4586368	yokubuyiselwa	-0.048783764
-4.4586368	oyibhadeleko	-0.048783764
-4.2830343	607.04.10(02)	-0.17655694
-4.4586368	607.04.10(03)	-0.048783764
-4.4586368	607.04.10(09)	-0.048783764
-4.4586368	607.04.10(12)	-0.048783764
-3.7849357	iincwadi	-0.0741062
-4.4586368	zokuzazisa	-0.048783764
-4.4586368	besakhamuzi	-0.048783764
-3.5464864	seSewula	-0.8458652
-4.4586368	yamaphaspoti	-0.048783764
-4.130475	ongasi	-0.12966344
-4.130475	sisakhamuzi	-0.0873435
-4.2830343	aku	-0.048783764
-4.130475	corporation	-0.048783764
-2.6747296	-	-0.09518068
-3.0388823	boke	-0.2591936
-4.130475	abanqophisi	-0.107988186
-4.4586368	oPhetheko	-0.048783764
-4.4586368	noMnqophisi	-0.048783764
-4.2830343	weeMali	-0.17655694
-4.4586368	Umbawi	-0.048783764
-4.4586368	wesithathu	-0.048783764
-3.9827116	azalise	-0.44792518
-4.4586368	185	-0.048783764
-4.4586368	qalisisa	-0.048783764
-4.4586368	lokuBuyiselwa	-0.048783764
-4.4586368	semininingwana	-0.048783764
-4.4586368	yezokuRhwebelana	-0.048783764
-4.4586368	umHlobo	-0.048783764
-4.2830343	II	-0.048783764
-4.130475	uveze	-0.048783764
-4.4586368	yesitolo	-0.048783764
-3.9827116	esifuna	-0.048783764
-4.4586368	ukubuyiselwa	-0.048783764
-3.9827116	yomthelo	-0.048783764
-3.9827116	okwenziwa	-0.048783764
-4.2830343	itholakala	-0.048783764
-3.8726614	ikhowudu	-0.048783764
-4.4586368	Proprietor	-0.048783764
-4.2830343	nakenza	-0.17655694
-3.6495473	sokutloliswa	-0.07935282
-4.4586368	njengomsebenzisi	-0.048783764
-4.4586368	wokubuyiselwa	-0.048783764
-4.4586368	lokutloliswa	-0.048783764
-4.4586368	nakuvela	-0.048783764
-4.4586368	yeSitolo	-0.048783764
-4.4586368	esiBuyiselwa	-0.048783764
-4.2830343	iMali	-0.048783764
-3.9827116	ihlathululo	-0.048783764
-4.2830343	yepahla	-0.048783764
-4.4586368	ezakubekwa	-0.048783764
-4.2830343	esitolo	-0.17655694
-4.4586368	esibuyiselwa	-0.048783764
-4.130475	iinhloko	-0.048783764
-4.130475	zemali	-0.048783764
-3.9827116	ebhadelwako	-0.048783764
-3.8726614	wepahla	-0.048783764
-4.130475	elethwa	-0.12966344
-4.4586368	aBuyiswako	-0.048783764
-4.4586368	kwetjhejuli	-0.048783764
-4.4586368	yenomboro	-0.048783764
-3.9827116	5	-0.107988186
-3.7849357	6	-0.12246533
-4.4586368	yemikhiqizo	-0.048783764
-3.1909382	izinto	-0.07511028
-4.4586368	satlikitlelwa	-0.048783764
-4.4586368	alethe	-0.048783764
-4.2830343	Services	-0.048783764
-4.4586368	unamathisele	-0.048783764
-3.3934336	isitifikeyidi	-0.11133949
-4.4586368	kwebhizinisi	-0.048783764
-4.130475	mTlolisi	-0.12966344
-3.9827116	ngu	-0.048783764
-4.4586368	Supreme	-0.048783764
-3.2334096	be	-0.13493899
-3.594967	igunya	-0.048783764
-4.4586368	ngokufuneka	-0.048783764
-3.3060925	iindlela	-0.048783794
-4.4586368	iphasipoti	-0.048783764
-4.4586368	ongasimhlali	-0.048783764
-4.4586368	Corporation	-0.048783764
-3.9827116	Woke	-0.048783764
-3.8726614	amaLunga	-0.1919848
-4.2830343	Boke	-0.107988186
-4.4586368	nomNqophisi	-0.048783764
-4.4586368	iinonisi	-0.048783764
-4.130475	ezilethwa	-0.048783764
-4.2830343	ezenziwa	-0.048783764
-4.4586368	ezikhiqizwa	-0.048783764
-4.4586368	ezithengiswa	-0.048783764
-3.053376	eSewula	-1.3229865
-4.4586368	zitloliswe	-0.048783764
-4.130475	nomTlolisi	-0.095484026
-4.4586368	Registrar	-0.048783764
-3.7849357	Act	-0.16755451
-4.2830343	36	-0.048783764
-4.4586368	1947	-0.048783764
-3.1341298	kube	-0.06615626
-4.2830343	yikhampani	-0.048783764
-4.4586368	ongadoselwa	-0.048783764
-4.130475	yena	-0.048783764
-4.4586368	adosele	-0.048783764
-4.4586368	John	-0.048783764
-4.4586368	Peter	-0.048783764
-4.4586368	Citizen	-0.048783764
-4.4586368	T/A	-0.048783764
-4.4586368	Diepsloot	-0.048783764
-4.4586368	Stud	-0.048783764
-4.4586368	yangaphetjheya	-0.048783764
-4.4586368	ayikavunyelwa	-0.048783764
-4.2830343	ukuzitlolisa	-0.048783764
-4.4586368	Yikhampani	-0.048783764
-3.256312	yeSewula	-0.91330296
-4.4586368	isakhamuzi	-0.048783764
-4.130475	yangokomthetho	-0.048783764
-4.4586368	engenza	-0.048783764
-4.4586368	kokudla	-0.048783764
-4.4586368	kweenonisi	-0.048783764
-4.4586368	Iinonisi	-0.048783764
-4.2830343	zesiQhema	-0.048783764
-3.6495473	1	-0.20473596
-4.2830343	ngilezo	-0.048783764
-4.4586368	ezinenayithrojini	-0.048783764
-4.4586368	ifosforasi	-0.048783764
-4.4586368	iphotheziyamu	-0.048783764
-4.2830343	njengesinongo	-0.17655694
-3.7849357	esikhulu	-0.048783764
-4.4586368	zaziwa	-0.048783764
-4.4586368	ngeenonisi	-0.048783764
-3.256312	ze	-0.10441017
-4.4586368	Ukutloliswa	-0.048783764
-3.1711648	ngesikhathi	-0.08873623
-4.4586368	isibumbeko	-0.048783764
-4.4586368	sesinonisi	-0.048783764
-4.4586368	esithintentako	-0.048783764
-3.711987	akukafaneli	-0.11714548
-4.4586368	sihluke	-0.048783764
-4.4586368	esibumbekweni	-0.048783764
-4.2830343	esitlolisiweko	-0.17655694
-3.3934336	imininingwana	-0.04878374
-3.8726614	nehlelo	-0.048783764
-4.4586368	lamagama	-0.048783764
-4.4586368	aselebuleni	-0.048783764
-4.4586368	esimumathini	-0.048783764
-4.4586368	atjhugululwa	-0.048783764
-4.2830343	kwemvumo	-0.048783764
-4.4586368	yangaphambi	-0.048783764
-3.5464864	ebuya	-0.124253675
-3.8726614	emTlolisini	-0.095484026
-4.4586368	obubekwe	-0.048783764
-4.4586368	kukhanjiswana	-0.048783764
-4.130475	ukutloliswa	-0.048783764
-4.4586368	kwadluliswa	-0.048783764
-4.4586368	ubukhulu	-0.048783764
-4.4586368	besikhwama	-0.048783764
-4.4586368	besimumathi	-0.048783764
-4.4586368	batjhugululwa	-0.048783764
-4.4586368	yangaphambilini	-0.048783764
-3.8726614	kwefuyo	-0.048783764
-4.4586368	neenonisi	-0.048783764
-4.130475	sibunjwa	-0.048783764
-4.2830343	yincwadi	-0.048783764
-3.9827116	ephekelela	-0.44792518
-4.2830343	emnikazini	-0.12966344
-4.2830343	wokutloliswa	-0.048783764
-4.130475	umjameli	-0.107988186
-4.2830343	okhonjiweko	-0.048783764
-4.4586368	Incwadi	-0.04878374
-4.2830343	ifake	-0.048783764
-3.9827116	lomkhiqizo	-0.048783764
-3.4632523	inomboro	-0.112237595
-3.7849357	yokutloliswa	-0.0741062
-3.711987	umkhiqizo	-0.048783764
-3.4269414	sele	-0.048783794
-4.4586368	utlolisiwe	-0.048783764
-3.7849357	ibanga	-0.048783764
-4.4586368	kusibawo	-0.048783764
-4.2830343	esitjha	-0.048783764
-4.4586368	setjhuguluko	-0.048783764
-4.130475	komkhiqizo	-0.095484026
-4.4586368	osukela	-0.048783764
-4.2830343	zemvumo	-0.048783764
-4.4586368	ziyafuneka	-0.048783764
-4.4586368	osuselwa	-0.048783764
-4.2830343	yokusebenzisa	-0.048783764
-4.2830343	ilebula	-0.048783764
-4.4586368	yenye	-0.048783764
-3.9827116	yesibawo	-0.1919848
-4.2830343	amatjhege	-0.048783764
-4.4586368	athunyelwa	-0.048783764
-4.4586368	ngokwehlukana	-0.048783764
-3.7849357	nesibawo	-0.16459468
-4.4586368	aphekelelwe	-0.048783764
-4.4586368	ehlathululako	-0.048783764
-4.2830343	namaposoda	-0.12966344
-4.4586368	enziwe	-0.048783764
-3.1522527	u	-0.08262531
-4.2830343	Agriculture	-0.095484026
-4.4586368	lendlela	-0.048783764
-3.8726614	yokwenziwa	-0.0873435
-4.2830343	kwesinonisi	-0.048783764
-4.4586368	Letha	-0.048783764
-4.4586368	eembaweni	-0.048783764
-3.8726614	ezitjha	-0.048783764
-4.2830343	nematjhugulukweni	-0.17655694
-4.130475	ekutlolisweni	-0.048783764
-3.9827116	ukutjhugululwa	-0.048783764
-4.4586368	kwendlela	-0.048783764
-3.8726614	ngeduplikheyithi	-0.0873435
-4.4586368	zalise	-0.048783764
-3.1522527	ngokuzeleko	-0.26222748
-4.4586368	kokukhuluma	-0.048783764
-4.4586368	ngeembawo	-0.048783764
-3.7849357	ezidlulileko	-0.2315415
-4.130475	iinomboro	-0.048783764
-3.7849357	imikhiqizo	-0.0741062
-3.711987	ubuncani	-0.47964737
-4.2830343	bakhona	-0.048783764
-4.2830343	yinye	-0.17655694
-4.4586368	yamaforomo	-0.048783764
-3.2804892	ibe	-0.12225275
-4.4586368	netlikitlo	-0.048783764
-4.130475	lamambala	-0.048783764
-3.9827116	yikhophi	-0.23660932
-3.9827116	okhonjwe	-0.107988186
-3.5464864	ngokomthetho	-0.09843464
-4.2830343	okwenyulwa	-0.048783764
-4.4586368	azakuthintana	-0.048783764
-4.2830343	nekhampani	-0.048783764
-4.2830343	ngaye	-0.048783764
-3.9827116	weembawo	-0.048783764
-4.2830343	isetjenziswe	-0.048783764
-3.2334096	njengombana	-0.07231162
-4.130475	kubekwe	-0.048783764
-3.9827116	esitifikeyidini	-0.14781787
-3.9827116	itjhuguluko	-0.107988186
-4.2830343	egameni	-0.048783764
-4.4586368	lilincani	-0.048783764
-3.8726614	kangangani	-0.14781787
-4.4586368	lizakuthathwa	-0.048783764
-4.4586368	njengetjhuguluko	-0.048783764
-4.4586368	lezokuphatha	-0.048783764
-4.4586368	Ukusa	-0.048783764
-4.4586368	ebaYelelisini	-0.048783764
-4.2830343	besiThekniki	-0.17655694
-4.4586368	kuzakuriyadisa	-0.048783764
-4.4586368	Imitlamo	-0.048783764
-4.4586368	yamalebula	-0.048783764
-4.4586368	nesiBhuru	-0.048783764
-4.4586368	Akutlhogeki	-0.048783764
-4.2830343	amalebula	-0.048783764
-4.4586368	agadangiswe	-0.048783764
-4.130475	ngamalimi	-0.048783764
-3.8726614	womabili	-0.048783764
-4.4586368	afundeke	-0.048783764
-3.5028784	abe	-0.06763584
-4.2830343	ungafaki	-0.048783764
-4.2830343	zokuyelelisa	-0.048783764
-3.116733	yoke	-0.070754595
-4.130475	elebuleni	-0.048783764
-4.4586368	ikhambisane	-0.048783764
-4.2830343	naleyo	-0.048783764
-4.4586368	eseforomini	-0.048783764
-3.3623269	ngaphakathi	-0.091477305
-3.8726614	kwenarha	-0.095484026
-3.9827116	umThetho	-0.048783764
-4.4586368	person	-0.048783764
-3.9827116	okungaba	-0.048783764
-4.4586368	engadoselwa	-0.048783764
-4.4586368	idosele	-0.048783764
-4.2830343	ekhaya	-0.048783764
-3.8726614	2	-0.048783764
-4.4586368	ezinokuphilako	-0.048783764
-3.711987	okukhulu	-0.048783764
-4.4586368	nokuncani	-0.048783764
-4.4586368	njengeenonisi	-0.048783764
-4.4586368	ukubunjwa	-0.048783764
-4.4586368	esithintekako	-0.048783764
-4.4586368	kwahluka	-0.048783764
-4.4586368	esibumbini	-0.048783764
-4.2830343	namagama	-0.048783764
-4.4586368	yatjhugululwa	-0.048783764
-3.8726614	etloliweko	-0.0741062
-4.130475	efunyenwe	-0.048783764
-3.9827116	ngaphambilini	-0.095484026
-4.4586368	yomTlolisi	-0.048783764
-3.8726614	sokutlolisa	-0.095484026
-4.4586368	buyalandelwa	-0.048783764
-4.4586368	Umgodla	-0.048783764
-4.2830343	isimumathi	-0.048783764
-4.4586368	satjhugululwa	-0.048783764
-4.4586368	yangaphambili	-0.048783764
-4.4586368	sibumba	-0.048783764
-3.6495473	incwadi	-0.071506515
-4.2830343	wokutlolisa	-0.048783764
-4.4586368	okhethiweko	-0.048783764
-4.4586368	sokutjhugululwa	-0.048783764
-4.2830343	okususelwe	-0.17655694
-4.4586368	esinonisini	-0.048783764
-4.2830343	esikhona	-0.048783764
-4.4586368	daugther	-0.048783764
-4.2830343	registration	-0.048783764
-4.4586368	zokuvuma	-0.048783764
-3.9827116	iyafuneka	-0.107988186
-4.4586368	wenye	-0.048783764
-4.4586368	ngokwahlukana	-0.048783764
-4.4586368	oda	-0.048783764
-4.4586368	General	-0.048783764
-3.7849357	wezokuLima	-0.16459468
-4.4586368	sokucozulula	-0.048783764
-4.4586368	ledatha	-0.048783764
-4.4586368	Amaforomo	-0.048783764
-4.4586368	alethwe	-0.048783764
-4.2830343	nakwenziwa	-0.048783764
-3.5028784	iimbawo	-0.048783764
-4.4586368	kwesibumbeko	-0.048783764
-4.4586368	azaliswe	-0.048783764
-4.4586368	kokuqala	-0.048783764
-3.5464864	eminye	-0.071506515
-4.4586368	Enye	-0.048783764
-4.2830343	atlikitlwe	-0.048783764
-4.130475	wekhampani	-0.048783764
-4.2830343	othintana	-0.17655694
-4.2830343	kutjhiwo	-0.048783764
-4.4586368	lingaba	-0.048783764
-4.4586368	lincani	-0.048783764
-4.4586368	asiwe	-0.048783764
-4.2830343	Ukuletha	-0.048783764
-4.2830343	kubaYelelisi	-0.048783764
-4.4586368	bezobuThekniki	-0.048783764
-4.4586368	kuzakubambezela	-0.048783764
-4.4586368	Amalebula	-0.048783764
-4.4586368	wemitlamo	-0.048783764
-2.8650177	ukobana	-0.056226686
-4.4586368	agandelelwe	-0.048783764
-4.4586368	ukusatjalaliswa	-0.048783764
-4.2830343	nomkhiqizo	-0.048783764
-3.3623269	ngawo	-0.12465684
-4.4586368	kuyeleliso	-0.048783764
-4.4586368	eselebuleni	-0.048783764
-4.4586368	ikhambelane	-0.048783764
-4.130475	nalokho	-0.048783764
-4.4586368	okuseforomeni	-0.048783764
-4.4586368	Amalungelo	-0.048783764
-4.130475	wabazalanisi	-0.12966344
-4.4586368	beentjalo	-0.048783764
-4.4586368	anikelwa	-0.048783764
-3.1522527	kiyo	-0.37922877
-4.2830343	yeentjalo	-0.048783764
-4.130475	evezwe	-0.048783764
-3.8726614	komThetho	-0.0741062
-3.8726614	wamaLungelo	-0.14781787
-4.4586368	womZalanisi	-0.048783764
-4.4586368	weenTjalo	-0.048783764
-4.4586368	Pheze	-0.048783764
-4.130475	mihlobo	-0.048783764
-3.4632523	ema	-0.068474375
-4.2830343	efakwe	-0.048783764
-4.4586368	erhemeni	-0.048783764
-4.4586368	leentjalo	-0.048783764
-4.4586368	Ithebula	-0.048783764
-4.4586368	okunganikelwa	-0.048783764
-3.2804892	amalungelo	-0.09247548
-4.4586368	UmTlolisi	-0.048783764
-4.4586368	wabaZalanisi	-0.048783764
-4.4586368	beenTjalo	-0.048783764
-4.4586368	angatjheja	-0.048783764
-3.6495473	umhlobo	-0.071506515
-4.4586368	njengomutjha	-0.048783764
-4.4586368	ngamalungelo	-0.048783764
-4.4586368	Into	-0.048783764
-4.2830343	ezalisa	-0.17655694
-3.9827116	ngokwemvelo	-0.0873435
-4.4586368	yalowo	-0.048783764
-4.130475	mhlobo	-0.048783764
-4.4586368	ayikathengiswa	-0.048783764
-3.7849357	ukudlula	-0.048783764
-3.1341298	umnyaka	-0.31190422
-4.4586368	Ebujameni	-0.048783764
-4.4586368	bomhlobo	-0.048783764
-4.4586368	womuthi	-0.048783764
-4.4586368	umuthi	-0.048783764
-4.4586368	okhula	-0.048783764
-4.4586368	ngokukhwela	-0.048783764
-3.711987	into	-0.048783764
-4.4586368	ezalisako	-0.048783764
-4.2830343	ebe	-0.048783764
-4.4586368	ingatholakali	-0.048783764
-3.5464864	kwenye	-0.14105956
-2.905011	inarha	-0.17375198
-4.4586368	ekurhwebelaneni	-0.048783764
-3.256312	emphakathini	-0.1579005
-3.3333	iminyaka	-0.23111558
-4.2830343	edlula	-0.048783764
-4.2830343	esithandathu	-0.048783764
-4.4586368	besitjalo	-0.048783764
-4.4586368	kwemine	-0.048783764
-4.130475	neemfuno	-0.048783764
-4.4586368	ukwehluka	-0.048783764
-4.4586368	ukufana	-0.048783764
-3.8726614	nokunzinza	-0.048783764
-4.4586368	ihlukaniswe	-0.048783764
-3.8726614	ngokucacileko	-0.048783764
-4.4586368	kweminye	-0.048783764
-3.8726614	efanako	-0.095484026
-4.4586368	ifane	-0.048783764
-4.130475	okutjho	-0.095484026
-4.2830343	iintjalo	-0.048783764
-4.4586368	yokutjala	-0.048783764
-4.4586368	ziqaleke	-0.048783764
-4.2830343	zifana	-0.048783764
-4.4586368	ezinesibumbeko	-0.048783764
-4.4586368	esifanako	-0.048783764
-4.4586368	zinzinze	-0.048783764
-4.4586368	zomhlobo	-0.048783764
-3.5028784	othileko	-0.20961551
-4.4586368	kokutjala	-0.048783764
-4.4586368	kanengana	-0.048783764
-4.4586368	zibonakale	-0.048783764
-4.4586368	njengeentjalo	-0.048783764
-3.9827116	zokuthoma	-0.107988186
-4.130475	zibe	-0.048783764
-4.130475	negama	-0.048783764
-4.4586368	elamukelekako	-0.048783764
-4.4586368	Funda	-0.048783764
-4.2830343	iThebula	-0.048783764
-4.2830343	yomThetho	-0.048783764
-4.2830343	wesitjalo	-0.048783764
-4.4586368	walomhlobo	-0.048783764
-4.2830343	okufuneka	-0.048783764
-4.2830343	uvikelwe	-0.048783764
-4.4586368	uveziwe	-0.048783764
-3.5464864	na	-0.114508554
-4.4586368	awukho	-0.048783764
-4.4586368	ethebuleni	-0.048783764
-4.4586368	sokuvezwa	-0.048783764
-4.2830343	nebanga	-0.048783764
-3.8726614	ngomtlolo	-0.0873435
-4.4586368	usethebuleni	-0.048783764
-4.4586368	kulethwe	-0.048783764
-4.4586368	elizaliswe	-0.048783764
-4.2830343	iphephamibuzo	-0.048783764
-4.2830343	lesithekhniki	-0.048783764
-4.4586368	ebekiweko	-0.048783764
-3.711987	nemali	-0.06939094
-3.4269414	yokuhlola	-0.091477305
-4.2830343	imbewu	-0.048783764
-4.4586368	isigunyazo	-0.048783764
-3.7849357	esibuya	-0.048783764
-4.2830343	kumnikazi	-0.048783764
-4.4586368	awukazalanisi	-0.048783764
-4.4586368	wakhetha	-0.048783764
-4.4586368	wathuthukisa	-0.048783764
-4.4586368	Veza	-0.048783764
-4.4586368	ephepheni	-0.048783764
-4.4586368	uzakuhlolwa	-0.048783764
-4.2830343	ngokumadaniswa	-0.048783764
-4.4586368	namuphi	-0.048783764
-4.4586368	owaziwako	-0.048783764
-4.4586368	kuzakufunyanwa	-0.048783764
-4.130475	umehluko	-0.12966344
-4.4586368	Ungenza	-0.048783764
-4.4586368	sokuvikelwa	-0.048783764
-3.8726614	kwesikhatjhana	-0.095484026
-4.4586368	komhlobo	-0.048783764
-3.5028784	kutjho	-0.24740408
-3.0388823	soke	-0.08851064
-4.4586368	sokulinganiswa	-0.048783764
-4.2830343	unikele	-0.048783764
-3.6495473	isibopho	-0.04878374
-3.8726614	sokobana	-0.048783764
-4.4586368	wathengisa	-0.048783764
-4.2830343	kweminqopho	-0.048783764
-4.4586368	yokwandisa	-0.048783764
-3.2334096	ukuhlola	-0.057730652
-4.4586368	yokuzalanisa	-0.048783764
-4.4586368	yomhlobo	-0.048783764
-4.2830343	okukhulunywa	-0.048783764
-3.8726614	bekufike	-0.095484026
-3.1522527	koke	-0.116616406
-4.4586368	kuqedwa	-0.048783764
-4.2830343	womzalanisi	-0.048783764
-4.4586368	weentjalo	-0.048783764
-4.4586368	Ukuvikelwa	-0.048783764
-4.2830343	kuphakanyiswa	-0.048783764
-4.4586368	eentjalweni	-0.048783764
-4.2830343	esidlula	-0.17655694
-4.4586368	Kunamalanga	-0.048783764
-4.4586368	abekiweko	-0.048783764
-4.4586368	nokuzizalela	-0.048783764
-4.2830343	ilethwe	-0.048783764
-3.9827116	kumTlolisi	-0.107988186
-4.4586368	Amalanga	-0.048783764
-4.130475	ubunengi	-0.048783764
-4.2830343	bezinto	-0.048783764
-4.4586368	zokuzizalela	-0.048783764
-4.4586368	zithunyelwe	-0.048783764
-3.9827116	nalapho	-0.048783764
-4.4586368	zilethwe	-0.048783764
-4.4586368	zitholakala	-0.048783764
-4.2830343	ngesibawo	-0.048783764
-3.9827116	irhemo	-0.048783764
-4.2830343	lemihlobo	-0.048783764
-4.4586368	kilowo	-0.048783764
-4.4586368	owenzelwa	-0.048783764
-4.4586368	samalungelo	-0.048783764
-4.4586368	Koke	-0.048783764
-4.4586368	okulethwa	-0.048783764
-4.4586368	okukhiqizwa	-0.048783764
-4.4586368	okuthengiswa	-0.048783764
-4.2830343	kutloliswe	-0.048783764
-4.4586368	Ukudla	-0.048783764
-4.4586368	akufaki	-0.048783764
-4.4586368	iinhlanga	-0.048783764
-4.4586368	ihoyi	-0.048783764
-4.4586368	engakagaywa	-0.048783764
-4.4586368	ifurusibijwa	-0.048783764
-4.4586368	ithoro	-0.048783764
-3.7849357	okhunye	-0.0873435
-3.6495473	nokhunye	-0.10489214
-4.4586368	umlimi	-0.048783764
-4.4586368	akulingiselela	-0.048783764
-4.4586368	ukukusebenzisa	-0.048783764
-4.4586368	Bawa	-0.048783764
-4.2830343	imihlahlandlela	-0.048783764
-4.2830343	ngeemfuno	-0.048783764
-4.2830343	zokudla	-0.048783764
-4.4586368	Yincwadi	-0.048783764
-4.4586368	sisitjha	-0.048783764
-4.4586368	eliselebuleni	-0.048783764
-4.4586368	Amatjhege	-0.048783764
-4.130475	Director	-0.12966344
-4.2830343	namatjhuguluko	-0.048783764
-4.2830343	kwetjhuguluko	-0.048783764
-4.4586368	namatlikitlo	-0.048783764
-4.130475	ingaba	-0.048783764
-4.4586368	okhethwe	-0.048783764
-4.2830343	kunyulwa	-0.17655694
-4.4586368	Ukunikela	-0.048783764
-4.4586368	Ukuthiya	-0.048783764
-3.711987	iimfesi	-0.0816209
-4.2830343	wokuzithabisa	-0.048783764
-4.2830343	sisenzo	-0.17655694
-4.4586368	esikhambelana	-0.048783764
-4.4586368	neemfesi	-0.048783764
-4.2830343	esifana	-0.048783764
-3.5464864	ngeminqopho	-0.09102486
-4.4586368	yokuzithabisa	-0.048783764
-4.4586368	eziphila	-0.048783764
-4.2830343	ngemanzini	-0.048783764
-3.7849357	wenze	-0.27116606
-4.130475	semvumo	-0.048783764
-3.4632523	yokuletha	-0.7137306
-4.4586368	sokuzithabisa	-0.048783764
-4.2830343	nguNgqongqotjhe	-0.048783764
-3.594967	weeNdaba	-0.42295402
-4.4586368	zeBhoduluko	-0.048783764
-4.4586368	nezokuVakatjha	-0.048783764
-4.2830343	ngabasemagunyeni	-0.048783764
-4.130475	abavunyelweko	-0.048783764
-4.4586368	Iimfesi	-0.048783764
-3.2334096	kufuze	-0.048783764
-4.4586368	zingathengiswa	-0.048783764
-3.1909382	kodwana	-0.070397064
-4.4586368	zizokudliwa	-0.048783764
-4.4586368	zisetjenziswe	-0.048783764
-3.6495473	nguwe	-0.13262075
-4.4586368	Akunamuntu	-0.048783764
-4.4586368	ozakuletha	-0.048783764
-4.130475	zelwandle	-0.048783764
-3.9827116	ekhona	-0.048783764
-4.130475	nayiphelako	-0.12966344
-4.4586368	Ukubhalelwa	-0.048783764
-3.9827116	kukhambisana	-0.048783764
-4.4586368	bemvumo	-0.048783764
-3.8726614	nomphumela	-0.048783764
-4.4586368	wokujanyiswa	-0.048783764
-4.4586368	wokusulwa	-0.048783764
-3.5028784	kwayo	-0.102840275
-4.4586368	TJHEJA	-0.048783764
-4.2830343	Imvumo	-0.107988186
-4.130475	ayifaki	-0.32298645
-4.2830343	ezilawulwa	-0.048783764
-3.8726614	mNyango	-0.14781787
-4.4586368	Iimbawo	-0.048783764
-4.130475	eziphilako	-0.048783764
-3.9827116	elwandle	-0.107988186
-3.9827116	zenziwe	-0.048783764
-4.2830343	zinikelwe	-0.048783764
-4.4586368	Imibandela	-0.048783764
-4.4586368	yeqintelo	-0.048783764
-4.4586368	iyasebenza	-0.048783764
-4.4586368	Akunamihlobo	-0.048783764
-4.4586368	yeenlwanyana	-0.048783764
-4.130475	erhenyiswe	-0.048783764
-4.2830343	ezakulethwa	-0.17655694
-4.2830343	Nawufuna	-0.12966344
-4.4586368	elinabileko	-0.048783764
-4.2830343	International	-0.048783764
-4.2830343	Trade	-0.048783764
-4.2830343	in	-0.048783764
-4.4586368	Endangered	-0.048783764
-4.4586368	Species	-0.048783764
-4.4586368	CITES	-0.048783764
-4.2830343	vakatjhela	-0.048783764
-4.4586368	IimVumo	-0.048783764
-4.4586368	zokuLetha	-0.048783764
-4.2830343	ezikhutjhelwa	-0.048783764
-3.4269414	ukuletha	-0.088682406
-4.4586368	ozazisebenzisa	-0.048783764
-4.4586368	uzidle	-0.048783764
-4.4586368	zizakusebenza	-0.048783764
-4.4586368	sekhambo	-0.048783764
-4.4586368	lokuya	-0.048783764
-4.2830343	nokubuya	-0.048783764
-2.9490643	enarheni	-0.19033717
-4.4586368	Akunamfesi	-0.048783764
-4.4586368	ezizakulethwa	-0.048783764
-3.711987	afaneleko	-0.048783764
-4.4586368	uwalethe	-0.048783764
-3.4632523	emNyangweni	-0.24852137
-3.6495473	nelwazi	-0.06939094
-3.8726614	amalanga	-0.048783764
-4.4586368	wokusuka	-0.048783764
-3.8726614	lenarha	-0.048783764
-4.4586368	evakatjhelwako	-0.048783764
-4.4586368	yitjho	-0.048783764
-4.4586368	umkhawulo	-0.048783764
-4.4586368	enizakungena	-0.048783764
-4.4586368	nanibuyela	-0.048783764
-4.2830343	neenomboro	-0.048783764
-4.4586368	zefeksi	-0.048783764
-4.4586368	zizakulethwa	-0.048783764
-4.4586368	Zikghadzisiwe	-0.048783764
-4.4586368	Ziqandiswe	-0.048783764
-4.4586368	zizitjha	-0.048783764
-4.2830343	eqinisekisiweko	-0.048783764
-4.4586368	yencwadi	-0.048783764
-3.7849357	yokuzazisa	-0.107988186
-4.4586368	yomunye	-0.048783764
-4.130475	bokubhadela	-0.048783764
-4.130475	isilibhu	-0.048783764
-4.2830343	sebhanga	-0.048783764
-4.2830343	semali	-0.048783764
-3.9827116	eyi	-0.048783764
-3.711987	ngamunye	-0.048783764
-4.4586368	akunamafeksi	-0.048783764
-4.4586368	azakwamukelwa	-0.048783764
-4.130475	angalethwa	-0.12966344
-4.4586368	ngesandla	-0.048783764
-4.2830343	ngeposo	-0.048783764
-4.4586368	ngefeksi	-0.048783764
-4.2830343	utjheje	-0.048783764
-4.2830343	iimveke	-0.048783764
-3.5464864	ezimbili	-0.071506515
-4.4586368	kokukhamba	-0.048783764
-4.130475	ukuvumela	-0.048783764
-4.4586368	ukusetjenzwa	-0.048783764
-4.130475	kwesibawo	-0.048783764
-4.4586368	Akunamvumo	-0.048783764
-4.4586368	ezokufuneka	-0.048783764
-4.130475	nawufuna	-0.048783764
-4.130475	kokuthiya	-0.048783764
-4.4586368	sibawa	-0.048783764
-4.4586368	uqinisekise	-0.048783764
-4.4586368	uphethe	-0.048783764
-4.4586368	yokudla	-0.048783764
-4.4586368	iqintelo	-0.048783764
-4.4586368	lomthwalo	-0.048783764
-4.4586368	lingathuthwa	-0.048783764
-4.4586368	sekhetjhe	-0.048783764
-4.4586368	ekudleni	-0.048783764
-4.4586368	okuthengiweko	-0.048783764
-3.7849357	wokwenza	-0.0816209
-4.2830343	nokuthiya	-0.048783764
-4.4586368	nokuthumela	-0.048783764
-4.4586368	yokurhwebelana	-0.048783764
-4.4586368	Ukuthumela	-0.048783764
-4.4586368	okuphila	-0.048783764
-3.6495473	eenarheni	-0.12246533
-4.130475	kwemikhawulo	-0.048783764
-4.2830343	yeRiphabliki	-0.17655694
-3.711987	yokuthumela	-0.69096327
-4.4586368	ovunyelwe	-0.048783764
-4.130475	ukuthumela	-0.048783764
-4.4586368	nayiphela	-0.048783764
-3.9827116	kwenyanga	-0.048783764
-3.9827116	ezintathu	-0.048783764
-3.9827116	etjha	-0.048783764
-4.2830343	zeemfesi	-0.17655694
-4.4586368	ezingatholakali	-0.048783764
-4.4586368	Imihlobo	-0.048783764
-4.4586368	mHlangano	-0.048783764
-4.4586368	weenTjhabatjhaba	-0.048783764
-4.4586368	wokuRhwebelana	-0.048783764
-4.4586368	ngeenLwanyana	-0.048783764
-4.4586368	eziseNgozini	-0.048783764
-4.4586368	yokuTjhabalala	-0.048783764
-4.4586368	ImVumo	-0.048783764
-4.4586368	yokuThumela	-0.048783764
-4.2830343	ngaPhandle	-0.048783764
-4.2830343	ekhutjhelwa	-0.17655694
-4.4586368	iphekelelwe	-0.048783764
-4.4586368	sitifikeyidi	-0.048783764
-3.8726614	umthwalo	-0.0816209
-4.4586368	zokuThumela	-0.048783764
-4.2830343	tuna	-0.17655694
-4.4586368	bluefish	-0.048783764
-4.2830343	toothfish	-0.048783764
-4.4586368	ziphekelelwe	-0.048783764
-4.2830343	mtlolo	-0.048783764
-4.4586368	weembalo	-0.048783764
-4.4586368	wokubanjwa	-0.048783764
-4.130475	ofaneleko	-0.048783764
-4.2830343	yeembalo	-0.17655694
-4.2830343	zokubanjwa	-0.048783764
-4.4586368	iGatja	-0.048783764
-4.2830343	Marine	-0.048783764
-3.3060925	and	-0.14041601
-4.4586368	Coastal	-0.048783764
-3.9827116	Management	-0.07737791
-4.130475	Directorate	-0.048783764
-4.4586368	Offshore	-0.048783764
-4.4586368	Seas	-0.048783764
-4.130475	Fisheries	-0.12966344
-4.4586368	Fumana	-0.048783764
-4.2830343	sokuthumela	-0.17655694
-4.4586368	neforomo	-0.048783764
-3.8726614	ngenzasi	-0.1919848
-4.130475	legatja	-0.107988186
-3.8726614	lomNyango	-0.33351937
-4.4586368	likhuphe	-0.048783764
-3.9827116	isiqiniseko	-0.44792518
-4.4586368	wanelisa	-0.048783764
-3.7849357	iimfuno	-0.048783764
-4.4586368	zesibawo	-0.048783764
-4.4586368	Nikela	-0.048783764
-4.2830343	womakho	-0.048783764
-4.4586368	woletha	-0.048783764
-4.4586368	okuthunyelwa	-0.048783764
-4.4586368	ajayelekileko	-0.048783764
-4.4586368	newamambala	-0.048783764
-4.4586368	wemihlobo	-0.048783764
-4.2830343	ezakuthunyelwa	-0.17655694
-4.4586368	ubungako	-0.048783764
-4.2830343	bemihlobo	-0.048783764
-4.4586368	athinteka	-0.048783764
-3.6495473	isivumelwano	-0.048783764
-4.4586368	kwababili	-0.048783764
-4.4586368	sinanyathiselwe	-0.048783764
-4.4586368	namakhophi	-0.048783764
-3.8726614	wama	-0.048783764
-4.4586368	wabatlikitli	-0.048783764
-4.130475	wemitlolo	-0.048783764
-3.9827116	anikelwe	-0.048783764
-4.4586368	ethunyelwa	-0.048783764
-3.3060925	edlulileko	-0.24374406
-4.4586368	wemvumo	-0.048783764
-4.4586368	akasi	-0.048783764
-3.8726614	mnikazi	-0.33351937
-4.4586368	welungelo	-0.048783764
-4.2830343	lokuthiya	-0.048783764
-4.4586368	nikela	-0.048783764
-4.130475	ngemitlolo	-0.048783764
-4.4586368	bokunikela	-0.048783764
-4.4586368	wabanikeli	-0.048783764
-4.4586368	beemfesi	-0.048783764
-4.4586368	ezizakuthunyelwa	-0.048783764
-4.4586368	yokuzitlolisa	-0.048783764
-3.9827116	iimvumo	-0.048783764
-3.9827116	ezisebenzako	-0.048783764
-4.4586368	zokuthumela	-0.048783764
-4.4586368	izaziso	-0.048783764
-4.4586368	zeemvumo	-0.048783764
-4.4586368	sokuVunyelwa	-0.048783764
-4.4586368	somThelo	-0.048783764
-4.4586368	esivunywe	-0.048783764
-4.4586368	besakhutjhwa	-0.048783764
-4.4586368	Yazisa	-0.048783764
-4.2830343	igatja	-0.048783764
-4.4586368	Bureau	-0.048783764
-4.4586368	Standards	-0.048783764
-4.4586368	ngokuthunyelwa	-0.048783764
-4.4586368	ukuwuthumela	-0.048783764
-4.2830343	awusi	-0.048783764
-4.4586368	mutjha	-0.048783764
-4.4586368	awukafaneli	-0.048783764
-4.130475	ukudliwa	-0.12966344
-3.4632523	babantu	-0.08425274
-4.2830343	ifesi	-0.048783764
-4.2830343	yitjha	-0.17655694
-4.4586368	ilungele	-0.048783764
-4.4586368	yazisa	-0.048783764
-4.4586368	yokulayitjhela	-0.048783764
-4.4586368	nokukhweza	-0.048783764
-4.2830343	Health	-0.048783764
-4.4586368	Imali	-0.048783764
-4.130475	efaka	-0.12966344
-4.4586368	utlikitle	-0.048783764
-4.4586368	bewupose	-0.048783764
-4.4586368	ulithumele	-0.048783764
-4.2830343	Office	-0.12966344
-4.130475	zamambala	-0.048783764
-4.4586368	ziposwe	-0.048783764
-4.130475	ukubhalelwa	-0.048783764
-4.2830343	kukwenza	-0.17655694
-4.130475	kuzakwenza	-0.048783764
-4.4586368	ungayitholi	-0.048783764
-3.9827116	izenzo	-0.107988186
-4.2830343	okuyi	-0.048783764
-4.2830343	Lemvumo	-0.17655694
-4.4586368	Amaqintelo	-0.048783764
-4.2830343	wokuletha	-0.048783764
-4.2830343	ayasebenza	-0.048783764
-4.4586368	lobster	-0.048783764
-4.2830343	nemihlobo	-0.048783764
-4.130475	ebekwe	-0.12966344
-4.4586368	emThethweni	-0.048783764
-4.4586368	wemiThombo	-0.048783764
-4.4586368	yangeLwandle	-0.048783764
-4.4586368	ePhilako	-0.048783764
-3.6495473	umthetho	-0.0741062
-3.9827116	18	-0.048783764
-4.2830343	The	-0.048783764
-4.4586368	Living	-0.048783764
-4.4586368	Resources	-0.048783764
-4.130475	1998	-0.12966344
-4.4586368	isiNgezelelo	-0.048783764
-4.4586368	4,5	-0.048783764
-4.4586368	izakusebenza	-0.048783764
-4.4586368	lokukhutjhwa	-0.048783764
-4.4586368	Ma	-0.048783764
-4.4586368	akghadzisiweko	-0.048783764
-4.2830343	iinquntu	-0.048783764
-4.4586368	zawo	-0.048783764
-4.4586368	anobudisi	-0.048783764
-4.4586368	obuyi	-0.048783764
-3.9827116	ngayinye	-0.07737791
-4.4586368	namatoni	-0.048783764
-4.4586368	angadluli	-0.048783764
-2.9853094	ngomnyaka	-0.4771471
-4.4586368	Akuna	-0.048783764
-4.4586368	ephilako	-0.048783764
-4.4586368	engalethwa	-0.048783764
-4.4586368	sokuletha	-0.048783764
-4.4586368	ngokuthumela	-0.048783764
-4.4586368	egatjeni	-0.048783764
-4.4586368	wabathumela	-0.048783764
-4.4586368	okusula	-0.048783764
-4.4586368	weemvumo	-0.048783764
-3.8726614	zokuletha	-0.1919848
-4.2830343	weenTifikeyidi	-0.048783764
-4.2830343	zokuVunyelwa	-0.048783764
-4.4586368	zomThelo	-0.048783764
-4.4586368	ezivunywe	-0.048783764
-4.4586368	bezakhutjhwa	-0.048783764
-4.4586368	ngomthwalo	-0.048783764
-4.2830343	olethwa	-0.048783764
-4.130475	elethwako	-0.048783764
-4.4586368	ayisi	-0.048783764
-4.4586368	ayikafaneli	-0.048783764
-4.4586368	Ungabawa	-0.048783764
-4.4586368	ayisaneli	-0.048783764
-4.4586368	awusakghoni	-0.048783764
-4.4586368	ukuyibhadela	-0.048783764
-4.4586368	iya	-0.048783764
-4.2830343	wezoBulungiswa	-0.048783764
-4.130475	nokuThuthukiswa	-0.32298645
-4.4586368	komThethosisekelo	-0.048783764
-4.4586368	umumuntu	-0.048783764
-4.2830343	ofumana	-0.048783764
-4.4586368	esesiyingini	-0.048783764
-4.130475	obhadela	-0.048783764
-4.2830343	ahlala	-0.048783764
-4.130475	sengeniso	-0.12966344
-3.6495473	nokusetjenziswa	-0.048783764
-3.8726614	kweemali	-0.095484026
-4.130475	esiphathisweni	-0.12966344
-4.4586368	awusayikghoni	-0.048783764
-4.2830343	esizeleko	-0.048783764
-4.4586368	esihlathulula	-0.048783764
-4.2830343	amabanga	-0.048783764
-4.4586368	umumamukeli	-0.048783764
-4.2830343	umbhadeli	-0.048783764
-4.2830343	wemali	-0.048783764
-4.4586368	Ikambiso	-0.048783764
-3.6495473	efana	-0.048783764
-4.2830343	nalokha	-0.048783764
-4.4586368	iyathonywa	-0.048783764
-4.4586368	izakulandelwa	-0.048783764
-4.4586368	Imithetho	-0.048783764
-4.4586368	Maintenance	-0.048783764
-4.4586368	99	-0.048783764
-4.2830343	UmThetho	-0.048783764
-4.4586368	nemiThetjhwana	-0.048783764
-4.4586368	Amazinga	-0.048783764
-4.4586368	Uzakuphathwa	-0.048783764
-4.130475	ngokulingana	-0.048783764
-4.4586368	ngobuntu	-0.048783764
-4.4586368	nangesithunzi	-0.048783764
-4.4586368	nehlonipho	-0.048783764
-4.4586368	sizakutjhejwa	-0.048783764
-3.9827116	ngokurhaba	-0.23660932
-4.4586368	okukghonekako	-0.048783764
-4.4586368	nakuhle	-0.048783764
-3.9827116	isinghonghoyilo	-0.048783764
-4.130475	ongaba	-0.048783764
-3.9827116	naso	-0.048783764
-3.1909382	ebantwini	-0.13493899
-3.9827116	abalandelako	-0.107988186
-4.4586368	kumPhenyi	-0.048783764
-4.4586368	weZondlo	-0.048783764
-4.2830343	esiPhathisweni	-0.048783764
-4.4586368	seSondlo	-0.048783764
-4.4586368	emPhathini	-0.048783764
-4.2830343	weKhotho	-0.048783764
-4.4586368	eHlokweni	-0.048783764
-4.4586368	yesiFunda	-0.048783764
-4.4586368	yobuLungiswa	-0.048783764
-4.4586368	Regional	-0.048783764
-4.4586368	Head	-0.048783764
-4.4586368	Justice	-0.048783764
-4.4586368	Constitutional	-0.048783764
-3.4632523	Development	-0.06763584
-4.4586368	neSentha	-0.048783764
-4.4586368	yokuSebenza	-0.048783764
-4.2830343	kuHle	-0.048783764
-4.4586368	Excellence	-0.048783764
-4.4586368	ePhrojekthini	-0.048783764
-4.4586368	yeSondlo	-0.048783764
-3.8726614	wesiTjhaba	-0.048783764
-4.4586368	wobuLungiswa	-0.048783764
-4.130475	nobuNqophisi	-0.12966344
-4.4586368	beeNdaba	-0.048783764
-4.4586368	zoBulili	-0.048783764
-4.4586368	Iindleko	-0.048783764
-4.4586368	Kuzakuba	-0.048783764
-4.2830343	ezincani	-0.048783764
-4.4586368	zaba	-0.048783764
-4.2830343	kwalokha	-0.048783764
-4.4586368	utjherifu	-0.048783764
-4.4586368	abawa	-0.048783764
-4.4586368	ukubhadelelwa	-0.048783764
-4.2830343	akhuphe	-0.048783764
-4.4586368	wokuphetha	-0.048783764
-4.2830343	iimfiso	-0.048783764
-3.9827116	zesondlo	-0.107988186
-4.4586368	Njengombana	-0.048783764
-3.9827116	ukutlolisa	-0.048783764
-4.2830343	enobunikazi	-0.17655694
-3.8726614	bezabelo	-0.048783764
-4.4586368	kurarene	-0.048783764
-4.4586368	ababawi	-0.048783764
-4.4586368	bafune	-0.048783764
-4.4586368	legqwetha	-0.048783764
-4.2830343	Imemorandamu	-0.048783764
-4.4586368	atjhuglulelwe	-0.048783764
-4.4586368	kwewekhampani	-0.048783764
-4.4586368	enezabelo	-0.048783764
-4.4586368	aqinisekiswe	-0.048783764
-4.4586368	public	-0.048783764
-4.4586368	osisazi	-0.048783764
-3.4269414	yomphakathi	-0.12465684
-4.130475	eforomeni	-0.12966344
-4.4586368	ilenze	-0.048783764
-4.2830343	ikani	-0.048783764
-4.4586368	nalikhambisana	-0.048783764
-3.9827116	yangeqadi	-0.048783764
-3.9827116	yona	-0.23660932
-3.8726614	B	-0.095484026
-4.4586368	Companies	-0.048783764
-4.4586368	Intellectual	-0.048783764
-4.4586368	Property	-0.048783764
-4.4586368	Registration	-0.048783764
-4.4586368	sokubulungwa	-0.048783764
-4.130475	kwegama	-0.048783764
-3.9827116	ngokuzalisa	-0.107988186
-3.711987	lelo	-0.048783764
-4.4586368	enemininingwana	-0.048783764
-4.2830343	yokutlolisa	-0.048783764
-4.4586368	neemphathiswa	-0.048783764
-4.4586368	Omunye	-0.048783764
-3.3333	kumele	-0.058965106
-4.4586368	ajaphethe	-0.048783764
-4.4586368	sokuba	-0.048783764
-4.4586368	mhloli	-0.048783764
-4.4586368	eyamukela	-0.048783764
-3.9827116	itjhejuli	-0.107988186
-3.7849357	i-	-0.048783764
-4.4586368	CM44A	-0.048783764
-4.4586368	articles	-0.048783764
-4.4586368	engamukeli	-0.048783764
-4.4586368	bazalise	-0.048783764
-4.4586368	Abatlikitle	-0.048783764
-4.4586368	abogqwetha	-0.048783764
-4.4586368	ngokujanyelwa	-0.048783764
-4.130475	eendabeni	-0.048783764
-3.6495473	zomthetho	-0.07737791
-4.4586368	kugqwetha	-0.048783764
-4.2830343	ubeke	-0.048783764
-4.4586368	umnikela	-0.048783764
-4.4586368	lokukujamela	-0.048783764
-4.4586368	ezitlolisa	-0.048783764
-4.4586368	ngobunikazi	-0.048783764
-3.9827116	yokuthoma	-0.095484026
-4.2830343	ithumele	-0.048783764
-4.4586368	CM1	-0.048783764
-4.130475	Isitifikeyidi	-0.048783764
-4.4586368	sokufakwa	-0.048783764
-4.4586368	kumtlolo	-0.048783764
-4.4586368	otlikitlwa	-0.048783764
-4.4586368	bewugadangiswe	-0.048783764
-4.2830343	isitembu	-0.048783764
-4.4586368	ekhambisanako	-0.048783764
-4.4586368	erheliswe	-0.048783764
-3.8726614	ngaphezulu	-0.048783764
-4.4586368	seyiqalisisiwe	-0.048783764
-4.4586368	bekwaqedwa	-0.048783764
-4.4586368	CM2A	-0.048783764
-4.4586368	CM2B	-0.048783764
-4.4586368	CM2C	-0.048783764
-3.9827116	abanikazi	-0.048783764
-4.4586368	badlula	-0.048783764
-3.7849357	umnikazi	-0.12966344
-4.4586368	wezabelo	-0.048783764
-4.2830343	wemiTjhado	-0.17655694
-4.2830343	yesiNtu	-0.048783764
-4.4586368	waba	-0.048783764
-3.9827116	mthetho	-0.048783764
-3.6495473	ngomhlaka	-0.071506515
-4.2830343	15	-0.17655694
-4.4586368	Novemba	-0.048783764
-4.4586368	2000	-0.048783764
-4.4586368	bewungaphasi	-0.048783764
-3.8726614	komtjhado	-0.16459468
-4.130475	wanjesi	-0.048783764
-4.2830343	osebenzako	-0.048783764
-3.7849357	wesintu	-0.13181224
-3.9827116	kwelanga	-0.14781787
-3.5028784	leli	-0.048783764
-3.7849357	umtjhado	-0.12966344
-4.2830343	uyavunywa	-0.048783764
-4.4586368	kwalomthetho	-0.048783764
-3.7849357	umyeni	-0.048783764
-4.4586368	anokosikazi	-0.048783764
-4.4586368	odlula	-0.048783764
-3.7849357	imitjhado	-0.16459468
-4.4586368	iyavunywa	-0.048783764
-4.4586368	LomThetho	-0.048783764
-4.4586368	uvuma	-0.048783764
-4.4586368	yesintu	-0.048783764
-3.8726614	eyenziwe	-0.048783764
-4.4586368	kwalelilanga	-0.048783764
-4.2830343	ubeka	-0.048783764
-4.4586368	abatjhada	-0.048783764
-4.4586368	bayilandele	-0.048783764
-3.2804892	yabo	-0.19779587
-4.4586368	izakuvunywa	-0.048783764
-4.4586368	Umtjhado	-0.048783764
-4.4586368	bakhambisene	-0.048783764
-4.4586368	Bobabili	-0.048783764
-4.4586368	abathinteka	-0.048783764
-4.2830343	emtjhadweni	-0.048783764
-3.711987	babe	-0.04878374
-4.2830343	neminyaka	-0.048783764
-3.9827116	kweli	-0.107988186
-4.4586368	bavume	-0.048783764
-4.2830343	ukutjhada	-0.048783764
-4.4586368	kukhulunyiswane	-0.048783764
-4.4586368	uthatjelwe	-0.048783764
-4.4586368	bewenziwe	-0.048783764
-4.4586368	Amalobolo	-0.048783764
-4.4586368	awasi	-0.048783764
-4.130475	yinto	-0.048783764
-4.4586368	etlhogekako	-0.048783764
-3.9827116	ekusebenzeni	-0.048783764
-4.4586368	Tjheja	-0.048783764
-4.130475	ihlala	-0.048783764
-4.4586368	ivunywa	-0.048783764
-4.4586368	Ngifanele	-0.048783764
-4.4586368	kutlolisa	-0.048783764
-4.2830343	wami	-0.048783764
-4.4586368	wawutjhade	-0.048783764
-4.2830343	komhlaka	-0.048783764
-4.130475	utloliswe	-0.12966344
-3.8726614	nomNyango	-0.1919848
-4.4586368	zeKhaya	-0.048783764
-4.4586368	kokuphasiswa	-0.048783764
-4.4586368	utlolise	-0.048783764
-3.7849357	kungakapheli	-0.18752064
-3.8726614	iinyanga	-0.27154756
-4.4586368	ImiTjhado	-0.048783764
-4.4586368	nokutjhada	-0.048783764
-4.4586368	ngokuHlanganyela	-0.048783764
-4.4586368	iPahla	-0.048783764
-4.4586368	Yoke	-0.048783764
-3.8726614	eyenziwa	-0.048783764
-3.8726614	kokuthoma	-0.048783764
-3.1000063	ukusebenza	-0.1112953
-4.4586368	iba	-0.048783764
-4.4586368	ngeyokuhlanganyela	-0.048783764
-4.130475	nokosikazi	-0.048783764
-4.4586368	banesabelo	-0.048783764
-4.4586368	esilinganako	-0.048783764
-4.130475	epahleni	-0.048783764
-4.4586368	babelana	-0.048783764
-3.7849357	ngazo	-0.0873435
-4.4586368	bangathanda	-0.048783764
-3.6495473	wabo	-0.048783764
-3.5464864	ube	-0.09241342
-4.4586368	ngewokungahlanganyeli	-0.048783764
-3.9827116	kuzakufanela	-0.44792518
-3.9827116	benze	-0.048783764
-4.4586368	sangaphambi	-0.048783764
-4.4586368	contract	-0.048783764
-4.4586368	Nabafuna	-0.048783764
-4.4586368	ukusitjhugulula	-0.048783764
-4.130475	eKhotho	-0.12966344
-3.9827116	ePhakamileko	-0.048783764
-4.4586368	Ngaphasi	-0.048783764
-4.130475	ukosikazi	-0.048783764
-4.4586368	unelungelo	-0.048783764
-4.4586368	obulingana	-0.048783764
-4.4586368	nebakababa	-0.048783764
-4.130475	ukuqunta	-0.048783764
-4.4586368	kwenzekani	-0.048783764
-4.4586368	Ukosikazi	-0.048783764
-4.4586368	othethwe	-0.048783764
-4.4586368	isintu	-0.048783764
-4.4586368	unekghono	-0.048783764
-4.130475	iimvumelwano	-0.048783764
-4.4586368	kwerhelebho	-0.048783764
-4.4586368	lakababa	-0.048783764
-4.4586368	Kwenzekani	-0.048783764
-4.4586368	Umyeni	-0.048783764
-3.8726614	enze	-0.048783764
-4.4586368	ikontraga	-0.048783764
-4.4586368	ezakubeka	-0.048783764
-4.2830343	ngikuphi	-0.17655694
-3.8726614	kwenzeke	-0.048783764
-4.2830343	uzakwenza	-0.048783764
-4.4586368	sokuvunywa	-0.048783764
-3.9827116	kwesivumelwano	-0.107988186
-4.4586368	iqinisekise	-0.048783764
-4.2830343	abokosikazi	-0.048783764
-4.4586368	iyavikelwa	-0.048783764
-3.7849357	sifuna	-0.048783764
-4.2830343	ongafuni	-0.17655694
-4.4586368	isondo	-0.048783764
-4.4586368	akanabanye	-0.048783764
-4.4586368	ungatjhada	-0.048783764
-4.4586368	womtjhado	-0.048783764
-3.7849357	nomthetho	-0.048783764
-4.4586368	akunamunye	-0.048783764
-3.9827116	kwenu	-0.048783764
-4.4586368	ozakukghona	-0.048783764
-4.4586368	nitjhade	-0.048783764
-4.4586368	Wena	-0.048783764
-4.4586368	umyenakho	-0.048783764
-4.4586368	angazitlolisa	-0.048783764
-4.4586368	Kuyeleliswa	-0.048783764
-4.130475	baye	-0.048783764
-4.4586368	bazakurhabisa	-0.048783764
-4.2830343	othethene	-0.17655694
-4.2830343	naye	-0.048783764
-4.4586368	uyabhala	-0.048783764
-4.4586368	ungatlolisa	-0.048783764
-3.6495473	ngokwakho	-0.07737791
-4.4586368	obufaneleko	-0.048783764
-4.4586368	kamazisi	-0.048783764
-4.2830343	zalisa	-0.107988186
-4.4586368	enquiry	-0.048783764
-4.4586368	existence	-0.048783764
-4.4586368	customary	-0.048783764
-4.2830343	marriage	-0.048783764
-4.4586368	ngomtjhado	-0.048783764
-4.130475	okhona	-0.048783764
-4.4586368	zabomazisi	-0.048783764
-4.4586368	namalanga	-0.048783764
-4.4586368	wamabeletho	-0.048783764
-4.4586368	womyeni	-0.048783764
-4.4586368	lababelethi	-0.048783764
-4.4586368	bomyeni	-0.048783764
-4.4586368	lomrholi	-0.048783764
-4.2830343	wendabuko	-0.048783764
-4.2830343	yesivumelwano	-0.048783764
-4.4586368	samalobolo	-0.048783764
-4.4586368	magadi	-0.048783764
-3.4269414	nabantu	-0.06489205
-4.4586368	ababofakazi	-0.048783764
-4.4586368	ufakazi	-0.048783764
-4.130475	ajamele	-0.048783764
-4.4586368	emrholini	-0.048783764
-4.130475	isifungo	-0.12966344
-4.2830343	liqinisekiswe	-0.048783764
-4.4586368	belitlikitlwe	-0.048783764
-3.8726614	phambi	-0.095484026
-4.4586368	kwesiphathiswa	-0.048783764
-4.2830343	ngokunjalo	-0.048783764
-4.130475	kwemithetjhwana	-0.048783764
-4.4586368	senziwe	-0.048783764
-4.4586368	akunikele	-0.048783764
-4.4586368	irasidi	-0.048783764
-4.4586368	lokuvuma	-0.048783764
-3.4269414	ukufumana	-0.07737791
-4.4586368	eForomini	-0.048783764
-4.4586368	Acknowledgement	-0.048783764
-4.4586368	receipt	-0.048783764
-4.4586368	application	-0.048783764
-4.4586368	Ukuvuma	-0.048783764
-4.2830343	ukufunyanwa	-0.048783764
-4.4586368	uzakudlulisela	-0.048783764
-4.4586368	lesifunda	-0.048783764
-4.4586368	lesiyingi	-0.048783764
-4.4586368	sifakwe	-0.048783764
-4.4586368	erejisteni	-0.048783764
-4.2830343	kwesitjhaba	-0.048783764
-4.4586368	Uzakunikelwa	-0.048783764
-3.8726614	C	-0.095484026
-4.4586368	Customary	-0.048783764
-4.4586368	certificate	-0.048783764
-4.2830343	somtjhado	-0.048783764
-4.4586368	Gcina	-0.048783764
-4.4586368	ephephileko	-0.048783764
-3.256312	ngombana	-0.066865854
-4.4586368	siqakathekile	-0.048783764
-4.4586368	Isikepe	-0.048783764
-3.8726614	sangaphandle	-0.048783764
-3.8726614	sokuthiya	-0.0816209
-4.4586368	sikepe	-0.048783764
-4.130475	waso	-0.048783764
-4.4586368	iphandle	-0.048783764
-4.4586368	nesitloliswe	-0.048783764
-4.2830343	kweNarha	-0.048783764
-4.4586368	eNye	-0.048783764
-4.4586368	kweRiphabhliki	-0.048783764
-4.4586368	Kungakaphasi	-0.048783764
-3.7849357	kobujamo	-0.0816209
-4.4586368	obungakajayeleki	-0.048783764
-3.3333	isikepe	-0.071506515
-4.4586368	singaqatjhiswa	-0.048783764
-4.4586368	sikontragiswe	-0.048783764
-4.4586368	mNikazi	-0.048783764
-4.130475	weLungelo	-0.12966344
-3.711987	yokuthiya	-0.095484026
-4.2830343	Economic	-0.048783764
-4.4586368	Zone	-0.048783764
-4.4586368	EEZ	-0.048783764
-4.130475	emanzini	-0.048783764
-4.2830343	weentjhabatjhaba	-0.048783764
-4.130475	awela	-0.32298645
-4.130475	kwelawulo	-0.048783764
-4.130475	leSewula	-0.32298645
-4.4586368	Akunasikepe	-0.048783764
-4.4586368	esizakunikelwa	-0.048783764
-4.2830343	ilayisense	-0.048783764
-4.4586368	nasithiya	-0.048783764
-3.5028784	ngokuhlanganyela	-0.06939094
-4.4586368	nomNikazi	-0.048783764
-4.4586368	Ngaphambi	-0.048783764
-4.130475	kokwenza	-0.048783764
-3.7849357	umNyango	-0.07737791
-4.4586368	uthintwe	-0.048783764
-4.130475	ukuqatjhwa	-0.048783764
-3.9827116	kwesikepe	-0.107988186
-4.4586368	kuzakuvunyelwa	-0.048783764
-3.9827116	ekorweni	-0.048783764
-3.6495473	ethileko	-0.0741062
-3.8726614	nokuthi	-0.048783764
-4.4586368	ngimiphi	-0.048783764
-4.4586368	efuneka	-0.048783764
-4.4586368	ekuvunyweni	-0.048783764
-3.9827116	esinjalo	-0.44792518
-3.711987	langokomthetho	-0.048783764
-4.4586368	linikelwa	-0.048783764
-3.7849357	kufuneka	-0.048783764
-4.4586368	lelayisense	-0.048783764
-4.130475	yesikepe	-0.12966344
-4.4586368	ulilethe	-0.048783764
-4.4586368	Environmental	-0.048783764
-4.4586368	Affairs	-0.048783764
-4.2830343	Tourism	-0.048783764
-4.4586368	DEAT	-0.048783764
-4.4586368	lesikepe	-0.048783764
-4.2830343	yomnikazi	-0.048783764
-3.9827116	wesikepe	-0.048783764
-4.4586368	ubunikazi	-0.048783764
-4.2830343	ngesezakhamizi	-0.17655694
-4.4586368	wenjini	-0.048783764
-4.2830343	ubude	-0.048783764
-4.2830343	nobukhulu	-0.17655694
-4.2830343	besikepe	-0.17655694
-4.130475	esitloliswe	-0.12966344
-4.4586368	siqatjhisiwe	-0.048783764
-4.4586368	sezokuphepha	-0.048783764
-4.4586368	esisebenzako	-0.048783764
-4.4586368	sizakuhlolelwa	-0.048783764
-4.130475	ukufaneleka	-0.048783764
-4.4586368	kukuba	-0.048783764
-4.4586368	selwandle	-0.048783764
-4.4586368	Maritime	-0.048783764
-4.4586368	Safety	-0.048783764
-4.2830343	Authority	-0.048783764
-4.4586368	zakho	-0.048783764
-4.4586368	ezizakubhadelwa	-0.048783764
-4.2830343	iinkepe	-0.048783764
-4.4586368	VMS	-0.048783764
-4.130475	esebenzako	-0.048783764
-4.4586368	ebikela	-0.048783764
-3.8726614	kuqinisekiswe	-0.048783764
-4.2830343	liPhiko	-0.048783764
-4.130475	lokuSebenza	-0.048783764
-4.4586368	Esibaweni	-0.048783764
-3.9827116	ikoro	-0.048783764
-4.4586368	esizakufakwa	-0.048783764
-4.4586368	esizasiqeda	-0.048783764
-4.4586368	kubaPhathi	-0.048783764
-4.4586368	bezokuThiya	-0.048783764
-4.2830343	beNarha	-0.048783764
-4.4586368	esiTlolise	-0.048783764
-4.4586368	ngaPhasi	-0.048783764
-4.4586368	Kwayo	-0.048783764
-4.4586368	State's	-0.048783764
-4.4586368	izakufuneka	-0.048783764
-4.4586368	evuma	-0.048783764
-4.4586368	sivunyelwe	-0.048783764
-4.4586368	ukuthiya	-0.048783764
-4.4586368	asikafunyanwa	-0.048783764
-3.9827116	senza	-0.048783764
-4.4586368	eNgakavunyelwa	-0.048783764
-4.4586368	eNgalawulwako	-0.048783764
-4.4586368	neNgakabikwa	-0.048783764
-4.2830343	izakuthatha	-0.048783764
-4.130475	sokuphatha	-0.048783764
-4.4586368	sokubika	-0.048783764
-4.4586368	ngokubamba	-0.048783764
-4.4586368	eenHlanganweni	-0.048783764
-4.4586368	zesiFunda	-0.048783764
-4.4586368	eziQalene	-0.048783764
-4.4586368	nokuPhathwa	-0.048783764
-4.4586368	kokuBanjwa	-0.048783764
-4.4586368	kweemFesi	-0.048783764
-4.4586368	Organisations	-0.048783764
-4.2830343	kuyafuneka	-0.048783764
-4.4586368	Ngokuya	-0.048783764
-4.4586368	iimbalo	-0.048783764
-4.4586368	kweemfesi	-0.048783764
-4.4586368	zibanjwe	-0.048783764
-4.2830343	emaLwandle	-0.17655694
-4.2830343	aPhakamileko	-0.048783764
-3.594967	kuzakuba	-0.071506515
-4.4586368	ngekweSewula	-0.048783764
-4.4586368	bekuphele	-0.048783764
-4.4586368	sokuqatjhisa	-0.048783764
-4.2830343	sizakuthiya	-0.048783764
-4.130475	akusi	-0.048783764
-4.4586368	ngesikhethiweko	-0.048783764
-3.7849357	kwekambiso	-0.0873435
-4.4586368	yokwabiwa	-0.048783764
-3.8726614	kwamalungelo	-0.048783764
-4.4586368	lokudluliswa	-0.048783764
-4.4586368	Nakuzakugunyazwa	-0.048783764
-4.4586368	sithiye	-0.048783764
-4.4586368	azakufumana	-0.048783764
-4.130475	kwekoro	-0.048783764
-4.4586368	esithiya	-0.048783764
-4.4586368	Kokugcina	-0.048783764
-4.4586368	ubona	-0.048783764
-4.4586368	ungathi	-0.048783764
-4.4586368	sokuqatjhiswa	-0.048783764
-4.4586368	samaLwandle	-0.048783764
-4.2830343	nalo	-0.048783764
-4.4586368	Ihlelo	-0.048783764
-4.4586368	lokwAbiwa	-0.048783764
-4.4586368	Butjha	-0.048783764
-4.2830343	wokuThuthukisa	-0.048783764
-4.2830343	zokuLima	-0.048783764
-4.4586368	lenzelwe	-0.048783764
-3.8726614	ukurhelebha	-0.048783764
-4.4586368	ebezidinywe	-0.048783764
-3.1000063	amathuba	-0.23907247
-3.7849357	emiphakathini	-0.048783764
-4.4586368	yabaNzima	-0.048783764
-4.4586368	amaKhaladi	-0.048783764
-4.2830343	namaNdiya	-0.048783764
-3.8726614	ukuthenga	-0.048783764
-3.711987	iinsetjenziswa	-0.0741062
-4.130475	zokulima	-0.107988186
-4.4586368	wokulima	-0.048783764
-4.4586368	Nawuzakufaneleka	-0.048783764
-4.130475	lilunga	-0.048783764
-4.4586368	lesiqhema	-0.048783764
-4.4586368	ebesidinywe	-0.048783764
-4.4586368	oNzima	-0.048783764
-4.4586368	iKhaladi	-0.048783764
-4.4586368	iNdiya	-0.048783764
-3.594967	eli	-0.09902007
-4.2830343	uhlose	-0.048783764
-4.2830343	ukusebenzisela	-0.048783764
-3.211655	iminqopho	-0.068474375
-4.4586368	yezokulima	-0.048783764
-4.4586368	ukulima	-0.048783764
-4.4586368	kwezakhiwo	-0.048783764
-4.4586368	ungabi	-0.048783764
-4.2830343	nesikhundla	-0.048783764
-4.4586368	ezakhiweni	-0.048783764
-4.2830343	uzimisele	-0.048783764
-3.7849357	ukuzibandakanya	-0.048783764
-4.4586368	lebandulo	-0.048783764
-4.2830343	ufumane	-0.048783764
-4.4586368	sebujameni	-0.048783764
-4.4586368	bokufaka	-0.048783764
-4.4586368	yihlangano	-0.048783764
-4.2830343	ehleliweko	-0.048783764
-4.4586368	nenza	-0.048783764
-4.4586368	nisiqhema	-0.048783764
-4.4586368	nibe	-0.048783764
-4.4586368	Abalimi	-0.048783764
-4.2830343	abaphumelelako	-0.048783764
-4.130475	abafisa	-0.048783764
-4.130475	ukukhulisa	-0.048783764
-3.6495473	kwabo	-0.048783764
-3.711987	bangenza	-0.0816209
-4.4586368	zezabelo	-0.048783764
-4.4586368	zokuragela	-0.048783764
-4.2830343	isamba	-0.048783764
-4.4586368	sezabelo	-0.048783764
-4.4586368	embawini	-0.048783764
-4.4586368	sadlula	-0.048783764
-3.2334096	000	-0.14020367
-4.4586368	yokusikimisa	-0.048783764
-4.4586368	iphrojekthi	-0.048783764
-3.9827116	yokulima	-0.048783764
-4.4586368	ifunyanwe	-0.048783764
-4.4586368	ebhanka	-0.048783764
-4.4586368	Funa	-0.048783764
-4.4586368	ofisa	-0.048783764
-4.4586368	ukuyithenga	-0.048783764
-4.4586368	Nakungasinjalo	-0.048783764
-4.4586368	unokufikelela	-0.048783764
-3.7849357	nenarha	-0.0873435
-4.4586368	ekwabelwana	-0.048783764
-4.4586368	zeNarha	-0.048783764
-3.9827116	isiphathiswa	-0.107988186
-4.4586368	sokukhuliswa	-0.048783764
-4.4586368	kwezelimo	-0.048783764
-4.4586368	sesabelo	-0.048783764
-4.2830343	Isihlongozo	-0.048783764
-4.2830343	sokusetjenziswa	-0.048783764
-3.7849357	iqhinga	-0.048783764
-4.4586368	leplasi	-0.048783764
-4.4586368	sephrojekthi	-0.048783764
-4.4586368	Ukukhetha	-0.048783764
-4.4586368	kokuthengisa	-0.048783764
-4.4586368	ngentengo	-0.048783764
-4.2830343	okuvunyelwene	-0.048783764
-4.4586368	uqatjhisa	-0.048783764
-4.4586368	adumileko	-0.048783764
-4.2830343	wesiqhema	-0.17655694
-4.4586368	isihlongozo	-0.048783764
-4.4586368	ngesesiqhema	-0.048783764
-4.4586368	Umbiko	-0.048783764
-4.4586368	wokulinganiswa	-0.048783764
-4.4586368	ISAHLUKO	-0.048783764
-4.4586368	ISINGENISO	-0.048783764
-4.4586368	UKWETHULWA	-0.048783764
-4.4586368	KWESITATIMENDE	-0.048783764
-4.4586368	SEKHARIKHYULAMU	-0.048783764
-4.4586368	YELIZWELOKE	-0.048783764
-4.4586368	UmThethosisekelo	-0.048783764
-4.4586368	kamaZibuse	-0.048783764
-2.819707	we	-0.21549037
-3.5028784	isisekelo	-0.048783764
-4.4586368	sokutjhugulula	-0.048783764
-3.4632523	nokuthuthukisa	-0.048783764
-4.4586368	ikharikhyulamu	-0.048783764
-4.2830343	Isingeniso	-0.048783764
-4.4586368	somThethosisekelo	-0.048783764
-4.130475	siveza	-0.12966344
-4.2830343	yomThethosisekelo	-0.048783764
-4.4586368	qeda	-0.048783764
-4.4586368	ukwehlukana	-0.048783764
-3.711987	egade	-0.048783764
-4.2830343	kukhona	-0.048783764
-4.130475	ngaphambili	-0.048783764
-4.4586368	kwakhiwe	-0.048783764
-4.4586368	osekelwe	-0.048783764
-4.2830343	kwamagugu	-0.048783764
-4.130475	wenengi	-0.12966344
-4.2830343	bokuhlalisana	-0.048783764
-4.130475	namalungelo	-0.048783764
-3.6495473	wobuntu	-0.14105956
-4.4586368	thuthukisa	-0.048783764
-4.4586368	beempilo	-0.048783764
-4.4586368	zazo	-0.048783764
-4.4586368	nokutjhaphulula	-0.048783764
-3.3623269	amakghono	-0.048783764
-4.130475	womuntu	-0.048783764
-4.4586368	beka	-0.048783764
-4.2830343	iinsekelo	-0.048783764
-3.594967	zomphakathi	-0.14589375
-4.130475	wedemokhrasi	-0.048783764
-3.3333	yenengi	-0.13296376
-4.4586368	novulekileko	-0.048783764
-3.053376	lapha	-0.09120823
-3.8726614	umbuso	-0.048783764
-4.4586368	unzinze	-0.048783764
-4.4586368	kuntando	-0.048783764
-4.4586368	novikelwa	-0.048783764
-4.2830343	kwesakhamuzi	-0.048783764
-3.594967	esinye	-0.38381526
-3.8726614	nesinye	-0.09469362
-4.2830343	kwakha	-0.048783764
-3.3934336	iSewula	-0.99199325
-4.4586368	engokwedemokhrasi	-0.048783764
-4.4586368	nebumbeneko	-0.048783764
-4.4586368	nekghona	-0.048783764
-3.7849357	ukuthatha	-0.048783764
-4.130475	emindenini	-0.048783764
-4.4586368	yamazwe	-0.048783764
-4.4586368	azibusako	-0.048783764
-4.4586368	Ifundo	-0.048783764
-4.4586368	nekharikhyulamu	-0.048783764
-4.4586368	zinendima	-0.048783764
-3.6495473	ekufanele	-0.048783764
-4.4586368	ziyidlale	-0.048783764
-4.130475	ekuphumeleliseni	-0.048783764
-4.4586368	leminqopho	-0.048783764
-4.4586368	Ikharikhyulamu	-0.048783764
-4.4586368	inqophe	-0.048783764
-3.256312	ukuthuthukisa	-0.07619723
-4.2830343	azeleko	-0.048783764
-4.2830343	womfundi	-0.048783764
-4.130475	njengesakhamuzi	-0.048783764
-4.4586368	ebuswa	-0.048783764
-4.4586368	ngokwedemokhrasi	-0.048783764
-4.4586368	IFundo	-0.048783764
-4.4586368	ENzinze	-0.048783764
-4.4586368	KumiPhumela	-0.048783764
-3.8726614	enzinze	-0.095484026
-3.8726614	kumiphumela	-0.048783764
-4.4586368	yakha	-0.048783764
-4.4586368	sekharikhyulamu	-0.048783764
-4.4586368	Inqophe	-0.048783764
-3.4632523	ekwenzeni	-0.22024083
-3.1341298	abafundi	-0.07648315
-4.130475	bazuze	-0.048783764
-4.4586368	ngokwamakghonwabo	-0.048783764
-4.4586368	Lokho	-0.048783764
-4.4586368	ikwenza	-0.048783764
-4.4586368	ngokubeka	-0.048783764
-3.8726614	imiphumela	-0.048783764
-3.9827116	ekufuze	-0.048783764
-4.4586368	kufinyelelwe	-0.048783764
-4.2830343	ekugcineni	-0.048783764
-4.4586368	Imiphumela	-0.048783764
-4.2830343	igcugcuzela	-0.048783764
-4.130475	ekufundeni	-0.048783764
-4.2830343	nekusebenzeni	-0.048783764
-3.6495473	komfundi	-0.048783764
-3.5464864	esikolweni	-0.30093864
-4.4586368	IsiTatimende	-0.048783764
-3.7849357	seKharikhyulamu	-0.205546
-3.7849357	esiBuyekeziweko	-0.048783764
-4.2830343	seliZweloke	-0.048783764
-4.4586368	sakhela	-0.048783764
-4.4586368	iFundo	-0.048783764
-3.5028784	zombelele	-0.102840275
-4.130475	neBandulo	-0.048783764
-4.4586368	kumagreyidi	-0.048783764
-4.130475	iinkolo	-0.048783764
-3.7849357	imiPhumela	-0.4127006
-3.3934336	yokuFunda	-0.12822634
-4.2830343	yokuhlaziya	-0.048783764
-4.4586368	nethuthukisako	-0.048783764
-4.4586368	ephakanyiswa	-0.048783764
-3.9827116	mThethosisekelo	-0.048783764
-4.2830343	ngokwekambiso	-0.048783764
-4.130475	yedemokhrasi	-0.048783764
-4.2830343	ilindele	-0.17655694
-4.4586368	abazakukghona	-0.048783764
-4.130475	uku	-0.12966344
-4.4586368	nokurarulula	-0.048783764
-3.9827116	imiraro	-0.048783764
-4.130475	nokuthatha	-0.048783764
-3.711987	iinqunto	-0.048783764
-3.2334096	ngokusebenzisa	-0.10810521
-4.4586368	yokucabanga	-0.048783764
-4.4586368	ngokokuhlaziya	-0.048783764
-4.4586368	nangekghono	-0.048783764
-4.4586368	sebenzisana	-0.048783764
-3.711987	ngepumelelo	-0.048783764
-4.4586368	njengamalunga	-0.048783764
-4.4586368	umkhandlu	-0.048783764
-3.5464864	nomphakathi	-0.048783764
-4.4586368	zihlela	-0.048783764
-3.9827116	nokuphatha	-0.048783764
-4.2830343	imisebenzabo	-0.048783764
-4.4586368	ngokuziphendulela	-0.048783764
-4.4586368	nangepumelelo	-0.048783764
-4.4586368	buthelela	-0.048783764
-4.2830343	ukuhlaziya	-0.048783764
-3.8726614	ukuhlela	-0.048783764
-3.3333	bese	-0.05945601
-4.4586368	bahlaziya	-0.048783764
-3.8726614	ngelihlo	-0.2583829
-4.2830343	lokuhlaba	-0.048783764
-4.4586368	khuluma	-0.048783764
-4.2830343	asebenzise	-0.048783764
-4.4586368	okubonwako	-0.048783764
-4.2830343	amatshwayo	-0.048783764
-4.4586368	(n)amakghono	-0.048783764
-4.130475	welimi	-0.048783764
-3.9827116	ngeendlela	-0.23660932
-3.6495473	ezinengi	-0.10810521
-4.2830343	sebenzisa	-0.048783764
-4.2830343	isayensi	-0.048783764
-4.130475	nethekhnoloji	-0.048783764
-4.130475	batjengise	-0.048783764
-3.7849357	nokuziphendulela	-0.048783764
-4.2830343	nebhoduluko	-0.048783764
-4.4586368	neempilo	-0.048783764
-4.4586368	zabanye	-0.048783764
-4.4586368	noku	-0.048783764
-4.4586368	tjengisa	-0.048783764
-3.8726614	ukuzwisisa	-0.048783764
-4.130475	iphasi	-0.048783764
-4.4586368	lingamahlelo	-0.048783764
-4.4586368	wetjhebiswano	-0.048783764
-3.9827116	ngokuyelela	-0.048783764
-4.2830343	ukurarulula	-0.17655694
-4.2830343	umraro	-0.048783764
-4.4586368	akwenzeki	-0.048783764
-4.130475	kodwa	-0.048783764
-4.4586368	yokuthuthuka	-0.048783764
-4.4586368	abakghona	-0.048783764
-4.4586368	nokungenelela	-0.048783764
-3.7849357	amaqhinga	-0.048783764
-3.711987	ahlukahlukeneko	-0.048783764
-2.9490643	ukuze	-0.05830805
-4.2830343	afunde	-0.048783764
-4.2830343	ngekghono	-0.048783764
-4.2830343	elingcono	-0.17655694
-4.4586368	zibandakanya	-0.048783764
-4.2830343	esiziphendulelako	-0.048783764
-4.4586368	yekhaya	-0.048783764
-4.4586368	ilizweloke	-0.048783764
-4.4586368	nephasi	-0.048783764
-4.4586368	ngokuzala	-0.048783764
-3.9827116	kwalo	-0.048783764
-4.4586368	ba	-0.048783764
-4.4586368	nezwelo	-0.048783764
-4.4586368	ngokwamasiko	-0.048783764
-4.4586368	nobuhle	-0.048783764
-4.4586368	ngokwemiphakathi	-0.048783764
-4.4586368	ngokuhlukahlukana	-0.048783764
-4.4586368	ngenelela	-0.048783764
-4.130475	nefundo	-0.048783764
-4.2830343	nangefundo	-0.048783764
-4.2830343	yamathuba	-0.048783764
-3.3934336	wemisebenzi	-0.14817713
-4.4586368	akha	-0.048783764
-4.2830343	werhwebo	-0.048783764
-4.4586368	Izinto	-0.048783764
-4.130475	nobuchaka	-0.048783764
-4.130475	ubutjhaba	-0.107988186
-4.2830343	ubulili	-0.17655694
-4.4586368	uburhole	-0.048783764
-4.2830343	nokuqalana	-0.048783764
-3.9827116	nezinto	-0.048783764
-4.2830343	AIDS	-0.048783764
-4.4586368	zithinta	-0.048783764
-3.256312	izinga	-0.070397064
-3.8726614	nendlela	-0.095484026
-4.4586368	bangazibandakanya	-0.048783764
-4.2830343	efundweni	-0.048783764
-4.2830343	samagreyidi	-0.048783764
-4.4586368	sisebenzisa	-0.048783764
-4.4586368	ebuthelelako	-0.048783764
-4.4586368	beendingo	-0.048783764
-4.4586368	zabafundi	-0.048783764
-4.4586368	iinTatimende	-0.048783764
-4.130475	zeKundla	-0.32298645
-4.4586368	zizama	-0.048783764
-3.3623269	ukwakha	-0.108074
-4.4586368	iyelelo	-0.048783764
-4.4586368	lokutjhebisana	-0.048783764
-4.130475	nobulungiswa	-0.12966344
-3.7849357	ibhoduluko	-0.048783764
-4.4586368	elinepilo	-0.048783764
-4.4586368	nokubutheleleka	-0.048783764
-4.130475	Abafundi	-0.04878374
-4.4586368	babuye	-0.048783764
-4.4586368	bagcugcuzelwe	-0.048783764
-4.4586368	nezwisiso	-0.048783764
-4.4586368	lokuhlukahlukana	-0.048783764
-4.4586368	kwelizweli	-0.048783764
-4.4586368	ngokufaka	-0.048783764
-4.2830343	amasiko	-0.048783764
-4.4586368	ikolelo	-0.048783764
-4.4586368	nokuhlukahluka	-0.048783764
-4.4586368	kwebumbeko	-0.048783764
-4.4586368	lalobubutjhaba	-0.048783764
-4.4586368	SeKharikhyulamu	-0.048783764
-4.4586368	EsiBuyekeziweko	-0.048783764
-4.4586368	SeliZweloke	-0.048783764
-4.4586368	IinTatimende	-0.048783764
-4.4586368	ZeKundla	-0.048783764
-4.2830343	YokuFunda	-0.048783764
-4.2830343	yeliZweloke	-0.048783764
-3.9827116	R	-0.23660932
-4.4586368	mBono	-0.048783764
-4.4586368	neenTatimende	-0.048783764
-4.2830343	ezibunane	-0.048783764
-4.4586368	ezibunje	-0.048783764
-4.4586368	ISayensi	-0.048783764
-4.4586368	yeMvelo	-0.048783764
-4.4586368	yokuHlalisana	-0.048783764
-4.4586368	UbuKghwari	-0.048783764
-4.4586368	namaSiko	-0.048783764
-4.4586368	UkuJayela	-0.048783764
-4.4586368	iPilo	-0.048783764
-4.4586368	yezomNotho	-0.048783764
-4.4586368	nokuPhatha	-0.048783764
-4.4586368	Ithekhnoloji	-0.048783764
-3.8726614	seKundla	-0.27116606
-4.130475	efanele	-0.048783764
-4.4586368	izuzwe	-0.048783764
-4.2830343	kuGreyidi	-0.048783764
-4.4586368	sibeka	-0.048783764
-3.9827116	tjhatjhalazi	-0.048783764
-4.130475	amaZinga	-0.32298645
-3.5028784	wokuHlola	-0.10754492
-4.4586368	azakusiza	-0.048783764
-4.4586368	ukuzuzeka	-0.048783764
-4.130475	kwemiPhumela	-0.32298645
-4.4586368	Ukudepha	-0.048783764
-4.130475	nokunaba	-0.048783764
-4.4586368	kwamaZinga	-0.048783764
-3.5028784	kugreyidi	-0.23978621
-4.4586368	ahlathululiwe	-0.048783764
-4.2830343	yini	-0.048783764
-4.4586368	kuzwisiswe	-0.048783764
-4.4586368	bekukghonwe	-0.048783764
-3.7849357	bafundi	-0.0873435
-4.4586368	AmaZinga	-0.048783764
-4.130475	wesiTatimende	-0.12966344
-4.4586368	atjengisa	-0.048783764
-3.9827116	umqondo	-0.048783764
-3.594967	nekghono	-0.04878374
-4.4586368	lingathuthukiswa	-0.048783764
-4.4586368	angahlanganiswa	-0.048783764
-4.4586368	nangamagreyidi	-0.048783764
-4.4586368	Ukuphumelela	-0.048783764
-3.211655	ukuthola	-0.13910213
-4.130475	ubudlelwana	-0.048783764
-4.4586368	obukarisa	-0.048783764
-4.4586368	ngobudlelwana	-0.048783764
-4.4586368	bokuhlanganisa	-0.048783764
-4.4586368	kweenKundla	-0.048783764
-3.7849357	zokuFunda	-0.0816209
-4.4586368	nangokwefundo	-0.048783764
-4.130475	nokuragela	-0.32298645
-4.4586368	uye	-0.048783764
-4.4586368	ziyikaba	-0.048783764
-4.4586368	kilekharikhyulamu	-0.048783764
-4.2830343	AmaHlelo	-0.048783764
-4.4586368	WokuFunda	-0.048783764
-3.9827116	sinqophe	-0.048783764
-3.9827116	ukubandakanyeka	-0.048783764
-4.4586368	kumatitjhere	-0.048783764
-4.4586368	azakubandakanyeka	-0.048783764
-4.4586368	ekuzithuthukiseleni	-0.048783764
-3.9827116	amaHlelo	-0.44792518
-3.5464864	wokuFunda	-0.06939094
-4.4586368	Ukusekela	-0.048783764
-4.4586368	lekambiso	-0.048783764
-4.2830343	weFundo	-0.048783764
-4.130475	umgomo	-0.12966344
-4.4586368	wemileyo	-0.048783764
-4.4586368	enqophene	-0.048783764
-4.4586368	nesiTatimende	-0.048783764
-4.4586368	Amaphrovensi	-0.048783764
-4.4586368	azakutlama	-0.048783764
-4.4586368	emileyo	-0.048783764
-4.130475	kudingeka	-0.048783764
-4.4586368	abonelele	-0.048783764
-4.4586368	ukuhlukahlukana	-0.048783764
-4.4586368	Imileyo	-0.048783764
-3.8726614	namagugu	-0.048783764
-4.4586368	aziinsika	-0.048783764
-4.4586368	seLizweloke	-0.048783764
-4.4586368	isekela	-0.048783764
-4.4586368	Nanyana	-0.048783764
-4.2830343	iinKundla	-0.17655694
-4.4586368	zibeka	-0.048783764
-4.130475	imiqondo	-0.048783764
-4.2830343	afanele	-0.048783764
-4.4586368	azuzwe	-0.048783764
-4.4586368	ngokwamagreyidi	-0.048783764
-4.4586368	aveza	-0.048783764
-4.4586368	ukunaba	-0.048783764
-3.9827116	bemisebenzi	-0.048783764
-3.7849357	yokufunda	-0.0816209
-4.2830343	nokuhlolwa	-0.048783764
-4.4586368	kusigaba	-0.048783764
-4.130475	ngasinye	-0.048783764
-4.4586368	abuye	-0.048783764
-4.4586368	aphathe	-0.048783764
-3.8726614	yomsebenzi	-0.095484026
-4.2830343	ohlathulula	-0.048783764
-4.4586368	nokulamana	-0.048783764
-4.130475	nomnyaka	-0.048783764
-4.4586368	neembonelo	-0.048783764
-4.4586368	zamaqhinga	-0.048783764
-4.4586368	wesifundo	-0.048783764
-4.4586368	sifundwe	-0.048783764
-3.8726614	kwesinye	-0.1919848
-4.4586368	esidingekako	-0.048783764
-4.4586368	KusiGabasisekelo	-0.048783764
-4.2830343	kunamaHlelo	-0.048783764
