\data\
ngram 1=56
ngram 2=1023
ngram 3=5151
ngram 4=13751
ngram 5=24987

\1-grams:
-2.8498712	<unk>	0
0	<s>	-2.2413452
-1.3769585	</s>	0
-1.7808224	A	-0.35810313
-1.7808224	I	-0.3659766
-1.8977584	D	-0.33437693
-1.649179	S	-0.4801357
-1.8977584	K	-0.44876084
-2.109757	U	-0.3053025
-1.932673	F	-0.41873962
-2.012251	W	-0.37866455
-1.4664849	h	-0.8314514
-1.3476331	e	-0.8841647
-1.5958143	t	-0.6922418
-1.7100317	k	-0.7084911
-1.3201632	i	-0.8796563
-1.479094	l	-0.80795467
-1.3669616	o	-0.84249204
-1.8072387	L	-0.4258386
-1.8977584	M	-0.38724974
-1.9706419	R	-0.37813476
-1.8977584	P	-0.41517168
-2.012251	O	-0.33232644
-1.8072387	T	-0.4362314
-1.932673	j	-0.61675763
-1.6685311	n	-0.61851966
-1.7559212	z	-0.7200476
-1.5482953	s	-0.6787337
-1.5192788	w	-0.74626374
-1.3382821	a	-0.92557
-1.8072387	b	-0.7047755
-2.109757	J	-0.34047505
-1.6685311	m	-0.58790827
-1.8353665	d	-0.62522423
-1.6685311	f	-0.6684194
-1.3571899	u	-0.7628734
-1.7323706	p	-0.6289033
-1.7323706	g	-0.6193396
-1.9706419	N	-0.41256776
-1.8977584	q	-0.6116656
-1.5793902	r	-0.60476893
-1.6887858	y	-0.6350196
-1.7323706	c	-0.53851414
-1.8977584	v	-0.6788713
-1.8072387	H	-0.4135691
-2.168175	Q	-0.3844344
-1.9706419	Z	-0.3298211
-2.4137785	x	-0.29837874
-1.9706419	B	-0.4413767
-2.109757	C	-0.31289896
-1.7100317	E	-0.33613363
-2.109757	V	-0.35926944
-1.9706419	G	-0.39716515
-2.2356906	Y	-0.31135836
-2.621516	X	-0.2773549
-2.7208545	Â	-0.2773549

\2-grams:
-0.84277266	A </s>	0
-0.9507259	I </s>	0
-1.1824173	D </s>	0
-0.988778	S </s>	0
-1.1633984	U </s>	0
-1.5184237	F </s>	0
-1.4941643	h </s>	0
-1.3137848	e </s>	0
-1.1103852	t </s>	0
-1.4803281	k </s>	0
-1.3484424	i </s>	0
-1.3412683	l </s>	0
-1.2426898	o </s>	0
-1.598825	L </s>	0
-1.6051437	M </s>	0
-1.4774469	R </s>	0
-1.2254006	P </s>	0
-0.97958285	O </s>	0
-1.2582693	T </s>	0
-1.281321	n </s>	0
-1.5173541	z </s>	0
-1.0038115	s </s>	0
-1.6326154	w </s>	0
-1.3236302	a </s>	0
-1.5870152	b </s>	0
-1.4377147	m </s>	0
-1.078968	d </s>	0
-1.5176909	f </s>	0
-1.22667	u </s>	0
-1.4050945	p </s>	0
-1.6100702	g </s>	0
-1.6202724	N </s>	0
-1.4334916	q </s>	0
-1.4179416	r </s>	0
-0.86983687	y </s>	0
-1.734197	c </s>	0
-1.3640852	Z </s>	0
-1.1333499	x </s>	0
-1.2781471	B </s>	0
-1.1399665	C </s>	0
-1.2279806	E </s>	0
-1.0897305	V </s>	0
-0.3061391	Â </s>	0
-1.9767959	<s> A	-0.8153649
-1.8163865	A A	-0.2214847
-1.630729	D A	-0.2214847
-0.9137035	S A	-0.37955222
-1.3708365	F A	-0.2214847
-0.6602077	W A	-0.48356026
-1.2678318	L A	-0.307469
-1.5835168	M A	-0.27551764
-1.6445901	R A	-0.2214847
-1.5346375	T A	-0.2951334
-2.120609	s A	-0.2214847
-1.7807155	w A	-0.2214847
-1.3842975	J A	-0.2214847
-1.3219109	H A	-0.2214847
-1.5037583	Z A	-0.2214847
-1.5593728	E A	-0.2214847
-1.3323272	G A	-0.2214847
-1.7925355	<s> I	-0.80165035
-1.8163865	A I	-0.2214847
-1.6068012	I I	-0.2951334
-1.2681363	D I	-0.34038073
-1.65556	S I	-0.2214847
-1.3153865	F I	-0.2951334
-1.5207834	L I	-0.2214847
-1.5835168	M I	-0.27551764
-1.0628216	R I	-0.2214847
-1.3385158	T I	-0.2214847
-1.3842975	J I	-0.2214847
-2.0291345	d I	-0.2214847
-1.8494333	N I	-0.2214847
-1.6446065	H I	-0.2214847
-1.5037583	Z I	-0.2214847
-1.1649226	C I	-0.2214847
-1.8095123	E I	-0.2214847
-2.7530344	<s> D	-0.5634112
-1.9069523	I D	-0.2214847
-2.3758955	e D	-0.2214847
-2.374041	i D	-0.3372413
-1.89277	M D	-0.2214847
-1.6431342	O D	-0.2214847
-2.0050879	n D	-0.3372413
-2.3834581	a D	-0.2214847
-2.0482142	u D	-0.33858398
-1.5583532	N D	-0.25153315
-1.5738504	C D	-0.2214847
-1.8632052	E D	-0.2214847
-1.6818599	G D	-0.2214847
-1.8680317	<s> S	-1.0451492
-1.5212215	A S	-0.2214847
-1.1296821	I S	-0.25081986
-1.5830472	D S	-0.2214847
-1.8544873	S S	-0.2214847
-1.5625603	U S	-0.2214847
-1.7816136	e S	-0.53826183
-2.0954769	t S	-0.2214847
-1.991473	i S	-0.3423521
-2.0211763	o S	-0.3171681
-1.5452305	M S	-0.2214847
-1.5999228	R S	-0.2214847
-1.3370924	P S	-0.2214847
-1.2743336	O S	-0.2214847
-1.5504041	T S	-0.3372413
-2.091734	n S	-0.2214847
-2.0413904	a S	-0.4349843
-1.9396379	m S	-0.3372413
-1.9689441	d S	-0.2214847
-1.8706447	u S	-0.3546551
-2.0249698	r S	-0.2214847
-1.0784384	E S	-0.28381616
-1.6069387	G S	-0.2214847
-2.0743387	<s> K	-0.99957526
-1.5365233	A K	-0.2214847
-1.6374217	I K	-0.2214847
-1.3230637	U K	-0.2214847
-1.7670134	e K	-0.5804445
-2.0501883	i K	-0.404379
-2.2611628	o K	-0.2214847
-1.0401472	O K	-0.307469
-1.9595193	n K	-0.307469
-2.2194548	a K	-0.3732526
-1.7121681	m K	-0.56222945
-1.9287776	u K	-0.3265096
-1.5380826	E K	-0.2951334
-1.7636735	<s> U	-1.1435496
-1.168028	K U	-0.28287736
-1.4064772	F U	-0.3372413
-1.908222	L U	-0.2214847
-1.9667035	M U	-0.2214847
-1.3540062	H U	-0.2214847
-1.6143962	C U	-0.2214847
-1.3652775	Y U	-0.2214847
-2.8116093	<s> F	-0.45302558
-1.5429732	A F	-0.2214847
-1.6454266	I F	-0.2214847
-1.6564598	U F	-0.2214847
-2.1099207	e F	-0.3680375
-2.3874998	i F	-0.2951334
-2.534095	o F	-0.2214847
-1.906584	M F	-0.2214847
-2.3958163	a F	-0.2214847
-2.0165966	m F	-0.307469
-2.2671587	u F	-0.31148994
-1.8777337	E F	-0.2214847
-2.8811831	<s> W	-0.6492797
-2.0099468	S W	-0.2214847
-1.5207113	K W	-0.3372413
-2.459295	e W	-0.2214847
-2.1662962	k W	-0.2214847
-1.5594319	L W	-0.3372413
-2.6883438	a W	-0.2214847
-1.9393994	N W	-0.2214847
-1.6983911	H W	-0.2214847
-1.5505456	Z W	-0.2214847
-3.181476	<s> h	-0.49297622
-1.664573	I h	-0.2214847
-1.7480408	S h	-0.2214847
-0.8696675	K h	-0.515685
-1.0502679	W h	-0.2214847
-2.063552	h h	-0.2214847
-1.7009827	e h	-0.7468017
-0.9205108	t h	-0.72939605
-0.9020212	k h	-0.63359797
-1.6096592	i h	-0.78459024
-1.6455175	l h	-0.29655522
-1.4564705	o h	-0.6222998
-1.2796812	M h	-0.46531948
-0.8954031	R h	-0.3554558
-0.6721204	P h	-0.57195926
-0.99008423	T h	-0.3947384
-1.3669983	j h	-0.32708874
-1.6601988	n h	-0.46531948
-1.3437707	s h	-0.28287736
-1.5036775	a h	-0.7580713
-0.9970514	b h	-0.5385052
-1.4062546	m h	-0.7663495
-1.8689748	d h	-0.2214847
-1.6199112	u h	-0.7663495
-0.95240325	p h	-0.6342716
-1.3615339	g h	-0.36647904
-0.9752579	q h	-0.4852503
-1.112156	r h	-0.6213001
-1.0876477	c h	-0.4529679
-0.9177221	Q h	-0.2951334
-0.98326385	B h	-0.33880815
-1.1137133	C h	-0.31148994
-1.6267183	E h	-0.2214847
-1.5313398	G h	-0.2214847
-0.5951149	X h	-0.2214847
-0.9435426	<s> e	-1.524113
-0.99829286	D e	-0.25081986
-0.9300461	S e	-0.43485793
-1.4090225	K e	-0.2214847
-1.2278023	F e	-0.27551764
-0.9766431	W e	-0.25674978
-0.85588336	h e	-0.61682844
-1.4431616	e e	-0.5478512
-1.1070623	t e	-0.40375355
-1.06679	k e	-0.45185155
-1.663311	i e	-0.34360075
-0.8312635	l e	-0.5658748
-2.0171916	o e	-0.2214847
-1.0726006	L e	-0.29627052
-1.0497053	M e	-0.28381616
-1.0070022	R e	-0.28718048
-1.2623369	P e	-0.2214847
-1.4025146	T e	-0.2214847
-0.7087366	j e	-0.36227328
-1.1538479	n e	-0.4708031
-0.8937514	z e	-0.413133
-0.9002239	s e	-0.51098824
-0.6001528	w e	-0.61386716
-2.1191063	a e	-0.3372413
-0.8329165	b e	-0.47313985
-1.1229051	m e	-0.507685
-1.0197077	d e	-0.49404782
-0.85797966	f e	-0.36647335
-1.9323634	u e	-0.2951334
-0.82060117	p e	-0.42735472
-1.0080463	g e	-0.34243128
-1.2478268	N e	-0.3171681
-1.064142	q e	-0.56222945
-0.8891004	r e	-0.38908532
-0.8165147	y e	-0.40848917
-1.008023	c e	-0.3171681
-0.5804211	v e	-0.50276333
-1.2321671	H e	-0.2214847
-1.0923486	Z e	-0.2214847
-0.7525	x e	-0.2214847
-1.3134079	B e	-0.25153315
-1.131497	C e	-0.2214847
-1.5439533	E e	-0.2214847
-0.83768034	V e	-0.27551764
-1.237449	G e	-0.2214847
-0.86141753	Y e	-0.2888562
-2.92548	<s> t	-0.3804734
-1.7481031	I t	-0.2214847
-1.5579555	S t	-0.28381616
-1.5401205	U t	-0.2214847
-1.8903203	h t	-0.2214847
-1.3336397	e t	-0.61646545
-1.8136957	t t	-0.2951334
-1.7587829	k t	-0.2214847
-1.2731081	i t	-0.6688113
-1.8990259	l t	-0.2214847
-1.2826465	o t	-0.5452641
-1.527283	M t	-0.2951334
-1.5427839	O t	-0.2214847
-1.2236621	n t	-0.55871964
-1.2156572	s t	-0.40226322
-2.003815	w t	-0.2214847
-1.2308081	a t	-0.799184
-1.4321598	m t	-0.57777035
-1.8960792	f t	-0.2214847
-1.1873046	u t	-0.67415947
-1.6833366	p t	-0.2214847
-1.9582232	g t	-0.2214847
-1.3102021	N t	-0.4119188
-1.4676157	r t	-0.27609956
-1.2797425	c t	-0.30969828
-1.1857414	x t	-0.2214847
-1.036134	<s> k	-2.0475473
-1.5401706	A k	-0.2214847
-1.8143045	I k	-0.2214847
-1.8857421	S k	-0.2214847
-1.5862231	U k	-0.2214847
-1.3236816	e k	-0.8541518
-1.2621462	i k	-0.8739833
-1.9316345	l k	-0.2214847
-1.247214	o k	-0.8251253
-1.8067127	M k	-0.2214847
-1.5862414	O k	-0.2214847
-1.7366422	n k	-0.33818075
-2.0867357	s k	-0.2214847
-1.2653307	a k	-0.95403767
-1.5861881	m k	-0.55050707
-1.302853	u k	-0.71604437
-1.5661258	N k	-0.2214847
-1.8341043	r k	-0.2214847
-1.4261862	c k	-0.2888562
-1.7731942	E k	-0.2214847
-1.1754414	<s> i	-1.3161712
-1.5379571	A i	-0.2214847
-1.5600259	I i	-0.2214847
-1.4215066	D i	-0.2214847
-1.1147441	S i	-0.2781528
-1.5833392	K i	-0.2214847
-1.2635798	F i	-0.2214847
-1.3053448	W i	-0.2214847
-0.8789268	h i	-0.4986736
-1.9728684	e i	-0.2214847
-1.1037647	t i	-0.41047034
-1.1197448	k i	-0.47492245
-2.0521262	i i	-0.2951334
-0.8746986	l i	-0.60733
-1.9772335	o i	-0.2214847
-0.9759016	L i	-0.30883864
-1.2356012	M i	-0.2951334
-1.0016171	R i	-0.25674978
-1.20925	P i	-0.31148994
-1.3908871	T i	-0.2214847
-0.7071654	j i	-0.40887132
-1.0845762	n i	-0.46173537
-0.6800182	z i	-0.59660727
-0.86922324	s i	-0.60697186
-0.8257845	w i	-0.5478512
-1.7055832	a i	-0.3554558
-0.9277948	b i	-0.4876919
-1.2552471	J i	-0.2214847
-1.322959	m i	-0.51102203
-1.0717866	d i	-0.4394691
-0.85601354	f i	-0.4352373
-1.9139439	u i	-0.2214847
-1.0452389	p i	-0.35041055
-1.1077076	g i	-0.34599885
-1.2391977	N i	-0.2951334
-0.8134578	q i	-0.5401181
-0.91498095	r i	-0.4072989
-0.9231523	y i	-0.50763494
-1.0042849	c i	-0.36702847
-0.78034943	v i	-0.37295783
-1.4592087	H i	-0.2214847
-0.6915876	Q i	-0.46531948
-0.8483725	Z i	-0.32863486
-1.1162708	x i	-0.2214847
-1.2609985	B i	-0.3372413
-1.3585385	C i	-0.2214847
-0.833865	V i	-0.2888562
-1.2287205	G i	-0.2214847
-1.2027844	Y i	-0.2214847
-1.3259976	<s> l	-1.9887227
-1.6468967	A l	-0.2214847
-1.6730992	I l	-0.2214847
-1.5072709	D l	-0.2214847
-1.4145623	K l	-0.2214847
-1.5693634	F l	-0.2214847
-1.0370517	h l	-0.7083575
-1.2066485	e l	-0.94842273
-1.2142217	t l	-0.60491735
-1.9427497	k l	-0.2214847
-1.2163666	i l	-0.7958449
-1.5270426	l l	-0.3132624
-1.213239	o l	-0.65226305
-1.6733291	M l	-0.2214847
-1.5605701	P l	-0.2214847
-1.4908748	O l	-0.2214847
-1.0691285	T l	-0.5175644
-1.7981107	n l	-0.2951334
-1.9563535	s l	-0.2214847
-1.9463378	w l	-0.2214847
-1.1599518	a l	-0.8924472
-1.5692972	b l	-0.2951334
-1.4656298	m l	-0.48935366
-0.9818091	d l	-0.5953382
-1.5929663	f l	-0.2214847
-1.1427693	u l	-0.8911451
-1.1289183	p l	-0.3732526
-1.689597	g l	-0.2214847
-1.7434748	r l	-0.2214847
-1.7987171	c l	-0.2214847
-0.5725794	H l	-0.61116594
-1.606144	B l	-0.2214847
-1.4357483	C l	-0.2214847
-1.6350873	E l	-0.2214847
-1.4136992	<s> o	-1.2483557
-1.1794356	D o	-0.26415983
-1.2127198	S o	-0.32558697
-0.9248207	K o	-0.35285586
-0.9242935	F o	-0.3680375
-1.3236545	W o	-0.2214847
-0.8567825	h o	-0.5029375
-2.1885545	e o	-0.2214847
-1.0700327	t o	-0.37762478
-0.97389174	k o	-0.5136898
-1.8226576	i o	-0.4349843
-0.87718093	l o	-0.5678702
-1.5481303	o o	-0.32248148
-1.3578097	L o	-0.2214847
-1.0536258	M o	-0.28306025
-1.4721434	R o	-0.2214847
-1.5049537	P o	-0.2214847
-1.6271013	T o	-0.2214847
-1.3947334	j o	-0.2214847
-1.1939204	n o	-0.43777487
-0.95383483	z o	-0.46918687
-1.002915	s o	-0.516689
-1.1615828	w o	-0.3554874
-2.2222533	a o	-0.2214847
-0.98962617	b o	-0.4580137
-0.9253623	J o	-0.25153315
-1.4949867	m o	-0.36158574
-1.0218186	d o	-0.40431824
-0.8134754	f o	-0.3999934
-0.94442964	p o	-0.44665113
-0.9261792	g o	-0.33877793
-0.9790571	N o	-0.36350203
-0.75775564	q o	-0.36338145
-1.0185462	r o	-0.36908573
-0.9272931	y o	-0.39198157
-0.86136955	c o	-0.32852465
-1.0379591	v o	-0.2951334
-1.4834515	H o	-0.2214847
-1.267346	Q o	-0.2214847
-1.097291	Z o	-0.31148994
-0.9701579	B o	-0.3177252
-1.1371249	C o	-0.24229832
-1.2433671	G o	-0.27551764
-1.2196385	Y o	-0.2214847
-2.5534112	<s> L	-0.7188607
-1.3250748	A L	-0.2214847
-1.6142563	I L	-0.2214847
-1.6392108	D L	-0.2214847
-1.3099947	U L	-0.2214847
-1.9223539	e L	-0.45389533
-2.1451607	i L	-0.2951334
-2.2289882	o L	-0.34038073
-1.8156894	L L	-0.2214847
-1.301147	O L	-0.2214847
-2.1905155	n L	-0.2214847
-1.9924097	a L	-0.32210007
-2.012164	m L	-0.3372413
-2.1789696	u L	-0.30002564
-1.3253621	H L	-0.2214847
-1.3280221	E L	-0.2214847
-2.5674944	<s> M	-0.56130284
-1.3370414	A M	-0.27687663
-1.5873889	I M	-0.2951334
-1.3230637	U M	-0.2214847
-1.9364879	e M	-0.35483167
-2.374041	i M	-0.2214847
-1.8730158	o M	-0.28773838
-1.3131654	O M	-0.2214847
-1.9030546	T M	-0.2214847
-2.1006885	a M	-0.32863486
-1.9287776	u M	-0.29925805
-1.8632052	E M	-0.2214847
-1.5174903	V M	-0.2214847
-2.7741013	<s> R	-0.54568243
-1.5495203	A R	-0.27551764
-1.9375087	I R	-0.2214847
-1.332	U R	-0.2214847
-2.023289	e R	-0.35862154
-2.3283758	o R	-0.3372413
-1.724393	P R	-0.2214847
-1.6608589	O R	-0.2214847
-2.4509354	a R	-0.26415983
-2.2381575	u R	-0.27551764
-1.6041976	E R	-0.2214847
-2.556032	<s> P	-0.6100698
-1.8681313	A P	-0.2214847
-1.3918502	I P	-0.2214847
-1.3396518	D P	-0.3372413
-1.6470335	U P	-0.2214847
-1.8165023	e P	-0.51665413
-1.9568187	i P	-0.404379
-2.5137115	o P	-0.2214847
-1.6771438	R P	-0.2214847
-2.1006885	a P	-0.404379
-1.8344755	m P	-0.46531948
-2.0482142	u P	-0.404379
-1.5738504	C P	-0.2214847
-2.6196654	<s> O	-0.4886978
-1.953633	I O	-0.2214847
-1.6939068	D O	-0.2214847
-1.7025167	S O	-0.3372413
-1.5207113	K O	-0.27551764
-1.5029982	L O	-0.2951334
-1.7331326	P O	-0.2214847
-1.6983911	H O	-0.2214847
-1.5977209	C O	-0.2214847
-0.9810438	Y O	-0.2214847
-2.6989868	<s> T	-0.35220575
-1.3250748	A T	-0.2214847
-1.3785386	I T	-0.2214847
-1.6119628	S T	-0.2214847
-1.9949896	e T	-0.3519302
-2.1451607	i T	-0.37662047
-2.4577403	o T	-0.2214847
-1.8156894	L T	-0.2214847
-1.6525027	R T	-0.2214847
-1.6178339	O T	-0.2214847
-1.9751285	n T	-0.27551764
-2.0820339	a T	-0.27551764
-1.6034403	m T	-0.51832235
-2.024316	u T	-0.3171681
-1.651894	H T	-0.2214847
-1.5182658	E T	-0.2951334
-3.8135555	<s> j	-0.2214847
-1.9219618	I j	-0.2214847
-1.7255278	e j	-0.5276478
-1.1934962	t j	-0.60491735
-1.7107804	i j	-0.4349843
-1.9739871	o j	-0.3171681
-0.95568794	T j	-0.5401181
-1.5546373	n j	-0.5399531
-1.7618952	a j	-0.5030066
-2.0597873	m j	-0.3372413
-1.8402463	u j	-0.48356026
-1.9117385	N j	-0.2214847
-0.8338127	<s> n	-2.2441292
-1.7593279	A n	-0.2214847
-1.7910979	I n	-0.2214847
-1.5703056	U n	-0.2214847
-1.8614691	h n	-0.26415983
-1.2174873	e n	-0.80919427
-2.1063554	t n	-0.2214847
-1.77828	k n	-0.2214847
-1.1297607	i n	-0.79534596
-1.1079879	o n	-0.7340834
-1.506117	M n	-0.26851764
-1.5712671	O n	-0.2214847
-1.8829098	n n	-0.26415983
-2.035683	w n	-0.2214847
-1.1811085	a n	-0.8568485
-1.5058813	m n	-0.44781834
-1.1379225	u n	-0.7028481
-1.7540392	g n	-0.2214847
-1.7771256	r n	-0.30213934
-1.5977036	y n	-0.2214847
-1.9030484	c n	-0.2214847
-1.5252576	E n	-0.24766141
-1.4853317	<s> z	-1.916338
-1.8043592	A z	-0.2214847
-1.8388214	I z	-0.2214847
-1.6027464	U z	-0.2214847
-1.4645493	e z	-0.8980216
-1.861114	t z	-0.2214847
-1.403755	i z	-0.84098303
-1.6572956	o z	-0.51658285
-1.6017505	O z	-0.2214847
-1.5331882	n z	-0.41874498
-2.109022	s z	-0.2214847
-1.4103702	a z	-0.8253401
-1.7985535	m z	-0.3705261
-1.3655294	d z	-0.40732753
-1.3876988	u z	-0.6979407
-1.3378974	N z	-0.307469
-1.8185439	v z	-0.2214847
-1.552332	E z	-0.3372413
-1.239	<s> s	-2.0760548
-1.6902653	A s	-0.2214847
-1.7184384	I s	-0.2214847
-1.717952	K s	-0.2214847
-1.5187835	U s	-0.2214847
-2.1093512	h s	-0.2214847
-1.2971449	e s	-0.76486677
-1.3432852	t s	-0.37002754
-1.699106	k s	-0.27687663
-1.2699683	i s	-0.8701138
-1.8398192	l s	-0.2951334
-1.3500054	o s	-0.6230105
-1.7164137	M s	-0.2214847
-1.2996304	T s	-0.2888562
-1.4964213	n s	-0.34940538
-1.4511312	s s	-0.30213934
-1.9813603	w s	-0.2214847
-1.287916	a s	-0.74852216
-1.6348768	b s	-0.2214847
-1.4819504	m s	-0.4852503
-1.6447519	d s	-0.34038073
-1.8750825	f s	-0.2214847
-1.2898036	u s	-0.6011105
-1.9039009	p s	-0.2214847
-1.9312847	g s	-0.2214847
-1.5750725	r s	-0.34382343
-1.836944	y s	-0.2214847
-1.8391896	c s	-0.2214847
-1.6795368	E s	-0.2214847
-1.3651671	<s> w	-2.0729325
-1.672395	A w	-0.2214847
-1.699731	I w	-0.2214847
-1.533278	S w	-0.2951334
-1.24653	K w	-0.33912224
-1.1643776	h w	-0.6414107
-1.6367596	e w	-0.555353
-1.7864901	t w	-0.2888562
-1.0301512	k w	-0.6831326
-1.5478452	i w	-0.687867
-1.0970075	l w	-0.73225397
-1.5358438	o w	-0.40763602
-1.1017935	L w	-0.48356026
-1.7225015	T w	-0.2214847
-1.0361706	j w	-0.46531948
-1.574454	n w	-0.56222945
-1.1161329	z w	-0.6165871
-1.2741699	s w	-0.56222945
-1.6737142	w w	-0.26415983
-1.4367014	a w	-0.8090373
-1.8890542	b w	-0.2214847
-1.1605234	d w	-0.5175644
-1.6323044	u w	-0.3887511
-1.888195	p w	-0.2214847
-1.2759295	g w	-0.4365038
-1.7474968	q w	-0.2214847
-1.7237265	r w	-0.2888562
-1.5152187	y w	-0.33912224
-1.5644801	c w	-0.34038073
-1.1308647	Z w	-0.2214847
-1.6612076	E w	-0.2214847
-1.1406807	<s> a	-1.5007402
-0.8723128	D a	-0.2214847
-1.3155458	S a	-0.27111405
-1.2058574	K a	-0.28287736
-1.0464392	F a	-0.26415983
-1.026987	W a	-0.2214847
-0.8322964	h a	-0.70141596
-1.9125377	e a	-0.28381616
-1.1059602	t a	-0.44359618
-0.9715515	k a	-0.48886752
-1.660739	i a	-0.39346525
-0.8100057	l a	-0.6558563
-2.01089	o a	-0.2214847
-0.97892517	L a	-0.37720203
-1.0477581	M a	-0.31594354
-1.0051998	R a	-0.24766141
-0.90828216	P a	-0.2951334
-1.1350607	T a	-0.3171681
-0.656023	j a	-0.46012717
-1.1523942	n a	-0.5469655
-0.75377154	z a	-0.56418157
-1.0832608	s a	-0.5057223
-0.5998497	w a	-0.6755635
-2.1125274	a a	-0.2214847
-0.7531924	b a	-0.5470703
-0.5801314	J a	-0.32210007
-1.1214523	m a	-0.5463041
-0.92524296	d a	-0.43418637
-0.90830773	f a	-0.4665012
-1.9261364	u a	-0.2214847
-1.047459	p a	-0.3305935
-0.9633079	g a	-0.4539593
-1.1349688	N a	-0.30961674
-0.8148111	q a	-0.49932563
-0.91671884	r a	-0.46868864
-0.7701868	y a	-0.52886444
-1.0067734	c a	-0.3132624
-0.78142333	v a	-0.4558607
-1.1833179	H a	-0.307469
-0.5535481	Q a	-0.30213934
-1.041583	Z a	-0.3171681
-0.86901885	B a	-0.34968293
-1.1287102	C a	-0.25674978
-1.5371562	E a	-0.2214847
-1.0309854	V a	-0.2951334
-0.88167083	G a	-0.28718048
-1.2094477	Y a	-0.2214847
-1.3594909	<s> b	-1.8822702
-1.5177293	A b	-0.26851764
-1.8648057	I b	-0.2214847
-1.6199231	U b	-0.2214847
-1.5446641	e b	-0.7285609
-2.1780577	t b	-0.2214847
-1.5133846	i b	-0.77049136
-2.233162	l b	-0.2214847
-1.2724947	o b	-0.72760135
-1.3477051	M b	-0.27551764
-2.132514	s b	-0.2214847
-1.4129707	a b	-0.8768677
-1.5274984	m b	-0.65330994
-1.3912926	u b	-0.61881936
-2.111189	r b	-0.2214847
-1.8223261	E b	-0.2214847
-3.1401124	<s> J	-0.5401181
-2.4924495	e J	-0.3372413
-2.691821	i J	-0.2214847
-1.6423033	T J	-0.2214847
-2.4490988	a J	-0.2951334
-2.1132834	m J	-0.3372413
-2.3250878	u J	-0.2951334
-1.9412588	E J	-0.2214847
-2.12705	<s> m	-0.71042717
-1.7593279	A m	-0.2214847
-1.7910979	I m	-0.2214847
-1.8646578	S m	-0.2214847
-1.5703056	U m	-0.2214847
-1.3747969	e m	-0.61201423
-1.880884	t m	-0.3372413
-1.2952696	i m	-0.59143996
-1.1711397	o m	-0.69754493
-1.506117	M m	-0.307469
-1.5712671	O m	-0.2214847
-1.9207773	n m	-0.3372413
-1.93182	z m	-0.2214847
-2.0655375	s m	-0.2214847
-1.2634782	a m	-0.75185025
-1.9492863	m m	-0.28381616
-1.9784143	d m	-0.2214847
-1.1379225	u m	-0.5186961
-1.963828	p m	-0.2214847
-1.8199407	r m	-0.2214847
-1.8870322	y m	-0.2214847
-1.7505667	E m	-0.2214847
-3.2625694	<s> d	-0.26235235
-1.8414887	A d	-0.2214847
-1.8784051	I d	-0.2214847
-1.4464678	e d	-0.55312574
-1.5152149	i d	-0.5611919
-1.7082496	l d	-0.31148994
-1.4586027	o d	-0.5095415
-1.2886357	n d	-0.5173301
-1.3186597	a d	-0.7362592
-1.7010096	m d	-0.25674978
-2.0512064	d d	-0.2214847
-1.5803101	u d	-0.45089898
-1.2133201	N d	-0.3554558
-1.8237336	r d	-0.2951334
-1.8355294	E d	-0.2214847
-3.2897542	<s> f	-0.26851764
-1.7593279	A f	-0.2214847
-1.7910979	I f	-0.2214847
-1.5703056	U f	-0.2214847
-2.1697094	h f	-0.2214847
-1.6589307	e f	-0.54276943
-2.1063554	t f	-0.2214847
-1.5660169	i f	-0.6329461
-1.9204907	l f	-0.2214847
-1.6463487	o f	-0.3324002
-1.7849617	M f	-0.2214847
-1.5712671	O f	-0.2214847
-1.8829098	n f	-0.2951334
-2.0655375	s f	-0.2214847
-2.035683	w f	-0.2214847
-1.6912194	a f	-0.652263
-1.5058813	m f	-0.4852503
-1.2462258	f f	-0.34382343
-1.7922653	u f	-0.4358774
-1.963828	p f	-0.2214847
-2.0362873	r f	-0.2214847
-1.7505667	E f	-0.2214847
-1.149532	<s> u	-1.4217606
-1.5644419	A u	-0.2214847
-1.4427729	D u	-0.2214847
-1.5063633	S u	-0.2214847
-0.99992895	K u	-0.3395867
-0.67710805	F u	-0.5898862
-1.0666449	h u	-0.49230808
-2.1800811	e u	-0.2214847
-1.1989592	t u	-0.34069952
-0.8954424	k u	-0.59487164
-2.167181	i u	-0.2214847
-1.0488665	l u	-0.49325934
-1.507457	o u	-0.3680375
-0.9819699	L u	-0.45673105
-1.5913426	M u	-0.2214847
-1.265333	P u	-0.2214847
-1.4283285	O u	-0.2214847
-1.4432899	T u	-0.2214847
-1.3921947	j u	-0.2214847
-1.7326821	n u	-0.31148994
-0.8943851	z u	-0.43094975
-1.1340146	s u	-0.4533455
-1.2384999	w u	-0.34423658
-2.011174	a u	-0.2214847
-0.83348703	b u	-0.53151023
-1.2694316	J u	-0.2214847
-1.3322845	m u	-0.45646277
-1.076561	d u	-0.32777423
-0.8128829	f u	-0.46170846
-1.1904588	p u	-0.39657593
-1.1129674	g u	-0.37508187
-0.96556073	q u	-0.4119188
-1.4124542	r u	-0.25674978
-1.1700314	y u	-0.30969828
-1.0728692	c u	-0.24229832
-0.85196555	v u	-0.49220538
-1.4784935	H u	-0.2214847
-1.0459774	Z u	-0.2951334
-0.7917715	B u	-0.34548256
-1.3778234	C u	-0.2214847
-1.5508585	E u	-0.2214847
-0.8389596	V u	-0.27551764
-1.0123215	G u	-0.2888562
-0.9166192	Y u	-0.2214847
-0.58637935	X u	-0.2214847
-2.9683752	<s> p	-0.45242378
-1.7926562	A p	-0.2214847
-1.8263899	I p	-0.2214847
-1.896681	S p	-0.2214847
-1.4403133	e p	-0.6537075
-2.1407285	t p	-0.2214847
-1.5079391	i p	-0.50471765
-1.3912128	o p	-0.47900224
-1.5231938	M p	-0.2951334
-1.5939267	O p	-0.2214847
-1.7972542	s p	-0.2951334
-1.4307449	a p	-0.5804445
-1.3494427	m p	-0.46946138
-1.4864542	u p	-0.42149398
-1.6678201	p p	-0.2951334
-1.8413632	r p	-0.2214847
-1.910403	y p	-0.2214847
-1.2092971	x p	-0.2214847
-1.784966	E p	-0.2214847
-3.3727078	<s> g	-0.2951334
-1.7926562	A g	-0.2214847
-1.8263899	I g	-0.2214847
-1.5286958	K g	-0.3372413
-1.5980501	e g	-0.5519723
-1.153883	k g	-0.6596515
-1.6083647	i g	-0.42468423
-1.7096038	o g	-0.3483343
-1.2358018	n g	-0.6183274
-1.7972542	s g	-0.2951334
-2.061219	w g	-0.2214847
-1.5031084	a g	-0.52891016
-1.5904373	m g	-0.5432422
-2.0081303	d g	-0.2214847
-1.6175138	u g	-0.32679912
-2.0284548	g g	-0.2214847
-1.1018478	N g	-0.34136528
-1.6166476	r g	-0.26415983
-1.9335793	c g	-0.2214847
-1.9247891	<s> N	-1.2433692
-1.601761	I N	-0.2214847
-1.2744422	U N	-0.2888562
-1.7735455	e N	-0.5332508
-1.8885957	i N	-0.32088062
-2.1057801	o N	-0.27551764
-2.2364886	a N	-0.28381616
-1.723621	m N	-0.45306557
-1.8453494	u N	-0.3324002
-1.779139	B N	-0.2214847
-1.3493721	E N	-0.2214847
-3.2164645	<s> q	-0.28287736
-1.9069523	I q	-0.2214847
-1.8723645	e q	-0.48356026
-1.6629572	i q	-0.5639238
-2.2611628	o q	-0.307469
-1.4706458	n q	-0.47121438
-1.6733891	a q	-0.63679224
-1.8344755	m q	-0.2888562
-2.0482142	u q	-0.3554558
-1.3120458	g q	-0.41830346
-1.5583532	N q	-0.34038073
-2.0019488	c q	-0.2214847
-1.8632052	E q	-0.2214847
-3.62391	<s> r	-0.3372413
-1.7089028	A r	-0.2214847
-1.7379881	I r	-0.2214847
-1.532891	U r	-0.2214847
-1.6135764	F r	-0.2214847
-1.5265872	h r	-0.32210007
-1.3155819	e r	-0.64785695
-1.2813307	t r	-0.39244366
-1.4394339	i r	-0.55425406
-1.1666391	o r	-0.50076234
-1.7349203	M r	-0.2214847
-1.6042267	P r	-0.2214847
-1.5359457	O r	-0.2214847
-1.7566361	T r	-0.2214847
-2.043972	n r	-0.2214847
-2.01667	s r	-0.2214847
-1.3062444	a r	-0.5726391
-1.7405478	m r	-0.37926173
-1.6990427	d r	-0.2214847
-1.6186911	f r	-0.3372413
-1.2926698	u r	-0.4954631
-1.2192357	p r	-0.3171681
-1.1374578	g r	-0.555353
-1.7864298	r r	-0.26415983
-1.5828923	c r	-0.2951334
-1.3780657	B r	-0.3372413
-0.90838444	G r	-0.404379
-1.3361102	<s> y	-2.0653389
-1.7701555	A y	-0.2214847
-1.8025461	I y	-0.2214847
-1.5983667	D y	-0.2214847
-1.8750719	S y	-0.2214847
-1.915335	h y	-0.3372413
-1.5084698	e y	-0.677763
-1.6631985	t y	-0.2888562
-1.5680838	i y	-0.7066207
-1.9260269	l y	-0.2214847
-1.6007719	o y	-0.44454354
-1.2322986	n y	-0.5892092
-1.3859789	a y	-0.82652664
-1.9245507	m y	-0.307469
-1.9880954	d y	-0.2214847
-1.5210112	u y	-0.6229273
-1.7127249	g y	-0.34038073
-1.5132668	N y	-0.27551764
-1.6080081	r y	-0.46531948
-1.659962	c y	-0.3372413
-1.5159504	C y	-0.2214847
-3.3727078	<s> c	-0.27687663
-1.7926562	A c	-0.2214847
-1.4056512	S c	-0.3680375
-1.6665798	e c	-0.34974113
-1.4264299	i c	-0.48231447
-1.8465146	o c	-0.25153315
-1.5939267	O c	-0.2214847
-1.5297141	n c	-0.37926173
-2.097736	s c	-0.2214847
-1.8440735	a c	-0.32508636
-2.1529963	m c	-0.2214847
-1.892973	u c	-0.34382343
-1.148802	g c	-0.44970736
-1.3343374	N c	-0.27551764
-1.6166476	r c	-0.307469
-1.6222384	c c	-0.2214847
-0.8468881	x c	-0.2951334
-1.784966	E c	-0.2214847
-1.6353756	G c	-0.2214847
-3.6099825	<s> v	-0.3372413
-1.6374217	I v	-0.2214847
-1.6470335	U v	-0.2214847
-1.7670134	e v	-0.6279453
-1.5188991	i v	-0.67092407
-1.6713789	o v	-0.4461537
-1.6110548	M v	-0.2214847
-2.0050879	n v	-0.2214847
-1.7140851	a v	-0.60877615
-1.5387243	m v	-0.515685
-1.9287776	u v	-0.32861933
-2.1541166	r v	-0.2214847
-1.8632052	E v	-0.2214847
-3.2046013	<s> H	-0.28287736
-1.8287562	A H	-0.2214847
-1.8648057	I H	-0.2214847
-1.5442818	K H	-0.2214847
-1.6199231	U H	-0.2214847
-1.8601437	e H	-0.59439474
-1.9418669	i H	-0.6414107
-2.4577403	o H	-0.2214847
-1.3626574	P H	-0.2214847
-1.5908861	T H	-0.2214847
-1.9751285	n H	-0.3372413
-2.3483624	a H	-0.34038073
-1.3890191	J H	-0.2214847
-1.695536	m H	-0.48356026
-2.2160552	u H	-0.2214847
-1.657996	G H	-0.2214847
-3.901077	<s> Q	-0.2214847
-2.4631276	e Q	-0.2951334
-2.41326	i Q	-0.307469
-2.653435	o Q	-0.2214847
-2.769178	a Q	-0.2214847
-2.6004758	u Q	-0.2214847
-1.958706	E Q	-0.2214847
-3.0526285	<s> Z	-0.44085863
-1.9375087	I Z	-0.2214847
-2.1171196	e Z	-0.3171681
-2.3588023	i Z	-0.2214847
-2.2779894	n Z	-0.2214847
-2.4509354	a Z	-0.2214847
-2.0725563	m Z	-0.3372413
-2.280933	u Z	-0.2214847
-1.9253488	N Z	-0.2214847
-1.779139	B Z	-0.2214847
-1.8927653	E Z	-0.2214847
-2.5143366	e x	-0.2214847
-2.8189173	i x	-0.2214847
-2.7448175	o x	-0.2214847
-2.0156941	E x	-0.2214847
-2.430684	<s> B	-0.71505386
-1.9375087	I B	-0.2214847
-1.6954896	S B	-0.2214847
-1.8238294	e B	-0.4789277
-2.062948	i B	-0.35398895
-2.2840183	o B	-0.34038073
-1.8711746	L B	-0.2214847
-2.4085367	a B	-0.31148994
-1.8497198	m B	-0.2951334
-2.2381575	u B	-0.26851764
-1.8927653	E B	-0.2214847
-2.4412577	<s> C	-0.66254735
-1.6255054	A C	-0.2214847
-1.9877965	I C	-0.2214847
-1.762857	F C	-0.2214847
-2.7250772	e C	-0.2214847
-2.626799	o C	-0.2214847
-2.3250878	u C	-0.27551764
-1.3665497	G C	-0.2951334
-2.277334	<s> E	-0.50711644
-1.8143045	I E	-0.2214847
-1.3105676	D E	-0.2214847
-1.6368924	S E	-0.2214847
-1.7954938	K E	-0.2214847
-1.0812421	W E	-0.2214847
-1.4550394	L E	-0.2214847
-1.5174267	M E	-0.2214847
-1.3183191	R E	-0.2214847
-1.8237039	T E	-0.2214847
-2.052539	w E	-0.2214847
-1.3704331	J E	-0.2214847
-2.0176992	g E	-0.2214847
-1.6234498	H E	-0.2214847
-1.7030513	B E	-0.2214847
-1.5227796	C E	-0.2214847
-1.7731942	E E	-0.2214847
-1.4766896	V E	-0.2214847
-1.6280899	G E	-0.2214847
-1.3111211	Y E	-0.2214847
-3.5378366	<s> V	-0.2214847
-1.9877965	I V	-0.2214847
-2.4473174	e V	-0.2951334
-2.445939	i V	-0.2214847
-1.7215993	R V	-0.2214847
-2.0647364	m V	-0.307469
-2.5722075	u V	-0.2214847
-1.9412588	E V	-0.2214847
-2.8793347	<s> G	-0.3350785
-1.8965158	A G	-0.2214847
-1.6535816	I G	-0.2214847
-1.6660954	U G	-0.2214847
-2.2369738	e G	-0.29119956
-2.4013891	i G	-0.2951334
-2.2779894	n G	-0.2214847
-2.4509354	a G	-0.2214847
-2.3000762	m G	-0.2214847
-2.4970067	u G	-0.2214847
-1.6242628	N G	-0.2214847
-2.940271	<s> Y	-0.35708776
-2.4795353	e Y	-0.34038073
-2.7998514	a Y	-0.2214847
-2.630713	u Y	-0.2214847
-1.7324075	H Y	-0.2214847
-1.9768836	E Y	-0.2214847
-4.319797	<s> X	-0.2214847
-2.8781471	i X	-0.2214847
-4.3460007	<s> Â	-0.2214847

\3-grams:
-1.6071638	<s> A </s>	0
-0.31359294	D A </s>	0
-0.40770438	S A </s>	0
-0.5436413	F A </s>	0
-0.18564604	W A </s>	0
-0.32035458	L A </s>	0
-0.36371967	T A </s>	0
-0.31359294	J A </s>	0
-0.31359294	Z A </s>	0
-1.7104728	<s> I </s>	0
-0.3801012	I I </s>	0
-0.22587152	D I </s>	0
-0.79786575	M I </s>	0
-0.7769215	T I </s>	0
-0.3309046	H I </s>	0
-0.7769215	C I </s>	0
-0.3309046	E I </s>	0
-1.4693611	<s> D </s>	0
-0.35758346	C D </s>	0
-0.35758346	E D </s>	0
-0.7104382	A S </s>	0
-1.0272641	I S </s>	0
-0.33618692	D S </s>	0
-0.5827432	M S </s>	0
-0.33618692	R S </s>	0
-0.5827432	P S </s>	0
-0.23121154	T S </s>	0
-0.68262875	E S </s>	0
-2.180202	<s> U </s>	0
-0.35583952	M U </s>	0
-0.35583952	C U </s>	0
-0.92784184	A F </s>	0
-0.65956604	W h </s>	0
-1.1902802	t h </s>	0
-1.2139741	s h </s>	0
-1.300151	g h </s>	0
-1.7194306	r h </s>	0
-2.7678306	<s> e </s>	0
-1.0240785	h e </s>	0
-1.2941709	e e </s>	0
-0.81973976	t e </s>	0
-0.81437695	k e </s>	0
-1.2778579	i e </s>	0
-0.9762245	l e </s>	0
-0.7896232	o e </s>	0
-1.2909244	L e </s>	0
-1.1538221	j e </s>	0
-1.124553	n e </s>	0
-1.062562	z e </s>	0
-1.0740012	s e </s>	0
-0.90369815	w e </s>	0
-0.998887	b e </s>	0
-1.0347174	m e </s>	0
-0.7753993	d e </s>	0
-1.4173689	f e </s>	0
-0.41498202	u e </s>	0
-0.8937069	p e </s>	0
-1.2864735	g e </s>	0
-0.90292656	r e </s>	0
-0.9443599	y e </s>	0
-0.7980051	c e </s>	0
-0.999596	v e </s>	0
-1.3422112	e t </s>	0
-1.2702849	i t </s>	0
-1.3028566	o t </s>	0
-1.1484653	n t </s>	0
-0.94996095	s t </s>	0
-1.3781514	a t </s>	0
-0.35059756	f t </s>	0
-0.6084986	p t </s>	0
-0.927339	r t </s>	0
-0.8013115	c t </s>	0
-0.35059756	x t </s>	0
-0.6583322	l k </s>	0
-1.159972	n k </s>	0
-0.6583322	r k </s>	0
-0.46470365	c k </s>	0
-2.585214	<s> i </s>	0
-1.1265723	h i </s>	0
-0.88489944	t i </s>	0
-0.9756489	k i </s>	0
-1.0491309	i i </s>	0
-1.243263	l i </s>	0
-1.0390389	R i </s>	0
-1.0537804	j i </s>	0
-1.0889454	n i </s>	0
-1.2649969	z i </s>	0
-1.3658307	s i </s>	0
-1.2090961	w i </s>	0
-1.0573103	b i </s>	0
-1.3092461	m i </s>	0
-0.85969085	d i </s>	0
-1.5051218	f i </s>	0
-0.7795964	p i </s>	0
-1.2976241	g i </s>	0
-0.95063555	r i </s>	0
-1.1164297	y i </s>	0
-1.516839	e l </s>	0
-0.36970934	k l </s>	0
-1.3871121	i l </s>	0
-0.73247963	l l </s>	0
-1.7206122	o l </s>	0
-1.1761127	a l </s>	0
-1.9594942	u l </s>	0
-2.400062	<s> o </s>	0
-0.9749789	h o </s>	0
-0.63061637	e o </s>	0
-0.61182034	t o </s>	0
-0.9724028	k o </s>	0
-0.95328486	l o </s>	0
-1.2537414	o o </s>	0
-0.63061637	j o </s>	0
-1.0550652	n o </s>	0
-0.8190193	z o </s>	0
-1.0239456	s o </s>	0
-0.7207401	w o </s>	0
-0.36267155	a o </s>	0
-0.96274257	b o </s>	0
-0.73827064	m o </s>	0
-1.0148879	d o </s>	0
-1.1281452	p o </s>	0
-1.2045736	g o </s>	0
-0.8491156	r o </s>	0
-0.72458184	y o </s>	0
-0.679885	v o </s>	0
-0.382348	L L </s>	0
-0.3825769	T M </s>	0
-1.5829095	<s> R </s>	0
-0.2461303	D P </s>	0
-0.3612776	R P </s>	0
-0.3612776	C P </s>	0
-0.33494678	D O </s>	0
-0.2304651	S O </s>	0
-0.48734614	K O </s>	0
-0.5805577	Y O </s>	0
-0.8761285	A T </s>	0
-0.7791143	S T </s>	0
-0.36388466	L T </s>	0
-0.36388466	R T </s>	0
-0.96505886	h n </s>	0
-1.7689021	e n </s>	0
-1.7454621	i n </s>	0
-1.2485781	o n </s>	0
-0.96505886	n n </s>	0
-0.3656074	w n </s>	0
-1.4925882	a n </s>	0
-0.6360731	g n </s>	0
-1.0800599	r n </s>	0
-0.8198416	t z </s>	0
-0.37909126	s z </s>	0
-1.9463935	a z </s>	0
-0.8890357	e s </s>	0
-1.104575	t s </s>	0
-0.73658586	l s </s>	0
-1.2898258	o s </s>	0
-0.8700177	n s </s>	0
-0.97261924	s s </s>	0
-1.1530738	a s </s>	0
-0.96030015	m s </s>	0
-0.23019294	d s </s>	0
-0.33816606	g s </s>	0
-0.37611258	r s </s>	0
-0.33816606	c s </s>	0
-1.6357771	e w </s>	0
-1.5208427	o w </s>	0
-1.3952292	u w </s>	0
-2.7214508	<s> a </s>	0
-0.97578347	F a </s>	0
-1.1170835	h a </s>	0
-1.1109265	t a </s>	0
-1.1375842	k a </s>	0
-0.48433152	i a </s>	0
-1.0438772	l a </s>	0
-1.4233437	M a </s>	0
-1.1714146	j a </s>	0
-0.98688924	n a </s>	0
-1.0454198	z a </s>	0
-1.2121797	s a </s>	0
-0.89736086	w a </s>	0
-1.182619	b a </s>	0
-1.1959381	m a </s>	0
-0.85603	d a </s>	0
-1.1535817	f a </s>	0
-0.7913752	u a </s>	0
-1.0670199	p a </s>	0
-1.2180973	g a </s>	0
-1.1348706	r a </s>	0
-1.095398	y a </s>	0
-1.1130972	c a </s>	0
-1.0580804	v a </s>	0
-1.9181875	i b </s>	0
-2.0741613	a b </s>	0
-1.8990399	e m </s>	0
-1.8433164	i m </s>	0
-1.6000205	o m </s>	0
-0.9286508	M m </s>	0
-0.37529016	s m </s>	0
-1.6646626	u m </s>	0
-0.8094341	r m </s>	0
-0.97539896	e d </s>	0
-1.3076674	i d </s>	0
-0.590583	l d </s>	0
-1.402655	o d </s>	0
-1.055757	n d </s>	0
-1.5060515	a d </s>	0
-1.368174	u d </s>	0
-0.65314513	r d </s>	0
-0.6615833	l f </s>	0
-1.3700005	o f </s>	0
-1.4605702	u f </s>	0
-2.5758166	<s> u </s>	0
-1.388021	K u </s>	0
-1.2011299	h u </s>	0
-1.0242065	t u </s>	0
-1.5365399	k u </s>	0
-1.3092933	l u </s>	0
-0.6109006	n u </s>	0
-1.048188	z u </s>	0
-1.4333023	s u </s>	0
-1.2387015	w u </s>	0
-0.8680394	a u </s>	0
-1.4068692	b u </s>	0
-0.9527593	m u </s>	0
-0.79752874	d u </s>	0
-1.4709508	f u </s>	0
-1.2893821	g u </s>	0
-1.226937	q u </s>	0
-0.9106134	r u </s>	0
-1.1338838	y u </s>	0
-1.4625678	v u </s>	0
-1.784724	e p </s>	0
-1.6123614	i p </s>	0
-1.2065614	o p </s>	0
-1.3992853	u p </s>	0
-1.6473244	n g </s>	0
-1.7502035	a g </s>	0
-0.6394851	r g </s>	0
-0.38311204	B N </s>	0
-1.6326069	a q </s>	0
-1.0050179	m q </s>	0
-0.8633007	e r </s>	0
-1.6280432	i r </s>	0
-1.3799286	o r </s>	0
-1.4615937	a r </s>	0
-1.0988638	u r </s>	0
-1.1403072	e y </s>	0
-0.4029864	t y </s>	0
-0.55162686	l y </s>	0
-1.1643102	n y </s>	0
-1.5603755	a y </s>	0
-0.31827682	d y </s>	0
-0.21828698	g y </s>	0
-0.15260892	r y </s>	0
-0.22034955	c y </s>	0
-0.76491964	i c </s>	0
-0.37113684	E Z </s>	0
-0.84149253	e x </s>	0
-1.748595	<s> B </s>	0
-0.3653752	I B </s>	0
-0.3653752	L B </s>	0
-1.6272587	<s> C </s>	0
-0.7528333	A C </s>	0
-1.6220354	<s> E </s>	0
-0.772909	D E </s>	0
-0.36148888	K E </s>	0
-0.772909	L E </s>	0
-0.89028513	<s> V </s>	0
-0.34839457	I V </s>	0
-0.15724295	<s> Â </s>	0
-1.5247841	S A A	-0.20678554
-1.1537553	N D A	-0.20678554
-1.2430356	<s> S A	-0.24724674
-0.66425663	I S A	-0.25870132
-0.3253707	S S A	-0.20678554
-0.5638387	U S A	-0.20678554
-1.000678	i S A	-0.20678554
-0.5638387	M S A	-0.20678554
-0.5638387	P S A	-0.20678554
-0.5638387	O S A	-0.20678554
-0.3253707	n S A	-0.20678554
-0.9189117	E S A	-0.20678554
-0.64720917	I F A	-0.20678554
-0.64720917	U F A	-0.20678554
-0.27506104	S W A	-0.20678554
-0.43110788	K W A	-0.20678554
-0.1934211	L W A	-0.28718862
-0.27506104	N W A	-0.20678554
-0.27506104	H W A	-0.20678554
-0.36460957	D L A	-0.20678554
-0.63421494	U L A	-0.20678554
-0.87849087	O L A	-0.20678554
-0.87849087	E L A	-0.20678554
-1.7525796	<s> M A	-0.20678554
-0.5444737	A M A	-0.24512905
-0.6708859	U R A	-0.20678554
-1.5647256	<s> T A	-0.20678554
-0.930302	I T A	-0.20678554
-0.82188827	S T A	-0.20678554
-1.8145233	e s A	-0.28718862
-1.6114916	k w A	-0.20678554
-1.6895474	l w A	-0.20678554
-0.37234384	E J A	-0.20678554
-0.79107165	K H A	-0.20678554
-0.64137214	P H A	-0.20678554
-0.37848845	B Z A	-0.20678554
-1.8522302	<s> E A	-0.20678554
-0.8246948	D E A	-0.20678554
-0.36913055	A G A	-0.20678554
-0.6426638	N G A	-0.20678554
-2.2949	<s> A I	-0.20678554
-2.0581217	<s> I I	-0.20678554
-0.83654374	I I I	-0.20678554
-0.36463243	M D I	-0.20678554
-0.36463243	O D I	-0.20678554
-1.0590181	N D I	-0.20678554
-1.312261	I S I	-0.20678554
-1.163872	E S I	-0.20678554
-1.453413	<s> F I	-0.20678554
-0.8896694	A F I	-0.20678554
-1.0589275	e F I	-0.20678554
-0.9282047	A L I	-0.20678554
-0.9282047	E L I	-0.20678554
-0.42803162	I M I	-0.20678554
-0.38177997	E M I	-0.20678554
-1.3842868	<s> R I	-0.20678554
-0.50047314	A R I	-0.20678554
-0.34538096	P R I	-0.20678554
-0.34538096	O R I	-0.20678554
-1.4602813	<s> T I	-0.20678554
-0.89477444	A T I	-0.20678554
-0.89477444	I T I	-0.20678554
-0.36953235	O T I	-0.20678554
-1.3167825	<s> J I	-0.20678554
-1.259257	<s> d I	-0.20678554
-0.96510047	E N I	-0.20678554
-0.8333414	T H I	-0.20678554
-0.37848845	N Z I	-0.20678554
-1.6437681	<s> C I	-0.20678554
-0.75884706	A C I	-0.20678554
-0.4037674	G C I	-0.20678554
-1.9873247	<s> E I	-0.20678554
-0.39047316	A I D	-0.20678554
-3.4200053	<s> e D	-0.20678554
-2.3356054	l e D	-0.20678554
-2.1912045	z e D	-0.20678554
-3.1949685	<s> i D	-0.20678554
-2.4181514	l i D	-0.20678554
-1.1346049	A M D	-0.20678554
-0.38388735	H O D	-0.20678554
-2.4298468	e n D	-0.20678554
-2.4052439	i n D	-0.20678554
-3.2746959	<s> a D	-0.20678554
-2.4140604	w a D	-0.20678554
-2.3646054	b a D	-0.20678554
-2.8403466	<s> u D	-0.20678554
-1.960803	k u D	-0.20678554
-2.2266843	b u D	-0.20678554
-1.8691205	g u D	-0.20678554
-0.93376255	I N D	-0.20678554
-0.46826082	U N D	-0.20678554
-0.93376255	E N D	-0.20678554
-0.38141125	I C D	-0.20678554
-0.3896325	V E D	-0.20678554
-1.5136597	<s> G D	-0.20678554
-2.1341128	<s> A S	-0.20678554
-1.1186373	S A S	-0.20678554
-1.4322758	<s> I S	-0.22827998
-0.7676003	F I S	-0.20678554
-0.84036446	T I S	-0.20678554
-0.35257265	N I S	-0.20678554
-0.35257265	Z I S	-0.20678554
-0.84036446	C I S	-0.20678554
-0.38176227	I D S	-0.20678554
-0.3894548	G S S	-0.20678554
-2.056149	<s> U S	-0.25870132
-2.9273527	<s> e S	-0.20678554
-2.0987256	l e S	-0.20678554
-2.0108335	n e S	-0.20678554
-1.9507985	z e S	-0.20678554
-1.7008069	s e S	-0.2486643
-1.9607533	w e S	-0.269873
-1.9739114	b e S	-0.20678554
-1.830354	g e S	-0.20678554
-1.914991	y e S	-0.20678554
-1.4843138	r t S	-0.20678554
-2.6451018	<s> i S	-0.25870132
-2.06262	s i S	-0.20678554
-1.5424582	m i S	-0.36813238
-1.9209759	g i S	-0.20678554
-2.1187503	y i S	-0.20678554
-1.1508019	F o S	-0.20678554
-1.963617	n o S	-0.20678554
-1.618223	b o S	-0.25870132
-1.878003	g o S	-0.20678554
-1.0880696	A M S	-0.20678554
-0.38027218	V M S	-0.20678554
-0.94616926	A R S	-0.20678554
-0.3694404	A P S	-0.20678554
-0.8944664	I P S	-0.20678554
-1.5374967	<s> O S	-0.20678554
-0.63511676	C O S	-0.20678554
-0.8236935	S T S	-0.20678554
-0.38048345	H T S	-0.20678554
-2.484985	a n S	-0.20678554
-1.8548083	k a S	-0.20678554
-1.7169653	M a S	-0.20678554
-2.2422118	b a S	-0.20678554
-1.701446	m a S	-0.36813238
-2.006361	g a S	-0.20678554
-2.1866374	e m S	-0.20678554
-2.130925	u m S	-0.20678554
-1.893617	n d S	-0.20678554
-2.494595	<s> u S	-0.20678554
-1.7003093	K u S	-0.20678554
-1.6433666	k u S	-0.3367287
-2.1388843	b u S	-0.20678554
-1.8118354	g u S	-0.20678554
-0.97656757	P r S	-0.20678554
-1.389735	<s> E S	-0.20678554
-0.3471501	I E S	-0.20678554
-0.8239035	W E S	-0.20678554
-0.7368536	M E S	-0.20678554
-0.60227543	R E S	-0.20678554
-0.3471501	T E S	-0.20678554
-1.4887253	<s> G S	-0.20678554
-1.9264758	<s> A K	-0.20678554
-0.66312754	F A K	-0.20678554
-0.66312754	G A K	-0.20678554
-1.9606779	<s> I K	-0.20678554
-1.0280843	R I K	-0.20678554
-1.6423111	<s> U K	-0.3367287
-0.368519	L U K	-0.20678554
-2.5494242	<s> e K	-0.23718475
-1.7354559	S e K	-0.20678554
-2.0904315	l e K	-0.20678554
-2.0024028	n e K	-0.20678554
-1.7073734	z e K	-0.24512905
-1.821298	s e K	-0.24512905
-1.9553304	w e K	-0.25870132
-1.8228682	g e K	-0.20678554
-1.9071809	y e K	-0.20678554
-0.67774594	Z e K	-0.20678554
-2.0083072	<s> i K	-0.32832852
-1.9788289	z i K	-0.28718862
-1.765864	s i K	-0.36813238
-2.1788027	m i K	-0.20678554
-2.1422503	y i K	-0.20678554
-2.6301782	<s> o K	-0.28718862
-2.227586	l o K	-0.20678554
-1.6866316	w o K	-0.20678554
-1.3836232	<s> O K	-0.20678554
-0.82910085	K O K	-0.20678554
-0.74624085	L O K	-0.20678554
-0.59431833	Y O K	-0.20678554
-2.1189058	e n K	-0.25870132
-2.386322	i n K	-0.20678554
-2.1762261	u n K	-0.20678554
-1.7307346	k a K	-0.24512905
-2.1546144	s a K	-0.20678554
-1.9907273	b a K	-0.28718862
-1.9052432	m a K	-0.27913213
-2.1158931	<s> m K	-0.20678554
-1.525645	U m K	-0.20678554
-2.0736847	e m K	-0.20678554
-1.9250772	o m K	-0.29501662
-2.009068	u m K	-0.20678554
-2.8092332	<s> u K	-0.20678554
-1.7174609	K u K	-0.20678554
-1.9331316	k u K	-0.25870132
-1.906905	b u K	-0.20678554
-1.8323473	g u K	-0.20678554
-0.8222877	S E K	-0.20678554
-0.93081474	W E K	-0.20678554
-0.66325265	R E K	-0.20678554
-1.9908575	<s> K U	-0.20678554
-0.85183567	A K U	-0.20678554
-0.85183567	U K U	-0.20678554
-0.35561803	O K U	-0.24512905
-0.7757576	E K U	-0.20678554
-0.6511094	U F U	-0.20678554
-0.3736089	M F U	-0.20678554
-0.6836804	H L U	-0.20678554
-1.140922	A M U	-0.20678554
-0.6452663	P H U	-0.20678554
-0.7965787	T H U	-0.20678554
-0.8304497	A C U	-0.20678554
-0.3712095	H Y U	-0.20678554
-0.38017923	A A F	-0.20678554
-1.45035	S A F	-0.20678554
-0.544869	M A F	-0.20678554
-2.2705467	<s> I F	-0.20678554
-0.43008077	F I F	-0.28718862
-0.7153365	K U F	-0.25870132
-3.3128724	<s> e F	-0.20678554
-1.7955865	z e F	-0.28718862
-2.219999	s e F	-0.20678554
-2.0549266	w e F	-0.28718862
-2.0585816	y e F	-0.20678554
-2.70564	<s> i F	-0.25870132
-1.9882683	s i F	-0.29501662
-3.0374541	<s> o F	-0.20678554
-0.68362164	O M F	-0.20678554
-1.9092305	k a F	-0.28718862
-2.3679285	b a F	-0.20678554
-2.423563	m a F	-0.20678554
-2.2181883	e m F	-0.20678554
-2.1272876	i m F	-0.20678554
-2.4100888	o m F	-0.20678554
-1.9981009	k u F	-0.25754747
-1.9781758	b u F	-0.20678554
-2.017957	<s> E F	-0.20678554
-1.3787862	I S W	-0.20678554
-1.7708547	<s> K W	-0.25870132
-0.9281937	A K W	-0.20678554
-0.9281937	U K W	-0.20678554
-2.210796	z e W	-0.20678554
-2.4677758	w e W	-0.20678554
-3.4254675	<s> k W	-0.20678554
-0.6649248	U L W	-0.20678554
-0.9339161	O L W	-0.20678554
-2.4933808	m a W	-0.20678554
-0.9715164	I N W	-0.20678554
-0.83805823	T H W	-0.20678554
-0.3804892	I Z W	-0.20678554
-1.6165421	<s> I h	-0.5960466
-2.13163	<s> S h	-0.20678554
-1.2750258	<s> K h	-0.2764795
-0.74246085	A K h	-0.20678554
-0.4828948	e K h	-0.5142604
-0.38069913	i K h	-0.32237488
-0.669113	o K h	-0.20678554
-0.4567099	a K h	-0.26581192
-0.1174874	m K h	-0.44731364
-0.40627572	u K h	-0.26581192
-1.3872207	<s> W h	-0.20678554
-0.3439174	k W h	-0.20678554
-1.3107599	s h h	-0.20678554
-1.8238993	<s> e h	-1.0493736
-1.5485462	l e h	-0.41995537
-1.6250391	n e h	-0.29501662
-1.121939	z e h	-0.66299343
-1.678699	s e h	-0.29501662
-1.8155439	w e h	-0.29501662
-1.9298187	b e h	-0.20678554
-1.3886548	m e h	-0.29501662
-1.5423448	g e h	-0.28718862
-1.6345034	y e h	-0.28718862
-0.46931845	<s> t h	-0.2764795
-0.6876595	I t h	-0.20678554
-0.32641852	U t h	-0.20678554
-0.5656548	h t h	-0.20678554
-0.5704466	e t h	-0.7003153
-0.6876595	k t h	-0.20678554
-0.7222853	i t h	-0.6739021
-0.5656548	l t h	-0.20678554
-0.6385459	o t h	-0.33577383
-0.71213347	M t h	-0.20678554
-0.9928447	n t h	-0.31622973
-0.32641852	w t h	-0.20678554
-0.64131695	a t h	-0.7696418
-0.5582608	m t h	-0.40704405
-0.41234586	u t h	-0.6239281
-0.32641852	g t h	-0.20678554
-1.0356197	r t h	-0.20678554
-2.1979485	<s> k h	-0.40141824
-0.5606732	A k h	-0.20678554
-0.75665915	I k h	-0.20678554
-0.75665915	U k h	-0.20678554
-0.8383118	e k h	-0.6193895
-0.70960224	i k h	-0.6769294
-0.9292313	o k h	-0.46174046
-0.32353988	M k h	-0.20678554
-0.75665915	O k h	-0.20678554
-0.95265836	n k h	-0.28718862
-0.81078446	a k h	-0.8090827
-0.15695733	m k h	-0.45471752
-0.9105674	u k h	-0.44077072
-1.5707171	<s> i h	-1.0671024
-1.1070986	S i h	-0.29501662
-1.1021866	i i h	-0.20678554
-1.504797	l i h	-0.5168654
-1.343368	L i h	-0.20678554
-1.7290546	z i h	-0.29501662
-1.5735348	s i h	-0.5168654
-1.368394	m i h	-0.5168654
-1.1587287	f i h	-0.29501662
-1.7334615	g i h	-0.20678554
-1.433507	y i h	-0.41995537
-0.7138078	t l h	-0.55010605
-2.058431	i l h	-0.20678554
-0.36878687	T l h	-0.3367287
-1.103491	d l h	-0.25797978
-1.9004668	<s> o h	-0.66299343
-0.628883	D o h	-0.28718862
-1.5551014	h o h	-0.28718862
-1.7353269	k o h	-0.20678554
-1.4125531	l o h	-0.41995537
-1.3102721	M o h	-0.20678554
-1.6956114	n o h	-0.20678554
-1.6329938	z o h	-0.20678554
-1.4739523	w o h	-0.20678554
-1.7020438	b o h	-0.20678554
-1.1154354	J o h	-0.20678554
-1.6037834	g o h	-0.20678554
-1.5460161	y o h	-0.20678554
-0.8813643	i M h	-0.20678554
-1.269954	o M h	-0.20678554
-1.1898203	a M h	-0.20678554
-0.89198303	u M h	-0.29501662
-0.5588522	U R h	-0.20678554
-0.62558246	e R h	-0.25870132
-0.22291698	o R h	-0.20678554
-0.82637054	a R h	-0.20678554
-0.776402	u R h	-0.20678554
-0.7671739	<s> P h	-0.25870132
-0.6427625	I P h	-0.20678554
-0.489416	e P h	-0.3355398
-0.3498448	i P h	-0.2587013
-0.27797776	o P h	-0.20678554
-0.21478623	a P h	-0.3004206
-0.13646527	m P h	-0.34342632
-0.21478623	u P h	-0.23196813
-0.7566914	<s> T h	-0.23718475
-0.8908466	e T h	-0.20678554
-0.6103277	i T h	-0.3367287
-0.33636123	o T h	-0.20678554
-0.7229651	a T h	-0.28718862
-0.4121033	m T h	-0.5960466
-0.49356952	u T h	-0.23196813
-0.5252993	t j h	-0.61952776
-1.3534764	i j h	-0.20678554
-0.21104988	T j h	-0.38276958
-2.25366	e n h	-0.20678554
-2.006297	i n h	-0.28718862
-2.093172	o n h	-0.20678554
-2.2849677	a n h	-0.20678554
-0.4567729	t s h	-0.44731364
-1.7633357	i s h	-0.20678554
-0.45681596	T s h	-0.29501662
-0.36986935	f s h	-0.20678554
-1.6707927	u s h	-0.20678554
-1.1101283	r s h	-0.20678554
-1.706066	<s> a h	-1.1189253
-1.0005524	S a h	-0.20678554
-2.0114248	h a h	-0.20678554
-1.43169	k a h	-0.41995537
-1.3028097	l a h	-0.5960466
-1.2584642	M a h	-0.28718862
-0.97513586	P a h	-0.28718862
-1.629045	n a h	-0.28718862
-1.8530661	z a h	-0.20678554
-1.3614805	s a h	-0.41995537
-1.3854164	w a h	-0.5960466
-1.7594234	b a h	-0.28718862
-1.3376961	m a h	-0.47051308
-0.9565395	p a h	-0.29501662
-1.7524468	g a h	-0.20678554
-1.395574	y a h	-0.41995537
-2.507464	<s> b h	-0.28718862
-0.7130385	I b h	-0.20678554
-0.5144859	e b h	-0.54262316
-0.90188664	i b h	-0.3197402
-1.09684	o b h	-0.25754747
-0.9163446	a b h	-0.38261214
-1.0294302	m b h	-0.269873
-0.8354748	u b h	-0.3332612
-1.1425935	<s> m h	-0.72098535
-1.3796184	U m h	-0.20678554
-1.8765694	e m h	-0.20678554
-1.822552	i m h	-0.20678554
-1.3441344	o m h	-0.7721379
-1.6752664	a m h	-0.29501662
-1.6483083	u m h	-0.28718862
-1.0450466	E m h	-0.20678554
-1.0629877	l d h	-0.20678554
-2.0113695	<s> u h	-0.8178954
-1.6063683	K u h	-0.20678554
-1.8422053	h u h	-0.20678554
-1.5124975	k u h	-0.5960466
-1.7257695	l u h	-0.20678554
-1.3796802	w u h	-0.28718862
-1.4311438	b u h	-0.5168654
-1.7357775	m u h	-0.20678554
-0.31752416	<s> p h	-0.41995537
-0.6985981	I p h	-0.20678554
-0.6398048	e p h	-0.6504043
-0.4473031	i p h	-0.5960467
-0.41583982	o p h	-0.42888466
-0.38032934	M p h	-0.28718862
-0.2881202	a p h	-0.6976086
-0.5944964	m p h	-0.45682785
-0.40434074	u p h	-0.42888466
-0.3311459	E p h	-0.20678554
-0.25180572	K g h	-0.20678554
-0.12715432	k g h	-0.4422719
-1.4902624	i g h	-0.20678554
-1.0877544	n g h	-0.34342632
-1.3766046	N g h	-0.20678554
-1.0018318	<s> q h	-0.20678554
-0.3343556	I q h	-0.20678554
-0.7426196	e q h	-0.41995537
-1.0140853	i q h	-0.25870132
-1.1917471	n q h	-0.20678554
-1.4064076	a q h	-0.20678554
-0.8348826	I r h	-0.20678554
-0.3507821	U r h	-0.20678554
-0.87797	e r h	-0.46613416
-0.57237744	i r h	-0.46134806
-0.9643167	o r h	-0.25797978
-0.3507821	M r h	-0.20678554
-0.3507821	n r h	-0.20678554
-0.7841142	a r h	-0.46134806
-0.44249755	m r h	-0.3367287
-0.71067774	u r h	-0.34613454
-0.99309474	S c h	-0.20678554
-0.85887074	e c h	-0.25870132
-1.4329135	i c h	-0.20678554
-0.34816718	s c h	-0.20678554
-0.8336878	a c h	-0.28718862
-1.0264156	u c h	-0.20678554
-0.75798947	x c h	-0.20678554
-0.7112568	e Q h	-0.20678554
-0.7974729	i Q h	-0.20678554
-0.5649134	a Q h	-0.20678554
-1.5573212	<s> B h	-0.20678554
-0.48962894	e B h	-0.28257105
-0.7403417	i B h	-0.20678554
-0.88396645	a B h	-0.20678554
-0.94663376	u B h	-0.20678554
-0.89575094	<s> C h	-0.2812607
-0.35094383	e C h	-0.20678554
-0.50750536	u C h	-0.28718862
-1.8920952	<s> E h	-0.20678554
-1.460579	<s> G h	-0.20678554
-0.25802732	i X h	-0.20678554
-0.5336783	<s> D e	-0.22553426
-0.71342576	e D e	-0.20678554
-0.23196876	i D e	-0.20678554
-0.71342576	a D e	-0.20678554
-1.0514759	<s> S e	-0.2414541
-0.6909853	A S e	-0.20678554
-0.9903127	I S e	-0.20678554
-0.40083003	e S e	-0.5585775
-0.46139777	i S e	-0.25870132
-0.25048682	a S e	-0.25870132
-0.22618525	m S e	-0.25870132
-0.6987707	u S e	-0.20678554
-0.9274392	E S e	-0.20678554
-1.5915775	e K e	-0.20678554
-0.92414886	n K e	-0.20678554
-1.1552496	<s> F e	-0.20678554
-0.8683369	a F e	-0.20678554
-0.88930845	m F e	-0.20678554
-0.572929	<s> W e	-0.25870132
-0.5798515	e W e	-0.20678554
-0.5798515	a W e	-0.20678554
-0.5475536	S h e	-0.20678554
-0.7127548	K h e	-0.36813238
-0.78204936	t h e	-0.4574032
-0.89658445	k h e	-0.36427957
-0.98426485	l h e	-0.20678554
-0.9938792	R h e	-0.20678554
-0.6354972	P h e	-0.2918685
-0.56915224	T h e	-0.25365382
-0.6958396	j h e	-0.24205634
-0.9316688	s h e	-0.20678554
-1.3536019	a h e	-0.20678554
-0.72197556	b h e	-0.34979284
-0.6844078	p h e	-0.5074812
-0.8010387	g h e	-0.20678554
-0.6992413	q h e	-0.25870132
-0.7809069	r h e	-0.3155353
-0.6908073	Q h e	-0.20678554
-0.8128417	B h e	-0.28718862
-0.82997954	C h e	-0.20678554
-1.5695906	<s> e e	-1.059412
-1.2475754	D e e	-0.20678554
-1.5960429	S e e	-0.20678554
-1.0627856	W e e	-0.20678554
-1.7147	e e e	-0.20678554
-1.8771957	l e e	-0.20678554
-1.3481994	L e e	-0.20678554
-0.993345	P e e	-0.20678554
-1.4709448	j e e	-0.20678554
-1.3010063	n e e	-0.35072228
-1.4741791	z e e	-0.2508939
-1.5861791	s e e	-0.25754747
-1.5912853	w e e	-0.2677716
-1.5884421	b e e	-0.23718475
-1.6506689	d e e	-0.20678554
-1.6262223	g e e	-0.20678554
-1.6235284	r e e	-0.20678554
-1.5301731	y e e	-0.24512905
-0.7100964	S t e	-0.28718862
-1.4364555	e t e	-0.20678554
-0.3983644	t t e	-0.20678554
-1.4010874	i t e	-0.23718475
-1.3013787	o t e	-0.20678554
-0.96279037	n t e	-0.27233866
-0.6727477	s t e	-0.25754747
-0.9610816	a t e	-0.3629118
-1.2841414	u t e	-0.20678554
-0.6078684	p t e	-0.20678554
-1.1553984	r t e	-0.20678554
-2.5470304	<s> k e	-0.24512905
-0.7698712	e k e	-0.668866
-0.8144873	i k e	-0.4304989
-0.69608647	o k e	-0.8152904
-0.9177372	n k e	-0.24512905
-1.0814637	a k e	-0.3426097
-0.8229068	u k e	-0.51686543
-0.5999135	r k e	-0.20678554
-0.90661067	c k e	-0.20678554
-1.0989745	D i e	-0.20678554
-1.7403722	t i e	-0.20678554
-2.0895526	l i e	-0.20678554
-1.830863	n i e	-0.20678554
-1.7408779	b i e	-0.20678554
-1.7648251	g i e	-0.20678554
-1.3792036	r i e	-0.20678554
-0.7850835	c i e	-0.24512905
-1.4232638	v i e	-0.20678554
-0.5544286	<s> l e	-0.72533494
-0.5401383	D l e	-0.20678554
-0.6541785	K l e	-0.20678554
-0.31152698	F l e	-0.20678554
-0.7880479	h l e	-0.43616268
-0.6486134	e l e	-0.6316356
-1.0411508	t l e	-0.28718862
-0.62561244	i l e	-0.5403205
-0.62951237	l l e	-0.23718475
-0.8014665	o l e	-0.2779933
-0.6541785	O l e	-0.20678554
-0.8497613	n l e	-0.20678554
-0.31152698	w l e	-0.20678554
-0.74319804	a l e	-0.54708624
-0.6514533	m l e	-0.41995537
-0.65441006	d l e	-0.34573168
-0.7426298	u l e	-0.54456955
-0.9713004	p l e	-0.20678554
-0.31152698	c l e	-0.20678554
-0.6245067	H l e	-0.5142604
-0.6541785	E l e	-0.20678554
-1.2044183	J o e	-0.20678554
-1.3424513	C o e	-0.20678554
-0.46851066	<s> L e	-0.30718276
-1.2943302	e L e	-0.20678554
-0.96072906	i L e	-0.20678554
-0.23511378	o L e	-0.25870132
-0.8227505	u L e	-0.20678554
-1.4558916	<s> M e	-0.20678554
-1.1541115	e M e	-0.20678554
-0.8140884	i M e	-0.20678554
-0.92819697	o M e	-0.28718862
-1.0872666	a M e	-0.20678554
-1.1564952	u M e	-0.20678554
-0.32704902	<s> R e	-0.32119554
-1.0580987	e R e	-0.20678554
-0.5693457	a R e	-0.20678554
-0.49190596	u R e	-0.20678554
-1.0923233	<s> P e	-0.20678554
-1.2111843	i P e	-0.20678554
-1.250558	<s> T e	-0.20678554
-1.315763	e T e	-0.20678554
-1.3245931	i T e	-0.20678554
-0.4986965	<s> j e	-0.20678554
-0.48662615	e j e	-0.42475557
-0.62666106	t j e	-0.5168654
-0.9984347	i j e	-0.20678554
-0.5619178	o j e	-0.20678554
-1.0329179	T j e	-0.20678554
-0.5227558	n j e	-0.3501342
-0.7693596	a j e	-0.20678554
-0.28657097	N j e	-0.20678554
-0.66749686	<s> n e	-1.0021822
-1.122463	I n e	-0.20678554
-1.1281948	e n e	-0.42931467
-0.3549373	t n e	-0.20678554
-1.0118895	i n e	-0.4601488
-1.1560695	o n e	-0.28340697
-0.92777544	n n e	-0.20678554
-1.0278498	a n e	-0.57606006
-1.2620518	u n e	-0.26935697
-0.61638963	g n e	-0.20678554
-0.5721186	r n e	-0.25870132
-1.047645	E n e	-0.20678554
-0.5820441	<s> z e	-0.5831084
-0.6780702	I z e	-0.20678554
-0.676833	e z e	-0.47291726
-0.6780702	t z e	-0.20678554
-0.81736416	i z e	-0.32631174
-0.81468546	o z e	-0.2764795
-0.82226664	n z e	-0.25797978
-0.7391805	a z e	-0.33285078
-0.81373006	u z e	-0.34284776
-0.6445065	<s> s e	-0.7334959
-0.8472754	I s e	-0.20678554
-0.3232545	U s e	-0.20678554
-0.833609	e s e	-0.37080595
-0.8185745	t s e	-0.20678554
-0.8758392	k s e	-0.20678554
-0.7752253	i s e	-0.57898575
-0.6466323	o s e	-0.30343089
-0.8331727	n s e	-0.25797978
-0.9214551	s s e	-0.20678554
-0.3232545	w s e	-0.20678554
-0.75323313	a s e	-0.42833185
-0.52223355	m s e	-0.43799654
-0.653111	u s e	-0.35303614
-0.56018066	E s e	-0.20678554
-0.36307737	<s> w e	-0.8187622
-0.2594136	I w e	-0.20678554
-0.35556674	K w e	-0.24242866
-0.50230217	h w e	-0.29711136
-0.4113734	e w e	-0.4146737
-0.67981505	t w e	-0.20678554
-0.29559854	k w e	-0.40194976
-0.41613576	i w e	-0.57155216
-0.42221946	l w e	-0.45735198
-0.5386938	o w e	-0.24023597
-0.53797966	j w e	-0.27122235
-0.36471903	n w e	-0.40141824
-0.47747853	z w e	-0.4403108
-0.63488966	s w e	-0.2587013
-0.6600172	a w e	-0.32929605
-0.2594136	b w e	-0.20678554
-0.30350304	d w e	-0.26564986
-0.41814834	u w e	-0.26581192
-0.59363085	g w e	-0.26564986
-0.2594136	q w e	-0.20678554
-0.34188682	r w e	-0.24512905
-0.48016304	y w e	-0.25870132
-0.4552687	Z w e	-0.20678554
-2.2996337	h a e	-0.20678554
-1.9481457	r a e	-0.20678554
-0.39223677	<s> b e	-0.9165085
-0.5058188	A b e	-0.25870132
-0.65483797	I b e	-0.20678554
-0.6971143	e b e	-0.28794795
-0.81695426	i b e	-0.49832827
-0.3118265	l b e	-0.20678554
-0.86907977	o b e	-0.32380387
-0.4585398	M b e	-0.20678554
-0.7215154	a b e	-0.53263503
-0.8019613	m b e	-0.40413287
-0.88317823	u b e	-0.31124163
-1.7315006	<s> m e	-0.20678554
-0.61083823	A m e	-0.20678554
-0.99003905	I m e	-0.20678554
-1.1978555	U m e	-0.20678554
-0.96827966	e m e	-0.37250695
-0.24058822	t m e	-0.28718862
-1.0473114	i m e	-0.32929605
-1.2409099	o m e	-0.3661335
-0.24058822	n m e	-0.28718862
-0.94129837	a m e	-0.4178217
-1.0165076	m m e	-0.20678554
-0.35188797	d m e	-0.20678554
-0.96886796	u m e	-0.37002745
-0.35188797	p m e	-0.20678554
-0.7485693	r m e	-0.20678554
-0.59180325	<s> d e	-0.20678554
-0.65193814	e d e	-0.3961611
-0.7863128	i d e	-0.2635721
-1.1751945	o d e	-0.20678554
-0.9375505	n d e	-0.35595766
-0.88690907	a d e	-0.3167717
-0.9154177	u d e	-0.25797978
-1.0856385	N d e	-0.20678554
-0.64123803	r d e	-0.28718862
-0.880077	<s> f e	-0.20678554
-0.74628633	e f e	-0.25754747
-0.94128555	i f e	-0.3091323
-1.0313095	o f e	-0.20678554
-0.31625444	M f e	-0.20678554
-0.6915326	n f e	-0.20678554
-1.0694741	a f e	-0.20678554
-0.63222903	m f e	-0.25754747
-0.9211616	f f e	-0.20678554
-0.94171834	u f e	-0.25870132
-1.82827	l u e	-0.20678554
-1.0675113	n u e	-0.20678554
-1.8335547	g u e	-0.20678554
-1.0971079	<s> p e	-0.20678554
-0.6498883	A p e	-0.20678554
-0.6498883	I p e	-0.20678554
-0.53683513	S p e	-0.20678554
-0.84826887	e p e	-0.26581192
-1.2263132	i p e	-0.20678554
-1.0032461	o p e	-0.25870132
-0.3095727	O p e	-0.20678554
-0.35991046	s p e	-0.28718862
-0.9896794	a p e	-0.20678554
-0.81692904	m p e	-0.20678554
-1.0849401	u p e	-0.20678554
-0.67825234	p p e	-0.20678554
-0.71644187	A g e	-0.20678554
-0.5872096	I g e	-0.20678554
-0.6513437	e g e	-0.5585775
-1.2765399	i g e	-0.20678554
-0.9828965	o g e	-0.20678554
-0.8507116	n g e	-0.39716637
-0.7515378	a g e	-0.25797978
-0.33871293	d g e	-0.20678554
-0.7193385	N g e	-0.2749981
-0.8750707	r g e	-0.20678554
-1.8825483	<s> N e	-0.20678554
-1.3281755	i N e	-0.20678554
-1.0974263	o N e	-0.20678554
-1.2610259	u N e	-0.20678554
-1.0488348	<s> q e	-0.20678554
-1.2964712	e q e	-0.20678554
-1.1640126	i q e	-0.28718862
-0.71808326	a q e	-0.5960466
-1.1078839	u q e	-0.20678554
-0.22229663	<s> r e	-0.20678554
-0.75106007	I r e	-0.20678554
-0.6763647	F r e	-0.20678554
-0.9530119	h r e	-0.20678554
-0.76757425	e r e	-0.3119549
-1.0675979	t r e	-0.20678554
-0.917699	i r e	-0.23718475
-1.0527234	o r e	-0.23196813
-0.75106007	P r e	-0.20678554
-0.98447835	a r e	-0.27122235
-0.98362195	m r e	-0.20678554
-0.9638285	u r e	-0.24512905
-0.6158415	p r e	-0.20678554
-0.29662365	g r e	-0.40367547
-0.82343274	r r e	-0.20678554
-0.23892629	G r e	-0.36813238
-0.42671278	<s> y e	-0.7749323
-0.30881324	I y e	-0.20678554
-0.8855605	e y e	-0.22341065
-0.7087007	i y e	-0.31125262
-0.61497855	o y e	-0.24512905
-0.7352412	n y e	-0.39016894
-0.59068155	a y e	-0.48753417
-0.31636825	m y e	-0.29501662
-0.55108607	u y e	-0.3983182
-0.74285495	N y e	-0.20678554
-0.926374	<s> c e	-0.20678554
-1.1621249	e c e	-0.20678554
-0.82949585	i c e	-0.46166742
-0.8450754	n c e	-0.25870132
-1.1665548	g c e	-0.20678554
-0.34118122	r c e	-0.27122235
-0.7164348	c c e	-0.20678554
-0.38747555	x c e	-0.28718862
-0.40796226	<s> v e	-0.20678554
-0.4466708	I v e	-0.20678554
-0.253917	U v e	-0.20678554
-0.35321534	e v e	-0.3157617
-0.46378914	i v e	-0.34342632
-0.3043408	o v e	-0.27475026
-0.4466708	M v e	-0.20678554
-0.4466708	n v e	-0.20678554
-0.49528116	a v e	-0.3697212
-0.76917297	m v e	-0.269873
-0.5864872	u v e	-0.2918685
-0.5361653	r v e	-0.20678554
-0.82233113	<s> H e	-0.28718862
-0.6290566	u H e	-0.20678554
-1.2216644	<s> Z e	-0.20678554
-0.6050304	u Z e	-0.20678554
-0.2961327	i x e	-0.20678554
-0.2961327	o x e	-0.20678554
-0.6209867	E x e	-0.20678554
-0.86370933	<s> B e	-0.23780997
-1.0399457	m B e	-0.20678554
-1.0592693	<s> C e	-0.269873
-0.8568381	u C e	-0.20678554
-1.6255251	<s> E e	-0.20678554
-0.7768589	<s> V e	-0.20678554
-0.6567301	i V e	-0.20678554
-0.76582724	m V e	-0.20678554
-0.72783756	u V e	-0.20678554
-1.3207057	<s> G e	-0.20678554
-0.78356004	e G e	-0.28718862
-0.80592334	<s> Y e	-0.20678554
-0.3168455	a Y e	-0.20678554
-0.3168455	u Y e	-0.20678554
-1.5518142	<s> I t	-0.2812607
-1.1891886	<s> S t	-0.3501342
-1.1724054	a S t	-0.20678554
-1.313839	u S t	-0.20678554
-2.4267511	<s> U t	-0.20678554
-1.2670093	<s> h t	-0.20678554
-1.9528878	k h t	-0.20678554
-1.5961865	<s> e t	-0.93183875
-1.3030454	S e t	-0.28718862
-1.088404	h e t	-0.55010605
-1.3083559	t e t	-0.28718862
-1.0280823	k e t	-0.23196813
-0.9825371	i e t	-0.20678554
-1.153323	l e t	-0.5119058
-0.7931233	o e t	-0.20678554
-0.87906563	L e t	-0.29501662
-0.74856937	M e t	-0.28718862
-0.9675723	P e t	-0.20678554
-1.4167987	j e t	-0.20678554
-1.2716506	n e t	-0.38231885
-1.4253528	z e t	-0.27122235
-1.2487862	s e t	-0.4422719
-1.2693439	w e t	-0.48207575
-1.2107577	b e t	-0.44731364
-1.4272555	m e t	-0.25870132
-1.1745487	f e t	-0.20678554
-1.0692939	p e t	-0.20678554
-1.2948375	g e t	-0.23196813
-1.3617022	r e t	-0.20678554
-1.254312	y e t	-0.25754747
-0.7440604	B e t	-0.20678554
-0.89371574	C e t	-0.20678554
-0.6799154	h t t	-0.20678554
-1.9887214	e t t	-0.20678554
-1.8350784	o t t	-0.20678554
-1.8746083	e k t	-0.25870132
-0.95727074	O k t	-0.20678554
-1.2314051	<s> i t	-0.9604667
-1.146898	S i t	-0.22553426
-0.7820305	K i t	-0.20678554
-1.2164881	h i t	-0.27122235
-1.0712646	t i t	-0.27122235
-1.3481061	k i t	-0.25870132
-1.2817802	l i t	-0.43691692
-1.225655	L i t	-0.20678554
-0.61613923	P i t	-0.20678554
-0.7820305	T i t	-0.20678554
-1.4183077	j i t	-0.20678554
-1.0735896	n i t	-0.23196813
-1.311211	z i t	-0.46143323
-1.2477052	s i t	-0.42519516
-1.1974341	a i t	-0.20678554
-1.0925504	m i t	-0.42037666
-1.5243846	d i t	-0.20678554
-1.224952	f i t	-0.28718862
-1.3373457	p i t	-0.20678554
-1.3561757	g i t	-0.269873
-1.2665025	r i t	-0.2764795
-1.1674193	y i t	-0.39040518
-1.33347	c i t	-0.20678554
-1.2913547	v i t	-0.20678554
-0.3650033	C i t	-0.20678554
-2.2772486	a l t	-0.20678554
-2.1711516	u l t	-0.20678554
-1.4419422	<s> o t	-0.61952776
-1.2405088	h o t	-0.25754747
-1.6258782	k o t	-0.20678554
-1.183412	l o t	-0.3156111
-0.8500174	o o t	-0.20678554
-1.0535754	L o t	-0.20678554
-1.1691633	n o t	-0.25754747
-1.6130886	s o t	-0.20678554
-1.3854585	w o t	-0.20678554
-0.89812446	b o t	-0.47110787
-1.1571229	m o t	-0.28718862
-0.99935836	p o t	-0.24512905
-1.4842919	g o t	-0.20678554
-1.2913911	N o t	-0.20678554
-0.6480187	q o t	-0.28718862
-1.4536413	r o t	-0.20678554
-1.4507424	y o t	-0.20678554
-0.36570388	Q o t	-0.20678554
-0.57809585	B o t	-0.24512905
-1.1560991	C o t	-0.20678554
-1.7289047	<s> M t	-0.20678554
-1.3773379	o M t	-0.20678554
-1.6767342	<s> O t	-0.20678554
-3.2693355	<s> n t	-0.20678554
-1.160073	I n t	-0.20678554
-0.99936926	e n t	-0.5033234
-1.1420599	i n t	-0.3639651
-1.107956	o n t	-0.2406976
-1.0493026	M n t	-0.20678554
-1.413679	a n t	-0.2636665
-0.90302277	m n t	-0.5168654
-1.1243515	u n t	-0.26581192
-0.6277722	y n t	-0.20678554
-1.0771791	E n t	-0.20678554
-1.0779251	e s t	-0.26564986
-1.0054456	k s t	-0.20678554
-1.3407507	i s t	-0.29501662
-0.9289463	n s t	-0.25870132
-1.1974483	a s t	-0.23196813
-0.6265437	b s t	-0.20678554
-1.0915304	u s t	-0.24512905
-0.36046928	y s t	-0.20678554
-1.6037375	o w t	-0.20678554
-1.350532	<s> a t	-0.9842268
-1.2061143	S a t	-0.20678554
-1.0585374	h a t	-0.5822907
-0.7331545	e a t	-0.20678554
-0.7152467	t a t	-0.3050592
-1.1162411	k a t	-0.33598524
-1.0188462	i a t	-0.25870132
-1.3316854	l a t	-0.39040518
-1.3173169	L a t	-0.20678554
-1.0517658	M a t	-0.25870132
-0.921583	P a t	-0.20678554
-0.5229198	T a t	-0.25870132
-1.4833624	j a t	-0.20678554
-1.4122066	n a t	-0.20678554
-1.416113	z a t	-0.27122235
-1.1095726	s a t	-0.38231885
-1.1589803	w a t	-0.41058794
-1.1618983	b a t	-0.44385776
-1.2696567	m a t	-0.39325854
-0.93124986	d a t	-0.5168654
-1.0410404	p a t	-0.28718862
-1.1904594	g a t	-0.3156111
-1.0346035	N a t	-0.20678554
-0.7699024	q a t	-0.5168654
-0.91855705	r a t	-0.39040518
-1.1435069	y a t	-0.38995638
-1.0831715	c a t	-0.25870132
-1.4208567	v a t	-0.20678554
-1.0635694	Q a t	-0.20678554
-1.352305	B a t	-0.20678554
-0.85905373	G a t	-0.20678554
-1.2827275	<s> m t	-0.2764795
-1.100885	I m t	-0.20678554
-1.3940587	U m t	-0.20678554
-1.2135189	e m t	-0.45257077
-1.525124	i m t	-0.29501662
-1.34853	o m t	-0.64719915
-1.6836191	a m t	-0.25754747
-1.6618162	u m t	-0.25870132
-1.8112931	i f t	-0.20678554
-1.4980658	<s> u t	-0.7133121
-0.3580205	A u t	-0.20678554
-0.9763529	S u t	-0.20678554
-1.1741495	K u t	-0.20678554
-1.1888012	h u t	-0.29501662
-0.8810112	t u t	-0.25754747
-1.2433815	k u t	-0.54456955
-1.0272435	l u t	-0.41995537
-1.2137408	o u t	-0.20678554
-0.6478182	L u t	-0.28718862
-0.3580205	O u t	-0.20678554
-0.6220356	T u t	-0.20678554
-1.4105611	s u t	-0.20678554
-0.9806817	w u t	-0.3367287
-0.85733736	a u t	-0.20678554
-1.2413105	b u t	-0.5168654
-1.1975052	m u t	-0.2918685
-0.958202	f u t	-0.41995537
-1.4302145	g u t	-0.20678554
-1.159506	r u t	-0.20678554
-0.81860936	y u t	-0.20678554
-0.8380713	c u t	-0.20678554
-1.3307508	B u t	-0.20678554
-1.9106344	e p t	-0.20678554
-1.7306856	i p t	-0.20678554
-1.5814687	u g t	-0.20678554
-0.8416962	e N t	-0.33925265
-0.97930413	i N t	-0.20678554
-0.7453246	a N t	-0.20678554
-0.8563736	u N t	-0.25870132
-0.65716666	A r t	-0.20678554
-1.2513126	e r t	-0.25870132
-1.5172462	o r t	-0.25870132
-1.1986449	a r t	-0.24512905
-1.6750834	u r t	-0.20678554
-0.95298654	A c t	-0.20678554
-0.72620904	e c t	-0.23718475
-1.5641029	i c t	-0.20678554
-1.0630014	o c t	-0.20678554
-0.8766681	a c t	-0.28718862
-0.8568977	e x t	-0.20678554
-0.98040473	<s> A k	-1.0220153
-0.8225284	w A k	-0.20678554
-1.436089	<s> I k	-0.33028463
-2.4803247	<s> S k	-0.20678554
-0.24782224	<s> U k	-1.4254074
-0.94854575	<s> e k	-1.2789894
-1.2009649	D e k	-0.20678554
-1.0126394	S e k	-0.27122235
-0.902953	F e k	-0.20678554
-1.0870223	h e k	-0.32631174
-1.6474012	e e k	-0.20678554
-1.1850816	t e k	-0.2486643
-1.3139709	k e k	-0.20678554
-1.1515197	l e k	-0.46484053
-1.2956427	L e k	-0.20678554
-1.1907899	R e k	-0.20678554
-1.0236661	j e k	-0.20678554
-1.1919241	n e k	-0.3689639
-1.1301036	z e k	-0.35474086
-1.1816808	s e k	-0.41874805
-1.1747906	w e k	-0.44731364
-1.000484	b e k	-0.4845592
-1.306061	m e k	-0.24512905
-1.5848235	d e k	-0.20678554
-0.7490108	f e k	-0.5168654
-1.3850168	g e k	-0.2406976
-1.1015714	r e k	-0.3156111
-1.2510483	y e k	-0.25754747
-0.8794017	v e k	-0.44731364
-1.0774558	B e k	-0.20678554
-0.9817014	Y e k	-0.20678554
-1.2643042	<s> i k	-0.7174946
-1.1425445	S i k	-0.20678554
-0.6334167	F i k	-0.20678554
-1.1087738	h i k	-0.27047223
-1.508708	t i k	-0.20678554
-1.2286428	k i k	-0.25870132
-1.1340908	l i k	-0.37018967
-1.1420413	M i k	-0.20678554
-1.4123001	j i k	-0.20678554
-0.7549984	n i k	-0.42888466
-1.2454977	z i k	-0.38720846
-1.2037673	s i k	-0.50080425
-0.75901026	b i k	-0.33925265
-1.3727123	m i k	-0.37104976
-1.3160568	d i k	-0.20678554
-0.8110285	f i k	-0.3697212
-0.9394719	p i k	-0.29501662
-1.3501579	g i k	-0.269873
-0.682532	N i k	-0.20678554
-1.0200543	r i k	-0.2764795
-1.0993824	y i k	-0.44613427
-0.54905903	v i k	-0.5168654
-0.8740064	Z i k	-0.20678554
-0.5299515	B i k	-0.20678554
-0.4508664	V i k	-0.29501662
-0.6334167	Y i k	-0.20678554
-2.287401	e l k	-0.20678554
-2.2869709	a l k	-0.20678554
-0.38006145	<s> o k	-1.5180044
-1.298932	S o k	-0.20678554
-1.2704277	K o k	-0.20678554
-0.8733481	W o k	-0.20678554
-1.3640705	h o k	-0.23718475
-1.3125886	k o k	-0.24242866
-0.99963105	l o k	-0.4272474
-1.0406862	L o k	-0.20678554
-0.9730832	n o k	-0.40581185
-0.8195957	z o k	-0.43799654
-1.3957608	s o k	-0.23196813
-0.840115	w o k	-0.28978232
-1.2919291	b o k	-0.26564986
-1.3769115	m o k	-0.20678554
-1.2918587	f o k	-0.20678554
-1.301532	g o k	-0.27475026
-1.275379	N o k	-0.20678554
-0.824218	q o k	-0.29501662
-0.8164689	y o k	-0.3355398
-0.6132795	Z o k	-0.20678554
-1.1968932	B o k	-0.20678554
-0.363028	Y o k	-0.20678554
-1.829785	<s> M k	-0.20678554
-0.38796288	<s> O k	-0.59680516
-2.2985551	e n k	-0.20678554
-1.9022017	i n k	-0.24986343
-0.3866773	O n k	-0.20678554
-1.7775627	a n k	-0.25754747
-2.139595	a s k	-0.20678554
-1.0525453	<s> a k	-1.0081221
-1.0473601	D a k	-0.20678554
-1.2232414	S a k	-0.20678554
-0.6098665	F a k	-0.25870132
-1.0629991	h a k	-0.4253158
-1.225143	t a k	-0.20678554
-1.3521496	k a k	-0.2508939
-1.1344333	l a k	-0.3961611
-1.334651	L a k	-0.20678554
-1.1789744	M a k	-0.20678554
-1.5044429	j a k	-0.20678554
-1.0386419	n a k	-0.40253627
-0.8760634	z a k	-0.54722273
-1.1174785	s a k	-0.37018967
-0.94625384	w a k	-0.5453154
-1.2851762	b a k	-0.38294354
-1.2800969	m a k	-0.40009663
-1.3151921	d a k	-0.269873
-0.69888455	f a k	-0.44628432
-1.3110863	p a k	-0.20678554
-1.2012247	g a k	-0.25817645
-1.3000731	N a k	-0.20678554
-0.7735546	q a k	-0.5168654
-1.0265883	y a k	-0.33876982
-0.5787544	v a k	-0.66299343
-0.7414632	Q a k	-0.28718862
-1.0327582	Z a k	-0.20678554
-1.3723855	B a k	-0.20678554
-0.7940423	V a k	-0.20678554
-1.8086467	<s> m k	-0.28718862
-1.9984916	e m k	-0.20678554
-1.4236258	o m k	-0.72098535
-1.7266527	a m k	-0.29501662
-1.7341763	u m k	-0.20678554
-1.0853703	E m k	-0.20678554
-0.29487553	<s> u k	-1.8423668
-0.36714175	D u k	-0.20678554
-1.0155529	S u k	-0.20678554
-1.4370402	K u k	-0.20678554
-1.222872	h u k	-0.24512905
-1.2737607	k u k	-0.5296582
-1.0503893	l u k	-0.27554753
-1.2625908	o u k	-0.20678554
-0.6192418	n u k	-0.25870132
-1.0657116	z u k	-0.28718862
-0.9110553	s u k	-0.29501662
-1.2725008	w u k	-0.24512905
-1.21345	b u k	-0.33090532
-1.0801177	m u k	-0.25870132
-1.1112121	d u k	-0.25870132
-1.215676	r u k	-0.20678554
-1.162463	y u k	-0.20678554
-1.2398137	v u k	-0.20678554
-2.4010112	<s> N k	-0.20678554
-1.6532083	e N k	-0.20678554
-2.0643408	e r k	-0.20678554
-2.0051386	a r k	-0.20678554
-0.9896705	A c k	-0.20678554
-1.1073842	i c k	-0.27122235
-1.2389714	a c k	-0.20678554
-0.65314645	E c k	-0.20678554
-1.017433	<s> E k	-0.46166742
-2.1445367	<s> A i	-0.20678554
-0.8219706	<s> I i	-0.9676416
-0.5009306	<s> D i	-0.2587013
-0.2387237	<s> S i	-0.7270601
-0.70977175	e S i	-0.25754747
-1.1007551	i S i	-0.20678554
-0.6635603	o S i	-0.25870132
-1.0691913	a S i	-0.20678554
-0.56381106	u S i	-0.27122235
-1.168605	<s> K i	-0.51281995
-1.4275573	<s> F i	-0.20678554
-0.9726409	u F i	-0.20678554
-0.6392613	e W i	-0.20678554
-1.069012	K h i	-0.20678554
-0.5542308	W h i	-0.20678554
-0.31979647	h h i	-0.20678554
-0.70753866	t h i	-0.55322015
-0.97962147	k h i	-0.3367287
-0.9997757	l h i	-0.20678554
-0.70982724	P h i	-0.36196345
-0.8264335	T h i	-0.25754747
-0.8175065	j h i	-0.22997834
-0.60205925	s h i	-0.20678554
-0.6578631	b h i	-0.30343089
-0.81668276	p h i	-0.48263907
-0.25042123	q h i	-0.5168654
-1.2043748	r h i	-0.20678554
-1.041157	c h i	-0.20678554
-0.36959395	Q h i	-0.28718862
-0.7068605	B h i	-0.28718862
-0.5520623	C h i	-0.24512905
-1.8064457	t e i	-0.20678554
-1.1444143	N e i	-0.20678554
-1.8720845	r e i	-0.20678554
-1.4154474	c e i	-0.20678554
-1.5918679	e t i	-0.20678554
-0.7436345	k t i	-0.20678554
-0.9575765	i t i	-0.2727114
-1.0463774	o t i	-0.23196813
-0.9621349	n t i	-0.25817645
-0.7886558	s t i	-0.20678554
-0.8796184	a t i	-0.44359067
-1.4180654	m t i	-0.20678554
-1.1316617	u t i	-0.269873
-0.8010021	r t i	-0.20678554
-0.65817064	c t i	-0.27122235
-1.3923837	<s> k i	-0.750103
-0.35156536	S k i	-0.20678554
-0.9281453	e k i	-0.49772683
-0.93783706	i k i	-0.33028463
-1.7615488	o k i	-0.20678554
-1.0513934	n k i	-0.24512905
-1.3631029	a k i	-0.25797978
-1.2165648	u k i	-0.3091323
-0.83337706	<s> i i	-1.6504043
-1.5235349	z i i	-0.3749564
-0.5921106	<s> l i	-0.78999376
-0.83352023	I l i	-0.20678554
-0.67100996	K l i	-0.20678554
-0.7954341	h l i	-0.34342632
-0.75713456	e l i	-0.53741944
-0.7270598	t l i	-0.42475557
-0.7368964	i l i	-0.40527654
-0.9795602	l l i	-0.20678554
-0.61311257	o l i	-0.27701807
-0.67100996	O l i	-0.20678554
-0.6061895	n l i	-0.28718862
-0.7945565	a l i	-0.5782235
-0.36892793	b l i	-0.20678554
-0.9383739	m l i	-0.25870132
-1.1015075	d l i	-0.28718862
-0.81409824	u l i	-0.37941405
-0.75325567	p l i	-0.20678554
-1.3006965	H l i	-0.20678554
-0.67100996	E l i	-0.20678554
-0.9738655	T o i	-0.20678554
-1.2008238	J o i	-0.20678554
-1.1431266	v o i	-0.20678554
-1.0573521	<s> L i	-0.20678554
-0.5796728	I L i	-0.20678554
-0.5515228	e L i	-0.40141824
-0.7868787	O L i	-0.20678554
-0.99875546	a L i	-0.20678554
-0.79324144	u L i	-0.25870132
-1.2302136	<s> M i	-0.20678554
-0.64210093	e M i	-0.20678554
-0.8703702	i M i	-0.20678554
-1.2663832	u M i	-0.20678554
-1.1345433	<s> R i	-0.20678554
-0.5857362	I R i	-0.20678554
-0.4738639	e R i	-0.36813238
-0.8724828	a R i	-0.20678554
-1.5951177	<s> P i	-0.20678554
-1.0180001	e P i	-0.20678554
-1.1918396	i P i	-0.20678554
-1.4903188	<s> T i	-0.20678554
-0.9156684	n T i	-0.20678554
-1.1457278	a T i	-0.20678554
-0.4981141	<s> j i	-0.20678554
-0.48634616	e j i	-0.25754747
-0.9868475	t j i	-0.27122235
-0.7246657	i j i	-0.25870132
-0.43627304	o j i	-0.20678554
-1.0319616	T j i	-0.20678554
-0.709907	n j i	-0.2812607
-0.6253172	a j i	-0.25754747
-0.8825947	u j i	-0.20678554
-2.5597963	<s> n i	-0.23196813
-0.7385236	A n i	-0.20678554
-1.082413	I n i	-0.20678554
-0.825945	U n i	-0.20678554
-0.90414083	h n i	-0.20678554
-0.9844512	e n i	-0.5981414
-0.60349977	k n i	-0.20678554
-0.801159	i n i	-0.66003203
-0.8772714	o n i	-0.36427957
-0.99386674	M n i	-0.20678554
-0.90414083	n n i	-0.20678554
-0.9123692	a n i	-0.7499752
-0.9809216	m n i	-0.41995537
-0.99121165	u n i	-0.3234912
-0.46825305	<s> z i	-0.8255965
-0.27987835	A z i	-0.20678554
-0.5873324	I z i	-0.20678554
-0.62688005	e z i	-0.42046773
-0.5873324	t z i	-0.20678554
-0.7410459	i z i	-0.3487026
-0.51092595	o z i	-0.24780978
-0.4329378	n z i	-0.36259544
-0.58128303	a z i	-0.5144374
-0.59858716	m z i	-0.25870132
-0.33962157	d z i	-0.3367287
-0.71542555	u z i	-0.26674747
-0.29208308	N z i	-0.25870132
-0.19647266	E z i	-0.20678554
-0.31597966	<s> s i	-1.1299843
-0.66894484	A s i	-0.20678554
-0.83052105	I s i	-0.20678554
-0.59828454	e s i	-0.5984299
-1.0270512	t s i	-0.20678554
-0.4645927	k s i	-0.2918685
-0.7220072	i s i	-0.45595452
-0.6942366	o s i	-0.24386677
-0.31817332	M s i	-0.20678554
-0.8210271	n s i	-0.2587013
-0.5225247	s s i	-0.25870132
-0.62682813	a s i	-0.5202373
-0.55144966	b s i	-0.20678554
-0.517853	m s i	-0.3367287
-0.7579388	u s i	-0.26366648
-0.55144966	E s i	-0.20678554
-0.68013805	S w i	-0.20678554
-0.90428674	h w i	-0.25870132
-0.714836	e w i	-0.5168654
-0.80493367	t w i	-0.20678554
-1.1682228	i w i	-0.25870132
-1.1271249	l w i	-0.25870132
-0.93691206	L w i	-0.20678554
-0.60269314	z w i	-0.39040518
-0.7926543	w w i	-0.20678554
-1.243056	a w i	-0.2486643
-1.0879077	d w i	-0.20678554
-0.7887056	g w i	-0.28718862
-0.80493367	r w i	-0.20678554
-0.31052765	E w i	-0.20678554
-2.094217	l a i	-0.20678554
-1.6141688	M a i	-0.20678554
-1.2141452	R a i	-0.20678554
-2.0847428	m a i	-0.20678554
-1.5734351	f a i	-0.20678554
-1.866976	g a i	-0.20678554
-1.4794395	N a i	-0.20678554
-1.5203834	r a i	-0.28718862
-0.96027607	H a i	-0.20678554
-2.476688	<s> b i	-0.20678554
-0.9182757	A b i	-0.20678554
-1.2283685	e b i	-0.20678554
-0.77790534	i b i	-0.43844053
-1.503051	o b i	-0.20678554
-0.78917193	M b i	-0.20678554
-0.86628896	a b i	-0.44220948
-0.8199622	m b i	-0.38932166
-0.9068268	u b i	-0.25797978
-0.792299	u J i	-0.20678554
-0.820166	<s> m i	-0.2414541
-1.0674365	I m i	-0.20678554
-0.9233603	e m i	-0.5415723
-1.0220345	i m i	-0.26138657
-1.4301981	o m i	-0.3050592
-0.99631596	a m i	-0.3189313
-0.7471094	m m i	-0.20678554
-1.1574227	u m i	-0.25490338
-1.0216846	E m i	-0.20678554
-0.7052557	e d i	-0.25781345
-0.6312143	i d i	-0.41361693
-0.5894366	l d i	-0.28718862
-1.3979604	o d i	-0.20678554
-0.8664838	n d i	-0.31123218
-0.7291198	a d i	-0.3749564
-0.929305	u d i	-0.26581192
-0.83746547	N d i	-0.25870132
-0.87896115	<s> f i	-0.20678554
-0.66389567	A f i	-0.20678554
-0.31591463	h f i	-0.20678554
-0.9888005	e f i	-0.20678554
-0.6204724	i f i	-0.38814235
-0.7417801	o f i	-0.20678554
-0.59855855	a f i	-0.4301731
-0.9110892	m f i	-0.28718862
-0.35770893	f f i	-0.27122235
-0.83285415	u f i	-0.2508939
-0.9875687	q u i	-0.20678554
-1.640694	B u i	-0.20678554
-1.064652	G u i	-0.20678554
-1.2333897	<s> p i	-0.20678554
-0.8312083	e p i	-0.5153439
-1.2152838	i p i	-0.24512905
-1.3181711	o p i	-0.20678554
-0.9036884	a p i	-0.20678554
-1.0303037	m p i	-0.25870132
-0.7275191	r p i	-0.20678554
-0.34332052	y p i	-0.20678554
-1.1959492	e g i	-0.23196813
-0.6684766	i g i	-0.3156111
-0.9012068	o g i	-0.25870132
-0.91796654	n g i	-0.39058104
-0.7626655	s g i	-0.20678554
-1.034814	a g i	-0.23718475
-1.0286685	u g i	-0.23718475
-1.0197372	N g i	-0.20678554
-1.8804076	<s> N i	-0.20678554
-1.3231952	i N i	-0.20678554
-0.9855297	m N i	-0.28718862
-1.2568668	u N i	-0.20678554
-0.6987404	<s> q i	-0.28718862
-0.37799966	e q i	-0.40141824
-0.4973184	i q i	-0.57225233
-0.755549	o q i	-0.20678554
-0.88920194	n q i	-0.28718862
-0.5512718	a q i	-0.72098535
-0.75503683	u q i	-0.28718862
-0.3082413	E q i	-0.20678554
-0.76218045	I r i	-0.20678554
-0.6857089	F r i	-0.20678554
-0.7145961	h r i	-0.20678554
-1.1205482	e r i	-0.23196813
-0.57116795	t r i	-0.24512905
-0.82091117	i r i	-0.25198424
-1.0644401	o r i	-0.2486643
-0.76218045	P r i	-0.20678554
-0.88110244	a r i	-0.27281797
-0.5641811	d r i	-0.20678554
-0.22479296	f r i	-0.25870132
-0.9734706	u r i	-0.22827998
-0.4811573	p r i	-0.25870132
-0.59684545	g r i	-0.24512905
-0.54944324	r r i	-0.20678554
-1.1294248	<s> y i	-0.470736
-0.5663539	A y i	-0.20678554
-0.43602598	e y i	-0.2673974
-0.79688776	i y i	-0.25072977
-0.51975423	o y i	-0.2749981
-0.8411224	n y i	-0.33028463
-0.56831115	a y i	-0.4078534
-0.5634887	u y i	-0.28193402
-0.31807768	S c i	-0.27122235
-1.1597387	e c i	-0.20678554
-1.3705785	i c i	-0.20678554
-0.678254	o c i	-0.25870132
-0.84399945	n c i	-0.27122235
-0.8101138	a c i	-0.25870132
-0.4715314	g c i	-0.36813238
-0.33822742	G c i	-0.20678554
-0.6564842	e v i	-0.36813238
-0.80583173	i v i	-0.2918685
-0.8648574	o v i	-0.20678554
-0.52385414	n v i	-0.20678554
-0.6597649	a v i	-0.40367547
-0.7751845	u v i	-0.25870132
-0.63312113	r v i	-0.20678554
-0.30183384	E v i	-0.20678554
-1.2041314	<s> H i	-0.20678554
-0.4922682	<s> Q i	-0.20678554
-0.28261542	o Q i	-0.20678554
-0.4922682	a Q i	-0.20678554
-0.5929063	u Q i	-0.20678554
-0.48069328	<s> Z i	-0.23718475
-0.46856928	e Z i	-0.25870132
-0.6609315	i Z i	-0.20678554
-0.5453224	a Z i	-0.20678554
-0.8361833	e x i	-0.20678554
-1.213656	<s> B i	-0.27122235
-1.2398927	i B i	-0.20678554
-1.062402	u B i	-0.20678554
-1.5128261	<s> C i	-0.28718862
-0.77486306	<s> V i	-0.20678554
-0.36220858	e V i	-0.28718862
-0.6552157	i V i	-0.20678554
-0.7260543	u V i	-0.20678554
-1.3157961	<s> G i	-0.20678554
-1.0961388	e G i	-0.20678554
-1.0405784	<s> Y i	-0.20678554
-1.9647061	<s> A l	-0.20678554
-1.4251987	<s> I l	-0.25198424
-0.7732808	u D l	-0.20678554
-2.1385813	<s> K l	-0.20678554
-1.5937853	e K l	-0.20678554
-1.2586732	i K l	-0.20678554
-1.558203	<s> F l	-0.20678554
-0.2159162	<s> h l	-0.44731364
-0.34233573	I h l	-0.20678554
-0.09637343	e h l	-0.6033387
-0.087473325	i h l	-0.6329944
-1.0986612	l h l	-0.20678554
-0.19495176	o h l	-0.45545763
-0.16182184	M h l	-0.36813238
-0.16182184	n h l	-0.34342632
-0.1263744	a h l	-0.766066
-1.4038413	b h l	-0.20678554
-0.07341708	m h l	-0.6308087
-0.07341708	u h l	-0.42651522
-0.34233573	E h l	-0.20678554
-0.9004988	<s> e l	-1.4400177
-1.4567354	S e l	-0.20678554
-0.9957378	W e l	-0.20678554
-0.9104865	h e l	-0.46134806
-1.573831	e e l	-0.20678554
-1.2566355	t e l	-0.20678554
-1.0030315	k e l	-0.37821054
-0.96130717	l e l	-0.7421747
-0.76832867	o e l	-0.20678554
-0.98543406	L e l	-0.20678554
-0.93102443	P e l	-0.20678554
-0.86268455	T e l	-0.20678554
-0.83408874	j e l	-0.2905262
-1.1596152	n e l	-0.45471752
-1.0370108	z e l	-0.5457016
-0.9718215	s e l	-0.5311506
-1.0795726	w e l	-0.55132437
-0.24520671	a e l	-0.28718862
-0.9795293	b e l	-0.4339221
-1.1234303	m e l	-0.33816916
-0.9280184	d e l	-0.3661335
-1.0105973	f e l	-0.25870132
-1.0402851	p e l	-0.25870132
-1.2374803	g e l	-0.28180107
-0.52058095	N e l	-0.29501662
-1.4628574	r e l	-0.20678554
-1.0438298	y e l	-0.42651522
-0.9210536	c e l	-0.20678554
-0.69651073	v e l	-0.3983182
-0.62513804	H e l	-0.20678554
-0.86268455	C e l	-0.20678554
-0.51863205	V e l	-0.20678554
-0.44619074	Y e l	-0.29501662
-1.2976029	<s> t l	-0.20678554
-0.97036564	e t l	-0.39467484
-0.9727719	i t l	-0.5330727
-1.5584289	o t l	-0.20678554
-0.40788072	M t l	-0.28718862
-1.4289305	n t l	-0.28718862
-0.9719918	a t l	-0.5775632
-0.7595326	m t l	-0.43147
-1.1542624	u t l	-0.28978232
-3.3803055	<s> k l	-0.20678554
-1.3371475	<s> i l	-0.786396
-1.3187203	S i l	-0.20678554
-0.7704372	K i l	-0.20678554
-0.3605287	W i l	-0.20678554
-0.88681763	h i l	-0.37018967
-0.8653063	e i l	-0.20678554
-1.4768069	t i l	-0.20678554
-0.866125	k i l	-0.3749564
-1.2143246	l i l	-0.4277472
-0.8216096	M i l	-0.20678554
-0.60966957	P i l	-0.28718862
-1.1508436	j i l	-0.28718862
-1.2956805	n i l	-0.25870132
-1.1805042	z i l	-0.42049703
-1.2782733	s i l	-0.44385067
-0.8640643	w i l	-0.2918685
-0.8703022	a i l	-0.25870132
-1.0323545	b i l	-0.37104976
-1.1343468	m i l	-0.43616268
-1.0395422	d i l	-0.27122235
-1.2054797	f i l	-0.20678554
-0.8653063	u i l	-0.20678554
-0.76139337	p i l	-0.36196345
-1.2397532	g i l	-0.24512905
-1.2275867	y i l	-0.2635721
-1.0475603	c i l	-0.20678554
-0.5258563	B i l	-0.20678554
-0.9541135	V i l	-0.20678554
-1.0735238	I l l	-0.20678554
-1.8623084	e l l	-0.28718862
-1.2899483	i l l	-0.2508939
-1.8098024	o l l	-0.20678554
-1.5538634	a l l	-0.27122235
-1.5357625	<s> o l	-0.46795976
-0.9037957	S o l	-0.29501662
-0.98171073	K o l	-0.28718862
-0.8122935	h o l	-0.40303412
-0.9860303	t o l	-0.29501662
-0.9674204	k o l	-0.45257077
-1.1017774	l o l	-0.36668783
-1.2391148	o o l	-0.20678554
-1.2032597	M o l	-0.20678554
-0.7697626	R o l	-0.20678554
-0.7697626	P o l	-0.20678554
-1.3733007	n o l	-0.25870132
-1.4922684	z o l	-0.20678554
-0.9313197	s o l	-0.34851816
-1.34531	w o l	-0.20678554
-1.1433088	b o l	-0.3367287
-1.2765397	f o l	-0.20678554
-1.1198552	p o l	-0.28718862
-1.2835525	g o l	-0.20678554
-1.2146636	r o l	-0.20678554
-0.9752428	c o l	-0.20678554
-0.36026606	H o l	-0.20678554
-1.1250458	C o l	-0.20678554
-1.7867733	<s> M l	-0.20678554
-1.4628973	<s> P l	-0.28718862
-1.2334316	<s> O l	-0.20678554
-1.116488	<s> T l	-0.20678554
-1.1633158	e T l	-0.20678554
-0.9247921	i T l	-0.25870132
-1.0215477	a T l	-0.20678554
-0.5155845	m T l	-0.44731364
-0.9679065	u T l	-0.20678554
-0.96085155	U n l	-0.20678554
-2.332264	e n l	-0.20678554
-2.050466	i n l	-0.25870132
-0.3913277	p s l	-0.20678554
-1.594273	o w l	-0.20678554
-1.4570203	<s> a l	-0.74731433
-1.0060339	D a l	-0.20678554
-1.1688153	S a l	-0.20678554
-0.80667543	K a l	-0.28718862
-0.75767004	W a l	-0.20678554
-1.0931818	h a l	-0.45471752
-1.031213	e a l	-0.20678554
-1.06914	t a l	-0.29501662
-1.3072919	k a l	-0.23780997
-0.8644685	i a l	-0.25870132
-1.1712663	l a l	-0.5094895
-0.8832839	M a l	-0.27122235
-1.0503367	R a l	-0.20678554
-0.90285325	P a l	-0.25870132
-1.000364	T a l	-0.20678554
-1.1254051	j a l	-0.2486643
-1.0851067	n a l	-0.36922413
-0.95981246	z a l	-0.46795976
-1.0917734	s a l	-0.27913213
-1.1932669	w a l	-0.40406108
-1.0575709	b a l	-0.4882655
-1.1166613	m a l	-0.47810838
-1.0237919	d a l	-0.27913213
-0.75767004	u a l	-0.20678554
-0.8921207	p a l	-0.29501662
-1.0714712	g a l	-0.30598447
-1.2409526	N a l	-0.20678554
-0.6679089	q a l	-0.40406108
-1.3279575	r a l	-0.25870132
-1.1994324	y a l	-0.27913213
-0.9388062	c a l	-0.25870132
-0.85834384	v a l	-0.26581192
-0.5729112	Q a l	-0.25870132
-0.51571494	Z a l	-0.25870132
-0.8225456	B a l	-0.20678554
-0.9792593	C a l	-0.20678554
-2.9935536	<s> b l	-0.20678554
-2.0668511	a b l	-0.20678554
-1.4571048	u b l	-0.28718862
-1.9769204	<s> m l	-0.20678554
-1.4121495	U m l	-0.20678554
-1.9185834	e m l	-0.20678554
-1.6523076	i m l	-0.20678554
-1.2670156	o m l	-0.5442236
-2.0207	a m l	-0.20678554
-1.6786975	u m l	-0.24512905
-0.97089094	<s> d l	-0.20678554
-1.1789932	e d l	-0.23718475
-0.7204528	i d l	-0.4422719
-0.9102842	o d l	-0.25870132
-0.8479499	n d l	-0.39016894
-0.7938321	a d l	-0.57225233
-0.9054657	m d l	-0.20678554
-0.3352491	d d l	-0.20678554
-0.80156153	u d l	-0.26749945
-0.51005375	N d l	-0.23718475
-1.1497966	<s> f l	-0.20678554
-1.6443359	e f l	-0.20678554
-2.0217435	<s> u l	-0.40141824
-0.80105656	K u l	-0.36813238
-0.8229387	h u l	-0.49979812
-1.2379352	t u l	-0.20678554
-1.1578953	k u l	-0.6411273
-0.6288179	l u l	-0.49832827
-1.2527567	L u l	-0.20678554
-0.61443925	j u l	-0.20678554
-1.0260149	z u l	-0.28718862
-0.6766611	s u l	-0.40952504
-1.1015334	w u l	-0.27047223
-1.1193987	b u l	-0.4950032
-1.2826352	m u l	-0.24512905
-0.9380242	d u l	-0.22827998
-1.2156599	f u l	-0.20678554
-0.7854645	p u l	-0.24512905
-0.92487526	g u l	-0.2636665
-1.135808	r u l	-0.20678554
-0.80888414	y u l	-0.20678554
-1.0906953	c u l	-0.20678554
-0.6962645	v u l	-0.32380387
-0.40177548	Z u l	-0.20678554
-0.98566127	B u l	-0.269873
-0.8599843	V u l	-0.20678554
-0.93213314	G u l	-0.20678554
-1.4286985	e p l	-0.28718862
-1.2520131	i p l	-0.25870132
-1.4572699	a p l	-0.20678554
-1.0559981	m p l	-0.25870132
-1.2746958	u p l	-0.20678554
-0.40048233	p p l	-0.28718862
-0.6119426	x p l	-0.20678554
-1.9559561	n g l	-0.20678554
-1.5134895	u g l	-0.20678554
-1.5962815	o r l	-0.28718862
-1.678843	a r l	-0.28718862
-1.8174984	i c l	-0.20678554
-0.49404436	<s> H l	-0.25870132
-0.25168228	I H l	-0.20678554
-0.15887237	e H l	-0.47755536
-0.07948442	i H l	-0.45257077
-0.25168228	o H l	-0.20678554
-0.17843619	n H l	-0.28718862
-0.17684962	a H l	-0.20678554
-0.1593523	m H l	-0.29501662
-0.44319248	u H l	-0.20678554
-1.9046301	<s> B l	-0.20678554
-1.801129	<s> C l	-0.20678554
-1.3641722	<s> E l	-0.24512905
-1.0794822	<s> D o	-0.20678554
-0.7622249	e D o	-0.20678554
-0.5797377	u D o	-0.29501662
-1.2867461	<s> S o	-0.23718475
-0.6260881	U S o	-0.20678554
-1.0206397	e S o	-0.27122235
-0.5211798	o S o	-0.24512905
-0.902187	u S o	-0.20678554
-1.1638805	<s> K o	-0.37360305
-0.7663095	I K o	-0.20678554
-0.87813455	e K o	-0.3367287
-0.67808384	i K o	-0.269873
-0.68916863	o K o	-0.20678554
-0.7686799	a K o	-0.28718862
-0.97469723	u K o	-0.20678554
-0.59791625	<s> F o	-0.37104976
-0.7660897	A F o	-0.20678554
-0.92961335	e F o	-0.20678554
-0.7133165	i F o	-0.20678554
-0.7660897	a F o	-0.20678554
-0.33268693	<s> W o	-0.4207139
-0.7129519	K h o	-0.2727114
-1.2130336	e h o	-0.20678554
-0.932793	t h o	-0.42450598
-0.7756331	k h o	-0.43139607
-1.2508221	i h o	-0.20678554
-0.68596274	l h o	-0.23718475
-0.7712344	R h o	-0.28718862
-1.1278284	P h o	-0.28718862
-0.8183959	T h o	-0.28718862
-0.8083174	j h o	-0.2508939
-0.9322267	s h o	-0.20678554
-1.3540953	a h o	-0.20678554
-0.90280616	b h o	-0.29046816
-0.3160477	d h o	-0.20678554
-0.8934502	p h o	-0.29358283
-0.52448815	g h o	-0.36813238
-0.7810877	r h o	-0.3091323
-0.81321466	B h o	-0.28718862
-0.3160477	X h o	-0.20678554
-2.2811563	l e o	-0.20678554
-0.98741627	<s> t o	-0.20678554
-0.9941967	S t o	-0.20678554
-1.4169422	e t o	-0.28718862
-0.7345386	k t o	-0.20678554
-1.257378	i t o	-0.24512905
-1.2844832	o t o	-0.20678554
-0.886943	n t o	-0.51281995
-1.0569723	s t o	-0.20678554
-1.2652018	a t o	-0.269873
-1.1593761	N t o	-0.20678554
-1.1331019	r t o	-0.20678554
-0.7912562	c t o	-0.28718862
-0.9142631	<s> k o	-1.2370763
-0.7860966	I k o	-0.20678554
-0.7860966	U k o	-0.20678554
-0.84638935	e k o	-0.55902606
-0.8806355	i k o	-0.45257077
-0.5791873	l k o	-0.20678554
-0.7969256	o k o	-0.46897927
-0.9882409	n k o	-0.27475026
-0.84508264	a k o	-0.5688016
-0.92375576	u k o	-0.31595933
-0.7056734	N k o	-0.20678554
-1.1549579	t i o	-0.41995537
-1.9045225	n i o	-0.20678554
-2.0063488	s i o	-0.20678554
-1.5389894	p i o	-0.20678554
-1.8483279	g i o	-0.20678554
-1.8525703	r i o	-0.20678554
-0.50285274	<s> l o	-1.2879037
-0.5537337	A l o	-0.20678554
-0.8348743	I l o	-0.20678554
-0.6827004	h l o	-0.44243127
-0.86523885	e l o	-0.542313
-0.6563589	t l o	-0.51281995
-0.8026852	i l o	-0.35562697
-0.57549286	o l o	-0.3958275
-0.55380386	T l o	-0.41995537
-0.31950665	s l o	-0.20678554
-0.7948203	a l o	-0.52846503
-1.157186	m l o	-0.20678554
-1.1025683	d l o	-0.24512905
-0.5537337	f l o	-0.20678554
-0.99119884	u l o	-0.47051308
-0.75404876	p l o	-0.20678554
-0.5537337	g l o	-0.20678554
-0.5537337	r l o	-0.20678554
-0.63118446	H l o	-0.2508939
-1.4332741	S o o	-0.20678554
-1.103959	F o o	-0.20678554
-1.8200818	h o o	-0.20678554
-1.1986452	t o o	-0.20678554
-1.7065063	l o o	-0.20678554
-1.3421688	M o o	-0.20678554
-0.82343674	R o o	-0.20678554
-1.6772991	z o o	-0.20678554
-1.2200578	d o o	-0.20678554
-1.660504	g o o	-0.20678554
-0.6389107	<s> L o	-0.35488978
-1.4382592	e L o	-0.20678554
-1.2080525	u L o	-0.20678554
-0.83531845	<s> M o	-0.20678554
-0.5971828	U M o	-0.20678554
-1.1563097	e M o	-0.20678554
-0.9297207	o M o	-0.28718862
-0.825445	a M o	-0.20678554
-0.83492255	u M o	-0.27122235
-1.1106316	<s> R o	-0.20678554
-1.1243168	<s> P o	-0.24512905
-0.9812399	<s> T o	-0.20678554
-1.5089107	e j o	-0.20678554
-1.3631493	i j o	-0.20678554
-0.71830076	<s> n o	-1.2326175
-1.1443917	I n o	-0.20678554
-0.6006259	h n o	-0.28718862
-1.4531028	e n o	-0.42475557
-0.62310976	k n o	-0.20678554
-1.1745938	i n o	-0.39016894
-1.1632257	o n o	-0.33072713
-1.038339	M n o	-0.20678554
-1.4070994	a n o	-0.38831234
-1.0089592	m n o	-0.41995537
-1.2718972	u n o	-0.27346405
-0.5823761	<s> z o	-1.2406511
-0.78990096	e z o	-0.5044198
-0.77613664	i z o	-0.45257077
-0.7174341	o z o	-0.25754747
-1.1715086	n z o	-0.20678554
-0.7880854	a z o	-0.42327297
-1.0588143	m z o	-0.20678554
-0.8231885	u z o	-0.3093296
-0.7569819	<s> s o	-1.2734677
-0.8988326	I s o	-0.20678554
-0.9864361	e s o	-0.38851085
-0.9101554	i s o	-0.4535715
-0.3868521	l s o	-0.28718862
-0.93278563	o s o	-0.24023597
-0.88280576	T s o	-0.20678554
-1.1763653	n s o	-0.20678554
-0.6907441	s s o	-0.28718862
-0.9438192	a s o	-0.376923
-0.93690866	u s o	-0.25797978
-0.9910761	r s o	-0.20678554
-0.45234588	<s> w o	-1.3547649
-1.4456899	e w o	-0.20678554
-1.1527482	i w o	-0.25754747
-0.6615174	o w o	-0.269873
-0.35566938	T w o	-0.20678554
-0.6342184	a w o	-0.6725208
-1.2299385	u w o	-0.20678554
-2.1487472	n a o	-0.20678554
-0.9210515	<s> b o	-0.8628041
-0.94977325	A b o	-0.20678554
-1.2504311	e b o	-0.23718475
-0.78488386	i b o	-0.40909854
-0.9846663	o b o	-0.2508939
-0.8342418	a b o	-0.4879123
-0.7571735	m b o	-0.37338954
-0.9202409	u b o	-0.27122235
-0.19588754	<s> J o	-0.25797978
-0.32715684	i J o	-0.20678554
-0.71364945	a J o	-0.20678554
-1.2951115	e m o	-0.23196813
-1.3864788	i m o	-0.27122235
-1.4098415	o m o	-0.4387233
-1.0930864	a m o	-0.47755536
-0.767189	m m o	-0.28718862
-1.258995	u m o	-0.29774174
-0.9917566	<s> d o	-0.20678554
-0.34045953	A d o	-0.20678554
-1.2911028	e d o	-0.20678554
-1.1812757	i d o	-0.269873
-0.81081843	o d o	-0.269873
-1.0385103	n d o	-0.3367287
-0.9394753	a d o	-0.33472
-0.9235896	m d o	-0.20678554
-0.91600454	u d o	-0.2918685
-0.8542862	<s> f o	-0.20678554
-0.6469859	I f o	-0.20678554
-0.6534413	e f o	-0.5960466
-0.30824462	t f o	-0.20678554
-1.0619286	i f o	-0.24512905
-0.5345962	l f o	-0.20678554
-0.99997574	o f o	-0.20678554
-0.35865167	n f o	-0.20678554
-0.30824462	s f o	-0.20678554
-1.3229855	a f o	-0.20678554
-0.30824462	p f o	-0.20678554
-1.1756572	<s> p o	-0.20678554
-1.022124	e p o	-0.269873
-0.75485224	i p o	-0.2812607
-0.80337536	o p o	-0.20678554
-0.71949553	s p o	-0.20678554
-1.1462965	a p o	-0.20678554
-0.8547758	m p o	-0.25754747
-0.8388378	u p o	-0.29501662
-0.6959126	r p o	-0.20678554
-0.57187206	x p o	-0.20678554
-0.6196552	<s> g o	-0.20678554
-1.1246631	e g o	-0.25870132
-1.1527948	k g o	-0.20678554
-1.2178175	i g o	-0.20678554
-0.70058954	o g o	-0.23718475
-1.0009896	n g o	-0.35418767
-0.3766747	s g o	-0.28718862
-0.32728046	w g o	-0.20678554
-1.3412157	a g o	-0.20678554
-0.21277216	m g o	-0.40367547
-0.8488264	u g o	-0.20678554
-0.83995265	N g o	-0.22827998
-1.1523293	<s> N o	-0.434071
-1.3467208	e N o	-0.20678554
-1.1542773	i N o	-0.20678554
-0.7197754	o N o	-0.20678554
-0.9520919	a N o	-0.20678554
-0.9206409	m N o	-0.28718862
-0.6258633	u N o	-0.2918685
-0.86819917	<s> q o	-0.20678554
-1.0992825	e q o	-0.20678554
-1.1916271	i q o	-0.20678554
-0.33614594	n q o	-0.5168654
-1.095211	a q o	-0.25870132
-0.38110453	m q o	-0.25870132
-0.93180484	u q o	-0.20678554
-0.60788137	g q o	-0.25870132
-0.20545144	N q o	-0.29501662
-0.71963674	F r o	-0.20678554
-0.6031332	h r o	-0.2905262
-0.8900309	t r o	-0.20678554
-1.1006119	i r o	-0.20678554
-0.68753195	o r o	-0.34284776
-0.80295634	P r o	-0.20678554
-1.5003605	a r o	-0.20678554
-1.2342477	u r o	-0.20678554
-0.94790304	p r o	-0.20678554
-0.879248	r r o	-0.20678554
-0.38873982	c r o	-0.20678554
-0.92935973	G r o	-0.20678554
-0.42705575	<s> y o	-1.3632661
-0.9103261	e y o	-0.269873
-0.72395575	i y o	-0.3749564
-0.9221938	o y o	-0.28718862
-1.1925079	n y o	-0.24512905
-0.6686177	a y o	-0.6122539
-0.7305037	u y o	-0.2918685
-0.7889785	N y o	-0.20678554
-0.4629458	<s> c o	-0.20678554
-0.90119153	S c o	-0.20678554
-0.88940394	e c o	-0.28718862
-1.2571952	i c o	-0.20678554
-0.8723167	o c o	-0.20678554
-1.0839201	n c o	-0.20678554
-0.3168373	m c o	-0.20678554
-0.9229348	u c o	-0.20678554
-0.85743403	g c o	-0.28718862
-0.66595435	c c o	-0.20678554
-0.54916614	E c o	-0.20678554
-0.59384674	I v o	-0.20678554
-1.255327	i v o	-0.20678554
-1.212281	o v o	-0.20678554
-1.193179	a v o	-0.28718862
-1.1175508	u v o	-0.20678554
-1.211018	<s> H o	-0.20678554
-0.78090763	u Q o	-0.20678554
-0.6358876	<s> Z o	-0.24512905
-0.66053504	e Z o	-0.25870132
-1.0435904	<s> B o	-0.20678554
-1.2180675	e B o	-0.20678554
-1.0931288	i B o	-0.20678554
-0.6302494	m B o	-0.25870132
-0.94009316	u B o	-0.20678554
-0.35656974	<s> C o	-0.42215848
-0.35331362	o C o	-0.20678554
-0.95007235	<s> G o	-0.20678554
-0.36272514	m G o	-0.20678554
-0.7418325	<s> Y o	-0.41995537
-2.0011606	<s> A L	-0.20678554
-1.3641044	S A L	-0.20678554
-0.90323305	M A L	-0.20678554
-0.6417673	G A L	-0.20678554
-2.2495408	<s> I L	-0.20678554
-0.94783175	M I L	-0.20678554
-1.1553277	N D L	-0.20678554
-0.63986087	H U L	-0.20678554
-0.36763525	Y U L	-0.20678554
-2.855355	<s> e L	-0.20678554
-2.0858831	n e L	-0.20678554
-2.0254033	z e L	-0.20678554
-2.1355684	s e L	-0.20678554
-1.8742732	w e L	-0.23718475
-1.8962383	g e L	-0.20678554
-1.983996	y e L	-0.20678554
-2.6742082	<s> i L	-0.20678554
-2.3427153	l i L	-0.20678554
-2.3936791	s i L	-0.20678554
-2.2156906	m i L	-0.20678554
-2.2193046	l o L	-0.20678554
-1.9361744	g o L	-0.20678554
-1.778293	y o L	-0.20678554
-0.96235895	A L L	-0.20678554
-1.5532484	<s> O L	-0.20678554
-0.4141623	L O L	-0.20678554
-2.4970663	e n L	-0.20678554
-3.1414905	<s> a L	-0.20678554
-2.1320562	k a L	-0.20678554
-1.7052567	M a L	-0.20678554
-2.0810442	s a L	-0.20678554
-2.2194571	b a L	-0.20678554
-1.6947603	m a L	-0.34851816
-1.6198227	U m L	-0.20678554
-2.139946	o m L	-0.28718862
-2.8676796	<s> u L	-0.20678554
-2.1291304	k u L	-0.23196813
-1.9636388	b u L	-0.20678554
-0.36867186	A H L	-0.20678554
-0.36867186	U H L	-0.20678554
-0.8924846	W E L	-0.20678554
-0.7921464	M E L	-0.20678554
-0.36884785	B E L	-0.20678554
-0.6421332	Y E L	-0.20678554
-1.8405054	<s> A M	-0.28718862
-1.3695267	S A M	-0.20678554
-1.0877914	W A M	-0.20678554
-0.9117002	L A M	-0.20678554
-2.0493498	<s> I M	-0.28718862
-0.66700274	L I M	-0.20678554
-0.9377844	T I M	-0.20678554
-2.2935805	<s> U M	-0.20678554
-0.6415164	H U M	-0.20678554
-3.2214494	<s> e M	-0.20678554
-1.200317	e e M	-0.41995537
-2.032267	z e M	-0.20678554
-2.142631	s e M	-0.20678554
-2.0114791	w e M	-0.20678554
-1.9022316	g e M	-0.20678554
-1.9902986	y e M	-0.20678554
-2.5138953	<s> i M	-0.24512905
-2.4181514	l i M	-0.20678554
-1.8062255	l o M	-0.20678554
-1.9105552	n o M	-0.20678554
-1.4509373	z o M	-0.20678554
-1.5945601	b o M	-0.20678554
-1.8233808	g o M	-0.20678554
-1.7055275	y o M	-0.20678554
-0.90081596	K O M	-0.20678554
-0.64026654	C O M	-0.20678554
-0.9690721	A T M	-0.20678554
-1.531518	k a M	-0.32237488
-2.1163695	n a M	-0.20678554
-1.7706289	z a M	-0.28718862
-2.3320532	w a M	-0.20678554
-1.8868073	m a M	-0.24512905
-1.783992	<s> u M	-0.29475608
-1.7174609	K u M	-0.20678554
-2.2907584	k u M	-0.20678554
-2.1696231	b u M	-0.20678554
-1.8323473	g u M	-0.20678554
-0.68198526	Y E M	-0.20678554
-1.0081567	<s> V M	-0.20678554
-1.4525464	S A R	-0.20678554
-0.9399247	M A R	-0.20678554
-0.66415787	H A R	-0.20678554
-2.1761172	<s> I R	-0.20678554
-2.2995598	<s> U R	-0.20678554
-1.1632867	K U R	-0.20678554
-2.8790824	<s> e R	-0.25870132
-2.2182996	l e R	-0.20678554
-2.07191	z e R	-0.20678554
-2.034846	w e R	-0.25870132
-2.083793	b e R	-0.20678554
-2.0265365	y e R	-0.20678554
-2.0404124	n o R	-0.20678554
-1.9574353	g o R	-0.20678554
-1.8276001	<s> P R	-0.20678554
-0.38446185	I O R	-0.20678554
-1.7500515	k a R	-0.27122235
-2.090892	m a R	-0.20678554
-3.2022347	<s> u R	-0.20678554
-1.9940175	k u R	-0.28718862
-1.9143423	g u R	-0.20678554
-0.82943183	S E R	-0.20678554
-0.38254282	C E R	-0.20678554
-1.5353123	S A P	-0.20678554
-2.0863888	<s> I P	-0.20678554
-0.5353479	M I P	-0.28718862
-0.98188776	R I P	-0.20678554
-0.3727815	J I P	-0.20678554
-1.0824687	N D P	-0.20678554
-0.36960554	G D P	-0.20678554
-1.2507281	K U P	-0.20678554
-2.2746453	<s> e P	-0.45257077
-2.118055	l e P	-0.20678554
-2.0304928	n e P	-0.20678554
-1.9703485	z e P	-0.20678554
-1.837955	s e P	-0.28718862
-1.9732519	w e P	-0.25870132
-1.7257565	b e P	-0.28718862
-1.8477454	g e P	-0.20678554
-1.9331586	y e P	-0.20678554
-2.4695475	<s> i P	-0.24512905
-1.990208	l i P	-0.28718862
-1.9570113	z i P	-0.28718862
-1.7526867	s i P	-0.3367287
-1.7160215	m i P	-0.29501662
-2.1039786	y i P	-0.20678554
-3.033716	<s> o P	-0.20678554
-0.6728915	I R P	-0.20678554
-3.1863773	<s> a P	-0.20678554
-2.1772094	k a P	-0.20678554
-1.8214704	b a P	-0.29501662
-2.3113537	m a P	-0.20678554
-2.0247216	g a P	-0.20678554
-2.138109	e m P	-0.20678554
-2.0582814	i m P	-0.20678554
-1.683373	o m P	-0.5168654
-1.8232564	u m P	-0.28718862
-2.8403466	<s> u P	-0.20678554
-2.0958626	k u P	-0.28718862
-2.2266843	b u P	-0.20678554
-1.8691205	g u P	-0.20678554
-0.83360887	G C P	-0.20678554
-1.0625774	R I O	-0.20678554
-1.164883	N D O	-0.20678554
-0.83839846	A S O	-0.20678554
-1.3237436	I S O	-0.20678554
-1.9119096	<s> K O	-0.20678554
-0.9281937	A K O	-0.20678554
-0.9281937	U K O	-0.20678554
-1.7893239	<s> L O	-0.20678554
-0.6603352	H L O	-0.20678554
-0.92542803	E L O	-0.20678554
-0.95477194	I P O	-0.20678554
-0.83805823	K H O	-0.20678554
-1.5740023	<s> C O	-0.20678554
-0.96084297	<s> Y O	-0.28718862
-0.33514535	E Y O	-0.20678554
-2.0011606	<s> A T	-0.20678554
-0.80370647	T A T	-0.20678554
-0.6417673	H A T	-0.20678554
-0.6417673	E A T	-0.20678554
-2.075952	<s> I T	-0.20678554
-0.6480763	S I T	-0.20678554
-0.9787409	R I T	-0.20678554
-0.9031187	C I T	-0.20678554
-1.3007385	I S T	-0.20678554
-1.1059315	o S T	-0.20678554
-0.66872954	O S T	-0.20678554
-3.0043302	<s> e T	-0.20678554
-2.2060256	l e T	-0.20678554
-2.1201675	n e T	-0.20678554
-1.8881593	s e T	-0.20678554
-1.9258536	g e T	-0.20678554
-2.0151844	y e T	-0.20678554
-2.4942665	<s> i T	-0.24512905
-2.0330095	l i T	-0.20678554
-1.7769613	s i T	-0.31622973
-1.5568866	m i T	-0.2905262
-2.0619767	n o T	-0.20678554
-0.96235895	O L T	-0.20678554
-0.6713865	E R T	-0.20678554
-0.383027	P O T	-0.20678554
-2.4172332	e n T	-0.20678554
-2.094241	i n T	-0.28718862
-3.1791086	<s> a T	-0.20678554
-1.3124299	K a T	-0.20678554
-2.3252525	w a T	-0.20678554
-2.2600548	b a T	-0.20678554
-2.0241792	m a T	-0.24512905
-1.6844705	<s> m T	-0.25870132
-1.4798586	U m T	-0.20678554
-1.7934716	e m T	-0.25870132
-1.3726119	o m T	-0.5442236
-2.1031082	a m T	-0.20678554
-1.74144	u m T	-0.28718862
-3.1152415	<s> u T	-0.20678554
-1.7853588	k u T	-0.28718862
-2.2159212	b u T	-0.20678554
-1.8763835	m u T	-0.20678554
-0.3841741	G H T	-0.20678554
-0.81995136	S E T	-0.20678554
-0.9278175	W E T	-0.20678554
-0.81995136	L E T	-0.20678554
-2.4340172	<s> I j	-0.20678554
-2.6503613	<s> e j	-0.27122235
-2.020458	h e j	-0.20678554
-1.7147703	l e j	-0.20678554
-0.92918134	R e j	-0.28718862
-1.9777973	n e j	-0.20678554
-1.9179349	z e j	-0.20678554
-2.0253716	s e j	-0.20678554
-1.93929	w e j	-0.28718862
-1.9436333	b e j	-0.20678554
-1.8009293	g e j	-0.20678554
-1.7757279	r e j	-0.20678554
-0.8909566	<s> t j	-0.25870132
-0.7654157	I t j	-0.20678554
-0.72181636	e t j	-0.46174046
-0.6579997	i t j	-0.68355393
-0.53638834	o t j	-0.6122716
-0.35856783	O t j	-0.20678554
-1.4194216	n t j	-0.27475026
-0.75807697	a t j	-0.71670574
-0.75756705	m t j	-0.5168654
-0.6518722	u t j	-0.52034974
-2.3110988	<s> i j	-0.36813238
-1.7617584	t i j	-0.20678554
-2.1202474	l i j	-0.20678554
-1.4862926	z i j	-0.5168654
-1.8516397	s i j	-0.27122235
-1.4397136	b i j	-0.20678554
-2.005276	m i j	-0.20678554
-1.7547721	d i j	-0.20678554
-1.409398	g i j	-0.25870132
-1.9793705	y i j	-0.20678554
-2.579514	<s> o j	-0.28718862
-2.0187714	h o j	-0.20678554
-2.1360483	l o j	-0.20678554
-1.4738122	o o j	-0.20678554
-1.758811	r o j	-0.20678554
-0.9688823	<s> T j	-0.25870132
-0.77891165	I T j	-0.20678554
-0.7578886	e T j	-0.29501662
-0.60410005	i T j	-0.41995537
-0.79970956	n T j	-0.20678554
-0.7128235	a T j	-0.28718862
-1.1917654	m T j	-0.20678554
-0.63199055	u T j	-0.25870132
-1.2691907	<s> n j	-1.558258
-1.6168574	e n j	-0.2764795
-1.5880508	i n j	-0.43799654
-1.4988207	o n j	-0.25870132
-1.1439962	a n j	-0.6070821
-1.4549754	u n j	-0.33028463
-2.6613328	<s> a j	-0.29501662
-1.8889157	h a j	-0.28718862
-2.0136743	k a j	-0.20678554
-1.4006897	j a j	-0.20678554
-1.7156597	s a j	-0.28718862
-2.1782632	w a j	-0.20678554
-1.591461	b a j	-0.27122235
-1.2352369	J a j	-0.20678554
-1.9199731	m a j	-0.24512905
-1.748958	y a j	-0.20678554
-2.4309978	o m j	-0.20678554
-2.1833541	u m j	-0.20678554
-3.0195835	<s> u j	-0.20678554
-1.9466065	h u j	-0.20678554
-1.9086249	k u j	-0.29501662
-1.7458562	w u j	-0.20678554
-1.3714831	b u j	-0.5960466
-1.2718346	B u j	-0.28718862
-1.1121311	<s> N j	-0.9640234
-1.3180976	<s> A n	-0.46166742
-0.9137437	<s> I n	-0.3907507
-1.4703511	<s> U n	-0.3749564
-1.9449507	k h n	-0.20678554
-1.4973246	o h n	-0.20678554
-1.3077124	c h n	-0.20678554
-1.1299317	<s> e n	-0.81998503
-0.9915629	S e n	-0.25754747
-0.6268262	K e n	-0.20678554
-0.9994	W e n	-0.20678554
