\data\
ngram 1=58
ngram 2=1179
ngram 3=6607
ngram 4=20330
ngram 5=41138

\1-grams:
-2.9135747	<unk>	0
0	<s>	-2.7395933
-1.4093361	</s>	0
-1.794166	I	-0.3015997
-1.6575673	n	-0.6623359
-1.8426363	j	-0.58407235
-1.3818623	o	-0.8859684
-1.6924151	g	-0.6969767
-1.567198	y	-0.65458035
-1.4093361	e	-0.87116086
-1.3908285	a	-0.9542238
-1.567198	s	-0.6997984
-1.897204	M	-0.3664861
-1.730305	z	-0.64337605
-1.6100364	t	-0.7475915
-1.3999836	i	-0.8938511
-1.6924151	A	-0.30469272
-1.730305	f	-0.58628434
-1.6100364	r	-0.57934785
-1.7109469	k	-0.6146373
-1.4093361	u	-0.7530316
-1.8690637	v	-0.6352208
-1.5040334	l	-0.7667954
-1.6924151	m	-0.6006777
-1.4924325	h	-0.82905453
-1.8177253	b	-0.6339778
-1.5282084	w	-0.7700796
-1.6411388	c	-0.68410206
-1.897204	L	-0.4112311
-1.730305	p	-0.6172856
-1.8426363	d	-0.5823213
-1.794166	q	-0.7289321
-1.8690637	x	-0.6174789
-1.9272947	N	-0.37872982
-1.8690637	C	-0.33032054
-1.8426363	P	-0.3678172
-1.9945606	B	-0.40555322
-1.9272947	D	-0.297421
-1.9596267	W	-0.31257194
-1.9945606	Z	-0.37843066
-1.8426363	T	-0.32570675
-2.0325522	G	-0.32859254
-1.7505662	E	-0.30638134
-1.8690637	O	-0.33196843
-2.17177	X	-0.26897848
-1.6924151	S	-0.45518258
-2.2302423	V	-0.25358889
-1.9596267	R	-0.30562028
-1.9945606	U	-0.31769416
-1.9945606	K	-0.31640458
-2.3779101	J	-0.3058598
-1.8690637	H	-0.32339907
-1.9945606	F	-0.31181037
-2.0741887	Y	-0.25831363
-2.17177	Q	-0.29601067
-2.7840264	Ã	-0.29920143
-2.7840264	Â	-0.29920143
-2.2302423	é	-0.59104896

\2-grams:
-1.02773	I </s>	0
-1.2542685	n </s>	0
-0.9028763	j </s>	0
-1.3578243	o </s>	0
-1.0334545	g </s>	0
-0.7879046	y </s>	0
-1.3082539	e </s>	0
-1.3587831	a </s>	0
-0.9022917	s </s>	0
-1.5959778	M </s>	0
-1.1215436	z </s>	0
-1.0213739	t </s>	0
-1.3385967	i </s>	0
-0.89035654	A </s>	0
-1.5712442	f </s>	0
-1.3852761	r </s>	0
-1.1820877	k </s>	0
-1.271292	u </s>	0
-1.4980928	v </s>	0
-1.0563184	l </s>	0
-1.3013008	m </s>	0
-1.2224051	h </s>	0
-1.3461825	b </s>	0
-1.4623579	w </s>	0
-1.4801226	c </s>	0
-1.607467	L </s>	0
-1.1765002	p </s>	0
-1.1557838	d </s>	0
-1.762319	q </s>	0
-1.5827239	x </s>	0
-1.5800005	N </s>	0
-1.0484923	C </s>	0
-0.87447864	P </s>	0
-1.1521722	B </s>	0
-1.026037	D </s>	0
-1.4753398	Z </s>	0
-1.0835083	T </s>	0
-1.440523	E </s>	0
-0.75142205	O </s>	0
-1.0112593	S </s>	0
-1.059509	V </s>	0
-1.2054062	R </s>	0
-0.9418844	U </s>	0
-1.3562043	F </s>	0
-0.28612778	Â </s>	0
-0.12287546	é </s>	0
-1.9442915	<s> I	-1.1767383
-1.6951063	I I	-0.26447585
-2.4575868	e I	-0.22736506
-1.9231002	M I	-0.22736506
-2.548548	i I	-0.22736506
-1.7141886	A I	-0.30505657
-2.0462425	d I	-0.22736506
-1.9005462	N I	-0.22736506
-1.4648706	C I	-0.22736506
-1.5545495	D I	-0.30505657
-1.3485044	W I	-0.27758592
-1.0821942	Z I	-0.26447585
-1.7558267	T I	-0.22736506
-1.7059437	G I	-0.22736506
-1.808896	S I	-0.22736506
-1.4163339	R I	-0.22736506
-1.1988436	J I	-0.22736506
-1.3940437	H I	-0.30505657
-1.3637352	F I	-0.27758592
-0.817202	<s> n	-2.5918548
-1.5497352	I n	-0.2434686
-1.5791898	n n	-0.26019233
-1.2094897	o n	-0.9658605
-1.8931689	g n	-0.22736506
-1.7864711	y n	-0.22736506
-1.2876376	e n	-0.94446826
-1.2170368	a n	-1.00843
-1.4984673	M n	-0.29772702
-1.9436972	z n	-0.22736506
-2.0352697	t n	-0.30505657
-1.2385887	i n	-1.047384
-1.6525728	A n	-0.26447585
-1.8339792	r n	-0.33704352
-2.0346622	k n	-0.22736506
-1.1610011	u n	-0.825507
-1.8389331	v n	-0.22736506
-2.0641432	l n	-0.22736506
-1.4320235	m n	-0.559135
-2.082637	h n	-0.22736506
-1.9704266	b n	-0.22736506
-2.0933945	w n	-0.22736506
-1.9673021	p n	-0.22736506
-1.6814494	E n	-0.22736506
-1.6380779	O n	-0.22736506
-1.5239248	U n	-0.2455242
-2.9298384	<s> j	-0.8474682
-1.4565886	n j	-0.49303788
-1.9120611	o j	-0.3688383
-2.197625	g j	-0.22736506
-2.1010325	y j	-0.22736506
-1.8808857	e j	-0.4196659
-1.6524438	a j	-0.75149024
-2.216089	s j	-0.22736506
-2.015518	z j	-0.22736506
-1.750679	i j	-0.5858004
-1.911916	u j	-0.43273145
-1.658251	m j	-0.49749005
-2.295985	h j	-0.22736506
-2.0490756	b j	-0.22736506
-1.9229319	d j	-0.30505657
-1.3593864	N j	-0.3213988
-1.7392435	U j	-0.22736506
-1.3328335	<s> o	-1.7811117
-1.555334	I o	-0.22736506
-1.2914973	n o	-0.4633227
-0.78844815	j o	-0.5367491
-1.4881704	o o	-0.53093636
-0.97067237	g o	-0.4972071
-0.9731147	y o	-0.5253958
-2.1271768	e o	-0.22736506
-2.2259152	a o	-0.22736506
-1.093791	s o	-0.49621272
-1.2194959	M o	-0.2996739
-0.99221796	z o	-0.50766
-1.1134015	t o	-0.4521459
-1.7423085	i o	-0.37690827
-0.85820824	f o	-0.47382274
-0.9970681	r o	-0.33780617
-0.97702354	k o	-0.5593848
-0.8972544	v o	-0.30184326
-0.8918642	l o	-0.62299085
-1.4796506	m o	-0.45104018
-0.90306824	h o	-0.6718519
-0.9466545	b o	-0.5034867
-1.1567634	w o	-0.34408045
-0.9832052	c o	-0.4526406
-1.109362	L o	-0.27612054
-0.95399606	p o	-0.4750113
-1.0961554	d o	-0.4094396
-0.85519993	q o	-0.5699499
-1.0168402	x o	-0.4819674
-1.5627809	N o	-0.22736506
-1.3355472	C o	-0.27612054
-1.1021109	P o	-0.42671642
-1.0157361	B o	-0.28774065
-1.3102278	D o	-0.26447585
-0.935234	W o	-0.28836653
-1.2297359	Z o	-0.25679567
-1.5292118	T o	-0.22736506
-0.91349584	G o	-0.3598553
-1.493581	O o	-0.22736506
-1.0302889	X o	-0.22736506
-1.1244926	S o	-0.34259656
-1.2114842	V o	-0.22736506
-1.2930253	R o	-0.22736506
-1.0899941	K o	-0.3267247
-0.93898505	J o	-0.22736506
-1.410475	H o	-0.22736506
-0.94114894	F o	-0.2929085
-1.1694715	Y o	-0.22736506
-1.2241794	Q o	-0.30505657
-2.8539782	<s> g	-0.7114029
-1.7631735	I g	-0.22736506
-1.2460196	n g	-0.68744916
-1.5784888	o g	-0.5437271
-1.3954955	g g	-0.4196659
-2.034344	y g	-0.22736506
-1.6626877	e g	-0.608324
-1.5348984	a g	-0.74208397
-1.7380403	s g	-0.3072937
-1.5085673	M g	-0.42671642
-1.5311571	i g	-0.6676324
-1.5827887	A g	-0.3298064
-1.5388738	r g	-0.3072937
-1.9362974	k g	-0.30505657
-1.6941029	u g	-0.4780168
-2.1993678	l g	-0.22736506
-1.5556154	m g	-0.41238317
-2.0960517	h g	-0.22736506
-1.9867146	b g	-0.22736506
-1.9646584	w g	-0.22736506
-2.0919428	c g	-0.22736506
-1.8600492	q g	-0.27758592
-1.2368693	N g	-0.48109335
-1.6760141	U g	-0.22736506
-1.283558	<s> y	-2.4347851
-1.6852957	I y	-0.22736506
-1.234865	n y	-0.6556796
-1.621018	o y	-0.81157947
-1.9688832	y y	-0.22736506
-1.5165027	e y	-0.7700984
-1.3883862	a y	-0.8797868
-2.0645037	s y	-0.22736506
-1.6936601	M y	-0.30505657
-1.9016674	z y	-0.22736506
-1.2074796	t y	-0.6801175
-1.4561782	i y	-0.7680133
-1.697462	A y	-0.22736506
-1.8557975	f y	-0.22736506
-1.7959683	r y	-0.37013268
-1.7960529	k y	-0.37013268
-1.5474156	u y	-0.6854031
-1.6392326	l y	-0.42210266
-1.529832	m y	-0.5565122
-1.9545134	h y	-0.3298064
-1.9249355	b y	-0.22736506
-1.9116759	c y	-0.30505657
-1.9204426	p y	-0.22736506
-1.5483696	d y	-0.26447585
-1.9620055	q y	-0.22736506
-1.2161163	N y	-0.44633752
-1.6247823	C y	-0.22736506
-1.5979682	D y	-0.22736506
-1.4329985	T y	-0.27758592
-1.6319603	E y	-0.22736506
-1.8156736	S y	-0.22736506
-1.6134905	U y	-0.22736506
-1.0357523	<s> e	-1.9702678
-1.2160083	n e	-0.48826373
-0.9028763	j e	-0.3646453
-2.149874	o e	-0.27758592
-1.0673152	g e	-0.46999022
-0.9379962	y e	-0.49602664
-1.4171215	e e	-0.55025184
-2.2065322	a e	-0.22736506
-1.0316483	s e	-0.5268232
-1.4086052	M e	-0.28429237
-0.9429042	z e	-0.4286492
-1.0820994	t e	-0.4820828
-1.6195014	i e	-0.36159098
-0.9063662	f e	-0.40691084
-0.84126145	r e	-0.4282405
-1.0496838	k e	-0.5382227
-1.84519	u e	-0.2929085
-0.83872336	v e	-0.56443125
-0.8933406	l e	-0.5729909
-1.1711076	m e	-0.5694814
-0.9043806	h e	-0.63717854
-0.99463713	b e	-0.5422965
-0.62988317	w e	-0.6641656
-1.019525	c e	-0.59587586
-1.5019393	L e	-0.26447585
-0.8776597	p e	-0.427509
-0.9652931	d e	-0.471548
-0.93716174	q e	-0.6179727
-0.8624898	x e	-0.49967825
-1.5161602	N e	-0.27758592
-1.3468783	C e	-0.27004606
-1.299478	P e	-0.26019233
-1.0202633	B e	-0.32270378
-1.321761	D e	-0.2434686
-1.3912762	W e	-0.22736506
-1.3405812	Z e	-0.22736506
-1.2040701	T e	-0.25174993
-1.0367146	X e	-0.22736506
-1.0112593	S e	-0.40865448
-0.9414679	V e	-0.22736506
-1.3038951	R e	-0.2434686
-1.3721815	K e	-0.26447585
-1.2904246	H e	-0.27758592
-1.2640227	F e	-0.27758592
-1.321478	Y e	-0.22736506
-1.1279365	Q e	-0.28836653
-1.2589602	<s> a	-1.9006708
-1.2513992	n a	-0.58572024
-0.970677	j a	-0.3403042
-2.1732738	o a	-0.22736506
-1.0655903	g a	-0.521392
-0.87040764	y a	-0.6589639
-1.6702762	e a	-0.2699886
-1.723	a a	-0.42123708
-1.0611856	s a	-0.61881423
-1.096025	M a	-0.42159098
-0.85363394	z a	-0.55311865
-1.1508495	t a	-0.5340456
-1.5885057	i a	-0.45905882
-0.9048295	f a	-0.52949464
-0.8865055	r a	-0.41488296
-1.1309034	k a	-0.5339548
-1.8361754	u a	-0.25679567
-0.7373158	v a	-0.5714697
-0.8923558	l a	-0.71709305
-1.1683763	m a	-0.5673093
-0.7500152	h a	-0.8086661
-0.83392423	b a	-0.5995132
-0.6135552	w a	-0.8089794
-1.0548154	c a	-0.59900624
-1.0148406	L a	-0.35709408
-0.9137881	p a	-0.41492775
-1.0480188	d a	-0.49133322
-0.85569286	q a	-0.60994524
-0.7813689	x a	-0.5930223
-1.2619623	N a	-0.27991045
-0.87072164	C a	-0.3521264
-0.9728061	P a	-0.27612054
-1.0172399	B a	-0.3488416
-1.1439942	D a	-0.22736506
-1.2456634	W a	-0.26447585
-0.7066454	Z a	-0.30629802
-1.3634269	T a	-0.25679567
-1.1374986	G a	-0.22736506
-1.19806	X a	-0.22736506
-1.3990709	S a	-0.30623937
-1.0548223	V a	-0.27758592
-1.4213809	R a	-0.22736506
-1.2749295	K a	-0.25679567
-0.57657	J a	-0.28836653
-1.2836492	H a	-0.27758592
-1.2574729	F a	-0.22736506
-1.06623	Y a	-0.22736506
-1.1229621	Q a	-0.3213988
-1.369603	<s> s	-2.228187
-1.5903264	I s	-0.25174993
-1.7644014	n s	-0.2989401
-1.788373	j s	-0.22736506
-1.4281737	o s	-0.7257579
-2.05059	g s	-0.22736506
-1.5686109	y s	-0.26447585
-1.3674946	e s	-0.8352141
-1.3265233	a s	-0.83325356
-1.7069956	s s	-0.25174993
-1.6936601	M s	-0.26447585
-1.9016674	z s	-0.22736506
-1.1281893	t s	-0.6835838
-1.3687544	i s	-0.9782524
-1.697462	A s	-0.22736506
-1.6317189	r s	-0.3598553
-1.5000569	k s	-0.27758592
-1.3294963	u s	-0.7114029
-1.7635912	l s	-0.28836653
-1.4699242	m s	-0.5596939
-2.044714	h s	-0.22736506
-1.7026213	b s	-0.22736506
-2.049192	w s	-0.22736506
-2.0224423	c s	-0.22736506
-1.9204426	p s	-0.22736506
-1.8161521	d s	-0.30505657
-1.6247823	C s	-0.22736506
-1.4579598	W s	-0.22736506
-1.0136857	T s	-0.46810907
-1.1108094	E s	-0.38647497
-1.4630023	O s	-0.30505657
-1.6134905	U s	-0.22736506
-2.6974802	<s> M	-0.8441421
-1.7331901	I M	-0.25679567
-1.7278606	o M	-0.54631054
-1.8390778	e M	-0.5584668
-1.8462347	a M	-0.47962615
-2.0115259	i M	-0.30089256
-1.7537676	A M	-0.22736506
-2.2992475	u M	-0.33417562
-2.2714894	m M	-0.22736506
-1.7425765	G M	-0.22736506
-1.7900695	E M	-0.22736506
-1.7289467	O M	-0.22736506
-1.3432714	V M	-0.22736506
-1.5945091	U M	-0.22736506
-1.6814401	F M	-0.22736506
-1.4271051	<s> z	-2.4587686
-1.7850391	I z	-0.22736506
-1.4452693	n z	-0.54208374
-1.6108065	o z	-0.72256655
-1.510601	e z	-0.909354
-1.3818246	a z	-0.91377306
-2.1594758	s z	-0.22736506
-1.2969015	M z	-0.54704136
-2.1924734	t z	-0.22736506
-1.4502954	i z	-0.90211654
-1.799579	A z	-0.22736506
-2.0673912	r z	-0.22736506
-1.3663243	u z	-0.78491396
-1.8631486	v z	-0.22736506
-2.2197871	l z	-0.22736506
-1.5623078	m z	-0.4912296
-2.0036373	b z	-0.22736506
-2.0152178	d z	-0.22736506
-1.472091	N z	-0.42671642
-1.7178818	E z	-0.22736506
-1.668966	O z	-0.22736506
-1.69316	U z	-0.22736506
-2.7505152	<s> t	-0.9791353
-1.7128894	I t	-0.22736506
-1.2020202	n t	-0.6195783
-1.3944395	o t	-0.7676901
-1.99229	y t	-0.22736506
-1.3709737	e t	-0.7173201
-1.3438848	a t	-0.85856426
-1.2378052	s t	-0.47041732
-1.2754713	M t	-0.57284445
-1.9221741	z t	-0.22736506
-1.5155938	t t	-0.28291747
-1.2988131	i t	-0.8593749
-1.7256577	A t	-0.22736506
-1.7403306	f t	-0.22736506
-1.5224108	r t	-0.2879641
-1.6347338	k t	-0.25174993
-1.2547977	u t	-0.7565066
-1.9552529	l t	-0.22736506
-1.47818	m t	-0.5384949
-1.9695219	h t	-0.22736506
-2.0707312	w t	-0.22736506
-1.2711835	c t	-0.3213988
-1.9432406	p t	-0.22736506
-1.8355104	d t	-0.22736506
-1.8915241	x t	-0.22736506
-1.1457056	N t	-0.41820943
-1.6455466	S t	-0.29591382
-1.6358953	U t	-0.22736506
-0.2922471	Ã t	-0.22736506
-1.0725949	<s> i	-1.8914746
-1.5687532	I i	-0.22736506
-1.147195	n i	-0.53636986
-0.9021095	j i	-0.4551164
-1.9133371	o i	-0.27758592
-1.1872292	g i	-0.41107246
-0.9746515	y i	-0.63479114
-1.6131946	e i	-0.2946233
-1.7251683	a i	-0.3281722
-0.9017049	s i	-0.6312189
-1.2247797	M i	-0.29583874
-0.7811364	z i	-0.6407294
-1.0206825	t i	-0.538535
-1.8793026	i i	-0.32619816
-0.8595883	f i	-0.560911
-0.88725334	r i	-0.45104018
-1.1321143	k i	-0.5699499
-1.8406594	u i	-0.25679567
-0.737782	v i	-0.41643828
-0.91268486	l i	-0.64930737
-1.2994559	m i	-0.5352153
-0.9249188	h i	-0.6070114
-1.102551	b i	-0.51953644
-0.7600492	w i	-0.4435258
-0.9236625	c i	-0.50078905
-1.1130542	L i	-0.29083806
-1.1751672	p i	-0.33189052
-0.9275411	d i	-0.58506674
-1.0352829	q i	-0.43834445
-0.9081042	x i	-0.46219575
-1.5111347	N i	-0.26447585
-1.3430684	C i	-0.22736506
-1.5100565	P i	-0.22736506
-1.3393742	B i	-0.26447585
-1.0240695	D i	-0.26801226
-0.79140073	Z i	-0.3301947
-1.4457867	T i	-0.22736506
-1.4040749	G i	-0.22736506
-1.2012	X i	-0.22736506
-1.1279467	S i	-0.31456974
-1.2182226	V i	-0.22736506
-1.2024915	R i	-0.28291747
-1.1248976	J i	-0.22736506
-1.4195724	H i	-0.22736506
-1.3521433	F i	-0.22736506
-1.0686034	Y i	-0.3072937
-0.9194902	Q i	-0.42671642
-2.057693	<s> A	-1.3007226
-1.7631735	I A	-0.22736506
-1.9650021	e A	-0.4138749
-1.6797694	M A	-0.37013268
-2.4066858	i A	-0.25174993
-1.7771443	A A	-0.22736506
-2.2556317	u A	-0.27758592
-2.13868	m A	-0.22736506
-1.9646584	w A	-0.22736506
-1.7581626	L A	-0.22736506
-1.8432539	N A	-0.22736506
-1.6870997	C A	-0.22736506
-1.4901956	P A	-0.22736506
-1.5224698	D A	-0.30505657
-0.8261252	W A	-0.3072937
-1.4724658	T A	-0.37013268
-1.5187767	G A	-0.22736506
-1.6992837	E A	-0.22736506
-1.5047973	O A	-0.22736506
-0.94250757	S A	-0.386859
-1.5555315	R A	-0.22736506
-1.62655	K A	-0.22736506
-1.3728957	H A	-0.22736506
-1.6100014	F A	-0.22736506
-3.0592346	<s> f	-0.80878717
-1.7850391	I f	-0.22736506
-2.0750296	n f	-0.26447585
-1.483296	o f	-0.62537813
-1.6369137	e f	-0.6469364
-1.5618112	a f	-0.85263336
-1.7799314	M f	-0.30505657
-1.6101825	i f	-0.7777604
-1.4131135	A f	-0.42671642
-1.6663305	f f	-0.26447585
-2.0673912	r f	-0.22736506
-2.0752594	k f	-0.22736506
-1.610041	u f	-0.5984447
-2.0943925	l f	-0.22736506
-1.4980768	m f	-0.61547804
-2.2451122	h f	-0.22736506
-2.1255784	w f	-0.22736506
-2.0016096	p f	-0.22736506
-2.0152178	d f	-0.22736506
-1.9429111	x f	-0.22736506
-1.668966	O f	-0.22736506
-1.69316	U f	-0.22736506
-3.3052936	<s> r	-0.76085305
-1.7128894	I r	-0.22736506
-1.327785	o r	-0.4650154
-1.3863922	g r	-0.38095894
-1.4039843	e r	-0.67416316
-1.408468	a r	-0.5003245
-1.8073026	M r	-0.22736506
-1.308556	t r	-0.37690827
-1.5232399	i r	-0.58599037
-1.7256577	A r	-0.22736506
-1.1886468	f r	-0.38647497
-1.8954002	r r	-0.22736506
-1.411021	k r	-0.3798446
-1.3792446	u r	-0.40397173
-1.8017577	m r	-0.3429214
-1.9695219	h r	-0.29307005
-1.9470856	b r	-0.22736506
-1.6515582	c r	-0.26447585
-1.1301093	p r	-0.46810907
-1.5587115	d r	-0.26447585
-1.9813292	q r	-0.22736506
-1.4664443	P r	-0.25679567
-1.5097151	B r	-0.26447585
-1.4736857	W r	-0.22736506
-1.5434017	T r	-0.30505657
-1.491137	G r	-0.22736506
-1.616273	O r	-0.22736506
-1.6358953	U r	-0.22736506
-1.5748659	F r	-0.22736506
-0.9055903	<s> k	-2.7835991
-1.7739686	I k	-0.22736506
-1.385285	n k	-0.6256804
-1.366466	o k	-0.7755821
-2.0432665	y k	-0.22736506
-1.3780166	e k	-0.85845184
-1.2924632	a k	-1.0261813
-1.4263762	s k	-0.27557218
-1.7704911	M k	-0.30505657
-2.1823325	t k	-0.22736506
-1.3787639	i k	-0.955185
-1.6779171	A k	-0.22736506
-1.8543098	r k	-0.3213988
-2.0647488	k k	-0.22736506
-1.2806009	u k	-0.80020946
-2.0866303	l k	-0.22736506
-1.6337223	m k	-0.44024
-1.5366107	c k	-0.38647497
-1.2395346	N k	-0.44042325
-1.7084832	E k	-0.22736506
-1.5103163	O k	-0.22736506
-1.8992583	S k	-0.22736506
-1.6845024	U k	-0.22736506
-1.0207298	<s> u	-2.0003595
-1.5222552	n u	-0.38647497
-1.0553966	j u	-0.30692005
-1.6549857	o u	-0.3645685
-1.1441618	g u	-0.4938505
-1.0616059	y u	-0.38043442
-2.061643	e u	-0.22736506
-2.029408	a u	-0.25679567
-1.2655023	s u	-0.5294335
-1.6618328	M u	-0.22736506
-0.9946923	z u	-0.48469356
-1.0820994	t u	-0.40403128
-2.2004602	i u	-0.22736506
-1.5857465	A u	-0.22736506
-0.9063662	f u	-0.49823597
-1.4706899	r u	-0.25679567
-0.9795765	k u	-0.6578083
-2.0148542	u u	-0.27758592
-0.8992795	v u	-0.5988207
-1.0289464	l u	-0.6079004
-1.4333456	m u	-0.5015347
-0.9253784	h u	-0.76484895
-0.8698259	b u	-0.60048527
-1.285023	w u	-0.3893075
-1.0970253	c u	-0.4404541
-0.8714586	L u	-0.38333812
-1.4731841	p u	-0.2540362
-1.050177	d u	-0.41082978
-0.82141936	q u	-0.51730406
-1.2682823	x u	-0.2813111
-1.5151979	P u	-0.22736506
-1.0202633	B u	-0.27663714
-1.4041065	D u	-0.22736506
-1.3405812	Z u	-0.30505657
-1.4506708	T u	-0.22736506
-1.0156695	G u	-0.3267247
-1.5099171	O u	-0.22736506
-1.2043628	X u	-0.22736506
-1.4055938	S u	-0.25679567
-1.059509	V u	-0.22736506
-1.0966053	K u	-0.24443467
-1.1273328	J u	-0.22736506
-1.4241935	H u	-0.22736506
-0.8456287	F u	-0.4141652
-0.86153436	Y u	-0.3298064
-0.7814824	Q u	-0.42210266
-3.2730596	<s> v	-0.64766276
-1.8581356	I v	-0.22736506
-2.0399325	n v	-0.27758592
-1.5656816	o v	-0.7056547
-1.7150704	e v	-0.6629027
-1.6542863	a v	-0.7938731
-1.7450649	M v	-0.27758592
-2.0242836	z v	-0.22736506
-1.4782431	i v	-0.80878717
-2.141337	r v	-0.22736506
-1.8413897	u v	-0.5758173
-1.4577522	m v	-0.6290628
-2.306916	h v	-0.22736506
-1.931078	d v	-0.30505657
-1.7789929	E v	-0.22736506
-1.7490774	U v	-0.22736506
-1.2896906	<s> l	-2.4465106
-1.6428772	I l	-0.22736506
-1.8861436	n l	-0.27758592
-1.7598497	j l	-0.22736506
-1.224749	o l	-1.0106395
-1.833765	g l	-0.22736506
-1.8225932	y l	-0.22736506
-1.2403775	e l	-0.9496159
-1.2096783	a l	-0.9916902
-2.0238178	s l	-0.22736506
-1.5909828	M l	-0.22736506
-1.7439442	z l	-0.30505657
-1.4986557	t l	-0.32862663
-1.2783349	i l	-0.96353704
-1.5705582	A l	-0.25679567
-1.7002255	f l	-0.22736506
-1.8383108	r l	-0.22736506
-1.6049168	k l	-0.38647497
-1.180111	u l	-0.94557166
-1.3891528	l l	-0.4392789
-1.5144615	m l	-0.56286573
-1.1514639	h l	-0.71466386
-1.2634002	b l	-0.36613503
-1.6250432	c l	-0.22736506
-1.1886846	p l	-0.33704352
-1.0600234	d l	-0.62091315
-1.5899355	C l	-0.22736506
-1.5644335	P l	-0.22736506
-1.6062202	B l	-0.22736506
-1.5626493	D l	-0.22736506
-1.6062889	T l	-0.22736506
-1.5946333	E l	-0.22736506
-1.1479584	O l	-0.38647497
-1.5785407	U l	-0.22736506
-1.3134143	K l	-0.22736506
-0.66741306	H l	-0.5090411
-1.3945705	F l	-0.30505657
-1.8774849	<s> m	-1.3540288
-1.7631735	I m	-0.22736506
-1.9747741	n m	-0.26447585
-1.274495	o m	-0.81719047
-1.4280704	e m	-0.7080641
-1.2785581	a m	-0.83577573
-1.7380403	s m	-0.22736506
-1.6797694	M m	-0.3072937
-1.9586624	z m	-0.22736506
-2.0497985	t m	-0.30505657
-1.4290618	i m	-0.69062597
-1.7771443	A m	-0.22736506
-1.9143898	f m	-0.22736506
-1.9353114	r m	-0.22736506
-1.1485355	u m	-0.6195955
-1.6297656	m m	-0.34558147
-2.1091886	w m	-0.22736506
-2.0919428	c m	-0.22736506
-1.984117	p m	-0.22736506
-1.9275984	x m	-0.22736506
-1.6992837	E m	-0.22736506
-1.6532474	O m	-0.22736506
-1.889136	S m	-0.22736506
-1.6760141	U m	-0.22736506
-2.7814105	<s> h	-0.9443732
-1.8800199	n h	-0.3298064
-1.5285529	o h	-0.629513
-1.3049034	g h	-0.5292974
-1.5508469	y h	-0.29772702
-1.6038387	e h	-0.60797894
-1.5156925	a h	-0.7711198
-1.1410866	s h	-0.7224917
-1.442353	M h	-0.4950714
-1.8633485	z h	-0.22736506
-1.0269448	t h	-0.69921285
-1.6071354	i h	-0.6652487
-1.1623616	r h	-0.6612475
-1.0577831	k h	-0.7014654
-1.6512606	u h	-0.58692104
-1.7734665	v h	-0.22736506
-1.9842952	l h	-0.30505657
-1.453869	m h	-0.50589764
-1.0014515	b h	-0.70006055
-2.0090756	w h	-0.22736506
-0.9593011	c h	-0.66354656
-0.9628842	p h	-0.74077684
-1.8792244	d h	-0.22736506
-1.102332	q h	-0.632696
-1.0966028	x h	-0.5673976
-1.7141929	N h	-0.22736506
-1.0641724	C h	-0.43707946
-0.8840461	P h	-0.4950714
-0.8453498	B h	-0.52901816
-1.2784466	W h	-0.22736506
-1.0030426	T h	-0.44749773
-1.5647355	G h	-0.22736506
-1.0543292	X h	-0.27758592
-1.3138095	S h	-0.30665335
-0.7796278	R h	-0.44633752
-1.5718759	U h	-0.22736506
-0.7955686	K h	-0.52140033
-1.148424	Q h	-0.26447585
-1.4762876	<s> b	-2.2979193
-1.8323786	I b	-0.22736506
-1.4465284	o b	-0.91584307
-2.1861129	g b	-0.22736506
-1.4747084	e b	-0.7844152
-1.3695709	a b	-0.9450016
-1.966101	s b	-0.22736506
-1.4098545	M b	-0.40332368
-1.4556342	i b	-0.9203022
-1.8482566	A b	-0.22736506
-2.1152642	r b	-0.22736506
-1.372415	u b	-0.79329026
-2.1269076	l b	-0.30505657
-1.5098695	m b	-0.63696915
-2.0388613	p b	-0.22736506
-1.9149358	d b	-0.22736506
-1.7022204	O b	-0.22736506
-1.7296273	U b	-0.22736506
-1.5051538	<s> w	-2.2834013
-1.5526422	n w	-0.6333741
-1.3137543	j w	-0.33176184
-1.5334327	o w	-0.655766
-1.4540017	g w	-0.44983688
-1.5596381	y w	-0.4046247
-1.7015269	e w	-0.57321686
-1.4769343	a w	-0.92207503
-1.2806703	s w	-0.6539569
-1.133903	z w	-0.5919814
-1.5984908	t w	-0.42671642
-1.5139256	i w	-0.8183325
-1.8357148	f w	-0.22736506
-1.7781416	r w	-0.26447585
-1.1017598	k w	-0.73040944
-1.6164997	u w	-0.49882063
-1.1980169	l w	-0.7904074
-1.9527857	m w	-0.22736506
-1.278537	h w	-0.69597286
-1.9038603	b w	-0.22736506
-1.8093747	w w	-0.24818143
-1.1076394	c w	-0.7568072
-1.0345021	L w	-0.45728287
-1.8987818	p w	-0.22736506
-1.2380594	d w	-0.64766276
-0.94375634	q w	-0.7051094
-0.9697224	x w	-0.67116266
-1.4846226	C w	-0.22736506
-1.3668809	D w	-0.27758592
-1.3794034	Z w	-0.30505657
-1.6205782	T w	-0.22736506
-1.2407645	X w	-0.22736506
-1.6928126	S w	-0.30505657
-1.3207933	K w	-0.33176184
-1.4245735	Q w	-0.22736506
-2.903433	<s> c	-0.8683184
-1.7323102	I c	-0.22736506
-1.4342375	n c	-0.64766276
-1.5467205	o c	-0.50358844
-1.1642156	g c	-0.6052508
-1.5725484	e c	-0.56624734
-1.486866	a c	-0.6730537
-2.1093988	s c	-0.22736506
-2.028184	t c	-0.30505657
-1.443713	i c	-0.6687813
-1.6444429	A c	-0.25679567
-1.8914815	f c	-0.22736506
-1.8274086	r c	-0.25679567
-1.913718	k c	-0.26447585
-1.5241456	u c	-0.52478427
-2.056899	l c	-0.22736506
-1.4837724	m c	-0.4625164
-1.962506	b c	-0.22736506
-1.947697	w c	-0.22736506
-1.6584479	c c	-0.22736506
-1.9679784	d c	-0.22736506
-1.9055963	x c	-0.22736506
-1.2289703	N c	-0.33349815
-1.5019828	G c	-0.27758592
-1.6727996	E c	-0.22736506
-1.6306872	O c	-0.22736506
-1.344103	S c	-0.38647497
-2.6690302	<s> L	-1.0787456
-1.8716105	I L	-0.22736506
-1.7685153	o L	-0.6461125
-1.8884858	e L	-0.47087038
-2.192218	a L	-0.3429214
-1.9797171	M L	-0.22736506
-2.0115259	i L	-0.3298064
-1.6507305	A L	-0.22736506
-2.1348941	u L	-0.28429237
-2.2714894	m L	-0.22736506
-1.8389232	L L	-0.22736506
-1.1526806	E L	-0.3072937
-1.5571905	O L	-0.22736506
-1.2501719	U L	-0.25679567
-1.2809521	H L	-0.27758592
-2.2151136	<s> p	-1.6525043
-1.7850391	I p	-0.22736506
-1.529909	o p	-0.64724195
-2.0523763	y p	-0.22736506
-1.556816	e p	-0.63674873
-1.3985134	a p	-0.65322524
-1.9397151	s p	-0.26447585
-1.2969015	M p	-0.3172552
-2.1924734	t p	-0.22736506
-1.5117735	i p	-0.6156991
-1.5969949	A p	-0.25679567
-1.8613038	r p	-0.27758592
-2.0752594	k p	-0.22736506
-1.5351572	u p	-0.66155463
-2.2197871	l p	-0.22736506
-1.4980768	m p	-0.61459583
-1.7511898	p p	-0.30505657
-1.9429111	x p	-0.22736506
-1.5815226	E p	-0.22736506
-1.668966	O p	-0.22736506
-1.7846344	S p	-0.22736506
-1.69316	U p	-0.22736506
-3.0347958	<s> d	-0.72841454
-1.8450662	I d	-0.22736506
-1.2176124	n d	-0.6246733
-1.5380988	o d	-0.71466386
-2.197625	g d	-0.22736506
-1.4761894	e d	-0.6363204
-1.458656	a d	-0.7634522
-1.9504868	M d	-0.22736506
-1.4569793	i d	-0.7050766
-1.6346872	A d	-0.22736506
-1.9981729	r d	-0.24818143
-1.4810421	u d	-0.6085483
-1.8222245	l d	-0.26447585
-1.658251	m d	-0.47491702
-2.0682297	d d	-0.22736506
-1.3593864	N d	-0.3901807
-1.7681917	E d	-0.22736506
-3.2107465	<s> q	-0.56728834
-1.8200513	I q	-0.22736506
-1.4520254	n q	-0.5620182
-1.6478473	o q	-0.57103413
-1.2203528	g q	-0.6946438
-1.7433585	e q	-0.6331476
-1.648782	a q	-0.7533494
-2.192551	s q	-0.22736506
-1.7194151	M q	-0.3429214
-1.7092605	i q	-0.7611084
-1.8355662	A q	-0.22736506
-1.8756346	k q	-0.27758592
-1.5783154	u q	-0.5998775
-1.7441361	m q	-0.44199255
-2.1418052	c q	-0.22736506
-1.9669428	x q	-0.22736506
-1.4860128	N q	-0.26447585
-1.2123995	G q	-0.25679567
-1.7202194	U q	-0.22736506
-2.512019	<s> x	-1.2831682
-1.8581356	I x	-0.22736506
-1.3466046	n x	-0.67778414
-1.6542814	o x	-0.62001014
-1.339069	g x	-0.6413177
-1.7516712	e x	-0.5554275
-1.5969269	a x	-0.7890432
-2.2283545	s x	-0.22736506
-1.6826297	i x	-0.7237764
-2.0029671	k x	-0.26447585
-1.9172595	u x	-0.41428664
-1.6624773	m x	-0.3874812
-1.7026932	N x	-0.26447585
-1.7331246	G x	-0.22736506
-1.6253018	E x	-0.27758592
-1.7490774	U x	-0.22736506
-2.1589253	<s> N	-1.3053732
-1.4270779	I N	-0.2434686
-1.8165005	o N	-0.3261832
-1.8425127	e N	-0.60655576
-2.1986372	a N	-0.26019233
-1.8443608	i N	-0.5218905
-1.7642529	A N	-0.22736506
-2.0227466	u N	-0.2682541
-1.8998322	m N	-0.3429214
-1.7801564	C N	-0.22736506
-1.7671554	B N	-0.22736506
-1.6409339	E N	-0.22736506
-1.2533367	U N	-0.3072937
-1.6901548	F N	-0.22736506
-2.8458443	<s> C	-0.78961414
-1.8581356	I C	-0.22736506
-2.5866356	o C	-0.22736506
-2.003211	e C	-0.41946903
-2.6418142	a C	-0.22736506
-2.0816374	i C	-0.29591382
-1.874807	A C	-0.22736506
-2.3612392	u C	-0.27004606
-1.5980762	C C	-0.22736506
-1.7071646	P C	-0.22736506
-1.7353091	D C	-0.22736506
-1.5670207	G C	-0.27758592
-1.719854	O C	-0.22736506
-1.6113642	R C	-0.22736506
-1.6913384	K C	-0.22736506
-1.6728969	F C	-0.22736506
-2.9298384	<s> P	-0.79181814
-1.6128018	I P	-0.22736506
-2.050612	o P	-0.67116266
-1.998247	e P	-0.52901816
-2.179658	a P	-0.45342174
-1.9504868	M P	-0.22736506
-2.0019717	i P	-0.40360042
-1.8613288	A P	-0.22736506
-2.3465462	u P	-0.30505657
-2.2382696	m P	-0.22736506
-1.7500881	C P	-0.22736506
-1.4526175	D P	-0.37013268
-1.5429895	W P	-0.22736506
-1.617692	E P	-0.22736506
-1.9655108	S P	-0.22736506
-1.6039798	R P	-0.22736506
-1.5854869	H P	-0.22736506
-2.8721504	<s> B	-0.8602275
-1.9147415	I B	-0.22736506
-1.8740228	o B	-0.5839991
-1.8494649	e B	-0.49957675
-2.113179	a B	-0.49749005
-2.104957	i B	-0.38647497
-1.7860148	A B	-0.30505657
-2.3399677	u B	-0.27004606
-1.869565	L B	-0.22736506
-1.8463145	N B	-0.30505657
-1.6614634	T B	-0.30505657
-2.029669	S B	-0.22736506
-3.0854871	<s> D	-0.68988883
-1.7432567	I D	-0.22736506
-2.5286562	o D	-0.27758592
-2.08935	e D	-0.29591382
-2.5774963	a D	-0.22736506
-1.9951048	M D	-0.22736506
-2.305429	i D	-0.3072937
-1.65898	A D	-0.26447585
-2.1438603	u D	-0.22736506
-1.825214	N D	-0.22736506
-1.6119429	C D	-0.22736506
-1.7522388	G D	-0.22736506
-1.6409339	E D	-0.22736506
-1.6265208	R D	-0.22736506
-3.5902562	<s> W	-0.4196659
-2.474505	e W	-0.27758592
-2.6992784	a W	-0.22736506
-1.9179487	A W	-0.22736506
-2.1834269	k W	-0.22736506
-2.3074622	m W	-0.22736506
-1.5617477	L W	-0.27758592
-1.9810605	N W	-0.22736506
-1.7320015	P W	-0.22736506
-1.5964614	D W	-0.22736506
-1.662341	Z W	-0.22736506
-2.0160568	S W	-0.22736506
-1.5385605	K W	-0.22736506
-3.029332	<s> Z	-0.98114747
-1.6522492	I Z	-0.22736506
-2.5622835	o Z	-0.22736506
-1.9001414	e Z	-0.56703305
-2.6095977	a Z	-0.26447585
-2.2011375	i Z	-0.30665335
-1.7860148	A Z	-0.22736506
-2.425552	u Z	-0.27758592
-2.3266313	m Z	-0.22736506
-1.9960601	N Z	-0.22736506
-1.8251027	E Z	-0.22736506
-1.7908037	U Z	-0.22736506
-2.9519062	<s> T	-0.60530835
-1.6128018	I T	-0.22736506
-2.482644	o T	-0.22736506
-1.998247	e T	-0.3391197
-2.5333972	a T	-0.22736506
-2.1652884	i T	-0.29591382
-1.8613288	A T	-0.22736506
-2.1174986	u T	-0.30665335
-2.0522985	m T	-0.37013268
-1.8196341	L T	-0.22736506
-1.9257613	N T	-0.22736506
-1.7253284	D T	-0.22736506
-1.5429895	W T	-0.22736506
-1.5058906	E T	-0.26447585
-1.7201171	S T	-0.22736506
-1.6039798	R T	-0.22736506
-1.5854869	H T	-0.22736506
-3.1795313	<s> G	-0.50496846
-1.6605875	I G	-0.22736506
-2.4919388	o G	-0.26447585
-2.2047794	e G	-0.29591382
-2.6265843	a G	-0.22736506
-2.0312886	i G	-0.32474232
-1.9492912	A G	-0.22736506
-2.1719263	u G	-0.29307005
-1.880279	L G	-0.22736506
-1.7433736	N G	-0.26447585
-1.8018932	U G	-0.22736506
-2.7535477	<s> E	-0.7611853
-2.5028198	o E	-0.22736506
-2.560265	a E	-0.22736506
-2.444259	i E	-0.27758592
-2.3679428	u E	-0.22736506
-1.6334695	L E	-0.22736506
-1.7585211	N E	-0.30505657
-1.7129847	C E	-0.22736506
-1.6875527	D E	-0.22736506
-1.3405746	W E	-0.22736506
-1.6090847	Z E	-0.22736506
-1.7364318	T E	-0.22736506
-1.5362462	G E	-0.30505657
-1.5885195	E E	-0.22736506
-1.2919974	X E	-0.22736506
-1.6938117	S E	-0.25174993
-1.3169166	V E	-0.22736506
-1.5756371	R E	-0.22736506
-1.649728	K E	-0.22736506
-1.6325334	F E	-0.22736506
-1.1353585	Y E	-0.25174993
-2.6168985	<s> O	-0.9568856
-2.5866356	o O	-0.22736506
-2.5859814	e O	-0.22736506
-2.6418142	a O	-0.22736506
-1.8413371	M O	-0.22736506
-2.3612392	u O	-0.22736506
-1.1747015	L O	-0.3213988
-1.7598814	C O	-0.22736506
-1.7353091	D O	-0.22736506
-1.7866466	T O	-0.22736506
-1.5670207	G O	-0.22736506
-1.8345934	S O	-0.22736506
-1.5205098	K O	-0.22736506
-1.592275	H O	-0.22736506
-1.2819201	Y O	-0.22736506
-1.5306299	Q O	-0.22736506
-3.0232277	<s> X	-1.2137272
-1.9798472	I X	-0.22736506
-2.539002	o X	-0.37013268
-2.6514082	e X	-0.30505657
-2.816061	a X	-0.22736506
-2.7860832	i X	-0.22736506
-2.630987	u X	-0.22736506
-1.8152148	G X	-0.22736506
-2.2788298	<s> S	-1.2192333
-1.252391	I S	-0.2996739
-1.9452263	o S	-0.28774065
-1.8552862	e S	-0.5786522
-2.1383543	a S	-0.30629802
-1.7612517	M S	-0.22736506
-2.1724231	t S	-0.22736506
-1.9110537	i S	-0.34801394
-1.6693037	A S	-0.22736506
-2.0452983	r S	-0.22736506
-2.2556317	u S	-0.26447585
-2.13868	m S	-0.22736506
-1.9957012	d S	-0.22736506
-1.8432539	N S	-0.22736506
-1.4901956	P S	-0.22736506
-1.6897787	B S	-0.22736506
-1.6612321	D S	-0.22736506
-1.4724658	T S	-0.27758592
-1.6641119	G S	-0.22736506
-1.1300118	E S	-0.28836653
-1.3941233	O S	-0.27758592
-1.889136	S S	-0.22736506
-1.5555315	R S	-0.22736506
-1.5359342	U S	-0.26447585
-3.7696047	<s> V	-0.29772702
-1.8211284	I V	-0.30505657
-2.8437219	a V	-0.22736506
-2.6821191	i V	-0.22736506
-2.659729	u V	-0.22736506
-2.4376867	m V	-0.22736506
-1.6841674	R V	-0.22736506
-3.0024102	<s> R	-0.75838184
-1.8998835	I R	-0.22736506
-2.1683493	o R	-0.5919814
-2.0954807	e R	-0.43707946
-2.6992784	a R	-0.22736506
-2.5640066	i R	-0.27758592
-1.7749975	A R	-0.22736506
-2.1530156	u R	-0.38647497
-1.6856396	L R	-0.30505657
-1.7667058	D R	-0.22736506
-1.648966	E R	-0.22736506
-1.747724	O R	-0.22736506
-1.7799903	U R	-0.22736506
-2.0172343	<s> U	-1.2202586
-2.6700232	e U	-0.22736506
-1.8876984	M U	-0.22736506
-2.6840906	i U	-0.22736506
-1.7860148	A U	-0.30505657
-1.6926247	L U	-0.22736506
-1.8014243	C U	-0.22736506
-1.5754836	W U	-0.22736506
-1.8314682	T U	-0.22736506
-1.544748	K U	-0.22736506
-1.4254954	H U	-0.22736506
-1.5233237	F U	-0.30505657
-2.2568944	<s> K	-1.4290817
-1.9147415	I K	-0.22736506
-1.8740228	o K	-0.5432475
-2.023655	e K	-0.44633752
-2.2117672	a K	-0.45342174
-2.104957	i K	-0.5429274
-2.3399677	u K	-0.3298064
-2.3266313	m K	-0.22736506
-1.8463145	N K	-0.22736506
-1.536073	E K	-0.27758592
-1.7574263	O K	-0.22736506
-1.6159317	U K	-0.22736506
-3.2871246	<s> J	-0.7368151
-2.8609881	o J	-0.22736506
-2.7237353	e J	-0.30505657
-2.9049654	a J	-0.22736506
-2.8821993	i J	-0.22736506
-3.3603022	<s> H	-0.54178303
-2.1476767	o H	-0.5919814
-2.003211	e H	-0.5114137
-2.6418142	a H	-0.22736506
-2.4429562	i H	-0.37013268
-1.874807	A H	-0.22736506
-2.2864807	u H	-0.3298064
-1.7071646	P H	-0.22736506
-1.7505378	B H	-0.22736506
-1.7331246	G H	-0.22736506
-1.5510471	O H	-0.30505657
-1.3118654	X H	-0.22736506
-1.9776065	S H	-0.22736506
-1.5875968	U H	-0.27758592
-1.6913384	K H	-0.22736506
-1.4728503	Y H	-0.22736506
-3.0572674	<s> F	-0.6567075
-1.6522492	I F	-0.22736506
-2.5622835	o F	-0.22736506
-2.3190305	e F	-0.22736506
-2.7202568	a F	-0.22736506
-1.8876984	M F	-0.30505657
-2.324863	i F	-0.2929085
-1.4631722	A F	-0.25679567
-2.425552	u F	-0.30505657
-2.3266313	m F	-0.22736506
-1.7776968	D F	-0.22736506
-1.6422255	R F	-0.22736506
-3.132237	<s> Y	-0.7466393
-2.1900554	o Y	-0.42671642
-2.6091187	e Y	-0.22736506
-2.7655225	a Y	-0.22736506
-2.7320995	i Y	-0.22736506
-1.9658537	A Y	-0.22736506
-2.5786483	u Y	-0.22736506
-2.3677115	m Y	-0.22736506
-1.677725	T Y	-0.22736506
-1.8501335	E Y	-0.22736506
-3.6387374	<s> Q	-0.5754987
-1.9798472	I Q	-0.22736506
-2.3407583	o Q	-0.29307005
-2.362455	e Q	-0.33176184
-2.816061	a Q	-0.22736506
-2.3665519	i Q	-0.3172552
-2.001003	A Q	-0.22736506
-2.4009798	u Q	-0.27758592
-1.9269145	C Ã	-0.22736506
-4.897604	<s> Â	-0.22736506
-1.9684422	j é	-0.22736506
-2.0264666	y é	-0.30505657
-2.3578339	s é	-0.22736506
-2.4376867	m é	-0.22736506
-2.420086	h é	-0.22736506
-2.157309	b é	-0.22736506
-2.2733755	w é	-0.22736506

\3-grams:
-1.2853068	<s> I </s>	0
-0.51807964	I I </s>	0
-0.58608913	M I </s>	0
-0.33427727	N I </s>	0
-0.8027981	C I </s>	0
-0.2587785	D I </s>	0
-0.8027981	S I </s>	0
-1.1199125	n n </s>	0
-1.2850341	o n </s>	0
-1.394268	e n </s>	0
-1.1732063	a n </s>	0
-0.3559933	z n </s>	0
-1.2958624	i n </s>	0
-0.8608676	r n </s>	0
-1.8073608	u n </s>	0
-0.3559933	v n </s>	0
-0.77250814	h n </s>	0
-0.3559933	w n </s>	0
-1.13821	n j </s>	0
-1.0582105	o j </s>	0
-0.317257	y j </s>	0
-0.317257	s j </s>	0
-0.317257	z j </s>	0
-0.317257	h j </s>	0
-0.317257	b j </s>	0
-0.24674794	d j </s>	0
-1.2054965	n o </s>	0
-0.93436813	o o </s>	0
-1.1700119	g o </s>	0
-1.1516467	y o </s>	0
-0.79089296	e o </s>	0
-1.1103764	s o </s>	0
-1.273273	z o </s>	0
-0.854751	t o </s>	0
-1.2808058	i o </s>	0
-1.0010632	f o </s>	0
-0.86510676	r o </s>	0
-1.0778122	k o </s>	0
-0.8879478	v o </s>	0
-1.0032936	l o </s>	0
-0.86464125	m o </s>	0
-1.038058	h o </s>	0
-0.9701918	b o </s>	0
-0.996759	w o </s>	0
-1.0601429	c o </s>	0
-1.2198095	L o </s>	0
-1.1947961	p o </s>	0
-1.0700395	d o </s>	0
-0.89637685	q o </s>	0
-0.8769637	x o </s>	0
-1.0746108	N o </s>	0
-1.6260706	<s> g </s>	0
-1.1911896	n g </s>	0
-1.1915212	g g </s>	0
-0.33496025	y g </s>	0
-1.1463132	e g </s>	0
-1.6685326	a g </s>	0
-0.8957017	s g </s>	0
-1.59867	i g </s>	0
-0.40920207	r g </s>	0
-0.33496025	l g </s>	0
-0.5873095	h g </s>	0
-0.33496025	b g </s>	0
-0.5873095	w g </s>	0
-0.5873095	c g </s>	0
-3.12444	<s> y </s>	0
-1.0384227	n y </s>	0
-0.29746783	y y </s>	0
-1.3085456	e y </s>	0
-1.2454474	a y </s>	0
-0.29746783	z y </s>	0
-0.9587228	t y </s>	0
-1.4650631	i y </s>	0
-0.29746783	f y </s>	0
-0.19175714	r y </s>	0
-0.19175714	k y </s>	0
-1.0499653	u y </s>	0
-0.288108	l y </s>	0
-0.2954877	h y </s>	0
-0.29746783	b y </s>	0
-0.23258802	c y </s>	0
-0.6679829	d y </s>	0
-0.29746783	q y </s>	0
-2.3703084	<s> e </s>	0
-1.058204	n e </s>	0
-1.0740994	j e </s>	0
-0.44085863	o e </s>	0
-1.1036009	g e </s>	0
-1.0625167	y e </s>	0
-0.94676113	e e </s>	0
-0.78254145	a e </s>	0
-1.151405	s e </s>	0
-1.0465525	z e </s>	0
-0.81226975	t e </s>	0
-1.0017462	i e </s>	0
-0.80103886	f e </s>	0
-0.91733176	r e </s>	0
-0.8034562	k e </s>	0
-0.5060862	u e </s>	0
-0.9534331	v e </s>	0
-0.9887872	l e </s>	0
-0.9165392	m e </s>	0
-1.0169101	h e </s>	0
-1.1332268	b e </s>	0
-0.8956091	w e </s>	0
-0.8249921	c e </s>	0
-0.8906242	L e </s>	0
-0.8823229	p e </s>	0
-0.7800194	d e </s>	0
-1.586604	q e </s>	0
-1.1134306	x e </s>	0
-1.1345516	D e </s>	0
-0.8906242	K e </s>	0
-3.042826	<s> a </s>	0
-1.0125656	n a </s>	0
-1.0805485	j a </s>	0
-1.07996	g a </s>	0
-1.0796632	y a </s>	0
-0.420534	a a </s>	0
-1.0861325	s a </s>	0
-1.0815803	z a </s>	0
-1.0386909	t a </s>	0
-0.48940524	i a </s>	0
-0.81879574	f a </s>	0
-0.95917624	r a </s>	0
-1.1795355	k a </s>	0
-0.6457388	u a </s>	0
-0.8392897	v a </s>	0
-1.0153728	l a </s>	0
-1.2756345	m a </s>	0
-0.99837023	h a </s>	0
-1.2135183	b a </s>	0
-0.9864429	w a </s>	0
-1.0068274	c a </s>	0
-1.2495809	L a </s>	0
-1.382441	p a </s>	0
-0.9357305	d a </s>	0
-0.954251	q a </s>	0
-0.7395307	x a </s>	0
-0.36300507	X a </s>	0
-0.68549085	n s </s>	0
-1.3043581	o s </s>	0
-0.317167	g s </s>	0
-0.76953423	y s </s>	0
-0.8487003	e s </s>	0
-1.2012177	a s </s>	0
-0.8599082	s s </s>	0
-0.9055423	t s </s>	0
-1.2529186	i s </s>	0
-0.75428295	A s </s>	0
-0.3532555	r s </s>	0
-0.63024116	k s </s>	0
-1.4161643	u s </s>	0
-0.574607	l s </s>	0
-1.0368235	m s </s>	0
-0.317167	c s </s>	0
-0.24668398	d s </s>	0
-0.317167	C s </s>	0
-0.317167	W s </s>	0
-0.24668398	O s </s>	0
-1.8750428	<s> M </s>	0
-0.37407827	G M </s>	0
-1.4770267	n z </s>	0
-1.6169952	e z </s>	0
-1.5410321	a z </s>	0
-0.34452194	r z </s>	0
-0.34452194	l z </s>	0
-1.1532617	m z </s>	0
-0.34452194	b z </s>	0
-1.0915488	n t </s>	0
-1.516162	o t </s>	0
-1.4963449	e t </s>	0
-1.2386819	a t </s>	0
-0.9103965	s t </s>	0
-0.3335096	z t </s>	0
-0.96717733	t t </s>	0
-1.5271764	i t </s>	0
-0.58471924	f t </s>	0
-0.9167111	r t </s>	0
-0.91632867	k t </s>	0
-1.6355152	u t </s>	0
-0.8005441	l t </s>	0
-0.71612173	h t </s>	0
-0.88766205	c t </s>	0
-0.58471924	x t </s>	0
-1.5589731	<s> i </s>	0
-1.2496526	I i </s>	0
-1.0759194	n i </s>	0
-0.9034163	j i </s>	0
-1.2515556	g i </s>	0
-1.2343602	y i </s>	0
-0.83513325	e i </s>	0
-1.3418535	a i </s>	0
-1.1421586	s i </s>	0
-1.4033258	M i </s>	0
-1.171769	z i </s>	0
-0.8126891	t i </s>	0
-1.1188982	i i </s>	0
-1.0746897	f i </s>	0
-0.9522074	r i </s>	0
-0.75384057	k i </s>	0
-1.4858094	v i </s>	0
-1.118882	l i </s>	0
-1.0901386	m i </s>	0
-1.0673821	h i </s>	0
-0.95536804	b i </s>	0
-1.0766692	w i </s>	0
-1.154912	c i </s>	0
-1.1978638	p i </s>	0
-1.0266123	d i </s>	0
-1.3251768	q i </s>	0
-0.9726159	x i </s>	0
-1.0855006	R i </s>	0
-1.6278342	<s> A </s>	0
-0.31530753	I A </s>	0
-0.24536121	D A </s>	0
-0.3897994	W A </s>	0
-0.20173411	T A </s>	0
-0.55277497	G A </s>	0
-0.55277497	O A </s>	0
-0.506814	S A </s>	0
-0.55277497	R A </s>	0
-0.31530753	F A </s>	0
-1.7600923	o f </s>	0
-1.636979	u f </s>	0
-0.6581972	l f </s>	0
-1.3317908	o r </s>	0
-0.8130288	e r </s>	0
-1.5035787	a r </s>	0
-1.3181906	i r </s>	0
-0.8399982	u r </s>	0
-0.3645453	q r </s>	0
-1.4778985	n k </s>	0
-1.6454287	o k </s>	0
-1.6208396	e k </s>	0
-0.60215974	s k </s>	0
-0.49737448	r k </s>	0
-1.6491576	u k </s>	0
-0.6148586	l k </s>	0
-1.3437934	m k </s>	0
-0.31835485	c k </s>	0
-2.5656824	<s> u </s>	0
-0.60430425	n u </s>	0
-0.95658433	j u </s>	0
-1.3517826	g u </s>	0
-1.0015247	e u </s>	0
-0.95406353	a u </s>	0
-0.92381877	s u </s>	0
-1.2372574	z u </s>	0
-0.6931833	t u </s>	0
-0.96758866	f u </s>	0
-1.4130656	k u </s>	0
-0.43810436	u u </s>	0
-1.0703913	v u </s>	0
-1.1036065	l u </s>	0
-0.53919613	m u </s>	0
-0.9915088	h u </s>	0
-1.3806844	b u </s>	0
-1.2601358	w u </s>	0
-1.2559881	c u </s>	0
-0.9151402	p u </s>	0
-1.1274853	d u </s>	0
-1.1369696	q u </s>	0
-1.663437	<s> v </s>	0
-0.37019348	z v </s>	0
-1.8541737	i v </s>	0
-3.3293989	<s> l </s>	0
-0.7394218	n l </s>	0
-0.59205884	j l </s>	0
-1.3663125	o l </s>	0
-0.81267464	g l </s>	0
-1.350909	e l </s>	0
-1.2062142	a l </s>	0
-0.26111805	z l </s>	0
-1.1239012	t l </s>	0
-1.1935791	i l </s>	0
-0.59205884	f l </s>	0
-0.98295057	k l </s>	0
-1.3677179	u l </s>	0
-0.55222136	l l </s>	0
-1.4205632	h l </s>	0
-0.8743493	c l </s>	0
-1.3944062	o m </s>	0
-1.7773043	e m </s>	0
-1.2550461	a m </s>	0
-0.9542176	s m </s>	0
-1.7487681	i m </s>	0
-0.35934395	f m </s>	0
-0.88108706	r m </s>	0
-1.513818	u m </s>	0
-1.2868384	m m </s>	0
-0.35934395	c m </s>	0
-0.631919	x m </s>	0
-1.4753267	o h </s>	0
-1.4980175	g h </s>	0
-1.2708797	e h </s>	0
-1.5119988	s h </s>	0
-1.1104599	t h </s>	0
-1.519051	k h </s>	0
-1.1046381	u h </s>	0
-1.1258886	c h </s>	0
-1.7002331	p h </s>	0
-1.5117081	x h </s>	0
-0.6210817	W h </s>	0
-1.9565188	o b </s>	0
-2.0459363	a b </s>	0
-1.98362	i b </s>	0
-1.8625646	u b </s>	0
-1.4966381	m b </s>	0
-1.7296916	o w </s>	0
-1.2901815	e w </s>	0
-1.6673429	k w </s>	0
-1.54279	u w </s>	0
-1.5939541	h w </s>	0
-1.6433455	o c </s>	0
-1.2412665	i c </s>	0
-0.3693846	f c </s>	0
-0.3693846	b c </s>	0
-0.65092075	w c </s>	0
-0.37448147	L L </s>	0
-1.5742915	o p </s>	0
-1.6084342	e p </s>	0
-1.4404118	a p </s>	0
-1.6085836	i p </s>	0
-0.3496625	k p </s>	0
-1.4440536	u p </s>	0
-0.3496625	l p </s>	0
-1.2133957	n d </s>	0
-0.9589197	e d </s>	0
-1.2835509	a d </s>	0
-1.5019336	i d </s>	0
-0.8438175	A d </s>	0
-0.73606956	r d </s>	0
-1.5623311	u d </s>	0
-0.5371479	l d </s>	0
-1.8219231	u q </s>	0
-0.3790178	x q </s>	0
-1.7900941	n x </s>	0
-1.5883584	e x </s>	0
-1.7971604	i x </s>	0
-0.37350023	B N </s>	0
-1.0246712	U N </s>	0
-1.2900255	<s> C </s>	0
-0.5904554	C C </s>	0
-0.33671698	D C </s>	0
-0.33671698	O C </s>	0
-0.33671698	R C </s>	0
-0.31276616	C P </s>	0
-0.2003239	D P </s>	0
-0.31276616	W P </s>	0
-0.31276616	S P </s>	0
-0.31276616	R P </s>	0
-0.31276616	H P </s>	0
-1.2015517	<s> B </s>	0
-0.34745947	L B </s>	0
-0.26800048	N B </s>	0
-0.26800048	T B </s>	0
-1.369525	<s> D </s>	0
-0.5857258	I D </s>	0
-0.51779443	A D </s>	0
-0.5857258	C D </s>	0
-0.5857258	E D </s>	0
-0.36916384	E Z </s>	0
-0.34060457	A T </s>	0
-0.34060457	L T </s>	0
-0.5269755	E T </s>	0
-0.7334458	S T </s>	0
-0.34060457	R T </s>	0
-0.64729613	W E </s>	0
-0.64729613	K E </s>	0
-0.5103338	M O </s>	0
-0.43023047	L O </s>	0
-0.29023957	D O </s>	0
-0.29023957	T O </s>	0
-0.5103338	S O </s>	0
-0.6182293	K O </s>	0
-0.5103338	Y O </s>	0
-0.29023957	Q O </s>	0
-1.0817748	I S </s>	0
-0.5825067	M S </s>	0
-0.7131301	A S </s>	0
-0.5825067	P S </s>	0
-0.5825067	B S </s>	0
-0.3322675	D S </s>	0
-0.41135606	T S </s>	0
-0.88049173	E S </s>	0
-0.3322675	R S </s>	0
-1.0721804	<s> V </s>	0
-0.2613705	I V </s>	0
-1.7279843	<s> R </s>	0
-1.0290878	u R </s>	0
-0.35213792	O R </s>	0
-1.9849206	<s> U </s>	0
-0.5662115	M U </s>	0
-0.25084674	A U </s>	0
-0.32303393	C U </s>	0
-0.32303393	T U </s>	0
-0.7705269	K U </s>	0
-0.6454616	A F </s>	0
-0.36285037	D F </s>	0
-0.14622454	<s> Â </s>	0
-0.06853747	j é </s>	0
-0.056543626	y é </s>	0
-0.06853747	s é </s>	0
-0.06853747	m é </s>	0
-0.06853747	h é </s>	0
-0.06853747	b é </s>	0
-0.06853747	w é </s>	0
-2.0269198	<s> I I	-0.30610543
-0.94742703	I I I	-0.21790561
-3.9091463	<s> e I	-0.21790561
-2.1942189	z e I	-0.21790561
-0.68098927	I M I	-0.21790561
-2.022928	i i I	-0.21790561
-2.4943066	<s> A I	-0.291662
-1.3516564	e A I	-0.21790561
-1.4256555	<s> d I	-0.35070843
-2.7542684	<s> N I	-0.21790561
-1.5403407	<s> C I	-0.35070843
-0.8064019	A C I	-0.21790561
-0.45037895	G C I	-0.21790561
-0.3725361	M D I	-0.21790561
-0.9265893	N D I	-0.21790561
-0.79720694	L W I	-0.21790561
-0.7893828	K W I	-0.21790561
-0.7330978	I Z I	-0.21790561
-0.5971988	A Z I	-0.21790561
-0.34046364	N Z I	-0.21790561
-0.34046364	U Z I	-0.21790561
-1.943824	<s> T I	-0.21790561
-0.9484691	N G I	-0.21790561
-1.3793176	I S I	-0.21790561
-0.6781133	E S I	-0.21790561
-1.583425	<s> R I	-0.21790561
-0.6449302	A R I	-0.21790561
-1.3220212	<s> J I	-0.291662
-1.5329404	<s> H I	-0.21790561
-1.1980569	e H I	-0.21790561
-1.0288739	e F I	-0.21790561
-1.0458726	i F I	-0.21790561
-0.97685623	A F I	-0.21790561
-0.6254433	<s> I n	-0.87640005
-0.65660423	e I n	-0.21790561
-0.3723475	i I n	-0.21790561
-3.9230714	<s> n n	-0.21790561
-2.3211904	o n n	-0.21790561
-2.3196557	e n n	-0.21790561
-1.7650952	a n n	-0.24592358
-1.8331919	m n n	-0.21790561
-0.81967586	h n n	-0.21790561
-1.0500453	<s> o n	-1.0550327
-1.1054174	n o n	-0.31116736
-0.37233964	j o n	-0.7114514
-0.8634112	o o n	-0.50109917
-0.9253823	g o n	-0.37305227
-1.1719395	y o n	-0.38771382
-0.61914116	a o n	-0.21790561
-0.9768407	s o n	-0.39239284
-0.58891326	M o n	-0.47564715
-1.1722897	z o n	-0.3919794
-1.0296926	t o n	-0.27925047
-0.4736964	i o n	-0.28232026
-0.63684964	f o n	-0.41042146
-1.0854969	r o n	-0.21790561
-0.95940006	k o n	-0.41867307
-1.2496339	v o n	-0.21790561
-0.98506105	l o n	-0.49018344
-0.9308787	m o n	-0.35044536
-1.020396	h o n	-0.34007934
-0.8975781	b o n	-0.5272565
-0.9632241	w o n	-0.3184422
-1.029808	c o n	-0.27925047
-0.7232831	L o n	-0.21790561
-1.1559018	p o n	-0.26565966
-0.9315772	d o n	-0.25977033
-0.63956535	q o n	-0.5631478
-1.0215458	x o n	-0.21790561
-1.0232081	N o n	-0.21790561
-1.1565169	C o n	-0.21790561
-0.8417533	B o n	-0.21790561
-0.6314807	W o n	-0.21790561
-1.1253282	Z o n	-0.21790561
-1.069659	G o n	-0.21790561
-1.0207673	S o n	-0.21790561
-1.1285516	K o n	-0.21790561
-1.0232081	J o n	-0.21790561
-0.7633888	Y o n	-0.21790561
-2.0890386	<s> g n	-0.21790561
-2.1548529	a g n	-0.21790561
-2.0946195	i g n	-0.21790561
-2.127866	a y n	-0.21790561
-0.37959397	C y n	-0.21790561
-0.37959397	D y n	-0.21790561
-0.894772	<s> e n	-1.4805686
-1.256121	n e n	-0.44393
-0.71599674	j e n	-0.25850764
-0.92423147	g e n	-0.33352017
-1.058707	y e n	-0.41748405
-1.0300858	e e n	-0.6028771
-1.0666676	s e n	-0.49675375
-1.1066468	z e n	-0.32311246
-0.99443024	t e n	-0.28232026
-0.9972359	i e n	-0.26565966
-1.3020052	f e n	-0.21790561
-1.1057895	r e n	-0.26993832
-0.74665725	k e n	-0.33635932
-1.0259563	u e n	-0.21790561
-0.95089775	v e n	-0.26993832
-1.1383451	l e n	-0.44969994
-0.70486355	m e n	-0.49656132
-0.967698	h e n	-0.40596268
-1.184299	b e n	-0.47227177
-0.9698983	w e n	-0.54961425
-0.88664377	c e n	-0.29235482
-0.8862564	L e n	-0.21790561
-0.9926246	p e n	-0.26565966
-0.7779121	d e n	-0.29992944
-0.97369856	q e n	-0.32611844
-1.109185	x e n	-0.2532199
-1.0216285	N e n	-0.21790561
-0.7648123	C e n	-0.291662
-1.1937982	S e n	-0.21790561
-0.7788293	V e n	-0.21790561
-0.55229294	K e n	-0.21790561
-0.7788293	Y e n	-0.21790561
-0.9663335	Q e n	-0.21790561
-0.89654446	<s> a n	-1.3292075
-1.0437232	n a n	-0.44204852
-1.0419705	j a n	-0.21790561
-1.0541881	g a n	-0.29357702
-1.1439099	y a n	-0.5057728
-1.2361598	e a n	-0.21790561
-1.2647871	a a n	-0.21790561
-1.1085898	s a n	-0.4655296
-0.8153199	M a n	-0.3389939
-1.0002286	z a n	-0.51235557
-0.9466037	t a n	-0.30941764
-1.2114725	i a n	-0.21790561
-0.80474234	f a n	-0.5532381
-1.0392667	r a n	-0.21790561
-1.102278	k a n	-0.4518466
-0.89943445	v a n	-0.31423545
-0.9400559	l a n	-0.5630712
-1.1014441	m a n	-0.57378864
-0.98716	h a n	-0.50029904
-1.021084	b a n	-0.560258
-1.0155116	w a n	-0.65591276
-0.80065846	c a n	-0.46872357
-1.1957744	L a n	-0.21790561
-0.9427749	p a n	-0.24592358
-0.9157819	d a n	-0.33186337
-1.0959945	q a n	-0.35034674
-0.77761805	x a n	-0.4391742
-1.0226302	N a n	-0.2532199
-0.53353554	C a n	-0.5725572
-1.160038	P a n	-0.21790561
-0.79573774	B a n	-0.28282046
-0.9835079	D a n	-0.21790561
-0.84739053	Z a n	-0.291662
-1.0261042	G a n	-0.21790561
-1.2680292	S a n	-0.21790561
-0.9389198	K a n	-0.21790561
-0.63249964	J a n	-0.26565966
-0.8606409	F a n	-0.21790561
-0.9301239	Y a n	-0.21790561
-1.4291333	o M n	-0.26565966
-1.4019792	a M n	-0.21790561
-1.5846457	u M n	-0.21790561
-1.1932348	U M n	-0.21790561
-0.38266703	s z n	-0.21790561
-2.1381402	e t n	-0.21790561
-1.4160855	c t n	-0.21790561
-0.68017	<s> i n	-1.6555817
-1.1985008	I i n	-0.21790561
-1.0010407	n i n	-0.5378774
-0.7719334	j i n	-0.23773232
-0.7018645	o i n	-0.21790561
-0.76509684	g i n	-0.3389939
-1.2143196	y i n	-0.46694383
-0.81759	e i n	-0.2532199
-0.7277981	a i n	-0.24112663
-1.2682673	s i n	-0.5197492
-1.1575037	M i n	-0.21790561
-1.1924565	z i n	-0.5238172
-1.217616	t i n	-0.29235482
-1.0880256	i i n	-0.33834276
-0.94393754	f i n	-0.28232026
-1.190076	r i n	-0.2926323
-0.88379675	k i n	-0.3790828
-0.796066	v i n	-0.24592358
-1.1391773	l i n	-0.50916487
-1.1271523	m i n	-0.3883876
-0.813896	h i n	-0.45665875
-1.0111547	b i n	-0.33984035
-0.8691772	w i n	-0.32132128
-0.58935755	c i n	-0.4110485
-0.7305477	L i n	-0.26565966
-1.1615485	p i n	-0.21790561
-0.96745515	d i n	-0.4335879
-0.6484024	q i n	-0.5471961
-0.67653126	x i n	-0.33358577
-0.8751906	N i n	-0.21790561
-0.7693999	C i n	-0.21790561
-0.54712903	B i n	-0.21790561
-1.1662294	D i n	-0.21790561
-0.9922444	Z i n	-0.2532199
-1.1046492	S i n	-0.23324753
-0.9587381	Y i n	-0.21790561
-0.24738124	Q i n	-0.32611844
-2.0285702	<s> A n	-0.27587456
-1.0947797	i A n	-0.21790561
-1.540835	e r n	-0.21790561
-1.9193141	a r n	-0.21790561
-1.0017529	u r n	-0.2532199
-2.0009003	e k n	-0.291662
-1.1543881	<s> u n	-1.294336
-1.2054248	n u n	-0.21790561
-1.1674182	j u n	-0.21790561
-0.7900226	o u n	-0.26565966
-0.8395659	g u n	-0.46129808
-0.7200762	y u n	-0.37181354
-0.96328974	e u n	-0.21790561
-1.0178616	s u n	-0.4104214
-1.4099035	z u n	-0.21790561
-0.879869	t u n	-0.21790561
-0.7308738	f u n	-0.5484076
-0.9218083	r u n	-0.21790561
-1.1837	k u n	-0.6145683
-1.0509217	v u n	-0.5725572
-1.0104084	l u n	-0.47808278
-0.4047072	m u n	-0.24112663
-1.1383474	h u n	-0.30452678
-1.1202825	b u n	-0.42483494
-1.0942901	w u n	-0.27240184
-1.4024034	c u n	-0.21790561
-0.52148306	L u n	-0.52795416
-1.1220073	p u n	-0.21790561
-1.2340298	d u n	-0.21790561
-1.0066156	q u n	-0.3159917
-1.1142302	x u n	-0.21790561
-0.861001	B u n	-0.291662
-0.6114051	T u n	-0.21790561
-0.47518346	G u n	-0.47564715
-1.198662	K u n	-0.21790561
-0.39939484	F u n	-0.43876034
-1.7643913	e v n	-0.21790561
-0.68006724	j l n	-0.21790561
-2.4016829	e l n	-0.21790561
-1.0953354	<s> m n	-0.8005294
-0.9136141	n m n	-0.21790561
-1.2572954	o m n	-0.591076
-1.4850962	e m n	-0.33231398
-1.2701161	a m n	-0.444066
-1.2934707	i m n	-0.32556528
-1.3849702	u m n	-0.3705187
-0.36705574	O m n	-0.21790561
-1.3383453	U m n	-0.21790561
-1.6706337	o h n	-0.21790561
-1.956363	c h n	-0.21790561
-2.1005127	e b n	-0.21790561
-1.892885	o w n	-0.21790561
-1.9559432	a p n	-0.21790561
-0.78153217	<s> E n	-0.5395652
-1.6142793	<s> O n	-0.47564715
-1.4029028	<s> U n	-0.43960583
-0.65459394	i U n	-0.21790561
-1.5515028	<s> n j	-1.6263438
-1.3706625	I n j	-0.21790561
-1.6709937	o n j	-0.27925047
-1.2548922	e n j	-0.6156674
-1.4723108	a n j	-0.5267997
-1.3876715	i n j	-0.43801624
-1.3336825	u n j	-0.4551807
-0.64880294	l n j	-0.21790561
-3.0352578	<s> o j	-0.26565966
-2.0054119	o o j	-0.21790561
-2.0691261	g o j	-0.21790561
-1.736162	y o j	-0.2532199
-1.7384136	z o j	-0.35070843
-1.4479283	f o j	-0.21790561
-1.429883	r o j	-0.291662
-2.221505	l o j	-0.21790561
-2.1615438	<s> g j	-0.21790561
-1.8491815	a y j	-0.291662
-2.4888473	<s> e j	-0.58335024
-2.1183348	n e j	-0.21790561
-1.8537514	e e j	-0.291662
-2.163394	s e j	-0.21790561
-1.5710976	r e j	-0.291662
-2.1786275	l e j	-0.21790561
-1.8960129	b e j	-0.291662
-2.306203	w e j	-0.21790561
-1.5707456	d e j	-0.21790561
-2.6388428	<s> a j	-0.55654943
-0.7442231	j a j	-0.32611844
-1.7641137	g a j	-0.291662
-2.0985627	y a j	-0.21790561
-1.865595	s a j	-0.21790561
-1.9484215	z a j	-0.21790561
-1.7269233	r a j	-0.21790561
-1.6953743	k a j	-0.2532199
-2.047634	m a j	-0.21790561
-2.2302868	h a j	-0.21790561
-1.5866749	b a j	-0.47564715
-1.9408511	w a j	-0.27587456
-1.7327379	p a j	-0.21790561
-1.8742919	d a j	-0.21790561
-0.6709972	J a j	-0.291662
-2.285769	e s j	-0.21790561
-2.2359488	a z j	-0.21790561
-2.6092422	<s> i j	-0.63505495
-1.7539153	n i j	-0.21790561
-1.647261	j i j	-0.21790561
-1.7872871	y i j	-0.3135114
-1.4188268	e i j	-0.21790561
-1.6265295	s i j	-0.4104214
-1.6996032	z i j	-0.30610543
-1.7817502	i i j	-0.21790561
-1.9925601	l i j	-0.26565966
-1.7570786	h i j	-0.21790561
-2.0480917	d i j	-0.21790561
-1.6862922	S i j	-0.21790561
-2.9650426	<s> u j	-0.30610543
-1.397873	j u j	-0.21790561
-1.6045699	k u j	-0.53023845
-1.7970089	l u j	-0.3135114
-1.9698486	b u j	-0.21790561
-1.89158	w u j	-0.21790561
-2.804416	<s> m j	-0.21790561
-2.1178944	o m j	-0.291662
-2.1491249	e m j	-0.21790561
-1.9603179	a m j	-0.21790561
-1.9163514	i m j	-0.21790561
-2.093355	u m j	-0.21790561
-2.1757536	t h j	-0.21790561
-2.2187147	i b j	-0.21790561
-2.025005	e d j	-0.21790561
-2.0940678	a d j	-0.21790561
-1.1647997	<s> N j	-1.1093915
-1.1534146	I N j	-0.21790561
-1.490949	e N j	-0.291662
-1.4159564	i N j	-0.291662
-1.2602556	u N j	-0.21790561
-2.716822	<s> U j	-0.21790561
-2.5936744	<s> I o	-0.21790561
-0.83491266	<s> n o	-1.3989584
-1.2855068	I n o	-0.21790561
-1.215989	o n o	-0.47836205
-1.3543314	e n o	-0.48662362
-1.4065882	a n o	-0.40466478
-1.2669684	i n o	-0.50527674
-0.35867307	k n o	-0.21790561
-1.3116331	u n o	-0.3799461
-1.4887259	m n o	-0.291662
-1.0969893	U n o	-0.21790561
-0.824798	<s> j o	-0.42513615
-0.853672	n j o	-0.47564715
-0.6716114	o j o	-0.35070843
-0.87284464	e j o	-0.2532199
-0.5262642	a j o	-0.4967523
-0.45876172	i j o	-0.5631478
-0.43162593	u j o	-0.47224647
-0.23936269	m j o	-0.6517384
-0.4383889	N j o	-0.35070843
-0.29757187	U j o	-0.21790561
-1.7452184	<s> o o	-0.6025248
-1.6721516	n o o	-0.24112663
-1.5101321	j o o	-0.21790561
-1.6003923	o o o	-0.291662
-1.6613257	g o o	-0.23520392
-1.7371138	y o o	-0.21790561
-1.6659528	s o o	-0.21790561
-1.2987498	M o o	-0.21790561
-1.8689766	z o o	-0.21790561
-1.4198529	t o o	-0.21790561
-1.7055492	k o o	-0.24592358
-1.4445609	l o o	-0.32043025
-1.9680674	h o o	-0.21790561
-1.7998421	b o o	-0.21790561
-1.4358741	w o o	-0.21790561
-1.2655263	L o o	-0.21790561
-1.6411508	d o o	-0.21790561
-1.3774077	S o o	-0.21790561
-0.8927064	<s> g o	-0.24915124
-0.70062536	I g o	-0.21790561
-1.0994068	n g o	-0.4207366
-0.7692456	o g o	-0.26064092
-0.94771373	g g o	-0.21790561
-1.0324345	e g o	-0.2532199
-0.9661011	a g o	-0.41554058
-0.40136534	s g o	-0.35070843
-0.90915495	i g o	-0.4348226
-0.2536665	k g o	-0.21790561
-1.1317947	u g o	-0.25850764
-1.0874388	m g o	-0.21790561
-0.57321566	w g o	-0.21790561
-0.4057515	q g o	-0.21790561
-1.2752496	N g o	-0.21790561
-0.57321566	U g o	-0.21790561
-0.46179432	<s> y o	-1.4199476
-0.9213717	n y o	-0.29210278
-0.8416295	o y o	-0.24592358
-0.6912037	e y o	-0.42417315
-0.6611539	a y o	-0.5366493
-1.0080968	t y o	-0.26565966
-0.6899615	i y o	-0.44417334
-0.7588733	u y o	-0.27885816
-0.6809849	l y o	-0.291662
-0.96758705	m y o	-0.26565966
-0.96332824	d y o	-0.21790561
-0.32734907	E y o	-0.21790561
-2.2445211	y e o	-0.21790561
-2.2919416	l e o	-0.21790561
-1.30641	P e o	-0.21790561
-1.7359282	i a o	-0.21790561
-2.3033793	k a o	-0.21790561
-0.8625515	<s> s o	-1.0071812
-1.1281524	n s o	-0.21790561
-0.59942365	j s o	-0.21790561
-1.0620992	o s o	-0.2532199
-1.0313026	e s o	-0.37923026
-0.8799681	a s o	-0.4336099
-0.94669807	s s o	-0.21790561
-1.1344415	t s o	-0.26565966
-0.95520806	i s o	-0.57277423
-1.0903096	u s o	-0.35318735
-0.6138113	l s o	-0.291662
-0.94731873	m s o	-0.27587456
-1.1906145	T s o	-0.21790561
-1.4584569	<s> M o	-0.21790561
-1.4724739	o M o	-0.291662
-1.1202247	e M o	-0.2532199
-1.0358311	a M o	-0.21790561
-1.1206605	u M o	-0.35070843
-1.0913831	U M o	-0.21790561
-0.5340627	<s> z o	-1.2917379
-1.1057796	n z o	-0.32611844
-0.6630397	o z o	-0.3646534
-0.7690394	e z o	-0.52799326
-0.8041843	a z o	-0.5129046
-0.8869457	i z o	-0.4461309
-0.7490938	u z o	-0.3510869
-1.1038855	m z o	-0.291662
-0.57823116	E z o	-0.21790561
-0.9000076	<s> t o	-0.37181354
-0.96706414	n t o	-0.4985702
-1.2884583	o t o	-0.2926323
-1.2879221	e t o	-0.21790561
-1.258051	a t o	-0.34619725
-1.2239285	s t o	-0.21790561
-1.0071185	t t o	-0.21790561
-1.5655645	i t o	-0.21790561
-1.1624237	r t o	-0.21790561
-0.95442015	k t o	-0.21790561
-1.6997983	u t o	-0.21790561
-0.9177623	c t o	-0.291662
-1.0461799	S t o	-0.21790561
-1.7936671	g i o	-0.21790561
-2.0215816	s i o	-0.21790561
-1.18543	t i o	-0.5725572
-1.5417358	i i o	-0.21790561
-1.7732059	r i o	-0.21790561
-2.1831543	l i o	-0.21790561
-1.9072748	b i o	-0.21790561
-1.9463936	w i o	-0.21790561
-1.2968748	p i o	-0.291662
-0.6685531	V i o	-0.21790561
-0.48620805	<s> f o	-0.7040455
-0.6615965	I f o	-0.21790561
-0.48452678	n f o	-0.21790561
-0.9731729	o f o	-0.24592358
-0.55237114	e f o	-0.41462645
-1.1558762	a f o	-0.37181354
-0.61634415	i f o	-0.39464286
-1.2903497	u f o	-0.21790561
-0.5437825	l f o	-0.21790561
-0.75276333	m f o	-0.38705653
-0.31007996	p f o	-0.21790561
-1.4715421	<s> r o	-0.21790561
-1.3747103	o r o	-0.21790561
-1.0596697	g r o	-0.21790561
-1.5622134	e r o	-0.21790561
-1.1999859	a r o	-0.26565966
-0.8983507	t r o	-0.21790561
-1.1972471	i r o	-0.21790561
-0.5998675	k r o	-0.29235482
-1.269462	u r o	-0.21790561
-0.5127679	c r o	-0.21790561
-0.42886913	p r o	-0.30905265
-0.5890848	P r o	-0.23773232
-0.579334	G r o	-0.21790561
-0.79172736	F r o	-0.21790561
-1.1353664	<s> k o	-1.2577568
-0.90196127	n k o	-0.40596268
-0.65489674	o k o	-0.52685446
-0.84921914	e k o	-0.55571187
-1.0247802	a k o	-0.40609023
-0.9712432	s k o	-0.21790561
-0.5163597	M k o	-0.291662
-0.86905265	i k o	-0.5350626
-0.9641123	u k o	-0.4097849
-0.574714	l k o	-0.21790561
-1.2239496	m k o	-0.21790561
-0.59719163	N k o	-0.3135114
-0.7842182	O k o	-0.21790561
-0.7842182	U k o	-0.21790561
-0.31638747	I v o	-0.21790561
-1.4237989	o v o	-0.21790561
-1.381047	e v o	-0.21790561
-1.3286134	a v o	-0.21790561
-0.9045504	i v o	-0.21790561
-1.1105576	u v o	-0.21790561
-1.1638031	m v o	-0.21790561
-0.55464244	h v o	-0.21790561
-0.5648049	<s> l o	-1.305564
-0.8418749	I l o	-0.21790561
-0.65190303	o l o	-0.5784473
-0.7498589	g l o	-0.21790561
-0.8395191	e l o	-0.55854034
-0.8471522	a l o	-0.6324896
-0.3155448	s l o	-0.21790561
-0.67397124	M l o	-0.21790561
-0.8407629	t l o	-0.24592358
-0.9353465	i l o	-0.44725677
-0.67397124	r l o	-0.21790561
-0.8391977	u l o	-0.5098386
-1.1668416	l l o	-0.21790561
-0.8669023	m l o	-0.29235482
-0.7831543	h l o	-0.5180964
-1.034987	b l o	-0.21790561
-0.8026999	c l o	-0.21790561
-0.7665745	p l o	-0.21790561
-1.2251834	d l o	-0.24112663
-0.553185	P l o	-0.21790561
-0.553185	E l o	-0.21790561
-0.9186144	O l o	-0.21790561
-0.42375395	H l o	-0.35360184
-1.9466707	<s> m o	-0.30244932
-1.296924	o m o	-0.4596462
-1.1362585	e m o	-0.39014646
-1.4021437	a m o	-0.33795825
-1.2390459	i m o	-0.3724801
-1.3266138	u m o	-0.35235867
-1.3558894	m m o	-0.21790561
-0.92802185	<s> h o	-0.2841726
-1.3120661	o h o	-0.21790561
-1.0164435	g h o	-0.26565966
-0.628848	y h o	-0.24592358
-0.7596241	e h o	-0.43876034
-1.1851286	a h o	-0.26565966
-0.94132745	s h o	-0.34840542
-0.92690635	t h o	-0.39269266
-0.83256185	i h o	-0.30610543
-0.7080439	r h o	-0.29235482
-0.73656434	k h o	-0.53039515
-1.2378207	u h o	-0.21790561
-0.739011	m h o	-0.21790561
-0.71454424	b h o	-0.3560969
-0.803711	c h o	-0.5631478
-0.7643337	p h o	-0.40122977
-0.81489795	q h o	-0.30244932
-0.7779901	x h o	-0.3521527
-0.83114207	P h o	-0.35070843
-0.9169353	B h o	-0.26565966
-0.3953642	X h o	-0.21790561
-0.59092677	K h o	-0.35999298
-0.8841766	<s> b o	-0.9980918
-0.6928398	I b o	-0.21790561
-0.79430056	o b o	-0.5378774
-0.3237104	g b o	-0.21790561
-0.9777712	e b o	-0.40762025
-0.8729518	a b o	-0.5918826
-0.921058	i b o	-0.4801709
-0.5673964	A b o	-0.21790561
-0.9035198	u b o	-0.44294754
-0.8303251	m b o	-0.42758664
-0.5673964	O b o	-0.21790561
-0.6837147	<s> w o	-1.0894557
-0.9357053	o w o	-0.29992944
-1.2170051	e w o	-0.21790561
-0.6994477	a w o	-0.6600578
-1.104913	s w o	-0.21790561
-0.804955	i w o	-0.37398362
-0.73549217	u w o	-0.30244932
-0.610694	m w o	-0.21790561
-0.34788388	T w o	-0.21790561
-0.7799937	<s> c o	-0.2777127
-0.79696304	n c o	-0.5020856
-0.83759636	o c o	-0.24592358
-1.3883744	g c o	-0.21790561
-1.1537464	e c o	-0.21790561
-1.1225537	a c o	-0.21790561
-1.3416345	i c o	-0.27587456
-0.96866506	k c o	-0.21790561
-1.1965284	u c o	-0.27587456
-1.2501768	m c o	-0.21790561
-0.8443811	c c o	-0.21790561
-1.0506833	N c o	-0.21790561
-0.7045732	E c o	-0.21790561
-0.9561735	S c o	-0.21790561
-0.73483235	<s> L o	-0.60639185
-1.4616495	o L o	-0.21790561
-1.2564827	e L o	-0.21790561
-1.1527865	i L o	-0.21790561
-0.77845466	u L o	-0.21790561
-1.7567512	<s> p o	-0.37181354
-0.6952506	I p o	-0.21790561
-0.72470117	o p o	-0.4041892
-0.8763199	e p o	-0.2532199
-0.98352045	a p o	-0.27587456
-0.7895168	s p o	-0.21790561
-0.98110056	i p o	-0.28232026
-0.5793959	A p o	-0.291662
-0.40331516	r p o	-0.21790561
-1.1115248	u p o	-0.21790561
-0.8639603	m p o	-0.23773232
-1.0339016	<s> d o	-0.27587456
-1.0158958	n d o	-0.39168045
-0.9438352	o d o	-0.4041892
-1.0181688	e d o	-0.3790828
-1.2690086	a d o	-0.21790561
-1.3373278	i d o	-0.26565966
-1.3470925	u d o	-0.21790561
-1.325804	m d o	-0.21790561
-1.0003674	N d o	-0.21790561
-1.0382367	<s> q o	-0.21790561
-1.001239	n q o	-0.2532199
-0.52036816	o q o	-0.47089365
-1.0009125	g q o	-0.23773232
-1.2181237	e q o	-0.27587456
-0.85231584	a q o	-0.4267269
-0.38987267	M q o	-0.35070843
-0.79967993	i q o	-0.4391742
-0.6164327	k q o	-0.2532199
-0.9719779	u q o	-0.36622754
-0.7821111	m q o	-0.35070843
-0.7500496	N q o	-0.21790561
-0.6604607	U q o	-0.21790561
-2.12061	<s> x o	-0.21790561
-1.3301276	n x o	-0.21790561
-0.69498026	o x o	-0.3730522
-0.8834032	g x o	-0.27201578
-0.9016391	a x o	-0.28232026
-0.8363724	i x o	-0.3730522
-0.9244783	u x o	-0.2926323
-0.7147869	U x o	-0.21790561
-1.344217	<s> N o	-0.5395016
-1.3764861	o N o	-0.21790561
-0.5023352	<s> C o	-0.52482027
-0.8784771	e C o	-0.2532199
-1.1289518	i C o	-0.21790561
-1.1321745	<s> P o	-0.4104214
-0.7382909	I P o	-0.21790561
-1.0652403	a P o	-0.21790561
-1.2036936	i P o	-0.21790561
-0.7786957	<s> B o	-0.47854057
-0.8984281	o B o	-0.26565966
-1.3232203	e B o	-0.21790561
-1.1332818	i B o	-0.21790561
-0.9585625	u B o	-0.21790561
-1.4753735	<s> D o	-0.21790561
-1.1208309	e D o	-0.21790561
-0.9761708	i D o	-0.21790561
-0.41866863	<s> W o	-0.48960266
-0.70527357	e W o	-0.21790561
-0.32208008	a W o	-0.21790561
-0.32208008	m W o	-0.21790561
-0.30958384	<s> Z o	-0.71837026
-0.7304682	e Z o	-0.2926323
-1.0589569	i Z o	-0.21790561
-0.85247505	<s> T o	-0.42513615
-0.8402585	<s> G o	-0.4104214
-0.68160737	I G o	-0.21790561
-0.9481147	e G o	-0.21790561
-0.68160737	a G o	-0.21790561
-0.63856846	i G o	-0.35070843
-0.9194684	u G o	-0.21790561
-1.3839496	<s> O o	-0.27925047
-0.21231085	o X o	-0.35070843
-0.33458355	a X o	-0.21790561
-1.2038308	<s> S o	-0.4348226
-0.8214792	o S o	-0.21790561
-1.1523281	e S o	-0.2532199
-1.0842214	a S o	-0.21790561
-1.2822009	i S o	-0.21790561
-0.84549046	u S o	-0.21790561
-0.84549046	U S o	-0.21790561
-1.1443814	<s> V o	-0.21790561
-1.2132207	<s> R o	-0.3135114
-1.0513629	u R o	-0.21790561
-0.84798765	<s> K o	-0.8947354
-0.34129447	I K o	-0.21790561
-0.7008726	e K o	-0.47564715
-0.56764466	i K o	-0.291662
-0.2346684	<s> J o	-0.5230812
-0.3226196	i J o	-0.21790561
-1.2593096	<s> H o	-0.291662
-0.97417456	<s> F o	-0.5725572
-0.691014	I F o	-0.21790561
-0.8671999	e F o	-0.21790561
-0.8987149	i F o	-0.21790561
-0.8389028	A F o	-0.21790561
-1.0867633	<s> Y o	-0.3135114
-0.75458753	e Y o	-0.21790561
-0.75803804	o Q o	-0.291662
-1.0025117	u Q o	-0.21790561
-1.4177736	<s> I g	-0.7581938
-0.48232186	<s> n g	-2.3713703
-1.259318	I n g	-0.21790561
-1.1165682	n n g	-0.21790561
-0.9641893	o n g	-0.7264365
-1.0963211	e n g	-0.7564738
-1.0061748	a n g	-0.8020245
-1.1589544	M n g	-0.21790561
-0.9324007	i n g	-0.8439842
-0.54794526	A n g	-0.291662
-0.9151388	u n g	-0.63788116
-0.92200094	m n g	-0.4113789
-1.0799229	U n g	-0.21790561
-2.154338	<s> o g	-0.4348226
-1.5802314	n o g	-0.26993832
-1.4654114	o o g	-0.2926323
-1.5535662	g o g	-0.26565966
-1.401505	y o g	-0.29235482
-1.3260317	M o g	-0.21790561
-1.4037693	z o g	-0.32573804
-1.6655091	f o g	-0.21790561
-1.1811408	r o g	-0.35070843
-1.934951	k o g	-0.21790561
-1.8559309	l o g	-0.21790561
-1.7034827	m o g	-0.21790561
-2.0239239	h o g	-0.21790561
-1.681686	w o g	-0.21790561
-1.4986628	q o g	-0.291662
-0.9298515	O o g	-0.21790561
-1.1815737	n g g	-0.34754568
-1.6687163	o g g	-0.21790561
-1.7647109	e g g	-0.21790561
-1.4138999	a g g	-0.4104214
-1.6624609	i g g	-0.291662
-1.2872014	u g g	-0.3135114
-1.2523307	m g g	-0.26565966
-2.094435	i y g	-0.21790561
-1.9699758	<s> e g	-0.62522405
-1.4252615	n e g	-0.32793027
-1.685146	g e g	-0.2532199
-1.8197613	y e g	-0.26565966
-0.8275764	a e g	-0.21790561
-1.8608432	s e g	-0.21790561
-1.8794924	z e g	-0.21790561
-1.5988208	t e g	-0.21790561
-1.7702867	r e g	-0.21790561
-1.2432526	l e g	-0.31004298
-1.7930704	h e g	-0.21790561
-1.5183547	b e g	-0.23520392
-1.8685346	w e g	-0.23773232
-0.90466124	R e g	-0.21790561
-2.095517	<s> a g	-0.47111925
-1.726105	n a g	-0.26565966
-1.5733618	g a g	-0.23324753
-1.461098	y a g	-0.29779336
-1.5328416	s a g	-0.26064092
-1.6921449	M a g	-0.21790561
-1.879516	z a g	-0.21790561
-1.5776888	i a g	-0.21790561
-1.5210533	k a g	-0.35034674
-2.0623746	l a g	-0.21790561
-1.3781537	m a g	-0.34445438
-1.4135813	h a g	-0.2777127
-1.8276967	b a g	-0.2532199
-1.5769709	w a g	-0.29235482
-1.826977	c a g	-0.21790561
-1.8071756	d a g	-0.21790561
-1.8442265	q a g	-0.21790561
-1.8113441	x a g	-0.21790561
-0.73611647	H a g	-0.291662
-2.157286	e s g	-0.21790561
-2.024414	i s g	-0.21790561
-0.9479899	A s g	-0.21790561
-1.179099	r s g	-0.21790561
-0.9888774	o M g	-0.7186852
-1.758703	e M g	-0.21790561
-1.206494	u M g	-0.32611844
-1.1961735	U M g	-0.21790561
-1.6248051	<s> i g	-0.9604606
-1.6773757	n i g	-0.21790561
-1.6886718	g i g	-0.21790561
-1.3946518	y i g	-0.36548623
-1.4337791	s i g	-0.42545697
-1.5058918	M i g	-0.21790561
-1.4642291	z i g	-0.4276668
-1.821277	t i g	-0.21790561
-1.656796	i i g	-0.21790561
-1.6804979	r i g	-0.21790561
-1.449027	l i g	-0.35786763
-1.249753	m i g	-0.4454088
-1.8011698	b i g	-0.21790561
-1.51084	w i g	-0.24592358
-1.2830096	L i g	-0.21790561
-1.7354538	d i g	-0.21790561
-1.5808296	S i g	-0.21790561
-1.1333097	R i g	-0.21790561
-0.37160075	H i g	-0.21790561
-1.7902355	<s> A g	-0.47564715
-1.32671	e A g	-0.21790561
-1.0831981	i A g	-0.21790561
-1.754465	o r g	-0.21790561
-1.9134209	e r g	-0.21790561
-1.5608793	a r g	-0.291662
-1.5941281	u r g	-0.21790561
-0.37191465	O r g	-0.21790561
-1.6893601	n k g	-0.291662
-2.2909226	e k g	-0.21790561
-2.0504718	<s> u g	-0.6150326
-1.1834604	g u g	-0.29992944
-1.4437026	k u g	-0.48996285
-1.9004232	l u g	-0.21790561
-2.1072583	h u g	-0.21790561
-1.5903083	b u g	-0.27201578
-1.5581349	w u g	-0.21790561
-1.5658847	q u g	-0.21790561
-1.1545092	B u g	-0.21790561
-2.0898879	e l g	-0.291662
-1.901865	<s> m g	-0.3790828
-1.4852443	o m g	-0.4584115
-1.9079263	e m g	-0.291662
-1.6815095	a m g	-0.24112663
-1.8755622	i m g	-0.21790561
-1.4926285	u m g	-0.35287666
-1.3930038	U m g	-0.21790561
-2.239338	<s> h g	-0.21790561
-2.0288825	s h g	-0.21790561
-2.089964	u b g	-0.21790561
-1.9784602	i w g	-0.21790561
-1.1914483	w w g	-0.21790561
-1.8132377	i c g	-0.21790561
-1.7943413	o q g	-0.21790561
-1.493468	a q g	-0.26565966
-0.37276053	<s> N g	-1.4068204
-0.8231765	o N g	-0.26565966
-0.86627954	e N g	-0.4280796
-0.841716	a N g	-0.21790561
-0.8682402	i N g	-0.35044536
-0.9630324	u N g	-0.21790561
-2.4808927	<s> U g	-0.21790561
-2.2206426	<s> I y	-0.3135114
-2.0759377	<s> n y	-1.1857715
-1.2527176	I n y	-0.21790561
-0.841272	n n y	-0.291662
-1.1486249	o n y	-0.69486487
-1.2030429	e n y	-0.5955577
-1.0806772	a n y	-0.72890437
-1.1543206	M n y	-0.21790561
-1.177892	i n y	-0.6254799
-1.0314077	u n y	-0.62834793
-0.9205247	m n y	-0.44294754
-0.86521965	E n y	-0.21790561
-1.0755653	U n y	-0.21790561
-1.5056251	<s> o y	-1.1730269
-1.9097191	n o y	-0.21790561
-1.5466026	j o y	-0.21790561
-1.9119225	g o y	-0.21790561
-1.4096196	y o y	-0.34619725
-1.3100266	s o y	-0.5725572
-1.5185814	z o y	-0.36622754
-1.3355253	k o y	-0.48960266
-1.5798374	l o y	-0.3135114
-0.9834995	m o y	-0.3646639
-1.3042619	h o y	-0.30244932
-1.502995	b o y	-0.26565966
-1.7055979	w o y	-0.21790561
-1.7096975	d o y	-0.21790561
-2.173276	a y y	-0.21790561
-1.3595232	<s> e y	-1.5116079
-1.6198872	n e y	-0.24112663
-1.4131757	j e y	-0.21790561
-1.3361676	g e y	-0.29235482
-1.4970986	y e y	-0.37714687
-1.3321637	e e y	-0.5725572
-1.6671774	s e y	-0.2532199
-0.8477926	M e y	-0.291662
-1.784077	z e y	-0.21790561
-1.4980294	i e y	-0.21790561
-1.6213123	f e y	-0.21790561
-1.6942811	r e y	-0.21790561
-1.5187149	k e y	-0.291662
-1.4576923	v e y	-0.291662
-1.2856125	l e y	-0.40149927
-1.3196101	h e y	-0.26565966
-1.2966275	b e y	-0.40762025
-1.5113753	w e y	-0.4518141
-1.6247634	p e y	-0.21790561
-1.2908046	<s> a y	-1.4328952
-1.2002044	n a y	-0.40657565
-1.6416507	g a y	-0.24592358
-1.281454	y a y	-0.47405687
-1.2462165	s a y	-0.52841455
-1.6063898	M a y	-0.21790561
-1.0858306	z a y	-0.5479048
-1.2418475	t a y	-0.291662
-1.2028096	f a y	-0.35070843
-1.3876317	r a y	-0.26565966
-1.4743011	k a y	-0.36622754
-1.6893734	v a y	-0.21790561
-1.1342299	l a y	-0.5395016
-1.3464447	m a y	-0.47089365
-1.1923732	h a y	-0.50392586
-1.2759374	b a y	-0.3730522
-1.1260048	w a y	-0.649759
-1.2594723	L a y	-0.21790561
-1.5905868	p a y	-0.21790561
-1.4060323	d a y	-0.28232026
-1.5568268	q a y	-0.21790561
-1.5196168	x a y	-0.291662
-1.3284853	N a y	-0.21790561
-1.4832041	B a y	-0.21790561
-1.0354906	D a y	-0.21790561
-0.9757659	Y a y	-0.21790561
-3.6265106	<s> s y	-0.21790561
-1.9053085	o M y	-0.21790561
-1.2419957	U M y	-0.21790561
-1.8168869	n z y	-0.21790561
-1.1588197	<s> t y	-0.29235482
-1.2410743	n t y	-0.24112663
-0.9232504	o t y	-0.4831273
-0.61883473	y t y	-0.21790561
-0.88693565	e t y	-0.3804582
-0.86002845	a t y	-0.66312295
-0.771218	i t y	-0.6914774
-0.9827827	r t y	-0.291662
-0.8259761	u t y	-0.5114174
-0.7562095	m t y	-0.30610543
-0.76296175	U t y	-0.21790561
-1.4878869	<s> i y	-1.2862054
-1.5028534	n i y	-0.24592358
-1.645268	g i y	-0.21790561
-1.3810111	y i y	-0.4551807
-1.4829015	s i y	-0.45542574
-1.4484744	z i y	-0.4316234
-1.5783901	t i y	-0.21790561
-1.6080639	i i y	-0.21790561
-1.6414498	r i y	-0.21790561
-1.4681195	k i y	-0.291662
-1.3671418	l i y	-0.47564715
-1.5593982	m i y	-0.2532199
-1.1551931	h i y	-0.3308319
-1.7573806	b i y	-0.21790561
-1.4779134	p i y	-0.21790561
-1.5622683	d i y	-0.27201578
-1.600331	q i y	-0.21790561
-1.5908533	x i y	-0.21790561
-1.4675683	Z i y	-0.21790561
-0.80526143	G i y	-0.21790561
-1.5384917	S i y	-0.21790561
-1.0054444	Y i y	-0.21790561
-2.7194448	<s> A y	-0.21790561
-1.8441224	o f y	-0.21790561
-1.8803144	o r y	-0.21790561
-1.3906126	t r y	-0.21790561
-0.83763117	r r y	-0.21790561
-1.8452185	o k y	-0.291662
-2.1316109	u k y	-0.21790561
-1.1278589	c k y	-0.21790561
-1.3348422	<s> u y	-1.5810027
-1.8079075	g u y	-0.21790561
-1.5709143	t u y	-0.21790561
-1.4734342	f u y	-0.291662
-1.4226635	k u y	-0.6517384
-1.0091159	v u y	-0.41462645
-1.4563272	l u y	-0.32047004
-1.2971213	b u y	-0.6243743
-1.5089643	w u y	-0.2532199
-1.5067255	L u y	-0.21790561
-1.1286523	B u y	-0.291662
-1.3965955	K u y	-0.21790561
-1.8173264	e l y	-0.26565966
-2.1953452	i l y	-0.21790561
-1.748889	u l y	-0.35070843
-1.2113827	l l y	-0.291662
-1.2529976	p l y	-0.21790561
-2.0140188	<s> m y	-0.28032696
-1.3824809	o m y	-0.6145414
-2.0668197	e m y	-0.21790561
-1.6763592	a m y	-0.43104416
-1.864393	i m y	-0.21790561
-1.7241341	u m y	-0.30905265
-1.3823141	U m y	-0.21790561
-2.0025396	s h y	-0.21790561
-1.7895033	t h y	-0.291662
-1.687025	k h y	-0.26565966
-2.2814314	a b y	-0.21790561
-1.9043934	n c y	-0.21790561
-2.0896294	i c y	-0.21790561
-1.9067322	m p y	-0.21790561
-1.4569129	n d y	-0.21790561
-1.6367509	e d y	-0.21790561
-1.6329287	i d y	-0.26565966
-1.7655611	u d y	-0.21790561
-1.1325996	k q y	-0.21790561
-0.99664384	o N y	-0.21790561
-1.6249853	e N y	-0.21790561
-1.1041267	a N y	-0.21790561
-1.545612	i N y	-0.21790561
-1.1929163	u N y	-0.21790561
-0.6393136	m N y	-0.291662
-1.1489573	u C y	-0.21790561
-1.8346838	<s> D y	-0.21790561
-1.4109204	<s> T y	-0.35070843
-1.1573024	i T y	-0.21790561
-1.1167004	u T y	-0.21790561
-1.3474569	<s> E y	-0.5725572
-2.1383438	<s> S y	-0.35070843
-1.8860576	<s> U y	-0.43876034
-0.87111884	<s> n e	-1.3495017
-0.83701587	n n e	-0.21790561
-1.1469189	o n e	-0.52492714
-0.7647633	g n e	-0.21790561
-1.1716357	e n e	-0.5375874
-1.1699637	a n e	-0.6613727
-0.2718574	t n e	-0.21790561
-1.1284002	i n e	-0.58101267
-0.6592188	r n e	-0.21790561
-1.1895483	u n e	-0.3816449
-1.6163118	m n e	-0.21790561
-0.35300872	p n e	-0.21790561
-1.2050273	<s> j e	-0.3135114
-0.7156457	n j e	-0.47405687
-0.8614006	o j e	-0.21790561
-0.317257	g j e	-0.21790561
-1.1152272	e j e	-0.21790561
-0.9559717	i j e	-0.21790561
-0.8184031	m j e	-0.21790561
-0.89416796	N j e	-0.21790561
-1.5374907	v o e	-0.21790561
-1.38932	C o e	-0.21790561
-1.2046764	J o e	-0.21790561
-0.9586574	<s> g e	-0.2532199
-0.95177937	n g e	-0.45290944
-1.463075	o g e	-0.21790561
-1.2097329	g g e	-0.21790561
-1.285421	e g e	-0.21790561
-0.9364903	a g e	-0.2854119
-1.2696774	i g e	-0.24592358
-0.32768178	A g e	-0.35070843
-0.9075523	r g e	-0.21790561
-0.9540141	u g e	-0.24112663
-1.1336815	m g e	-0.21790561
-0.59427327	h g e	-0.21790561
-0.63165164	N g e	-0.28100196
-0.4645765	<s> y e	-1.2914739
-0.5652384	I y e	-0.21790561
-0.7887633	n y e	-0.46362978
-0.83747923	o y e	-0.35034674
-0.8498572	e y e	-0.36371073
-0.6588081	a y e	-0.4831266
-0.9192559	t y e	-0.41732946
-0.8470135	i y e	-0.48302242
-0.61871064	u y e	-0.4698414
-0.6080064	m y e	-0.4104214
-0.9442998	d y e	-0.21790561
-1.0351766	N y e	-0.21790561
-0.68996143	U y e	-0.21790561
-2.3403044	<s> e e	-0.6426496
-1.2913413	n e e	-0.36700675
-1.3767321	j e e	-0.21790561
-1.7368077	g e e	-0.21790561
-1.6899668	y e e	-0.22704555
-1.5476327	e e e	-0.26565966
-1.843719	s e e	-0.21790561
-1.4464598	z e e	-0.23929562
-1.7013559	t e e	-0.21790561
-1.4538131	i e e	-0.21790561
-1.568907	f e e	-0.21790561
-1.4410901	r e e	-0.291662
-1.8747945	l e e	-0.21790561
-1.8760334	h e e	-0.21790561
-1.7009132	b e e	-0.24112663
-1.6527659	w e e	-0.27728266
-1.5742735	p e e	-0.21790561
-1.6579882	d e e	-0.21790561
-1.178431	P e e	-0.21790561
-1.2576174	B e e	-0.21790561
-1.1730589	D e e	-0.21790561
-0.64500916	W e e	-0.21790561
-1.4860343	S e e	-0.21790561
-2.2134929	g a e	-0.21790561
-2.3155313	s a e	-0.21790561
-2.4695904	h a e	-0.21790561
-0.6757732	<s> s e	-1.1293194
-0.92081684	I s e	-0.21790561
-0.8833505	n s e	-0.21790561
-0.82503	o s e	-0.3559886
-0.93587875	e s e	-0.48294893
-0.7906004	a s e	-0.6125033
-0.65703183	s s e	-0.21790561
-0.5187363	M s e	-0.291662
-1.014221	t s e	-0.29235482
-0.80425626	i s e	-0.7751412
-0.7773679	u s e	-0.5305883
-0.66491723	m s e	-0.48960266
-0.71911055	b s e	-0.21790561
-0.5869258	w s e	-0.21790561
-0.33474562	U s e	-0.21790561
-1.3833832	<s> M e	-0.24592358
-1.7501801	o M e	-0.21790561
-1.3170146	e M e	-0.26565966
-1.0614656	i M e	-0.291662
-0.61049384	<s> z e	-1.1103905
-0.8568623	n z e	-0.4518141
-0.773949	o z e	-0.5267997
-0.6965436	e z e	-0.52000487
-0.71544826	a z e	-0.688291
-0.3231791	t z e	-0.21790561
-0.79163694	i z e	-0.4846726
-0.70174366	u z e	-0.5767192
-0.686297	m z e	-0.4104214
-0.9058441	N z e	-0.21790561
-1.4136132	<s> t e	-0.21790561
-1.1078448	n t e	-0.32044914
-1.280244	o t e	-0.3135114
-0.8320028	e t e	-0.4280796
-1.1257131	a t e	-0.39979175
-0.73194635	s t e	-0.43876034
-0.53916574	t t e	-0.24592358
-1.0209297	i t e	-0.33635932
-1.1440929	r t e	-0.21790561
-1.1333652	u t e	-0.24592358
-1.239604	m t e	-0.291662
-0.8565447	N t e	-0.2926323
-0.77460885	S t e	-0.291662
-0.34045345	Ã t e	-0.21790561
-3.2676306	<s> i e	-0.21790561
-1.7112142	n i e	-0.291662
-1.7357161	g i e	-0.21790561
-1.8689135	t i e	-0.21790561
-1.7612951	f i e	-0.21790561
-1.4637139	r i e	-0.21790561
-1.7850103	k i e	-0.21790561
-1.0231458	u i e	-0.21790561
-1.6143746	v i e	-0.21790561
-1.7974786	l i e	-0.21790561
-1.4386121	b i e	-0.26565966
-1.3696122	c i e	-0.21790561
-1.5502673	p i e	-0.21790561
-1.3009559	D i e	-0.21790561
-1.0983925	<s> f e	-0.2532199
-0.6791178	I f e	-0.21790561
-0.7711621	n f e	-0.21790561
-0.8862172	o f e	-0.27201578
-0.6726257	e f e	-0.26565966
-0.7948142	a f e	-0.2841726
-0.80175114	i f e	-0.30716398
-0.7711621	f f e	-0.21790561
-0.99956375	u f e	-0.291662
-1.3396333	m f e	-0.21790561
-0.5319143	<s> r e	-0.35034674
-0.53884697	I r e	-0.21790561
-0.8586491	o r e	-0.26565966
-0.9778417	g r e	-0.21790561
-0.8833006	e r e	-0.33795825
-0.9461903	a r e	-0.26565966
-1.0246838	t r e	-0.21790561
-0.6731966	i r e	-0.25850764
-0.29019246	f r e	-0.47564715
-0.6551343	r r e	-0.21790561
-0.71565825	k r e	-0.2532199
-0.8219722	u r e	-0.24592358
-0.66239923	h r e	-0.21790561
-0.7440438	c r e	-0.21790561
-1.0649918	p r e	-0.21790561
-0.7440438	d r e	-0.21790561
-0.7923561	P r e	-0.21790561
-0.48056903	B r e	-0.21790561
-0.53884697	G r e	-0.21790561
-0.7275164	F r e	-0.21790561
-1.8394884	<s> k e	-1.4695822
-0.98323554	n k e	-0.3002703
-0.9842366	o k e	-0.48960266
-0.805488	e k e	-0.7039461
-0.8651765	a k e	-0.46703365
-1.0077388	s k e	-0.21790561
-0.3368539	t k e	-0.21790561
-0.8443642	i k e	-0.57400143
-0.95671415	r k e	-0.21790561
-0.84845954	u k e	-0.6707805
-0.7555812	m k e	-0.32611844
-0.9806378	c k e	-0.21790561
-3.4581034	<s> u e	-0.21790561
-1.3997862	n u e	-0.21790561
-1.6861224	g u e	-0.291662
-2.1812837	l u e	-0.21790561
-1.8917305	q u e	-0.21790561
-0.69631916	<s> v e	-0.30610543
-0.38413963	n v e	-0.21790561
-0.62238157	o v e	-0.32043025
-0.47857845	e v e	-0.43820906
-0.5150954	a v e	-0.5131726
-0.38413963	M v e	-0.291662
-0.48489574	i v e	-0.46242926
-0.69838977	u v e	-0.43104416
-0.66630864	m v e	-0.40149927
-0.687354	<s> l e	-1.1712017
-0.8426538	I l e	-0.21790561
-0.98935896	o l e	-0.46169013
-0.72406036	e l e	-0.7525583
-0.82671106	a l e	-0.7375909
-1.0271122	t l e	-0.21790561
-0.6560663	i l e	-0.7068643
-0.81733733	A l e	-0.21790561
-0.55358547	f l e	-0.21790561
-0.6745003	r l e	-0.21790561
-0.78925085	u l e	-0.69842774
-0.6156178	l l e	-0.24592358
-0.8672832	m l e	-0.24915124
-0.7833757	h l e	-0.5171975
-0.83336705	b l e	-0.291662
-0.8034116	c l e	-0.21790561
-0.60203236	p l e	-0.21790561
-0.71208864	d l e	-0.38259363
-0.6745003	C l e	-0.21790561
-0.3157765	D l e	-0.21790561
-0.6745003	K l e	-0.21790561
-1.1630095	H l e	-0.21790561
-0.24569495	F l e	-0.21790561
-1.2933531	<s> m e	-0.7538704
-1.0079961	I m e	-0.21790561
-0.53912306	n m e	-0.291662
-1.1926397	o m e	-0.6103812
-1.0292526	e m e	-0.5171975
-1.0473746	a m e	-0.60704464
-0.9155469	s m e	-0.21790561
-0.4232376	M m e	-0.35070843
-0.2692006	t m e	-0.291662
-0.9581439	i m e	-0.5485492
-0.6130778	A m e	-0.21790561
-0.93174636	u m e	-0.68211365
-0.9891982	m m e	-0.21790561
-0.34918383	p m e	-0.21790561
-1.1943235	U m e	-0.21790561
-1.1526482	<s> h e	-0.21790561
-1.3128554	o h e	-0.21790561
-0.7821515	g h e	-0.48960266
-0.9848601	y h e	-0.21790561
-1.3333755	e h e	-0.21790561
-1.5008473	a h e	-0.21790561
-0.87411463	s h e	-0.4284487
-0.79609466	t h e	-0.6491058
-1.0838449	i h e	-0.21790561
-1.1990663	r h e	-0.21790561
-0.8327515	k h e	-0.48192385
-1.1376063	m h e	-0.21790561
-0.77500206	b h e	-0.44006178
-1.1794711	c h e	-0.2532199
-0.7645067	p h e	-0.5774097
-0.8151472	q h e	-0.43820906
-0.7782562	x h e	-0.29992944
-0.8314974	P h e	-0.24592358
-0.5574946	T h e	-0.28032696
-0.92176956	S h e	-0.21790561
-0.70431286	K h e	-0.32611844
-0.77036995	Q h e	-0.21790561
-0.49023914	<s> b e	-1.1765877
-0.7623407	o b e	-0.48711994
-0.71171105	e b e	-0.47271737
-0.8472104	a b e	-0.58072186
-0.7081065	s b e	-0.21790561
-0.788074	M b e	-0.26565966
-0.8836975	i b e	-0.69353664
-0.7294032	u b e	-0.48573384
-0.25588825	l b e	-0.21790561
-0.8384171	m b e	-0.45860803
-0.56440306	<s> w e	-1.0681089
-0.31542957	n w e	-0.440752
-0.44972178	j w e	-0.35070843
-0.5413685	o w e	-0.36750966
-0.5929573	g w e	-0.30610543
-0.512235	y w e	-0.30610543
-0.6621932	e w e	-0.24112663
-0.7356947	a w e	-0.44228035
-0.459596	s w e	-0.5104093
-0.42630708	z w e	-0.4518141
-0.58528364	t w e	-0.32611844
-0.39889666	i w e	-0.718601
-0.6393467	r w e	-0.21790561
-0.43579653	k w e	-0.44290984
-0.55346537	u w e	-0.30905265
-0.49579445	l w e	-0.38004312
-0.3999416	h w e	-0.46148902
-0.2624188	b w e	-0.21790561
-0.4450705	c w e	-0.2862575
-0.62298876	L w e	-0.2532199
-0.33592603	d w e	-0.48960266
-0.37715575	q w e	-0.31201446
-0.21463276	x w e	-0.42513615
-0.46508303	C w e	-0.21790561
-0.58568937	D w e	-0.21790561
-0.20706554	Z w e	-0.26565966
-0.2624188	X w e	-0.21790561
-0.59617835	K w e	-0.21790561
-0.82621133	<s> c e	-0.37923026
-0.7410419	n c e	-0.4840863
-0.9491263	o c e	-0.26993832
-1.2139245	g c e	-0.24592358
-0.93291795	e c e	-0.24592358
-0.71830845	a c e	-0.5979099
-0.68631965	i c e	-0.57457674
-0.5938466	r c e	-0.26565966
-0.9873901	k c e	-0.21790561
-1.0754081	u c e	-0.26565966
-0.57026315	m c e	-0.43820906
-0.8596402	c c e	-0.21790561
-0.49973097	N c e	-0.47564715
-0.38245043	<s> L e	-1.1560644
-1.3125054	i L e	-0.21790561
-1.361893	<s> p e	-0.4665583
-0.6688224	I p e	-0.21790561
-0.7832105	o p e	-0.27925047
-0.31328157	y p e	-0.21790561
-0.7367595	e p e	-0.4821967
-1.1800506	a p e	-0.21790561
-0.48892528	s p e	-0.291662
-1.1677659	i p e	-0.2532199
-0.80997944	A p e	-0.21790561
-0.84779006	m p e	-0.40849367
-0.49762124	p p e	-0.21790561
-0.31328157	O p e	-0.21790561
-0.6688224	S p e	-0.21790561
-0.79518193	<s> d e	-0.32793027
-0.32629335	I d e	-0.21790561
-0.8668426	n d e	-0.4299496
-1.1102766	o d e	-0.3135114
-0.69729227	e d e	-0.4851439
-0.7914901	a d e	-0.61504257
-0.8046222	i d e	-0.3968381
-0.77972275	A d e	-0.21790561
-0.9230217	r d e	-0.21790561
-0.9219253	u d e	-0.43104416
-1.0617222	m d e	-0.291662
-0.7990974	N d e	-0.26565966
-0.9343427	<s> q e	-0.3135114
-0.56502867	I q e	-0.21790561
-1.0308897	n q e	-0.2532199
-0.75924695	o q e	-0.55654943
-1.1635153	g q e	-0.24112663
-0.6173369	e q e	-0.5725572
-0.99232084	a q e	-0.29220077
-0.87145436	i q e	-0.37714687
-0.99725646	u q e	-0.4052997
-0.9623739	m q e	-0.26565966
-0.8371539	G q e	-0.21790561
-1.0011598	<s> x e	-0.8312684
-0.5450079	I x e	-0.21790561
-0.63451725	n x e	-0.5104093
-0.82625026	o x e	-0.27925047
-0.584738	g x e	-0.29220077
-0.46383825	e x e	-0.581391
-0.69495314	a x e	-0.5253593
-0.58233035	i x e	-0.52436477
-0.75314707	k x e	-0.21790561
-0.87028575	u x e	-0.35070843
-0.4654131	m x e	-0.48960266
-1.6368716	<s> N e	-0.3646639
-1.361621	o N e	-0.21790561
-1.2074562	a N e	-0.21790561
-0.85803854	<s> C e	-0.3768379
-0.8799659	e C e	-0.26565966
-1.0841597	u C e	-0.21790561
-0.8707222	<s> P e	-0.32047004
-0.6169688	e P e	-0.2532199
-0.81767225	i P e	-0.26565966
-0.8609134	<s> B e	-0.50109917
-1.3111496	o B e	-0.21790561
-1.141091	e B e	-0.21790561
-0.8462075	a B e	-0.21790561
-0.9606878	u B e	-0.21790561
-0.3515431	<s> D e	-0.5449194
-0.8231257	e D e	-0.291662
-0.959575	u D e	-0.21790561
-1.0577817	<s> W e	-0.21790561
-1.399216	<s> Z e	-0.35070843
-1.4220058	e Z e	-0.21790561
-1.2046891	<s> T e	-0.2532199
-0.7622337	I T e	-0.21790561
-0.7622337	o T e	-0.21790561
-1.0502383	u T e	-0.21790561
-0.25952902	e X e	-0.291662
-0.5879988	u X e	-0.21790561
-0.9965743	<s> S e	-0.5075899
-1.0817748	I S e	-0.21790561
-1.0199051	o S e	-0.21790561
-0.78369707	e S e	-0.4967523
-0.62102723	a S e	-0.35070843
-0.58787596	i S e	-0.34619725
-0.80997133	u S e	-0.21790561
-0.3322675	m S e	-0.21790561
-0.80997133	U S e	-0.21790561
-1.0069693	<s> V e	-0.21790561
-0.5661076	i V e	-0.21790561
-0.32297456	m V e	-0.21790561
-0.23641102	<s> R e	-0.6007531
-0.7902953	i R e	-0.21790561
-2.2916589	<s> K e	-0.21790561
-1.1064373	e K e	-0.21790561
-1.0480456	<s> H e	-0.26565966
-0.900082	u H e	-0.21790561
-0.9407194	<s> F e	-0.6517384
-0.6270097	o F e	-0.21790561
-0.99919754	e F e	-0.21790561
-0.54754364	<s> Y e	-0.6728435
-0.7396746	o Q e	-0.291662
-0.74745446	e Q e	-0.291662
-0.60039914	i Q e	-0.21790561
-0.91802096	<s> n a	-1.634688
-1.2624763	I n a	-0.21790561
-1.1187536	n n a	-0.21790561
-1.0709146	o n a	-0.6011422
-0.771946	y n a	-0.21790561
-1.2047596	e n a	-0.47341532
-1.0064768	a n a	-0.6399503
-1.1791697	i n a	-0.67618185
-0.66358054	r n a	-0.21790561
-1.2462093	u n a	-0.3912335
-0.9943941	m n a	-0.40762025
-1.3624321	<s> j a	-0.21790561
-0.7289547	n j a	-0.60058594
-0.8865171	o j a	-0.21790561
-0.62886155	e j a	-0.2532199
-1.4526848	a j a	-0.21790561
-1.3344882	i j a	-0.21790561
-0.73781675	u j a	-0.26565966
-1.3914187	C o a	-0.21790561
-1.3120686	B o a	-0.21790561
-0.6834515	<s> g a	-0.3419777
-0.72863257	I g a	-0.21790561
-0.8658123	n g a	-0.5954668
-0.9380452	o g a	-0.29235482
-1.208821	g g a	-0.21790561
-0.7984483	e g a	-0.36750966
-0.89516145	a g a	-0.3791604
-0.23933753	M g a	-0.27925047
-0.8802875	i g a	-0.37520713
-0.90696305	r g a	-0.21790561
-0.95357144	u g a	-0.29235482
-0.7397042	m g a	-0.43462798
-0.6314423	N g a	-0.2532199
-0.6552067	<s> y a	-1.3046126
-0.5472514	I y a	-0.21790561
-0.6824555	n y a	-0.6243743
-0.5909281	o y a	-0.41241127
-0.72780734	e y a	-0.37358403
-0.804089	a y a	-0.5352618
-0.243077	M y a	-0.291662
-0.7311551	t y a	-0.47178707
-0.5400058	i y a	-0.5297876
-0.67295504	u y a	-0.38392925
-0.52658945	m y a	-0.53023845
-0.7001535	d y a	-0.26565966
-0.28962484	N y a	-0.2926323
-0.3898383	T y a	-0.21790561
-0.6661521	U y a	-0.21790561
-1.8177572	n e a	-0.21790561
-1.8995358	g e a	-0.21790561
-1.9942949	y e a	-0.21790561
-2.0312705	s e a	-0.21790561
-1.3431743	r e a	-0.26565966
-2.0544074	l e a	-0.21790561
-1.6917646	p e a	-0.21790561
-1.0974777	T e a	-0.21790561
-1.5840472	S e a	-0.21790561
-1.2404611	R e a	-0.21790561
-0.83228934	H e a	-0.21790561
-0.82822835	Y e a	-0.21790561
-1.7902359	g a a	-0.21790561
-2.1404078	y a a	-0.21790561
-1.9091848	t a a	-0.21790561
-1.6405705	i a a	-0.21790561
-1.7577299	r a a	-0.21790561
-1.8370016	v a a	-0.21790561
-1.7807499	l a a	-0.35070843
-1.9070829	m a a	-0.21790561
-2.2703543	h a a	-0.21790561
-2.3157403	w a a	-0.21790561
-1.9107988	d a a	-0.21790561
-0.807121	<s> s a	-1.1327595
-0.6638351	I s a	-0.21790561
-1.1101195	n s a	-0.21790561
-0.7477132	o s a	-0.39739773
-0.939239	e s a	-0.47686997
-0.9089535	a s a	-0.4657924
-0.33815852	z s a	-0.21790561
-0.80131036	t s a	-0.41998062
-0.8060383	i s a	-0.6443679
-0.8601156	u s a	-0.43809164
-0.8298511	m s a	-0.29235482
-0.81431395	h s a	-0.21790561
-0.5930444	w s a	-0.21790561
-0.73052675	T s a	-0.35070843
-0.17872417	<s> M a	-0.81452715
-0.89999574	I M a	-0.21790561
-1.0768591	o M a	-0.27925047
-0.83410645	e M a	-0.31831706
-0.29532284	a M a	-0.39423403
-0.8102166	i M a	-0.29235482
-1.0709273	u M a	-0.28232026
-0.5998467	m M a	-0.21790561
-0.79681176	<s> z a	-1.1021523
-0.54246366	I z a	-0.21790561
-0.69111043	n z a	-0.3804709
-0.7014564	o z a	-0.48960266
-0.63126874	e z a	-0.56385386
-0.7343232	a z a	-0.706157
-0.20077637	M z a	-0.6517384
-0.59220034	i z a	-0.6110676
-0.6545949	u z a	-0.52108854
-0.3093095	v z a	-0.21790561
-0.77245826	m z a	-0.30244932
-0.3093095	U z a	-0.21790561
-1.0900874	<s> t a	-0.27201578
-0.9732588	n t a	-0.37540206
-0.91791606	o t a	-0.4518141
-1.0416621	e t a	-0.40762025
-1.1954926	a t a	-0.28858742
-0.8299138	s t a	-0.25850764
-1.0286325	i t a	-0.3147042
-1.1836295	r t a	-0.21790561
-0.9685836	k t a	-0.21790561
-1.2552161	u t a	-0.27925047
-1.2668896	m t a	-0.26565966
-0.6006235	S t a	-0.3135114
-3.1390257	<s> i a	-0.35070843
-1.541457	n i a	-0.26565966
-1.0886272	o i a	-0.21790561
-1.3746847	e i a	-0.21790561
-1.9464092	s i a	-0.21790561
-1.2894995	t i a	-0.21790561
-1.6920419	i i a	-0.21790561
-1.4558413	r i a	-0.21790561
-2.0817654	l i a	-0.21790561
-1.9341233	m i a	-0.21790561
-1.9329964	h i a	-0.21790561
-1.8325185	b i a	-0.21790561
-1.3639449	c i a	-0.26565966
-1.9569788	d i a	-0.21790561
-1.2927105	D i a	-0.21790561
-0.9913236	<s> f a	-0.4104214
-0.67857766	I f a	-0.21790561
-0.7349221	o f a	-0.39646593
-0.93616974	e f a	-0.26565966
-0.62980354	a f a	-0.6023137
-0.5030941	M f a	-0.291662
-0.7487681	i f a	-0.5260068
-0.77054924	f f a	-0.21790561
-0.5846737	u f a	-0.4267269
-0.6741936	m f a	-0.41042146
-1.4108695	<s> r a	-0.21790561
-1.0184293	o r a	-0.3135114
-0.6104773	g r a	-0.26565966
-1.0807543	e r a	-0.24592358
-0.896653	a r a	-0.24112663
-0.43820933	t r a	-0.26993832
-0.8714226	i r a	-0.2532199
-0.91626555	f r a	-0.21790561
-1.0679923	k r a	-0.21790561
-1.185193	u r a	-0.21790561
-0.39459518	m r a	-0.26565966
-0.67714113	h r a	-0.291662
-0.7631404	c r a	-0.21790561
-1.0901855	p r a	-0.21790561
-0.4908755	d r a	-0.21790561
-0.7631404	B r a	-0.21790561
-0.24492745	T r a	-0.2532199
-0.7475616	F r a	-0.21790561
-1.249478	<s> k a	-1.0842919
-0.92856884	n k a	-0.374472
-1.1761149	o k a	-0.3646639
-0.8363288	e k a	-0.5565546
-0.6892307	a k a	-0.58346176
-1.0449469	s k a	-0.21790561
-0.7936342	i k a	-0.49063736
-0.78739893	u k a	-0.4461412
-0.9303125	m k a	-0.27925047
-0.9786257	N k a	-0.30610543
-1.4242289	o u a	-0.21790561
-1.1159542	e u a	-0.21790561
-1.6690277	t u a	-0.21790561
-2.2907405	k u a	-0.21790561
-2.1709228	b u a	-0.21790561
-0.45263928	<s> v a	-0.33795825
-0.66790366	o v a	-0.35044536
-0.56617045	e v a	-0.40657565
-0.58683056	a v a	-0.47299987
-0.63360584	M v a	-0.21790561
-0.80809236	i v a	-0.44294754
-0.5054853	r v a	-0.21790561
-0.5953859	u v a	-0.40301546
-0.5207101	m v a	-0.52363694
-0.5054853	h v a	-0.21790561
-0.5054853	U v a	-0.21790561
-1.020814	<s> l a	-1.0932469
-0.84213436	I l a	-0.21790561
-0.3935897	n l a	-0.21790561
-0.8011662	o l a	-0.6317868
-0.75006884	g l a	-0.21790561
-0.70739305	e l a	-0.70323926
-0.75288385	a l a	-0.7155776
-0.67414755	M l a	-0.21790561
-0.542359	t l a	-0.32556528
-0.83980805	i l a	-0.6013882
-0.918829	k l a	-0.21790561
-0.8134834	u l a	-0.5995968
-1.1671783	l l a	-0.21790561
-0.60742027	m l a	-0.35244218
-0.6435349	h l a	-0.58751917
-0.67454934	b l a	-0.27587456
-0.80293703	c l a	-0.21790561
-0.60180044	p l a	-0.21790561
-0.7119332	d l a	-0.55654943
-0.67414755	C l a	-0.21790561
-0.55331844	P l a	-0.21790561
-0.67414755	K l a	-0.21790561
-0.51506877	H l a	-0.2532199
-0.32822442	<s> m a	-1.1080823
-0.85759944	n m a	-0.21790561
-1.0684128	o m a	-0.58702105
-0.99818486	e m a	-0.48120442
-0.9498131	a m a	-0.6847787
-0.9146467	s m a	-0.21790561
-0.9394552	M m a	-0.21790561
-0.3489393	z m a	-0.21790561
-1.0220357	i m a	-0.47252578
-0.61262894	A m a	-0.21790561
-0.8474174	r m a	-0.21790561
-0.9066844	u m a	-0.44067916
-0.8138171	m m a	-0.35070843
-0.3489393	S m a	-0.21790561
-1.1926146	U m a	-0.21790561
-0.4134868	<s> h a	-0.69656837
-0.28956646	n h a	-0.21790561
-0.7662753	o h a	-0.21790561
-0.6023593	g h a	-0.35026333
-0.7200765	y h a	-0.21790561
-0.9584787	e h a	-0.35070843
-0.4481948	a h a	-0.47334418
-0.73953867	s h a	-0.40154937
-0.88979137	t h a	-0.47385392
-0.6517477	i h a	-0.5725572
-0.5546841	r h a	-0.37643415
-0.8025698	k h a	-0.522561
-0.66539913	u h a	-0.34619725
-0.289951	v h a	-0.21790561
-0.22716166	l h a	-0.21790561
-1.0484774	m h a	-0.21790561
-0.64113003	b h a	-0.51837754
-0.5858448	c h a	-0.5329228
-0.64571345	p h a	-0.5756136
-0.63429505	q h a	-0.39544377
-0.59781086	x h a	-0.4512528
-0.34326622	C h a	-0.26993832
-0.45356256	P h a	-0.37110487
-0.44050986	B h a	-0.27925047
-0.63171524	T h a	-0.291662
-0.289951	G h a	-0.21790561
-0.63883907	X h a	-0.21790561
-0.8356717	S h a	-0.21790561
-0.9409122	R h a	-0.21790561
-0.6704663	K h a	-0.26064092
-0.45714277	Q h a	-0.21790561
-0.32783717	<s> b a	-1.4758335
-0.65228796	I b a	-0.21790561
-0.6586741	o b a	-0.50860447
-0.6953676	e b a	-0.5455733
-0.6325991	a b a	-0.6681805
-0.65228796	s b a	-0.21790561
-0.48989663	M b a	-0.32611844
-0.67917717	i b a	-0.57673156
-0.5366676	A b a	-0.21790561
-0.30591184	r b a	-0.21790561
-0.7127309	u b a	-0.4240362
-0.8081836	m b a	-0.49941075
-0.5366676	d b a	-0.21790561
-0.65228796	U b a	-0.21790561
-0.28865135	<s> w a	-1.4533588
-0.40354115	n w a	-0.37181354
-0.5890646	j w a	-0.21790561
-0.5809477	o w a	-0.34607184
-0.33867583	g w a	-0.28032696
-0.36053157	y w a	-0.30178818
-0.51797354	e w a	-0.24799576
-0.65644926	a w a	-0.37520713
-0.32417357	s w a	-0.44800934
-0.423651	z w a	-0.4454088
-0.33422273	t w a	-0.3290646
-0.6050042	i w a	-0.37485263
-0.25820976	f w a	-0.21790561
-0.41484186	r w a	-0.21790561
-0.43382117	k w a	-0.5276262
-0.70887446	u w a	-0.27982977
-0.49381915	l w a	-0.47876582
-0.45839027	m w a	-0.21790561
-0.39797267	h w a	-0.3378272
-0.27810445	c w a	-0.39544377
-0.47849348	L w a	-0.28032696
-0.4067254	d w a	-0.32334423
-0.3753261	q w a	-0.38938046
-0.5549647	x w a	-0.27587456
-0.45839027	C w a	-0.21790561
-0.33264375	D w a	-0.21790561
-0.20396316	S w a	-0.21790561
-0.44463253	K w a	-0.23773232
-0.25820976	Q w a	-0.21790561
-0.563525	<s> c a	-0.49916187
-0.59175265	I c a	-0.21790561
-0.8786517	n c a	-0.47089365
-0.58235747	o c a	-0.39811593
-0.7967597	g c a	-0.27240184
-0.6731762	e c a	-0.53722405
-0.7693013	a c a	-0.3638554
-0.7513288	i c a	-0.4610906
-0.7592142	k c a	-0.26565966
-0.6759973	u c a	-0.40466478
-1.2944418	m c a	-0.21790561
-0.84826434	N c a	-0.291662
-0.8248102	<s> L a	-0.5684072
-0.66050184	o L a	-0.6517384
-0.8080343	e L a	-0.26565966
-0.60955447	a L a	-0.291662
-1.1013476	i L a	-0.21790561
-0.7535692	u L a	-0.291662
-1.3974893	<s> p a	-0.34827355
-1.2493979	o p a	-0.21790561
-0.8682641	e p a	-0.32793027
-0.82734716	a p a	-0.3135114
-0.7741038	s p a	-0.21790561
-0.7330709	M p a	-0.26565966
-0.8931502	i p a	-0.38046497
-0.77011734	u p a	-0.26993832
-0.7887178	m p a	-0.36079508
-0.55903125	x p a	-0.21790561
-0.55903125	E p a	-0.21790561
-0.68170893	S p a	-0.21790561
-0.6590677	<s> d a	-0.26378414
-0.8813315	n d a	-0.4316145
-0.9369748	o d a	-0.28232026
-1.1851792	e d a	-0.23773232
-0.76172185	a d a	-0.48703173
-0.7253936	i d a	-0.4551807
-0.9634356	r d a	-0.21790561
-0.7823383	u d a	-0.31831706
-0.5750715	m d a	-0.52436477
-0.82053787	N d a	-0.3135114
-0.9108751	<s> q a	-0.291662
-0.5555755	n q a	-0.48607156
-0.8233832	o q a	-0.24112663
-0.68820107	g q a	-0.39014646
-0.718165	e q a	-0.35034674
-0.6789401	a q a	-0.49208292
-0.7020673	i q a	-0.40596268
-0.30965713	A q a	-0.21790561
-0.84923655	k q a	-0.21790561
-0.79790187	u q a	-0.36335382
-0.5251575	m q a	-0.29220077
-0.48394683	N q a	-0.291662
-0.66064715	U q a	-0.21790561
-0.08382393	<s> x a	-1.4433898
-0.52028733	I x a	-0.21790561
-0.73216003	n x a	-0.41982347
-0.6025729	o x a	-0.4518141
-0.57412267	g x a	-0.27240184
-0.51416945	e x a	-0.33402497
-0.59696275	a x a	-0.45737314
-0.6199397	i x a	-0.4247446
-0.46560696	k x a	-0.2532199
-0.7138019	u x a	-0.32793027
-0.8373743	m x a	-0.21790561
-0.29620853	G x a	-0.21790561
-0.6310317	U x a	-0.21790561
-0.7779803	<s> N a	-0.6392694
-1.6535003	e N a	-0.21790561
-1.1229978	a N a	-0.21790561
-1.3800722	i N a	-0.291662
-1.2157454	u N a	-0.21790561
-0.8989618	<s> C a	-0.26565966
-0.54733974	I C a	-0.21790561
-0.3121533	o C a	-0.21790561
-0.523883	e C a	-0.4104214
-0.66626835	a C a	-0.21790561
-0.54788274	i C a	-0.35070843
-0.6645598	u C a	-0.21790561
-0.8423558	<s> P a	-0.45534173
-0.3717358	e P a	-0.4967523
-1.0190775	a P a	-0.21790561
-0.92202824	i P a	-0.26565966
-0.32730773	m P a	-0.21790561
-0.37309054	<s> B a	-0.4807306
-0.5705995	e B a	-0.30905265
-0.25564042	a B a	-0.31004298
-0.7378829	i B a	-0.21790561
-0.70822465	u B a	-0.2532199
-1.6173011	<s> D a	-0.21790561
-0.59963983	e D a	-0.2532199
-0.60851604	a D a	-0.21790561
-0.906441	u D a	-0.21790561
-0.8400885	<s> W a	-0.26565966
-0.43606353	e W a	-0.21790561
-0.5854973	<s> Z a	-0.7410918
-0.5981388	I Z a	-0.21790561
-0.49458382	o Z a	-0.21790561
-1.1038954	e Z a	-0.21790561
-0.6803343	a Z a	-0.21790561
-0.6176951	i Z a	-0.21790561
-0.2806831	m Z a	-0.21790561
-0.8974985	<s> T a	-0.4967523
-0.6393241	a T a	-0.21790561
-1.1375259	i T a	-0.21790561
-1.2872324	<s> G a	-0.21790561
-0.5986955	e G a	-0.26565966
-0.74709094	a G a	-0.21790561
-0.6849528	i G a	-0.26565966
-0.03702129	<s> X a	-1.545685
-1.1687826	<s> S a	-0.38257873
-1.267809	I S a	-0.21790561
-0.8257394	e S a	-0.28232026
-1.0172132	i S a	-0.21790561
-0.33744052	a V a	-0.21790561
-0.33744052	u V a	-0.21790561
-1.4012094	<s> R a	-0.21790561
-1.4885349	<s> K a	-0.48396656
-1.3519095	e K a	-0.21790561
-1.1139811	a K a	-0.21790561
-1.0724167	<s> J a	-0.291662
-0.248234	o J a	-0.21790561
-0.19657892	e J a	-0.21790561
-0.248234	a J a	-0.21790561
-0.40438667	<s> H a	-0.52795416
-1.174076	e H a	-0.21790561
-0.74466693	<s> F a	-0.6656939
-0.62610877	o F a	-0.21790561
-0.99707794	e F a	-0.21790561
-0.53719085	<s> Y a	-0.51126856
-0.7288069	e Y a	-0.21790561
-0.33872107	a Y a	-0.21790561
-0.21188836	<s> Q a	-0.581391
-1.0593029	i Q a	-0.21790561
-0.6820091	u Q a	-0.21790561
-0.97047377	<s> I s	-1.0812922
-0.6595505	e I s	-0.21790561
-1.4886066	I n s	-0.21790561
-1.8328532	o n s	-0.21790561
-1.6430043	e n s	-0.3159917
-2.073922	a n s	-0.21790561
-1.7245126	<s> j s	-0.21790561
-1.686814	<s> o s	-0.83480513
-1.522232	n o s	-0.29235482
-1.4264456	o o s	-0.26565966
-1.0543066	g o s	-0.36335382
-1.2883968	y o s	-0.26565966
-1.6360971	s o s	-0.21790561
-1.2783724	M o s	-0.21790561
-1.367966	z o s	-0.33771798
-1.5246627	r o s	-0.21790561
-1.4063404	k o s	-0.28232026
-1.355626	v o s	-0.21790561
-1.3501673	l o s	-0.24915124
-1.4079998	m o s	-0.291662
-1.2800287	h o s	-0.27201578
-1.5897087	b o s	-0.21790561
-1.5891418	w o s	-0.21790561
-1.4010288	c o s	-0.291662
-0.92517763	p o s	-0.24112663
-1.2839096	q o s	-0.26565966
-1.1903018	B o s	-0.21790561
-0.3925916	G o s	-0.47564715
-1.3553264	S o s	-0.21790561
-2.1675975	n g s	-0.21790561
-1.8451449	n y s	-0.21790561
-1.8775793	e y s	-0.21790561
-0.37307552	s y s	-0.21790561
-0.37307552	S y s	-0.21790561
-0.9341929	<s> e s	-1.7845508
-1.1609832	n e s	-0.4276668
-0.9872978	g e s	-0.422996
-1.2833986	y e s	-0.36307424
-1.2114397	s e s	-0.42111927
-1.5435482	z e s	-0.2532199
-1.4926696	t e s	-0.21790561
-0.63220584	i e s	-0.6517384
-1.332601	f e s	-0.26565966
-0.85273385	r e s	-0.25850764
-1.6757922	k e s	-0.21790561
-1.0467907	u e s	-0.21790561
-1.4173045	v e s	-0.26565966
-1.2585504	l e s	-0.37181354
-1.5142245	m e s	-0.21790561
-1.2943135	h e s	-0.48960266
-1.344528	b e s	-0.4349763
-1.2674596	w e s	-0.44725674
-1.0614218	c e s	-0.26993832
-1.0066681	p e s	-0.24592358
-1.2779998	d e s	-0.21790561
-0.68276393	q e s	-0.7186852
-0.7395173	x e s	-0.55654943
-1.0364063	T e s	-0.21790561
-0.6397771	X e s	-0.21790561
-1.4626313	S e s	-0.21790561
-1.1562779	R e s	-0.21790561
-1.2812681	<s> a s	-1.1999885
-1.2709982	n a s	-0.35034674
-0.63503826	o a s	-0.21790561
-1.6071951	g a s	-0.21790561
-1.2702029	y a s	-0.4348226
-1.2941813	e a s	-0.21790561
-1.3078011	a a s	-0.21790561
-1.2348392	s a s	-0.4348226
-1.244385	M a s	-0.3135114
-1.3299236	z a s	-0.291662
-1.3719862	t a s	-0.21790561
-0.95407295	r a s	-0.291662
-1.5615427	k a s	-0.23773232
-1.4422762	v a s	-0.26565966
-1.2835217	l a s	-0.34754568
-1.2138214	m a s	-0.4652239
-1.2734251	h a s	-0.3824776
-1.2632202	b a s	-0.4190995
-1.4136534	w a s	-0.4316234
-1.7117914	c a s	-0.21790561
-1.0731758	p a s	-0.25850764
-1.6698736	d a s	-0.21790561
-1.5334134	q a s	-0.291662
-1.6983873	x a s	-0.21790561
-1.3004192	C a s	-0.21790561
-0.9328753	P a s	-0.21790561
-1.4476565	B a s	-0.21790561
-0.9681191	T a s	-0.21790561
-1.325428	S a s	-0.21790561
-0.8866389	F a s	-0.21790561
-1.1027837	I s s	-0.21790561
-1.5015814	e s s	-0.3135114
-2.1721525	a s s	-0.21790561
-0.9449092	A s s	-0.21790561
-1.9053085	o M s	-0.21790561
-1.426974	u M s	-0.21790561
-1.8168869	n z s	-0.21790561
-1.0331416	<s> t s	-0.5479048
-0.34517533	I t s	-0.21790561
-0.9695637	n t s	-0.53981775
-0.8250107	o t s	-0.52363694
-1.0382074	e t s	-0.42062297
-0.8546487	a t s	-0.6515317
-1.1071829	M t s	-0.21790561
-1.0130931	t t s	-0.21790561
-0.7919603	i t s	-0.64659333
-0.7764084	u t s	-0.52363694
-0.67318934	m t s	-0.55654943
-0.744828	h t s	-0.21790561
-0.58342725	N t s	-0.30610543
-0.92982113	<s> i s	-1.8038568
-1.0805719	n i s	-0.5937193
-1.076614	j i s	-0.21790561
-1.2609088	g i s	-0.2686503
-1.2397065	y i s	-0.4773809
-1.3449838	s i s	-0.5467501
-1.0434784	M i s	-0.26565966
-1.3090419	z i s	-0.59505486
-1.249791	t i s	-0.28232026
-0.9599124	f i s	-0.32611844
-0.8658703	r i s	-0.25850764
-0.8208967	k i s	-0.36150625
-0.6467967	u i s	-0.21790561
-1.2693998	v i s	-0.291662
-1.2444407	l i s	-0.6587239
-1.0949596	m i s	-0.51175505
-1.0712557	h i s	-0.4190995
-1.031777	b i s	-0.50515586
-1.082448	w i s	-0.3724801
-1.04849	c i s	-0.37354872
-1.207789	p i s	-0.291662
-1.0829242	d i s	-0.3580837
-1.1692	q i s	-0.27587456
-1.1419814	x i s	-0.27587456
-1.4234108	Z i s	-0.21790561
-1.2974243	S i s	-0.21790561
-0.63991666	F i s	-0.21790561
-1.6467043	<s> A s	-0.440752
-1.5679084	o r s	-0.291662
-0.9201748	e r s	-0.5936623
-1.5895954	a r s	-0.21790561
-1.6746331	i r s	-0.21790561
-2.0006177	o k s	-0.21790561
-1.8833783	e k s	-0.291662
-2.1271107	i k s	-0.21790561
-0.7368618	r k s	-0.291662
-1.5229527	N k s	-0.21790561
-1.645688	<s> u s	-1.0482379
-1.2350444	g u s	-0.26993832
-1.429199	y u s	-0.21790561
-0.83873045	s u s	-0.4104214
-1.499731	z u s	-0.21790561
-0.9688383	r u s	-0.21790561
-1.4299926	k u s	-0.59234595
-1.0791173	v u s	-0.40762025
-1.3274939	l u s	-0.3931387
-1.2345767	h u s	-0.30905265
-1.15342	b u s	-0.4276668
-1.4143654	w u s	-0.25850764
-1.1996838	p u s	-0.21790561
-1.1429466	d u s	-0.2532199
-1.6435739	q u s	-0.21790561
-1.185361	x u s	-0.21790561
-1.3121012	B u s	-0.21790561
-1.1716322	G u s	-0.21790561
-1.2954402	K u s	-0.21790561
-0.90725833	Y u s	-0.21790561
-2.0288959	e l s	-0.21790561
-2.340309	a l s	-0.21790561
