\data\
ngram 1=57
ngram 2=1110
ngram 3=6067
ngram 4=19032
ngram 5=41111

\1-grams:
-2.8986413	<unk>	0
0	<s>	-2.6598752
-1.3472068	</s>	0
-1.7251396	A	-0.43570292
-1.9697108	B	-0.4241105
-1.7251396	E	-0.45167425
-1.8173904	T	-0.4271052
-1.7464309	I	-0.3965281
-1.9697108	D	-0.33587432
-1.6854537	S	-0.5407276
-1.9346732	K	-0.4327998
-1.7924266	H	-0.3675838
-1.9022524	L	-0.5134894
-1.9022524	W	-0.38353515
-2.095846	V	-0.31906992
-1.3930594	i	-1.0530021
-1.6668926	n	-0.8111113
-1.7464309	d	-0.7129118
-1.5151004	w	-0.9152513
-1.3834934	e	-1.0614161
-1.9697108	N	-0.46082124
-1.8438771	C	-0.37283483
-1.7464309	b	-0.8032561
-1.3741336	a	-1.0953414
-1.5696259	t	-0.9032332
-1.4028409	o	-1.0353973
-1.6319933	r	-0.7097352
-1.8720847	z	-0.7411313
-1.5024753	l	-0.8385608
-1.6319933	c	-0.8126419
-1.7464309	g	-0.7591052
-1.6854537	m	-0.79438895
-1.6854537	f	-0.78187805
-1.3649713	u	-0.9653685
-1.5281035	h	-0.9422461
-1.5281035	s	-0.8228842
-1.8173904	v	-0.7654871
-1.6668926	k	-0.7904742
-1.6155418	y	-0.78529763
-1.6668926	p	-0.76158583
-2.2063615	q	-0.38964584
-1.7924266	j	-0.7702359
-2.0496094	x	-0.3901733
-2.2063615	Z	-0.2783791
-2.2743394	Y	-0.28038704
-1.9022524	O	-0.39128092
-1.8173904	P	-0.39868215
-1.9022524	M	-0.46583948
-2.7661614	Ã	-0.26302797
-2.7661614	Å	-0.26302797
-1.9697108	F	-0.35976407
-2.095846	J	-0.39891952
-1.9697108	G	-0.35989004
-1.9022524	U	-0.39759544
-2.0496094	R	-0.30360678
-2.7661614	X	-0.26302797
-2.7661614	Â	-0.26302797

\2-grams:
-0.80566585	A </s>	0
-0.9732425	B </s>	0
-0.95451283	E </s>	0
-0.97928625	T </s>	0
-0.88995475	I </s>	0
-0.91273886	D </s>	0
-0.8871004	S </s>	0
-1.5443896	K </s>	0
-1.4961636	H </s>	0
-1.6802734	L </s>	0
-1.0776958	W </s>	0
-1.0389383	V </s>	0
-1.2973514	i </s>	0
-1.3435163	n </s>	0
-1.1378399	d </s>	0
-1.0148425	w </s>	0
-1.2770103	e </s>	0
-1.3083351	N </s>	0
-0.82429546	C </s>	0
-1.4314897	b </s>	0
-1.3001364	a </s>	0
-1.105086	t </s>	0
-1.3039578	o </s>	0
-1.4109713	r </s>	0
-1.3906795	z </s>	0
-1.0566691	l </s>	0
-1.8276209	c </s>	0
-1.2067077	g </s>	0
-1.3462957	m </s>	0
-1.0922588	f </s>	0
-1.1979574	u </s>	0
-1.2491939	h </s>	0
-0.88747936	s </s>	0
-1.4262717	v </s>	0
-1.0646728	k </s>	0
-0.6956694	y </s>	0
-1.16105	p </s>	0
-0.8141997	q </s>	0
-1.343123	j </s>	0
-0.7868824	x </s>	0
-1.1872224	Z </s>	0
-1.0052122	Y </s>	0
-0.571175	O </s>	0
-0.90218556	P </s>	0
-1.590487	M </s>	0
-1.2993054	F </s>	0
-1.4816135	G </s>	0
-0.8904706	U </s>	0
-0.9402245	R </s>	0
-0.3198358	Â </s>	0
-2.1492593	<s> A	-0.95863146
-1.9096375	A A	-0.19893673
-1.5174328	B A	-0.24219115
-1.6897122	E A	-0.19893673
-1.1158003	T A	-0.31609717
-1.8524356	I A	-0.19893673
-1.4544075	D A	-0.31640917
-0.86806375	S A	-0.39846727
-1.274443	K A	-0.2736228
-1.4528962	H A	-0.19893673
-1.096465	L A	-0.38062364
-0.73535436	W A	-0.44103593
-2.6230783	e A	-0.19893673
-1.5539429	N A	-0.2736228
-1.2905838	Z A	-0.19893673
-1.0700294	Y A	-0.19893673
-1.4502177	P A	-0.19893673
-1.7763159	M A	-0.2537131
-1.6493564	F A	-0.19893673
-1.665889	G A	-0.19893673
-1.4779623	R A	-0.19893673
-2.093	<s> B	-1.3500204
-1.6049503	A B	-0.19893673
-1.9919086	E B	-0.19893673
-1.9057767	T B	-0.19893673
-1.7381421	I B	-0.19893673
-1.98359	L B	-0.19893673
-2.0971498	i B	-0.3634122
-1.8636888	e B	-0.41499066
-2.033822	N B	-0.19893673
-2.0813494	a B	-0.3673277
-2.4592443	u B	-0.2736228
-1.2419322	U B	-0.2537131
-2.3018005	<s> E	-0.86277694
-1.3107219	B E	-0.19893673
-1.8842613	E E	-0.19893673
-1.5993762	T E	-0.19893673
-1.8524356	I E	-0.19893673
-1.4544075	D E	-0.19893673
-1.1622072	S E	-0.2537131
-1.6841072	H E	-0.19893673
-1.096465	L E	-0.3314468
-1.3564465	W E	-0.19893673
-0.87144995	V E	-0.2736228
-2.5987709	i E	-0.19893673
-1.5539429	N E	-0.24219115
-1.7374326	C E	-0.19893673
-1.0700294	Y E	-0.19893673
-1.6855448	O E	-0.19893673
-1.6033797	M E	-0.19893673
-1.6493564	F E	-0.19893673
-1.4654993	J E	-0.19893673
-1.4319391	G E	-0.19893673
-1.4779623	R E	-0.19893673
-2.3115845	<s> T	-1.0578498
-1.5769849	A T	-0.2736228
-1.2344764	E T	-0.2972977
-1.2235538	I T	-0.24219115
-1.7143481	D T	-0.19893673
-1.7588332	S T	-0.19893673
-1.7178197	H T	-0.19893673
-1.9293723	L T	-0.19893673
-1.6359892	W T	-0.19893673
-1.9884105	i T	-0.4397249
-1.8514547	e T	-0.5089185
-1.7645435	N T	-0.19893673
-1.7752681	C T	-0.19893673
-2.560548	a T	-0.19893673
-2.5649493	u T	-0.19893673
-1.7198843	P T	-0.19893673
-1.5019969	R T	-0.19893673
-2.2405825	<s> I	-0.86638975
-1.9214485	A I	-0.19893673
-1.5223105	B I	-0.19893673
-1.4064826	T I	-0.2736228
-1.6743348	I I	-0.2736228
-1.082207	D I	-0.60197645
-1.5440443	S I	-0.2537131
-1.2482332	H I	-0.4770377
-1.3137585	L I	-0.22938702
-1.6154895	W I	-0.19893673
-2.1410432	d I	-0.19893673
-2.6375778	e I	-0.19893673
-1.930145	N I	-0.19893673
-1.3232768	C I	-0.19893673
-1.0071893	Z I	-0.31640917
-1.6087836	M I	-0.2621343
-1.4157276	F I	-0.19893673
-1.4700842	J I	-0.19893673
-1.6738771	G I	-0.19893673
-1.2190496	R I	-0.19893673
-2.994129	<s> D	-0.5513814
-1.4348733	A D	-0.24219115
-1.3705504	E D	-0.19893673
-1.7381421	I D	-0.19893673
-2.5952573	e D	-0.19893673
-1.4280797	N D	-0.3314468
-1.5723103	C D	-0.19893673
-2.6217673	a D	-0.19893673
-2.4592443	u D	-0.19893673
-1.7610874	O D	-0.19893673
-2.0731413	M D	-0.19893673
-1.7436973	G D	-0.19893673
-1.9660041	<s> S	-1.3356413
-1.7164944	A S	-0.19893673
-1.7308049	B S	-0.19893673
-1.2204679	E S	-0.23467627
-1.5878944	T S	-0.19893673
-1.0433248	I S	-0.29005876
-1.6615727	D S	-0.19893673
-1.9209102	S S	-0.19893673
-2.0519433	i S	-0.27343425
-1.7906959	e S	-0.6052952
-1.8968667	N S	-0.19893673
-1.8609086	a S	-0.48917764
-2.3813977	o S	-0.19893673
-2.1157918	r S	-0.19893673
-2.257393	m S	-0.19893673
-2.0580223	u S	-0.3438634
-1.4397985	O S	-0.31640917
-1.4414948	P S	-0.19893673
-1.5927697	M S	-0.19893673
-1.4564722	J S	-0.19893673
-1.6503403	G S	-0.19893673
-1.7696648	U S	-0.19893673
-1.4664259	R S	-0.19893673
-1.9061278	<s> K	-1.509685
-1.4309858	A K	-0.24219115
-1.5400374	E K	-0.19893673
-1.5265518	I K	-0.2736228
-2.207668	i K	-0.40551898
-1.9164772	e K	-0.51614946
-1.7972391	N K	-0.31640917
-2.2807379	a K	-0.60197645
-2.4782197	o K	-0.19893673
-2.3891165	m K	-0.19893673
-2.447213	u K	-0.31640917
-2.057583	M K	-0.19893673
-1.6296422	U K	-0.19893673
-3.05173	<s> H	-0.5193474
-1.7723714	B H	-0.19893673
-1.9172653	E H	-0.19893673
-1.9705945	S H	-0.19893673
-0.9796783	K H	-0.3636441
-1.709143	H H	-0.19893673
-2.4864533	i H	-0.19893673
-2.5216172	e H	-0.19893673
-1.9538374	N H	-0.19893673
-1.7654958	C H	-0.19893673
-2.0591931	a H	-0.53380996
-2.5963202	o H	-0.19893673
-2.3182795	m H	-0.19893673
-2.2293334	u H	-0.29023504
-1.709295	O H	-0.19893673
-1.2471384	P H	-0.2736228
-1.6903083	G H	-0.19893673
-1.5974834	U H	-0.31640917
-1.8539107	<s> L	-1.5245091
-1.2131835	A L	-0.27343425
-1.2416539	E L	-0.33584064
-1.7212901	I L	-0.19893673
-1.4919686	D L	-0.2736228
-1.0865971	H L	-0.19893673
-1.9610845	L L	-0.19893673
-2.7075605	i L	-0.19893673
-1.8587538	e L	-0.599651
-2.0738378	a L	-0.40916967
-2.6573591	o L	-0.19893673
-1.9898977	u L	-0.2837136
-1.4810743	O L	-0.23467627
-0.93665856	U L	-0.43047488
-2.1673455	<s> W	-1.3885281
-1.789524	A W	-0.31640917
-1.4919686	D W	-0.19893673
-2.0148888	S W	-0.19893673
-1.78047	K W	-0.19893673
-1.5048196	L W	-0.2537131
-2.5692983	e W	-0.19893673
-2.005492	N W	-0.19893673
-2.7656438	a W	-0.19893673
-2.3885808	h W	-0.19893673
-2.2131388	k W	-0.19893673
-1.7451994	P W	-0.19893673
-1.7062814	F W	-0.19893673
-1.4986591	J W	-0.19893673
-3.6017613	<s> V	-0.3512605
-2.0783777	A V	-0.19893673
-1.5481951	I V	-0.2736228
-1.7964659	D V	-0.19893673
-2.8062832	i V	-0.19893673
-1.8625435	C V	-0.19893673
-2.1862633	a V	-0.69888645
-2.711645	u V	-0.19893673
-1.5544671	R V	-0.19893673
-1.4071412	<s> i	-1.5821826
-1.5841807	B i	-0.19893673
-1.1793829	T i	-0.28264493
-1.3458197	D i	-0.22938702
-1.3152353	S i	-0.39831546
-1.5704503	K i	-0.19893673
-1.0619295	L i	-0.38783842
-1.4742868	W i	-0.19893673
-1.0493251	V i	-0.19893673
-2.0579512	i i	-0.23687308
-1.1586605	n i	-0.6029653
-1.0532467	d i	-0.4225394
-0.87459755	w i	-0.6200184
-1.8349553	e i	-0.22243337
-1.2232828	N i	-0.36058444
-1.2437568	C i	-0.24219115
-1.0425577	b i	-0.61172134
-1.6652184	a i	-0.39822105
-0.9725828	t i	-0.75399935
-1.9966103	o i	-0.2537131
-0.8730937	r i	-0.51733834
-0.7708651	z i	-0.5915276
-0.8804153	l i	-0.7307931
-0.8718488	c i	-0.6838097
-0.96451384	g i	-0.5818401
-1.2294284	m i	-0.6672099
-0.83763146	f i	-0.6151355
-1.9627372	u i	-0.19893673
-0.899631	h i	-0.72383314
-0.9541059	s i	-0.7708961
-0.7229796	v i	-0.65761894
-1.0248278	k i	-0.52622384
-0.9638423	y i	-0.6836801
-1.0481154	p i	-0.33497465
-1.2887225	q i	-0.19893673
-0.94649935	j i	-0.53220165
-1.3938107	x i	-0.19893673
-0.95773	Z i	-0.31640917
-1.2506113	Y i	-0.19893673
-1.3555866	P i	-0.2736228
-1.3680761	M i	-0.2736228
-1.3166685	F i	-0.19893673
-1.1326702	J i	-0.19893673
-1.3332148	G i	-0.19893673
-0.9487815	R i	-0.23467627
-0.8565243	<s> n	-2.4060428
-1.8760173	A n	-0.19893673
-1.8535892	E n	-0.19893673
-1.820133	I n	-0.19893673
-1.2112287	i n	-1.0516473
-1.7703397	n n	-0.2621343
-1.9117357	d n	-0.19893673
-1.2538016	e n	-1.0728366
-1.2279731	a n	-1.1188067
-1.8953792	t n	-0.19893673
-1.1240431	o n	-0.96739787
-1.3741978	r n	-0.44392717
-2.0290759	l n	-0.31640917
-2.0949934	g n	-0.19893673
-1.3841516	m n	-0.6862929
-1.1991422	u n	-0.91315526
-1.895259	h n	-0.19893673
-1.8656007	s n	-0.19893673
-1.9101053	k n	-0.31640917
-2.0219283	y n	-0.19893673
-1.7682045	j n	-0.19893673
-1.6630263	O n	-0.19893673
-1.4391961	M n	-0.2736228
-1.7605455	U n	-0.19893673
-2.840861	<s> d	-0.6940253
-1.9214485	A d	-0.19893673
-1.8637601	I d	-0.19893673
-1.372587	i d	-0.76283735
-1.2918688	n d	-0.66909856
-1.7451284	d d	-0.19893673
-2.1921346	w d	-0.19893673
-1.3911686	e d	-0.7316922
-1.116919	N d	-0.48353177
-1.4138856	a d	-0.8342374
-1.420716	o d	-0.617777
-1.5927019	r d	-0.31617516
-1.6956582	l d	-0.29023504
-1.9083648	g d	-0.31640917
-1.5837318	m d	-0.5072539
-1.2923458	u d	-0.755675
-2.26891	s d	-0.19893673
-2.155073	k d	-0.19893673
-1.7843876	M d	-0.19893673
-1.7982314	U d	-0.19893673
-1.5089303	<s> w	-2.2056894
-1.7796954	A w	-0.19893673
-1.7646399	E w	-0.19893673
-1.7025478	T w	-0.19893673
-1.727084	I w	-0.19893673
-1.4920845	S w	-0.4770377
-1.4316494	K w	-0.31640917
-1.5897264	H w	-0.19893673
-1.1671889	L w	-0.3781403
-1.5173014	i w	-0.91389567
-1.5487984	n w	-0.7780677
-1.5422591	d w	-0.33584064
-1.6963348	w w	-0.23467627
-1.4749577	e w	-0.8950598
-1.633234	C w	-0.19893673
-2.011341	b w	-0.19893673
-1.4772865	a w	-0.9762953
-1.372418	t w	-0.8450145
-1.4339787	o w	-0.6321926
-1.2473624	z w	-0.60197645
-1.1767331	l w	-0.86406887
-1.1198319	c w	-0.8583211
-1.1608202	g w	-0.7184785
-1.4559164	f w	-0.3938326
-1.6196615	u w	-0.55295974
-1.2620751	h w	-0.7407549
-1.1659868	s w	-0.7353258
-1.6611836	v w	-0.2537131
-1.1817012	k w	-0.6288705
-1.1701584	y w	-0.653129
-1.9947762	p w	-0.19893673
-1.0099754	j w	-0.7780677
-1.2411894	Z w	-0.19893673
-1.6785536	U w	-0.19893673
-1.330004	<s> e	-1.6270479
-1.6867296	A e	-0.19893673
-1.0905069	B e	-0.23935783
-1.677483	E e	-0.19893673
-1.3189243	T e	-0.2640421
-1.3418348	D e	-0.22546187
-1.4520153	S e	-0.23182018
-1.5651116	K e	-0.19893673
-1.5177332	H e	-0.19893673
-1.2538607	L e	-0.29366463
-0.9238483	W e	-0.26201627
-0.83788466	V e	-0.2537131
-1.6582931	i e	-0.3617434
-1.1279225	n e	-0.5140667
-1.0523909	d e	-0.579597
-0.62637264	w e	-0.83280945
-1.5550286	e e	-0.56101424
-1.7022072	N e	-0.19893673
-1.4006199	C e	-0.19893673
-0.99277806	b e	-0.6558313
-1.9685451	a e	-0.33584064
-1.1075841	t e	-0.63168323
-1.9930466	o e	-0.24219115
-0.8235772	r e	-0.41871497
-0.8206452	z e	-0.4655468
-0.8594928	l e	-0.6667044
-0.9583244	c e	-0.6716681
-0.96388644	g e	-0.5527316
-1.1620162	m e	-0.63110334
-0.9474037	f e	-0.57132095
-1.874274	u e	-0.31609717
-0.9415492	h e	-0.65682983
-1.0290489	s e	-0.64917815
-0.72262496	v e	-0.6054714
-0.9846466	k e	-0.56219083
-0.8691984	y e	-0.59511113
-0.8450889	p e	-0.42359373
-0.77454257	j e	-0.61152226
-1.1654782	x e	-0.19893673
-1.2469733	Y e	-0.19893673
-1.352058	P e	-0.19893673
-1.2701724	M e	-0.31622192
-1.1370945	F e	-0.3438634
-1.3642539	J e	-0.19893673
-0.8910272	G e	-0.24727432
-1.3519964	R e	-0.19893673
-1.932267	<s> N	-1.3080465
-1.3129734	A N	-0.19893673
-0.895817	E N	-0.28093818
-1.5318624	I N	-0.22938702
-1.9300388	i N	-0.35969257
-1.7701502	e N	-0.72276354
-2.0813494	a N	-0.31622192
-2.2980921	o N	-0.19893673
-2.4592443	u N	-0.24219115
-1.2634361	O N	-0.19893673
-1.724017	F N	-0.19893673
-1.2419322	U N	-0.3438634
-2.6016934	<s> C	-0.74966013
-1.4195274	A C	-0.24219115
-1.9407492	E C	-0.19893673
-1.9122643	I C	-0.19893673
-1.7238029	D C	-0.19893673
-2.6736012	i C	-0.19893673
-2.2383542	e C	-0.4770377
-1.9788971	N C	-0.19893673
-1.5482172	C C	-0.19893673
-2.572121	a C	-0.19893673
-2.2439466	u C	-0.24219115
-1.7258822	O C	-0.19893673
-1.7281598	P C	-0.19893673
-1.6892416	F C	-0.19893673
-1.0589453	G C	-0.2736228
-1.8395008	U C	-0.19893673
-1.2008376	<s> b	-2.4404607
-1.9214485	A b	-0.19893673
-1.8949863	E b	-0.19893673
-1.8637601	I b	-0.19893673
-1.3922402	i b	-0.974244
-2.1185193	n b	-0.19893673
-2.1410432	d b	-0.19893673
-1.4278363	e b	-1.0020177
-1.3193654	a b	-1.1097478
-2.106277	t b	-0.19893673
-1.2858279	o b	-0.9490989
-1.9330522	z b	-0.19893673
-1.6956582	l b	-0.2537131
-1.5358031	g b	-0.2537131
-1.296985	m b	-0.8014527
-1.2726707	u b	-0.9246521
-2.0714478	s b	-0.31640917
-1.9675306	v b	-0.19893673
-1.4541703	M b	-0.23467627
-1.7982314	U b	-0.19893673
-1.245953	<s> a	-1.852492
-1.0886958	B a	-0.28908655
-1.6709517	E a	-0.19893673
-1.0687674	T a	-0.28382212
-1.6299264	I a	-0.19893673
-1.3378862	D a	-0.19893673
-1.0510504	S a	-0.38410342
-1.3836712	K a	-0.19893673
-1.343967	H a	-0.24219115
-1.1448588	L a	-0.24402434
-1.4647486	W a	-0.19893673
-1.6212447	i a	-0.5231108
-1.0730064	n a	-0.6122829
-1.0939571	d a	-0.48873153
-0.6261715	w a	-0.94486946
-1.6082163	e a	-0.31795284
-1.4432691	N a	-0.24545208
-1.5492607	C a	-0.19893673
-0.8715127	b a	-0.73966724
-1.9070696	a a	-0.31617516
-1.1069583	t a	-0.64536697
-2.100164	o a	-0.19893673
-0.9270509	r a	-0.39828753
-0.77002794	z a	-0.56334436
-0.839532	l a	-0.7914832
-1.0271022	c a	-0.7122602
-1.0459509	g a	-0.62604934
-1.1036756	m a	-0.7156634
-0.8704306	f a	-0.5777321
-2.059137	u a	-0.19893673
-0.8250767	h a	-0.89057636
-1.0567611	s a	-0.80909973
-0.8579079	v a	-0.6416516
-0.94787025	k a	-0.64862317
-0.7915345	y a	-0.7493003
-0.95428103	p a	-0.33741122
-0.63976204	q a	-0.36352813
-0.8110389	j a	-0.70178336
-0.6678032	x a	-0.24219115
-1.1968435	Z a	-0.19893673
-1.2433654	Y a	-0.19893673
-1.1736758	P a	-0.22546187
-1.1246915	M a	-0.48478645
-1.3096398	F a	-0.24219115
-0.62380075	J a	-0.33145142
-1.0021673	G a	-0.22938702
-1.1397927	R a	-0.19893673
-1.3012191	<s> t	-2.075409
-1.8157029	A t	-0.19893673
-1.7980664	E t	-0.19893673
-1.7619493	I t	-0.19893673
-1.6820034	S t	-0.23467627
-1.2791557	i t	-1.0238638
-1.2410263	n t	-0.72311115
-2.1237872	w t	-0.19893673
-1.2763488	e t	-1.0038435
-1.258648	N t	-0.40241304
-1.2991334	a t	-1.1046271
-1.3770528	t t	-0.28093818
-1.1929231	o t	-0.8940276
-1.5638019	r t	-0.3381987
-1.9941189	l t	-0.19893673
-1.2929229	c t	-0.45277923
-2.0468845	g t	-0.19893673
-1.3751181	m t	-0.63375086
-1.8215308	f t	-0.31640917
-1.1951393	u t	-0.96522766
-1.874686	h t	-0.19893673
-1.3015283	s t	-0.48531988
-1.4179342	k t	-0.29023504
-1.983225	y t	-0.19893673
-1.468759	p t	-0.2537131
-1.4574337	x t	-0.19893673
-1.31202	M t	-0.48606458
-0.3288473	Ã t	-0.19893673
-0.3288473	Å t	-0.19893673
-1.7095186	U t	-0.19893673
-2.761722	<s> o	-0.50679183
-1.094152	B o	-0.21389504
-1.6344098	T o	-0.19893673
-1.5152919	D o	-0.19893673
-1.2113724	S o	-0.34610492
-1.2160566	K o	-0.19893673
-1.5289335	H o	-0.19893673
-1.1499109	L o	-0.27754536
-1.2791958	W o	-0.23467627
-1.6614581	i o	-0.34042823
-1.3057841	n o	-0.6086789
-1.1972713	d o	-0.3708293
-1.1678379	w o	-0.48943645
-2.0987532	e o	-0.23467627
-1.716068	N o	-0.19893673
-1.2466731	C o	-0.24219115
-0.8390166	b o	-0.6188494
-2.41057	a o	-0.19893673
-1.1088386	t o	-0.55745226
-1.5829545	o o	-0.43331957
-0.95954406	r o	-0.3717157
-0.821586	z o	-0.55295974
-1.0298743	l o	-0.7495232
-0.95942014	c o	-0.73684585
-0.92888725	g o	-0.6445123
-1.4055512	m o	-0.54000914
-0.9085214	f o	-0.44054478
-0.94233114	h o	-0.72157365
-1.0892433	s o	-0.63955253
-0.8593624	v o	-0.4231444
-1.0691092	k o	-0.6074526
-0.9644329	y o	-0.5822725
-1.0488728	p o	-0.40586495
-1.0392438	q o	-0.19893673
-0.85277444	j o	-0.48562163
-1.1701678	x o	-0.19893673
-1.2066827	Z o	-0.19893673
-1.2542801	Y o	-0.19893673
-1.5410178	P o	-0.19893673
-1.494676	M o	-0.22002566
-1.1418061	F o	-0.19893673
-0.7498462	J o	-0.26538256
-1.3369098	G o	-0.19893673
-1.3608332	R o	-0.19893673
-3.6033564	<s> r	-0.2972977
-1.854968	A r	-0.19893673
-1.2959099	B r	-0.40551898
-1.7659822	T r	-0.19893673
-1.7998599	I r	-0.19893673
-1.577183	W r	-0.19893673
-1.6910309	i r	-0.3381987
-1.7205539	d r	-0.19893673
-1.4224124	e r	-0.7260778
-2.065072	b r	-0.19893673
-1.464649	a r	-0.47738904
-1.3817375	t r	-0.48555246
-1.3217446	o r	-0.42838472
-1.9073806	r r	-0.24219115
-1.7479469	c r	-0.2736228
-1.4034511	g r	-0.33584064
-2.2245777	m r	-0.19893673
-1.8390249	f r	-0.19893673
-1.427002	u r	-0.47182083
-1.8882924	h r	-0.24219115
-2.2078507	s r	-0.19893673
-1.3565896	p r	-0.29023504
-1.4268678	O r	-0.2736228
-1.6517459	P r	-0.19893673
-1.6128279	F r	-0.19893673
-1.4094392	G r	-0.19893673
-3.0379975	<s> z	-0.7654758
-1.9858633	A z	-0.19893673
-1.9529852	E z	-0.19893673
-1.5121708	i z	-0.81536895
-1.5914623	n z	-0.48353177
-1.0010629	d z	-0.8100164
-1.623603	e z	-0.71566606
-1.9919909	N z	-0.19893673
-1.4748408	a z	-0.9423238
-2.3692217	t z	-0.19893673
-1.5846864	o z	-0.69351083
-2.2038777	r z	-0.19893673
-1.8069217	m z	-0.48265746
-1.41227	u z	-0.7510537
-1.9998555	v z	-0.19893673
-0.7254559	<s> l	-2.7722354
-1.7711414	A l	-0.19893673
-1.7566702	E l	-0.19893673
-1.6952323	T l	-0.19893673
-1.7187881	I l	-0.19893673
-1.5720727	D l	-0.19893673
-1.6277915	K l	-0.19893673
-0.92879695	H l	-0.4770377
-1.2758752	i l	-1.038952
-1.6298461	n l	-0.36352813
-1.0618987	d l	-0.8623886
-2.0932648	w l	-0.19893673
-1.2226181	e l	-1.1453859
-1.6261656	C l	-0.19893673
-1.2468792	b l	-0.22938702
-1.2336394	a l	-1.0748143
-2.1854224	t l	-0.19893673
-1.132155	o l	-0.99514836
-1.8551446	r l	-0.19893673
-1.4577757	l l	-0.35880134
-1.4512986	c l	-0.29023504
-2.010502	g l	-0.19893673
-1.4798404	m l	-0.62943554
-1.8006098	f l	-0.19893673
-1.1918314	u l	-1.1186275
-1.0755408	h l	-0.87512606
-1.6770755	s l	-0.19893673
-1.3193113	k l	-0.42702973
-1.9534146	y l	-0.19893673
-1.251518	p l	-0.2621343
-1.5892075	O l	-0.19893673
-1.5928625	P l	-0.19893673
-1.8085848	M l	-0.19893673
-1.5539443	F l	-0.19893673
-1.6711454	U l	-0.19893673
-2.7450328	<s> c	-0.8729973
-1.854968	A c	-0.19893673
-1.834282	E c	-0.19893673
-1.7998599	I c	-0.19893673
-1.7042295	S c	-0.2736228
-1.3491175	i c	-0.8359957
-1.3767508	n c	-0.78001416
-2.0822895	d c	-0.19893673
-2.14985	w c	-0.19893673
-1.4619434	e c	-0.678333
-1.6989001	N c	-0.19893673
-2.065072	b c	-0.19893673
-1.4267861	a c	-1.001565
-1.4150524	o c	-0.6756257
-1.5751321	r c	-0.3438634
-1.9376494	c c	-0.19893673
-0.9766103	g c	-0.88452303
-1.4972517	m c	-0.66214395
-1.4856813	u c	-0.8430574
-1.8570515	s c	-0.2537131
-2.103863	k c	-0.19893673
-1.476101	x c	-0.19893673
-1.6486377	O c	-0.19893673
-1.5773255	M c	-0.4770377
-1.4094392	G c	-0.2736228
-1.742862	U c	-0.19893673
-2.6644082	<s> g	-0.8820265
-1.9214485	A g	-0.19893673
-1.5623251	i g	-0.82881695
-1.2149059	n g	-0.7658839
-2.1410432	d g	-0.19893673
-2.1921346	w g	-0.19893673
-1.6471144	e g	-0.6801329
-1.2839335	N g	-0.3720251
-1.450592	a g	-0.9147907
-1.5778114	o g	-0.46998343
-1.4743781	r g	-0.3512605
-2.2601354	l g	-0.19893673
-2.1902096	c g	-0.19893673
-1.5092596	m g	-0.5177414
-2.1023443	f g	-0.19893673
-1.5627377	u g	-0.72613865
-1.8832211	s g	-0.2736228
-2.155073	k g	-0.19893673
-1.6087836	M g	-0.4770377
-1.7982314	U g	-0.19893673
-2.097413	<s> m	-1.0530695
-1.7164944	A m	-0.19893673
-1.8635744	E m	-0.19893673
-1.8306358	I m	-0.19893673
-1.9209102	S m	-0.19893673
-1.3163016	i m	-0.8212348
-2.095327	n m	-0.31640917
-1.7326673	d m	-0.2736228
-1.3391591	e m	-0.99646384
-1.3174038	a m	-0.9708662
-2.2861693	t m	-0.19893673
-1.1664746	o m	-0.80794317
-1.9262887	r m	-0.19893673
-1.9151655	z m	-0.19893673
-2.2302055	l m	-0.19893673
-2.1630757	c m	-0.19893673
-1.5032142	m m	-0.58938456
-1.1684434	u m	-0.79470915
-2.0511267	s m	-0.19893673
-1.7891027	y m	-0.19893673
-1.8545805	p m	-0.19893673
-1.7721164	j m	-0.19893673
-1.7696648	U m	-0.19893673
-2.894038	<s> f	-0.65632623
-1.8869374	A f	-0.19893673
-1.8635744	E f	-0.19893673
-1.3954312	T f	-0.3438634
-1.8306358	I f	-0.19893673
-1.454209	i f	-0.9911425
-1.9252024	n f	-0.2736228
-1.7326673	d f	-0.19893673
-2.1704779	w f	-0.19893673
-1.5087116	e f	-0.7318556
-1.5316527	a f	-0.9246749
-1.1935493	t f	-0.66639555
-1.5045531	o f	-0.6119071
-2.1157918	r f	-0.19893673
-2.0351856	l f	-0.19893673
-1.4404806	m f	-0.74810445
-1.3542509	f f	-0.38304394
-1.6395242	u f	-0.71566606
-1.8987846	h f	-0.19893673
-1.6704036	O f	-0.19893673
-1.4428916	M f	-0.48606458
-1.6343743	F f	-0.19893673
-1.7696648	U f	-0.19893673
-1.3825809	<s> u	-1.7394333
-1.6730008	A u	-0.19893673
-1.0868921	B u	-0.25094193
-1.4653045	T u	-0.19893673
-1.3339732	D u	-0.19893673
-1.308307	S u	-0.2537131
-1.2066579	K u	-0.28691334
-1.1720885	H u	-0.38915455
-1.5449817	L u	-0.2655491
-1.4600569	W u	-0.19893673
-1.2745144	V u	-0.19893673
-1.9639218	i u	-0.23467627
-1.4539403	n u	-0.5125008
-1.1925234	d u	-0.36195862
-1.0601048	w u	-0.5992406
-2.0820243	e u	-0.19893673
-1.6887752	N u	-0.19893673
-1.5434268	C u	-0.19893673
-0.83732057	b u	-0.7580305
-1.9045407	a u	-0.2621343
-1.1063333	t u	-0.511609
-1.5077314	o u	-0.48606452
-1.4149222	r u	-0.31609717
-0.94149274	z u	-0.48972967
-1.1262914	l u	-0.74727845
-1.0264616	c u	-0.57421196
-1.0451941	g u	-0.5109885
-1.3490934	m u	-0.64017856
-0.80506796	f u	-0.6561125
-2.240511	u u	-0.19893673
-0.9875153	h u	-0.7621454
-1.2343464	s u	-0.6462425
-0.85742414	v u	-0.7319069
-1.0661466	k u	-0.6684907
-1.2480012	y u	-0.33916545
-1.2360799	p u	-0.34193897
-0.8162846	q u	-0.24219115
-0.9447416	j u	-0.48754132
-1.1608387	x u	-0.19893673
-0.9521563	Z u	-0.31640917
-1.0093848	Y u	-0.2736228
-1.5155866	O u	-0.19893673
-1.5198237	P u	-0.19893673
-1.6010407	M u	-0.19893673
-0.8657692	F u	-0.48999143
-1.3570884	J u	-0.19893673
-1.4920955	G u	-0.19893673
-0.32072857	X u	-0.19893673
-2.6264515	<s> h	-0.8883271
-1.7884214	A h	-0.19893673
-1.114766	B h	-0.28393078
-1.7727584	E h	-0.19893673
-1.0934584	T h	-0.3938326
-1.3441093	S h	-0.33584064
-0.78938586	K h	-0.45466393
-1.2112151	H h	-0.3438634
-1.314434	W h	-0.19893673
-1.546195	i h	-0.8314594
-1.366792	n h	-0.52332133
-2.0224905	d h	-0.19893673
-1.5209702	e h	-0.6114605
-1.3578753	N h	-0.38915455
-1.123817	C h	-0.31617516
-0.9151606	b h	-0.826261
-1.4582857	a h	-0.8410391
-1.1158038	t h	-0.71244407
-1.5984112	o h	-0.55407745
-2.14314	l h	-0.19893673
-0.96549684	c h	-0.7821476
-2.0246916	g h	-0.19893673
-1.4234968	m h	-0.4661209
-2.0071907	f h	-0.19893673
-1.5430634	u h	-0.66431147
-1.3121029	h h	-0.5081814
-1.0373033	s h	-0.8732982
-0.9218364	k h	-0.9387951
-0.8512977	p h	-0.8608372
-0.7537778	P h	-0.51681185
-1.3038602	M h	-0.69888645
-1.5799906	G h	-0.19893673
-1.6860904	U h	-0.19893673
-1.1931309	<s> s	-2.235147
-1.7884214	A s	-0.19893673
-1.7727584	E s	-0.19893673
-1.3605006	T s	-0.2736228
-1.7355415	I s	-0.19893673
-1.5963013	H s	-0.19893673
-1.5363841	W s	-0.19893673
-1.233211	i s	-1.055484
-1.4199454	n s	-0.5597391
-1.4343804	d s	-0.29023504
-1.8947119	w s	-0.31640917
-1.3021696	e s	-0.9697835
-1.6539265	N s	-0.19893673
-1.6404194	C s	-0.19893673
-1.4607091	b s	-0.2537131
-1.2972609	a s	-1.0057282
-1.1494766	t s	-0.71513426
-1.337731	o s	-0.7317629
-1.4457588	r s	-0.44103593
-1.4610441	l s	-0.551647
-2.0832117	c s	-0.19893673
-2.0246916	g s	-0.19893673
-1.370671	m s	-0.6650282
-1.2264296	u s	-0.955702
-2.040706	h s	-0.31640917
-1.4143735	s s	-0.38211325
-1.5282822	k s	-0.2972977
-1.9650943	y s	-0.19893673
-1.8086313	p s	-0.19893673
-1.9486911	j s	-0.19893673
-1.6017293	O s	-0.19893673
-1.5432911	M s	-0.24219115
-1.6860904	U s	-0.19893673
-3.0201776	<s> v	-0.70181024
-1.9288485	E v	-0.19893673
-1.8996211	I v	-0.19893673
-1.7143481	D v	-0.19893673
-1.4372687	i v	-0.93441486
-1.9568568	n v	-0.19893673
-1.1231407	d v	-0.80138516
-1.5648562	e v	-0.90300643
-1.5152946	a v	-0.98161805
-1.5819232	o v	-0.5795675
-1.9667696	r v	-0.2537131
-1.3949336	m v	-0.65633136
-1.5310537	u v	-0.83547413
-2.302993	s v	-0.19893673
-1.9866354	v v	-0.19893673
-2.1831362	k v	-0.19893673
-1.4657499	M v	-0.36352813
-0.9488608	<s> k	-2.548874
-1.8760173	A k	-0.19893673
-1.8535892	E k	-0.19893673
-1.820133	I k	-0.19893673
-1.4392539	D k	-0.31640917
-1.9116207	S k	-0.19893673
-1.2529241	i k	-1.0643984
-1.3309424	n k	-0.6274383
-1.3231204	e k	-1.0172861
-1.1840914	N k	-0.42641133
-2.0796118	b k	-0.19893673
-1.3310568	a k	-1.1903799
-1.2642615	o k	-0.94976526
-1.7387938	r k	-0.31617516
-2.0290759	l k	-0.19893673
-1.4704432	c k	-0.2972977
-1.5012176	m k	-0.5858529
-2.070786	f k	-0.19893673
-1.1991422	u k	-1.0698705
-1.8656007	s k	-0.19893673
-2.005338	j k	-0.19893673
-1.6630263	O k	-0.19893673
-1.3288143	M k	-0.5652458
-1.7605455	U k	-0.19893673
-1.4543003	<s> y	-2.3427122
-1.844814	A y	-0.19893673
-1.7900674	I y	-0.19893673
-1.8848882	S y	-0.19893673
-1.6798273	K y	-0.19893673
-1.837802	L y	-0.19893673
-1.3669076	i y	-0.82062906
-1.3753141	n y	-0.7780677
-1.6067995	e y	-0.8724736
-1.1779288	N y	-0.48606458
-1.6862228	C y	-0.19893673
-2.0579808	b y	-0.19893673
-1.4082197	a y	-1.0165129
-1.6110073	t y	-0.33584064
-1.6495863	o y	-0.6384337
-1.4587338	r y	-0.69888645
-1.6763836	l y	-0.38915455
-1.9324628	c y	-0.31640917
-1.5197265	g y	-0.60197645
-1.5671892	m y	-0.5652458
-2.0485368	f y	-0.19893673
-1.5520332	u y	-0.86914814
-2.2656095	h y	-0.19893673
-2.0254316	s y	-0.31640917
-2.0958855	k y	-0.19893673
-1.644795	P y	-0.19893673
-1.734283	U y	-0.19893673
-2.7806616	<s> p	-0.8866845
-1.8760173	A p	-0.19893673
-1.8535892	E p	-0.19893673
-1.820133	I p	-0.19893673
-1.9116207	S p	-0.19893673
-1.8633046	L p	-0.19893673
-1.409256	i p	-0.6368288
-2.253719	n p	-0.19893673
-1.4639158	e p	-0.6215798
-1.393513	a p	-0.7584754
-2.2768214	t p	-0.19893673
-1.391553	o p	-0.5619871
-1.7387938	r p	-0.2537131
-2.2206702	l p	-0.19893673
-1.2920346	m p	-0.6822298
-1.4292732	u p	-0.5819682
-2.044559	s p	-0.19893673
-2.0219283	y p	-0.19893673
-1.4808884	p p	-0.2537131
-2.005338	j p	-0.19893673
-1.4857445	x p	-0.19893673
-1.6630263	O p	-0.19893673
-1.3288143	M p	-0.31617516
-1.7605455	U p	-0.19893673
-4.325285	<s> q	-0.19893673
-1.7087721	n q	-0.31609717
-2.4890974	a q	-0.2736228
-2.4207633	l q	-0.19893673
-2.3325005	c q	-0.19893673
-1.9867567	g q	-0.2736228
-2.7576234	u q	-0.19893673
-2.8317776	<s> j	-0.81401175
-1.8402934	T j	-0.19893673
-1.5648607	i j	-0.740586
-1.3884193	n j	-0.74588305
-1.9505227	d j	-0.19893673
-1.6501392	e j	-0.66690314
-1.9538374	N j	-0.19893673
-2.1264017	b j	-0.19893673
-1.5370283	a j	-0.8370882
-1.3340985	t j	-0.684859
-1.7131608	o j	-0.43047488
-2.0670946	l j	-0.19893673
-1.7950053	m j	-0.43613225
-1.8137857	u j	-0.4624612
-1.623315	h j	-0.2972977
-2.0855434	s j	-0.19893673
-1.3462843	M j	-0.69888645
-1.818376	U j	-0.19893673
-4.097024	<s> x	-0.19893673
-1.8484565	B x	-0.19893673
-2.0199413	E x	-0.19893673
-2.5809445	i x	-0.19893673
-1.9969623	n x	-0.2736228
-2.275152	e x	-0.19893673
-2.0641303	N x	-0.19893673
-2.8458705	a x	-0.19893673
-2.728402	o x	-0.19893673
-2.690361	u x	-0.19893673
-4.13039	<s> Z	-0.19893673
-2.114183	A Z	-0.19893673
-2.065706	E Z	-0.19893673
-1.8196738	D Z	-0.19893673
-2.853051	i Z	-0.19893673
-2.667881	e Z	-0.31640917
-2.4890974	a Z	-0.38915455
-2.6699789	<s> Y	-0.9798839
-1.8666818	A Y	-0.19893673
-2.064323	I Y	-0.19893673
-2.0590842	L Y	-0.19893673
-2.9176657	e Y	-0.19893673
-1.9639878	U Y	-0.19893673
-3.150177	<s> O	-0.3684194
-1.8087499	B O	-0.19893673
-1.6421359	T O	-0.19893673
-1.7786745	S O	-0.31640917
-1.2938918	K O	-0.4770377
-1.4875777	H O	-0.2736228
-1.1070778	L O	-0.38304394
-1.4150398	V O	-0.19893673
-2.005492	N O	-0.19893673
-1.3447424	C O	-0.19893673
-1.3818336	Y O	-0.19893673
-1.7451994	P O	-0.19893673
-1.8362477	M O	-0.19893673
-1.7251621	G O	-0.19893673
-2.7493382	<s> P	-0.71194446
-1.5769849	A P	-0.19893673
-1.7811844	B P	-0.19893673
-1.9288485	E P	-0.19893673
-1.6971781	I P	-0.19893673
-1.4754716	D P	-0.31640917
-1.7178197	H P	-0.19893673
-2.333301	i P	-0.38915455
-2.5330558	e P	-0.19893673
-1.7752681	C P	-0.19893673
-2.4016476	a P	-0.4770377
-2.6107945	o P	-0.19893673
-2.3315527	m P	-0.19893673
-2.4021678	u P	-0.2736228
-2.0003886	M P	-0.19893673
-1.82881	U P	-0.19893673
-1.5019969	R P	-0.19893673
-2.423407	<s> M	-0.77211136
-1.5935471	A M	-0.19893673
-1.5352682	E M	-0.2736228
-1.5213056	I M	-0.23467627
-1.4150398	V M	-0.19893673
-2.5311341	i M	-0.19893673
-1.9136838	e M	-0.5257189
-1.7891734	a M	-0.60026985
-2.1246977	o M	-0.35447904
-2.2590685	u M	-0.32260925
-1.4810743	O M	-0.19893673
-1.7062814	F M	-0.19893673
-1.7251621	G M	-0.19893673
-1.4114025	U M	-0.19893673
-1.9566143	C Ã	-0.19893673
-1.9566143	C Å	-0.19893673
-2.979621	<s> F	-0.4887208
-1.4348733	A F	-0.19893673
-1.9057767	T F	-0.19893673
-1.7381421	I F	-0.19893673
-2.3723028	i F	-0.2736228
-2.8039074	a F	-0.19893673
-2.6914294	o F	-0.19893673
-2.404784	m F	-0.19893673
-2.4592443	u F	-0.19893673
-1.8550082	M F	-0.31640917
-1.8851076	U F	-0.19893673
-1.5340408	R F	-0.19893673
-3.115394	<s> J	-0.596185
-2.0346668	E J	-0.19893673
-1.9426366	T J	-0.19893673
-2.8062832	i J	-0.19893673
-2.2815998	e J	-0.40551898
-1.832598	N J	-0.31640917
-2.6631217	a J	-0.19893673
-2.7481396	o J	-0.19893673
-2.4974768	u J	-0.31640917
-2.8897223	<s> G	-0.5601861
-1.5318624	I G	-0.19893673
-1.98359	L G	-0.19893673
-2.5553255	i G	-0.19893673
-2.2625365	e G	-0.33584064
-1.4280797	N G	-0.2736228
-2.6217673	a G	-0.19893673
-2.6914294	o G	-0.19893673
-2.187592	m G	-0.31640917
-2.650688	u G	-0.19893673
-1.7610874	O G	-0.19893673
-1.8851076	U G	-0.19893673
-2.3121111	<s> U	-0.89084995
-1.8087499	B U	-0.19893673
-1.8828342	T U	-0.19893673
-1.9387119	I U	-0.19893673
-1.1126956	K U	-0.22243337
-1.2664443	H U	-0.19893673
-1.5048196	L U	-0.19893673
-1.6575046	W U	-0.19893673
-1.4150398	V U	-0.19893673
-1.5600967	C U	-0.19893673
-2.042563	M U	-0.19893673
-1.0381576	F U	-0.38915455
-1.7251621	G U	-0.19893673
-1.8617058	U U	-0.19893673
-3.010891	<s> R	-0.62585306
-1.8263917	A R	-0.19893673
-1.7713872	E R	-0.19893673
-1.9969919	I R	-0.19893673
-2.007326	L R	-0.19893673
-2.275152	e R	-0.60197645
-2.8458705	a R	-0.19893673
-2.728402	o R	-0.19893673
-2.690361	u R	-0.19893673
-1.7798214	O R	-0.19893673
-4.426821	<s> X	-0.31640917
-4.7123885	<s> Â	-0.19893673

\3-grams:
-1.7214552	<s> A </s>	0
-0.52793956	B A </s>	0
-0.65473515	E A </s>	0
-0.38843417	T A </s>	0
-0.3312025	I A </s>	0
-0.2270242	D A </s>	0
-0.4024985	S A </s>	0
-0.3324535	L A </s>	0
-0.25442654	W A </s>	0
-0.36830926	N A </s>	0
-0.3312025	Z A </s>	0
-0.3312025	F A </s>	0
-0.3312025	G A </s>	0
-2.1996756	<s> B </s>	0
-0.79821	A B </s>	0
-0.36174452	T B </s>	0
-0.36174452	L B </s>	0
-0.36174452	N B </s>	0
-0.59519625	D E </s>	0
-0.82931423	S E </s>	0
-0.59519625	H E </s>	0
-0.7779539	L E </s>	0
-0.71504354	W E </s>	0
-0.3587932	i E </s>	0
-0.56777674	N E </s>	0
-0.3587932	O E </s>	0
-0.7487089	A T </s>	0
-0.47033617	E T </s>	0
-0.6019067	S T </s>	0
-0.36267415	L T </s>	0
-0.36267415	C T </s>	0
-0.36267415	R T </s>	0
-1.7049725	<s> I </s>	0
-0.6178372	T I </s>	0
-0.3834759	I I </s>	0
-0.10670014	D I </s>	0
-0.6501394	L I </s>	0
-0.57636297	N I </s>	0
-0.7610391	C I </s>	0
-0.23689112	Z I </s>	0
-0.9102563	M I </s>	0
-1.3316499	<s> D </s>	0
-0.55759245	A D </s>	0
-0.7716001	E D </s>	0
-0.58323663	I D </s>	0
-0.58323663	C D </s>	0
-2.1452055	<s> S </s>	0
-0.68924975	A S </s>	0
-0.34724694	B S </s>	0
-0.8639222	E S </s>	0
-0.575484	T S </s>	0
-0.98609924	I S </s>	0
-0.34724694	D S </s>	0
-0.575484	P S </s>	0
-0.68924975	M S </s>	0
-0.34724694	R S </s>	0
-2.7210355	<s> K </s>	0
-0.4115322	H H </s>	0
-0.41941416	L L </s>	0
-2.277854	<s> W </s>	0
-0.37635252	P W </s>	0
-0.37635252	F W </s>	0
-1.0621995	<s> V </s>	0
-0.40492213	I V </s>	0
-2.784317	<s> i </s>	0
-1.5421314	S i </s>	0
-0.39860258	W i </s>	0
-1.2937617	i i </s>	0
-1.1586651	n i </s>	0
-0.950479	d i </s>	0
-0.83736813	w i </s>	0
-1.1484519	e i </s>	0
-0.9930582	b i </s>	0
-1.3745139	t i </s>	0
-0.9564203	r i </s>	0
-0.9719871	z i </s>	0
-1.3933263	l i </s>	0
-1.2732913	c i </s>	0
-1.4143007	g i </s>	0
-1.3619419	m i </s>	0
-0.8786746	f i </s>	0
-0.9771865	u i </s>	0
-1.0917821	h i </s>	0
-1.3138582	s i </s>	0
-1.2554513	v i </s>	0
-0.9238178	k i </s>	0
-1.1594669	y i </s>	0
-0.6098979	p i </s>	0
-0.91041553	j i </s>	0
-1.0427569	R i </s>	0
-1.3474262	i n </s>	0
-1.1118566	n n </s>	0
-1.3267655	e n </s>	0
-1.1480247	a n </s>	0
-1.2654481	o n </s>	0
-0.9215683	r n </s>	0
-1.7986282	m n </s>	0
-1.7221797	u n </s>	0
-0.91882604	h n </s>	0
-1.6293463	<s> d </s>	0
-1.7306234	i d </s>	0
-1.1991886	n d </s>	0
-1.0960009	e d </s>	0
-1.4515731	a d </s>	0
-1.3747679	o d </s>	0
-0.5449559	r d </s>	0
-0.6121174	l d </s>	0
-1.7135193	u d </s>	0
-1.0127916	d w </s>	0
-1.196662	e w </s>	0
-1.5568151	a w </s>	0
-1.4477526	o w </s>	0
-1.3107077	l w </s>	0
-1.4222679	g w </s>	0
-1.0707836	f w </s>	0
-1.3426888	u w </s>	0
-1.4445443	h w </s>	0
-1.4716749	s w </s>	0
-1.0958142	k w </s>	0
-2.8187191	<s> e </s>	0
-0.39694273	A e </s>	0
-0.39694273	E e </s>	0
-1.3607335	L e </s>	0
-1.3507438	i e </s>	0
-1.0968792	n e </s>	0
-0.62030965	d e </s>	0
-0.93601865	w e </s>	0
-0.3824643	e e </s>	0
-1.1220526	b e </s>	0
-0.5085357	a e </s>	0
-0.96828455	t e </s>	0
-0.6248605	o e </s>	0
-0.8381974	r e </s>	0
-0.8887511	z e </s>	0
-1.0513563	l e </s>	0
-0.9231416	c e </s>	0
-1.0929552	g e </s>	0
-1.031525	m e </s>	0
-0.7642963	f e </s>	0
-0.44512096	u e </s>	0
-0.9434149	h e </s>	0
-1.1834768	s e </s>	0
-0.9914336	v e </s>	0
-0.84311736	k e </s>	0
-1.1411912	y e </s>	0
-0.8541289	p e </s>	0
-0.8520716	j e </s>	0
-1.1003951	P e </s>	0
-1.0112658	F e </s>	0
-1.1003951	R e </s>	0
-2.45596	<s> N </s>	0
-1.0778086	A N </s>	0
-1.2183341	a N </s>	0
-0.9804812	o N </s>	0
-1.4988654	<s> C </s>	0
-0.5334829	A C </s>	0
-0.33508816	E C </s>	0
-0.33508816	D C </s>	0
-0.33508816	N C </s>	0
-0.55511373	C C </s>	0
-0.33508816	O C </s>	0
-1.5700032	i b </s>	0
-2.0595005	e b </s>	0
-1.7299657	a b </s>	0
-1.7263917	u b </s>	0
-3.0330117	<s> a </s>	0
-0.39882433	I a </s>	0
-1.4511216	S a </s>	0
-1.3577565	L a </s>	0
-1.2921555	W a </s>	0
-0.53015566	i a </s>	0
-0.9498817	n a </s>	0
-0.8842543	d a </s>	0
-1.0730106	w a </s>	0
-1.0884026	e a </s>	0
-1.1862676	b a </s>	0
-0.56198186	a a </s>	0
-1.1503289	t a </s>	0
-0.86117154	r a </s>	0
-0.8660184	z a </s>	0
-1.1339711	l a </s>	0
-1.0622855	c a </s>	0
-1.1050355	g a </s>	0
-1.1805916	m a </s>	0
-1.007227	f a </s>	0
-0.8119466	u a </s>	0
-1.0494051	h a </s>	0
-1.0660087	s a </s>	0
-0.7294853	v a </s>	0
-1.2328824	k a </s>	0
-1.1964741	y a </s>	0
-1.1407763	p a </s>	0
-0.84762686	j a </s>	0
-0.9906113	x a </s>	0
-1.4153786	M a </s>	0
-1.0859536	G a </s>	0
-1.6570213	i t </s>	0
-1.1326898	n t </s>	0
-1.3997715	e t </s>	0
-1.4380418	a t </s>	0
-1.1277189	t t </s>	0
-1.6619534	o t </s>	0
-0.95881283	r t </s>	0
-0.7640796	l t </s>	0
-0.7114632	c t </s>	0
-0.9333749	s t </s>	0
-0.6069508	k t </s>	0
-0.379705	y t </s>	0
-0.8675915	p t </s>	0
-0.379705	x t </s>	0
-0.8207018	n o </s>	0
-0.8918369	d o </s>	0
-0.7035514	w o </s>	0
-1.0761752	N o </s>	0
-1.1606086	b o </s>	0
-0.83241916	t o </s>	0
-0.54520804	o o </s>	0
-0.9046779	r o </s>	0
-0.66980433	z o </s>	0
-1.158353	l o </s>	0
-1.1048814	c o </s>	0
-1.2186974	g o </s>	0
-0.80361766	m o </s>	0
-0.9841454	f o </s>	0
-0.95688456	h o </s>	0
-0.9466113	s o </s>	0
-0.57067174	v o </s>	0
-0.986457	k o </s>	0
-1.0574027	y o </s>	0
-0.9878729	p o </s>	0
-0.8199781	j o </s>	0
-1.037486	i r </s>	0
-0.7664328	e r </s>	0
-0.81683946	a r </s>	0
-0.9506574	o r </s>	0
-0.8430739	u r </s>	0
-1.1863034	d z </s>	0
-1.6653669	a z </s>	0
-0.40536144	r z </s>	0
-1.1267457	i l </s>	0
-0.4302716	n l </s>	0
-1.2902157	d l </s>	0
-1.0798688	e l </s>	0
-0.9819097	b l </s>	0
-1.1356311	a l </s>	0
-1.0534567	o l </s>	0
-0.74169576	l l </s>	0
-1.4447403	m l </s>	0
-0.6211282	f l </s>	0
-1.478524	u l </s>	0
-1.5249864	h l </s>	0
-0.8893694	s l </s>	0
-1.2139502	k l </s>	0
-1.0972073	i c </s>	0
-2.0935583	u c </s>	0
-1.8543283	<s> g </s>	0
-1.1635513	n g </s>	0
-1.5981444	e g </s>	0
-1.9322294	a g </s>	0
-0.55650645	r g </s>	0
-1.4884995	m g </s>	0
-0.39062688	f g </s>	0
-0.9194856	A m </s>	0
-1.6421063	i m </s>	0
-1.8983108	e m </s>	0
-1.706235	a m </s>	0
-1.4386476	o m </s>	0
-0.8210415	r m </s>	0
-1.5754251	u m </s>	0
-0.8210415	s m </s>	0
-0.67316675	y m </s>	0
-1.5563749	<s> f </s>	0
-1.6123277	e f </s>	0
-1.7971379	a f </s>	0
-1.3355821	t f </s>	0
-1.4766034	o f </s>	0
-0.8446058	l f </s>	0
-1.0656397	f f </s>	0
-1.3103117	u f </s>	0
-2.8354063	<s> u </s>	0
-1.2751412	B u </s>	0
-1.3506795	K u </s>	0
-1.0079848	i u </s>	0
-0.7301746	n u </s>	0
-0.8943604	d u </s>	0
-1.2350596	w u </s>	0
-0.38977385	N u </s>	0
-1.2602339	b u </s>	0
-1.0596539	a u </s>	0
-0.89407843	t u </s>	0
-1.1078227	z u </s>	0
-1.1629205	l u </s>	0
-1.415036	c u </s>	0
-1.2508138	g u </s>	0
-1.0215518	m u </s>	0
-1.0356667	f u </s>	0
-1.0724019	h u </s>	0
-1.2309518	s u </s>	0
-0.9358592	v u </s>	0
-1.2855383	k u </s>	0
-1.2256885	p u </s>	0
-0.9594191	q u </s>	0
-1.4588633	j u </s>	0
-1.136597	F u </s>	0
-0.6500537	X u </s>	0
-1.1235656	B h </s>	0
-0.6587982	W h </s>	0
-1.3831664	n h </s>	0
-1.597441	e h </s>	0
-0.9046371	t h </s>	0
-1.7531091	c h </s>	0
-0.39455444	f h </s>	0
-1.8610308	s h </s>	0
-1.9188461	k h </s>	0
-1.3862423	p h </s>	0
-0.8931512	A s </s>	0
-0.3473161	H s </s>	0
-0.3473161	W s </s>	0
-1.2703848	i s </s>	0
-1.046926	n s </s>	0
-0.563239	d s </s>	0
-0.88420254	e s </s>	0
-0.3473161	C s </s>	0
-1.1763147	a s </s>	0
-0.9510904	t s </s>	0
-1.360966	o s </s>	0
-0.26208442	r s </s>	0
-0.21625221	l s </s>	0
-0.3473161	c s </s>	0
-0.3473161	g s </s>	0
-0.9621854	m s </s>	0
-1.219512	u s </s>	0
-0.23662487	h s </s>	0
-0.627909	s s </s>	0
-0.45465156	k s </s>	0
-0.5756009	p s </s>	0
-0.3473161	O s </s>	0
-1.6867493	<s> v </s>	0
-1.7092699	d v </s>	0
-1.9700125	a v </s>	0
-3.4485967	<s> k </s>	0
-1.7599778	i k </s>	0
-1.3292764	n k </s>	0
-1.4778349	e k </s>	0
-1.8859593	a k </s>	0
-0.53523993	r k </s>	0
-0.62297213	l k </s>	0
-0.48261833	c k </s>	0
-0.8345383	s k </s>	0
-1.072137	M k </s>	0
-0.30542827	L y </s>	0
-1.304336	i y </s>	0
-1.0903982	n y </s>	0
-1.1269984	e y </s>	0
-0.30542827	b y </s>	0
-1.3262806	a y </s>	0
-0.42171815	t y </s>	0
-1.1890388	o y </s>	0
-0.07557887	r y </s>	0
-0.2349207	l y </s>	0
-0.21136983	c y </s>	0
-0.09672383	g y </s>	0
-0.30542827	f y </s>	0
-0.30542827	h y </s>	0
-0.21136983	s y </s>	0
-0.30542827	k y </s>	0
-1.1890801	i p </s>	0
-1.3285426	e p </s>	0
-1.4678491	a p </s>	0
-1.2312027	o p </s>	0
-0.88487506	r p </s>	0
-1.6194886	m p </s>	0
-1.1863724	u p </s>	0
-0.5516516	<s> q </s>	0
-0.68996495	a q </s>	0
-0.33299884	l q </s>	0
-1.0702487	n j </s>	0
-0.40208566	b j </s>	0
-1.7016733	t j </s>	0
-0.67273945	s j </s>	0
-0.6462418	<s> x </s>	0
-0.32714954	B x </s>	0
-0.75247264	e x </s>	0
-0.32714954	a x </s>	0
-0.38870597	E Z </s>	0
-1.7909571	<s> Y </s>	0
-0.36653978	L Y </s>	0
-0.8780384	<s> O </s>	0
-0.53420186	T O </s>	0
-0.18913624	S O </s>	0
-0.121423535	K O </s>	0
-0.78617275	L O </s>	0
-0.269802	V O </s>	0
-0.269802	N O </s>	0
-0.5822715	C O </s>	0
-0.269802	P O </s>	0
-0.45157534	M O </s>	0
-1.5033195	<s> P </s>	0
-0.23818687	D P </s>	0
-0.3499609	H P </s>	0
-0.3499609	C P </s>	0
-0.3499609	R P </s>	0
-2.1146393	<s> M </s>	0
-0.41596785	G M </s>	0
-1.5505728	<s> F </s>	0
-0.9078936	A F </s>	0
-0.41076267	O G </s>	0
-1.7182059	<s> U </s>	0
-0.34786	B U </s>	0
-0.34786	T U </s>	0
-0.9283378	K U </s>	0
-0.6905983	C U </s>	0
-0.34786	M U </s>	0
-0.34786	U U </s>	0
-1.3997699	<s> R </s>	0
-0.3564687	o R </s>	0
-0.3564687	O R </s>	0
-0.17370105	<s> Â </s>	0
-1.693971	S A A	-0.20621195
-2.0058274	<s> B A	-0.20621195
-0.5596645	U B A	-0.20621195
-2.0026672	<s> E A	-0.20621195
-0.7062605	D E A	-0.20621195
-2.0318794	<s> T A	-0.20621195
-1.0403509	E T A	-0.20621195
-0.600651	I T A	-0.20621195
-0.63414794	S T A	-0.20621195
-0.63414794	N T A	-0.20621195
-0.8814606	R I A	-0.20621195
-1.6552647	<s> D A	-0.20621195
-0.9427544	E D A	-0.20621195
-1.2673967	<s> S A	-0.24728201
-0.85330594	E S A	-0.20621195
-0.7620492	I S A	-0.32575428
-0.3437104	S S A	-0.20621195
-0.94681764	i S A	-0.20621195
-1.33446	e S A	-0.20621195
-0.3437104	N S A	-0.20621195
-0.23448905	O S A	-0.20621195
-0.5695191	P S A	-0.20621195
-0.6815143	M S A	-0.20621195
-0.3437104	U S A	-0.20621195
-2.5748115	<s> K A	-0.20621195
-0.9832437	A K A	-0.20621195
-0.8065403	E K A	-0.20621195
-0.6244141	K H A	-0.20621195
-0.43925494	P H A	-0.20621195
-1.0783097	A L A	-0.20621195
-0.733335	E L A	-0.32575428
-0.41163856	D L A	-0.20621195
-0.8461053	H L A	-0.20621195
-0.96697813	O L A	-0.20621195
-0.33888355	U L A	-0.20621195
-2.028061	<s> W A	-0.20621195
-0.52275914	D W A	-0.20621195
-0.31530663	S W A	-0.20621195
-0.4421954	L W A	-0.28214732
-0.31530663	N W A	-0.20621195
-0.31530663	J W A	-0.20621195
-2.3335993	n e A	-0.20621195
-2.609958	<s> N A	-0.20621195
-0.96043015	O N A	-0.20621195
-1.0647336	U N A	-0.20621195
-0.6652586	D Z A	-0.20621195
-0.3753805	I Y A	-0.20621195
-0.3753805	U Y A	-0.20621195
-1.8553889	<s> P A	-0.20621195
-0.40901685	E P A	-0.20621195
-1.9123672	<s> M A	-0.20621195
-0.74141264	E M A	-0.20621195
-0.70349056	I F A	-0.20621195
-0.41890714	L G A	-0.20621195
-0.41056573	L R A	-0.20621195
-2.1104255	<s> A B	-0.20621195
-1.5980147	S A B	-0.20621195
-0.86734134	K A B	-0.20621195
-1.4400328	S E B	-0.20621195
-2.4347	<s> T B	-0.20621195
-1.1987627	L I B	-0.20621195
-0.80183494	M I B	-0.32575428
-1.3337996	A L B	-0.20621195
-2.7056122	<s> i B	-0.20621195
-2.1016364	l i B	-0.28214732
-2.2429864	m i B	-0.20621195
-2.1385765	s i B	-0.28214732
-2.2790704	y i B	-0.20621195
-2.9643285	<s> e B	-0.32575428
-1.5365647	T e B	-0.20621195
-1.2669536	D e B	-0.20621195
-2.0915244	n e B	-0.20621195
-2.1189072	w e B	-0.32575428
-2.174177	t e B	-0.20621195
-1.9898779	l e B	-0.20621195
-2.2567742	s e B	-0.20621195
-2.1078806	y e B	-0.20621195
-0.42788714	F N B	-0.20621195
-2.607955	w a B	-0.20621195
-1.509176	N a B	-0.20621195
-2.2584708	t a B	-0.20621195
-2.3784256	m a B	-0.20621195
-1.9995583	k a B	-0.28214732
-2.3617144	y a B	-0.20621195
-2.2555034	g u B	-0.20621195
-2.1345277	k u B	-0.28214732
-0.8924195	H U B	-0.20621195
-0.65761036	W U B	-0.20621195
-0.7993303	C U B	-0.20621195
-0.93833	F U B	-0.20621195
-0.9107972	A B E	-0.20621195
-0.3996553	E B E	-0.20621195
-0.9239553	U B E	-0.20621195
-2.3640234	<s> E E	-0.20621195
-2.3196843	<s> T E	-0.20621195
-1.0560036	I T E	-0.20621195
-2.3860319	<s> I E	-0.20621195
-1.6552647	<s> D E	-0.20621195
-1.2425543	N D E	-0.20621195
-1.6519748	<s> S E	-0.23714536
-0.6725127	E S E	-0.20621195
-0.6434297	T S E	-0.20621195
-1.1423883	I S E	-0.20621195
-0.7797992	M S E	-0.20621195
-0.38612357	J S E	-0.20621195
-0.9068036	K H E	-0.20621195
-2.1362615	<s> L E	-0.20621195
-1.0783097	A L E	-0.20621195
-0.76157534	I L E	-0.20621195
-0.7821267	D L E	-0.20621195
-0.8461053	H L E	-0.20621195
-0.75068367	U L E	-0.20621195
-0.4030373	K W E	-0.20621195
-0.934002	L W E	-0.20621195
-0.3443487	A V E	-0.20621195
-0.71197224	I V E	-0.20621195
-0.3443487	R V E	-0.20621195
-3.4095767	<s> i E	-0.20621195
-2.1393108	<s> N E	-0.20621195
-1.1538813	A N E	-0.20621195
-0.96043015	O N E	-0.20621195
-0.42127606	F C E	-0.20621195
-1.3908619	<s> Y E	-0.28214732
-0.6241916	A Y E	-0.20621195
-1.5795271	<s> O E	-0.20621195
-1.1205109	I M E	-0.20621195
-0.7000296	O M E	-0.20621195
-1.0493245	U M E	-0.20621195
-1.7182574	<s> F E	-0.20621195
-0.4098815	T J E	-0.20621195
-1.1575848	e G E	-0.20621195
-0.7163278	N G E	-0.32575428
-1.687271	<s> R E	-0.20621195
-0.85620135	E A T	-0.20621195
-1.1305293	T A T	-0.20621195
-1.255468	W A T	-0.20621195
-0.797617	B E T	-0.20621195
-0.92544967	S E T	-0.20621195
-0.797617	Y E T	-0.20621195
-0.3932332	F E T	-0.20621195
-0.65637344	G E T	-0.20621195
-1.9859023	<s> I T	-0.20621195
-0.902409	S I T	-0.20621195
-1.0567958	L I T	-0.20621195
-0.88714194	C I T	-0.20621195
-0.65452915	G I T	-0.20621195
-1.0728776	A D T	-0.20621195
-1.3402275	I S T	-0.20621195
-0.7104796	o S T	-0.20621195
-0.42066374	G H T	-0.20621195
-1.1668309	O L T	-0.20621195
-2.209621	<s> W T	-0.32575428
-1.8978734	S i T	-0.20621195
-1.4249825	L i T	-0.32575428
-2.3706307	t i T	-0.20621195
-1.8437501	l i T	-0.26188293
-2.2072961	m i T	-0.20621195
-1.7239443	s i T	-0.32431105
-2.743289	<s> e T	-0.20621195
-1.6222599	L e T	-0.20621195
-2.0851521	n e T	-0.20621195
-2.1156378	w e T	-0.28214732
-2.1682944	t e T	-0.20621195
-1.9863182	l e T	-0.20621195
-2.0979264	g e T	-0.20621195
-1.9955674	s e T	-0.20621195
-2.1023848	y e T	-0.20621195
-1.1980704	A N T	-0.20621195
-0.7194071	E N T	-0.37101284
-0.7113932	I C T	-0.20621195
-2.3618453	n a T	-0.20621195
-2.4545145	k a T	-0.20621195
-2.144164	k u T	-0.25016317
-0.8711034	A P T	-0.20621195
-0.691099	E R T	-0.20621195
-2.5083616	<s> A I	-0.20621195
-0.9551704	A B I	-0.20621195
-0.6930435	I B I	-0.20621195
-0.4367342	A T I	-0.20621195
-1.140987	E T I	-0.20621195
-0.6807786	N T I	-0.20621195
-2.0421255	<s> I I	-0.20621195
-0.8736356	I I I	-0.20621195
-0.91764575	A D I	-0.20621195
-0.84098434	E D I	-0.20621195
-0.3769175	O D I	-0.20621195
-0.3769175	M D I	-0.20621195
-2.3358538	<s> S I	-0.20621195
-0.85210365	A S I	-0.20621195
-1.1084951	E S I	-0.20621195
-1.5056816	<s> H I	-0.20621195
-0.65864205	i H I	-0.20621195
-0.65864205	e H I	-0.20621195
-2.1962187	<s> L I	-0.28214732
-0.60542315	A L I	-0.20621195
-1.1254758	E L I	-0.20621195
-0.8147117	I L I	-0.20621195
-0.97720706	L W I	-0.20621195
-1.9908955	<s> d I	-0.20621195
-2.5253289	s e I	-0.20621195
-0.99903435	E N I	-0.20621195
-1.8700458	<s> C I	-0.20621195
-0.99698395	A C I	-0.20621195
-0.70385236	G C I	-0.20621195
-0.36682656	A Z I	-0.20621195
-0.6091355	D Z I	-0.20621195
-0.96881914	A M I	-0.20621195
-0.7314803	E M I	-0.20621195
-0.72861135	I M I	-0.20621195
-1.6141137	<s> F I	-0.20621195
-0.9349476	A F I	-0.20621195
-1.6097203	<s> J I	-0.20621195
-1.1394566	N G I	-0.20621195
-1.3012503	<s> R I	-0.20621195
-0.6537573	A R I	-0.20621195
-1.5230224	S A D	-0.20621195
-1.0732108	H A D	-0.20621195
-0.68406004	P A D	-0.20621195
-0.40811932	R A D	-0.20621195
-2.0768623	<s> E D	-0.20621195
-1.2645715	S E D	-0.20621195
-0.8380685	V E D	-0.20621195
-1.0092536	N E D	-0.20621195
-2.329162	<s> I D	-0.20621195
-0.42129773	A I D	-0.20621195
-3.4804976	<s> e D	-0.20621195
-2.5176969	s e D	-0.20621195
-1.1185964	A N D	-0.20621195
-1.2761233	E N D	-0.20621195
-0.76997775	I N D	-0.20621195
-0.38000128	U N D	-0.20621195
-2.008826	<s> C D	-0.20621195
-0.6974921	I C D	-0.20621195
-2.7456632	w a D	-0.20621195
-2.4646783	k a D	-0.20621195
-2.2555034	g u D	-0.20621195
-2.5106146	k u D	-0.20621195
-0.8803135	H O D	-0.20621195
-1.0122503	A M D	-0.20621195
-1.8345122	<s> G D	-0.20621195
-1.0731575	B A S	-0.20621195
-1.2942164	S A S	-0.20621195
-0.98451465	A B S	-0.20621195
-0.65400106	T E S	-0.20621195
-0.84455234	L E S	-0.20621195
-0.79433626	W E S	-0.20621195
-0.79433626	M E S	-0.20621195
-0.3919373	R E S	-0.20621195
-1.1835908	E T S	-0.20621195
-0.41585782	H T S	-0.20621195
-1.7326608	<s> I S	-0.20621195
-0.96078455	T I S	-0.20621195
-0.8466861	S I S	-0.20621195
-0.6179954	N I S	-0.20621195
-0.8264667	C I S	-0.20621195
-0.7048286	M I S	-0.20621195
-0.6179954	F I S	-0.20621195
-0.70435447	I D S	-0.20621195
-0.42587093	G S S	-0.20621195
-3.2551546	<s> i S	-0.20621195
-1.9174861	S i S	-0.20621195
-1.8516958	l i S	-0.28214732
-2.1564095	g i S	-0.20621195
-2.1297836	s i S	-0.28214732
-2.1540153	<s> e S	-0.46024525
-1.5166521	T e S	-0.20621195
-2.0522358	n e S	-0.20621195
-2.0983772	w e S	-0.25016317
-1.8360921	b e S	-0.20621195
-2.1378038	t e S	-0.20621195
-1.7551951	l e S	-0.28214732
-2.0668485	g e S	-0.20621195
-1.9756479	s e S	-0.20621195
-2.073822	y e S	-0.20621195
-1.2181022	A N S	-0.20621195
-3.3802867	<s> a S	-0.20621195
-1.8629134	n a S	-0.20621195
-2.0060391	w a S	-0.2974401
-2.263721	b a S	-0.20621195
-2.3345728	l a S	-0.20621195
-1.8310204	g a S	-0.28214732
-2.2807424	m a S	-0.20621195
-2.222769	k a S	-0.20621195
-2.2737138	y a S	-0.20621195
-2.346846	b o S	-0.20621195
-1.0245578	F o S	-0.20621195
-1.0144893	P r S	-0.20621195
-2.4870636	u m S	-0.20621195
-1.7858468	K u S	-0.20621195
-2.339331	l u S	-0.20621195
-2.1439161	g u S	-0.20621195
-2.37491	k u S	-0.20621195
-0.8372141	T O S	-0.20621195
-0.9398709	C O S	-0.20621195
-0.8374816	A P S	-0.20621195
-0.68479836	I P S	-0.20621195
-0.96646166	A M S	-0.20621195
-0.41606423	V M S	-0.20621195
-1.0474318	U M S	-0.20621195
-1.6049142	<s> J S	-0.20621195
-1.8005347	<s> G S	-0.20621195
-2.321193	<s> U S	-0.20621195
-0.6874902	A R S	-0.20621195
-2.232002	<s> A K	-0.20621195
-1.1015383	T A K	-0.20621195
-0.4380967	K A K	-0.20621195
-0.5538262	M A K	-0.32575428
-0.85158646	B E K	-0.20621195
-1.3306522	S E K	-0.20621195
-0.85158646	Y E K	-0.20621195
-0.6934392	B I K	-0.20621195
-1.1546495	L I K	-0.20621195
-0.84981483	R I K	-0.20621195
-2.120359	l i K	-0.32575428
-2.2734017	m i K	-0.20621195
-2.1571603	s i K	-0.32575428
-2.3109436	y i K	-0.20621195
-2.7545443	<s> e K	-0.20621195
-1.4512889	S e K	-0.20621195
-2.1180317	n e K	-0.20621195
-1.8999407	w e K	-0.28214732
-1.896692	t e K	-0.32575428
-2.2840743	l e K	-0.20621195
-2.1288335	g e K	-0.20621195
-1.7920932	s e K	-0.2974401
-1.3792255	E N K	-0.20621195
-0.99155974	O N K	-0.20621195
-1.0639272	L a K	-0.37101284
-2.4882863	l a K	-0.20621195
-2.4441416	m a K	-0.20621195
-2.4197326	y a K	-0.20621195
-2.366565	b o K	-0.20621195
-2.471601	l o K	-0.20621195
-2.721387	e m K	-0.20621195
-2.2531567	g u K	-0.20621195
-2.5076785	k u K	-0.20621195
-1.1810242	E M K	-0.20621195
-0.86220855	L U K	-0.20621195
-0.70204794	V U K	-0.20621195
-2.6348445	<s> B H	-0.20621195
-1.4274737	S E H	-0.20621195
-1.170807	E S H	-0.20621195
-0.573561	A K H	-0.26188293
-0.7240462	E K H	-0.20621195
-0.39713833	I K H	-0.20621195
-0.24567585	N K H	-0.20621195
-0.3627341	M K H	-0.20621195
-1.6980286	<s> H H	-0.20621195
-3.3884025	<s> i H	-0.20621195
-2.539256	l i H	-0.20621195
-2.3159943	n e H	-0.20621195
-2.5028958	s e H	-0.20621195
-1.4063511	E N H	-0.20621195
-0.4221069	U C H	-0.20621195
-1.3339314	K a H	-0.20621195
-2.0320475	w a H	-0.32359126
-2.2508054	t a H	-0.20621195
-2.4188159	l a H	-0.20621195
-1.9953501	k a H	-0.20621195
-2.3540611	y a H	-0.20621195
-2.4901204	l o H	-0.20621195
-2.7050278	e m H	-0.20621195
-1.6660581	L u H	-0.20621195
-2.2006586	g u H	-0.20621195
-2.104783	k u H	-0.26188293
-0.42038912	Y O H	-0.20621195
-0.80051327	A P H	-0.20621195
-0.65846366	I P H	-0.20621195
-0.39437237	U P H	-0.20621195
-0.8683699	I G H	-0.20621195
-0.88567126	K U H	-0.32575428
-0.85861677	L U H	-0.20621195
-1.7840866	<s> A L	-0.20621195
-1.1702442	S A L	-0.20621195
-1.0001547	H A L	-0.20621195
-1.2060057	L A L	-0.20621195
-0.65274215	Y A L	-0.20621195
-0.8996246	M A L	-0.20621195
-1.2035186	S E L	-0.20621195
-0.6575646	H E L	-0.20621195
-0.603932	L E L	-0.28214732
-0.42543575	V E L	-0.20621195
-0.79926676	M E L	-0.20621195
-0.7082663	B I L	-0.20621195
-0.7385392	T I L	-0.20621195
-0.949818	E D L	-0.20621195
-0.8860768	N D L	-0.20621195
-0.3774624	E H L	-0.20621195
-0.3774624	N H L	-0.20621195
-0.3774624	O H L	-0.20621195
-0.25419766	U H L	-0.32575428
-1.3310517	A L L	-0.20621195
-2.1400151	t i L	-0.32575428
-2.484885	<s> e L	-0.25016317
-1.6244369	L e L	-0.20621195
-2.0889642	n e L	-0.20621195
-2.1175966	w e L	-0.20621195
-2.1718142	t e L	-0.20621195
-1.9884505	l e L	-0.32575428
-1.8167726	g e L	-0.20621195
-1.9978356	s e L	-0.20621195
-2.105674	y e L	-0.20621195
-1.906299	n a L	-0.28214732
-2.6050725	w a L	-0.20621195
-2.2559006	t a L	-0.20621195
-1.8698763	g a L	-0.26188293
-2.3755453	m a L	-0.20621195
-2.319813	k a L	-0.20621195
-1.9836113	b o L	-0.28214732
-2.5715127	<s> u L	-0.4959516
-1.986595	l u L	-0.32575428
-2.1170492	g u L	-0.20621195
-2.0561628	k u L	-0.25016317
-1.4524434	p u L	-0.20621195
-0.35436404	L O L	-0.2693626
-0.9478201	C O L	-0.20621195
-1.7578517	<s> U L	-0.20621195
-0.95797294	K U L	-0.20621195
-0.7823685	H U L	-0.20621195
-0.59018505	W U L	-0.20621195
-0.59018505	V U L	-0.20621195
-0.7084519	C U L	-0.20621195
-0.35587853	G U L	-0.20621195
-1.3614296	L A W	-0.20621195
-0.7121596	Y A W	-0.20621195
-1.6716225	<s> D W	-0.20621195
-0.69010836	C D W	-0.20621195
-0.688382	I S W	-0.37101284
-2.2180786	<s> K W	-0.37101284
-0.5227062	E L W	-0.28214732
-0.8468578	I L W	-0.20621195
-1.0998106	O L W	-0.20621195
-2.4991105	l e W	-0.20621195
-2.512707	s e W	-0.20621195
-1.234167	I N W	-0.20621195
-2.5348945	m a W	-0.20621195
-1.9036409	e h W	-0.20621195
-3.8867755	<s> k W	-0.20621195
-1.9764398	<s> P W	-0.20621195
-1.7390392	<s> F W	-0.20621195
-0.27351362	N J W	-0.32575428
-1.7293726	S A V	-0.20621195
-2.2182324	<s> I V	-0.20621195
-0.17002884	H I V	-0.37101284
-1.1599696	L I V	-0.20621195
-0.6389342	N D V	-0.28214732
-2.6262207	s i V	-0.20621195
-2.126303	<s> C V	-0.20621195
-1.7597228	S a V	-0.20621195
-2.645074	w a V	-0.20621195
-2.4616134	l a V	-0.20621195
-2.410967	s a V	-0.20621195
-2.3608894	k a V	-0.20621195
-2.5594878	k u V	-0.20621195
-0.69595784	E R V	-0.20621195
-1.8560886	<s> B i	-0.32575428
-0.3021192	<s> T i	-0.6624095
-0.64971626	i T i	-0.28214732
-0.6566155	e T i	-0.27045214
-0.8737954	u T i	-0.20621195
-0.60906917	<s> D i	-0.26188293
-0.67310286	a D i	-0.20621195
-0.30463728	<s> S i	-0.8647895
-0.5962266	e S i	-0.3774347
-0.38124517	a S i	-0.28127652
-0.37480634	u S i	-0.23714536
-2.732946	<s> K i	-0.20621195
-0.8609833	<s> L i	-0.5217028
-1.0603195	A L i	-0.20621195
-0.53089017	e L i	-0.40578052
-0.47654033	a L i	-0.32359126
-0.62234306	o L i	-0.20621195
-1.0406927	u L i	-0.20621195
-2.491133	<s> W i	-0.20621195
-0.77184075	<s> V i	-0.20621195
-0.37267956	u V i	-0.20621195
-1.4841359	<s> i i	-0.45469478
-2.398826	t i i	-0.20621195
-2.0939999	l i i	-0.20621195
-1.6168442	k i i	-0.20621195
-1.7308443	<s> n i	-0.68463814
-0.9782193	A n i	-0.20621195
-1.174819	I n i	-0.20621195
-0.88978755	i n i	-0.6976022
-1.0435969	n n i	-0.20621195
-0.7788664	d n i	-0.20621195
-1.0768108	e n i	-0.65080905
-1.1369913	a n i	-0.6706773
-0.7788664	t n i	-0.20621195
-1.2004179	o n i	-0.40363643
-0.9156744	m n i	-0.57736754
-1.0189842	u n i	-0.43054155
-0.6789734	M n i	-0.32575428
-0.9782193	U n i	-0.20621195
-1.3712765	<s> d i	-0.32575428
-1.0923558	i d i	-0.41448775
-0.9423833	n d i	-0.33995044
-0.7484815	d d i	-0.20621195
-0.9340284	e d i	-0.27045214
-0.9872945	N d i	-0.28214732
-1.1267762	a d i	-0.26535738
-1.3375521	o d i	-0.32575428
-0.5980788	l d i	-0.32575428
-1.3466874	m d i	-0.20621195
-1.290412	u d i	-0.23714536
-2.9065793	<s> w i	-0.20621195
-0.69099146	L w i	-0.32575428
-1.5859393	i w i	-0.20621195
-0.94272673	d w i	-0.20621195
-0.8569729	w w i	-0.20621195
-1.691967	a w i	-0.20621195
-0.5856524	l w i	-0.47015107
-0.8834734	g w i	-0.28214732
-1.0007187	f w i	-0.20621195
-1.0501091	u w i	-0.20621195
-0.90574974	h w i	-0.233156
-1.1577504	s w i	-0.28214732
-0.77912354	v w i	-0.20621195
-1.2857734	k w i	-0.20621195
-0.5715866	U w i	-0.20621195
-1.5031289	B e i	-0.20621195
-2.3834763	w e i	-0.20621195
-1.3699994	N e i	-0.20621195
-1.830811	r e i	-0.20621195
-2.0925577	c e i	-0.20621195
-2.0293422	m e i	-0.20621195
-1.1655052	u e i	-0.20621195
-1.6840818	k e i	-0.32575428
-1.3853462	<s> N i	-0.32451695
-1.1889236	E N i	-0.20621195
-1.0566869	I N i	-0.20621195
-1.321113	i N i	-0.20621195
-0.7410481	e N i	-0.8481341
-1.1043385	<s> C i	-0.32431105
-0.6579104	a C i	-0.20621195
-0.97403127	u C i	-0.20621195
-2.5993378	<s> b i	-0.20621195
-0.8832412	A b i	-0.20621195
-0.7984838	i b i	-0.53952515
-1.1106141	e b i	-0.27315867
-0.93078834	a b i	-0.6451396
-0.617813	t b i	-0.20621195
-1.1079761	o b i	-0.29164198
-0.67784375	m b i	-0.53502494
-0.9140223	u b i	-0.4774107
-3.2784185	<s> a i	-0.20621195
-1.0661308	H a i	-0.20621195
-2.048016	n a i	-0.20621195
-1.4141624	N a i	-0.20621195
-2.069063	t a i	-0.20621195
-1.1709698	r a i	-0.20621195
-1.9889733	l a i	-0.20621195
-2.036356	g a i	-0.20621195
-2.1708095	m a i	-0.20621195
-1.8685577	f a i	-0.20621195
-1.8501464	v a i	-0.20621195
-1.5616246	p a i	-0.20621195
-0.97655654	R a i	-0.20621195
-0.31452742	<s> t i	-1.468675
-0.72154176	A t i	-0.20621195
-0.797931	E t i	-0.20621195
-0.8274938	i t i	-0.5040743
-0.96503526	n t i	-0.43486065
-0.8577304	e t i	-0.79080486
-0.4254109	N t i	-0.32359126
-0.8304313	a t i	-0.8453626
-1.0496898	t t i	-0.20621195
-0.73506963	o t i	-0.47499985
-0.5797771	r t i	-0.27045214
-0.43077862	c t i	-0.4205013
-0.79619193	m t i	-0.44356814
-0.9306763	u t i	-0.44246435
-0.72154176	h t i	-0.20621195
-0.90052	s t i	-0.25016317
-0.82026803	p t i	-0.20621195
-0.47526306	M t i	-0.4959516
-0.72154176	U t i	-0.20621195
-1.0975957	T o i	-0.20621195
-2.0497775	t o i	-0.20621195
-1.3286384	v o i	-0.32575428
-1.3744833	J o i	-0.20621195
-0.5856834	B r i	-0.20621195
-0.7530319	I r i	-0.20621195
-0.34465715	W r i	-0.20621195
-1.0568717	i r i	-0.20621195
-0.68357784	d r i	-0.20621195
-0.9700853	e r i	-0.206212
-0.9416435	a r i	-0.20621195
-0.63586974	t r i	-0.25016317
-1.0055765	o r i	-0.26188293
-0.547226	r r i	-0.20621195
-0.459048	g r i	-0.28214732
-0.57111263	f r i	-0.20621195
-0.87895703	u r i	-0.20621195
-0.547226	h r i	-0.20621195
-0.55969983	p r i	-0.20621195
-0.7530319	P r i	-0.20621195
-0.7530319	F r i	-0.20621195
-0.36003107	<s> z i	-0.2814941
-0.32358366	E z i	-0.20621195
-0.63629204	i z i	-0.44411024
-0.70221525	n z i	-0.26188293
-0.49435994	d z i	-0.5638551
-0.44953522	e z i	-0.39334637
-0.63363796	a z i	-0.5166498
-0.30464992	o z i	-0.50269055
-0.99260706	m z i	-0.20621195
-0.65905964	u z i	-0.37614274
-1.0850558	<s> l i	-1.1908224
-0.756529	A l i	-0.20621195
-0.756529	E l i	-0.20621195
-0.6865563	I l i	-0.20621195
-0.78404725	i l i	-0.5764637
-0.9271137	n l i	-0.20621195
-0.8673459	d l i	-0.45161107
-0.71842116	e l i	-0.8004871
-0.57340974	C l i	-0.20621195
-0.6468775	b l i	-0.20621195
-0.78941286	a l i	-0.74043286
-0.73572475	o l i	-0.42111817
-1.0762504	l l i	-0.20621195
-0.7042741	m l i	-0.35462636
-0.84538215	u l i	-0.53630626
-0.85275364	h l i	-0.3353065
-1.1104977	k l i	-0.20621195
-0.9047645	p l i	-0.20621195
-0.57340974	O l i	-0.20621195
-0.57340974	M l i	-0.20621195
-0.3460194	U l i	-0.20621195
-1.0226676	<s> c i	-0.20621195
-0.75243425	E c i	-0.20621195
-0.38041905	S c i	-0.20621195
-0.88370967	i c i	-0.44562557
-0.88278556	n c i	-0.38015565
-0.34442365	w c i	-0.20621195
-0.8235656	e c i	-0.2673165
-0.81483513	a c i	-0.584092
-0.90804577	o c i	-0.28214732
-0.8717526	r c i	-0.20621195
-0.6290968	g c i	-0.5179511
-0.7316889	m c i	-0.36333522
-0.8788358	u c i	-0.47152615
-0.7778913	s c i	-0.20621195
-0.5707194	x c i	-0.20621195
-0.38041905	G c i	-0.20621195
-0.80008256	U c i	-0.20621195
-1.0287224	<s> g i	-0.20621195
-0.8472996	A g i	-0.20621195
-0.9352015	i g i	-0.37614274
-0.9206367	n g i	-0.580761
-0.5979389	d g i	-0.20621195
-0.72279173	e g i	-0.26125947
-0.95566	N g i	-0.22140333
-0.9418583	a g i	-0.42820758
-1.0874499	o g i	-0.25016317
-1.14711	m g i	-0.20621195
-1.0527419	u g i	-0.32431105
-0.74402815	s g i	-0.20621195
-1.183348	<s> m i	-0.4205013
-1.150566	E m i	-0.20621195
-1.1072013	I m i	-0.20621195
-0.9792354	i m i	-0.45945427
-0.81276125	d m i	-0.20621195
-1.1760541	e m i	-0.72451466
-1.0435302	a m i	-0.70036393
-1.0113994	o m i	-0.4422303
-0.3927706	c m i	-0.20621195
-0.74032724	m m i	-0.39125785
-1.1309193	u m i	-0.48924968
-0.7964441	j m i	-0.20621195
-0.9463773	<s> f i	-0.20621195
-0.73565775	A f i	-0.20621195
-0.6597332	i f i	-0.51453173
-0.6687281	d f i	-0.20621195
-0.51005065	e f i	-0.71241343
-0.58726746	a f i	-0.6046766
-1.3815426	t f i	-0.20621195
-0.7359852	o f i	-0.27045214
-0.6892597	m f i	-0.47015107
-0.31095207	f f i	-0.32359126
-0.65460116	u f i	-0.43796882
-0.6687281	h f i	-0.20621195
-0.91737044	M f i	-0.20621195
-0.5596064	U f i	-0.20621195
-1.6268351	B u i	-0.20621195
-2.0889852	f u i	-0.20621195
-0.6712193	q u i	-0.20621195
-1.0053939	G u i	-0.20621195
-1.5015231	<s> h i	-0.20621195
-0.71023554	B h i	-0.32575428
-1.014054	T h i	-0.20621195
-0.9560621	S h i	-0.20621195
-1.1396757	K h i	-0.20621195
-0.579313	W h i	-0.20621195
-1.5728264	i h i	-0.20621195
-1.2057832	n h i	-0.20621195
-1.1995398	e h i	-0.20621195
-0.84374243	N h i	-0.20621195
-0.7208131	C h i	-0.2990684
-0.7317499	b h i	-0.34505323
-1.6304337	a h i	-0.20621195
-0.7937427	t h i	-0.43304408
-1.2783587	o h i	-0.20621195
-0.8036391	c h i	-0.40417147
-1.4322171	u h i	-0.20621195
-1.0288925	h h i	-0.20621195
-0.7710677	s h i	-0.546702
-0.82140404	k h i	-0.5541268
-0.7351285	p h i	-0.5445515
-0.9693284	P h i	-0.20621195
-0.40392995	<s> s i	-1.4138544
-0.93465436	A s i	-0.20621195
-0.7148952	E s i	-0.20621195
-0.7590265	T s i	-0.20621195
-0.79001784	I s i	-0.20621195
-0.822102	i s i	-0.6912005
-0.780519	n s i	-0.37674367
-0.76892006	e s i	-0.7798964
-0.7148952	N s i	-0.20621195
-0.8129196	b s i	-0.20621195
-0.78300685	a s i	-0.7332274
-0.66341007	t s i	-0.57053334
-0.641768	o s i	-0.37581816
-1.0645151	r s i	-0.20621195
-0.79814935	m s i	-0.42460096
-0.8577899	u s i	-0.4583575
-0.8533124	s s i	-0.20621195
-0.9643617	k s i	-0.20621195
-0.862851	M s i	-0.20621195
-1.1275011	<s> v i	-0.20621195
-0.5179199	E v i	-0.20621195
-0.7333087	i v i	-0.3560108
-0.61583346	n v i	-0.20621195
-1.361426	d v i	-0.20621195
-0.8278236	e v i	-0.23714536
-0.68840694	a v i	-0.44758493
-0.6993697	o v i	-0.2693626
-0.4386465	r v i	-0.20621195
-0.8633363	m v i	-0.26188293
-0.6316811	u v i	-0.42528215
-0.38170022	M v i	-0.28214732
-2.7453876	<s> k i	-0.24252209
-0.3693363	S k i	-0.20621195
-0.81709564	i k i	-0.5476632
-1.0035372	n k i	-0.431521
-0.9622779	e k i	-0.68118566
-0.91650105	a k i	-0.5307158
-1.1584957	o k i	-0.40578052
-1.0383873	r k i	-0.20621195
-0.9994412	c k i	-0.20621195
-0.3693363	f k i	-0.20621195
-1.0125668	u k i	-0.61684614
-0.9535914	<s> y i	-0.93364644
-0.59775615	A y i	-0.20621195
-0.7836481	i y i	-0.41746956
-0.8627719	n y i	-0.44857225
-0.55833983	e y i	-0.42631933
-0.51981086	a y i	-0.7342312
-0.32332656	o y i	-0.3513907
-1.2204123	m y i	-0.20621195
-0.5885021	u y i	-0.4355718
-1.714983	<s> p i	-0.20621195
-1.027693	i p i	-0.2990684
-1.095758	e p i	-0.28214732
-1.4244995	a p i	-0.20621195
-1.4125612	o p i	-0.20621195
-0.9070543	m p i	-0.23714536
-1.3963995	u p i	-0.20621195
-0.8483784	p p i	-0.20621195
-1.0498326	M p i	-0.20621195
-1.0650424	n q i	-0.20621195
-1.0598794	<s> j i	-0.26188293
-0.42552033	i j i	-0.45242882
-0.69943076	n j i	-0.53533965
-0.7491062	e j i	-0.25016317
-0.5844306	a j i	-0.40320426
-0.861226	t j i	-0.33679488
-0.9359461	o j i	-0.20621195
-0.7675525	m j i	-0.26188293
-0.8051154	u j i	-0.28214732
-1.0041847	e x i	-0.20621195
-0.7162132	<s> Z i	-0.20621195
-0.24367596	e Z i	-0.32575428
-1.2716647	<s> Y i	-0.32359126
-1.5457689	<s> P i	-0.20621195
-0.82277966	e P i	-0.20621195
-1.2782385	<s> M i	-0.24252209
-0.92454386	i M i	-0.20621195
-0.99117553	e M i	-0.30534327
-1.4215328	u M i	-0.20621195
-1.560538	<s> F i	-0.20621195
-0.6690697	o F i	-0.20621195
-1.1961266	<s> J i	-0.32575428
-0.63761413	a J i	-0.20621195
-0.9279704	<s> G i	-0.20621195
-1.1312051	e G i	-0.20621195
-1.0195942	<s> R i	-0.20621195
-0.108972065	e R i	-0.32359126
-0.3578685	u R i	-0.20621195
-0.8938907	<s> A n	-0.7288039
-1.0722255	<s> E n	-0.31399482
-0.42792514	<s> I n	-0.60865325
-0.600796	<s> i n	-1.1794724
-0.97412515	T i n	-0.25347954
-0.7349844	D i n	-0.20621195
-1.3130261	S i n	-0.233156
-0.9138507	L i n	-0.32735452
-1.0154417	i i n	-0.20621195
-0.9736865	n i n	-0.5006166
-0.9345751	d i n	-0.28214732
-0.38222173	w i n	-0.47727865
-1.1097219	e i n	-0.20621195
-0.40846562	N i n	-0.44356814
-0.6158949	C i n	-0.28214732
-0.91302633	b i n	-0.44853
-0.5852589	a i n	-0.28214732
-1.0748652	t i n	-0.5872805
-0.8990942	o i n	-0.20621195
-0.8609858	r i n	-0.37662134
-0.9606031	z i n	-0.3857905
-1.0982693	l i n	-0.5616188
-0.73480535	c i n	-0.4998787
-1.1756504	g i n	-0.30271772
-0.99919957	m i n	-0.45707518
-0.93963623	f i n	-0.32703403
-0.92535394	h i n	-0.4264773
-1.2507789	s i n	-0.5360644
-0.9896573	v i n	-0.29164198
-0.8437537	k i n	-0.3260965
-1.1453336	y i n	-0.5136344
-1.065907	p i n	-0.20621195
-0.8147872	j i n	-0.50040233
-0.65240127	Y i n	-0.20621195
-0.92453355	M i n	-0.28214732
-0.9993967	G i n	-0.20621195
-2.51916	e n n	-0.20621195
-1.900725	a n n	-0.20621195
-2.38746	o n n	-0.20621195
-0.98882276	h n n	-0.20621195
-2.0893707	i d n	-0.20621195
-0.2812412	g d n	-0.28214732
-1.1512815	<s> e n	-0.8741725
-1.2589011	B e n	-0.20621195
-1.2842703	T e n	-0.20621195
-1.2149824	S e n	-0.20621195
-0.65954334	K e n	-0.20621195
-1.3462753	L e n	-0.20621195
-1.2460996	W e n	-0.20621195
-0.91025627	V e n	-0.20621195
-1.070041	i e n	-0.26188293
-1.0920851	n e n	-0.4895182
-0.8425377	d e n	-0.27315867
-0.91469353	w e n	-0.6660186
-1.1632516	N e n	-0.20621195
-0.9635407	C e n	-0.20621195
-1.0615847	b e n	-0.5226652
-1.049607	t e n	-0.39583722
-1.1472074	r e n	-0.35233974
-0.88542575	z e n	-0.27045214
-1.0839156	l e n	-0.50557995
-1.1809589	c e n	-0.25533298
-1.0337021	g e n	-0.35155416
-0.80081356	m e n	-0.5549888
-0.8340675	f e n	-0.5564597
-1.094396	h e n	-0.3929292
-1.0989997	s e n	-0.5900763
-0.832222	v e n	-0.38855198
-0.8921932	k e n	-0.33950257
-0.96546715	y e n	-0.48741567
-0.85074717	p e n	-0.2974401
-0.9207661	j e n	-0.3097969
-1.1632516	Y e n	-0.20621195
-0.64417577	M e n	-0.37101284
-0.39495978	J e n	-0.20621195
-1.140397	G e n	-0.20621195
-0.8129414	<s> a n	-1.2500223
-0.79363	B a n	-0.30441633
-1.2696702	T a n	-0.20621195
-0.95499784	D a n	-0.20621195
-1.181631	S a n	-0.28214732
-1.1065061	K a n	-0.20621195
-1.3094383	L a n	-0.20621195
-1.2459521	W a n	-0.20621195
-0.86096907	i a n	-0.32359126
-1.1281706	n a n	-0.46943945
-1.1172644	d a n	-0.20621195
-0.99075484	w a n	-0.72230464
-1.2228057	N a n	-0.20621195
-1.1754054	b a n	-0.5828707
-1.1278254	a a n	-0.20621195
-1.0334252	t a n	-0.45242882
-1.0837415	r a n	-0.28214732
-0.7461041	z a n	-0.38761592
-1.0244397	l a n	-0.56921875
-0.9947487	c a n	-0.37467083
-1.0372956	g a n	-0.39038318
-1.0513463	m a n	-0.5779497
-0.8437612	f a n	-0.5868327
-0.9359534	h a n	-0.5070446
-1.0589595	s a n	-0.5086013
-0.78649163	v a n	-0.45242882
-1.1649256	k a n	-0.5187004
-1.1364646	y a n	-0.5211024
-0.91210556	p a n	-0.24252209
-0.703158	q a n	-0.20621195
-0.8421583	j a n	-0.4359206
-0.96911377	x a n	-0.20621195
-0.3926363	Z a n	-0.20621195
-1.1497977	Y a n	-0.20621195
-1.0907713	P a n	-0.20621195
-0.90047884	M a n	-0.3162338
-0.96911377	F a n	-0.20621195
-0.9148849	J a n	-0.20621195
-2.4416606	e t n	-0.20621195
-1.3971598	t t n	-0.20621195
-1.4936324	r t n	-0.20621195
-0.9015842	<s> o n	-0.24252209
-1.1416068	B o n	-0.20621195
-0.9170893	T o n	-0.20621195
-0.7767809	S o n	-0.20621195
-0.9634307	K o n	-0.20621195
-1.0390301	L o n	-0.20621195
-0.97868735	W o n	-0.20621195
-0.49482414	i o n	-0.3747438
-0.8030282	n o n	-0.32703403
-0.98539525	d o n	-0.20621195
-0.68579423	w o n	-0.32735452
-0.99984735	N o n	-0.20621195
-1.0981112	C o n	-0.20621195
-0.9457223	b o n	-0.5516267
-0.8617459	t o n	-0.2666278
-0.9961433	r o n	-0.20621195
-0.56698585	z o n	-0.26094803
-1.0499496	l o n	-0.52033055
-0.74366814	c o n	-0.46377152
-1.0829693	g o n	-0.27392772
-0.78376526	m o n	-0.3684267
-1.4230515	f o n	-0.20621195
-1.125676	h o n	-0.3566066
-0.7288022	s o n	-0.45234025
-0.95197695	v o n	-0.26188293
-0.8788052	k o n	-0.34617952
-0.9060907	y o n	-0.42820758
-0.9475229	p o n	-0.28214732
-0.6358549	q o n	-0.20621195
-1.1044952	j o n	-0.28214732
-0.6358549	x o n	-0.20621195
-0.3819187	Z o n	-0.20621195
-0.6358549	Y o n	-0.20621195
-1.1319109	<s> r n	-0.20621195
-1.3406461	i r n	-0.20621195
-1.2432467	e r n	-0.2990684
-1.6455021	a r n	-0.20621195
-1.6069816	o r n	-0.20621195
-1.2273378	u r n	-0.20621195
-3.6878548	<s> l n	-0.32575428
-1.5179346	l l n	-0.20621195
-2.2918434	a g n	-0.20621195
-1.1139092	<s> m n	-0.43304408
-0.9281537	A m n	-0.20621195
-1.2253003	E m n	-0.20621195
-1.3350736	i m n	-0.324023
-1.3501996	e m n	-0.64385873
-1.3100785	a m n	-0.4591533
-1.545416	o m n	-0.28214732
-1.4890597	u m n	-0.414361
-1.3322413	U m n	-0.206212
-0.8998233	<s> u n	-1.1214685
-1.2759349	B u n	-0.20621195
-0.65026563	T u n	-0.20621195
-1.1802258	K u n	-0.2300784
-1.2783877	L u n	-0.20621195
-1.3386856	d u n	-0.20621195
-1.235384	w u n	-0.3011588
-1.1960905	b u n	-0.4606551
-0.8942594	t u n	-0.24252209
-0.65633315	o u n	-0.26188293
-1.0372438	r u n	-0.20621195
-1.3884155	z u n	-0.20621195
-1.1141571	l u n	-0.44640198
-0.91716284	c u n	-0.36333522
-1.0943885	g u n	-0.32766017
-0.8949085	m u n	-0.527889
-0.69582736	f u n	-0.5843418
-0.9348183	h u n	-0.42250115
-0.9864849	s u n	-0.5928616
-0.8641787	v u n	-0.42576867
-1.1903222	k u n	-0.50619
-0.7086233	y u n	-0.37101284
-0.93929726	p u n	-0.20621195
-1.459566	j u n	-0.20621195
-0.7891844	M u n	-0.20621195
-0.22778158	F u n	-0.49968252
-0.65026563	J u n	-0.20621195
-2.1496465	a h n	-0.20621195
-1.6766784	o h n	-0.20621195
-1.9807179	c h n	-0.20621195
-2.3445396	e s n	-0.20621195
-2.3796835	a s n	-0.20621195
-1.2264203	k s n	-0.20621195
-2.3721793	e k n	-0.20621195
-1.2313445	c k n	-0.20621195
-0.42769822	C y n	-0.20621195
-1.9522074	<s> j n	-0.20621195
-1.8531566	t j n	-0.20621195
-0.69947284	<s> O n	-0.25016317
-1.6139028	<s> M n	-0.28214732
-1.3320595	e M n	-0.32359126
-1.669968	a M n	-0.20621195
-1.4583493	u M n	-0.20621195
-0.84443545	<s> U n	-0.61965936
-1.7991444	<s> A d	-0.26188293
-2.391258	<s> I d	-0.20621195
-1.9328185	<s> i d	-0.3817966
-1.4469658	T i d	-0.20621195
-1.5935688	S i d	-0.20621195
-1.3354046	i i d	-0.20621195
-1.6509542	n i d	-0.20621195
-1.3969345	d i d	-0.32575428
-1.3500346	w i d	-0.20621195
-1.5399091	b i d	-0.20621195
-1.4137697	a i d	-0.20621195
-1.389301	t i d	-0.43059984
-1.6648508	r i d	-0.20621195
-1.5681536	z i d	-0.32575428
-1.4096441	l i d	-0.31554446
-0.94935054	g i d	-0.60228646
-1.2790098	m i d	-0.34328434
-1.2985798	f i d	-0.20621195
-0.9986112	u i d	-0.20621195
-1.9071397	h i d	-0.20621195
-1.4466411	s i d	-0.40417147
-1.6929333	k i d	-0.20621195
-1.4179969	y i d	-0.3097969
-1.3976722	p i d	-0.20621195
-1.2740221	M i d	-0.20621195
-2.309605	<s> n d	-0.5956568
-1.0289621	A n d	-0.20621195
-1.0716101	E n d	-0.20621195
-1.2575271	I n d	-0.20621195
-1.063731	i n d	-0.68015754
-1.0626408	e n d	-0.7056407
-1.06253	a n d	-0.65736383
-0.910846	o n d	-0.6992549
-1.3351085	m n d	-0.37101284
-1.0965779	u n d	-0.41863182
-1.0289621	U n d	-0.20621195
-0.8733062	A d d	-0.20621195
-2.039561	i d d	-0.20621195
-2.1444142	a d d	-0.20621195
-1.6939566	c w d	-0.20621195
-2.2691936	<s> e d	-0.23714536
-1.4058133	i e d	-0.20621195
-1.786537	n e d	-0.20621195
-1.3557907	d e d	-0.20621195
-1.5592289	w e d	-0.32467142
-0.6754	e e d	-0.2990684
-1.2283651	N e d	-0.20621195
-1.5192913	b e d	-0.2974401
-1.3225679	t e d	-0.2974401
-1.3833971	r e d	-0.20621195
-1.6176792	z e d	-0.20621195
-1.4327377	l e d	-0.3250321
-1.0470555	c e d	-0.6342543
-1.2570173	g e d	-0.33932716
-1.3792909	m e d	-0.20621195
-1.6867012	f e d	-0.20621195
-1.8817428	h e d	-0.20621195
-1.3698918	s e d	-0.44356814
-1.7388741	v e d	-0.20621195
-1.7679935	k e d	-0.20621195
-1.4704655	y e d	-0.2974401
-1.2463331	p e d	-0.32575428
-1.1448764	P e d	-0.20621195
-1.2489862	M e d	-0.20621195
-1.195017	G e d	-0.20621195
-2.167352	<s> N d	-0.20621195
-1.0107757	I N d	-0.20621195
-0.67812884	i N d	-0.2974401
-0.84734344	e N d	-0.46189398
-0.8527412	a N d	-0.32575428
-0.91427743	o N d	-0.20621195
-0.93092304	u N d	-0.20621195
-1.9404224	<s> a d	-0.4565252
-1.4461821	B a d	-0.20621195
-1.0092736	D a d	-0.20621195
-1.1856127	K a d	-0.20621195
-1.4283437	L a d	-0.20621195
-1.3592207	W a d	-0.20621195
-1.6380173	d a d	-0.20621195
-1.3796422	w a d	-0.45330045
-0.7323633	e a d	-0.26188293
-1.3277152	b a d	-0.39125785
-0.8298343	a a d	-0.32575428
-1.9078686	t a d	-0.20621195
-1.3386992	r a d	-0.32575428
-1.7438066	z a d	-0.20621195
-1.5877304	l a d	-0.26188293
-1.4799392	c a d	-0.26188293
-1.1892643	g a d	-0.45816302
-1.3702774	m a d	-0.37614274
-1.4919858	f a d	-0.20621195
-1.4340749	h a d	-0.31694362
-1.4290742	s a d	-0.37101284
-1.7450413	v a d	-0.20621195
-1.396271	k a d	-0.42158145
-1.2696923	y a d	-0.4959516
-1.1166025	M a d	-0.28214732
-1.482345	<s> o d	-0.32575428
-1.0692707	K o d	-0.20621195
-1.2747635	d o d	-0.28214732
-1.537561	w o d	-0.20621195
-1.4236721	b o d	-0.31189054
-1.556548	t o d	-0.32575428
-0.83175236	o o d	-0.28214732
-1.5406102	r o d	-0.20621195
-1.6594138	l o d	-0.25016317
-1.6710219	c o d	-0.20621195
-0.9707668	g o d	-0.45242882
-1.6150427	f o d	-0.20621195
-1.1687038	h o d	-0.33679488
-1.3705976	s o d	-0.20621195
-1.5281391	v o d	-0.20621195
-1.2610439	k o d	-0.2974401
-1.2619756	y o d	-0.32359126
-1.9656005	e r d	-0.20621195
-1.259505	a r d	-0.32359126
-1.082536	o r d	-0.20621195
-0.8661325	O r d	-0.20621195
-1.9319037	i l d	-0.20621195
-2.3857217	a l d	-0.20621195
-2.206626	o l d	-0.20621195
-0.9803815	r l d	-0.20621195
-2.099279	i g d	-0.20621195
-1.9717449	u g d	-0.20621195
-1.9614726	<s> m d	-0.20621195
-1.7003998	i m d	-0.28214732
-1.5090815	e m d	-0.45242882
-1.5600326	a m d	-0.30652708
-1.933045	o m d	-0.28214732
-1.6282437	u m d	-0.32488775
-1.9620702	<s> u d	-0.53444463
-1.336086	B u d	-0.20621195
-0.8019211	S u d	-0.32575428
-1.4179105	K u d	-0.20621195
-1.3367617	L u d	-0.20621195
-0.6655222	W u d	-0.20621195
-1.3921032	d u d	-0.20621195
-1.3871968	w u d	-0.28084177
-0.90609545	e u d	-0.20621195
-1.21088	b u d	-0.5001143
-1.3597907	t u d	-0.20621195
-1.1771557	l u d	-0.52750987
-1.6725769	c u d	-0.20621195
-1.1151991	g u d	-0.3747438
-1.3571811	m u d	-0.28214732
-1.5617945	f u d	-0.20621195
-1.293077	h u d	-0.2990684
-1.462001	s u d	-0.28214732
-1.766673	v u d	-0.20621195
-1.3686619	k u d	-0.48040512
-0.6655222	J u d	-0.20621195
-0.90609545	G u d	-0.20621195
-1.3197815	r s d	-0.20621195
-1.3070146	r k d	-0.20621195
-2.2134335	<s> M d	-0.20621195
-1.631248	e M d	-0.20621195
-2.3340383	<s> U d	-0.20621195
-1.5833989	<s> A w	-0.49968252
-2.3104541	<s> E w	-0.20621195
-2.364093	<s> T w	-0.20621195
-1.0344732	<s> I w	-0.7969816
-0.6209495	i S w	-0.37101284
-1.3597786	e S w	-0.32575428
-1.4566692	a S w	-0.20621195
-0.67433983	<s> K w	-1.4793524
-0.81213933	e K w	-0.28214732
-1.0620664	u H w	-0.20621195
-1.232515	<s> L w	-0.9730728
-0.3866485	i L w	-0.20621195
-0.81400096	e L w	-0.32575428
-1.1987765	a L w	-0.20621195
-1.0896709	u L w	-0.20621195
-1.4543701	<s> i w	-1.1002463
-1.4063807	i i w	-0.20621195
-1.1911336	n i w	-0.431521
-1.4491521	d i w	-0.32575428
-1.3651133	b i w	-0.35233974
-1.4124428	t i w	-0.46426588
-1.2623668	z i w	-0.32431105
-1.3086957	l i w	-0.57736754
-1.6762078	c i w	-0.32575428
-1.6765904	g i w	-0.25016317
-1.5517968	f i w	-0.20621195
-1.5294923	h i w	-0.34328434
-1.3453534	s i w	-0.528431
-1.0344422	k i w	-0.5928616
-1.2571723	y i w	-0.4012763
-1.2008555	j i w	-0.37101284
-3.4352968	<s> n w	-0.20621195
-1.5979846	i n w	-0.5928616
-1.7054235	e n w	-0.431521
-1.4918172	a n w	-0.67204285
-2.0252984	o n w	-0.28214732
-1.6273689	u n w	-0.4205013
-1.421479	n d w	-0.28214732
-1.7701219	a d w	-0.28214732
-1.5009229	o d w	-0.28214732
-1.9356095	u d w	-0.20621195
-2.8940284	<s> w w	-0.32575428
-0.734741	w w w	-0.20621195
-0.4199615	p w w	-0.20621195
-2.808765	<s> e w	-0.20621195
-1.3995022	T e w	-0.20621195
-1.3195505	S e w	-0.20621195
-1.4718451	L e w	-0.20621195
-1.4415071	i e w	-0.20621195
-1.6723474	n e w	-0.26188293
-1.9781286	w e w	-0.28214732
-1.2628273	N e w	-0.20621195
-1.3014576	b e w	-0.4012763
-1.3380345	t e w	-0.4561584
-1.6640122	z e w	-0.20621195
-1.6716237	l e w	-0.2974401
-1.9171846	c e w	-0.20621195
-1.2729775	g e w	-0.49968252
-1.8613641	m e w	-0.20621195
-1.5213219	h e w	-0.28214732
-1.6791186	s e w	-0.30534327
-1.8208061	k e w	-0.20621195
-1.2551862	y e w	-0.35233974
-1.2628273	Y e w	-0.20621195
-1.0613734	u C w	-0.20621195
-2.4376657	a b w	-0.20621195
-1.5375333	<s> a w	-1.0326598
-1.033498	H a w	-0.20621195
-1.4645854	L a w	-0.20621195
-1.3934323	W a w	-0.20621195
-1.317544	n a w	-0.41448775
-1.6713395	d a w	-0.20621195
-1.6908005	w a w	-0.36333522
-1.34501	N a w	-0.20621195
-1.5219176	b a w	-0.36242542
-1.1143867	t a w	-0.54660684
-1.7797143	z a w	-0.20621195
-1.239036	l a w	-0.49968252
-1.9517612	c a w	-0.20621195
-1.1976647	g a w	-0.37582394
-1.3806692	m a w	-0.4959516
-1.4420991	h a w	-0.45693302
-1.6820418	s a w	-0.2990684
-1.6339551	k a w	-0.32431105
-1.4296509	y a w	-0.36242542
-1.4838436	p a w	-0.20621195
-1.8679008	j a w	-0.20621195
-3.214767	<s> t w	-0.20621195
-1.586504	i t w	-0.4959516
-1.2828265	n t w	-0.431521
-1.1655407	e t w	-0.73898965
-1.401249	a t w	-0.5471041
-1.254741	t t w	-0.20621195
-1.403368	o t w	-0.32575428
-1.6229736	u t w	-0.32359126
-1.3862385	S o w	-0.20621195
-1.4224515	L o w	-0.20621195
-1.365919	i o w	-0.20621195
-1.7150576	n o w	-0.20621195
-1.5406182	d o w	-0.20621195
-1.5431356	w o w	-0.20621195
-1.7279303	b o w	-0.20621195
-1.3612174	t o w	-0.32359126
-1.2896713	r o w	-0.20621195
-1.6634616	l o w	-0.33932716
-1.8425096	g o w	-0.20621195
-1.3673874	f o w	-0.20621195
-1.9705511	h o w	-0.20621195
-1.585339	s o w	-0.20621195
-1.4036164	y o w	-0.32431105
-1.6582483	j o w	-0.20621195
-1.4536034	i z w	-0.28214732
-1.1226373	e z w	-0.32575428
-1.1424756	a z w	-0.37101284
-1.420172	u z w	-0.28214732
-1.2987875	<s> l w	-1.937519
-0.8729644	E l w	-0.20621195
-1.0847353	i l w	-0.56289834
-0.9699105	d l w	-0.45372084
-0.88393784	e l w	-0.988703
-0.9301683	a l w	-0.9746724
-0.91949695	o l w	-0.6992549
-0.80825156	u l w	-0.9482492
-1.1021173	h l w	-0.4981863
-0.93702763	s l w	-0.20621195
-1.2743244	k l w	-0.20621195
-1.5219196	<s> c w	-0.32575428
-1.4776769	i c w	-0.32575428
-0.9161923	n c w	-0.5015601
-0.94511	e c w	-0.431521
-1.2123781	a c w	-0.5471041
-1.058292	o c w	-0.37101284
-0.7902975	g c w	-0.73898965
-1.3110662	m c w	-0.28214732
-1.038417	u c w	-0.5471041
-0.78804183	G c w	-0.20621195
-1.053437	<s> g w	-0.37662134
-1.0288559	i g w	-0.37101284
-1.0741752	n g w	-0.55148166
-0.663926	N g w	-0.32359126
-1.2729162	a g w	-0.37662134
-1.4047569	o g w	-0.20621195
-0.87920815	m g w	-0.4205013
-1.090709	u g w	-0.35233974
-1.7531369	<s> f w	-0.20621195
-1.0488755	T f w	-0.20621195
-1.481185	e f w	-0.20621195
-0.69468176	t f w	-0.6155336
-2.3375256	<s> u w	-0.431521
-1.6152021	K u w	-0.20621195
-0.7012941	W u w	-0.20621195
-1.9501292	w u w	-0.20621195
-2.1299148	b u w	-0.20621195
-1.4902737	o u w	-0.20621195
-2.1361883	l u w	-0.20621195
-1.6985048	g u w	-0.25016317
-2.0958383	h u w	-0.20621195
-1.5138961	k u w	-0.32488775
-1.9038808	<s> h w	-0.20621195
-1.1673522	T h w	-0.20621195
-1.6445624	a h w	-0.20621195
-1.7222428	t h w	-0.20621195
-0.8374621	c h w	-0.4975511
-1.4197563	m h w	-0.20621195
-1.1906177	u h w	-0.32359126
-1.146088	h h w	-0.20621195
-0.7962573	s h w	-0.6533697
-0.949409	k h w	-0.695524
-2.8321934	<s> s w	-0.20621195
-1.1125326	T s w	-0.20621195
-0.92562276	i s w	-0.85251164
-1.3300104	n s w	-0.32575428
-0.6163011	d s w	-0.20621195
-1.1827852	e s w	-0.4959516
-1.3449169	a s w	-0.4492498
-1.1058956	t s w	-0.4959516
-1.1595501	o s w	-0.35233974
-1.0184875	m s w	-0.4959516
-1.1869171	u s w	-0.5928616
-0.94858783	M s w	-0.20621195
-0.4187377	D v w	-0.20621195
-0.5805415	d v w	-0.6602784
-0.5449162	<s> k w	-2.5622776
-0.8745195	E k w	-0.20621195
-1.1367962	i k w	-0.76895285
-1.3762132	n k w	-0.32575428
-1.008821	e k w	-0.8184413
-0.97896194	a k w	-1.0078349
-0.8112287	o k w	-0.7286352
-0.84098935	u k w	-0.7783777
-3.1756895	<s> y w	-0.20621195
-1.5319895	i y w	-0.28214732
-0.97265196	n y w	-0.5471041
-1.6803042	a y w	-0.28214732
-1.3096687	m y w	-0.20621195
-1.199396	u y w	-0.37101284
-0.42724735	t p w	-0.20621195
-0.36722884	T j w	-0.20621195
-1.5284952	i j w	-0.20621195
-0.92044365	n j w	-0.5471041
-1.0089542	e j w	-0.37101284
-1.4038426	a j w	-0.20621195
-0.7175718	t j w	-0.6342543
-1.2039818	o j w	-0.20621195
-1.0242697	u j w	-0.20621195
-0.2811865	a Z w	-0.37101284
-2.0007606	<s> U w	-0.20621195
-2.3928964	<s> A e	-0.20621195
-0.55914444	<s> B e	-0.73236436
-1.1895409	e B e	-0.20621195
-1.1210196	a B e	-0.20621195
-0.41097894	u B e	-0.20621195
-2.2662604	<s> E e	-0.20621195
-0.7614208	<s> T e	-0.3806701
-0.5769916	e T e	-0.41448775
-0.9128484	u T e	-0.20621195
-0.6720671	<s> D e	-0.206212
-0.6725652	e D e	-0.20621195
-0.7296861	<s> S e	-0.68946207
-1.2243904	i S e	-0.20621195
-1.4443039	a S e	-0.20621195
-2.1950824	<s> K e	-0.28214732
-1.0650105	<s> H e	-0.28214732
-0.47389647	<s> L e	-0.95543164
-1.5126356	e L e	-0.20621195
-1.2330291	a L e	-0.20621195
-0.55443037	u L e	-0.26188293
-0.70599854	<s> W e	-0.5214513
-0.5864976	e W e	-0.20621195
-0.35372484	a W e	-0.20621195
-0.35372484	h W e	-0.20621195
-0.712105	<s> V e	-0.20621195
-0.33784017	i V e	-0.20621195
-0.081436545	a V e	-0.5928616
-2.3876648	<s> i e	-0.2974401
-1.1840842	D i e	-0.20621195
-1.7635003	n i e	-0.20621195
-1.7734483	d i e	-0.20621195
-1.923266	b i e	-0.20621195
-1.9678414	t i e	-0.20621195
-1.8118134	r i e	-0.20621195
-2.196204	l i e	-0.20621195
-1.2097929	c i e	-0.2974401
-1.8969489	f i e	-0.20621195
-1.8861187	v i e	-0.20621195
-0.52220523	<s> n e	-1.5834314
-0.9651217	A n e	-0.20621195
-1.0016865	E n e	-0.20621195
-1.031628	i n e	-0.68154395
-1.0304344	n n e	-0.20621195
-0.7705443	d n e	-0.20621195
-1.14732	e n e	-0.6234564
-1.0355926	a n e	-0.7929926
-0.7705443	t n e	-0.20621195
-1.2410059	o n e	-0.39416128
-0.48574224	r n e	-0.26188293
-0.38236126	g n e	-0.20621195
-1.6595362	m n e	-0.20621195
-1.158022	u n e	-0.5103068
-0.8570258	O n e	-0.20621195
-1.0488853	<s> d e	-0.20621195
-0.74821305	A d e	-0.20621195
-1.0921941	i d e	-0.30534327
-1.0072196	n d e	-0.2974401
-0.82457316	e d e	-0.46189398
-1.2567877	N d e	-0.20621195
-1.0026125	a d e	-0.37461615
-1.5211269	o d e	-0.20621195
-0.76409787	r d e	-0.32575428
-1.3461641	m d e	-0.20621195
-1.2901524	u d e	-0.20621195
-0.32300317	<s> w e	-1.1843678
-0.47721028	I w e	-0.20621195
-0.42854702	K w e	-0.24252209
-0.28649852	H w e	-0.20621195
-0.41493085	L w e	-0.24597867
-0.40094867	i w e	-0.56240726
-0.34098145	n w e	-0.4981863
-0.59020567	d w e	-0.28214732
-0.40997282	e w e	-0.5507074
-0.28649852	C w e	-0.20621195
-0.28649852	b w e	-0.20621195
-0.6413959	a w e	-0.49915066
-0.40792826	t w e	-0.6342543
-0.46744516	o w e	-0.35462636
-0.36242563	z w e	-0.43795964
-0.46513066	l w e	-0.51117617
-0.39667362	c w e	-0.4205013
-0.44251636	g w e	-0.37614274
-0.6481976	f w e	-0.25016317
-0.574855	u w e	-0.25533298
-0.3536635	h w e	-0.4277087
-0.51663756	s w e	-0.47071806
-0.40838155	v w e	-0.26188293
-0.3521893	k w e	-0.4752187
-0.41357818	y w e	-0.43795964
-0.5385169	j w e	-0.37662134
-1.4086725	B e e	-0.20621195
-1.2040217	D e e	-0.20621195
-1.3506151	S e e	-0.20621195
-1.3820705	W e e	-0.20621195
-1.9052263	n e e	-0.20621195
-1.7169414	d e e	-0.20621195
-1.1847134	a e e	-0.20621195
-1.7861961	t e e	-0.32575428
-1.43779	r e e	-0.20621195
-1.7045317	z e e	-0.20621195
-1.7007744	c e e	-0.20621195
-1.9266106	g e e	-0.20621195
-1.9865007	h e e	-0.20621195
-1.8346428	j e e	-0.20621195
-1.1968286	P e e	-0.20621195
-1.0648929	F e e	-0.20621195
-0.93673426	<s> N e	-0.54491055
-0.98732024	<s> C e	-0.32467142
-1.0165538	u C e	-0.20621195
-0.49678782	<s> b e	-1.4648927
-0.8607186	A b e	-0.206212
-0.79530495	i b e	-0.54150695
-0.6396035	e b e	-0.5728426
-0.80271393	a b e	-0.6693233
-0.70362127	o b e	-0.4837249
-0.50115436	l b e	-0.20621195
-0.774095	m b e	-0.49887285
-0.71523803	u b e	-0.61381024
-0.63508165	M b e	-0.32575428
-2.5613763	w a e	-0.20621195
-1.5919877	e a e	-0.20621195
-2.309994	b a e	-0.20621195
-1.8208584	r a e	-0.20621195
-2.0983121	h a e	-0.20621195
-1.6489111	p a e	-0.20621195
-0.47151396	<s> t e	-1.3768028
-0.8500244	E t e	-0.20621195
-0.9717507	S t e	-0.20621195
-1.0571045	i t e	-0.5427003
-1.0540688	n t e	-0.3887629
-0.86664987	e t e	-0.7583486
-0.93845564	a t e	-0.71939665
-0.65232354	t t e	-0.26188293
-0.9079916	o t e	-0.55874634
-1.0034137	m t e	-0.2974401
-0.78967947	u t e	-0.5310268
-0.59722877	s t e	-0.2300784
-0.38000163	Ã t e	-0.20621195
-0.38000163	Å t e	-0.20621195
-1.9721054	<s> o e	-0.20621195
-1.2296889	N o e	-0.20621195
-1.3709224	C o e	-0.20621195
-1.3740199	J o e	-0.20621195
-0.4420216	<s> r e	-0.20621195
-0.72857183	I r e	-0.20621195
-0.54794854	i r e	-0.26188293
-0.6626471	d r e	-0.20621195
-0.8976907	e r e	-0.26188293
-0.5548692	b r e	-0.20621195
-1.0154074	a r e	-0.20621195
-0.94404614	t r e	-0.20621195
-1.1874611	o r e	-0.20621195
-0.79738533	r r e	-0.20621195
-0.91444075	g r e	-0.20621195
-0.3349408	m r e	-0.20621195
-0.5548692	f r e	-0.20621195
-0.44978136	u r e	-0.26188293
-0.79738533	h r e	-0.20621195
-0.8226208	p r e	-0.20621195
-0.72857183	P r e	-0.20621195
-0.72857183	F r e	-0.20621195
-0.5548692	G r e	-0.20621195
-0.75926214	<s> z e	-0.25016317
-0.3343372	A z e	-0.20621195
-0.75212216	i z e	-0.25451422
-1.1198227	n z e	-0.20621195
-0.6396276	d z e	-0.483226
-0.7204005	e z e	-0.3427945
-0.70424753	a z e	-0.50040233
-0.3343372	t z e	-0.20621195
-0.66555786	u z e	-0.5564597
-0.37800235	<s> l e	-1.8441669
-0.7464539	A l e	-0.20621195
-0.7464539	E l e	-0.20621195
-0.34207654	K l e	-0.20621195
-0.57141775	H l e	-0.35233974
-0.7581116	i l e	-0.69013315
-0.7549041	d l e	-0.46697855
-0.34207654	w l e	-0.20621195
-0.7677001	e l e	-0.72112596
-0.8729198	b l e	-0.20621195
-0.8440245	a l e	-0.75529337
-0.9346229	o l e	-0.5436649
-0.7464539	r l e	-0.20621195
-0.5610385	l l e	-0.28084177
-0.55627185	c l e	-0.20621195
-0.9364241	m l e	-0.28214732
-0.7932889	u l e	-0.63446164
-0.75371015	h l e	-0.52407175
-0.79341406	s l e	-0.20621195
-0.8817424	k l e	-0.20621195
-0.89254063	p l e	-0.20621195
-0.34207654	F l e	-0.20621195
-0.82577205	<s> c e	-0.233156
-0.7918415	E c e	-0.20621195
-0.79452527	i c e	-0.5285752
-0.76843745	n c e	-0.4224359
-0.6611394	e c e	-0.36541572
-0.71642864	N c e	-0.20621195
-0.791819	a c e	-0.55253184
-0.7796759	o c e	-0.37662134
-0.34695312	r c e	-0.28214732
-0.5962469	c c e	-0.20621195
-1.2378167	g c e	-0.233156
-0.9291997	m c e	-0.3097969
-0.8391482	u c e	-0.4591533
-0.8442997	U c e	-0.20621195
-0.8037878	<s> g e	-0.27315867
-0.8469965	A g e	-0.20621195
-0.8768644	i g e	-0.3353065
-0.82663095	n g e	-0.5087436
-0.5977681	d g e	-0.20621195
-0.6522969	e g e	-0.25533298
-0.9553988	N g e	-0.2225942
-0.7144519	a g e	-0.51420903
-1.0871676	o g e	-0.20621195
-0.7501907	r g e	-0.20621195
-0.84135646	m g e	-0.32359126
-0.8047219	u g e	-0.3034037
-1.4405032	<s> m e	-0.4012763
-0.86828536	A m e	-0.20621195
-1.1137089	E m e	-0.20621195
-1.0841168	i m e	-0.5489656
-0.25914052	n m e	-0.32575428
-1.2249478	e m e	-0.5540402
-1.0882006	a m e	-0.60369843
-0.3861033	t m e	-0.20621195
-1.07446	o m e	-0.49785346
-0.6199027	m m e	-0.40578052
-0.9940944	u m e	-0.550784
-0.77974916	s m e	-0.20621195
-0.6433931	p m e	-0.20621195
-1.1940076	U m e	-0.20621195
-0.72801673	<s> f e	-0.30652708
-0.7095434	i f e	-0.4212211
-0.73846984	n f e	-0.20621195
-0.7124394	d f e	-0.20621195
-0.8264384	e f e	-0.23714536
-0.8200092	a f e	-0.33883277
-1.4616587	t f e	-0.20621195
-0.8579548	o f e	-0.25016317
-0.8951851	m f e	-0.32575428
-1.00338	f f e	-0.20621195
-0.9263128	u f e	-0.27045214
-1.6104686	n u e	-0.20621195
-2.255279	b u e	-0.20621195
-1.9636835	l u e	-0.20621195
-2.0654943	g u e	-0.20621195
-1.0907277	q u e	-0.20621195
-1.522693	<s> h e	-0.20621195
-0.37553903	T h e	-0.28214732
-0.69761586	S h e	-0.25016317
-0.9216927	K h e	-0.20621195
-0.9019452	H h e	-0.20621195
-1.2125015	i h e	-0.28214732
-1.2307206	n h e	-0.20621195
-1.4036951	e h e	-0.20621195
-0.9949062	C h e	-0.20621195
-0.73581904	b h e	-0.44475573
-1.6625967	a h e	-0.20621195
-0.8670545	t h e	-0.40294975
-1.1914968	c h e	-0.25016317
-1.028833	m h e	-0.32575428
-1.2838836	u h e	-0.20621195
-1.0459211	h h e	-0.20621195
-0.8212929	s h e	-0.5346456
-0.92361516	k h e	-0.49837697
-0.82654506	p h e	-0.56829774
-0.9838406	P h e	-0.20621195
-0.33122033	<s> s e	-1.5504085
-0.97841746	A s e	-0.20621195
-1.0426598	T s e	-0.20621195
-0.7514285	i s e	-0.7736295
-0.8732885	n s e	-0.4012763
-0.915634	d s e	-0.20621195
-0.2498512	w s e	-0.32575428
-0.95850736	e s e	-0.5377883
-0.7876123	a s e	-0.6437494
-0.6702553	t s e	-0.63321626
-0.72780263	o s e	-0.39178887
-0.8086705	m s e	-0.43473563
-0.902057	u s e	-0.5616188
-0.8765647	s s e	-0.20621195
-1.0014439	k s e	-0.20621195
-0.74074835	U s e	-0.20621195
-0.5411722	<s> v e	-0.40578052
-0.5177799	E v e	-0.20621195
-0.5213	i v e	-0.57096547
-0.6156581	n v e	-0.20621195
-0.47343683	e v e	-0.42528215
-0.50024235	a v e	-0.65149
-0.6023089	o v e	-0.2693626
-0.70449114	r v e	-0.20621195
-0.6340363	m v e	-0.44356814
-0.6316391	u v e	-0.47071806
-0.5177799	v v e	-0.20621195
-0.84388846	M v e	-0.20621195
-2.3693824	<s> k e	-0.36897957
-0.7257841	A k e	-0.20621195
-0.7884085	i k e	-0.6517595
-0.9941862	n k e	-0.28214732
-0.8437922	e k e	-0.6282048
-0.84353477	a k e	-0.6093069
-1.0697807	o k e	-0.4012763
-1.0179054	r k e	-0.20621195
-0.9798636	c k e	-0.20621195
-1.2746265	m k e	-0.20621195
-0.7766748	u k e	-0.69323653
-0.802994	s k e	-0.20621195
-0.20951754	<s> y e	-1.3889555
-0.6869618	i y e	-0.5193299
-0.8490238	n y e	-0.49861655
-0.5527997	e y e	-0.40170655
-1.0921594	N y e	-0.20621195
-0.6035935	a y e	-0.7226981
-0.93980354	t y e	-0.20621195
-1.0819093	o y e	-0.20621195
-0.43168962	m y e	-0.49968252
-0.68308574	u y e	-0.40852904
-0.56987965	U y e	-0.20621195
-1.3968214	<s> p e	-0.20621195
-0.67190945	A p e	-0.20621195
-0.5620789	S p e	-0.20621195
-0.33927143	L p e	-0.20621195
-1.0875493	i p e	-0.20621195
-1.1898993	e p e	-0.32575428
-0.9585448	a p e	-0.28214732
-0.9352313	o p e	-0.28214732
-0.726803	m p e	-0.40320426
-1.2667184	u p e	-0.20621195
-0.67190945	s p e	-0.20621195
-0.33927143	y p e	-0.20621195
-0.7656694	p p e	-0.20621195
-0.33927143	O p e	-0.20621195
-0.5878027	<s> j e	-0.31189054
-0.89514375	i j e	-0.27045214
-0.7351559	n j e	-0.50094676
-0.64055234	d j e	-0.20621195
-0.41755757	e j e	-0.4561584
-0.5375347	N j e	-0.20621195
-0.8344541	a j e	-0.27045214
-0.62945735	t j e	-0.421041
-0.5580804	o j e	-0.25016317
-0.71916497	m j e	-0.32575428
-0.9251379	u j e	-0.20621195
-0.86247706	h j e	-0.20621195
-0.079053015	M j e	-0.4205013
-0.93289465	e x e	-0.20621195
-0.38646886	o x e	-0.20621195
-0.33138525	<s> Y e	-0.47212246
-0.906541	<s> P e	-0.206212
-0.95852727	i P e	-0.20621195
-1.2634038	<s> M e	-0.24252209
-1.0337596	I M e	-0.20621195
-1.4624578	e M e	-0.20621195
-0.94512093	a M e	-0.4959516
-1.3661312	u M e	-0.20621195
-1.0546339	<s> F e	-0.20621195
-0.7922607	i F e	-0.20621195
-0.7730726	u F e	-0.20621195
-1.5697347	<s> J e	-0.20621195
-0.7773974	<s> G e	-0.28214732
-0.6908204	i G e	-0.20621195
-0.46218422	e G e	-0.32359126
-0.57669216	a G e	-0.20621195
-0.3479609	u G e	-0.20621195
-0.3069107	<s> R e	-0.3560108
-1.9840633	<s> A N	-0.20621195
-0.99417686	B A N	-0.20621195
-1.2037712	S A N	-0.20621195
-1.1968408	W A N	-0.20621195
-0.6685416	P A N	-0.20621195
-1.6996477	<s> E N	-0.20621195
-0.69272465	B E N	-0.20621195
-0.57815564	T E N	-0.20621195
-0.80381304	S E N	-0.20621195
-0.99961185	L E N	-0.20621195
-0.8348275	N E N	-0.20621195
-0.69272465	Y E N	-0.20621195
-0.69272465	M E N	-0.20621195
-0.34882456	J E N	-0.20621195
-0.57815564	G E N	-0.20621195
-1.5536481	<s> I N	-0.25016317
-0.56053746	S I N	-0.20621195
-0.9567925	C I N	-0.20621195
-2.1891458	<s> i N	-0.26188293
-1.7046764	T i N	-0.20621195
-2.0472765	t i N	-0.28214732
-2.350066	l i N	-0.20621195
-2.1144693	c i N	-0.20621195
-1.8722979	s i N	-0.32359126
-2.2192018	y i N	-0.20621195
-2.070241	<s> e N	-0.26188293
-1.5105999	T e N	-0.20621195
-1.5962306	L e N	-0.20621195
-2.0406296	n e N	-0.20621195
-1.7279261	w e N	-0.32488775
-2.115804	b e N	-0.20621195
-2.127013	t e N	-0.20621195
-1.7510384	l e N	-0.24252209
-1.7924737	g e N	-0.27045214
-1.6208628	s e N	-0.31455135
-2.0636835	y e N	-0.20621195
-3.4690506	<s> a N	-0.20621195
-2.2441485	n a N	-0.20621195
-2.2584708	t a N	-0.20621195
-2.3784256	m a N	-0.20621195
-1.9995583	k a N	-0.26188293
-2.3617144	y a N	-0.20621195
-2.0425322	<s> o N	-0.20621195
-1.9560122	b o N	-0.26188293
-2.167353	y o N	-0.20621195
-2.2555034	g u N	-0.20621195
-2.1345277	k u N	-0.20621195
-0.39579475	B O N	-0.20621195
-0.4271667	H O N	-0.20621195
-1.1245403	L O N	-0.20621195
-1.7451642	<s> F N	-0.20621195
-2.0020125	<s> U N	-0.20621195
-1.1240145	K U N	-0.20621195
-0.8924195	H U N	-0.20621195
-0.28121975	F U N	-0.28214732
-0.833949	E A C	-0.20621195
-1.09892	T A C	-0.20621195
-1.5154439	S A C	-0.20621195
-1.2790719	L A C	-0.20621195
-0.42626345	I E C	-0.20621195
-2.1045167	<s> I C	-0.20621195
-1.0741019	A D C	-0.20621195
-2.609186	s i C	-0.20621195
-3.3902488	<s> e C	-0.20621195
-2.2458103	n e C	-0.20621195
-2.4165351	l e C	-0.20621195
-2.4245806	s e C	-0.20621195
-1.2281231	A N C	-0.20621195
-1.9969438	<s> C C	-0.20621195
-0.4140931	P C C	-0.20621195
-1.7736737	L a C	-0.20621195
-1.6647248	m a C	-0.4959516
-2.394407	l u C	-0.20621195
-2.204826	g u C	-0.20621195
-2.4480474	k u C	-0.20621195
-1.2198187	L O C	-0.20621195
-0.4209899	M P C	-0.20621195
-0.9795946	A F C	-0.20621195
-1.2901559	<s> G C	-0.20621195
-0.75026023	I G C	-0.20621195
-0.65962905	N G C	-0.32575428
-0.37394848	U G C	-0.20621195
-0.8805737	L U C	-0.20621195
-1.0765417	<s> A b	-0.5792955
-2.0514271	<s> E b	-0.20621195
-2.0937831	<s> I b	-0.20621195
-1.2904202	<s> i b	-0.8452644
-1.2257304	T i b	-0.28214732
-1.0657018	S i b	-0.28127652
-1.3012624	L i b	-0.25016317
-1.3457501	i i b	-0.20621195
-1.3545803	n i b	-0.29164198
-1.2088302	d i b	-0.37101284
-1.2917811	N i b	-0.20621195
-1.5468708	b i b	-0.32575428
-1.3928338	t i b	-0.5442344
-0.9824332	z i b	-0.39601904
-1.348733	l i b	-0.57813835
-1.4322408	c i b	-0.26188293
-1.212926	g i b	-0.33747983
-1.0715758	m i b	-0.4359206
-1.3628439	h i b	-0.28214732
-1.1937503	s i b	-0.6381389
-1.7050622	k i b	-0.20621195
-1.1725159	y i b	-0.47981983
-1.1807907	j i b	-0.37101284
-1.2822553	M i b	-0.20621195
-1.0610615	G i b	-0.20621195
-2.629624	i n b	-0.20621195
-2.650813	e n b	-0.20621195
-2.1269453	e d b	-0.20621195
-1.4233463	<s> e b	-0.90472645
-1.3517699	B e b	-0.20621195
-1.2996092	S e b	-0.20621195
-1.4474142	L e b	-0.20621195
-0.7870997	W e b	-0.28214732
-1.3630692	n e b	-0.4205013
-1.3644087	d e b	-0.32575428
-1.0626463	w e b	-0.67444175
-1.5431051	e e b	-0.20621195
-1.2439283	N e b	-0.20621195
-1.3962004	b e b	-0.31189054
-1.4284208	t e b	-0.29164198
-1.6384468	z e b	-0.20621195
-1.2984672	l e b	-0.4757535
-1.2075816	c e b	-0.32467142
-1.362285	g e b	-0.30534327
-1.3734803	h e b	-0.35233974
-1.2568542	s e b	-0.5900725
-1.7915682	k e b	-0.20621195
-1.4813218	y e b	-0.26188293
-1.7707623	j e b	-0.20621195
-1.2439283	Y e b	-0.20621195
-1.2078718	G e b	-0.20621195
-0.8820216	<s> a b	-1.4501941
-1.3913367	B a b	-0.20621195
-1.4622599	S a b	-0.20621195
-1.1521529	L a b	-0.25016317
-1.3039958	W a b	-0.20621195
-1.286488	n a b	-0.4205013
-1.5840911	d a b	-0.20621195
-1.1695272	w a b	-0.8233105
-1.2717422	N a b	-0.20621195
-0.98373145	C a b	-0.20621195
-1.1383013	b a b	-0.6003503
-1.1533538	t a b	-0.4492498
-0.8158298	o a b	-0.20621195
-1.1288877	z a b	-0.27045214
-1.1767241	l a b	-0.51320016
-0.95132786	c a b	-0.55148166
-1.1078843	g a b	-0.4757535
-1.2883846	m a b	-0.51519924
-1.6884	f a b	-0.20621195
-1.197292	h a b	-0.3606991
-1.2067312	s a b	-0.5347545
-1.1812364	k a b	-0.51519924
-1.2564034	y a b	-0.5307137
-0.45092866	q a b	-0.28214732
-0.9110542	j a b	-0.49754664
-0.995924	x a b	-0.20621195
-1.1956797	Y a b	-0.20621195
-1.2347248	M a b	-0.2990684
-0.5300971	J a b	-0.4205013
-0.75425947	G a b	-0.20621195
-0.9129579	R a b	-0.20621195
-2.1620615	n t b	-0.20621195
-2.286057	o t b	-0.20621195
-1.4290045	<s> o b	-0.32575428
-1.2373765	B o b	-0.20621195
-1.3202276	S o b	-0.20621195
-1.0268669	K o b	-0.20621195
-1.3400459	L o b	-0.20621195
-1.1655811	n o b	-0.2974401
-1.229122	d o b	-0.32575428
-1.4751862	w o b	-0.20621195
-1.0692993	N o b	-0.20621195
-1.2962978	b o b	-0.37380806
-1.5004205	t o b	-0.32575428
-1.4599962	r o b	-0.20621195
-1.1560024	l o b	-0.514582
-1.102741	c o b	-0.4264773
-1.0282427	g o b	-0.38508466
-1.3516494	m o b	-0.32575428
-1.1196758	f o b	-0.25016317
-1.219437	h o b	-0.38508466
-1.3394223	s o b	-0.32359126
-1.4400508	k o b	-0.20621195
-1.1352079	y o b	-0.3817966
-0.8179971	j o b	-0.24252209
-0.808967	R o b	-0.20621195
-1.8990923	d z b	-0.20621195
-3.9943612	<s> l b	-0.20621195
-0.9803815	A l b	-0.20621195
-1.4550496	l l b	-0.20621195
-0.41993886	y l b	-0.20621195
-1.9863846	n g b	-0.20621195
-2.1150656	a g b	-0.20621195
-1.6487638	m g b	-0.20621195
-1.8593954	u g b	-0.20621195
-0.96692336	<s> m b	-0.5741885
-1.1848882	E m b	-0.20621195
-1.138143	I m b	-0.20621195
-0.86769104	i m b	-0.7016686
-0.42968076	d m b	-0.32575428
-1.1557429	e m b	-0.8865923
-0.98127496	a m b	-0.9104181
-0.95548606	o m b	-0.6089635
-0.745581	m m b	-0.4205013
-0.9793503	u m b	-0.7492088
-1.2811863	U m b	-0.20621195
-1.203867	<s> u b	-0.99080163
-1.1209279	S u b	-0.20621195
-1.404246	K u b	-0.20621195
-1.0931351	L u b	-0.32575428
-1.1253248	d u b	-0.20621195
-1.2542914	w u b	-0.38036847
-1.2742889	b u b	-0.35233974
-1.0109552	t u b	-0.4959516
-1.423674	z u b	-0.20621195
-1.1744019	l u b	-0.56289834
-1.010744	c u b	-0.45242882
-1.1110914	g u b	-0.35555437
-1.7411331	m u b	-0.20621195
-1.3662394	f u b	-0.32575428
-1.0813836	h u b	-0.33510554
-1.694233	s u b	-0.20621195
-1.7556902	v u b	-0.20621195
-1.2515358	k u b	-0.6381389
-0.95655674	p u b	-0.32575428
-0.98272395	q u b	-0.20621195
-0.87697613	j u b	-0.4012763
-0.66252625	x u b	-0.20621195
-0.66252625	P u b	-0.20621195
-2.4010022	e s b	-0.20621195
-2.4360347	a s b	-0.20621195
-0.42676616	k v b	-0.20621195
-2.0324547	<s> M b	-0.20621195
-0.9427082	i M b	-0.20621195
-1.5383157	e M b	-0.26188293
-1.4657302	u M b	-0.20621195
-1.2337155	<s> U b	-0.34032264
-0.33421722	<s> B a	-0.72107834
-0.58920527	i B a	-0.28214732
-0.51703316	e B a	-0.34328434
-1.1201847	a B a	-0.20621195
-1.997295	<s> E a	-0.20621195
-0.8955538	<s> T a	-0.2957521
-0.6364046	i T a	-0.37101284
-0.89813757	e T a	-0.28214732
-0.62390536	a T a	-0.20621195
-0.8360584	u T a	-0.20621195
-0.41756633	e I a	-0.20621195
-0.94731444	<s> D a	-0.20621195
-0.67202824	e D a	-0.20621195
-1.0609457	<s> S a	-0.3523398
-1.0843794	I S a	-0.20621195
-1.0545107	i S a	-0.20621195
-0.5793263	e S a	-0.29164198
-1.0096109	a S a	-0.20621195
-0.61981803	o S a	-0.20621195
-0.94393826	u S a	-0.20621195
-1.5379221	<s> K a	-0.29082772
-1.4106741	e K a	-0.20621195
-0.7758876	<s> H a	-0.2974401
-0.67285335	e H a	-0.20621195
-0.8111425	<s> L a	-0.5838459
-1.459503	e L a	-0.20621195
-1.1892756	a L a	-0.20621195
-1.0798095	u L a	-0.20621195
-1.101899	U L a	-0.20621195
-0.14659254	<s> W a	-0.80409825
-2.8133526	<s> i a	-0.20621195
-1.1764978	D i a	-0.20621195
-1.7513777	n i a	-0.32575428
-1.7547982	d i a	-0.20621195
-1.9062006	b i a	-0.20621195
-1.5061365	a i a	-0.20621195
-1.6159458	t i a	-0.20621195
-1.1040692	r i a	-0.20621195
-2.1720812	l i a	-0.20621195
-1.4746628	c i a	-0.32359126
-1.3954527	h i a	-0.20621195
-2.0014412	s i a	-0.20621195
-0.6723234	<s> n a	-1.4983859
-0.9403882	A n a	-0.20621195
-1.1167251	I n a	-0.20621195
-1.0717231	i n a	-0.5963245
-0.712085	n n a	-0.20621195
-0.7545808	d n a	-0.20621195
-1.197748	e n a	-0.52263415
-1.130193	a n a	-0.66497946
-0.9670757	o n a	-0.61601
-0.6375283	r n a	-0.26188293
-0.904672	m n a	-0.53444463
-1.0416301	u n a	-0.48729196
-0.7545808	s n a	-0.20621195
-0.62486434	j n a	-0.20621195
-0.83762246	O n a	-0.20621195
-0.9736067	M n a	-0.20621195
-0.9403882	U n a	-0.20621195
-1.0569131	<s> d a	-0.26188293
-1.09976	i d a	-0.20621195
-0.94888145	n d a	-0.33917847
-1.0075785	e d a	-0.44356814
-1.0661604	a d a	-0.3260965
-1.0417002	o d a	-0.26188293
-1.0714523	r d a	-0.20621195
-0.7749573	m d a	-0.4959516
-1.0677167	u d a	-0.32431105
-0.3783652	k d a	-0.20621195
-0.29069623	<s> w a	-1.2014755
