\data\
ngram 1=57
ngram 2=1110
ngram 3=6067
ngram 4=19032
ngram 5=41111

\1-grams:
-2.8986413	<unk>	0
0	<s>	-2.9570918
-1.3472068	</s>	0
-1.7464309	I	-0.39793056
-1.6668926	n	-0.81703144
-1.7924266	j	-0.77424306
-1.4028409	o	-1.0408564
-1.7464309	g	-0.763622
-1.6155418	y	-0.78965646
-1.3834934	e	-1.066887
-1.5151004	w	-0.9194263
-1.7464309	b	-0.80849874
-1.5281035	h	-0.94805455
-1.3649713	u	-0.9698072
-1.5281035	s	-0.8269412
-1.3741336	a	-1.1006318
-1.3930594	i	-1.058327
-1.5696259	t	-0.90880543
-1.9697108	N	-0.46385694
-1.8720847	z	-0.74715775
-1.6854537	m	-0.8001423
-1.7251396	A	-0.43795177
-1.6854537	f	-0.7853907
-1.6319933	r	-0.71415424
-1.6668926	k	-0.79537064
-1.5024753	l	-0.8419767
-1.7464309	d	-0.71790975
-1.6319933	c	-0.81679815
-1.6668926	p	-0.76671195
-1.9022524	L	-0.5179752
-1.9697108	B	-0.42778024
-1.8173904	v	-0.77002054
-1.9022524	U	-0.39916745
-1.8438771	C	-0.374544
-1.9022524	M	-0.46990487
-1.8173904	P	-0.39976034
-1.9697108	D	-0.33415517
-1.9022524	W	-0.38454738
-1.9697108	G	-0.36002836
-1.8173904	T	-0.42993397
-1.6854537	S	-0.5441544
-1.7924266	H	-0.36994904
-1.9022524	O	-0.39116073
-2.2743394	Y	-0.2776861
-1.7251396	E	-0.45398372
-1.9346732	K	-0.43633735
-2.0496094	R	-0.30440435
-2.0496094	x	-0.3905492
-2.095846	V	-0.32019198
-2.095846	J	-0.4007128
-1.9697108	F	-0.36084226
-2.2063615	q	-0.39353502
-2.2063615	Z	-0.27599525
-2.7661614	X	-0.26302797
-2.7661614	Ã	-0.26302797
-2.7661614	Å	-0.26302797
-2.7661614	Â	-0.26302797

\2-grams:
-0.8892223	I </s>	0
-1.3435022	n </s>	0
-1.3412683	j </s>	0
-1.3040216	o </s>	0
-1.2060021	g </s>	0
-0.6952811	y </s>	0
-1.277151	e </s>	0
-1.0142674	w </s>	0
-1.4300276	b </s>	0
-1.2488501	h </s>	0
-1.1979841	u </s>	0
-0.8873074	s </s>	0
-1.3002539	a </s>	0
-1.2974572	i </s>	0
-1.1048723	t </s>	0
-1.3072153	N </s>	0
-1.3880727	z </s>	0
-1.3463042	m </s>	0
-0.8052647	A </s>	0
-1.0914546	f </s>	0
-1.4102384	r </s>	0
-1.0642085	k </s>	0
-1.0563139	l </s>	0
-1.1374832	d </s>	0
-1.8320926	c </s>	0
-1.1603338	p </s>	0
-1.6832291	L </s>	0
-0.9719503	B </s>	0
-1.4234195	v </s>	0
-0.88943905	U </s>	0
-0.82324284	C </s>	0
-1.5948254	M </s>	0
-0.9004321	P </s>	0
-0.91059935	D </s>	0
-1.074223	W </s>	0
-1.4816958	G </s>	0
-0.97826004	T </s>	0
-0.8865798	S </s>	0
-1.4975917	H </s>	0
-0.5702758	O </s>	0
-1.0081702	Y </s>	0
-0.9537802	E </s>	0
-1.5464424	K </s>	0
-0.9365521	R </s>	0
-0.7842328	x </s>	0
-1.0428272	V </s>	0
-1.3026135	F </s>	0
-0.8104761	q </s>	0
-1.186352	Z </s>	0
-0.3198358	Â </s>	0
-2.2302678	<s> I	-1.1557732
-1.6779417	I I	-0.2777749
-2.6412668	e I	-0.19914559
-1.9317461	N I	-0.19914559
-1.9226809	A I	-0.19914559
-2.1434376	d I	-0.19914559
-1.3115727	L I	-0.23111792
-1.5268147	B I	-0.19914559
-1.3195566	C I	-0.19914559
-1.6062162	M I	-0.2656324
-1.0793077	D I	-0.59711814
-1.6157988	W I	-0.19914559
-1.6739283	G I	-0.19914559
-1.403022	T I	-0.2777749
-1.5407631	S I	-0.25674325
-1.2444487	H I	-0.47217944
-1.2232109	R I	-0.19914559
-1.4704623	J I	-0.19914559
-1.4197234	F I	-0.19914559
-1.011246	Z I	-0.32316485
-0.848187	<s> n	-2.7016852
-1.8209333	I n	-0.19914559
-1.7690498	n n	-0.2656324
-1.7727925	j n	-0.19914559
-1.1239295	o n	-0.9645409
-2.0970955	g n	-0.19914559
-2.0235417	y n	-0.19914559
-1.2537367	e n	-1.0686314
-1.8925325	h n	-0.19914559
-1.1989918	u n	-0.9098656
-1.8629298	s n	-0.19914559
-1.2279055	a n	-1.1148111
-1.211137	i n	-1.0474421
-1.8927945	t n	-0.19914559
-1.3836404	m n	-0.68254125
-1.8773507	A n	-0.19914559
-1.3730497	r n	-0.44304687
-1.9148943	k n	-0.32316485
-2.0333774	l n	-0.32316485
-1.9165678	d n	-0.19914559
-1.7613256	U n	-0.19914559
-1.4375937	M n	-0.2777749
-1.6629779	O n	-0.19914559
-1.8548423	E n	-0.19914559
-2.942406	<s> j	-0.99076295
-1.3877635	n j	-0.74102473
-1.7125803	o j	-0.43113586
-1.6498636	e j	-0.6645972
-2.128174	b j	-0.19914559
-1.621706	h j	-0.29606488
-1.8129985	u j	-0.46521813
-2.0900862	s j	-0.19914559
-1.536812	a j	-0.8340879
-1.564561	i j	-0.73629373
-1.3333067	t j	-0.6824184
-1.9553581	N j	-0.19914559
-1.7933819	m j	-0.4388892
-2.0714774	l j	-0.19914559
-1.9553392	d j	-0.19914559
-1.8190434	U j	-0.19914559
-1.3448246	M j	-0.6940282
-1.8414724	T j	-0.19914559
-2.5490775	<s> o	-1.0165143
-1.3056717	n o	-0.60615325
-0.8521478	j o	-0.4839213
-1.5829724	o o	-0.43077195
-0.928479	g o	-0.6419509
-0.9636768	y o	-0.5794939
-2.099367	e o	-0.23668316
-1.1669801	w o	-0.48838148
-0.83861184	b o	-0.6180184
-0.9421303	h o	-0.7189955
-1.0889293	s o	-0.63739073
-2.414889	a o	-0.19914559
-1.6615868	i o	-0.3408207
-1.1085751	t o	-0.5570945
-1.7182269	N o	-0.19914559
-0.82084256	z o	-0.5506539
-1.4054346	m o	-0.53893733
-0.9079692	f o	-0.43982714
-0.9592425	r o	-0.37332577
-1.0685902	k o	-0.6044964
-1.0295118	l o	-0.7456792
-1.1967804	d o	-0.3718604
-0.95902926	c o	-0.73415214
-1.0482663	p o	-0.40590662
-1.1488274	L o	-0.2773827
-1.0923538	B o	-0.2148376
-0.8585573	v o	-0.42374218
-1.2438263	C o	-0.24459639
-1.4936322	M o	-0.22127669
-1.5416093	P o	-0.19914559
-1.5142633	D o	-0.19914559
-1.2827773	W o	-0.23668316
-1.339922	G o	-0.19914559
-1.6362109	T o	-0.19914559
-1.2101886	S o	-0.34573382
-1.5302883	H o	-0.19914559
-1.253272	Y o	-0.19914559
-1.213285	K o	-0.19914559
-1.3611928	R o	-0.19914559
-1.1738688	x o	-0.19914559
-0.74724203	J o	-0.26465315
-1.1384473	F o	-0.19914559
-1.0438389	q o	-0.19914559
-1.2058818	Z o	-0.19914559
-2.8148718	<s> g	-1.0018702
-1.2144928	n g	-0.76371217
-1.5774202	o g	-0.4706444
-1.6468785	e g	-0.67629284
-2.1935463	w g	-0.19914559
-1.5623274	u g	-0.722052
-1.8802739	s g	-0.2777749
-1.4504362	a g	-0.91286784
-1.562058	i g	-0.8250342
-1.2823324	N g	-0.3735046
-1.5084714	m g	-0.5163737
-1.9226809	A g	-0.19914559
-2.1036582	f g	-0.19914559
-1.472841	r g	-0.353564
-2.1570988	k g	-0.19914559
-2.2617488	l g	-0.19914559
-2.1434376	d g	-0.19914559
-2.1919825	c g	-0.19914559
-1.7989396	U g	-0.19914559
-1.6062162	M g	-0.47217944
-1.4303629	<s> y	-2.6534004
-1.7909081	I y	-0.19914559
-1.3748524	n y	-0.77320945
-1.6492656	o y	-0.636685
-1.5177426	g y	-0.59711814
-1.6067047	e y	-0.86818135
-2.0602572	b y	-0.19914559
-2.2685637	h y	-0.19914559
-1.5517403	u y	-0.8642899
-2.0299115	s y	-0.32316485
-1.4081464	a y	-1.0148581
-1.3668059	i y	-0.82064486
-1.6097387	t y	-0.33641303
-1.1767733	N y	-0.48316228
-1.5665019	m y	-0.56234354
-1.8462106	A y	-0.19914559
-2.0501063	f y	-0.19914559
-1.4574059	r y	-0.6940282
-2.0982761	k y	-0.19914559
-1.6744224	l y	-0.38625228
-1.9370208	c y	-0.32316485
-1.8400903	L y	-0.19914559
-1.7351094	U y	-0.19914559
-1.6870742	C y	-0.19914559
-1.6452552	P y	-0.19914559
-1.8867192	S y	-0.19914559
-1.681338	K y	-0.19914559
-1.2499052	<s> e	-1.9835812
-1.12787	n e	-0.51320004
-0.7740264	j e	-0.6087397
-1.9931816	o e	-0.24459639
-0.9634569	g e	-0.5516187
-0.8686005	y e	-0.59202725
-1.5552344	e e	-0.5605097
-0.6261298	w e	-0.8316352
-0.992216	b e	-0.6524289
-0.9413591	h e	-0.6549203
-1.8742716	u e	-0.3145503
-1.0287873	s e	-0.6471279
-1.9689513	a e	-0.33641303
-1.6584594	i e	-0.36466518
-1.1073374	t e	-0.631236
-1.7043936	N e	-0.19914559
-0.8199163	z e	-0.46521446
-1.1619737	m e	-0.62789035
-1.6883861	A e	-0.19914559
-0.946809	f e	-0.56926626
-0.823367	r e	-0.4205452
-0.984233	k e	-0.56154585
-0.8592543	l e	-0.6646497
-1.0520588	d e	-0.57961273
-0.95794487	c e	-0.67023724
-0.8447204	p e	-0.4236354
-1.2525287	L e	-0.2935229
-1.088754	B e	-0.241612
-0.7220444	v e	-0.60417145
-1.4040248	C e	-0.19914559
-1.2695961	M e	-0.31797567
-1.3554384	P e	-0.19914559
-1.343859	D e	-0.22699027
-0.92139596	W e	-0.26237845
-0.88913316	G e	-0.24995309
-1.3166052	T e	-0.26505613
-1.4500071	S e	-0.23367769
-1.5191138	H e	-0.19914559
-1.245937	Y e	-0.19914559
-1.679088	E e	-0.19914559
-1.567092	K e	-0.19914559
-1.3523649	R e	-0.19914559
-1.1691433	x e	-0.19914559
-0.83393496	V e	-0.25674325
-1.3649377	J e	-0.19914559
-1.1337832	F e	-0.3418276
-1.5799127	<s> w	-2.4233928
-1.7280005	I w	-0.19914559
-1.5483127	n w	-0.77320945
-1.0090137	j w	-0.77320945
-1.4338691	o w	-0.6292903
-1.1600223	g w	-0.71449816
-1.1688503	y w	-0.64827067
-1.4749765	e w	-0.8924347
-1.6932206	w w	-0.23668316
-2.0139186	b w	-0.19914559
-1.2615474	h w	-0.73677456
-1.6194448	u w	-0.5506539
-1.1655321	s w	-0.7346081
-1.4772805	a w	-0.974244
-1.5172548	i w	-0.9097256
-1.3717879	t w	-0.8401562
-1.2452114	z w	-0.59711814
-1.7812107	A w	-0.19914559
-1.4538237	f w	-0.39440498
-1.1809208	k w	-0.6281528
-1.1761581	l w	-0.86200875
-1.5408721	d w	-0.33641303
-1.1191909	c w	-0.8546747
-1.9974471	p w	-0.19914559
-1.1658809	L w	-0.38089725
-1.6658789	v w	-0.25674325
-1.6794698	U w	-0.19914559
-1.6341839	C w	-0.19914559
-1.7041745	T w	-0.19914559
-1.4895546	S w	-0.47217944
-1.5909296	H w	-0.19914559
-1.7660884	E w	-0.19914559
-1.4360273	K w	-0.32316485
-1.2405198	Z w	-0.19914559
-1.3068945	<s> b	-2.6007292
-1.864497	I b	-0.19914559
-2.1236925	n b	-0.19914559
-1.2856282	o b	-0.9447213
-1.533576	g b	-0.25674325
-1.4276938	e b	-0.9980374
-1.2724602	u b	-0.9227592
-2.0759752	s b	-0.32316485
-1.3192502	a b	-1.106985
-1.3920596	i b	-0.9712784
-2.1112595	t b	-0.19914559
-1.9347248	z b	-0.19914559
-1.2965013	m b	-0.7974724
-1.9226809	A b	-0.19914559
-1.6934545	l b	-0.25674325
-2.1434376	d b	-0.19914559
-1.9688201	v b	-0.19914559
-1.7989396	U b	-0.19914559
-1.4523704	M b	-0.23668316
-1.8961339	E b	-0.19914559
-2.6513398	<s> h	-1.1532094
-1.3664534	n h	-0.5237914
-1.5982332	o h	-0.5527503
-2.0271535	g h	-0.19914559
-1.520977	e h	-0.61066806
-0.9146116	b h	-0.8224209
-1.3114988	h h	-0.5089879
-1.5428667	u h	-0.6615764
-1.0369593	s h	-0.86965185
-1.4582691	a h	-0.8399673
-1.5461304	i h	-0.82708174
-1.1154467	t h	-0.7090823
-1.3562562	N h	-0.38625228
-1.4231343	m h	-0.4649431
-1.7899216	A h	-0.19914559
-2.0089364	f h	-0.19914559
-0.9214013	k h	-0.93581593
-2.1451783	l h	-0.19914559
-2.0255053	d h	-0.19914559
-0.9650422	c h	-0.77816725
-0.85085064	p h	-0.85675055
-1.1127037	B h	-0.28868544
-1.686995	U h	-0.19914559
-1.121575	C h	-0.316688
-1.3029116	M h	-0.6940282
-0.7524939	P h	-0.51753545
-1.3182334	W h	-0.19914559
-1.5800587	G h	-0.19914559
-1.0919244	T h	-0.39440498
-1.3422889	S h	-0.33641303
-1.2079298	H h	-0.3418276
-1.7741908	E h	-0.19914559
-0.78826696	K h	-0.45538756
-1.4392818	<s> u	-1.969396
-1.4538754	n u	-0.5099532
-0.9439888	j u	-0.48682365
-1.5078046	o u	-0.48316228
-1.0446919	g u	-0.5097261
-1.246595	y u	-0.3386609
-2.0828204	e u	-0.19914559
-1.0594563	w u	-0.5955381
-0.83693767	b u	-0.7536528
-0.98731554	h u	-0.76009196
-2.2441168	u u	-0.19914559
-1.2339456	s u	-0.6452944
-1.9049524	a u	-0.2656324
-1.9643356	i u	-0.23668316
-1.1061031	t u	-0.5117825
-1.6909873	N u	-0.19914559
-0.9405473	z u	-0.49034157
-1.349065	m u	-0.637332
-1.6746756	A u	-0.19914559
-0.80464596	f u	-0.654852
-1.4141426	r u	-0.3145503
-1.0656642	k u	-0.6673157
-1.1258626	l u	-0.7438738
-1.1920918	d u	-0.3631604
-1.0260298	c u	-0.5727073
-1.2352014	p u	-0.34351346
-1.5496073	L u	-0.26923966
-1.085184	B u	-0.25382012
-0.8566426	v u	-0.72812414
-1.5445185	C u	-0.19914559
-1.6053858	M u	-0.19914559
-1.5204383	P u	-0.19914559
-1.3359298	D u	-0.19914559
-1.4605776	W u	-0.19914559
-1.4921764	G u	-0.19914559
-1.4691463	T u	-0.19914559
-1.3068995	S u	-0.25674325
-1.1692871	H u	-0.38625228
-1.5155176	O u	-0.19914559
-1.0123979	Y u	-0.2777749
-1.2040203	K u	-0.29034084
-1.1644686	x u	-0.19914559
-1.2749511	V u	-0.19914559
-1.3577904	J u	-0.19914559
-0.8639995	F u	-0.48795563
-0.81252474	q u	-0.24459639
-0.9554415	Z u	-0.32316485
-0.32072857	X u	-0.19914559
-1.2366024	<s> s	-2.4782395
-1.7364484	I s	-0.19914559
-1.4195627	n s	-0.5576844
-1.9504781	j s	-0.19914559
-1.3376334	o s	-0.7301399
-2.0271535	g s	-0.19914559
-1.9670435	y s	-0.19914559
-1.3021737	e s	-0.96653104
-1.8992968	w s	-0.32316485
-1.4587842	b s	-0.25674325
-2.045847	h s	-0.32316485
-1.2263347	u s	-0.95117456
-1.4135542	s s	-0.3828369
-1.2972494	a s	-1.0033463
-1.2331796	i s	-1.052535
-1.1490905	t s	-0.7126086
-1.6578811	N s	-0.19914559
-1.37035	m s	-0.6601699
-1.7899216	A s	-0.19914559
-1.444599	r s	-0.43948907
-1.5265269	k s	-0.29606488
-1.4599254	l s	-0.5524536
-1.4332747	d s	-0.2953658
-2.0855038	c s	-0.19914559
-1.8135031	p s	-0.19914559
-1.686995	U s	-0.19914559
-1.6413567	C s	-0.19914559
-1.5416461	M s	-0.24459639
-1.5368104	W s	-0.19914559
-1.3576678	T s	-0.2777749
-1.5974867	H s	-0.19914559
-1.6016713	O s	-0.19914559
-1.7741908	E s	-0.19914559
-1.4189414	<s> a	-1.9597601
-1.6309403	I a	-0.19914559
-1.0729697	n a	-0.61127245
-0.8104815	j a	-0.698137
-2.1003933	o a	-0.19914559
-1.04544	g a	-0.6243281
-0.7910384	y a	-0.74528134
-1.6084663	e a	-0.32047713
-0.6259307	w a	-0.94163793
-0.871093	b a	-0.73613673
-0.82493526	h a	-0.88713115
-2.0591826	u a	-0.19914559
-1.0564885	s a	-0.8052807
-1.907453	a a	-0.316688
-1.6214149	i a	-0.52144015
-1.1067197	t a	-0.64454687
-1.4416639	N a	-0.24803238
-0.7693849	z a	-0.56276256
-1.1036489	m a	-0.71197253
-0.8699362	f a	-0.57658553
-0.92679065	r a	-0.39800555
-0.9474965	k a	-0.64671946
-0.8393073	l a	-0.78829587
-1.0936023	d a	-0.48780224
-1.0266637	c a	-0.7091896
-0.9538145	p a	-0.33916494
-1.1438392	L a	-0.24477765
-1.0869654	B a	-0.28896356
-0.85712045	v a	-0.6397603
-1.5503441	C a	-0.19914559
-1.1242958	M a	-0.48364654
-1.170388	P a	-0.22699027
-1.3398763	D a	-0.19914559
-1.465264	W a	-0.19914559
-0.999723	G a	-0.23111792
-1.0674734	T a	-0.28568217
-1.0502615	S a	-0.38465357
-1.3477589	H a	-0.24459639
-1.2423154	Y a	-0.19914559
-1.6725672	E a	-0.19914559
-1.387961	K a	-0.19914559
-1.1433911	R a	-0.19914559
-0.6657856	x a	-0.24459639
-0.6218592	J a	-0.33188927
-1.3130016	F a	-0.24459639
-0.6372483	q a	-0.36418906
-1.1960071	Z a	-0.19914559
-1.3539816	<s> i	-1.9121541
-1.1585922	n i	-0.60295886
-0.9457274	j i	-0.5292455
-1.9967016	o i	-0.25674325
-0.9640772	g i	-0.58066696
-0.9630931	y i	-0.68010116
-1.8353186	e i	-0.22380675
-0.87416404	w i	-0.6191381
-1.0419194	b i	-0.6106999
-0.89945376	h i	-0.72027653
-1.9626948	u i	-0.19914559
-0.9538808	s i	-0.7689808
-1.6654028	a i	-0.39618525
-2.0583203	i i	-0.23899567
-0.972396	t i	-0.7508823
-1.2222834	N i	-0.35973155
-0.77020925	z i	-0.5901599
-1.2293646	m i	-0.6645162
-0.8371659	f i	-0.61250836
-0.8728524	r i	-0.5148514
-1.0243666	k i	-0.52604795
-0.88016176	l i	-0.7282715
-1.0529041	d i	-0.42395505
-0.8715335	c i	-0.68059665
-1.0475187	p i	-0.3368347
-1.0610586	L i	-0.38712075
-1.586323	B i	-0.19914559
-0.7223949	v i	-0.6537274
-1.2409402	C i	-0.24459639
-1.3673251	M i	-0.2777749
-1.3589858	P i	-0.2777749
-1.3478785	D i	-0.23111792
-1.474791	W i	-0.19914559
-1.3362024	G i	-0.19914559
-1.1776857	T i	-0.2839124
-1.3137505	S i	-0.39929986
-1.2495891	Y i	-0.19914559
-1.5724115	K i	-0.19914559
-0.9450206	R i	-0.23668316
-1.393964	x i	-0.19914559
-1.0532812	V i	-0.19914559
-1.1367679	J i	-0.19914559
-1.3200676	F i	-0.19914559
-1.2899657	q i	-0.19914559
-0.9610889	Z i	-0.32316485
-1.2644207	<s> t	-2.3873994
-1.7628251	I t	-0.19914559
-1.24073	n t	-0.7198587
-1.1928321	o t	-0.8907243
-2.0492392	g t	-0.19914559
-1.9850719	y t	-0.19914559
-1.2763287	e t	-1.0012461
-2.1256	w t	-0.19914559
-1.8723506	h t	-0.19914559
-1.1950307	u t	-0.96093535
-1.3008636	s t	-0.48443952
-1.2990992	a t	-1.1006227
-1.2790967	i t	-1.0198593
-1.3763565	t t	-0.28135088
-1.257308	N t	-0.40471652
-1.3747351	m t	-0.6305526
-1.8171549	A t	-0.19914559
-1.8259127	f t	-0.32316485
-1.5621959	r t	-0.3405475
-1.4165165	k t	-0.2953658
-1.998352	l t	-0.19914559
-1.2919234	c t	-0.45206156
-1.4668394	p t	-0.25674325
-1.7103864	U t	-0.19914559
-1.3109769	M t	-0.48316228
-1.6862572	S t	-0.23668316
-1.7994462	E t	-0.19914559
-1.4575518	x t	-0.19914559
-0.3288473	Ã t	-0.19914559
-0.3288473	Å t	-0.19914559
-1.9494379	<s> N	-1.5790024
-1.528011	I N	-0.23111792
-2.2953305	o N	-0.19914559
-1.7696368	e N	-0.7189808
-2.4638877	u N	-0.24459639
-2.0803175	a N	-0.31797567
-1.929129	i N	-0.3610637
-1.311108	A N	-0.19914559
-1.2392452	U N	-0.3418276
-1.2590574	O N	-0.19914559
-0.8949581	E N	-0.28135088
-1.7242842	F N	-0.19914559
-3.3287401	<s> z	-0.7613058
-1.5903205	n z	-0.4817831
-1.5842026	o z	-0.68986446
-1.6232901	e z	-0.71266574
-1.4119241	u z	-0.75006855
-1.4746192	a z	-0.9390563
-1.5118642	i z	-0.8123687
-2.3714008	t z	-0.19914559
-1.993373	N z	-0.19914559
-1.8050948	m z	-0.4790111
-1.9869335	A z	-0.19914559
-2.2057233	r z	-0.19914559
-1.0004985	d z	-0.80637
-2.0008953	v z	-0.19914559
-1.9539671	E z	-0.19914559
-2.1550176	<s> m	-1.2832887
-1.8314215	I m	-0.19914559
-2.100539	n m	-0.32316485
-1.7767096	j m	-0.19914559
-1.1663427	o m	-0.804958
-1.7937684	y m	-0.19914559
-1.3390709	e m	-0.9919896
-1.1682969	u m	-0.7906809
-2.0556326	s m	-0.19914559
-1.3173127	a m	-0.96666807
-1.3161762	i m	-0.81747097
-2.288937	t m	-0.19914559
-1.9170129	z m	-0.19914559
-1.5025157	m m	-0.58521456
-1.7202555	A m	-0.19914559
-1.9309239	r m	-0.19914559
-2.2319386	l m	-0.19914559
-1.7300066	d m	-0.2777749
-2.1649926	c m	-0.19914559
-1.8594241	p m	-0.19914559
-1.7704281	U m	-0.19914559
-1.9226036	S m	-0.19914559
-1.8648031	E m	-0.19914559
-2.0263774	<s> A	-1.3548921
-1.8531896	I A	-0.19914559
-2.6268256	e A	-0.19914559
-1.5509999	N A	-0.2777749
-1.9108971	A A	-0.19914559
-1.0951537	L A	-0.37960956
-1.5219276	B A	-0.24459639
-1.7808001	M A	-0.25674325
-1.4541838	P A	-0.19914559
-1.4575455	D A	-0.32316485
-0.7337129	W A	-0.43948907
-1.6659417	G A	-0.19914559
-1.1140372	T A	-0.3145503
-0.8673764	S A	-0.4001091
-1.4570959	H A	-0.19914559
-1.0739052	Y A	-0.19914559
-1.6936632	E A	-0.19914559
-1.270771	K A	-0.2777749
-1.4781864	R A	-0.19914559
-1.6497515	F A	-0.19914559
-1.2901211	Z A	-0.19914559
-2.3472269	<s> f	-1.4917624
-1.8314215	I f	-0.19914559
-1.9232923	n f	-0.2777749
-1.5042658	o f	-0.6092134
-1.5085812	e f	-0.729415
-2.1720235	w f	-0.19914559
-1.8959892	h f	-0.19914559
-1.6390909	u f	-0.71266574
-1.5315037	a f	-0.92120457
-1.4540366	i f	-0.98628426
-1.1930248	t f	-0.6654435
-1.439876	m f	-0.7432462
-1.8882474	A f	-0.19914559
-1.3524652	f f	-0.3814971
-2.1181085	r f	-0.19914559
-2.0394998	l f	-0.19914559
-1.7300066	d f	-0.19914559
-1.7704281	U f	-0.19914559
-1.441241	M f	-0.48316228
-1.3921274	T f	-0.3418276
-1.6703564	O f	-0.19914559
-1.8648031	E f	-0.19914559
-1.6347926	F f	-0.19914559
-3.78837	<s> r	-0.40520936
-1.8006877	I r	-0.19914559
-1.3215843	o r	-0.427901
-1.4019146	g r	-0.33641303
-1.4223391	e r	-0.7242724
-2.0672998	b r	-0.19914559
-1.8857003	h r	-0.24459639
-1.4267708	u r	-0.4708688
-2.2101433	s r	-0.19914559
-1.4645545	a r	-0.47642183
-1.6907958	i r	-0.3405475
-1.3809737	t r	-0.48404002
-2.2281837	m r	-0.19914559
-1.8563446	A r	-0.19914559
-1.8434426	f r	-0.19914559
-1.9120066	r r	-0.24459639
-1.718102	d r	-0.19914559
-1.7449758	c r	-0.2777749
-1.3550341	p r	-0.2953658
-1.2926136	B r	-0.40632552
-1.6521962	P r	-0.19914559
-1.5775516	W r	-0.19914559
-1.4129757	G r	-0.19914559
-1.7674203	T r	-0.19914559
-1.4303765	O r	-0.2777749
-1.6132782	F r	-0.19914559
-0.80600095	<s> k	-2.9796338
-1.8209333	I k	-0.19914559
-1.330473	n k	-0.6256897
-2.0068164	j k	-0.19914559
-1.2641045	o k	-0.9453246
-1.3230443	e k	-1.0135345
-2.0817373	b k	-0.19914559
-1.1989918	u k	-1.0666723
-1.8629298	s k	-0.19914559
-1.3309711	a k	-1.186757
-1.2528232	i k	-1.0607755
-1.1828763	N k	-0.4268814
-1.5005485	m k	-0.5818726
-1.8773507	A k	-0.19914559
-2.0722537	f k	-0.19914559
-1.7361405	r k	-0.316688
-2.0333774	l k	-0.19914559
-1.4688387	c k	-0.29606488
-1.7613256	U k	-0.19914559
-1.327571	M k	-0.56234354
-1.4422244	D k	-0.32316485
-1.9133507	S k	-0.19914559
-1.6629779	O k	-0.19914559
-1.8548423	E k	-0.19914559
-0.75034595	<s> l	-3.0352628
-1.7197138	I l	-0.19914559
-1.6292956	n l	-0.36418906
-1.1321063	o l	-0.9913656
-2.01303	g l	-0.19914559
-1.9554275	y l	-0.19914559
-1.2226357	e l	-1.1422349
-2.0952377	w l	-0.19914559
-1.2457278	b l	-0.23111792
-1.0752044	h l	-0.87214684
-1.1917571	u l	-1.1154293
-1.6756283	s l	-0.19914559
-1.2336425	a l	-1.0733097
-1.2758565	i l	-1.0355805
-2.1887693	t l	-0.19914559
-1.4794776	m l	-0.62514323
-1.772671	A l	-0.19914559
-1.8049508	f l	-0.19914559
-1.8597472	r l	-0.19914559
-1.3182552	k l	-0.4264325
-1.4566908	l l	-0.3583703
-1.0614493	d l	-0.8575303
-1.4499409	c l	-0.2953658
-1.2504238	p l	-0.2656324
-1.6720728	U l	-0.19914559
-1.6271278	C l	-0.19914559
-1.811395	M l	-0.19914559
-1.5933923	P l	-0.19914559
-1.5711408	D l	-0.19914559
-1.6968791	T l	-0.19914559
-0.9270947	H l	-0.47217944
-1.5891479	O l	-0.19914559
-1.7581344	E l	-0.19914559
-1.6295307	K l	-0.19914559
-1.5544742	F l	-0.19914559
-3.014325	<s> d	-0.77498776
-1.864497	I d	-0.19914559
-1.2913758	n d	-0.66600764
-1.4204437	o d	-0.61794615
-1.9130533	g d	-0.32316485
-1.3910377	e d	-0.72926617
-2.1935463	w d	-0.19914559
-1.2921256	u d	-0.7540521
-2.2709367	s d	-0.19914559
-1.4137423	a d	-0.83112055
-1.3724144	i d	-0.7591909
-1.1158286	N d	-0.4817831
-1.5827963	m d	-0.5043516
-1.9226809	A d	-0.19914559
-1.5906844	r d	-0.316688
-2.1570988	k d	-0.19914559
-1.6934545	l d	-0.2953658
-1.7422466	d d	-0.19914559
-1.7989396	U d	-0.19914559
-1.7888798	M d	-0.19914559
-2.9198644	<s> c	-0.9862353
-1.8006877	I c	-0.19914559
-1.3762681	n c	-0.7755735
-1.4148538	o c	-0.67310005
-0.9760346	g c	-0.8796647
-1.4618632	e c	-0.6751347
-2.1515174	w c	-0.19914559
-2.0672998	b c	-0.19914559
-1.4854168	u c	-0.83927464
-1.8545108	s c	-0.25674325
-1.4266994	a c	-0.997395
-1.3490105	i c	-0.8331982
-1.702955	N c	-0.19914559
-1.4966406	m c	-0.65887636
-1.8563446	A c	-0.19914559
-1.5733681	r c	-0.3418276
-2.1062071	k c	-0.19914559
-2.0850124	d c	-0.19914559
-1.9422121	c c	-0.19914559
-1.7436736	U c	-0.19914559
-1.5752182	M c	-0.47217944
-1.4129757	G c	-0.2777749
-1.7085268	S c	-0.2777749
-1.6485869	O c	-0.19914559
-1.8355811	E c	-0.19914559
-1.4762079	x c	-0.19914559
-2.8187587	<s> p	-1.1378905
-1.8209333	I p	-0.19914559
-2.2572417	n p	-0.19914559
-2.0068164	j p	-0.19914559
-1.3913426	o p	-0.56093216
-2.0235417	y p	-0.19914559
-1.4638106	e p	-0.62299556
-1.4290177	u p	-0.5823809
-2.049058	s p	-0.19914559
-1.3934139	a p	-0.7571078
-1.4091114	i p	-0.6356715
-2.2796488	t p	-0.19914559
-1.2916211	m p	-0.67858344
-1.8773507	A p	-0.19914559
-1.7361405	r p	-0.25674325
-2.22244	l p	-0.19914559
-1.4787709	p p	-0.25674325
-1.8654603	L p	-0.19914559
-1.7613256	U p	-0.19914559
-1.327571	M p	-0.316688
-1.9133507	S p	-0.19914559
-1.6629779	O p	-0.19914559
-1.8548423	E p	-0.19914559
-1.4858453	x p	-0.19914559
-1.8625898	<s> L	-1.8029056
-1.7251494	I L	-0.19914559
-2.6602135	o L	-0.19914559
-1.8581855	e L	-0.59710336
-1.9885496	u L	-0.28269953
-2.0729136	a L	-0.4067707
-2.710563	i L	-0.19914559
-1.2117246	A L	-0.27258137
-1.9626539	L L	-0.19914559
-0.9353358	U L	-0.43113586
-1.495548	D L	-0.2777749
-1.0839188	H L	-0.19914559
-1.4850677	O L	-0.23668316
-1.239777	E L	-0.33641303
-2.2522109	<s> B	-1.4610504
-1.7420989	I B	-0.19914559
-1.8630521	e B	-0.41427296
-2.4638877	u B	-0.2777749
-2.0803175	a B	-0.36784053
-2.095814	i B	-0.36101323
-2.0350373	N B	-0.19914559
-1.6013038	A B	-0.19914559
-1.9850049	L B	-0.19914559
-1.2392452	U B	-0.25674325
-1.906688	T B	-0.19914559
-1.9927663	E B	-0.19914559
-3.1547766	<s> v	-0.85168386
-1.9003006	I v	-0.19914559
-1.9543604	n v	-0.19914559
-1.5814769	o v	-0.57592106
-1.564614	e v	-0.8981482
-1.5306284	u v	-0.8328491
-2.3048544	s v	-0.19914559
-1.5150763	a v	-0.9773258
-1.4370337	i v	-0.9295566
-1.3942662	m v	-0.6521613
-1.9714259	r v	-0.25674325
-2.184971	k v	-0.19914559
-1.1224163	d v	-0.7980234
-1.9877797	v v	-0.19914559
-1.4637926	M v	-0.36418906
-1.7137216	D v	-0.19914559
-1.9299021	E v	-0.19914559
-2.2773986	<s> U	-1.2063221
-1.9393234	I U	-0.19914559
-1.501196	L U	-0.19914559
-1.809861	B U	-0.19914559
-1.8622783	U U	-0.19914559
-1.5642561	C U	-0.19914559
-2.0444794	M U	-0.19914559
-1.6577426	W U	-0.19914559
-1.7252022	G U	-0.19914559
-1.8838439	T U	-0.19914559
-1.2623984	H U	-0.19914559
-1.1100563	K U	-0.22380675
-1.4152149	V U	-0.19914559
-1.0353718	F U	-0.38625228
-2.6616092	<s> C	-0.9540033
-1.9129226	I C	-0.19914559
-2.2371407	e C	-0.47217944
-2.24168	u C	-0.24459639
-2.577101	a C	-0.19914559
-2.6767778	i C	-0.19914559
-1.9803282	N C	-0.19914559
-1.4172221	A C	-0.24459639
-1.840123	U C	-0.19914559
-1.5523102	C C	-0.19914559
-1.7284893	P C	-0.19914559
-1.7232006	D C	-0.19914559
-1.0561415	G C	-0.2777749
-1.725845	O C	-0.19914559
-1.9417679	E C	-0.19914559
-1.6895713	F C	-0.19914559
-2.4972613	<s> M	-0.9598298
-1.5175794	I M	-0.23668316
-2.122963	o M	-0.3538818
-1.9130391	e M	-0.5254338
-2.2565663	u M	-0.32254297
-1.7886933	a M	-0.5971073
-2.5360982	i M	-0.19914559
-1.5900525	A M	-0.19914559
-1.4074678	U M	-0.19914559
-1.7252022	G M	-0.19914559
-1.4850677	O M	-0.19914559
-1.5315857	E M	-0.2777749
-1.4152149	V M	-0.19914559
-1.706581	F M	-0.19914559
-2.8522666	<s> P	-0.89534336
-1.7009044	I P	-0.19914559
-2.6139133	o P	-0.19914559
-2.5381289	e P	-0.19914559
-2.4067862	u P	-0.2777749
-2.3999705	a P	-0.47217944
-2.3314548	i P	-0.38625228
-2.334561	m P	-0.19914559
-1.5737038	A P	-0.19914559
-1.7824523	B P	-0.19914559
-1.8294554	U P	-0.19914559
-1.7759247	C P	-0.19914559
-2.0025034	M P	-0.19914559
-1.4788524	D P	-0.32316485
-1.718625	H P	-0.19914559
-1.9299021	E P	-0.19914559
-1.5021884	R P	-0.19914559
-3.0100064	<s> D	-0.7858884
-1.7420989	I D	-0.19914559
-2.600269	e D	-0.19914559
-2.4638877	u D	-0.19914559
-2.6267097	a D	-0.19914559
-1.425649	N D	-0.33343387
-1.4324052	A D	-0.24459639
-1.5765399	C D	-0.19914559
-2.0749016	M D	-0.19914559
-1.7437332	G D	-0.19914559
-1.7610571	O D	-0.19914559
-1.3679928	E D	-0.19914559
-2.4006205	<s> W	-1.4291028
-2.5743368	e W	-0.19914559
-2.390605	h W	-0.19914559
-2.768737	a W	-0.19914559
-2.0068219	N W	-0.19914559
-1.7935625	A W	-0.32316485
-2.2147555	k W	-0.19914559
-1.501196	L W	-0.25674325
-1.745499	P W	-0.19914559
-1.495548	D W	-0.19914559
-2.0161643	S W	-0.19914559
-1.7814536	K W	-0.19914559
-1.4989413	J W	-0.19914559
-1.706581	F W	-0.19914559
-2.9653835	<s> G	-0.76625276
-1.528011	I G	-0.19914559
-2.694072	o G	-0.19914559
-2.260943	e G	-0.33641303
-2.6529882	u G	-0.19914559
-2.6267097	a G	-0.19914559
-2.560269	i G	-0.19914559
-1.425649	N G	-0.2777749
-2.1926053	m G	-0.32316485
-1.9850049	L G	-0.19914559
-1.8856249	U G	-0.19914559
-1.7610571	O G	-0.19914559
-2.3294432	<s> T	-1.3038373
-1.2216979	I T	-0.24459639
-1.8509865	e T	-0.5086838
-2.567632	u T	-0.19914559
-2.5655363	a T	-0.19914559
-1.987575	i T	-0.43574458
-1.768765	N T	-0.19914559
-1.5737038	A T	-0.2777749
-1.9311465	L T	-0.19914559
-1.7759247	C T	-0.19914559
-1.720228	P T	-0.19914559
-1.7137216	D T	-0.19914559
-1.6362646	W T	-0.19914559
-1.7632471	S T	-0.19914559
-1.718625	H T	-0.19914559
-1.2326679	E T	-0.29606488
-1.5021884	R T	-0.19914559
-2.0174315	<s> S	-1.5499068
-1.042132	I S	-0.29049656
-2.38647	o S	-0.19914559
-1.7904462	e S	-0.6044148
-2.0568874	u S	-0.3418276
-1.8605906	a S	-0.48858038
-2.0512612	i S	-0.27258137
-1.8985735	N S	-0.19914559
-2.2608309	m S	-0.19914559
-1.7202555	A S	-0.19914559
-2.1181085	r S	-0.19914559
-1.7323353	B S	-0.19914559
-1.7704281	U S	-0.19914559
-1.5904408	M S	-0.19914559
-1.4454033	P S	-0.19914559
-1.6608211	D S	-0.19914559
-1.650396	G S	-0.19914559
-1.5920671	T S	-0.19914559
-1.9226036	S S	-0.19914559
-1.4434173	O S	-0.32316485
-1.2187895	E S	-0.23668316
-1.4666651	R S	-0.19914559
-1.4568938	J S	-0.19914559
-3.0837731	<s> H	-0.75389063
-2.5995152	o H	-0.19914559
-2.5267007	e H	-0.19914559
-2.227287	u H	-0.2953658
-2.0584736	a H	-0.5301636
-2.4914527	i H	-0.19914559
-1.9553581	N H	-0.19914559
-2.3213704	m H	-0.19914559
-1.7736875	B H	-0.19914559
-1.6014165	U H	-0.32316485
-1.7661757	C H	-0.19914559
-1.2430507	P H	-0.2777749
-1.690356	G H	-0.19914559
-1.9720783	S H	-0.19914559
-1.7099792	H H	-0.19914559
-1.7092547	O H	-0.19914559
-1.9183519	E H	-0.19914559
-0.9777783	K H	-0.3673883
-3.2153141	<s> O	-0.5699487
-2.0068219	N O	-0.19914559
-1.1056241	L O	-0.3814971
-1.809861	B O	-0.19914559
-1.3407489	C O	-0.19914559
-1.8407938	M O	-0.19914559
-1.745499	P O	-0.19914559
-1.7252022	G O	-0.19914559
-1.6464876	T O	-0.19914559
-1.7831347	S O	-0.32316485
-1.4919301	H O	-0.2777749
-1.3814051	Y O	-0.19914559
-1.2898924	K O	-0.47217944
-1.4152149	V O	-0.19914559
-2.8088658	<s> Y	-1.1272396
-2.0646696	I Y	-0.19914559
-2.9197469	e Y	-0.19914559
-1.8710692	A Y	-0.19914559
-2.0599184	L Y	-0.19914559
-1.9642954	U Y	-0.19914559
-2.382898	<s> E	-1.0529138
-1.8531896	I E	-0.19914559
-2.6022868	i E	-0.19914559
-1.5509999	N E	-0.24459639
-1.0951537	L E	-0.33343387
-1.307186	B E	-0.19914559
-1.738177	C E	-0.19914559
-1.6008937	M E	-0.19914559
-1.4575455	D E	-0.19914559
-1.36053	W E	-0.19914559
-1.4356571	G E	-0.19914559
-1.6035849	T E	-0.19914559
-1.160855	S E	-0.25674325
-1.6850287	H E	-0.19914559
-1.6855003	O E	-0.19914559
-1.0739052	Y E	-0.19914559
-1.8854371	E E	-0.19914559
-1.4781864	R E	-0.19914559
-0.8670953	V E	-0.2777749
-1.4658922	J E	-0.19914559
-1.6497515	F E	-0.19914559
-1.9569585	<s> K	-1.7339094
-1.5227638	I K	-0.2777749
-2.4831955	o K	-0.19914559
-1.9157932	e K	-0.51278764
-2.451851	u K	-0.32316485
-2.2791784	a K	-0.59711814
-2.2060134	i K	-0.40632552
-1.8015534	N K	-0.32316485
-2.391737	m K	-0.19914559
-1.4285594	A K	-0.24459639
-1.6337574	U K	-0.19914559
-2.0594242	M K	-0.19914559
-1.5362891	E K	-0.19914559
-3.0031126	<s> R	-0.8942252
-1.9974899	I R	-0.19914559
-2.7307951	o R	-0.19914559
-2.273352	e R	-0.59711814
-2.6924574	u R	-0.19914559
-2.8485196	a R	-0.19914559
-1.830589	A R	-0.19914559
-2.008569	L R	-0.19914559
-1.7797952	O R	-0.19914559
-1.7756788	E R	-0.19914559
-4.385818	<s> x	-0.19914559
-1.9936602	n x	-0.2777749
-2.7307951	o x	-0.19914559
-2.273352	e x	-0.19914559
-2.6924574	u x	-0.19914559
-2.8485196	a x	-0.19914559
-2.585865	i x	-0.19914559
-2.0652142	N x	-0.19914559
-1.8493234	B x	-0.19914559
-2.0207024	E x	-0.19914559
-3.7419994	<s> V	-0.48443952
-1.5441436	I V	-0.2777749
-2.713624	u V	-0.19914559
-2.1847754	a V	-0.6940282
-2.8086946	i V	-0.19914559
-2.0791686	A V	-0.19914559
-1.8629662	C V	-0.19914559
-1.7960671	D V	-0.19914559
-1.5545809	R V	-0.19914559
-3.0980005	<s> J	-0.8704116
-2.7503908	o J	-0.19914559
-2.2796922	e J	-0.40632552
-2.5021393	u J	-0.32316485
-2.6680293	a J	-0.19914559
-2.8086946	i J	-0.19914559
-1.837021	N J	-0.32316485
-1.9433783	T J	-0.19914559
-2.0353746	E J	-0.19914559
-2.9249213	<s> F	-0.7860027
-1.7420989	I F	-0.19914559
-2.694072	o F	-0.19914559
-2.4638877	u F	-0.19914559
-2.806799	a F	-0.19914559
-2.369789	i F	-0.2777749
-2.40729	m F	-0.19914559
-1.4324052	A F	-0.19914559
-1.8856249	U F	-0.19914559
-1.8595756	M F	-0.32316485
-1.906688	T F	-0.19914559
-1.534186	R F	-0.19914559
-4.621351	<s> q	-0.19914559
-1.7069434	n q	-0.3145503
-1.991479	g q	-0.2777749
-2.7593286	u q	-0.19914559
-2.485881	a q	-0.2777749
-2.4215724	l q	-0.19914559
-2.3333528	c q	-0.19914559
-4.134316	<s> Z	-0.3418276
-2.6728094	e Z	-0.32316485
-2.485881	a Z	-0.38625228
-2.8551323	i Z	-0.19914559
-2.1148486	A Z	-0.19914559
-1.8193476	D Z	-0.19914559
-2.0662954	E Z	-0.19914559
-4.7225847	<s> X	-0.32316485
-1.9567264	C Ã	-0.19914559
-1.9567264	C Å	-0.19914559
-5.0044665	<s> Â	-0.19914559

\3-grams:
-0.89027965	<s> I </s>	0
-0.37885055	I I </s>	0
-0.5759532	N I </s>	0
-0.64636433	L I </s>	0
-0.7606026	C I </s>	0
-0.91168493	M I </s>	0
-0.10803227	D I </s>	0
-0.6143477	T I </s>	0
-0.23197888	Z I </s>	0
-1.1127263	n n </s>	0
-1.2657446	o n </s>	0
-1.3268695	e n </s>	0
-0.9185985	h n </s>	0
-1.7229414	u n </s>	0
-1.1480876	a n </s>	0
-1.3475406	i n </s>	0
-1.7962652	m n </s>	0
-0.91608006	r n </s>	0
-1.0710745	n j </s>	0
-0.40163308	b j </s>	0
-0.67220616	s j </s>	0
-1.6994529	t j </s>	0
-0.82140076	n o </s>	0
-0.8206753	j o </s>	0
-0.5461923	o o </s>	0
-1.2195572	g o </s>	0
-1.0578314	y o </s>	0
-0.7045943	w o </s>	0
-1.1611499	b o </s>	0
-0.95711625	h o </s>	0
-0.9471322	s o </s>	0
-0.83294564	t o </s>	0
-1.0760524	N o </s>	0
-0.6708017	z o </s>	0
-0.80441463	m o </s>	0
-0.98537964	f o </s>	0
-0.90631706	r o </s>	0
-0.9871892	k o </s>	0
-1.1584027	l o </s>	0
-0.8933803	d o </s>	0
-1.1054401	c o </s>	0
-0.9898775	p o </s>	0
-0.5714762	v o </s>	0
-1.7384602	<s> g </s>	0
-1.1641357	n g </s>	0
-1.5956266	e g </s>	0
-1.9304012	a g </s>	0
-1.4871439	m g </s>	0
-0.39025438	f g </s>	0
-0.55887175	r g </s>	0
-1.0896479	n y </s>	0
-1.1874058	o y </s>	0
-0.09791953	g y </s>	0
-1.126853	e y </s>	0
-0.3051153	b y </s>	0
-0.3051153	h y </s>	0
-0.20712751	s y </s>	0
-1.3268774	a y </s>	0
-1.3017005	i y </s>	0
-0.42361084	t y </s>	0
-0.3051153	f y </s>	0
-0.076489635	r y </s>	0
-0.3051153	k y </s>	0
-0.23655537	l y </s>	0
-0.20712751	c y </s>	0
-0.3051153	L y </s>	0
-1.9887301	<s> e </s>	0
-1.0973823	n e </s>	0
-0.85256773	j e </s>	0
-0.6197592	o e </s>	0
-1.0934422	g e </s>	0
-1.1414384	y e </s>	0
-0.38304132	e e </s>	0
-0.93617725	w e </s>	0
-1.122235	b e </s>	0
-0.9437213	h e </s>	0
-0.44729593	u e </s>	0
-1.1836312	s e </s>	0
-0.5108492	a e </s>	0
-1.3521441	i e </s>	0
-0.96868217	t e </s>	0
-0.8897761	z e </s>	0
-1.0319631	m e </s>	0
-0.39664254	A e </s>	0
-0.76488596	f e </s>	0
-0.8393135	r e </s>	0
-0.84361595	k e </s>	0
-1.0514979	l e </s>	0
-0.6209768	d e </s>	0
-0.92357326	c e </s>	0
-0.8555542	p e </s>	0
-1.3605952	L e </s>	0
-0.9923501	v e </s>	0
-1.1003343	P e </s>	0
-0.39664254	E e </s>	0
-1.1003343	R e </s>	0
-1.0105287	F e </s>	0
-1.4454201	o w </s>	0
-1.4198534	g w </s>	0
-1.198013	e w </s>	0
-1.4421299	h w </s>	0
-1.3408262	u w </s>	0
-1.4708238	s w </s>	0
-1.5519212	a w </s>	0
-1.0705881	f w </s>	0
-1.0909926	k w </s>	0
-1.3054624	l w </s>	0
-1.0125961	d w </s>	0
-2.0569856	e b </s>	0
-1.7208512	u b </s>	0
-1.7313784	a b </s>	0
-1.5714427	i b </s>	0
-1.3830053	n h </s>	0
-1.5966578	e h </s>	0
-1.8586792	s h </s>	0
-0.90520275	t h </s>	0
-0.39421505	f h </s>	0
-1.9168897	k h </s>	0
-1.750656	c h </s>	0
-1.3873845	p h </s>	0
-1.1250577	B h </s>	0
-0.65847546	W h </s>	0
-3.0662372	<s> u </s>	0
-0.7313702	n u </s>	0
-1.4583071	j u </s>	0
-1.251445	g u </s>	0
-1.2352304	w u </s>	0
-1.2601331	b u </s>	0
-1.0727466	h u </s>	0
-1.2325783	s u </s>	0
-1.0608352	a u </s>	0
-1.0085241	i u </s>	0
-0.89514524	t u </s>	0
-0.3894731	N u </s>	0
-1.1034056	z u </s>	0
-1.0219487	m u </s>	0
-1.0363084	f u </s>	0
-1.2858373	k u </s>	0
-1.1629436	l u </s>	0
-0.8965466	d u </s>	0
-1.4109001	c u </s>	0
-1.226279	p u </s>	0
-1.276967	B u </s>	0
-0.9363553	v u </s>	0
-1.3531168	K u </s>	0
-1.1357735	F u </s>	0
-0.95998055	q u </s>	0
-0.6498009	X u </s>	0
-1.0475097	n s </s>	0
-1.3571873	o s </s>	0
-0.3470291	g s </s>	0
-0.88414866	e s </s>	0
-0.23177816	h s </s>	0
-1.2193192	u s </s>	0
-0.6299254	s s </s>	0
-1.1763873	a s </s>	0
-1.2703605	i s </s>	0
-0.95143604	t s </s>	0
-0.96209645	m s </s>	0
-0.8930458	A s </s>	0
-0.26305458	r s </s>	0
-0.45638168	k s </s>	0
-0.21744032	l s </s>	0
-0.55971766	d s </s>	0
-0.3470291	c s </s>	0
-0.5753639	p s </s>	0
-0.3470291	C s </s>	0
-0.3470291	W s </s>	0
-0.3470291	H s </s>	0
-0.3470291	O s </s>	0
-2.620654	<s> a </s>	0
-0.3985195	I a </s>	0
-0.95021975	n a </s>	0
-0.8480278	j a </s>	0
-1.1054847	g a </s>	0
-1.1965245	y a </s>	0
-1.0847896	e a </s>	0
-1.0730401	w a </s>	0
-1.1863879	b a </s>	0
-1.0495125	h a </s>	0
-0.8117282	u a </s>	0
-1.0661166	s a </s>	0
-0.56427133	a a </s>	0
-0.53073937	i a </s>	0
-1.1509005	t a </s>	0
-0.8667047	z a </s>	0
-1.1805887	m a </s>	0
-1.0081462	f a </s>	0
-0.8621928	r a </s>	0
-1.2331959	k a </s>	0
-1.1340663	l a </s>	0
-0.8852236	d a </s>	0
-1.0626764	c a </s>	0
-1.1371258	p a </s>	0
-1.3581977	L a </s>	0
-0.73003185	v a </s>	0
-1.4113774	M a </s>	0
-1.2922218	W a </s>	0
-1.086388	G a </s>	0
-1.4513624	S a </s>	0
-0.9910592	x a </s>	0
-1.1807771	<s> i </s>	0
-1.159484	n i </s>	0
-0.91114616	j i </s>	0
-1.4155419	g i </s>	0
-1.1596326	y i </s>	0
-1.1488736	e i </s>	0
-0.838425	w i </s>	0
-0.99380636	b i </s>	0
-1.0920932	h i </s>	0
-0.9770311	u i </s>	0
-1.3141143	s i </s>	0
-1.2948881	i i </s>	0
-1.3746495	t i </s>	0
-0.9725503	z i </s>	0
-1.3625165	m i </s>	0
-0.87918013	f i </s>	0
-0.9571424	r i </s>	0
-0.9246641	k i </s>	0
-1.3935155	l i </s>	0
-0.951753	d i </s>	0
-1.2739906	c i </s>	0
-0.6111918	p i </s>	0
-1.256649	v i </s>	0
-0.39829713	W i </s>	0
-1.5427896	S i </s>	0
-1.0431974	R i </s>	0
-1.1329637	n t </s>	0
-1.6569813	o t </s>	0
-0.37938792	y t </s>	0
-1.4000069	e t </s>	0
-0.935042	s t </s>	0
-1.4381367	a t </s>	0
-1.6572106	i t </s>	0
-1.1276675	t t </s>	0
-0.9553215	r t </s>	0
-0.60253453	k t </s>	0
-0.76382256	l t </s>	0
-0.71343035	c t </s>	0
-0.86825454	p t </s>	0
-0.37938792	x t </s>	0
-2.7267656	<s> N </s>	0
-0.9799579	o N </s>	0
-1.2183644	a N </s>	0
-1.0772442	A N </s>	0
-1.6592306	a z </s>	0
-0.4048685	r z </s>	0
-1.1879041	d z </s>	0
-1.4390594	o m </s>	0
-0.6728849	y m </s>	0
-1.898263	e m </s>	0
-1.5755131	u m </s>	0
-0.82079095	s m </s>	0
-1.7064339	a m </s>	0
-1.6426965	i m </s>	0
-0.91926277	A m </s>	0
-0.82079095	r m </s>	0
-1.660039	<s> A </s>	0
-0.33087867	I A </s>	0
-0.36402085	N A </s>	0
-0.3333065	L A </s>	0
-0.5241957	B A </s>	0
-0.22239575	D A </s>	0
-0.25532606	W A </s>	0
-0.33087867	G A </s>	0
-0.39006847	T A </s>	0
-0.4032091	S A </s>	0
-0.6544505	E A </s>	0
-0.33087867	F A </s>	0
-0.33087867	Z A </s>	0
-2.392201	<s> f </s>	0
-1.4743828	o f </s>	0
-1.6101943	e f </s>	0
-1.3048664	u f </s>	0
-1.794414	a f </s>	0
-1.3310493	t f </s>	0
-1.0645039	f f </s>	0
-0.8441621	l f </s>	0
-0.9515648	o r </s>	0
-0.7667923	e r </s>	0
-0.8444022	u r </s>	0
-0.81744075	a r </s>	0
-1.0327866	i r </s>	0
-3.8798604	<s> k </s>	0
-1.3247966	n k </s>	0
-1.4780046	e k </s>	0
-0.8342177	s k </s>	0
-1.8806565	a k </s>	0
-1.754675	i k </s>	0
-0.5373468	r k </s>	0
-0.6226366	l k </s>	0
-0.4845189	c k </s>	0
-1.0709431	M k </s>	0
-0.43250203	n l </s>	0
-1.0536673	o l </s>	0
-1.0800138	e l </s>	0
-0.98241085	b l </s>	0
-1.5199023	h l </s>	0
-1.4791087	u l </s>	0
-0.8891018	s l </s>	0
-1.1358824	a l </s>	0
-1.1269667	i l </s>	0
-1.441916	m l </s>	0
-0.6208184	f l </s>	0
-1.2132721	k l </s>	0
-0.74345815	l l </s>	0
-1.2908525	d l </s>	0
-1.7230752	<s> d </s>	0
-1.1995617	n d </s>	0
-1.3710546	o d </s>	0
-1.0965469	e d </s>	0
-1.7120888	u d </s>	0
-1.4522281	a d </s>	0
-1.7277976	i d </s>	0
-0.5471228	r d </s>	0
-0.6075692	l d </s>	0
-2.0934763	u c </s>	0
-1.0979323	i c </s>	0
-1.2264194	o p </s>	0
-1.32475	e p </s>	0
-1.1817951	u p </s>	0
-1.4630944	a p </s>	0
-1.1904621	i p </s>	0
-1.6167336	m p </s>	0
-0.88530326	r p </s>	0
-0.4191767	L L </s>	0
-1.7896173	<s> B </s>	0
-0.36127317	N B </s>	0
-0.79754454	A B </s>	0
-0.36127317	L B </s>	0
-0.36127317	T B </s>	0
-1.8385546	<s> v </s>	0
-1.9671655	a v </s>	0
-1.7071276	d v </s>	0
-2.0339901	<s> U </s>	0
-0.3474167	B U </s>	0
-0.3474167	U U </s>	0
-0.69005394	C U </s>	0
-0.3474167	M U </s>	0
-0.3474167	T U </s>	0
-0.9284368	K U </s>	0
-1.3109825	<s> C </s>	0
-0.33462954	N C </s>	0
-0.5294772	A C </s>	0
-0.55458957	C C </s>	0
-0.33462954	D C </s>	0
-0.33462954	O C </s>	0
-0.33462954	E C </s>	0
-1.8609136	<s> M </s>	0
-0.41581514	G M </s>	0
-1.6861042	<s> P </s>	0
-0.3493912	C P </s>	0
-0.23313811	D P </s>	0
-0.3493912	H P </s>	0
-0.3493912	R P </s>	0
-1.4105071	<s> D </s>	0
-0.58241147	I D </s>	0
-0.5530115	A D </s>	0
-0.58241147	C D </s>	0
-0.77052206	E D </s>	0
-2.3218837	<s> W </s>	0
-0.37562674	P W </s>	0
-0.37562674	F W </s>	0
-0.41043836	O G </s>	0
-0.74943817	A T </s>	0
-0.36224484	L T </s>	0
-0.36224484	C T </s>	0
-0.60142595	S T </s>	0
-0.47204745	E T </s>	0
-0.36224484	R T </s>	0
-2.3629975	<s> S </s>	0
-0.9859181	I S </s>	0
-0.68890953	A S </s>	0
-0.3468964	B S </s>	0
-0.68890953	M S </s>	0
-0.5751394	P S </s>	0
-0.3468964	D S </s>	0
-0.5751394	T S </s>	0
-0.86458117	E S </s>	0
-0.3468964	R S </s>	0
-0.4112766	H H </s>	0
-1.0813683	<s> O </s>	0
-0.2693381	N O </s>	0
-0.78439516	L O </s>	0
-0.5816974	C O </s>	0
-0.45105702	M O </s>	0
-0.2693381	P O </s>	0
-0.5336503	T O </s>	0
-0.18531728	S O </s>	0
-0.12289429	K O </s>	0
-0.2693381	V O </s>	0
-1.941046	<s> Y </s>	0
-0.3666913	L Y </s>	0
-0.35840756	i E </s>	0
-0.5634079	N E </s>	0
-0.7740489	L E </s>	0
-0.5947915	D E </s>	0
-0.71462435	W E </s>	0
-0.82664055	S E </s>	0
-0.5947915	H E </s>	0
-0.35840756	O E </s>	0
-2.9542916	<s> K </s>	0
-0.92144525	<s> R </s>	0
-0.35559595	o R </s>	0
-0.35559595	O R </s>	0
-0.64492893	<s> x </s>	0
-0.7508959	e x </s>	0
-0.3263327	a x </s>	0
-0.3263327	B x </s>	0
-1.1997312	<s> V </s>	0
-0.4004515	I V </s>	0
-1.8676419	<s> F </s>	0
-0.9085266	A F </s>	0
-0.5501994	<s> q </s>	0
-0.68992066	a q </s>	0
-0.33197865	l q </s>	0
-0.38831633	E Z </s>	0
-0.17359833	<s> Â </s>	0
-1.9823706	<s> I I	-0.31608596
-0.87395465	I I I	-0.209075
-2.525315	s e I	-0.209075
-0.99332637	E N I	-0.209075
-2.371444	<s> A I	-0.35854468
-1.6926771	<s> d I	-0.33381885
-2.4787328	<s> L I	-0.2881393
-0.81402767	I L I	-0.209075
-0.60729784	A L I	-0.209075
-1.124741	E L I	-0.209075
-0.6931571	I B I	-0.209075
-0.9556762	A B I	-0.209075
-1.3414471	<s> C I	-0.6595747
-0.9963663	A C I	-0.209075
-0.69848806	G C I	-0.209075
-0.7228342	I M I	-0.209075
-0.96816957	A M I	-0.209075
-0.7258182	E M I	-0.209075
-0.9172337	A D I	-0.209075
-0.37626696	M D I	-0.209075
-0.37626696	O D I	-0.209075
-0.83977765	E D I	-0.209075
-0.97732043	L W I	-0.209075
-1.139804	N G I	-0.209075
-0.68007433	N T I	-0.209075
-0.43091714	A T I	-0.209075
-1.1394374	E T I	-0.209075
-2.3506355	<s> S I	-0.2881393
-0.85139465	A S I	-0.209075
-1.1079401	E S I	-0.209075
-1.4898285	<s> H I	-0.33381885
-0.65775776	e H I	-0.209075
-0.65775776	i H I	-0.209075
-1.5842538	<s> R I	-0.209075
-0.65420836	A R I	-0.209075
-1.56255	<s> J I	-0.33381885
-1.6642703	<s> F I	-0.33381885
-0.9355386	A F I	-0.209075
-0.36713386	A Z I	-0.209075
-0.6099414	D Z I	-0.209075
-0.4053463	<s> I n	-0.8707643
-2.3854058	o n n	-0.209075
-2.5163577	e n n	-0.209075
-0.98838794	h n n	-0.209075
-1.9016414	a n n	-0.209075
-2.1318204	<s> j n	-0.209075
-1.8534257	t j n	-0.209075
-0.59782803	<s> o n	-0.8944594
-0.8035797	n o n	-0.32671526
-1.1056085	j o n	-0.2881393
-1.0833858	g o n	-0.27955285
-0.9062185	y o n	-0.4250207
-0.68673444	w o n	-0.32495734
-0.94598216	b o n	-0.542379
-1.1258208	h o n	-0.3550056
-0.72903526	s o n	-0.45136768
-0.49594614	i o n	-0.36723846
-0.8622672	t o n	-0.26697195
-0.999704	N o n	-0.209075
-0.56769955	z o n	-0.2592928
-0.78445804	m o n	-0.36810797
-1.4223514	f o n	-0.209075
-0.99829155	r o n	-0.209075
-0.87921304	k o n	-0.34430078
-1.0497683	l o n	-0.5125794
-0.9873708	d o n	-0.209075
-0.74382925	c o n	-0.45880172
-0.94931203	p o n	-0.2881393
-1.0353862	L o n	-0.209075
-1.1420033	B o n	-0.209075
-0.9539271	v o n	-0.26698345
-1.0991796	C o n	-0.209075
-0.97926563	W o n	-0.209075
-0.91690844	T o n	-0.209075
-0.7786351	S o n	-0.209075
-0.635589	Y o n	-0.209075
-0.96327	K o n	-0.209075
-0.635589	x o n	-0.209075
-0.635589	q o n	-0.209075
-0.38161147	Z o n	-0.209075
-2.291587	a g n	-0.209075
-0.42737404	C y n	-0.209075
-1.2441118	<s> e n	-1.1340702
-1.0925312	n e n	-0.48155963
-0.92130816	j e n	-0.3103633
-1.0340837	g e n	-0.35168707
-0.9655848	y e n	-0.47953296
-0.91482705	w e n	-0.656791
-1.0616899	b e n	-0.5183297
-1.0947841	h e n	-0.3928373
-1.0990788	s e n	-0.5799927
-1.066395	i e n	-0.26698345
-1.0500542	t e n	-0.39235085
-1.1631507	N e n	-0.209075
-0.88641125	z e n	-0.27592435
-0.8010407	m e n	-0.5476687
-0.83472866	f e n	-0.55260473
-1.1494532	r e n	-0.34848478
-0.8927237	k e n	-0.33746362
-1.0840236	l e n	-0.49758446
-0.84363097	d e n	-0.27320987
-1.1816914	c e n	-0.26015443
-0.8521321	p e n	-0.29247028
-1.3460121	L e n	-0.209075
-1.2600261	B e n	-0.209075
-0.83283186	v e n	-0.3877511
-0.9633445	C e n	-0.209075
-0.64653575	M e n	-0.35854468
-1.246093	W e n	-0.209075
-1.141331	G e n	-0.209075
-1.2846748	T e n	-0.209075
-1.2157757	S e n	-0.209075
-1.1631507	Y e n	-0.209075
-0.65926504	K e n	-0.209075
-0.91073495	V e n	-0.209075
-0.39464456	J e n	-0.209075
-1.6756934	o h n	-0.209075
-2.1483939	a h n	-0.209075
-1.979075	c h n	-0.209075
-1.0415473	<s> u n	-1.1796379
-1.458905	j u n	-0.209075
-0.6575247	o u n	-0.26698345
-1.0947864	g u n	-0.32990095
-0.7106126	y u n	-0.35854468
-1.2355088	w u n	-0.30106694
-1.1959747	b u n	-0.4530422
-0.9350532	h u n	-0.42306757
-0.9873862	s u n	-0.58039343
-0.8952995	t u n	-0.2468104
-1.388467	z u n	-0.209075
-0.89518553	m u n	-0.5229192
-0.6961086	f u n	-0.57351226
-1.0364391	r u n	-0.209075
-1.1905257	k u n	-0.49773473
-1.1141528	l u n	-0.4437687
-1.3391712	d u n	-0.209075
-0.91777354	c u n	-0.36187994
-0.93498594	p u n	-0.209075
-1.2805636	L u n	-0.209075
-1.2776406	B u n	-0.209075
-0.8645848	v u n	-0.4227332
-0.7889279	M u n	-0.209075
-0.649981	T u n	-0.209075
-1.1786823	K u n	-0.23386419
-0.649981	J u n	-0.209075
-0.22888668	F u n	-0.49217722
-2.3423758	e s n	-0.209075
-2.3778057	a s n	-0.209075
-1.2256494	k s n	-0.209075
-0.7387274	<s> a n	-1.43795
-1.1286178	n a n	-0.46567795
-0.84249467	j a n	-0.43166175
-1.0376139	g a n	-0.38850445
-1.136395	y a n	-0.5126581
-0.99073553	w a n	-0.71399087
-1.1754079	b a n	-0.57389957
-0.9359903	h a n	-0.49935228
-1.0589862	s a n	-0.503157
-1.1277744	a a n	-0.209075
-0.8621655	i a n	-0.31608596
-1.0338193	t a n	-0.4429213
-1.2240567	N a n	-0.209075
-0.7466016	z a n	-0.3833571
-1.0512499	m a n	-0.5687908
-0.8443544	f a n	-0.5793274
-1.0853872	r a n	-0.2881393
-1.1651043	k a n	-0.50986
-1.0244472	l a n	-0.56485087
-1.1188451	d a n	-0.209075
-0.9950107	c a n	-0.3697144
-0.914386	p a n	-0.2468104
-1.3097975	L a n	-0.209075
-0.79491687	B a n	-0.30476052
-0.78707707	v a n	-0.4429213
-0.9011197	M a n	-0.31304693
-1.0912008	P a n	-0.209075
-0.9548074	D a n	-0.209075
-1.2459227	W a n	-0.209075
-1.2705418	T a n	-0.209075
-1.1778941	S a n	-0.2881393
-1.1497029	Y a n	-0.209075
-1.1063862	K a n	-0.209075
-0.96960354	x a n	-0.209075
-0.91015947	J a n	-0.209075
-0.96960354	F a n	-0.209075
-0.6978235	q a n	-0.209075
-0.39232332	Z a n	-0.209075
-0.5442283	<s> i n	-1.5468385
-0.9741953	n i n	-0.49598747
-0.8152892	j i n	-0.49800813
-0.8996287	o i n	-0.209075
-1.176272	g i n	-0.3046998
-1.145347	y i n	-0.5039669
-1.1101402	e i n	-0.209075
-0.38257998	w i n	-0.47732985
-0.9136038	b i n	-0.4410247
-0.9254856	h i n	-0.42093632
-1.250903	s i n	-0.52834666
-0.58616424	a i n	-0.2881393
-1.0122578	i i n	-0.209075
-1.0748378	t i n	-0.57872564
-0.40953985	N i n	-0.4385983
-0.96109045	z i n	-0.38031062
-0.99936074	m i n	-0.4553465
-0.940133	f i n	-0.32671526
-0.86148	r i n	-0.37165153
-0.8444304	k i n	-0.32198
-1.0982744	l i n	-0.55378634
-0.9358186	d i n	-0.2881393
-0.7349551	c i n	-0.49375975
-1.0623223	p i n	-0.209075
-0.91497767	L i n	-0.32495734
-0.9901895	v i n	-0.2908411
-0.6109153	C i n	-0.2881393
-0.9211275	M i n	-0.2881393
-0.73031074	D i n	-0.209075
-0.99922234	G i n	-0.209075
-0.97619	T i n	-0.25822285
-1.310391	S i n	-0.23706476
-0.65212524	Y i n	-0.209075
-2.4396136	e t n	-0.209075
-1.3964987	t t n	-0.209075
-1.4932957	r t n	-0.209075
-1.1864417	<s> m n	-0.5446355
-1.5458859	o m n	-0.2881393
-1.3501751	e m n	-0.6347909
-1.4890997	u m n	-0.40986115
-1.3101456	a m n	-0.45188138
-1.3353403	i m n	-0.31957507
-0.92780703	A m n	-0.209075
-1.3319141	U m n	-0.20907496
-1.2249662	E m n	-0.209075
-1.1797496	<s> A n	-0.82319385
-1.2401116	<s> r n	-0.209075
-1.6058109	o r n	-0.209075
-1.2442385	e r n	-0.30583885
-1.2221147	u r n	-0.209075
-1.6440495	a r n	-0.209075
-1.340949	i r n	-0.209075
-2.3722086	e k n	-0.209075
-1.2313973	c k n	-0.209075
-3.948216	<s> l n	-0.33381885
-1.5181437	l l n	-0.209075
-0.2752302	g d n	-0.2881393
-2.0894125	i d n	-0.209075
-1.0569714	<s> U n	-0.6740994
-1.5843427	<s> M n	-0.41299596
-1.3334956	e M n	-0.31608596
-1.4573385	u M n	-0.209075
-1.6677217	a M n	-0.209075
-0.63061094	<s> O n	-0.45350227
-1.0640178	<s> E n	-0.41293582
-1.4078691	<s> n j	-1.8778542
-1.3109127	I n j	-0.209075
-1.382899	o n j	-0.29910314
-1.3303412	e n j	-0.4306921
-1.231704	u n j	-0.4911124
-1.3904637	a n j	-0.6113008
-1.2706808	i n j	-0.51487
-1.8217926	m n j	-0.209075
-1.0595454	U n j	-0.209075
-1.4592875	j o j	-0.33381885
-1.4988221	o o j	-0.209075
-2.0875778	b o j	-0.209075
-1.8445174	h o j	-0.33381885
-1.6226093	z o j	-0.209075
-1.1947969	f o j	-0.26698345
-1.4724007	l o j	-0.2547675
-1.6702211	d o j	-0.209075
-1.1333942	G o j	-0.209075
-2.4731724	<s> e j	-0.6909075
-1.9672828	n e j	-0.209075
-1.1605257	j e j	-0.31608596
-1.7490159	g e j	-0.209075
-1.9975549	y e j	-0.209075
-2.2767076	w e j	-0.209075
-1.4098513	h e j	-0.30583885
-1.9175158	s e j	-0.209075
-1.653534	m e j	-0.209075
-1.4590998	r e j	-0.33381885
-1.6368308	k e j	-0.209075
-1.912242	l e j	-0.26698345
-1.7219282	c e j	-0.33381885
-1.8618634	v e j	-0.209075
-2.0370443	m b j	-0.209075
-1.1127621	n h j	-0.33381885
-1.4127476	e h j	-0.209075
-1.7340127	a h j	-0.209075
-1.5598916	m h j	-0.209075
-2.0244257	p h j	-0.209075
-2.7919903	<s> u j	-0.33381885
-1.7176026	j u j	-0.209075
-1.5374964	g u j	-0.2881393
-1.6955991	b u j	-0.2881393
-1.6508331	k u j	-0.39041063
-1.564307	l u j	-0.29247028
-1.7044997	K u j	-0.209075
-1.9139682	n s j	-0.209075
-2.0190544	t s j	-0.209075
-2.664656	<s> a j	-0.30583885
-1.9670287	n a j	-0.209075
-1.0002371	j a j	-0.37165153
-1.9591272	g a j	-0.209075
-1.5440756	y a j	-0.41299596
-1.8034425	w a j	-0.31608596
-1.8622819	b a j	-0.2881393
-1.8945029	s a j	-0.33381885
-1.770081	t a j	-0.209075
-1.7067902	m a j	-0.3103633
-1.8291897	k a j	-0.2881393
-1.7513541	l a j	-0.2468104
-1.9833505	c a j	-0.209075
-1.496751	L a j	-0.209075
-1.5096626	B a j	-0.209075
-1.1359273	M a j	-0.33377683
-1.4233699	W a j	-0.209075
-1.4198	T a j	-0.209075
-1.3282127	J a j	-0.209075
-2.5061336	<s> i j	-0.4468556
-1.9594334	n i j	-0.209075
-1.2089965	j i j	-0.35854468
-1.2392329	g i j	-0.49217722
-2.0315714	y i j	-0.209075
-1.2430153	e i j	-0.209075
-1.8778731	b i j	-0.209075
-1.795811	s i j	-0.29247028
-1.4276516	i i j	-0.209075
-1.6062407	t i j	-0.2547675
-1.5230892	k i j	-0.33381885
-1.5247806	l i j	-0.3604474
-1.725347	d i j	-0.209075
-1.6374923	L i j	-0.209075
-1.1049625	G i j	-0.209075
-2.8289454	<s> t j	-0.34848478
-1.0850811	n t j	-0.39041063
-1.0686167	o t j	-0.43675476
-1.2058779	e t j	-0.42329964
-1.1410034	u t j	-0.427666
-1.4957664	s t j	-0.209075
-1.0840706	a t j	-0.65004677
-1.1546273	i t j	-0.604918
-1.037917	m t j	-0.4834834
-1.223042	<s> N j	-1.3050905
-2.7533505	<s> m j	-0.209075
-1.8620573	e m j	-0.29247028
-2.027891	u m j	-0.26698345
-2.1590106	a m j	-0.33381885
-1.2401443	b l j	-0.209075
-2.3681118	i l j	-0.209075
-1.720033	n d j	-0.2881393
-2.069538	u d j	-0.209075
-2.663687	<s> U j	-0.209075
-2.1554923	<s> M j	-0.209075
-1.2720643	o M j	-0.209075
-1.4917926	e M j	-0.33381885
-1.4086694	u M j	-0.209075
-0.95448494	a M j	-0.4834834
-2.6781242	<s> T j	-0.209075
-1.1750834	<s> n o	-1.8982118
-1.2655085	I n o	-0.209075
-1.3141962	o n o	-0.50169444
-1.7654521	e n o	-0.41299596
-0.9093048	h n o	-0.209075
-1.3346115	u n o	-0.35667896
-1.3835388	a n o	-0.606737
-1.3439785	i n o	-0.33379623
-1.1962548	m n o	-0.41299596
-0.2609419	k n o	-0.209075
-0.8624601	<s> j o	-0.28095776
-0.9907765	n j o	-0.29247028
-0.8959798	o j o	-0.209075
-1.1499704	e j o	-0.209075
-0.44956866	h j o	-0.209075
-0.95899963	u j o	-0.209075
-0.92857105	a j o	-0.24121471
-0.9129239	i j o	-0.2468104
-1.2277181	t j o	-0.209075
-0.5642191	N j o	-0.209075
-0.67477155	d j o	-0.209075
-2.316227	<s> o o	-0.209075
-1.4658661	o o o	-0.209075
-2.060263	h o o	-0.209075
-0.69806933	a o o	-0.209075
-1.606634	t o o	-0.209075
-1.7432566	m o o	-0.209075
-1.7042853	l o o	-0.209075
-1.6156155	d o o	-0.209075
-1.2800506	M o o	-0.209075
-1.4400451	S o o	-0.209075
-0.96470976	F o o	-0.209075
-1.0938077	<s> g o	-0.24121471
-0.9150734	n g o	-0.5157934
-0.59043056	o g o	-0.28274202
-0.35424602	w g o	-0.209075
-0.9468875	u g o	-0.28274202
-0.38500744	s g o	-0.33381885
-1.0318313	a g o	-0.32789117
-0.93015146	i g o	-0.38820887
-0.9374331	N g o	-0.209075
-0.6562652	m g o	-0.37610987
-0.35424602	k g o	-0.209075
-0.35424602	l g o	-0.209075
-0.15329038	M g o	-0.2881393
-1.5563235	<s> y o	-1.0975673
-0.7934099	n y o	-0.3833571
-0.9047408	o y o	-0.31608596
-1.0660876	e y o	-0.2592928
-0.9112995	u y o	-0.31363085
-0.7191866	a y o	-0.474353
-0.7841833	i y o	-0.3587131
-0.62967914	N y o	-0.35854468
-0.35998088	K y o	-0.209075
-2.1970205	n e o	-0.209075
-1.8611069	g e o	-0.33381885
-1.2923951	P e o	-0.209075
-1.3435135	G e o	-0.209075
-1.3858005	<s> w o	-1.214259
-0.80015147	o w o	-0.37165153
-1.4481047	e w o	-0.209075
-0.9259647	u w o	-0.31608596
-1.5446281	s w o	-0.209075
-0.71338487	a w o	-0.62060505
-0.9456054	i w o	-0.4385983
-0.38632694	T w o	-0.209075
-1.1941345	<s> b o	-0.89938265
-0.55976284	I b o	-0.209075
-0.55976284	n b o	-0.209075
-0.9282287	o b o	-0.36547473
-0.4650738	g b o	-0.209075
-0.86107475	e b o	-0.37165153
-0.9416252	u b o	-0.3918301
-0.83832455	a b o	-0.60272413
-0.7830801	i b o	-0.56462103
-0.88086617	m b o	-0.4416665
-0.78190255	A b o	-0.209075
-0.76387364	l b o	-0.209075
-0.7360723	U b o	-0.209075
-0.8374882	M b o	-0.209075
-1.9606643	<s> h o	-0.209075
-1.0862762	o h o	-0.209075
-1.0450574	e h o	-0.35854468
-0.86655056	b h o	-0.42447624
-0.45521626	h h o	-0.36930558
-0.8864999	u h o	-0.49217722
-0.77527755	s h o	-0.48266047
-0.83886015	a h o	-0.578441
-0.76367813	i h o	-0.50169444
-0.9470223	t h o	-0.27955285
-0.84215534	m h o	-0.31608596
-0.74535936	k h o	-0.63109463
-0.35651657	d h o	-0.209075
-0.95983076	c h o	-0.2669654
-0.8267192	p h o	-0.439843
-0.97985065	B h o	-0.209075
-0.9953398	C h o	-0.209075
-1.2275288	P h o	-0.209075
-0.3470618	H h o	-0.2547675
-0.714432	K h o	-0.2991167
-1.5354685	<s> s o	-1.0007786
-0.9857558	n s o	-0.31365088
-1.4562601	o s o	-0.2468104
-1.0360276	e s o	-0.44930112
-0.99593496	u s o	-0.37791374
-0.66852266	s s o	-0.2881393
-0.9367038	a s o	-0.6304799
-0.97579795	i s o	-0.65004677
-1.2289832	t s o	-0.209075
-0.75916624	N s o	-0.209075
-1.1453025	m s o	-0.2881393
-0.76247734	l s o	-0.33381885
-0.9209804	M s o	-0.209075
-1.0764991	T s o	-0.209075
-2.3010018	g a o	-0.209075
-2.9750638	<s> i o	-0.209075
-1.760288	n i o	-0.33381885
-1.9837896	g i o	-0.209075
-2.0690806	h i o	-0.209075
-2.0128376	s i o	-0.209075
-1.5162877	t i o	-0.58039343
-1.8119582	r i o	-0.209075
-2.19657	l i o	-0.209075
-2.0086744	c i o	-0.209075
-1.516131	p i o	-0.209075
-0.8652473	V i o	-0.209075
-1.5163904	<s> t o	-1.0850939
-1.1337141	n t o	-0.34049582
-0.9965602	o t o	-0.35620284
-1.2793108	e t o	-0.3782844
-1.1797771	u t o	-0.35620284
-1.1352555	s t o	-0.209075
-1.1380198	a t o	-0.4812793
-1.0225161	i t o	-0.46458432
-0.86591417	t t o	-0.209075
-0.8317917	N t o	-0.33381885
-1.5501493	m t o	-0.209075
-1.2088392	r t o	-0.209075
-0.93939227	c t o	-0.33381885
-0.9728186	S t o	-0.209075
-1.3232296	<s> N o	-0.66380894
-0.863723	<s> z o	-0.26698345
-0.579574	n z o	-0.31608596
-1.228082	o z o	-0.209075
-1.1997255	e z o	-0.209075
-1.2578332	u z o	-0.209075
-0.8795954	a z o	-0.39176878
-1.0004379	i z o	-0.209075
-0.33413583	N z o	-0.209075
-1.4633042	d z o	-0.209075
-1.8352493	<s> m o	-0.2468104
-1.182289	I m o	-0.209075
-1.2399787	o m o	-0.41304648
-1.2794982	e m o	-0.55382997
-1.4139701	u m o	-0.37601444
-1.4699091	a m o	-0.32495734
-1.155561	i m o	-0.43199548
-1.3440104	U m o	-0.209075
-1.3272012	<s> f o	-0.6726815
-0.38184932	n f o	-0.209075
-0.7492864	o f o	-0.29247028
-1.1305588	e f o	-0.35854468
-0.69736135	h f o	-0.209075
-1.0550228	u f o	-0.2881393
-1.3088769	a f o	-0.209075
-0.8086034	i f o	-0.30828404
-0.5584827	t f o	-0.6080518
-1.0299113	m f o	-0.31608596
-0.76931566	l f o	-0.209075
-0.88665676	T f o	-0.209075
-1.075343	<s> r o	-0.209075
-1.3012247	o r o	-0.209075
-0.98646563	g r o	-0.209075
-0.59629554	b r o	-0.209075
-0.8661403	h r o	-0.209075
-1.2746167	u r o	-0.209075
-0.9026703	i r o	-0.209075
-0.79501456	t r o	-0.209075
-0.8661403	r r o	-0.209075
-0.38951302	c r o	-0.209075
-0.57580686	p r o	-0.209075
-0.79212236	P r o	-0.209075
-0.59629554	G r o	-0.209075
-0.79212236	F r o	-0.209075
-2.0247228	<s> k o	-1.0362452
-0.9119071	n k o	-0.3337921
-0.6667568	o k o	-0.4766823
-0.9036172	e k o	-0.60383797
-1.0162861	u k o	-0.578441
-0.83584374	s k o	-0.209075
-0.869767	a k o	-0.7172312
-0.9111607	i k o	-0.53793466
-1.2033962	N k o	-0.209075
-0.6236349	l k o	-0.209075
-0.6782226	<s> l o	-1.8761007
-0.6054836	o l o	-0.4861999
-0.3697076	g l o	-0.209075
-0.92612857	e l o	-0.52932507
-0.7689506	h l o	-0.5814167
-0.91326517	u l o	-0.45975995
-0.877369	s l o	-0.209075
-0.8767478	a l o	-0.70538265
-0.8784118	i l o	-0.40410364
-0.7250612	m l o	-0.39176878
-0.820975	r l o	-0.209075
-0.57693785	k l o	-0.31608596
-0.88474506	d l o	-0.33385617
-0.69758683	p l o	-0.209075
-0.59782374	H l o	-0.2547675
-1.1133631	n d o	-0.26697195
-0.9574791	o d o	-0.2547675
-1.5323733	e d o	-0.209075
-1.5237023	u d o	-0.209075
-0.3893547	s d o	-0.209075
-1.1489567	a d o	-0.24121471
-1.221417	i d o	-0.209075
-0.78838307	M d o	-0.209075
-0.6082377	<s> c o	-0.42862168
-0.8966361	n c o	-0.439057
-0.7801214	o c o	-0.36187994
-0.7787865	g c o	-0.36187991
-1.311395	e c o	-0.209075
-0.8906591	u c o	-0.38495597
-0.8158897	s c o	-0.209075
-0.8539817	a c o	-0.5065143
-0.9355121	i c o	-0.49138996
-0.71653026	N c o	-0.209075
-0.6752101	m c o	-0.43199548
-0.84455925	U c o	-0.209075
-0.15496261	M c o	-0.35854468
-0.7920306	E c o	-0.209075
-1.3844225	<s> p o	-0.26698345
-0.9953547	o p o	-0.26698345
-0.96171254	e p o	-0.26698345
-1.3965788	u p o	-0.209075
-1.1010538	a p o	-0.26698345
-1.1598579	i p o	-0.30583885
-0.9075656	m p o	-0.27592435
-0.505892	r p o	-0.209075
-0.75853384	M p o	-0.33381885
-0.62705225	<s> L o	-1.0692576
-0.6405869	o L o	-0.209075
-1.4600663	e L o	-0.209075
-1.0809317	u L o	-0.209075
-0.6445897	a L o	-0.2881393
-0.959878	<s> B o	-0.53547287
-1.1899	e B o	-0.209075
-0.8201885	a B o	-0.33381885
-1.1187637	i B o	-0.209075
-1.3397999	<s> v o	-0.209075
-0.34164667	I v o	-0.209075
-0.67745346	n v o	-0.209075
-1.258357	o v o	-0.209075
-1.2905213	u v o	-0.209075
-1.2888917	a v o	-0.209075
-1.0665634	i v o	-0.209075
-1.3154584	m v o	-0.209075
-0.49767804	d v o	-0.5056899
-0.493813	<s> C o	-0.7317221
-0.4551179	e C o	-0.2881393
-0.6576558	a C o	-0.209075
-1.4364488	<s> M o	-0.20907496
-1.5479841	e M o	-0.209075
-1.6909134	a M o	-0.209075
-1.2715383	<s> P o	-0.41299596
-0.95098126	<s> D o	-0.31365088
-1.3359358	<s> W o	-0.42914382
-0.6638068	e W o	-0.209075
-0.91883355	<s> G o	-0.2908411
-0.40153515	o G o	-0.209075
-1.1175154	<s> T o	-0.6146187
-1.2459401	<s> S o	-0.62557214
-0.9267271	e S o	-0.2881393
-1.3513545	a S o	-0.209075
-1.1321245	i S o	-0.209075
-0.39065713	m S o	-0.209075
-1.3232377	<s> H o	-0.35854468
-1.0272288	<s> Y o	-0.60375726
-1.1187799	<s> K o	-1.0942372
-1.3461947	e K o	-0.209075
-0.6308808	i K o	-0.33381885
-1.12189	<s> R o	-0.29247028
-0.78261364	<s> x o	-0.209075
-0.3870435	N x o	-0.209075
-0.455986	<s> J o	-0.4240328
-0.32982224	e J o	-0.35854468
-0.31790987	i J o	-0.209075
-0.31790987	E J o	-0.209075
-0.69270027	<s> F o	-0.7956428
-0.6385311	o F o	-0.209075
-0.86039513	A F o	-0.209075
-0.97834027	n q o	-0.209075
-0.76882225	g q o	-0.209075
-0.9918561	<s> Z o	-0.209075
-0.39034876	<s> n g	-2.5516694
-1.2106488	I n g	-0.209075
-0.9527669	o n g	-0.7017536
-1.0174122	e n g	-0.8665099
-0.88428974	h n g	-0.209075
-0.9661568	u n g	-0.67780197
-1.006005	a n g	-0.96773785
-0.99622285	i n g	-0.8054233
-0.9222179	m n g	-0.37158066
-1.0005217	A n g	-0.209075
-0.25661454	l n g	-0.2881393
-1.0005217	U n g	-0.209075
-1.0292308	M n g	-0.209075
-0.98210156	g o g	-0.7265215
-1.6452259	y o g	-0.209075
-1.1155301	e o g	-0.209075
-1.7858653	b o g	-0.33381885
-1.8707472	t o g	-0.209075
-1.6963888	f o g	-0.209075
-1.6218985	r o g	-0.209075
-1.5623629	l o g	-0.2965483
-2.000503	c o g	-0.209075
-1.3725784	B o g	-0.209075
-1.2783825	M o g	-0.209075
-1.1077515	G o g	-0.209075
-2.4729655	<s> e g	-0.45438865
-1.7427061	n e g	-0.209075
-1.873652	j e g	-0.209075
-1.4070163	g e g	-0.42549148
-1.9958516	y e g	-0.209075
-2.2748423	w e g	-0.209075
-2.0490203	b e g	-0.209075
-1.9162674	s e g	-0.2881393
-1.816219	t e g	-0.209075
-1.3215575	N e g	-0.209075
-1.7506298	r e g	-0.209075
-1.5862519	l e g	-0.2908411
-0.8883555	G e g	-0.33381885
-1.2201849	R e g	-0.209075
-1.186997	w w g	-0.209075
-1.9061389	<s> u g	-0.5678815
-1.1592212	g u g	-0.34199363
-1.3094076	w u g	-0.34042382
-1.6521963	b u g	-0.3103633
-1.6336702	m u g	-0.33381885
-1.127391	r u g	-0.209075
-1.3561828	k u g	-0.45869988
-1.5311038	l u g	-0.31608596
-1.5346736	c u g	-0.209075
-1.4843279	B u g	-0.209075
-0.96150225	G u g	-0.209075
-1.319666	K u g	-0.209075
-2.3479502	e s g	-0.209075
-2.425105	i s g	-0.209075
-1.26517	A s g	-0.209075
-1.6735153	<s> a g	-0.75347435
-1.5442266	n a g	-0.29247028
-1.2778944	g a g	-0.41301942
-1.4255903	y a g	-0.41882685
-1.5390545	w a g	-0.368942
-1.333331	b a g	-0.40818068
-1.6265006	h a g	-0.209075
-0.8386056	u a g	-0.209075
-1.5391327	s a g	-0.33897877
-1.5954912	i a g	-0.209075
-1.734509	t a g	-0.27592435
-1.5069199	z a g	-0.209075
-1.553988	m a g	-0.3103509
-1.763909	f a g	-0.209075
-1.6021677	r a g	-0.209075
-1.6261065	k a g	-0.26698345
-1.5968062	l a g	-0.2908411
-1.6907566	c a g	-0.209075
-1.4658027	B a g	-0.209075
-1.1236359	M a g	-0.33378616
-1.3791701	W a g	-0.209075
-1.1345336	G a g	-0.209075
-1.2530146	Y a g	-0.209075
-1.9398164	<s> i g	-0.56567013
-1.7266016	n i g	-0.209075
-1.6885371	g i g	-0.209075
-1.3484375	y i g	-0.36604086
-1.4792255	s i g	-0.4402415
-1.4188268	t i g	-0.4964958
-1.4189088	z i g	-0.26698345
-1.3072505	m i g	-0.3877511
-1.8524437	f i g	-0.209075
-1.6254866	l i g	-0.39697072
-1.4591863	d i g	-0.209075
-1.1226956	L i g	-0.29247028
-1.5547185	T i g	-0.209075
-1.2427859	S i g	-0.2881393
-1.112411	R i g	-0.209075
-0.30531704	<s> N g	-1.6072844
-0.935133	e N g	-0.3248619
-0.98597723	u N g	-0.209075
-0.88582253	a N g	-0.209075
-1.0732629	i N g	-0.209075
-2.370661	<s> m g	-0.209075
-1.3107554	o m g	-0.2669654
-1.5621847	e m g	-0.38083473
-1.614346	u m g	-0.29909405
-1.8796592	a m g	-0.209075
-2.1155639	i m g	-0.209075
-1.397516	U m g	-0.209075
-1.6046581	<s> A g	-0.43852746
-2.7705219	<s> f g	-0.209075
-1.2141782	o r g	-0.209075
-1.6278304	e r g	-0.209075
-1.5626429	u r g	-0.209075
-1.4479325	a r g	-0.33381885
-0.43456024	O r g	-0.33381885
-1.9554706	n k g	-0.209075
-1.113395	s l g	-0.209075
-2.1266448	e d g	-0.209075
-2.298403	i c g	-0.209075
-2.6548307	<s> U g	-0.209075
-2.3234713	<s> M g	-0.209075
-1.3526299	o M g	-0.209075
-1.855337	e M g	-0.209075
-2.1496978	<s> I y	-0.35854468
-2.3916276	<s> n y	-1.0071927
-1.3040264	I n y	-0.209075
-0.76235855	n n y	-0.33381885
-1.2684971	o n y	-0.37154958
-1.1377714	e n y	-0.76603
-1.004039	u n y	-0.68594354
-1.105776	a n y	-0.7383255
-1.1165822	i n y	-0.6997171
-0.87433106	m n y	-0.49734032
-1.8337038	<s> o y	-0.209075
-1.2139328	j o y	-0.35854468
-1.6661035	y o y	-0.33381885
-1.4702303	b o y	-0.34848478
-1.8272265	h o y	-0.2881393
-1.9084088	t o y	-0.209075
-0.7505939	m o y	-0.49659026
-1.855924	k o y	-0.209075
-1.4654154	l o y	-0.42024124
-1.5195618	L o y	-0.209075
-2.139648	<s> g y	-0.209075
-1.580667	o g y	-0.209075
-1.7291622	e g y	-0.209075
-1.2260373	r g y	-0.209075
-3.0553977	<s> e y	-0.209075
-1.5414786	n e y	-0.209075
-1.315165	j e y	-0.209075
-1.9591277	g e y	-0.209075
-1.5269103	y e y	-0.26698345
-1.7033558	w e y	-0.26698345
-1.4282967	b e y	-0.35223
-1.5517249	h e y	-0.26698345
-1.7230784	s e y	-0.303888
-1.801926	t e y	-0.209075
-1.323064	l e y	-0.3829704
-1.9890461	c e y	-0.209075
-1.5331198	L e y	-0.209075
-1.098074	B e y	-0.209075
-1.2980552	v e y	-0.35854468
-1.0142615	g b y	-0.209075
-2.4817903	<s> h y	-0.209075
-1.0575477	<s> u y	-1.537042
-1.6679379	g u y	-0.30583885
-1.6593907	w u y	-0.33381885
-1.0767715	b u y	-0.6834827
-2.0580542	h u y	-0.209075
-1.527547	s u y	-0.2881393
-1.1640831	f u y	-0.31957507
-1.4223595	k u y	-0.46153846
-1.5293088	l u y	-0.38886365
-1.4750654	L u y	-0.209075
-1.4793646	B u y	-0.209075
-1.5808737	K u y	-0.209075
-3.8451862	<s> s y	-0.209075
-2.4253309	a s y	-0.209075
-1.2277339	<s> a y	-1.3865734
-1.2258607	n a y	-0.44914004
-1.5034219	g a y	-0.27592435
-1.3372715	y a y	-0.51715124
-1.2338588	w a y	-0.66245335
-1.3271478	b a y	-0.48636207
-1.0892321	h a y	-0.617116
-1.1641314	s a y	-0.6135804
-1.3156209	t a y	-0.39176878
-1.3156718	N a y	-0.209075
-1.1445794	z a y	-0.26698345
-1.447671	m a y	-0.40234977
-1.1310965	f a y	-0.31608596
-1.5776784	r a y	-0.209075
-1.4901909	k a y	-0.3337921
-1.2836769	l a y	-0.52567166
-1.3695884	d a y	-0.33381885
-1.9084091	c a y	-0.209075
-1.4252514	L a y	-0.209075
-1.4427677	B a y	-0.209075
-1.6849757	M a y	-0.209075
-1.0076203	D a y	-0.209075
-1.35597	W a y	-0.209075
-0.8675607	S a y	-0.31608596
-1.2355474	Y a y	-0.209075
-1.468679	<s> i y	-1.1118723
-1.2514592	n i y	-0.31957507
-1.3864304	j i y	-0.209075
-1.0600309	g i y	-0.4657031
-1.7151793	y i y	-0.33381882
-1.7670177	b i y	-0.209075
-1.2544107	h i y	-0.4290555
-1.3815826	s i y	-0.53463596
-1.410117	a i y	-0.209075
-1.333287	i i y	-0.209075
-1.4657627	t i y	-0.3604474
-1.2822771	N i y	-0.209075
-1.1345239	z i y	-0.34848478
-1.6837391	m i y	-0.33381885
-1.7485118	f i y	-0.209075
-1.6890812	k i y	-0.209075
-1.344575	l i y	-0.42024124
-1.3914621	d i y	-0.33381885
-1.3955643	p i y	-0.209075
-1.0532165	G i y	-0.209075
-1.4440302	T i y	-0.209075
-1.5902547	S i y	-0.209075
-0.67557865	J i y	-0.209075
-3.3557515	<s> t y	-0.209075
-0.41642934	g t y	-0.209075
-2.037255	e t y	-0.33381885
-1.6168909	i t y	-0.31608596
-1.0645398	r t y	-0.33381885
-2.0965605	<s> N y	-0.58039343
-0.9368898	o N y	-0.209075
-1.1174798	e N y	-0.26698345
-0.60583335	u N y	-0.33381885
-0.63664556	a N y	-0.31608596
-1.2956811	i N y	-0.209075
-1.9219134	o m y	-0.209075
-1.6390206	e m y	-0.42549148
-1.6257179	u m y	-0.33377683
-2.323257	a m y	-0.209075
-1.9021094	i m y	-0.209075
-1.4249643	U m y	-0.209075
-2.2057977	<s> A y	-0.31608596
-1.9157184	t f y	-0.209075
-1.6577117	o r y	-0.209075
-1.6946622	a r y	-0.209075
-1.3747367	i r y	-0.209075
-1.4630519	t r y	-0.209075
-1.0295562	r r y	-0.209075
-1.2473665	c k y	-0.209075
-2.3875039	e l y	-0.209075
-0.97745085	r l y	-0.209075
-1.074427	l l y	-0.33381885
-0.70491844	O l y	-0.209075
-2.0028808	n c y	-0.209075
-2.2377675	i c y	-0.209075
-3.1551156	<s> L y	-0.209075
-1.2915262	<s> U y	-0.91814595
-2.2797315	<s> C y	-0.209075
-2.12624	<s> P y	-0.209075
-2.3963537	<s> S y	-0.35854468
-3.0127916	<s> K y	-0.209075
-0.557348	<s> n e	-1.8267769
-1.0317333	n n e	-0.209075
-1.2411231	o n e	-0.38953212
-0.3820606	g n e	-0.209075
-1.1472386	e n e	-0.6155053
-1.1580548	u n e	-0.49975997
-1.0355418	a n e	-0.78285754
-1.0315626	i n e	-0.67260617
-0.77032816	t n e	-0.209075
-1.6567614	m n e	-0.209075
-0.96498644	A n e	-0.209075
-0.4871633	r n e	-0.26698345
-0.77032816	d n e	-0.209075
-0.85684127	O n e	-0.209075
-1.0015709	E n e	-0.209075
-0.76736593	<s> j e	-0.30828404
-0.7349502	n j e	-0.49734032
-0.55937666	o j e	-0.2547675
-0.4177812	e j e	-0.44914004
-0.86125916	h j e	-0.209075
-0.9230296	u j e	-0.209075
-0.83467853	a j e	-0.27592435
-0.89522207	i j e	-0.27592435
-0.6296133	t j e	-0.41736177
-0.5371945	N j e	-0.209075
-0.7156635	m j e	-0.33381885
-0.64021724	d j e	-0.209075
-0.08000839	M j e	-0.41299596
-2.4826548	<s> o e	-0.209075
-1.2294064	N o e	-0.209075
-1.3709583	C o e	-0.209075
-1.3736299	J o e	-0.209075
-0.49343488	<s> g e	-0.66707087
-0.82677996	n g e	-0.5014234
-1.0838461	o g e	-0.209075
-0.6525911	e g e	-0.26015443
-0.80483913	u g e	-0.3103788
-0.71457475	a g e	-0.50994146
-0.8769639	i g e	-0.33385122
-0.95219815	N g e	-0.22608495
-0.842201	m g e	-0.31608596
-0.84670424	A g e	-0.209075
-0.7461685	r g e	-0.209075
-0.5974466	d g e	-0.209075
-0.18275502	<s> y e	-1.7099127
-0.84897184	n y e	-0.4921398
-1.077146	o y e	-0.209075
-0.5528968	e y e	-0.39522982
-0.6832389	u y e	-0.40539995
-0.603748	a y e	-0.71550834
-0.6873443	i y e	-0.5149401
-0.9396255	t y e	-0.209075
-1.0900835	N y e	-0.209075
-0.43244135	m y e	-0.49217722
-0.56951094	U y e	-0.209075
-1.9046603	n e e	-0.209075
-1.8332496	j e e	-0.209075
-1.9258903	g e e	-0.209075
-1.9853408	h e e	-0.209075
-1.1845777	a e e	-0.209075
-1.7823508	t e e	-0.33381885
-1.7042849	z e e	-0.209075
-1.4339658	r e e	-0.209075
-1.7168041	d e e	-0.209075
-1.6960449	c e e	-0.209075
-1.4094709	B e e	-0.209075
-1.1966838	P e e	-0.209075
-1.2042167	D e e	-0.209075
-1.3820517	W e e	-0.209075
-1.3511417	S e e	-0.209075
-1.0643178	F e e	-0.209075
-0.27761766	<s> w e	-1.4058135
-0.47699693	I w e	-0.209075
-0.34143123	n w e	-0.48867878
-0.53922594	j w e	-0.37165153
-0.46744657	o w e	-0.34856543
-0.44269747	g w e	-0.374264
-0.41428718	y w e	-0.42549148
-0.41007224	e w e	-0.5476719
-0.2862333	b w e	-0.209075
-0.35380375	h w e	-0.42097965
-0.57513756	u w e	-0.26015443
-0.5171986	s w e	-0.46195868
-0.64150715	a w e	-0.49324113
-0.40095055	i w e	-0.55567825
-0.40837803	t w e	-0.6217861
-0.36313465	z w e	-0.42549148
-0.64475346	f w e	-0.2547675
-0.3526802	k w e	-0.47025934
-0.46540466	l w e	-0.507201
-0.5867615	d w e	-0.2881393
-0.39699584	c w e	-0.41299596
-0.4173976	L w e	-0.25040925
-0.4051888	v w e	-0.26698345
-0.2862333	C w e	-0.209075
-0.2862333	H w e	-0.209075
-0.42619252	K w e	-0.2468104
-0.53867704	<s> b e	-1.5716885
-0.7037529	o b e	-0.480538
-0.6396939	e b e	-0.56664836
-0.7154358	u b e	-0.6059463
-0.8027909	a b e	-0.6633599
-0.795417	i b e	-0.537059
-0.77429056	m b e	-0.49155268
-0.8603623	A b e	-0.20907496
-0.4964931	l b e	-0.209075
-0.6308172	M b e	-0.33381885
-1.785842	<s> h e	-0.209075
-1.2307341	n h e	-0.209075
-1.4028938	e h e	-0.209075
-0.73607624	b h e	-0.436442
-1.0423934	h h e	-0.209075
-1.2792366	u h e	-0.209075
-0.82145065	s h e	-0.5247871
-1.6615525	a h e	-0.209075
-1.2130098	i h e	-0.2881393
-0.86728984	t h e	-0.4001447
-1.0246415	m h e	-0.33381885
-0.92388475	k h e	-0.49268973
-1.1919926	c h e	-0.2547675
-0.82663697	p h e	-0.56102586
-0.9949192	C h e	-0.209075
-0.9798816	P h e	-0.209075
-0.3770338	T h e	-0.2881393
-0.69313246	S h e	-0.2547675
-0.90081304	H h e	-0.209075
-0.91773367	K h e	-0.209075
-1.6097419	n u e	-0.209075
-2.064701	g u e	-0.209075
-2.2532277	b u e	-0.209075
-1.9580897	l u e	-0.209075
-1.090628	q u e	-0.209075
-0.4241203	<s> s e	-1.6799408
-0.8738282	n s e	-0.39176878
-0.7281203	o s e	-0.3859698
-0.95855594	e s e	-0.53096634
-0.24464872	w s e	-0.33381885
-0.9021072	u s e	-0.55378634
-0.87229383	s s e	-0.209075
-0.7876927	a s e	-0.6397237
-0.75147295	i s e	-0.76583546
-0.67051667	t s e	-0.6252651
-0.80885005	m s e	-0.43530205
-0.97823066	A s e	-0.209075
-1.000547	k s e	-0.209075
-0.9173313	d s e	-0.209075
-0.7404889	U s e	-0.209075
-1.0446308	T s e	-0.209075
-1.5922912	e a e	-0.209075
-2.559919	w a e	-0.209075
-2.3085275	b a e	-0.209075
-2.092652	h a e	-0.209075
-1.8206366	r a e	-0.209075
-1.6491054	p a e	-0.209075
-2.7309918	<s> i e	-0.29247028
-1.7593062	n i e	-0.209075
-1.9226836	b i e	-0.209075
-1.9628011	t i e	-0.209075
-1.8957052	f i e	-0.209075
-1.8106042	r i e	-0.209075
-2.1945632	l i e	-0.209075
-1.7740445	d i e	-0.209075
-1.2107	c i e	-0.29247028
-1.8845052	v i e	-0.209075
-1.1841706	D i e	-0.209075
-0.48810524	<s> t e	-1.6676404
-1.0542951	n t e	-0.3829704
-0.9081536	o t e	-0.55268544
-0.86671793	e t e	-0.75021064
-0.7897312	u t e	-0.5271606
-0.597994	s t e	-0.23386419
-0.9384852	a t e	-0.70997757
-1.0571512	i t e	-0.53653866
-0.6543537	t t e	-0.26698345
-1.004113	m t e	-0.29247028
-0.97229314	S t e	-0.209075
-0.84977746	E t e	-0.209075
-0.37968042	Ã t e	-0.209075
-0.37968042	Å t e	-0.209075
-0.98976934	<s> N e	-0.7467785
-0.7595679	<s> z e	-0.2547675
-1.1180768	n z e	-0.209075
-0.7206564	e z e	-0.34199363
-0.66595626	u z e	-0.55260473
-0.70430225	a z e	-0.49800813
-0.752341	i z e	-0.25341755
-0.33394477	t z e	-0.209075
-0.33394477	A z e	-0.209075
-0.63980556	d z e	-0.47649696
-1.6250802	<s> m e	-0.4429213
-0.25370154	n m e	-0.33381885
-1.0745001	o m e	-0.4896489
-1.2247509	e m e	-0.5465349
-0.99395967	u m e	-0.5450614
-0.77952766	s m e	-0.209075
-1.0881125	a m e	-0.5993629
-1.084109	i m e	-0.5389611
-0.38579974	t m e	-0.209075
-0.6207222	m m e	-0.40234977
-0.86809516	A m e	-0.209075
-0.64313453	p m e	-0.209075
-1.1940062	U m e	-0.209075
-1.1136469	E m e	-0.209075
-2.7975345	<s> A e	-0.209075
-1.5079546	<s> f e	-0.3248619
-0.739396	n f e	-0.209075
-0.85860366	o f e	-0.2547675
-0.8268513	e f e	-0.24121471
-0.9269818	u f e	-0.27592435
-0.82020354	a f e	-0.33386296
-0.70973045	i f e	-0.41882685
-1.4604626	t f e	-0.209075
-0.8956873	m f e	-0.33381882
-1.0021806	f f e	-0.209075
-0.7120704	d f e	-0.209075
-0.29907957	<s> r e	-0.30583885
-0.72839445	I r e	-0.209075
-1.1868134	o r e	-0.209075
-0.9144917	g r e	-0.209075
-0.89787346	e r e	-0.26698345
-0.5546318	b r e	-0.209075
-0.7984011	h r e	-0.209075
-0.45021394	u r e	-0.26698345
-1.0159744	a r e	-0.209075
-0.5497038	i r e	-0.26698345
-0.93976754	t r e	-0.209075
-0.33465502	m r e	-0.209075
-0.5546318	f r e	-0.209075
-0.7984011	r r e	-0.209075
-0.6624441	d r e	-0.209075
-0.8249539	p r e	-0.209075
-0.72839445	P r e	-0.209075
-0.5546318	G r e	-0.209075
-0.72839445	F r e	-0.209075
-2.5336971	<s> k e	-0.6078804
-0.99490064	n k e	-0.2881393
-1.0699579	o k e	-0.39176878
-0.8437856	e k e	-0.6236473
-0.77677286	u k e	-0.68596464
-0.8026991	s k e	-0.209075
-0.8435909	a k e	-0.6007449
-0.7884746	i k e	-0.642712
-1.2722211	m k e	-0.209075
-0.7254787	A k e	-0.209075
-1.0177851	r k e	-0.209075
-0.97886187	c k e	-0.209075
-0.37641707	<s> l e	-2.0799866
-0.93461484	o l e	-0.5378723
-0.7677031	e l e	-0.7148363
-0.3417806	w l e	-0.209075
-0.8736858	b l e	-0.209075
-0.75385886	h l e	-0.5161207
-0.7933321	u l e	-0.6290861
-0.7932338	s l e	-0.209075
-0.8441071	a l e	-0.750214
-0.7581159	i l e	-0.6859719
-0.93690693	m l e	-0.2881393
-0.74625534	A l e	-0.209075
-0.74625534	r l e	-0.209075
-0.87764174	k l e	-0.209075
-0.56216276	l l e	-0.27741104
-0.75489575	d l e	-0.46458432
-0.55286753	c l e	-0.209075
-0.8943132	p l e	-0.209075
-0.5725626	H l e	-0.34848478
-0.74625534	E l e	-0.209075
-0.3417806	K l e	-0.209075
-0.3417806	F l e	-0.209075
-0.9763648	<s> d e	-0.27741104
-1.0073446	n d e	-0.29247028
-1.5209069	o d e	-0.209075
-0.82481325	e d e	-0.45438865
-1.2912612	u d e	-0.209075
-1.0027671	a d e	-0.37158066
-1.0924283	i d e	-0.303888
-1.2555224	N d e	-0.209075
-1.344044	m d e	-0.209075
-0.74792784	A d e	-0.209075
-0.75946945	r d e	-0.33381885
-0.94254524	<s> c e	-0.23706476
-0.7685412	n c e	-0.4200405
-0.7799688	o c e	-0.37165153
-1.2383454	g c e	-0.23706476
-0.66130555	e c e	-0.3609678
-0.83923626	u c e	-0.45188138
-0.79183376	a c e	-0.5488128
-0.7945445	i c e	-0.52721244
-0.7161377	N c e	-0.209075
-0.92975175	m c e	-0.3103633
-0.3488614	r c e	-0.2881393
-0.59593946	c c e	-0.209075
-0.84403217	U c e	-0.209075
-0.7915636	E c e	-0.209075
-1.6456183	<s> p e	-0.209075
-0.93637085	o p e	-0.2881393
-0.3389516	y p e	-0.209075
-1.1875122	e p e	-0.33381885
-1.266638	u p e	-0.209075
-0.6716349	s p e	-0.209075
-0.9590962	a p e	-0.2881393
-1.0883918	i p e	-0.209075
-0.72685	m p e	-0.39875633
-0.6716349	A p e	-0.209075
-0.7667104	p p e	-0.209075
-0.3389516	L p e	-0.209075
-0.56178546	S p e	-0.209075
-0.3389516	O p e	-0.209075
-0.5047279	<s> L e	-1.1282341
-1.510667	e L e	-0.209075
-0.5563797	u L e	-0.26698345
-1.2314141	a L e	-0.209075
-0.6580419	<s> B e	-0.75838745
-1.1881604	e B e	-0.209075
-0.40572125	u B e	-0.209075
-1.1202545	a B e	-0.209075
-0.48625094	<s> v e	-0.5727333
-0.6152927	n v e	-0.209075
-0.6024391	o v e	-0.2669654
-0.47350556	e v e	-0.42397285
-0.6318734	u v e	-0.46195868
-0.50022227	a v e	-0.6478107
-0.52127707	i v e	-0.56600904
-0.6341788	m v e	-0.4385983
-0.7056317	r v e	-0.209075
-0.51741576	v v e	-0.209075
-0.8437808	M v e	-0.209075
-0.51741576	E v e	-0.209075
-1.0708985	<s> C e	-0.3824527
-1.0176455	u C e	-0.209075
-1.1764835	<s> M e	-0.4669324
-1.0340044	I M e	-0.209075
-1.4587226	e M e	-0.209075
-1.3656038	u M e	-0.209075
-0.94611156	a M e	-0.4834834
-0.84475434	<s> P e	-0.29909405
-0.958306	i P e	-0.209075
-0.48327744	<s> D e	-0.55196345
-0.67255616	e D e	-0.209075
-0.5688007	<s> W e	-0.6850505
-0.58558947	e W e	-0.209075
-0.35304436	h W e	-0.209075
-0.35304436	a W e	-0.209075
-0.925546	<s> G e	-0.303888
-0.4639838	e G e	-0.31608596
-0.34736118	u G e	-0.209075
-0.5759258	a G e	-0.209075
-0.68993175	i G e	-0.209075
-0.98356366	<s> T e	-0.4256206
-0.57777107	e T e	-0.41303244
-0.9120537	u T e	-0.209075
-0.7795864	<s> S e	-0.87230116
-1.4432279	a S e	-0.209075
-1.2232404	i S e	-0.209075
-0.8769675	<s> H e	-0.42549148
-0.3023452	<s> Y e	-0.6128789
-2.466148	<s> E e	-0.209075
-1.9338212	<s> K e	-0.4834834
-0.22043365	<s> R e	-0.6389859
-0.38655305	o x e	-0.209075
-0.9340978	e x e	-0.209075
-0.8432423	<s> V e	-0.209075
-0.082304426	a V e	-0.58039343
-0.3368025	i V e	-0.209075
-1.8597431	<s> J e	-0.209075
-1.384344	<s> F e	-0.209075
-0.7719612	u F e	-0.209075
-0.7921901	i F e	-0.209075
-1.33552	<s> I w	-0.7845134
-3.7289414	<s> n w	-0.209075
-2.0200136	o n w	-0.2881393
-1.7059252	e n w	-0.427666
-1.6282052	u n w	-0.41299596
-1.4920869	a n w	-0.6595747
-1.598396	i n w	-0.58039343
-0.920631	n j w	-0.53463596
-1.2036564	o j w	-0.209075
-1.0101697	e j w	-0.35854468
-1.0208964	u j w	-0.209075
-1.3984425	a j w	-0.209075
-1.5251938	i j w	-0.209075
-0.7179406	t j w	-0.6217861
-0.36681288	T j w	-0.209075
-1.7136264	n o w	-0.209075
-1.6570936	j o w	-0.209075
-1.8408062	g o w	-0.209075
-1.4047581	y o w	-0.32191685
-1.5424407	w o w	-0.209075
-1.7242072	b o w	-0.209075
-1.9686697	h o w	-0.209075
-1.5804062	s o w	-0.209075
-1.3658103	i o w	-0.209075
-1.3629824	t o w	-0.31608596
-1.362846	f o w	-0.209075
-1.2857981	r o w	-0.209075
-1.6639682	l o w	-0.33378616
-1.5409555	d o w	-0.209075
-1.4221369	L o w	-0.209075
-1.3858302	S o w	-0.209075
-1.1922759	<s> g w	-0.37165153
-1.074597	n g w	-0.5429993
-1.4045298	o g w	-0.209075
-1.0912926	u g w	-0.34848478
-1.2735159	a g w	-0.37165153
-1.0292224	i g w	-0.35854468
-0.66542935	N g w	-0.31608596
-0.88023514	m g w	-0.41299596
-3.4878259	<s> y w	-0.209075
-0.97308767	n y w	-0.53463596
-1.2005901	u y w	-0.35854468
-1.6751049	a y w	-0.2881393
-1.5274843	i y w	-0.2881393
-1.3078605	m y w	-0.209075
-3.1694455	<s> e w	-0.209075
-1.6687164	n e w	-0.26698345
-1.2737923	g e w	-0.49217722
-1.2557501	y e w	-0.34848478
-1.9742785	w e w	-0.2881393
-1.3019955	b e w	-0.39176878
-1.5227038	h e w	-0.2881393
-1.6799551	s e w	-0.303888
-1.4424732	i e w	-0.209075
-1.3389761	t e w	-0.44914004
-1.2626958	N e w	-0.209075
-1.6636772	z e w	-0.209075
-1.859389	m e w	-0.209075
-1.8202848	k e w	-0.209075
-1.6725489	l e w	-0.29247028
-1.9162043	c e w	-0.209075
-1.4716053	L e w	-0.209075
-1.3997794	T e w	-0.209075
-1.3201064	S e w	-0.209075
-1.2626958	Y e w	-0.209075
-3.1079068	<s> w w	-0.33381885
-0.7288557	w w w	-0.209075
-0.41951683	p w w	-0.209075
-2.4373426	a b w	-0.209075
-2.1695962	<s> h w	-0.209075
-1.1414124	h h w	-0.209075
-1.1920127	u h w	-0.31608596
-0.7965834	s h w	-0.6495148
-1.6399521	a h w	-0.209075
-1.7199054	t h w	-0.209075
-1.4187348	m h w	-0.209075
-0.9498709	k h w	-0.68305576
-0.83794475	c h w	-0.4905327
-1.1671242	T h w	-0.209075
-2.5723505	<s> u w	-0.427666
-1.489244	o u w	-0.209075
-1.6940391	g u w	-0.2547675
-1.947849	w u w	-0.209075
-2.1271567	b u w	-0.209075
-2.0944889	h u w	-0.209075
-1.5146786	k u w	-0.32663858
-2.1339085	l u w	-0.209075
-0.7009617	W u w	-0.209075
-1.6166644	K u w	-0.209075
-2.94482	<s> s w	-0.26698345
-1.3252857	n s w	-0.33381885
-1.160502	o s w	-0.34848478
-1.1829907	e s w	-0.4834834
-1.1871986	u s w	-0.58039343
-1.3453248	a s w	-0.4468556
-0.9257398	i s w	-0.84402937
-1.1067504	t s w	-0.4834834
-1.0190428	m s w	-0.4834834
-0.6116498	d s w	-0.209075
-0.94902885	M s w	-0.209075
-1.1140789	T s w	-0.209075
-1.6121974	<s> a w	-1.0653359
-1.318388	n a w	-0.41303244
-1.86593	j a w	-0.209075
-1.1983061	g a w	-0.37601444
-1.4300325	y a w	-0.35394308
-1.6911924	w a w	-0.36187994
-1.5225015	b a w	-0.35394308
-1.4425496	h a w	-0.45350227
-1.6829231	s a w	-0.30583885
-1.1149355	t a w	-0.5394171
-1.3458778	N a w	-0.209075
-1.7792298	z a w	-0.209075
-1.3809241	m a w	-0.4834834
-1.6349962	k a w	-0.32191685
-1.2392905	l a w	-0.49217722
-1.670688	d a w	-0.209075
-1.9498284	c a w	-0.209075
-1.4844667	p a w	-0.209075
-1.4648385	L a w	-0.209075
-1.393366	W a w	-0.209075
-1.033706	H a w	-0.209075
-1.76699	<s> i w	-1.1221472
-1.1919905	n i w	-0.427666
-1.2025291	j i w	-0.35854468
-1.672261	g i w	-0.2547675
-1.2576244	y i w	-0.39176878
-1.3669556	b i w	-0.34848478
-1.53076	h i w	-0.33377683
-1.3457477	s i w	-0.524576
-1.4071131	i i w	-0.209075
-1.4128455	t i w	-0.4587249
-1.2635636	z i w	-0.32191685
-1.5465142	f i w	-0.209075
-1.0355238	k i w	-0.58039343
-1.3090174	l i w	-0.56786007
-1.4453776	d i w	-0.33381885
-1.670878	c i w	-0.33381885
-3.5327044	<s> t w	-0.209075
-1.2836052	n t w	-0.427666
-1.404233	o t w	-0.33381885
-1.1658	e t w	-0.7265215
-1.623992	u t w	-0.31608596
-1.4016039	a t w	-0.53463596
-1.5871589	i t w	-0.4834834
-1.2544383	t t w	-0.209075
-1.1239816	e z w	-0.33381885
-1.414773	u z w	-0.2881393
-1.1430991	a z w	-0.35854468
-1.447655	i z w	-0.2881393
-1.9968485	<s> A w	-0.49217722
-2.5890822	<s> f w	-0.209075
-1.4753056	e f w	-0.209075
-0.69523996	t f w	-0.60999256
-1.0478449	T f w	-0.209075
-0.6251177	<s> k w	-2.9032328
-1.3713592	n k w	-0.33381885
-0.8114428	o k w	-0.7191277
-1.0089426	e k w	-0.810936
-0.84116966	u k w	-0.7713593
-0.9791179	a k w	-0.99536675
-1.137096	i k w	-0.7564847
-0.8740941	E k w	-0.209075
-1.2610863	<s> l w	-2.2314038
-0.91971344	o l w	-0.6917496
-0.884063	e l w	-0.9811977
-1.1028017	h l w	-0.48867878
-0.8084062	u l w	-0.93578106
-0.9366659	s l w	-0.209075
-0.93034256	a l w	-0.967654
-1.0850078	i l w	-0.5504302
-1.2735842	k l w	-0.209075
-0.9703385	d l w	-0.4533882
-0.87260294	E l w	-0.209075
-1.4227979	n d w	-0.2881393
-1.495804	o d w	-0.2881393
-1.9340974	u d w	-0.209075
-1.764335	a d w	-0.2881393
-1.6329932	<s> c w	-0.33381885
-0.9165375	n c w	-0.49659026
-1.0590411	o c w	-0.35854468
-0.790615	g c w	-0.7265215
-0.9456198	e c w	-0.427666
-1.038749	u c w	-0.53463596
-1.2126385	a c w	-0.53463596
-1.47816	i c w	-0.33381885
-1.3056343	m c w	-0.2881393
-0.7886395	G c w	-0.209075
-0.42694333	t p w	-0.209075
-1.3137516	<s> L w	-1.160177
-0.8150178	e L w	-0.33381885
-1.0884562	u L w	-0.209075
-1.1970108	a L w	-0.209075
-0.38621163	i L w	-0.209075
-0.58124846	d v w	-0.65326
-0.41856787	D v w	-0.209075
-2.3187804	<s> U w	-0.209075
-1.0615821	u C w	-0.209075
-2.6262739	<s> T w	-0.209075
-1.3540812	e S w	-0.33381885
-1.455481	a S w	-0.209075
-0.6229791	i S w	-0.35854468
-1.0627185	u H w	-0.209075
-2.5111463	<s> E w	-0.209075
-0.78691447	<s> K w	-1.5932306
-0.8144846	e K w	-0.2881393
-0.28336558	a Z w	-0.35854468
-2.3875146	<s> I b	-0.209075
-2.6508358	e n b	-0.209075
-2.6296465	i n b	-0.209075
-1.9359527	<s> o b	-0.33381885
-1.1670607	n o b	-0.29247028
-0.8186541	j o b	-0.2468104
-1.0287508	g o b	-0.37954363
-1.135651	y o b	-0.37460685
-1.474378	w o b	-0.209075
-1.2969646	b o b	-0.36504868
-1.2198012	h o b	-0.37954363
-1.3406192	s o b	-0.31608596
-1.4967692	t o b	-0.33381885
-1.0690815	N o b	-0.209075
-1.3470918	m o b	-0.33381885
-1.1212908	f o b	-0.2547675
-1.460759	r o b	-0.209075
-1.4349153	k o b	-0.209075
-1.1559962	l o b	-0.5056899
-1.225531	d o b	-0.33381885
-1.1032519	c o b	-0.42093632
-1.3396848	L o b	-0.209075
-1.2376193	B o b	-0.209075
-1.3197652	S o b	-0.209075
-1.0266359	K o b	-0.209075
-0.8086855	R o b	-0.209075
-1.9840662	n g b	-0.209075
-1.8566697	u g b	-0.209075
-2.1129518	a g b	-0.209075
-1.6471276	m g b	-0.209075
-1.5436722	<s> e b	-1.1466902
-1.3640031	n e b	-0.41299596
-1.7690188	j e b	-0.209075
-1.3632199	g e b	-0.303888
-1.4821335	y e b	-0.26698345
-1.5426427	e e b	-0.209075
-1.0628678	w e b	-0.6682217
-1.3967643	b e b	-0.30828404
-1.3743935	h e b	-0.34848478
-1.2571142	s e b	-0.58288276
-1.4295322	t e b	-0.2908411
-1.2437452	N e b	-0.209075
-1.6380233	z e b	-0.209075
-1.7909378	k e b	-0.209075
-1.2987992	l e b	-0.46959192
-1.3595767	d e b	-0.33381885
-1.2084453	c e b	-0.3248619
-1.4470948	L e b	-0.209075
-1.352604	B e b	-0.209075
-0.7892704	W e b	-0.2881393
-1.2084978	G e b	-0.209075
-1.300154	S e b	-0.209075
-1.2437452	Y e b	-0.209075
-1.2529491	<s> u b	-1.16397
-0.8782723	j u b	-0.39176878
-1.1115477	g u b	-0.35612077
-1.2545794	w u b	-0.37651354
-1.2742867	b u b	-0.3484848
-1.0817515	h u b	-0.33379623
-1.693397	s u b	-0.209075
-1.0123055	t u b	-0.4834834
-1.4236633	z u b	-0.209075
-1.7389553	m u b	-0.209075
-1.3676126	f u b	-0.33381882
-1.2518077	k u b	-0.6268034
-1.1744822	l u b	-0.5504302
-1.1213324	d u b	-0.209075
-1.0115377	c u b	-0.4429213
-0.95200145	p u b	-0.33381885
-1.0903789	L u b	-0.33381885
-1.7532786	v u b	-0.209075
-0.66222256	P u b	-0.209075
-1.1218157	S u b	-0.209075
-1.4063846	K u b	-0.209075
-0.66222256	x u b	-0.209075
-0.9831132	q u b	-0.209075
-2.4010165	e s b	-0.209075
-2.4362466	a s b	-0.209075
-0.8765834	<s> a b	-1.561154
-1.2871786	n a b	-0.41299596
-0.91151243	j a b	-0.487188
-0.81556034	o a b	-0.209075
-1.108313	g a b	-0.46959192
-1.2564524	y a b	-0.5182455
-1.1695566	w a b	-0.81084234
-1.1383994	b a b	-0.5890149
-1.197435	h a b	-0.35228083
-1.2068725	s a b	-0.52362585
-1.1538982	t a b	-0.4468556
-1.272819	N a b	-0.209075
-1.1301082	z a b	-0.27592435
-1.288368	m a b	-0.50532395
-1.6874824	f a b	-0.209075
-1.1814898	k a b	-0.50532395
-1.1768181	l a b	-0.5018647
-1.5833226	d a b	-0.209075
-0.95162225	c a b	-0.5429993
-1.148588	L a b	-0.2547675
-1.3910509	B a b	-0.209075
-0.9835044	C a b	-0.209075
-1.2361733	M a b	-0.30583885
-1.303913	W a b	-0.209075
-0.7492978	G a b	-0.209075
-1.4623562	S a b	-0.209075
-1.1955359	Y a b	-0.209075
-0.91271096	R a b	-0.209075
-0.9962835	x a b	-0.209075
-0.5316298	J a b	-0.41299596
-0.45326716	q a b	-0.2881393
-1.2816261	<s> i b	-1.1877723
-1.3557955	n i b	-0.2908411
-1.1822276	j i b	-0.35854468
-1.2137016	g i b	-0.3394619
-1.1727569	y i b	-0.47092777
-1.5424037	b i b	-0.33381885
-1.3635234	h i b	-0.2881393
-1.193961	s i b	-0.6268034
-1.3465878	i i b	-0.209075
-1.3930547	t i b	-0.5328989
-1.2911885	N i b	-0.209075
-0.9830122	z i b	-0.3899581
-1.0719056	m i b	-0.43166175
-1.7047045	k i b	-0.209075
-1.3489548	l i b	-0.56567013
-1.2109792	d i b	-0.35854468
-1.4333572	c i b	-0.26698345
-1.2968102	L i b	-0.2547675
-1.2836813	M i b	-0.209075
-1.0608166	G i b	-0.209075
-1.2221017	T i b	-0.2881393
-1.0671778	S i b	-0.28095776
-2.1621509	n t b	-0.209075
-2.2860906	o t b	-0.209075
-1.8985014	d z b	-0.209075
-1.1069629	<s> m b	-0.66375524
-1.1378207	I m b	-0.209075
-0.9555635	o m b	-0.598959
-1.1556629	e m b	-0.87412417
-0.9793008	u m b	-0.73674065
-0.98126334	a m b	-0.8992895
-0.8677395	i m b	-0.69277656
-0.74675536	m m b	-0.41299596
-0.4241792	d m b	-0.33381885
-1.2808787	U m b	-0.209075
-1.1845703	E m b	-0.209075
-1.4902395	<s> A b	-0.57484764
-4.2583723	<s> l b	-0.209075
-0.41952467	y l b	-0.209075
-0.97982264	A l b	-0.209075
-1.454117	l l b	-0.209075
-2.1266448	e d b	-0.209075
-0.4264407	k v b	-0.209075
-1.5588317	<s> U b	-0.34190533
-1.8280604	<s> M b	-0.35854468
-1.5335946	e M b	-0.26698345
-1.464634	u M b	-0.209075
-0.9421087	i M b	-0.209075
-2.2524912	<s> E b	-0.209075
-3.1516078	<s> n h	-0.49217722
-1.2994953	I n h	-0.209075
-1.9528722	o n h	-0.2881393
-1.4173163	e n h	-0.59350026
-1.9087677	u n h	-0.33381885
-1.7376378	a n h	-0.41299596
-1.5075691	i n h	-0.617116
-0.82451856	t n h	-0.209075
-1.0983654	E n h	-0.209075
-1.6515273	y o h	-0.33381885
-1.3559154	b o h	-0.32191685
-1.4558777	h o h	-0.32191685
-1.063062	i o h	-0.209075
-1.8347814	k o h	-0.209075
-1.565903	l o h	-0.36187994
-1.4988542	L o h	-0.209075
-1.38038	B o h	-0.209075
-1.284559	M o h	-0.209075
-0.96699905	D o h	-0.209075
-1.2967739	J o h	-0.209075
-2.1228912	i g h	-0.209075
-2.012614	<s> e h	-1.0717552
-1.6901542	n e h	-0.209075
-1.903006	g e h	-0.209075
-1.2625438	y e h	-0.49217722
-1.3745227	w e h	-0.66826844
-1.4145261	b e h	-0.37165153
-1.3911477	h e h	-0.26698345
-1.4741881	s e h	-0.49217722
-1.3465008	t e h	-0.37165153
-1.1461225	m e h	-0.49217722
-1.6853667	r e h	-0.209075
-1.3942324	k e h	-0.35854468
-1.5595939	l e h	-0.37165153
-1.4942167	L e h	-0.209075
-1.3691698	W e h	-0.209075
-1.420191	T e h	-0.209075
-1.2799598	Y e h	-0.209075
-0.96403724	V e h	-0.209075
-2.1955361	<s> b h	-0.5963325
-0.583599	I b h	-0.209075
-0.7794383	o b h	-0.37460685
-0.7976541	g b h	-0.209075
-0.7533668	e b h	-0.6058126
-0.8557895	u b h	-0.6595747
-0.8438052	a b h	-0.762237
-0.93433917	i b h	-0.71393234
-0.8250943	m b h	-0.39041063
-0.77235466	U b h	-0.209075
-0.87980837	M b h	-0.209075
-0.583599	E b h	-0.209075
-0.66229147	<s> h h	-0.788218
-1.5060718	o h h	-0.209075
-0.9773441	e h h	-0.33381885
-1.0492177	u h h	-0.31608596
-1.8919984	s h h	-0.209075
-0.8681776	a h h	-0.43199548
-0.9276586	i h h	-0.427666
-1.4426095	m h h	-0.209075
-0.6680523	E h h	-0.209075
-1.7625647	<s> u h	-1.0449812
-1.6292028	j u h	-0.209075
-1.8746871	g u h	-0.209075
-1.1105169	w u h	-0.44058192
-1.3114781	b u h	-0.42774668
-2.053085	h u h	-0.209075
-1.2611685	m u h	-0.41299596
-1.4209301	k u h	-0.4398369
-1.26557	l u h	-0.49734032
-1.1681446	L u h	-0.33381885
-1.475155	B u h	-0.209075
-1.3138714	K u h	-0.2547675
-2.085942	<s> s h	-0.56102586
-0.8238727	I s h	-0.209075
-1.10141	n s h	-0.26698345
-0.9538173	o s h	-0.4684596
-1.0307802	e s h	-0.5820782
-0.8295139	u s h	-0.68305576
-0.8545087	a s h	-0.9026127
-0.8702529	i s h	-0.7780711
-1.3912617	t s h	-0.33381885
-0.7431321	N s h	-0.209075
-0.740077	m s h	-0.515936
-0.9828104	A s h	-0.209075
-1.1003982	r s h	-0.209075
-0.7431321	U s h	-0.209075
-0.5813157	M s h	-0.33381885
-0.7823078	T s h	-0.33381885
-1.5229868	<s> a h	-1.0005622
-1.9136981	n a h	-0.209075
-0.995251	j a h	-0.49217722
-1.9081674	g a h	-0.209075
-1.4269102	y a h	-0.45438865
-1.3842726	w a h	-0.49211487
-1.2055132	b a h	-0.4911124
-1.7649678	h a h	-0.35854468
-1.4363853	s a h	-0.34199363
-1.7379069	t a h	-0.26698345
-1.377913	m a h	-0.37165153
-1.2878681	f a h	-0.35854468
-1.3266792	k a h	-0.44058192
-1.2895026	l a h	-0.5010486
-1.9387023	c a h	-0.209075
-1.4755111	p a h	-0.209075
-1.4699569	B a h	-0.209075
-1.2696966	M a h	-0.2881393
-1.383355	W a h	-0.209075
-1.3870075	T a h	-0.209075
-1.536563	S a h	-0.209075
-1.2015226	K a h	-0.209075
-1.9102453	<s> i h	-0.9800405
-1.7207297	n i h	-0.33381885
-1.6828732	g i h	-0.26698345
-1.3463703	y i h	-0.4429213
-1.4769495	s i h	-0.4587249
-1.4198002	i i h	-0.209075
-1.4167615	t i h	-0.4180977
-1.6251066	z i h	-0.2881393
-1.4129508	m i h	-0.34435782
-1.061925	f i h	-0.58039343
-1.7923306	k i h	-0.209075
-1.4400816	l i h	-0.43924594
-1.1202831	L i h	-0.29247028
-1.5465004	T i h	-0.209075
-1.2396954	S i h	-0.27741104
-2.1478019	<s> t h	-0.7219663
-1.698529	n t h	-0.209075
-0.99723816	o t h	-0.4946935
-1.0731767	e t h	-0.58288276
-0.38063237	w t h	-0.209075
-0.94291836	u t h	-0.4703293
-0.98724407	a t h	-0.50989115
-0.9608662	i t h	-0.5413546
-1.334256	m t h	-0.33381885
-0.7668445	A t h	-0.209075
-0.9587144	r t h	-0.209075
-0.6042022	k t h	-0.209075
-0.7668445	l t h	-0.209075
-1.2077522	M t h	-0.209075
-2.7601385	<s> N h	-0.209075
-0.9410093	e N h	-0.6595747
-1.2369293	a N h	-0.209075
-1.0919492	i N h	-0.33381885
-1.3491265	<s> m h	-0.9692985
-1.865419	o m h	-0.33381885
-1.35375	e m h	-0.62060505
-1.5952855	u m h	-0.3609678
-1.472087	a m h	-0.5477428
-1.4241793	i m h	-0.58039343
-1.3536348	U m h	-0.209075
-1.2418522	E m h	-0.209075
-2.5715148	<s> A h	-0.209075
-2.7549632	<s> f h	-0.209075
-1.692355	<s> k h	-1.3803852
-0.35304528	I k h	-0.209075
-0.5869534	n k h	-0.64455086
-0.9341791	o k h	-0.4684596
-0.8921543	e k h	-0.6933145
-0.35304528	b k h	-0.209075
-0.88948774	u k h	-0.74672484
-0.7799272	a k h	-0.968128
-0.7600241	i k h	-0.83937055
-0.33671537	N k h	-0.4587249
-0.33805555	m k h	-0.5974268
-0.35304528	U k h	-0.209075
-0.1564009	M k h	-0.45500335
-0.77543503	E k h	-0.209075
-0.42907697	T l h	-0.209075
-1.1060345	l d h	-0.209075
-0.635248	<s> c h	-0.58366364
-0.82869136	n c h	-0.6217861
-0.9282192	o c h	-0.303888
-0.92016345	e c h	-0.303888
-0.84001243	u c h	-0.53653866
-0.49156278	s c h	-0.209075
-0.88920856	a c h	-0.6587913
-0.89654785	i c h	-0.62961143
-0.9312013	m c h	-0.2908411
-0.94121647	A c h	-0.209075
-0.36019558	k c h	-0.209075
-0.8474695	U c h	-0.209075
-0.745278	S c h	-0.209075
-0.59787756	x c h	-0.209075
-0.096461184	<s> p h	-1.0316998
-0.34015414	I p h	-0.209075
-0.34015414	j p h	-0.209075
-0.301166	o p h	-0.62377036
-0.2977097	e p h	-0.6757991
-0.20254757	u p h	-0.7203812
-0.674226	s p h	-0.209075
-0.3468346	a p h	-0.92807746
-0.30473286	i p h	-0.9306415
-0.57496893	m p h	-0.7009674
-0.674226	A p h	-0.209075
-0.34015414	U p h	-0.209075
-0.49954113	M p h	-0.29247028
-0.5637961	E p h	-0.209075
-1.8178424	<s> B h	-0.29247028
-0.7870319	u B h	-0.209075
-1.1311303	a B h	-0.209075
-0.5942332	i B h	-0.2881393
-2.601288	<s> U h	-0.209075
-0.7705721	<s> C h	-0.6632793
-0.44744286	e C h	-0.2881393
-0.59692454	u C h	-0.33381885
-0.3813414	i C h	-0.209075
-1.7839047	<s> M h	-0.35854468
-1.255894	o M h	-0.209075
-1.0651393	e M h	-0.58039343
-1.1326846	u M h	-0.33381885
-1.6046962	a M h	-0.209075
-0.62919843	<s> P h	-0.57484764
-0.3191397	o P h	-0.209075
-0.6300811	e P h	-0.209075
-0.35343507	u P h	-0.26698345
-0.14118439	a P h	-0.2881393
-0.24428363	i P h	-0.33381885
-0.3191397	m P h	-0.209075
-2.1915278	<s> W h	-0.33381885
-0.39991787	k W h	-0.209075
-1.9814162	<s> G h	-0.209075
-1.6425592	<s> T h	-0.37165153
-0.92213637	I T h	-0.209075
-1.1103162	e T h	-0.33381885
-0.6288213	a T h	-0.209075
-1.1774989	i T h	-0.209075
-1.7975211	<s> S h	-0.4429213
-1.323289	e S h	-0.33381885
-0.8317032	a S h	-0.2881393
-1.186152	i S h	-0.209075
-0.8590679	<s> H h	-0.33377683
-1.2280911	a H h	-0.209075
-0.6515638	i H h	-0.209075
-1.8475202	<s> E h	-0.31608596
-1.4776909	<s> K h	-0.64208996
-0.542359	o K h	-0.209075
-0.7166154	e K h	-0.35854468
-0.22024886	u K h	-0.33381885
-0.103301756	a K h	-0.32191685
-0.33573654	i K h	-0.31608596
-0.32721806	m K h	-0.209075
-3.937062	<s> n u	-0.209075
-1.3349533	e n u	-0.6726815
-1.2370051	u n u	-0.39875633
-0.8391353	s n u	-0.209075
-1.5983745	a n u	-0.493487
-1.0159873	m n u	-0.49217722
-0.7133221	M n u	-0.2881393
-1.1367751	<s> j u	-0.29247028
-1.011964	n j u	-0.31608596
-1.1647599	o j u	-0.209075
-1.4114672	e j u	-0.209075
-0.95829254	h j u	-0.209075
-0.99687517	u j u	-0.2547675
-0.8590471	a j u	-0.3145348
-0.9307597	i j u	-0.29247028
-0.96247655	t j u	-0.27741104
-2.2754557	<s> o u	-0.209075
-1.3886745	s o u	-0.2881393
-1.3931717	i o u	-0.209075
-1.6617405	f o u	-0.209075
-1.306761	r o u	-0.209075
-1.4585601	L o u	-0.209075
-1.2638844	C o u	-0.209075
-1.2561743	M o u	-0.209075
-1.0306033	T o u	-0.209075
-1.0757718	S o u	-0.33381885
-0.6913589	Y o u	-0.209075
-0.84699076	R o u	-0.209075
-1.2702959	J o u	-0.209075
-0.9965144	<s> g u	-0.28095776
-1.0562924	n g u	-0.39360127
-1.3323895	o g u	-0.209075
-0.8182612	e g u	-0.209075
-0.70187134	u g u	-0.39751348
-0.87129873	a g u	-0.4720848
-0.83374536	i g u	-0.4402415
-1.2134994	N g u	-0.209075
-1.1781446	m g u	-0.209075
-0.8840642	A g u	-0.209075
-0.81775975	n y u	-0.368942
-1.7842379	e y u	-0.209075
-1.6977538	a y u	-0.209075
-1.5527744	i y u	-0.209075
-1.2564017	N y u	-0.209075
-2.1905901	n e u	-0.209075
-2.196396	g e u	-0.209075
-2.4940608	w e u	-0.209075
-2.358644	l e u	-0.209075
-2.7794268	<s> w u	-0.209075
-0.7880128	o w u	-0.26697502
-0.57302016	e w u	-0.44340447
-0.90668803	u w u	-0.2547675
-0.5795546	a w u	-0.6082493
-0.84767133	i w u	-0.34049582
-0.62154514	A w u	-0.209075
-1.3876036	k w u	-0.209075
-0.62154514	U w u	-0.209075
-0.37373006	E w u	-0.209075
-1.0029421	<s> b u	-1.1165972
-0.99531585	o b u	-0.2943589
-0.7821194	e b u	-0.6878942
-0.7354233	u b u	-0.4576523
-0.22620481	s b u	-0.209075
-0.7934588	a b u	-0.64428574
-0.884846	i b u	-0.59261847
-0.8141989	m b u	-0.47945285
-0.7809729	A b u	-0.209075
-0.76309246	l b u	-0.209075
-0.33740515	v b u	-0.209075
-0.7352357	U b u	-0.209075
-0.8365191	M b u	-0.209075
-0.55920523	E b u	-0.209075
-0.499395	<s> h u	-1.3160859
-0.76662785	o h u	-0.41299596
-0.80111694	b h u	-0.4523329
-0.8646958	h h u	-0.27592435
-0.89480877	u h u	-0.29910314
-0.87827384	s h u	-0.38495597
-0.8437785	a h u	-0.559124
-1.2253205	i h u	-0.26698345
-0.7472692	t h u	-0.493487
-1.2623686	m h u	-0.209075
-0.7870723	k h u	-0.5883117
-0.7017626	c h u	-0.5064177
-0.7848147	p h u	-0.5166704
-0.7347634	B h u	-0.33381885
-0.5254511	C h u	-0.33381885
-0.5269874	P h u	-0.30280796
-1.0000143	S h u	-0.209075
-0.9324533	K h u	-0.26698345
-2.4474664	k u u	-0.209075
-2.5337124	<s> s u	-0.59350026
-0.9067319	n s u	-0.37954363
-1.3153158	o s u	-0.209075
-1.0093329	e s u	-0.52039206
-1.0611916	u s u	-0.51487
-0.9759153	a s u	-0.52016854
-1.2116352	i s u	-0.50983787
-1.7143252	t s u	-0.209075
-1.1771408	m s u	-0.2547675
-1.0816287	A s u	-0.209075
-2.1522565	g a u	-0.209075
-1.5786581	e a u	-0.209075
-2.5302055	w a u	-0.209075
-2.4026642	h a u	-0.209075
-2.2438495	k a u	-0.209075
-1.6495801	L a u	-0.209075
-1.2229135	G a u	-0.209075
-3.5537279	<s> i u	-0.209075
-2.1619132	n i u	-0.209075
-2.0348752	b i u	-0.209075
-1.1674409	i i u	-0.209075
-1.9627495	k i u	-0.209075
-2.8896062	<s> t u	-0.4834834
-1.1332138	n t u	-0.2908411
-1.4765441	e t u	-0.32191685
-1.3286316	u t u	-0.2547675
-1.3727361	s t u	-0.209075
-1.6139458	a t u	-0.2547675
-1.3575834	i t u	-0.27955285
-1.0038849	m t u	-0.2468104
-0.25021628	f t u	-0.209075
-0.9460142	k t u	-0.209075
-0.764177	l t u	-0.209075
-1.2342649	c t u	-0.209075
-0.9717683	S t u	-0.209075
-0.8493458	E t u	-0.209075
-2.9532967	<s> N u	-0.209075
-1.4750862	<s> z u	-0.209075
-0.5998356	n z u	-0.37165153
-1.0636413	e z u	-0.2881393
-0.6265448	u z u	-0.49800813
-0.89360136	a z u	-0.4429213
-0.92105603	i z u	-0.38886365
-0.5426827	m z u	-0.26698345
-0.9561857	<s> m u	-0.7964122
-1.136044	o m u	-0.38496768
-1.1854713	e m u	-0.5848365
-1.1854908	u m u	-0.4022737
-1.1302766	a m u	-0.5038942
-1.2618268	i m u	-0.32956365
-1.4939401	m m u	-0.209075
-1.312172	U m u	-0.209075
-1.2094575	E m u	-0.209075
-2.7896955	<s> A u	-0.209075
-0.08168754	<s> f u	-1.6653425
-0.72982305	o f u	-0.427666
-0.68103737	e f u	-0.34049582
-0.3307474	w f u	-0.209075
-0.65059376	u f u	-0.36193186
-0.5850573	a f u	-0.55382997
-0.69978875	i f u	-0.49593824
-0.5473557	t f u	-0.5726617
-0.5560923	m f u	-0.47909474
-0.3307474	r f u	-0.209075
-0.7187829	l f u	-0.209075
-0.5481662	U f u	-0.209075
-0.18758348	M f u	-0.4834834
-0.3287503	T f u	-0.26698345
-0.3307474	F f u	-0.209075
-1.251619	<s> r u	-0.209075
-1.3980622	o r u	-0.209075
-1.5372632	u r u	-0.209075
-1.4481896	t r u	-0.209075
-0.68139	T r u	-0.209075
-0.2043815	<s> k u	-2.1625707
-1.0133023	n k u	-0.32191685
-0.7661246	o k u	-0.43481743
-0.80069023	e k u	-0.79529154
-0.80750257	u k u	-0.518296
-0.945297	a k u	-0.727152
-1.1268436	i k u	-0.36953142
-1.2019002	N k u	-0.209075
-0.7521522	A k u	-0.20907496
-0.83475906	E k u	-0.209075
-1.2705599	<s> l u	-1.3694336
-1.1916373	o l u	-0.28440383
-0.98625314	e l u	-0.67825943
-1.0154772	b l u	-0.209075
-0.8233415	h l u	-0.50291926
-0.7600061	u l u	-0.61623013
-0.92779267	a l u	-0.5420571
-1.0810431	i l u	-0.44158283
-0.73534393	m l u	-0.38886365
-0.8561603	A l u	-0.209075
-0.72900456	d l u	-0.44691876
-0.8561603	E l u	-0.209075
-1.7575886	<s> d u	-0.209075
-1.3426691	n d u	-0.2468104
-1.3927655	o d u	-0.209075
-1.741959	e d u	-0.209075
-1.5219429	u d u	-0.209075
-1.4681429	a d u	-0.209075
-1.358661	i d u	-0.209075
-1.4244545	m d u	-0.209075
-1.2702612	<s> c u	-0.26698345
-0.9892835	n c u	-0.37460685
-1.5413654	o c u	-0.209075
-0.7302781	g c u	-0.36930558
-1.0324951	e c u	-0.2547675
-0.8462341	u c u	-0.36547473
-1.1315438	a c u	-0.36723846
-1.0386785	i c u	-0.38948292
-0.73958945	N c u	-0.209075
-0.8377325	m c u	-0.4468556
-0.9766768	A c u	-0.209075
-0.61360407	c c u	-0.209075
-2.0699542	<s> p u	-0.209075
-1.3493572	e p u	-0.209075
-1.2799369	a p u	-0.26698345
-1.4082149	i p u	-0.209075
-1.0417126	m p u	-0.26698345
-1.1305542	M p u	-0.209075
-0.97595555	<s> L u	-0.74771017
-0.5538663	e L u	-0.32671526
-0.97232217	<s> B u	-0.38577622
-0.67276335	e B u	-0.2881393
-0.43498278	a B u	-0.41299596
-1.1154308	i B u	-0.209075
-0.77137476	<s> v u	-0.303888
-0.5430836	o v u	-0.37158066
-1.0983778	e v u	-0.2547675
-0.7768585	u v u	-0.47364706
-0.66124815	a v u	-0.74844974
-0.64705217	i v u	-0.58039343
-0.5709935	m v u	-0.44096234
-0.55131936	d v u	-0.5555884
-0.62876755	M v u	-0.33381885
-1.3624767	<s> C u	-0.49217722
-2.0695224	<s> M u	-0.209075
-1.8548973	e M u	-0.209075
-1.3851454	<s> P u	-0.31608596
-1.8501055	<s> D u	-0.209075
-0.6714792	a D u	-0.209075
-2.2266638	<s> W u	-0.209075
-1.0656233	<s> G u	-0.2881393
-2.249274	<s> T u	-0.33381885
-1.5388957	e T u	-0.209075
-1.9073232	<s> S u	-0.31365088
-1.092393	e S u	-0.2881393
-1.0176703	u S u	-0.209075
-1.1726254	i S u	-0.209075
-0.50924975	<s> H u	-0.8901172
-0.61217916	u H u	-0.33381885
