\data\
ngram 1=56
ngram 2=1023
ngram 3=5151
ngram 4=13751
ngram 5=24987

\1-grams:
-2.8498712	<unk>	0
0	<s>	-2.6497564
-1.3769585	</s>	0
-2.109757	U	-0.30905706
-1.6685311	m	-0.59052074
-1.6685311	n	-0.6211028
-1.8977584	q	-0.6137088
-1.3669616	o	-0.8436567
-1.7323706	p	-0.629807
-1.4664849	h	-0.8336101
-1.5192788	w	-0.7468171
-1.3476331	e	-0.8849589
-1.8072387	b	-0.70813656
-1.3571899	u	-0.76478684
-1.5482953	s	-0.67808104
-1.3382821	a	-0.92744136
-1.6887858	y	-0.6363505
-1.3201632	i	-0.8819034
-1.8353665	d	-0.6257145
-1.649179	S	-0.4842782
-1.7559212	z	-0.7201194
-1.9706419	B	-0.44417784
-1.479094	l	-0.8122056
-1.7808224	A	-0.35897723
-1.6685311	f	-0.6714823
-1.5793902	r	-0.60833466
-1.7100317	k	-0.7108369
-1.7323706	g	-0.6210835
-1.5958143	t	-0.69286186
-1.7808224	I	-0.36833668
-1.932673	j	-0.6215811
-2.109757	C	-0.31900385
-1.8072387	T	-0.4399306
-1.8977584	P	-0.42157474
-1.9706419	G	-0.40534508
-1.7100317	E	-0.33703187
-1.8977584	v	-0.6788634
-1.8977584	K	-0.45218813
-1.9706419	N	-0.4141721
-2.621516	X	-0.27290812
-1.9706419	Z	-0.33606923
-2.109757	V	-0.3615811
-1.8072387	L	-0.427784
-2.012251	O	-0.3349441
-1.7323706	c	-0.53910995
-2.168175	Q	-0.38425088
-1.932673	F	-0.42345178
-1.9706419	R	-0.37875715
-2.4137785	x	-0.30127248
-1.8977584	M	-0.39085197
-1.8072387	H	-0.41967404
-2.2356906	Y	-0.3169823
-2.012251	W	-0.38808012
-2.109757	J	-0.3384082
-1.8977584	D	-0.33636048
-2.7208545	Â	-0.27290812

\2-grams:
-1.164301	U </s>	0
-1.4384292	m </s>	0
-1.2817686	n </s>	0
-1.4209533	q </s>	0
-1.2427914	o </s>	0
-1.405177	p </s>	0
-1.4944711	h </s>	0
-1.6325705	w </s>	0
-1.3138571	e </s>	0
-1.5757121	b </s>	0
-1.2268814	u </s>	0
-1.0037134	s </s>	0
-1.3238078	a </s>	0
-0.8698751	y </s>	0
-1.3486975	i </s>	0
-1.0789633	d </s>	0
-0.9892745	S </s>	0
-1.5171298	z </s>	0
-1.2787173	B </s>	0
-1.3418021	l </s>	0
-0.8428304	A </s>	0
-1.5183648	f </s>	0
-1.4188137	r </s>	0
-1.4807647	k </s>	0
-1.6105912	g </s>	0
-1.1104099	t </s>	0
-0.9510456	I </s>	0
-1.1285989	C </s>	0
-1.2591583	T </s>	0
-1.2268862	P </s>	0
-1.2281451	E </s>	0
-1.6229793	N </s>	0
-1.3696678	Z </s>	0
-1.0762016	V </s>	0
-1.6019236	L </s>	0
-0.97991306	O </s>	0
-1.7363006	c </s>	0
-1.5232855	F </s>	0
-1.4801453	R </s>	0
-1.1377649	x </s>	0
-1.6091831	M </s>	0
-1.1827703	D </s>	0
-0.3107388	Â </s>	0
-1.9230305	<s> U	-1.3679098
-1.6195925	C U	-0.22762093
-1.1680372	K U	-0.28300363
-1.912522	L U	-0.22762093
-1.3901149	F U	-0.33601096
-1.9713115	M U	-0.22762093
-1.3375602	H U	-0.22762093
-1.370359	Y U	-0.22762093
-2.0402217	<s> m	-1.1580555
-1.574831	U m	-0.22762093
-1.9413058	m m	-0.28621453
-1.9114912	n m	-0.33601096
-1.171175	o m	-0.6900615
-1.9669386	p m	-0.22762093
-1.3748295	e m	-0.60904026
-1.1380019	u m	-0.5157712
-2.0675874	s m	-0.22762093
-1.2635494	a m	-0.7451375
-1.8906403	y m	-0.22762093
-1.2953755	i m	-0.5872322
-1.9812416	d m	-0.22762093
-1.8692256	S m	-0.22762093
-1.935111	z m	-0.22762093
-1.7621069	A m	-0.22762093
-1.8093863	r m	-0.22762093
-1.8689368	t m	-0.33601096
-1.7946011	I m	-0.22762093
-1.7532898	E m	-0.22762093
-1.575398	O m	-0.22762093
-1.5068924	M m	-0.3027997
-0.82314736	<s> n	-2.6532066
-1.574831	U n	-0.22762093
-1.5062741	m n	-0.43982002
-1.8837261	n n	-0.26779184
-1.1080183	o n	-0.72747964
-1.8617098	h n	-0.26779184
-2.038837	w n	-0.22762093
-1.2175101	e n	-0.8036194
-1.1380019	u n	-0.69456124
-1.1811675	a n	-0.8482324
-1.5834099	y n	-0.22762093
-1.129833	i n	-0.7887904
-1.7621069	A n	-0.22762093
-1.7780346	r n	-0.30021715
-1.7652867	k n	-0.22762093
-1.7416945	g n	-0.22762093
-2.1089249	t n	-0.22762093
-1.7946011	I n	-0.22762093
-1.5134068	E n	-0.2522891
-1.575398	O n	-0.22762093
-1.9058703	c n	-0.22762093
-1.5068924	M n	-0.26897544
-3.1563363	<s> q	-0.6385918
-1.8349081	m q	-0.28668672
-1.4708003	n q	-0.4685482
-2.2613282	o q	-0.3027997
-1.8723993	e q	-0.478891
-2.0485353	u q	-0.35367778
-1.6734803	a q	-0.6316006
-1.6630843	i q	-0.5582612
-1.3120563	g q	-0.41221413
-1.9108056	I q	-0.22762093
-1.8664701	E q	-0.22762093
-1.5583649	N q	-0.3310588
-2.0053418	c q	-0.22762093
-1.5334209	<s> o	-1.52135
-1.4958225	m o	-0.35851574
-1.1942958	n o	-0.43603146
-0.75781995	q o	-0.3569989
-1.5483413	o o	-0.32118386
-0.94446	p o	-0.44196707
-0.8568554	h o	-0.4968228
-1.161569	w o	-0.3551158
-2.1899145	e o	-0.22762093
-0.9898375	b o	-0.45368084
-1.0028157	s o	-0.5120049
-2.2245948	a o	-0.22762093
-0.92733926	y o	-0.39127183
-1.8234376	i o	-0.43281478
-1.0218157	d o	-0.40074056
-1.2135735	S o	-0.32291025
-0.9537736	z o	-0.46530506
-0.9704476	B o	-0.31852925
-0.87736905	l o	-0.5609624
-0.8136126	f o	-0.40227848
-1.0189027	r o	-0.3646383
-0.9740319	k o	-0.5078156
-0.9262904	g o	-0.3370574
-1.0700566	t o	-0.37331364
-1.3824705	j o	-0.22762093
-1.125869	C o	-0.24724208
-1.6312435	T o	-0.22762093
-1.5107081	P o	-0.22762093
-1.2330668	G o	-0.27844325
-1.0378363	v o	-0.29679745
-0.9251856	K o	-0.35335803
-0.97923905	N o	-0.36147496
-1.085233	Z o	-0.31206068
-1.3583139	L o	-0.22762093
-0.86137897	c o	-0.32626006
-1.2706583	Q o	-0.22762093
-0.92482203	F o	-0.36586797
-1.4748164	R o	-0.22762093
-1.0542574	M o	-0.28602558
-1.4890231	H o	-0.22762093
-1.2248744	Y o	-0.22762093
-1.3303386	W o	-0.22762093
-0.9247448	J o	-0.25593033
-1.1797998	D o	-0.26779184
-2.1603136	<s> p	-1.562664
-1.3496726	m p	-0.46117455
-1.3912592	o p	-0.47651085
-1.6677395	p p	-0.29679745
-1.4403429	e p	-0.64820164
-1.4866016	u p	-0.4194669
-1.7968456	s p	-0.29679745
-1.4308321	a p	-0.57623684
-1.9141374	y p	-0.22762093
-1.5080839	i p	-0.5012815
-1.9012814	S p	-0.22762093
-1.7955874	A p	-0.22762093
-1.8301067	r p	-0.22762093
-2.1434588	t p	-0.22762093
-1.8299901	I p	-0.22762093
-1.7878399	E p	-0.22762093
-1.5981387	O p	-0.22762093
-1.2140034	x p	-0.22762093
-1.5238563	M p	-0.29679745
-2.4817212	<s> h	-1.6109861
-1.4067849	m h	-0.7570275
-1.6610482	n h	-0.45599753
-0.9753225	q h	-0.4791609
-1.4565992	o h	-0.61571634
-0.9524175	p h	-0.6259848
-2.0669055	h h	-0.22762093
-1.701118	e h	-0.74213237
-0.9972086	b h	-0.5320478
-1.6203265	u h	-0.7570275
-1.3435796	s h	-0.28300363
-1.5038913	a h	-0.7561491
-1.6100305	i h	-0.77992094
-1.8712804	d h	-0.22762093
-1.7525084	S h	-0.22762093
-0.9834768	B h	-0.3335278
-1.6463655	l h	-0.29452816
-1.1124978	r h	-0.6139531
-0.9021079	k h	-0.6266843
-1.3617525	g h	-0.36381286
-0.92051864	t h	-0.72086364
-1.667787	I h	-0.22762093
-1.367654	j h	-0.32465604
-1.1147646	C h	-0.31206068
-0.99046016	T h	-0.38541645
-0.6724455	P h	-0.56358755
-1.537832	G h	-0.22762093
-1.6289879	E h	-0.22762093
-0.8699096	K h	-0.5083828
-0.5994645	X h	-0.22762093
-1.0876449	c h	-0.45235884
-0.91740906	Q h	-0.29679745
-0.89535284	R h	-0.35367778
-1.2804977	M h	-0.45599753
-1.0365164	W h	-0.22762093
-1.3676231	<s> w	-2.4842434
-1.5750599	n w	-0.5529076
-1.7512885	q w	-0.22762093
-1.535976	o w	-0.40425494
-1.8909522	p w	-0.22762093
-1.1644666	h w	-0.63208884
-1.67361	w w	-0.26779184
-1.6368588	e w	-0.54876953
-1.8933111	b w	-0.22762093
-1.6326765	u w	-0.38287687
-1.2740172	s w	-0.5529076
-1.4368609	a w	-0.80094105
-1.5152694	y w	-0.33303288
-1.5481266	i w	-0.6810312
-1.160498	d w	-0.51098096
-1.5344718	S w	-0.29679745
-1.1160415	z w	-0.60726523
-1.097215	l w	-0.7268208
-1.6748277	A w	-0.22762093
-1.724942	r w	-0.28668672
-1.0302485	k w	-0.67846334
-1.276078	g w	-0.42920157
-1.7865168	t w	-0.28668672
-1.7030172	I w	-0.22762093
-1.0364273	j w	-0.45599753
-1.7267525	T w	-0.22762093
-1.6635908	E w	-0.22762093
-1.247023	K w	-0.33303288
-1.1173685	Z w	-0.22762093
-1.101956	L w	-0.47889093
-1.564447	c w	-0.3310588
-1.0117972	<s> e	-1.8450311
-1.1232772	m e	-0.50125647
-1.1542076	n e	-0.46691754
-1.0642834	q e	-0.5529076
-2.0119543	o e	-0.22762093
-0.82062674	p e	-0.42089736
-0.85596055	h e	-0.6083606
-0.6001498	w e	-0.60892373
-1.4432673	e e	-0.5426595
-0.8330726	b e	-0.468103
-1.9335206	u e	-0.29679745
-0.9001434	s e	-0.50611746
-2.1149342	a e	-0.33601096
-0.8165544	y e	-0.40639153
-1.663878	i e	-0.34494513
-1.0197071	d e	-0.4882904
-0.93051386	S e	-0.43283087
-0.8936983	z e	-0.41095147
-1.3022292	B e	-0.25593033
-0.8314415	l e	-0.56089634
-0.85814095	f e	-0.3604995
-0.8893783	r e	-0.38386646
-1.0669742	k e	-0.44743586
-1.008189	g e	-0.34122592
-1.1070915	t e	-0.4006995
-0.70894426	j e	-0.36028457
-1.1204603	C e	-0.22762093
-1.4038545	T e	-0.22762093
-1.251871	P e	-0.22762093
-1.2273937	G e	-0.22762093
-1.5459846	E e	-0.22762093
-0.58037823	v e	-0.4951381
-1.3996534	K e	-0.22762093
-1.2481862	N e	-0.31359035
-1.0804935	Z e	-0.22762093
-0.8378259	V e	-0.27844325
-1.0728788	L e	-0.2949811
-1.0080396	c e	-0.31359035
-1.2289251	F e	-0.27844325
-1.0069659	R e	-0.28936243
-0.7525804	x e	-0.22762093
-1.0503634	M e	-0.28621453
-1.2211305	H e	-0.22762093
-0.86203086	Y e	-0.28668672
-0.9780314	W e	-0.26083332
-0.99855065	D e	-0.25347802
-1.3304144	<s> b	-2.2845578
-1.6245419	U b	-0.22762093
-1.5277781	m b	-0.643988
-1.2725209	o b	-0.7205506
-1.5446911	e b	-0.719239
-1.3913871	u b	-0.6103051
-2.1350162	s b	-0.22762093
-1.4130375	a b	-0.8709935
-1.513503	i b	-0.7622045
-2.237868	l b	-0.22762093
-1.5176699	A b	-0.26897544
-2.1154854	r b	-0.22762093
-2.1809778	t b	-0.22762093
-1.8685207	I b	-0.22762093
-1.8253778	E b	-0.22762093
-1.3480511	M b	-0.27844325
-1.1024556	<s> u	-1.8644912
-1.3328732	m u	-0.45201135
-1.7340144	n u	-0.31206068
-0.9656689	q u	-0.40648565
-1.5076544	o u	-0.36586797
-1.1905154	p u	-0.39187363
-1.0667667	h u	-0.48564687
-1.2384851	w u	-0.34156772
-2.1814303	e u	-0.22762093
-0.83363897	b u	-0.5257528
-1.1338786	s u	-0.44903436
-2.012085	a u	-0.22762093
-1.1701167	y u	-0.30792028
-2.1698391	i u	-0.22762093
-1.0765591	d u	-0.32412288
-1.4985355	S u	-0.22762093
-0.8943319	z u	-0.43005148
-0.79196966	B u	-0.34294346
-1.0491531	l u	-0.48968163
-1.5665312	A u	-0.22762093
-0.8130241	f u	-0.45701867
-1.41336	r u	-0.26083332
-0.895563	k u	-0.58712417
-1.1131437	g u	-0.37430736
-1.1989933	t u	-0.33820817
-1.3800294	j u	-0.22762093
-1.383401	C u	-0.22762093
-1.4348238	T u	-0.22762093
-1.2547528	P u	-0.22762093
-1.013634	G u	-0.28668672
-1.5529081	E u	-0.22762093
-0.85188544	v u	-0.4848584
-1.0003747	K u	-0.3419741
-0.5905519	X u	-0.22762093
-1.0471418	Z u	-0.29679745
-0.83909875	V u	-0.27844325
-0.9821888	L u	-0.4534752
-1.4320345	O u	-0.22762093
-1.0728863	c u	-0.24724208
-0.6774154	F u	-0.5877167
-1.5953683	M u	-0.22762093
-1.4840711	H u	-0.22762093
-0.9026765	Y u	-0.22762093
-1.2718	J u	-0.22762093
-1.4460819	D u	-0.22762093
-1.3969821	<s> s	-2.2840526
-1.5232224	U s	-0.22762093
-1.4824619	m s	-0.4791609
-1.4968895	n s	-0.34235466
-1.3500843	o s	-0.6162654
-1.9067264	p s	-0.22762093
-2.1128378	h s	-0.22762093
-1.9842076	w s	-0.22762093
-1.2971864	e s	-0.75873893
-1.621897	b s	-0.22762093
-1.2899601	u s	-0.594527
-1.4509091	s s	-0.30021715
-1.2880207	a s	-0.7420306
-1.8403034	y s	-0.22762093
-1.2701058	i s	-0.86275434
-1.6446644	d s	-0.3310588
-1.8408788	l s	-0.29679745
-1.6927638	A s	-0.22762093
-1.8792152	f s	-0.22762093
-1.5758703	r s	-0.34321436
-1.6995151	k s	-0.27626756
-1.9344044	g s	-0.22762093
-1.3432894	t s	-0.37015384
-1.7217654	I s	-0.22762093
-1.3002394	T s	-0.28668672
-1.6819842	E s	-0.22762093
-1.7221379	K s	-0.22762093
-1.8417065	c s	-0.22762093
-1.7205808	M s	-0.22762093
-1.2220645	<s> a	-1.8083466
-1.121832	m a	-0.5397034
-1.1527612	n a	-0.5400061
-0.81489396	q a	-0.4933866
-2.0057442	o a	-0.22762093
-1.0475044	p a	-0.32710305
-0.83237165	h a	-0.69322526
-0.5998471	w a	-0.6689669
-1.9128575	e a	-0.28621453
-0.753326	b a	-0.54106194
-1.9273043	u a	-0.22762093
-1.0831363	s a	-0.49881452
-2.1084456	a a	-0.22762093
-0.7702242	y a	-0.5210112
-1.6613158	i a	-0.3914382
-0.92524344	d a	-0.42973498
-1.3167108	S a	-0.27431557
-0.75373316	z a	-0.5579008
-0.86927027	B a	-0.34860733
-0.81017935	l a	-0.6498413
-0.908494	f a	-0.46229348
-0.9170221	r a	-0.4644227
-0.9717035	k a	-0.48348165
-0.96344036	g a	-0.45004258
-1.105991	t a	-0.43957564
-0.6562121	j a	-0.4554483
-1.117781	C a	-0.26083332
-1.1358019	T a	-0.31359035
-0.9090747	P a	-0.29679745
-0.8826903	G a	-0.28936243
-1.5391699	E a	-0.22762093
-0.78135526	v a	-0.44880998
-1.2066119	K a	-0.28300363
-1.1352541	N a	-0.3107344
-1.0427983	Z a	-0.31359035
-1.031223	V a	-0.29679745
-0.97915614	L a	-0.37748027
-1.0067917	c a	-0.3092419
-0.5534095	Q a	-0.30021715
-1.0471978	F a	-0.26779184
-1.005166	R a	-0.2522891
-1.0484294	M a	-0.31397262
-1.1847162	H a	-0.3027997
-1.2146927	Y a	-0.22762093
-1.0144147	W a	-0.22762093
-0.57984185	J a	-0.31908795
-0.8725123	D a	-0.22762093
-1.3403736	<s> y	-2.4730308
-1.9255259	m y	-0.3027997
-1.2324706	n y	-0.58258075
-1.6008602	o y	-0.4366904
-1.9022254	h y	-0.33601096
-1.5085111	e y	-0.6693913
-1.5211921	u y	-0.6136054
-1.3860681	a y	-0.81947595
-1.5682714	i y	-0.7000372
-1.9909757	d y	-0.22762093
-1.8796502	S y	-0.22762093
-1.9138658	l y	-0.22762093
-1.7729827	A y	-0.22762093
-1.6085886	r y	-0.45599753
-1.7129203	g y	-0.3310588
-1.6631619	t y	-0.28668672
-1.80608	I y	-0.22762093
-1.5213308	C y	-0.22762093
-1.5134352	N y	-0.27844325
-1.646891	c y	-0.33601096
-1.6022482	D y	-0.22762093
-1.0137317	<s> i	-1.8763556
-1.3235905	m i	-0.5042372
-1.0849049	n i	-0.4582346
-0.8135467	q i	-0.539509
-1.9778781	o i	-0.22762093
-1.0452887	p i	-0.34773383
-0.8790153	h i	-0.49147776
-0.8257814	w i	-0.5426595
-1.973255	e i	-0.22762093
-0.92800546	b i	-0.48056257
-1.9151325	u i	-0.22762093
-0.8691453	s i	-0.59980065
-1.7060777	a i	-0.35367778
-0.9232107	y i	-0.50113237
-2.048427	i i	-0.29679745
-1.07179	d i	-0.43641508
-1.1155123	S i	-0.28007948
-0.6799859	z i	-0.5893322
-1.2616549	B i	-0.33601096
-0.87490976	l i	-0.6009478
-1.5399743	A i	-0.22762093
-0.8561879	f i	-0.43151227
-0.9152972	r i	-0.40095127
-1.1199704	k i	-0.4673854
-1.1079028	g i	-0.34144598
-1.1037984	t i	-0.4045961
-1.5630572	I i	-0.22762093
-0.7073897	j i	-0.40241396
-1.3641391	C i	-0.22762093
-1.392289	T i	-0.22762093
-1.210914	P i	-0.31206068
-1.2190206	G i	-0.22762093
-0.78028154	v i	-0.37205955
-1.5873228	K i	-0.22762093
-1.2395815	N i	-0.29679745
-0.8491911	Z i	-0.32876113
-0.83402944	V i	-0.28668672
-0.97614455	L i	-0.31018305
-1.0043063	c i	-0.3645371
-0.6913965	Q i	-0.45599753
-1.2530241	F i	-0.22762093
-1.0015887	R i	-0.26083332
-1.1206272	x i	-0.22762093
-1.2366858	M i	-0.29679745
-1.4648093	H i	-0.22762093
-1.2080351	Y i	-0.22762093
-1.3121413	W i	-0.22762093
-1.2574724	J i	-0.22762093
-1.4247524	D i	-0.22762093
-3.4618146	<s> d	-0.37370515
-1.7013938	m d	-0.26083332
-1.2887608	n d	-0.5101572
-1.458638	o d	-0.5030841
-1.4464865	e d	-0.5466342
-1.580444	u d	-0.44502476
-1.318709	a d	-0.7282609
-1.5153244	i d	-0.5548094
-2.0544615	d d	-0.22762093
-1.7085712	l d	-0.31206068
-1.8446654	A d	-0.22762093
-1.8243425	r d	-0.29679745
-1.8821634	I d	-0.22762093
-1.838648	E d	-0.22762093
-1.2133452	N d	-0.35367778
-2.0480325	<s> S	-1.2298479
-1.5670722	U S	-0.22762093
-1.9318874	m S	-0.33601096
-2.0951304	n S	-0.22762093
-2.0214431	o S	-0.31359035
-1.781703	e S	-0.5304422
-1.8710973	u S	-0.35063457
-2.0418417	a S	-0.43281478
-1.9920275	i S	-0.34160328
-1.9717209	d S	-0.22762093
-1.8590454	S S	-0.22762093
-1.5092682	A S	-0.22762093
-2.0291345	r S	-0.22762093
-2.097998	t S	-0.22762093
-1.1298976	I S	-0.25347802
-1.5385952	T S	-0.33601096
-1.3235298	P S	-0.22762093
-1.6131108	G S	-0.22762093
-1.0784581	E S	-0.28621453
-1.2602718	O S	-0.22762093
-1.6032996	R S	-0.22762093
-1.534058	M S	-0.22762093
-1.5868627	D S	-0.22762093
-1.6311945	<s> z	-2.1823173
-1.6073316	U z	-0.22762093
-1.7991587	m z	-0.36509296
-1.53347	n z	-0.41457516
-1.6573739	o z	-0.50962347
-1.4645777	e z	-0.8886997
-1.3878082	u z	-0.6896539
-2.1113575	s z	-0.22762093
-1.410448	a z	-0.8170532
-1.4038615	i z	-0.83166116
-1.3654544	d z	-0.3980056
-1.8073468	A z	-0.22762093
-1.8610296	t z	-0.22762093
-1.8424577	I z	-0.22762093
-1.5396737	E z	-0.33601096
-1.8223491	v z	-0.22762093
-1.3379704	N z	-0.3027997
-1.6059915	O z	-0.22762093
-2.547601	<s> B	-0.94550526
-1.8500746	m B	-0.29679745
-2.2841296	o B	-0.3310588
-1.823847	e B	-0.4730535
-2.238543	u B	-0.26897544
-2.4089215	a B	-0.31206068
-2.0632005	i B	-0.34811473
-1.6812661	S B	-0.22762093
-1.9414712	I B	-0.22762093
-1.8961974	E B	-0.22762093
-1.8752816	L B	-0.22762093
-1.2793518	<s> l	-2.3831315
-1.4662187	m l	-0.48533314
-1.7992399	n l	-0.29679745
-1.2133098	o l	-0.64567953
-1.1289369	p l	-0.37024048
-1.0371282	h l	-0.6990356
-1.949007	w l	-0.22762093
-1.2066903	e l	-0.9412934
-1.5698607	b l	-0.29679745
-1.1429032	u l	-0.88456166
-1.9578013	s l	-0.22762093
-1.1600455	a l	-0.88640314
-1.216512	i l	-0.78784657
-0.9817955	d l	-0.586824
-1.6100912	B l	-0.22762093
-1.5276664	l l	-0.3092419
-1.6492404	A l	-0.22762093
-1.5807102	f l	-0.22762093
-1.735169	r l	-0.22762093
-1.9462498	k l	-0.22762093
-1.6791682	g l	-0.22762093
-1.214235	t l	-0.596821
-1.6763302	I l	-0.22762093
-1.4412509	C l	-0.22762093
-1.069564	T l	-0.51098096
-1.5662359	P l	-0.22762093
-1.6373836	E l	-0.22762093
-1.4153812	K l	-0.22762093
-1.4947495	O l	-0.22762093
-1.8010627	c l	-0.22762093
-1.5742438	F l	-0.22762093
-1.6774428	M l	-0.22762093
-0.5728105	H l	-0.60478336
-1.5107926	D l	-0.22762093
-1.8559004	<s> A	-1.2712592
-1.7659523	w A	-0.22762093
-2.1230257	s A	-0.22762093
-0.91383666	S A	-0.38170415
-1.8194336	A A	-0.22762093
-1.5351413	T A	-0.29679745
-1.3179334	G A	-0.22762093
-1.5464964	E A	-0.22762093
-1.5090886	Z A	-0.22762093
-1.2678853	L A	-0.3027997
-1.356098	F A	-0.22762093
-1.6482664	R A	-0.22762093
-1.5710075	M A	-0.27844325
-1.3070332	H A	-0.22762093
-0.66037166	W A	-0.47889093
-1.3880178	J A	-0.22762093
-1.6347576	D A	-0.22762093
-3.381421	<s> f	-0.5156231
-1.574831	U f	-0.22762093
-1.5062741	m f	-0.4791609
-1.8837261	n f	-0.29679745
-1.6464541	o f	-0.32871616
-1.9669386	p f	-0.22762093
-2.1733944	h f	-0.22762093
-2.038837	w f	-0.22762093
-1.6589935	e f	-0.53467315
-1.7926232	u f	-0.43068576
-2.0675874	s f	-0.22762093
-1.6914103	a f	-0.64567953
-1.5662143	i f	-0.62484974
-1.9085337	l f	-0.22762093
-1.7621069	A f	-0.22762093
-1.2463492	f f	-0.34321436
-2.040468	r f	-0.22762093
-2.1089249	t f	-0.22762093
-1.7946011	I f	-0.22762093
-1.7532898	E f	-0.22762093
-1.575398	O f	-0.22762093
-1.7892253	M f	-0.22762093
-3.9046047	<s> r	-0.45599753
-1.5373528	U r	-0.22762093
-1.7414035	m r	-0.37267825
-2.0472836	n r	-0.22762093
-1.1666859	o r	-0.49515605
-1.2192345	p r	-0.31359035
-1.5267507	h r	-0.31908795
-1.3156209	e r	-0.64355505
-1.2928147	u r	-0.49027145
-2.0184317	s r	-0.22762093
-1.306345	a r	-0.5681398
-1.4396212	i r	-0.5481058
-1.6867039	d r	-0.22762093
-1.3646841	B r	-0.33601096
-1.7114725	A r	-0.22762093
-1.6055175	f r	-0.33601096
-1.7769082	r r	-0.26779184
-1.1375433	g r	-0.54876953
-1.2813296	t r	-0.38842314
-1.7413596	I r	-0.22762093
-1.7609322	T r	-0.22762093
-1.6098148	P r	-0.22762093
-0.90895367	G r	-0.3997097
-1.539958	O r	-0.22762093
-1.5828321	c r	-0.29679745
-1.6184747	F r	-0.22762093
-1.7391119	M r	-0.22762093
-0.94791424	<s> k	-2.5378904
-1.5907773	U k	-0.22762093
-1.5866098	m k	-0.54583776
-1.7371588	n k	-0.3345194
-1.2472502	o k	-0.8185418
-1.3237064	e k	-0.84602237
-1.302956	u k	-0.70672244
-2.0889213	s k	-0.22762093
-1.2653943	a k	-0.94550526
-1.2622337	i k	-0.8646614
-1.8903311	S k	-0.22762093
-1.9192643	l k	-0.22762093
-1.5276539	A k	-0.22762093
-1.8230895	r k	-0.22762093
-1.8178705	I k	-0.22762093
-1.7760152	E k	-0.22762093
-1.5534524	N k	-0.22762093
-1.5904254	O k	-0.22762093
-1.4261128	c k	-0.28668672
-1.8110105	M k	-0.22762093
-2.7988603	<s> g	-1.0829616
-1.5908376	m g	-0.5371529
-1.2359543	n g	-0.61181617
-1.7097005	o g	-0.34404257
-2.064531	w g	-0.22762093
-1.5980927	e g	-0.5458364
-1.617713	u g	-0.32427084
-1.7968456	s g	-0.29679745
-1.5032114	a g	-0.5256541
-1.6085472	i g	-0.42103288
-2.011124	d g	-0.22762093
-1.7955874	A g	-0.22762093
-1.6171684	r g	-0.26779184
-1.1539358	k g	-0.6549822
-2.0319202	g g	-0.22762093
-1.8299901	I g	-0.22762093
-1.5153445	K g	-0.33601096
-1.1018977	N g	-0.33629906
-1.9365638	c g	-0.22762093
-2.9039228	<s> t	-0.7099566
-1.544594	U t	-0.22762093
-1.4325624	m t	-0.5699507
-1.2238815	n t	-0.55141747
-1.2827046	o t	-0.54259413
-1.6706592	p t	-0.22762093
-1.8780513	h t	-0.22762093
-2.0067842	w t	-0.22762093
-1.3336782	e t	-0.61113423
-1.1874133	u t	-0.66653425
-1.2155347	s t	-0.39596543
-1.230889	a t	-0.79180235
-1.2732304	i t	-0.66057444
-1.5589774	S t	-0.28621453
-1.8878367	l t	-0.22762093
-1.9002649	f t	-0.22762093
-1.4681625	r t	-0.27750945
-1.7464516	k t	-0.22762093
-1.9614311	g t	-0.22762093
-1.8136841	t t	-0.29679745
-1.7514985	I t	-0.22762093
-1.3103695	N t	-0.40648565
-1.5468185	O t	-0.22762093
-1.2797093	c t	-0.30792028
-1.190352	x t	-0.22762093
-1.5166988	M t	-0.29679745
-1.8104631	<s> I	-1.131232
-2.0322523	d I	-0.22762093
-1.642919	S I	-0.22762093
-1.8194336	A I	-0.22762093
-1.5945476	I I	-0.29679745
-1.1653455	C I	-0.22762093
-1.3388364	T I	-0.22762093
-1.8125013	E I	-0.22762093
-1.8529079	N I	-0.22762093
-1.5090886	Z I	-0.22762093
-1.506789	L I	-0.22762093
-1.3157114	F I	-0.29679745
-1.0626949	R I	-0.22762093
-1.5710075	M I	-0.27844325
-1.6499387	H I	-0.22762093
-1.3880178	J I	-0.22762093
-1.2681344	D I	-0.3310588
-4.1919518	<s> j	-0.29679745
-2.0487852	m j	-0.33601096
-1.554803	n j	-0.5306312
-1.974057	o j	-0.31359035
-1.7255472	e j	-0.5224561
-1.8404229	u j	-0.47889093
-1.7619945	a j	-0.49562487
-1.7109075	i j	-0.43281478
-1.1934665	t j	-0.596821
-1.9258678	I j	-0.22762093
-0.9557612	T j	-0.539509
-1.9155023	N j	-0.22762093
-2.570215	<s> C	-0.8716178
-2.6299975	o C	-0.22762093
-2.7278209	e C	-0.22762093
-2.3126116	u C	-0.27844325
-1.6101351	A C	-0.22762093
-1.9919562	I C	-0.22762093
-1.3503562	G C	-0.29679745
-1.7678318	F C	-0.22762093
-2.7715309	<s> T	-0.5953213
-1.6037736	m T	-0.5136531
-1.9642843	n T	-0.27844325
-2.4602818	o T	-0.22762093
-1.9950658	e T	-0.34835243
-2.024722	u T	-0.31359035
-2.0823462	a T	-0.27844325
-2.145668	i T	-0.37370515
-1.6125731	S T	-0.22762093
-1.3250366	A T	-0.22762093
-1.3787551	I T	-0.22762093
-1.5182265	E T	-0.29679745
-1.8195366	L T	-0.22762093
-1.6221362	O T	-0.22762093
-1.6562352	R T	-0.22762093
-1.6572132	H T	-0.22762093
-2.7263482	<s> P	-0.8174324
-1.651708	U P	-0.22762093
-1.8349081	m P	-0.45599753
-2.5164425	o P	-0.22762093
-1.8165329	e P	-0.511221
-2.0485353	u P	-0.3997097
-2.1009326	a P	-0.3997097
-1.9570689	i P	-0.3997097
-1.8714541	A P	-0.22762093
-1.3920002	I P	-0.22762093
-1.5791277	C P	-0.22762093
-1.6810586	R P	-0.22762093
-1.3241265	D P	-0.33601096
-3.110336	<s> G	-0.4591859
-1.6708112	U G	-0.22762093
-2.303771	m G	-0.22762093
-2.281822	n G	-0.22762093
-2.2370195	e G	-0.29045078
-2.5002258	u G	-0.22762093
-2.4399335	a G	-0.22762093
-2.3904579	i G	-0.29679745
-1.9000046	A G	-0.22762093
-1.6396968	I G	-0.22762093
-1.6095823	N G	-0.22762093
-2.4248846	<s> E	-0.6761574
-2.0557964	w E	-0.22762093
-1.6249447	S E	-0.22762093
-1.7072858	B E	-0.22762093
-2.0211225	g E	-0.22762093
-1.8178705	I E	-0.22762093
-1.5281487	C E	-0.22762093
-1.8280997	T E	-0.22762093
-1.6341621	G E	-0.22762093
-1.7760152	E E	-0.22762093
-1.7998284	K E	-0.22762093
-1.481023	V E	-0.22762093
-1.4551828	L E	-0.22762093
-1.3033943	R E	-0.22762093
-1.5181277	M E	-0.22762093
-1.6288188	H E	-0.22762093
-1.3162662	Y E	-0.22762093
-1.0658259	W E	-0.22762093
-1.3739704	J E	-0.22762093
-1.2961552	D E	-0.22762093
-3.4673579	<s> v	-0.6668509
-1.651708	U v	-0.22762093
-1.5389432	m v	-0.5083828
-1.9933004	n v	-0.22762093
-1.6714214	o v	-0.44531646
-1.7670407	e v	-0.62056357
-1.9290214	u v	-0.3222368
-1.7141852	a v	-0.60060817
-1.5189904	i v	-0.662756
-2.158489	r v	-0.22762093
-1.6241196	I v	-0.22762093
-1.8664701	E v	-0.22762093
-1.5975114	M v	-0.22762093
-2.2222466	<s> K	-1.252811
-1.3078357	U K	-0.22762093
-1.7124945	m K	-0.5529076
-1.9599956	n K	-0.3027997
-2.2613282	o K	-0.22762093
-1.7670407	e K	-0.57623684
-1.9290214	u K	-0.3269674
-2.2197754	a K	-0.37024048
-2.0504985	i K	-0.3997097
-1.5364227	A K	-0.22762093
-1.6241196	I K	-0.22762093
-1.5379996	E K	-0.29679745
-1.0401361	O K	-0.3027997
-1.9690747	<s> N	-1.6117897
-1.2745174	U N	-0.28668672
-1.7238865	m N	-0.44697624
-2.1058538	o N	-0.27844325
-1.7735612	e N	-0.5281846
-1.8455055	u N	-0.32871616
-2.2367475	a N	-0.28621453
-1.8887646	i N	-0.31889185
-1.7836484	B N	-0.22762093
-1.6019249	I N	-0.22762093
-1.3493004	E N	-0.22762093
-4.740909	<s> X	-0.22762093
-2.8825119	i X	-0.22762093
-2.9566448	<s> Z	-0.9323175
-2.0611544	m Z	-0.33601096
-2.281822	n Z	-0.22762093
-2.1171541	e Z	-0.31359035
-2.269827	u Z	-0.22762093
-2.4399335	a Z	-0.22762093
-2.3593016	i Z	-0.22762093
-1.7836484	B Z	-0.22762093
-1.9414712	I Z	-0.22762093
-1.8961974	E Z	-0.22762093
-1.9291816	N Z	-0.22762093
-3.860589	<s> V	-0.26083332
-2.0650895	m V	-0.3027997
-2.4473062	e V	-0.29679745
-2.5756736	u V	-0.22762093
-2.4336078	i V	-0.22762093
-1.9919562	I V	-0.22762093
-1.9449912	E V	-0.22762093
-1.7258706	R V	-0.22762093
-2.2928216	<s> L	-1.3892127
-1.2953176	U L	-0.22762093
-2.0025563	m L	-0.33601096
-2.19412	n L	-0.22762093
-2.2292247	o L	-0.3310588
-1.9224184	e L	-0.44731188
-2.1795497	u L	-0.29918844
-1.9926637	a L	-0.31908795
-2.145668	i L	-0.29679745
-1.3250366	A L	-0.22762093
-1.601754	I L	-0.22762093
-1.3279969	E L	-0.22762093
-1.8195366	L L	-0.22762093
-1.2860444	O L	-0.22762093
-1.3103211	H L	-0.22762093
-1.6432799	D L	-0.22762093
-2.7678747	<s> O	-0.67486084
-1.688	S O	-0.33601096
-1.9576561	I O	-0.22762093
-1.6029514	C O	-0.22762093
-1.7384392	P O	-0.22762093
-1.5208106	K O	-0.27844325
-1.5029316	L O	-0.29679745
-1.7036216	H O	-0.22762093
-0.9640524	Y O	-0.22762093
-1.6982565	D O	-0.22762093
-3.524096	<s> c	-0.45739064
-2.15638	m c	-0.22762093
-1.5300143	n c	-0.37267825
-1.846647	o c	-0.25593033
-1.6666297	e c	-0.34505704
-1.8933487	u c	-0.34321436
-2.0999944	s c	-0.22762093
-1.8442996	a c	-0.32242018
-1.4265499	i c	-0.47983563
-1.4061326	S c	-0.36586797
-1.7955874	A c	-0.22762093
-1.6171684	r c	-0.3027997
-1.1488439	g c	-0.44427422
-1.6414121	G c	-0.22762093
-1.7878399	E c	-0.22762093
-1.3344228	N c	-0.27844325
-1.5981387	O c	-0.22762093
-1.622116	c c	-0.22762093
-0.8301893	x c	-0.29679745
-3.9657042	<s> Q	-0.33303288
-2.6567621	o Q	-0.22762093
-2.4630868	e Q	-0.29679745
-2.6040466	u Q	-0.22762093
-2.7727087	a Q	-0.22762093
-2.4135263	i Q	-0.3027997
-1.962555	E Q	-0.22762093
-2.9451509	<s> F	-0.6484501
-1.6611546	U F	-0.22762093
-2.0171862	m F	-0.3027997
-2.5369017	o F	-0.22762093
-2.1099677	e F	-0.36586797
-2.2564535	u F	-0.31206068
-2.396244	a F	-0.22762093
-2.3769774	i F	-0.29679745
-1.542858	A F	-0.22762093
-1.6318383	I F	-0.22762093
-1.8810796	E F	-0.22762093
-1.9110618	M F	-0.22762093
-2.896316	<s> R	-0.78527325
-1.3163861	U R	-0.22762093
-2.3165333	o R	-0.33601096
-2.0233169	e R	-0.3539522
-2.238543	u R	-0.27844325
-2.4399335	a R	-0.26779184
-1.5493901	A R	-0.27844325
-1.9414712	I R	-0.22762093
-1.7297214	P R	-0.22762093
-1.5898496	E R	-0.22762093
-1.6653371	O R	-0.22762093
-2.7486527	o x	-0.22762093
-2.5141914	e x	-0.22762093
-2.8230116	i x	-0.22762093
-2.0199587	E x	-0.22762093
-2.5427513	<s> M	-0.9227782
-1.3078357	U M	-0.22762093
-1.8730834	o M	-0.28846866
-1.9365282	e M	-0.35352325
-1.9290214	u M	-0.29658133
-2.1009326	a M	-0.32876113
-2.3639028	i M	-0.22762093
-1.3369778	A M	-0.27626756
-1.5876242	I M	-0.29679745
-1.9075903	T M	-0.22762093
-1.8664701	E M	-0.22762093
-1.5220232	V M	-0.22762093
-1.2975757	O M	-0.22762093
-3.2679336	<s> H	-0.5354391
-1.6245419	U H	-0.22762093
-1.6959481	m H	-0.47889093
-1.9642843	n H	-0.33601096
-2.4602818	o H	-0.22762093
-1.8601995	e H	-0.58830535
-2.2067327	u H	-0.22762093
-2.3489392	a H	-0.3310588
-1.9421844	i H	-0.6320888
-1.8318663	A H	-0.22762093
-1.8685207	I H	-0.22762093
-1.5775915	T H	-0.22762093
-1.3479134	P H	-0.22762093
-1.6639184	G H	-0.22762093
-1.5303296	K H	-0.22762093
-1.3928031	J H	-0.22762093
-2.939709	<s> Y	-0.7033535
-2.4794624	e Y	-0.3310588
-2.6344037	u Y	-0.22762093
-2.8035038	a Y	-0.22762093
-1.9808593	E Y	-0.22762093
-1.7375668	H Y	-0.22762093
-2.9468303	<s> W	-0.9427829
-2.448045	e W	-0.22762093
-2.6915922	a W	-0.22762093
-2.014684	S W	-0.22762093
-2.1705754	k W	-0.22762093
-1.5208106	K W	-0.33601096
-1.9433056	N W	-0.22762093
-1.5557715	Z W	-0.22762093
-1.5439832	L W	-0.33601096
-1.7036216	H W	-0.22762093
-3.3568017	<s> J	-0.68556803
-2.1005278	m J	-0.33601096
-2.4802582	e J	-0.33601096
-2.3126116	u J	-0.29679745
-2.4493384	a J	-0.29679745
-2.695446	i J	-0.22762093
-1.6269192	T J	-0.22762093
-1.9449912	E J	-0.22762093
-2.8855646	<s> D	-0.80276084
-1.9933004	n D	-0.33601096
-2.3760064	e D	-0.22762093
-2.0485353	u D	-0.33388168
-2.3839262	a D	-0.22762093
-2.3639028	i D	-0.33601096
-1.9108056	I D	-0.22762093
-1.5791277	C D	-0.22762093
-1.6876549	G D	-0.22762093
-1.8664701	E D	-0.22762093
-1.5583649	N D	-0.25593033
-1.6475378	O D	-0.22762093
-1.8972204	M D	-0.22762093
-4.7679152	<s> Â	-0.22762093

\3-grams:
-2.4120843	<s> U </s>	0
-0.348257	C U </s>	0
-0.348257	M U </s>	0
-1.6005512	o m </s>	0
-1.8947744	e m </s>	0
-1.6640445	u m </s>	0
-0.36704013	s m </s>	0
-1.8378758	i m </s>	0
-0.80258465	r m </s>	0
-0.92036283	M m </s>	0
-0.9594106	n n </s>	0
-1.2498305	o n </s>	0
-0.9594106	h n </s>	0
-0.35766587	w n </s>	0
-1.7705892	e n </s>	0
-1.4928812	a n </s>	0
-1.7468209	i n </s>	0
-1.0733632	r n </s>	0
-0.6291034	g n </s>	0
-0.9948665	m q </s>	0
-1.6203598	a q </s>	0
-2.6768856	<s> o </s>	0
-0.74094564	m o </s>	0
-1.0573955	n o </s>	0
-1.2485007	o o </s>	0
-1.1276414	p o </s>	0
-0.9758573	h o </s>	0
-0.7237998	w o </s>	0
-0.62376416	e o </s>	0
-0.96424633	b o </s>	0
-1.0260057	s o </s>	0
-0.3547998	a o </s>	0
-0.7269588	y o </s>	0
-1.0201786	d o </s>	0
-0.8209693	z o </s>	0
-0.95362025	l o </s>	0
-0.851309	r o </s>	0
-0.97377914	k o </s>	0
-1.2085053	g o </s>	0
-0.6139255	t o </s>	0
-0.62376416	j o </s>	0
-0.6810349	v o </s>	0
-1.2068831	o p </s>	0
-1.7775933	e p </s>	0
-1.3928696	u p </s>	0
-1.6061671	i p </s>	0
-1.2074872	s h </s>	0
-1.7111787	r h </s>	0
-1.2929214	g h </s>	0
-1.1927451	t h </s>	0
-0.6518433	W h </s>	0
-1.5134763	o w </s>	0
-1.627395	e w </s>	0
-1.3869073	u w </s>	0
-1.7497511	<s> e </s>	0
-1.0366509	m e </s>	0
-1.1255076	n e </s>	0
-0.7832635	o e </s>	0
-0.8970168	p e </s>	0
-1.0247334	h e </s>	0
-0.9038975	w e </s>	0
-1.2985749	e e </s>	0
-0.9997043	b e </s>	0
-0.41607666	u e </s>	0
-1.0745367	s e </s>	0
-0.94564575	y e </s>	0
-1.2731372	i e </s>	0
-0.77695125	d e </s>	0
-1.0639026	z e </s>	0
-0.9766712	l e </s>	0
-1.4100286	f e </s>	0
-0.904455	r e </s>	0
-0.81636953	k e </s>	0
-1.290548	g e </s>	0
-0.82180166	t e </s>	0
-1.1539792	j e </s>	0
-1.0026056	v e </s>	0
-1.2856063	L e </s>	0
-0.80429006	c e </s>	0
-2.0617719	a b </s>	0
-1.9052665	i b </s>	0
-1.8914033	<s> u </s>	0
-0.9548665	m u </s>	0
-0.61191964	n u </s>	0
-1.2193583	q u </s>	0
-1.2025793	h u </s>	0
-1.2381161	w u </s>	0
-1.4071062	b u </s>	0
-1.4270443	s u </s>	0
-0.86297566	a u </s>	0
-1.1277725	y u </s>	0
-0.80098766	d u </s>	0
-1.048811	z u </s>	0
-1.3086227	l u </s>	0
-1.4646606	f u </s>	0
-0.91252935	r u </s>	0
-1.5349611	k u </s>	0
-1.289646	g u </s>	0
-1.024301	t u </s>	0
-1.4545717	v u </s>	0
-1.3866589	K u </s>	0
-0.9591961	m s </s>	0
-0.87297547	n s </s>	0
-1.2872254	o s </s>	0
-0.88950723	e s </s>	0
-0.9668107	s s </s>	0
-1.1540658	a s </s>	0
-0.23682202	d s </s>	0
-0.7304083	l s </s>	0
-0.38044313	r s </s>	0
-0.33103153	g s </s>	0
-1.1003786	t s </s>	0
-0.33103153	c s </s>	0
-2.9096794	<s> a </s>	0
-1.1959009	m a </s>	0
-0.9876894	n a </s>	0
-1.0669377	p a </s>	0
-1.1175671	h a </s>	0
-0.89761007	w a </s>	0
-1.1829633	b a </s>	0
-0.7849836	u a </s>	0
-1.2132411	s a </s>	0
-1.0959355	y a </s>	0
-0.48685557	i a </s>	0
-0.8579345	d a </s>	0
-1.0465012	z a </s>	0
-1.0445186	l a </s>	0
-1.1534541	f a </s>	0
-1.1378051	r a </s>	0
-1.1382856	k a </s>	0
-1.2206243	g a </s>	0
-1.1162804	t a </s>	0
-1.1763241	j a </s>	0
-1.063211	v a </s>	0
-1.1126773	c a </s>	0
-0.9698303	F a </s>	0
-1.4186846	M a </s>	0
-1.1614679	n y </s>	0
-1.1418357	e y </s>	0
-1.5528107	a y </s>	0
-0.31174582	d y </s>	0
-0.5469065	l y </s>	0
-0.15659714	r y </s>	0
-0.22448857	g y </s>	0
-0.4091857	t y </s>	0
-0.22116855	c y </s>	0
-1.2881702	<s> i </s>	0
-1.309948	m i </s>	0
-1.091213	n i </s>	0
-0.78364027	p i </s>	0
-1.1281232	h i </s>	0
-1.2089097	w i </s>	0
-1.0602592	b i </s>	0
-1.3657402	s i </s>	0
-1.1171598	y i </s>	0
-1.0428354	i i </s>	0
-0.8618242	d i </s>	0
-1.2653326	z i </s>	0
-1.2436367	l i </s>	0
-1.4989946	f i </s>	0
-0.95202833	r i </s>	0
-0.97766227	k i </s>	0
-1.3006464	g i </s>	0
-0.88656235	t i </s>	0
-1.0589273	j i </s>	0
-1.0335739	R i </s>	0
-1.0571696	n d </s>	0
-1.3952855	o d </s>	0
-0.9767306	e d </s>	0
-1.3613025	u d </s>	0
-1.5026361	a d </s>	0
-1.3052431	i d </s>	0
-0.59155697	l d </s>	0
-0.6543116	r d </s>	0
-0.70627916	A S </s>	0
-1.025653	I S </s>	0
-0.23211862	T S </s>	0
-0.5773295	P S </s>	0
-0.6841529	E S </s>	0
-0.3291884	R S </s>	0
-0.5773295	M S </s>	0
-0.3291884	D S </s>	0
-0.3706711	s z </s>	0
-1.9375516	a z </s>	0
-0.8125555	t z </s>	0
-1.3916376	<s> B </s>	0
-0.35745	I B </s>	0
-0.35745	L B </s>	0
-1.7131537	o l </s>	0
-1.5198085	e l </s>	0
-1.9520358	u l </s>	0
-1.1774056	a l </s>	0
-1.3898176	i l </s>	0
-0.7390833	l l </s>	0
-0.36163762	k l </s>	0
-1.684402	<s> A </s>	0
-0.4099898	S A </s>	0
-0.36488327	T A </s>	0
-0.3071996	Z A </s>	0
-0.32645994	L A </s>	0
-0.53912276	F A </s>	0
-0.1886201	W A </s>	0
-0.3071996	J A </s>	0
-0.3071996	D A </s>	0
-1.3629317	o f </s>	0
-1.4529623	u f </s>	0
-0.6538254	l f </s>	0
-1.3842025	o r </s>	0
-0.8643424	e r </s>	0
-1.102369	u r </s>	0
-1.4661171	a r </s>	0
-1.6206902	i r </s>	0
-1.1600806	n k </s>	0
-0.6506604	l k </s>	0
-0.6506604	r k </s>	0
-0.47220945	c k </s>	0
-1.6465167	n g </s>	0
-1.7437142	a g </s>	0
-0.640716	r g </s>	0
-1.1496825	n t </s>	0
-1.3022631	o t </s>	0
-0.6022729	p t </s>	0
-1.3446698	e t </s>	0
-0.9540025	s t </s>	0
-1.3794357	a t </s>	0
-1.2711052	i t </s>	0
-0.34309882	f t </s>	0
-0.9285231	r t </s>	0
-0.80168605	c t </s>	0
-0.34309882	x t </s>	0
-1.0587245	<s> I </s>	0
-0.381279	I I </s>	0
-0.77403724	C I </s>	0
-0.77403724	T I </s>	0
-0.32404366	E I </s>	0
-0.79335177	M I </s>	0
-0.32404366	H I </s>	0
-0.23237602	D I </s>	0
-1.3338493	<s> C </s>	0
-0.7447103	A C </s>	0
-0.7732089	S T </s>	0
-0.8710172	A T </s>	0
-0.35603234	L T </s>	0
-0.35603234	R T </s>	0
-0.35356018	C P </s>	0
-0.35356018	R P </s>	0
-0.2471427	D P </s>	0
-1.6171634	<s> E </s>	0
-0.35365984	K E </s>	0
-0.76703614	L E </s>	0
-0.76703614	D E </s>	0
-0.3746591	B N </s>	0
-0.3633136	E Z </s>	0
-0.9430612	<s> V </s>	0
-0.33951274	I V </s>	0
-0.3739386	L L </s>	0
-0.23135567	S O </s>	0
-0.48877257	K O </s>	0
-0.57516485	Y O </s>	0
-0.3279646	D O </s>	0
-0.7667887	i c </s>	0
-0.9218109	A F </s>	0
-1.2164471	<s> R </s>	0
-0.8383504	e x </s>	0
-0.3741908	T M </s>	0
-1.4843333	<s> D </s>	0
-0.3498953	C D </s>	0
-0.3498953	E D </s>	0
-0.15650791	<s> Â </s>	0
-0.8233583	A C U	-0.21392553
-2.2474036	<s> K U	-0.21392553
-0.8471274	U K U	-0.21392553
-0.8471274	A K U	-0.21392553
-0.76887774	E K U	-0.21392553
-0.36263832	O K U	-0.2508958
-0.6753002	H L U	-0.21392553
-0.64192307	U F U	-0.21392553
-0.36448056	M F U	-0.21392553
-1.1328756	A M U	-0.21392553
-0.78730756	T H U	-0.21392553
-0.6360562	P H U	-0.21392553
-0.36335388	H Y U	-0.21392553
-0.5672452	<s> U m	-0.6755207
-1.8215125	o m m	-0.25644386
-1.8522182	u m m	-0.21392553
-2.1926866	o n m	-0.21392553
-1.1910044	r n m	-0.21392553
-1.1255533	<s> o m	-1.1052746
-1.325425	m o m	-0.21392553
-0.8913906	n o m	-0.30164865
-0.96201456	o o m	-0.29130855
-1.2068614	h o m	-0.2659331
-1.1038189	w o m	-0.22187349
-1.1323812	b o m	-0.24629317
-1.0117052	s o m	-0.26224566
-1.377204	y o m	-0.21392553
-1.120508	d o m	-0.21392553
-0.7328048	S o m	-0.2886151
-0.737309	z o m	-0.29162967
-0.98726296	l o m	-0.2701483
-1.2530589	f o m	-0.21392553
-1.1946748	r o m	-0.21392553
-0.8906309	k o m	-0.2578013
-0.8753136	g o m	-0.25474465
-1.3190428	t o m	-0.21392553
-0.8359549	C o m	-0.2508958
-0.51590014	G o m	-0.29130855
-0.5420517	K o m	-0.5086775
-0.6674364	N o m	-0.25644386
-0.9413778	Z o m	-0.21392553
-1.0079072	L o m	-0.21392553
-0.96350527	c o m	-0.21392553
-0.8480124	W o m	-0.21392553
-1.2792269	o p m	-0.29130855
-0.9391143	<s> e m	-1.1508055
-1.04623	m e m	-0.27563435
-1.2848446	n e m	-0.32392505
-1.031997	h e m	-0.2752404
-1.475481	w e m	-0.3023887
-0.6828737	e e m	-0.5907163
-1.4607612	b e m	-0.23466457
-1.259843	s e m	-0.32805252
-1.4956578	y e m	-0.21392553
-1.2444758	d e m	-0.2868287
-1.4478664	z e m	-0.2639533
-1.3675297	l e m	-0.24966666
-1.3776164	r e m	-0.21392553
-1.3302672	k e m	-0.21392553
-1.072184	g e m	-0.2653382
-1.2042038	t e m	-0.2508958
-1.4324468	j e m	-0.21392553
-0.89634	T e m	-0.21392553
-0.6402813	E e m	-0.21392553
-1.5743126	v e m	-0.21392553
-1.3135091	L e m	-0.21392553
-1.0963695	M e m	-0.21392553
-1.217401	D e m	-0.21392553
-0.6987739	<s> u m	-1.1326008
-0.8516798	m u m	-0.315758
-0.45032623	p u m	-0.2674239
-0.8735726	h u m	-0.37120998
-1.1676698	b u m	-0.42494044
-0.34581202	i u m	-0.21392553
-0.9411375	d u m	-0.2674239
-0.9543757	S u m	-0.21392553
-1.2795812	z u m	-0.21392553
-1.0975398	B u m	-0.29130855
-1.271686	l u m	-0.25644386
-0.9504632	f u m	-0.3537755
-1.1312902	r u m	-0.21392553
-1.3131906	k u m	-0.3392387
-1.243997	g u m	-0.21392553
-0.9967976	t u m	-0.29130855
-0.60721344	P u m	-0.21392553
-0.78968006	v u m	-0.4057266
-1.3262309	K u m	-0.21392553
-0.34581202	X u m	-0.21392553
-0.76265955	Z u m	-0.21392553
-0.5119029	V u m	-0.21392553
-1.244161	L u m	-0.21392553
-1.0862986	c u m	-0.21392553
-1.2247717	F u m	-0.21392553
-0.34581202	H u m	-0.21392553
-1.752739	i s m	-0.2868287
-0.52185196	<s> a m	-1.9120487
-1.4836323	m a m	-0.2590812
-1.0390621	n a m	-0.3745942
-1.2206115	h a m	-0.30731067
-1.2718596	w a m	-0.3643339
-1.2234609	b a m	-0.30071983
-1.1976352	s a m	-0.30432227
-1.1515484	y a m	-0.31735778
-1.3069209	i a m	-0.21392553
-1.2049937	d a m	-0.2508958
-0.9513312	S a m	-0.2639533
-1.1073393	z a m	-0.3963841
-1.0831286	l a m	-0.4024722
-1.5594705	r a m	-0.21392553
-1.0201879	k a m	-0.3865858
-1.0176924	g a m	-0.40400767
-1.2239324	t a m	-0.21392553
-0.64713234	j a m	-0.40400767
-0.68604594	T a m	-0.29130855
-1.1624894	G a m	-0.21392553
-1.05077	v a m	-0.25618398
-0.68569094	K a m	-0.2639533
-1.0456275	N a m	-0.21392553
-0.68604594	Z a m	-0.21392553
-0.41268232	V a m	-0.29130855
-1.0643406	L a m	-0.21392553
-0.7740547	Y a m	-0.21392553
-0.6455653	J a m	-0.2639533
-1.0431268	D a m	-0.21392553
-0.67453134	l y m	-0.21392553
-0.8866859	<s> i m	-1.6461608
-1.2939945	m i m	-0.24884918
-1.4291716	n i m	-0.21392553
-1.28643	q i m	-0.21392553
-1.3428718	p i m	-0.21392553
-1.4648007	h i m	-0.2639533
-1.4104142	s i m	-0.29328617
-1.4716359	y i m	-0.2746895
-0.6879489	i i m	-0.24049687
-1.5334431	d i m	-0.21392553
-1.3675805	S i m	-0.21392553
-1.1483911	z i m	-0.30559754
-1.2874627	l i m	-0.38670957
-1.3756188	r i m	-0.21392553
-1.2420487	k i m	-0.2674239
-1.3662429	g i m	-0.2508958
-1.2292696	t i m	-0.2868287
-0.7799814	I i m	-0.21392553
-1.0475522	j i m	-0.2868287
-1.0067289	v i m	-0.29130855
-1.1900829	Z i m	-0.21392553
-0.9675326	V i m	-0.21392553
-0.61711216	L i m	-0.31579596
-0.35861152	J i m	-0.21392553
-1.8881344	n d m	-0.21392553
-2.3871212	<s> S m	-0.29130855
-1.9339124	u z m	-0.21392553
-0.7324096	<s> A m	-1.4864011
-1.6099732	o r m	-0.21392553
-2.0475397	e r m	-0.21392553
-1.5878787	s t m	-0.21392553
-1.4403938	r t m	-0.21392553
-0.89232564	<s> I m	-0.97115505
-0.7545258	<s> E m	-0.58618265
-1.2022736	<s> O m	-0.5086775
-1.0215969	<s> M m	-0.85110015
-1.3643763	o M m	-0.21392553
-1.3849154	u M m	-0.21392553
-1.4605769	<s> U n	-0.5289464
-1.3966553	<s> m n	-0.40231204
-1.4318392	U m n	-0.21392553
-1.3140708	o m n	-0.5504316
-1.9413798	e m n	-0.21392553
-1.4559652	u m n	-0.268433
-1.8246692	a m n	-0.2639533
-1.8806791	i m n	-0.21392553
-1.0523746	h n n	-0.21392553
-2.3682177	e n n	-0.21392553
-1.9805931	a n n	-0.21392553
-1.2557588	<s> o n	-0.72596025
-0.83206683	m o n	-0.24884918
-1.021166	n o n	-0.3421872
-0.8030819	q o n	-0.2674239
-1.1780994	o o n	-0.21392553
-1.0144895	h o n	-0.2809504
-1.0788519	w o n	-0.2639533
-0.8692447	b o n	-0.35920677
-0.7312029	s o n	-0.27144533
-0.90469396	y o n	-0.2752404
-0.26511943	i o n	-0.28794435
-1.3051028	d o n	-0.21392553
-0.8820521	S o n	-0.2639533
-1.2403874	z o n	-0.21392553
-0.8683992	B o n	-0.2639533
-1.1394026	l o n	-0.24966666
-1.2217104	f o n	-0.21392553
-1.0690637	r o n	-0.21392553
-0.87970275	k o n	-0.2749899
-1.2230963	g o n	-0.23821944
-0.96172863	t o n	-0.2508958
-1.0709759	C o n	-0.21392553
-0.9691629	v o n	-0.21392553
-0.9526462	K o n	-0.21392553
-0.9551457	N o n	-0.21392553
-0.5960398	Z o n	-0.21392553
-0.98111385	L o n	-0.21392553
-0.82076395	c o n	-0.2639533
-0.6191076	M o n	-0.41176745
-0.7051612	J o n	-0.29130855
-1.4885409	o h n	-0.21392553
-1.9365593	k h n	-0.21392553
-1.2994974	c h n	-0.21392553
-1.6007661	o w n	-0.21392553
-1.0772216	<s> e n	-1.1863089
-0.65097785	m e n	-0.41157573
-1.1636765	n e n	-0.35259774
-0.88161963	p e n	-0.34737492
-1.0112848	h e n	-0.37499338
-0.87242496	w e n	-0.49622214
-0.67196596	e e n	-0.53927785
-0.9822505	b e n	-0.34817004
-1.1029338	s e n	-0.3643339
-0.9838997	y e n	-0.30987564
-1.2308767	i e n	-0.21392553
-0.84158343	d e n	-0.40231204
-0.9949743	S e n	-0.25618398
-1.1026495	z e n	-0.35214064
-1.0822548	l e n	-0.37271926
-1.0177382	f e n	-0.21392553
-1.0750228	r e n	-0.2508958
-0.7296893	k e n	-0.29105932
-1.1255232	g e n	-0.26768318
-1.0070968	t e n	-0.2590812
-0.7210578	j e n	-0.3421872
-0.860556	C e n	-0.21392553
-0.6200743	G e n	-0.21392553
-0.6200743	E e n	-0.21392553
-1.1487439	v e n	-0.24324569
-0.6200743	K e n	-0.21392553
-0.6798493	N e n	-0.29130855
-0.6200743	Z e n	-0.21392553
-0.8732218	V e n	-0.21392553
-1.1976992	c e n	-0.21392553
-1.0475599	M e n	-0.21392553
-0.9472944	Y e n	-0.21392553
-0.99470526	W e n	-0.21392553
-1.6994251	<s> u n	-0.75720245
-0.71963006	m u n	-0.43053627
-0.44875038	q u n	-0.5086775
-0.60550183	o u n	-0.2508958
-1.0768018	h u n	-0.30690116
-1.1943058	w u n	-0.24324569
-1.1178371	b u n	-0.3932471
-0.76983625	s u n	-0.5086775
-0.67036355	y u n	-0.2868287
-0.9411375	d u n	-0.2639533
-1.2795812	z u n	-0.21392553
-1.0975398	B u n	-0.21392553
-0.7468339	l u n	-0.5684539
-0.55478686	f u n	-0.5099916
-1.1312902	r u n	-0.21392553
-1.1555477	k u n	-0.4390897
-0.77642727	g u n	-0.49708915
-0.9967976	t u n	-0.21392553
-0.60721344	j u n	-0.21392553
-0.44653815	G u n	-0.2639533
-0.78968006	v u n	-0.5086775
-0.7172807	K u n	-0.3528293
-0.8529056	V u n	-0.21392553
-0.42081216	L u n	-0.5878587
-0.16824125	F u n	-0.45529336
-0.60721344	Y u n	-0.21392553
-1.0865974	<s> a n	-1.1541113
-1.2045449	m a n	-0.36562908
-0.9657919	n a n	-0.34984833
-0.8877344	q a n	-0.29130855
-1.0250186	p a n	-0.21392553
-0.9388865	h a n	-0.4794822
-0.9970147	w a n	-0.4906346
-1.103467	b a n	-0.4178188
-1.1735988	s a n	-0.3100025
-0.61444	a a n	-0.21392553
-1.010985	y a n	-0.38606048
-0.8369749	d a n	-0.2812688
-1.1777351	S a n	-0.21392553
-1.0901623	z a n	-0.2729594
-0.71405274	B a n	-0.3367615
-0.8517533	l a n	-0.44891158
-0.51893395	f a n	-0.5086774
-0.99618995	r a n	-0.23466457
-1.1035306	k a n	-0.31159732
-0.93287736	g a n	-0.32687208
-0.63570696	t a n	-0.2836113
-0.8677579	j a n	-0.28938296
-0.98243296	C a n	-0.21392553
-0.90991485	P a n	-0.21392553
-1.1270558	G a n	-0.21392553
-0.86487955	v a n	-0.21392553
-1.0987221	K a n	-0.21392553
-1.0195706	N a n	-0.21392553
-1.0409397	L a n	-0.2639533
-0.9494677	c a n	-0.2639533
-0.9312546	F a n	-0.21392553
-1.0562621	R a n	-0.21392553
-1.0397874	M a n	-0.24368481
-0.779166	J a n	-0.21392553
-1.0119419	D a n	-0.21392553
-0.3732766	C y n	-0.21392553
-0.3732766	D y n	-0.21392553
-0.9699468	<s> i n	-1.313436
-1.0589691	m i n	-0.38552466
-1.0396388	n i n	-0.3528293
-0.20660692	q i n	-0.5104619
-0.74501187	o i n	-0.21392553
-1.2521108	p i n	-0.21392553
-0.873156	h i n	-0.31241745
-0.33948502	w i n	-0.53848183
-0.8359784	e i n	-0.21392553
-1.1613079	b i n	-0.21392553
-1.1355884	s i n	-0.43627834
-0.5333286	a i n	-0.2674239
-1.1278222	y i n	-0.381855
-0.66352504	i i n	-0.26775724
-0.7581477	d i n	-0.4550537
-1.0861444	S i n	-0.21392553
-1.034444	z i n	-0.37380654
-1.035269	l i n	-0.4645146
-1.1715956	f i n	-0.29130855
-1.2886454	r i n	-0.21392553
-1.0443817	k i n	-0.24884918
-1.0865208	g i n	-0.2639533
-1.0332369	t i n	-0.32392505
-0.74501187	I i n	-0.21392553
-0.7307423	j i n	-0.33536527
-0.9290974	P i n	-0.21392553
-0.96480423	v i n	-0.21392553
-0.66352504	N i n	-0.29130855
-0.53046185	Z i n	-0.24324569
-0.89932346	L i n	-0.21392553
-1.0204009	c i n	-0.24324569
-0.17005025	Q i n	-0.41176745
-0.80367815	M i n	-0.21392553
-0.60577756	Y i n	-0.21392553
-0.9511885	D i n	-0.21392553
-1.7028065	<s> A n	-0.53848183
-1.7410473	e r n	-0.21392553
-1.7999477	u r n	-0.21392553
-1.9749095	a r n	-0.21392553
-2.1825838	e k n	-0.21392553
-1.0435604	c k n	-0.21392553
-1.7921506	a g n	-0.21392553
-1.6346642	i g n	-0.21392553
-1.4782782	r t n	-0.21392553
-0.91073865	<s> I n	-0.6218437
-0.8470058	<s> E n	-0.43240172
-0.37051314	w E n	-0.21392553
-1.9173937	<s> O n	-0.21392553
-1.8442898	i c n	-0.21392553
-1.7222011	<s> M n	-0.2639533
-0.9111558	o M n	-0.21392553
-1.3849154	u M n	-0.21392553
-1.5654157	U m q	-0.21392553
-2.3023167	o m q	-0.21392553
-2.1322393	e m q	-0.21392553
-2.0726764	u m q	-0.21392553
-1.0625981	m n q	-0.41176745
-1.9506536	e n q	-0.24324569
-1.605315	u n q	-0.2868287
-1.8728868	a n q	-0.2868287
-1.4151826	i n q	-0.3559912
-1.2674553	I n q	-0.21392553
-0.60764074	M n q	-0.2868287
-2.0840595	<s> o q	-0.5896451
-2.0194724	n o q	-0.21392553
-1.9360601	g o q	-0.21392553
-1.9553276	<s> e q	-0.9268864
-1.801319	n e q	-0.2508958
-2.227963	w e q	-0.21392553
-2.0119245	b e q	-0.21392553
-2.1028495	s e q	-0.21392553
-1.9550622	y e q	-0.21392553
-1.7402074	z e q	-0.29130855
-1.8686556	g e q	-0.21392553
-2.862018	<s> u q	-0.25618398
-1.9366995	b u q	-0.29130855
-1.4934647	k u q	-0.4890411
-1.7414753	K u q	-0.21392553
-1.9355894	<s> a q	-0.69393575
-1.6339962	m a q	-0.2752404
-1.623304	q a q	-0.21392553
-1.7828563	w a q	-0.2508958
-1.5755119	b a q	-0.2793733
-1.9224516	s a q	-0.21392553
-1.7197571	y a q	-0.2639533
-1.6855327	z a q	-0.21392553
-2.0692093	l a q	-0.21392553
-1.7919004	r a q	-0.21392553
-1.7456784	k a q	-0.2508958
-1.8439603	g a q	-0.21392553
-2.301547	<s> i q	-0.5878587
-1.9680642	m i q	-0.21392553
-1.8245018	n i q	-0.21392553
-1.6027215	h i q	-0.29130855
-1.4285426	s i q	-0.4455754
-1.6085075	y i q	-0.2639533
-1.557284	S i q	-0.21392553
-1.4805036	z i q	-0.3303546
-1.5164684	l i q	-0.33909687
-1.5250868	g i q	-0.21392553
-1.2925855	Z i q	-0.21392553
-1.1719605	n g q	-0.5086775
-1.3493298	o g q	-0.21392553
-1.3819904	e g q	-0.29130855
-1.35093	u g q	-0.21392553
-1.5974706	a g q	-0.21392553
-0.9532209	N g q	-0.2868287
-2.787544	<s> I q	-0.21392553
-1.8372263	<s> E q	-0.2868287
-0.6779999	m N q	-0.41176745
-1.3756493	u N q	-0.21392553
-1.4728576	i N q	-0.21392553
-1.0583258	A c q	-0.21392553
-0.7684519	m m o	-0.29130855
-1.4103632	o m o	-0.43997946
-1.297144	e m o	-0.23821944
-1.2609289	u m o	-0.2995832
-1.0940632	a m o	-0.47192898
-1.3897448	i m o	-0.2674239
-0.81339294	<s> n o	-1.5236207
-1.0109378	m n o	-0.41176745
-1.1640471	o n o	-0.33295524
-0.602086	h n o	-0.29130855
-1.4536315	e n o	-0.42494044
-1.272717	u n o	-0.2749899
-1.4069817	a n o	-0.38604024
-1.1747754	i n o	-0.38481858
-0.6165214	k n o	-0.21392553
-1.1436034	I n o	-0.21392553
-1.0329763	M n o	-0.21392553
-0.8534096	<s> q o	-0.41176745
-0.38689652	m q o	-0.2639533
-0.33781472	n q o	-0.5086775
-1.0934292	e q o	-0.21392553
-0.92756754	u q o	-0.21392553
-1.0931497	a q o	-0.2639533
-1.1851294	i q o	-0.21392553
-0.6070083	g q o	-0.2639533
-0.21119761	N q o	-0.2868287
-1.8128719	h o o	-0.21392553
-1.2202872	d o o	-0.21392553
-1.4265921	S o o	-0.21392553
-1.6706922	z o o	-0.21392553
-1.704523	l o o	-0.21392553
-1.6559097	g o o	-0.21392553
-1.1987258	t o o	-0.21392553
-1.0959828	F o o	-0.21392553
-0.8160904	R o o	-0.21392553
-1.3370373	M o o	-0.21392553
-2.0240688	<s> p o	-0.2868287
-0.8560312	m p o	-0.25618398
-0.80652624	o p o	-0.21392553
-1.0232754	e p o	-0.2746895
-0.84383905	u p o	-0.2868287
-0.7136523	s p o	-0.21392553
-1.145153	a p o	-0.21392553
-0.7563883	i p o	-0.27563435
-0.6919501	r p o	-0.21392553
-0.5666366	x p o	-0.21392553
-0.89401436	p h o	-0.28763977
-1.2057819	e h o	-0.21392553
-0.904068	b h o	-0.2899564
-0.9288851	s h o	-0.21392553
-1.3489747	a h o	-0.21392553
-1.2435706	i h o	-0.21392553
-0.30958658	d h o	-0.21392553
-0.8116599	B h o	-0.29130855
-0.6905394	l h o	-0.24324569
-0.78184277	r h o	-0.3102337
-0.77587503	k h o	-0.4257969
-0.52790767	g h o	-0.3643339
-0.9326792	t h o	-0.42034772
-0.80792856	j h o	-0.25644386
-0.81994915	T h o	-0.29130855
-1.1241779	P h o	-0.29130855
-0.7141344	K h o	-0.27741554
-0.30958658	X h o	-0.21392553
-0.7712849	R h o	-0.29130855
-0.4637445	<s> w o	-1.7189027
-0.66422087	o w o	-0.2746895
-1.4379452	e w o	-0.21392553
-1.2223907	u w o	-0.21392553
-0.6350003	a w o	-0.67115736
-1.1577165	i w o	-0.25618398
-0.34800923	T w o	-0.21392553
-2.2739162	l e o	-0.21392553
-0.5048905	<s> b o	-1.7233591
-0.7579713	m b o	-0.37215042
-0.9862914	o b o	-0.25644386
-1.252523	e b o	-0.24324569
-0.921351	u b o	-0.2674239
-0.8348148	a b o	-0.48355013
-0.78553426	i b o	-0.40470776
-0.94546723	A b o	-0.21392553
-0.6298769	<s> s o	-1.608737
-1.168577	n s o	-0.21392553
-0.93422526	o s o	-0.2435018
-0.9870239	e s o	-0.38608238
-0.9382524	u s o	-0.2590812
-0.69104624	s s o	-0.29130855
-0.9444294	a s o	-0.37876445
-0.9104182	i s o	-0.4543367
-0.38796592	l s o	-0.29130855
-0.9856765	r s o	-0.21392553
-0.8968391	I s o	-0.21392553
-0.8763794	T s o	-0.21392553
-2.140745	n a o	-0.21392553
-0.40473828	<s> y o	-1.744023
-1.189922	n y o	-0.2508958
-0.9200785	o y o	-0.29130855
-0.91146815	e y o	-0.2746895
-0.7321045	u y o	-0.2886151
-0.6691524	a y o	-0.6066275
-0.725158	i y o	-0.37507755
-0.78451675	N y o	-0.21392553
-1.8980926	n i o	-0.21392553
-1.5315797	p i o	-0.21392553
-2.0045764	s i o	-0.21392553
-1.8449695	r i o	-0.21392553
-1.8417866	g i o	-0.21392553
-1.1590478	t i o	-0.41176745
-1.1450746	<s> d o	-0.21392553
-0.92028135	m d o	-0.21392553
-1.0395857	n d o	-0.33536527
-0.81246257	o d o	-0.2746895
-1.2882123	e d o	-0.21392553
-0.91791314	u d o	-0.2886151
-0.93990076	a d o	-0.3367615
-1.1835107	i d o	-0.2746895
-0.3332678	A d o	-0.21392553
-1.1020263	<s> S o	-0.5347784
-0.61948305	U S o	-0.21392553
-0.528111	o S o	-0.2508958
-1.0258105	e S o	-0.2674239
-0.90232253	u S o	-0.21392553
-0.49711305	<s> z o	-1.5640752
-1.0516835	m z o	-0.21392553
-1.1654804	n z o	-0.21392553
-0.71911573	o z o	-0.25618398
-0.79030305	e z o	-0.5009177
-0.82389104	u z o	-0.30690116
-0.7885686	a z o	-0.4208445
-0.7765809	i z o	-0.45133168
-1.0694883	<s> B o	-0.3102337
-0.63150924	m B o	-0.2639533
-1.2110444	e B o	-0.21392553
-0.9359352	u B o	-0.21392553
-1.0861056	i B o	-0.21392553
-0.4496561	<s> l o	-1.6609852
-1.1513454	m l o	-0.21392553
-0.5758561	o l o	-0.396862
-0.75386024	p l o	-0.21392553
-0.6830264	h l o	-0.43641177
-0.86538255	e l o	-0.5396019
-0.99174476	u l o	-0.47069794
-0.31296432	s l o	-0.21392553
-0.794934	a l o	-0.5267071
-0.8026737	i l o	-0.354298
-1.1035242	d l o	-0.2508958
-0.54900265	A l o	-0.21392553
-0.54900265	f l o	-0.21392553
-0.54900265	r l o	-0.21392553
-0.54900265	g l o	-0.21392553
-0.6571181	t l o	-0.5114565
-0.83412576	I l o	-0.21392553
-0.5570878	T l o	-0.41176745
-0.6327213	H l o	-0.25644386
-0.37654054	<s> f o	-0.6548055
-0.35983586	n f o	-0.21392553
-0.9948476	o f o	-0.21392553
-0.30201766	p f o	-0.21392553
-0.65408504	e f o	-0.5878587
-0.30201766	s f o	-0.21392553
-1.3158044	a f o	-0.21392553
-1.0632693	i f o	-0.2508958
-0.53032035	l f o	-0.21392553
-0.30201766	t f o	-0.21392553
-0.6441342	I f o	-0.21392553
-0.68789715	o r o	-0.34451947
-0.941222	p r o	-0.21392553
-0.6091581	h r o	-0.28938296
-1.2321979	u r o	-0.21392553
-1.4952848	a r o	-0.21392553
-1.1039088	i r o	-0.21392553
-0.8752926	r r o	-0.21392553
-0.8896556	t r o	-0.21392553
-0.7995147	P r o	-0.21392553
-0.9218153	G r o	-0.21392553
-0.3899058	c r o	-0.21392553
-0.7152084	F r o	-0.21392553
-0.9370611	<s> k o	-1.654626
-0.78294665	U k o	-0.21392553
-0.98711663	n k o	-0.2793733
-0.79748714	o k o	-0.46709308
-0.84646386	e k o	-0.557787
-0.9240663	u k o	-0.3188438
-0.8452513	a k o	-0.5675046
-0.8808309	i k o	-0.45133168
-0.5737866	l k o	-0.21392553
-0.78294665	I k o	-0.21392553
-0.7015181	N k o	-0.21392553
-0.089780636	<s> g o	-1.2708863
-0.21507883	m g o	-0.40231204
-1.0011358	n g o	-0.3519509
-0.7030756	o g o	-0.24324569
-0.32049793	w g o	-0.21392553
-1.1263891	e g o	-0.2639533
-0.852685	u g o	-0.21392553
-0.37782905	s g o	-0.29130855
-1.3366985	a g o	-0.21392553
-1.2128131	i g o	-0.21392553
-1.1453881	k g o	-0.21392553
-0.8430633	N g o	-0.23466457
-1.0150226	<s> t o	-0.3643339
-0.8874908	n t o	-0.5114565
-1.283804	o t o	-0.21392553
-1.4145635	e t o	-0.29130855
-1.0551935	s t o	-0.21392553
-1.2660272	a t o	-0.2746895
-1.2579309	i t o	-0.2508958
-0.9901136	S t o	-0.21392553
-1.1304358	r t o	-0.21392553
-0.72964406	k t o	-0.21392553
-1.1520475	N t o	-0.21392553
-0.7915818	c t o	-0.29130855
-1.4965893	e j o	-0.21392553
-1.3522446	i j o	-0.21392553
-0.31806514	<s> C o	-0.59949386
-0.3446381	o C o	-0.21392553
-0.8910318	<s> T o	-0.27906892
-0.8882733	<s> P o	-0.55721396
-0.49911785	<s> G o	-0.55721396
-0.35404685	m G o	-0.21392553
-1.2075323	o v o	-0.21392553
-1.1099273	u v o	-0.21392553
-1.1909194	a v o	-0.29130855
-1.2530673	i v o	-0.21392553
-0.5879954	I v o	-0.21392553
-0.6324159	<s> K o	-1.0719041
-0.68547446	o K o	-0.21392553
-0.8809834	e K o	-0.33536527
-0.9708344	u K o	-0.21392553
-0.76863456	a K o	-0.29130855
-0.68330085	i K o	-0.2746895
-0.7636668	I K o	-0.21392553
-1.428772	<s> N o	-0.4481882
-0.9195368	m N o	-0.29130855
-0.7214255	o N o	-0.21392553
-1.3405073	e N o	-0.21392553
-0.62904596	u N o	-0.2886151
-0.948682	a N o	-0.21392553
-1.1503904	i N o	-0.21392553
-0.57162917	<s> Z o	-0.4640356
-0.65859824	e Z o	-0.2639533
-0.17984495	<s> L o	-1.4003228
-1.4304562	e L o	-0.21392553
-1.2020681	u L o	-0.21392553
-0.3314279	<s> c o	-0.33536527
-0.3103429	m c o	-0.21392553
-1.0765905	n c o	-0.21392553
-0.8709429	o c o	-0.21392553
-0.88771564	e c o	-0.29130855
-0.9182695	u c o	-0.21392553
-1.2535276	i c o	-0.21392553
-0.8953566	S c o	-0.21392553
-0.85619575	g c o	-0.29130855
-0.5444983	E c o	-0.21392553
-0.6626518	c c o	-0.21392553
-0.7754093	u Q o	-0.21392553
-0.63548607	<s> F o	-0.5896451
-0.92375404	e F o	-0.21392553
-0.7635184	a F o	-0.21392553
-0.7077315	i F o	-0.21392553
-0.7635184	A F o	-0.21392553
-1.0856858	<s> R o	-0.25618398
-1.2647642	<s> M o	-0.21392553
-0.5913952	U M o	-0.21392553
-0.93089205	o M o	-0.29130855
-1.1519191	e M o	-0.21392553
-0.8398456	u M o	-0.2674239
-0.8264145	a M o	-0.21392553
-1.1984473	<s> H o	-0.29130855
-0.78175265	<s> Y o	-0.71279746
-0.21122326	<s> W o	-0.7103262
-0.15064524	<s> J o	-0.46993458
-0.7077079	a J o	-0.21392553
-0.32027078	i J o	-0.21392553
-1.359047	<s> D o	-0.21392553
-0.7566886	e D o	-0.21392553
-0.58629173	u D o	-0.2868287
-2.1971135	<s> m p	-0.29130855
-1.3467005	U m p	-0.21392553
-1.2503753	o m p	-0.5498792
-1.3532766	e m p	-0.32482642
-1.6162829	u m p	-0.2639533
-1.2461393	a m p	-0.2720969
-0.36212128	y m p	-0.21392553
-1.1607338	i m p	-0.2653382
-1.0719031	I m p	-0.21392553
-1.0247793	E m p	-0.21392553
-1.5373546	<s> o p	-1.3010691
-1.4494324	m o p	-0.21392553
-1.6490207	n o p	-0.21392553
-0.99684	q o p	-0.29130855
-1.4549689	p o p	-0.21392553
-1.5261672	h o p	-0.29130855
-0.6420439	e o p	-0.21392553
-1.1918229	b o p	-0.41176745
-1.6741935	s o p	-0.21392553
-1.2472469	B o p	-0.21392553
-1.5384555	l o p	-0.2674239
-1.1601282	r o p	-0.2746895
-1.3626164	k o p	-0.2508958
-1.3702322	g o p	-0.21392553
-1.4362718	t o p	-0.21392553
-0.8995236	T o p	-0.21392553
-1.6697638	a p p	-0.21392553
-1.7181182	i p p	-0.21392553
-0.82769376	A p p	-0.21392553
-1.7205938	<s> e p	-1.1050372
-1.3020498	n e p	-0.2674239
-1.5119965	p e p	-0.21392553
-1.6496258	h e p	-0.29130855
-1.8004119	w e p	-0.2639533
-1.7061936	e e p	-0.21392553
-1.7567049	b e p	-0.21392553
-1.5873818	s e p	-0.2674239
-1.5283673	y e p	-0.23466457
-1.3208119	i e p	-0.21392553
-1.085858	d e p	-0.41176745
-1.5891776	S e p	-0.21392553
-1.5676093	z e p	-0.24324569
-1.8690666	l e p	-0.21392553
-1.3503104	k e p	-0.29130855
-1.4421933	g e p	-0.23821944
-1.5837815	t e p	-0.21392553
-0.6469671	K e p	-0.21392553
-1.2260258	R e p	-0.21392553
-0.78064525	D e p	-0.2639533
-2.3488176	<s> u p	-0.7035884
-1.4150702	m u p	-0.29130855
-1.4279414	h u p	-0.2868287
-1.5766153	w u p	-0.21392553
-1.6393229	b u p	-0.2868287
-1.4454086	d u p	-0.21392553
-1.0590019	S u p	-0.21392553
-1.3926657	l u p	-0.29130855
-1.36105	k u p	-0.5000163
-0.6511683	C u p	-0.21392553
-1.5390129	K u p	-0.21392553
-1.2273191	c u p	-0.21392553
-3.4408083	<s> s p	-0.21392553
-2.0553489	a s p	-0.21392553
-1.18364	r s p	-0.21392553
-1.9614056	<s> a p	-1.0455751
-1.4635983	m a p	-0.40017915
-1.5976727	n a p	-0.29130855
-1.518212	h a p	-0.2674239
-1.5630186	w a p	-0.2674239
-1.5066441	b a p	-0.41176745
-1.5922488	s a p	-0.29130855
-1.6225513	y a p	-0.29130855
-1.7999488	z a p	-0.21392553
-1.2932882	l a p	-0.44351518
-1.6349831	k a p	-0.29130855
-1.5070649	g a p	-0.29130855
-1.5893769	j a p	-0.21392553
-1.0539105	C a p	-0.21392553
-1.2780553	P a p	-0.21392553
-1.1894205	K a p	-0.21392553
-1.4029208	L a p	-0.21392553
-1.4135252	c a p	-0.21392553
-1.1442776	R a p	-0.21392553
-1.4801062	M a p	-0.21392553
-1.0561002	t y p	-0.21392553
-1.5344554	<s> i p	-1.0218517
-1.3499472	m i p	-0.5086775
-1.5171938	n i p	-0.2639533
-1.2728903	h i p	-0.2508958
-0.9195239	e i p	-0.21392553
-1.3438867	s i p	-0.53848183
-1.3028371	y i p	-0.37507755
-1.6556472	d i p	-0.21392553
-1.4867331	S i p	-0.21392553
-1.3654542	z i p	-0.460304
-1.4843743	l i p	-0.3643339
-1.1844516	r i p	-0.41176745
-1.6636448	g i p	-0.21392553
-1.4270836	c i p	-0.21392553
-0.7064396	R i p	-0.21392553
-1.8282601	<s> S p	-0.44351518
-2.0999405	<s> A p	-0.25618398
-1.6140805	o r p	-0.2639533
-2.0555692	e r p	-0.21392553
-0.8551066	t t p	-0.21392553
-2.4055355	<s> I p	-0.21392553
-2.1929297	<s> E p	-0.21392553
-1.6490787	<s> O p	-0.29130855
-0.7641026	E x p	-0.21392553
-1.3705877	o M p	-0.21392553
-1.3502666	e M p	-0.21392553
-1.0837718	u M p	-0.29130855
-1.4997635	<s> m h	-0.85110015
-1.3793688	U m h	-0.21392553
-1.3443133	o m h	-0.76394993
-1.8722726	e m h	-0.21392553
-1.6475334	u m h	-0.29130855
-1.6785451	a m h	-0.2868287
-1.8170795	i m h	-0.21392553
-1.0400403	E m h	-0.21392553
-2.0857596	o n h	-0.21392553
-2.247231	e n h	-0.21392553
-2.2766635	a n h	-0.21392553
-2.004934	i n h	-0.29130855
-1.3977648	<s> q h	-0.21392553
-1.1862662	n q h	-0.21392553
-0.74570584	e q h	-0.41176745
-1.3997915	a q h	-0.21392553
-1.0179775	i q h	-0.2639533
-0.32735607	I q h	-0.21392553
-1.7109456	<s> o h	-1.1319268
-1.6912477	n o h	-0.21392553
-1.5533649	h o h	-0.29130855
-1.4689169	w o h	-0.21392553
-1.6959534	b o h	-0.21392553
-1.5411594	y o h	-0.21392553
-1.6266291	z o h	-0.21392553
-1.4145964	l o h	-0.41176745
-1.7281924	k o h	-0.21392553
-1.5995129	g o h	-0.21392553
-1.3056935	M o h	-0.21392553
-1.109804	J o h	-0.21392553
-0.6301526	D o h	-0.29130855
-0.020520471	<s> p h	-1.8906945
-0.59520596	m p h	-0.45553085
-0.41713083	o p h	-0.42209432
-0.64029104	e p h	-0.6422164
-0.40617532	u p h	-0.42209432
-0.288845	a p h	-0.6905595
-0.44806358	i p h	-0.5878587
-0.69456816	I p h	-0.21392553
-0.32423514	E p h	-0.21392553
-0.3814653	M p h	-0.29130855
-1.3028368	s h h	-0.21392553
-1.8122379	<s> e h	-1.4057267
-1.3944556	m e h	-0.2868287
-1.6296655	n e h	-0.2868287
-1.8194417	w e h	-0.2868287
-1.9231218	b e h	-0.21392553
-1.6829253	s e h	-0.2868287
-1.6345425	y e h	-0.29130855
-1.1237938	z e h	-0.6548055
-1.551595	l e h	-0.41176745
-1.5427254	g e h	-0.29130855
-2.9372983	<s> b h	-0.29130855
-1.0309495	m b h	-0.2746895
-1.0989603	o b h	-0.25618398
-0.5148757	e b h	-0.5353961
-0.8364027	u b h	-0.3300078
-0.91704154	a b h	-0.37990108
-0.9027501	i b h	-0.31294984
-0.70871216	I b h	-0.21392553
-2.2672808	<s> u h	-1.0138274
-1.7290015	m u h	-0.21392553
-1.8346525	h u h	-0.21392553
-1.3798683	w u h	-0.29130855
-1.4330034	b u h	-0.5086775
-1.7191148	l u h	-0.21392553
-1.5132656	k u h	-0.5878587
-1.6025271	K u h	-0.21392553
-1.6629454	u s h	-0.21392553
-1.7613189	i s h	-0.21392553
-0.3617476	f s h	-0.21392553
-1.1032357	r s h	-0.21392553
-0.46014202	t s h	-0.44351518
-0.46411094	T s h	-0.2868287
-1.601353	<s> a h	-1.5500702
-1.3382969	m a h	-0.47069794
-1.6271261	n a h	-0.29130855
-0.9630226	p a h	-0.2868287
-2.0030565	h a h	-0.21392553
-1.3867248	w a h	-0.5878587
-1.7569606	b a h	-0.29130855
-1.3637736	s a h	-0.41176745
-1.3975769	y a h	-0.41176745
-1.002	S a h	-0.21392553
-1.8458275	z a h	-0.21392553
-1.3044008	l a h	-0.5878587
-1.4338244	k a h	-0.41176745
-1.7467176	g a h	-0.21392553
-0.97631073	P a h	-0.29130855
-1.258742	M a h	-0.29130855
-1.4212303	<s> i h	-1.7924687
-1.370182	m i h	-0.5086775
-1.5747252	s i h	-0.5086775
-1.4361281	y i h	-0.41176745
-1.0948529	i i h	-0.21392553
-1.1141433	S i h	-0.2868287
-1.7320263	z i h	-0.2868287
-1.5064926	l i h	-0.5086775
-1.1652306	f i h	-0.2868287
-1.7273183	g i h	-0.21392553
-1.3371457	L i h	-0.21392553
-1.0548238	l d h	-0.21392553
-2.361877	<s> S h	-0.21392553
-1.4344051	<s> B h	-0.41176745
-0.49151742	e B h	-0.27906892
-0.94236416	u B h	-0.21392553
-0.8787005	a B h	-0.21392553
-0.74484	i B h	-0.21392553
-2.0501585	i l h	-0.21392553
-1.1074966	d l h	-0.2590812
-0.71582645	t l h	-0.54447967
-0.37144583	T l h	-0.33536527
-0.3433096	U r h	-0.21392553
-0.4464237	m r h	-0.33536527
-0.3433096	n r h	-0.21392553
-0.9652903	o r h	-0.2590812
-0.8787483	e r h	-0.4625391
-0.71176106	u r h	-0.34494627
-0.7847616	a r h	-0.45316017
-0.5734638	i r h	-0.45316017
-0.83068776	I r h	-0.21392553
-0.3433096	M r h	-0.21392553
-1.2207723	<s> k h	-1.7252831
-0.7540982	U k h	-0.21392553
-0.15937793	m k h	-0.44652954
-0.9513173	n k h	-0.29130855
-0.9298264	o k h	-0.45708716
-0.8382297	e k h	-0.61492646
-0.9105803	u k h	-0.43735617
-0.810819	a k h	-0.8030149
-0.70960784	i k h	-0.6711117
-0.55573934	A k h	-0.21392553
-0.7540982	I k h	-0.21392553
-0.7540982	O k h	-0.21392553
-0.31686366	M k h	-0.21392553
-1.0893757	n g h	-0.3421872
-1.4840382	i g h	-0.21392553
-0.12902361	k g h	-0.43876976
-0.25278267	K g h	-0.21392553
-1.3695247	N g h	-0.21392553
-0.33820918	<s> t h	-0.6548055
-0.3196461	U t h	-0.21392553
-0.5593871	m t h	-0.39999497
-0.99284047	n t h	-0.31720284
-0.6395898	o t h	-0.33152768
-0.5605735	h t h	-0.21392553
-0.3196461	w t h	-0.21392553
-0.5706552	e t h	-0.69393575
-0.41256616	u t h	-0.61670107
-0.6413312	a t h	-0.7632623
-0.72211623	i t h	-0.66667503
-0.5605735	l t h	-0.21392553
-1.0337638	r t h	-0.21392553
-0.6838777	k t h	-0.21392553
-0.3196461	g t h	-0.21392553
-0.6838777	I t h	-0.21392553
-0.7064089	M t h	-0.21392553
-1.5338975	<s> I h	-1.0401564
-1.3470857	i j h	-0.21392553
-0.526475	t j h	-0.6113398
-0.212963	T j h	-0.37837884
-1.1746627	<s> C h	-0.27563435
-0.34353742	e C h	-0.21392553
-0.5089392	u C h	-0.29130855
-0.6715082	<s> T h	-0.43876976
-0.41432828	m T h	-0.5878587
-0.32934177	o T h	-0.21392553
-0.89038783	e T h	-0.21392553
-0.4998248	u T h	-0.23821944
-0.7246599	a T h	-0.29130855
-0.613945	i T h	-0.33536527
-0.94488573	<s> P h	-0.2659331
-0.13999152	m P h	-0.3421872
-0.27262542	o P h	-0.21392553
-0.4912389	e P h	-0.3355676
-0.21843505	u P h	-0.23821944
-0.21843505	a P h	-0.30167678
-0.35191956	i P h	-0.2639533
-0.6423438	I P h	-0.21392553
-1.6173496	<s> G h	-0.21392553
-1.892214	<s> E h	-0.29130855
-1.3742497	<s> K h	-0.45133168
-0.120436564	m K h	-0.44351518
-0.6658284	o K h	-0.21392553
-0.48397607	e K h	-0.5104619
-0.41052234	u K h	-0.2659331
-0.46037635	a K h	-0.2659331
-0.3832395	i K h	-0.31857643
-0.74024796	A K h	-0.21392553
-0.25427845	i X h	-0.21392553
-0.8634814	e c h	-0.2639533
-1.0206583	u c h	-0.21392553
-0.3407406	s c h	-0.21392553
-0.83375496	a c h	-0.29130855
-1.4286407	i c h	-0.21392553
-0.9863941	S c h	-0.21392553
-0.75144655	x c h	-0.21392553
-0.7054476	e Q h	-0.21392553
-0.5597676	a Q h	-0.21392553
-0.7899292	i Q h	-0.21392553
-0.55392754	U R h	-0.21392553
-0.22373928	o R h	-0.21392553
-0.63055134	e R h	-0.2639533
-0.7721123	u R h	-0.21392553
-0.8231326	a R h	-0.21392553
-1.266207	o M h	-0.21392553
-0.8979322	u M h	-0.2868287
-1.1845472	a M h	-0.21392553
-0.876091	i M h	-0.21392553
-1.6946354	<s> W h	-0.21392553
-0.3350246	k W h	-0.21392553
-1.79955	o n w	-0.2639533
-1.7354137	e n w	-0.3643339
-2.0018106	u n w	-0.21392553
-1.6358402	a n w	-0.41176745
-1.9720715	i n w	-0.2639533
-0.3563191	g q w	-0.41176745
-1.3152598	<s> o w	-0.9949658
-1.5140315	n o w	-0.21392553
-1.5098015	p o w	-0.21392553
-1.5832467	h o w	-0.29130855
-1.5031804	w o w	-0.21392553
-1.4330829	l o w	-0.2674239
-1.5895563	r o w	-0.21392553
-1.7724866	k o w	-0.21392553
-1.6485773	g o w	-0.21392553
-0.9236686	T o w	-0.21392553
-0.711613	v o w	-0.29130855
-0.38139498	t p w	-0.21392553
-0.8085534	s h w	-0.2639533
-1.162743	l h w	-0.21392553
-0.92256105	r h w	-0.3421872
-1.1596384	k h w	-0.36779633
-0.8942391	g h w	-0.29130855
-1.0593903	t h w	-0.43053627
-1.1777123	j h w	-0.21392553
-1.179595	K h w	-0.29130855
-1.1580842	c h w	-0.21392553
-0.85990804	R h w	-0.29130855
-3.1196008	<s> w w	-0.29130855
-0.3762594	p w w	-0.21392553
-0.6441231	w w w	-0.21392553
-2.78842	<s> e w	-0.33536527
-1.9163649	n e w	-0.21392553
-1.9001598	w e w	-0.2639533
-1.5511564	b e w	-0.25618398
-1.769824	s e w	-0.2639533
-1.8274099	y e w	-0.21392553
-1.3787564	i e w	-0.21392553
-0.68084425	S e w	-0.71279746
-1.8578521	z e w	-0.21392553
-1.3340055	l e w	-0.40231204
-1.7463149	g e w	-0.21392553
-1.681385	t e w	-0.21392553
-2.1662357	a b w	-0.21392553
-3.0581417	<s> u w	-0.2639533
-1.3562803	o u w	-0.21392553
-1.4648919	h u w	-0.21392553
-1.8000417	b u w	-0.29130855
-1.609033	s u w	-0.21392553
-1.3300114	r u w	-0.21392553
-1.8374319	k u w	-0.2746895
-1.7035588	g u w	-0.21392553
-0.978037	o s w	-0.36779633
-1.8365049	e s w	-0.21392553
-1.624648	u s w	-0.21392553
-1.8082937	a s w	-0.21392553
-0.8626538	i s w	-0.9236508
-1.2234912	t s w	-0.21392553
-0.9622468	T s w	-0.21392553
-1.9438772	<s> a w	-0.7305262
-1.6760849	m a w	-0.2590812
-1.4925276	n a w	-0.24368481
-1.5196983	h a w	-0.41176745
-1.4596123	w a w	-0.2752404
-1.3302776	b a w	-0.34291306
-1.5950106	s a w	-0.21392553
-1.5251334	y a w	-0.2639533
-1.3772876	d a w	-0.29130855
-1.4942796	z a w	-0.21392553
-1.1846852	B a w	-0.21392553
-1.159246	l a w	-0.40732926
-1.6691812	r a w	-0.21392553
-1.7911386	k a w	-0.21392553
-1.7039192	g a w	-0.21392553
-1.546691	t a w	-0.21392553
-1.3780252	N a w	-0.21392553
-0.543733	L a w	-0.44351518
-1.0973035	D a w	-0.21392553
-0.91905147	n y w	-0.5086775
-1.4652117	a y w	-0.2639533
-1.742591	i y w	-0.21392553
-2.2480702	<s> i w	-0.73156625
-1.531011	n i w	-0.21392553
-1.4461339	h i w	-0.28938296
-1.574213	w i w	-0.21392553
-0.9611152	b i w	-0.5086775
-1.5595778	s i w	-0.3985274
-1.3104241	y i w	-0.25618398
-1.6757765	d i w	-0.21392553
-1.3007125	z i w	-0.5438876
-1.3373846	l i w	-0.5684539
-1.0015035	k i w	-0.36779633
-1.6893218	g i w	-0.21392553
-1.0926927	j i w	-0.2674239
-0.975147	m d w	-0.21392553
-1.2258652	n d w	-0.2752404
-0.66794825	o d w	-0.6548055
-1.2518425	e d w	-0.2674239
-1.4156817	u d w	-0.21392553
-1.43828	a d w	-0.2639533
-1.5344547	i d w	-0.21392553
-2.298823	<s> S w	-0.29130855
-1.5522764	e S w	-0.21392553
-1.2319032	i S w	-0.21392553
-1.0140934	n z w	-0.2639533
-1.1516851	o z w	-0.2508958
-1.0175093	e z w	-0.4640356
-0.7808158	u z w	-0.37397888
-0.97230643	a z w	-0.41176742
-0.7900547	i z w	-0.56303513
-3.0487764	<s> l w	-0.29130855
-1.2729177	m l w	-0.21392553
-0.6577193	n l w	-0.29130855
-1.1199951	o l w	-0.2868287
-1.108484	h l w	-0.29130855
-0.79818374	e l w	-0.9558355
-0.7981956	u l w	-0.6750089
-1.0492194	a l w	-0.68476874
-1.2277783	i l w	-0.3537755
-1.2956178	d l w	-0.2508958
-1.4707506	t l w	-0.21392553
-0.9380955	I l w	-0.21392553
-2.713281	<s> A w	-0.21392553
-1.454458	o r w	-0.2639533
-1.472142	u r w	-0.21392553
-1.9515296	a r w	-0.21392553
-0.55266434	<s> k w	-2.5697527
-0.8035342	U k w	-0.21392553
-1.0130296	n k w	-0.29130855
-0.80285317	o k w	-0.6769024
-1.0970998	e k w	-0.55007017
-1.0889171	u k w	-0.41176745
-0.9488503	a k w	-0.76394993
-1.0913384	i k w	-0.46291995
-0.71851605	E k w	-0.21392553
-0.8035342	O k w	-0.21392553
-1.2761475	n g w	-0.27563435
-1.0765665	o g w	-0.29130855
-1.5929735	e g w	-0.21392553
-1.3319099	u g w	-0.21392553
-1.3551857	a g w	-0.2508958
-1.4388667	i g w	-0.21392553
-1.0391055	n t w	-0.44428492
-2.1412308	a t w	-0.21392553
-0.9814808	N t w	-0.29130855
-2.2164528	<s> I w	-0.41176745
-0.9534271	n j w	-0.2886151
-1.1028273	e j w	-0.2639533
-1.247431	a j w	-0.21392553
-1.2001023	i j w	-0.21392553
-1.115726	t j w	-0.2639533
-1.9452765	<s> T w	-0.21392553
-1.9052606	<s> E w	-0.29130855
-0.8887649	<s> K w	-0.9710755
-0.8680464	U K w	-0.21392553
-0.7708355	o K w	-0.21392553
-1.5126958	e K w	-0.21392553
-0.3437978	n Z w	-0.21392553
-0.7419362	i Z w	-0.21392553
-0.6007071	n L w	-0.21392553
-0.94902885	e L w	-0.2868287
-1.0942142	u L w	-0.21392553
-0.76295626	a L w	-0.21392553
-0.9669298	i L w	-0.21392553
-0.95244867	n c w	-0.2868287
-1.1343216	o c w	-0.21392553
-0.54713213	N c w	-0.29130855
-2.189722	<s> m e	-0.21392553
-1.1998469	U m e	-0.21392553
-1.0122238	m m e	-0.21392553
-0.24152365	n m e	-0.29130855
-1.2401248	o m e	-0.36019045
-0.34438345	p m e	-0.21392553
-0.9689447	e m e	-0.37120998
-0.96950257	u m e	-0.36759898
-0.94153464	a m e	-0.41661713
-1.0482826	i m e	-0.32879114
-0.34438345	d m e	-0.21392553
-0.604609	A m e	-0.21392553
-0.7434025	r m e	-0.21392553
-0.24152365	t m e	-0.29130855
-0.9877931	I m e	-0.21392553
-0.76922303	<s> n e	-1.3037986
-0.92289144	n n e	-0.21392553
-1.1567719	o n e	-0.2812688
-1.128375	e n e	-0.42722982
-1.2626698	u n e	-0.26849073
-1.0277227	a n e	-0.5726111
-1.0119491	i n e	-0.45857188
-0.5788515	r n e	-0.2639533
-0.60999686	g n e	-0.21392553
-0.3473345	t n e	-0.21392553
-1.1220227	I n e	-0.21392553
-1.044746	E n e	-0.21392553
-1.4496461	<s> q e	-0.21392553
-1.2899452	e q e	-0.21392553
-1.1024277	u q e	-0.21392553
-0.72005755	a q e	-0.5878587
-1.1627945	i q e	-0.29130855
-1.33444	C o e	-0.21392553
-1.1960578	J o e	-0.21392553
-2.239882	<s> p e	-0.21392553
-0.8173809	m p e	-0.21392553
-1.002516	o p e	-0.2639533
-0.6730849	p p e	-0.21392553
-0.848715	e p e	-0.2659331
-1.0807822	u p e	-0.21392553
-0.3610733	s p e	-0.29130855
-0.9929103	a p e	-0.21392553
-1.2217443	i p e	-0.21392553
-0.5324713	S p e	-0.21392553
-0.6469317	A p e	-0.21392553
-0.6469317	I p e	-0.21392553
-0.3032879	O p e	-0.21392553
-0.698671	q h e	-0.2639533
-0.6847544	p h e	-0.50221646
-0.7228054	b h e	-0.34790668
-0.9283344	s h e	-0.21392553
-1.3484873	a h e	-0.21392553
-0.54294485	S h e	-0.21392553
-0.81128556	B h e	-0.29130855
-0.9800183	l h e	-0.21392553
-0.7816595	r h e	-0.31018496
-0.89690155	k h e	-0.36492768
-0.80070627	g h e	-0.21392553
-0.7819668	t h e	-0.45301244
-0.7004348	j h e	-0.24793749
-0.82535475	C h e	-0.21392553
-0.5700234	T h e	-0.2563356
-0.63606995	P h e	-0.2886151
-0.7139344	K h e	-0.3643339
-0.68545794	Q h e	-0.21392553
-0.98926324	R h e	-0.21392553
-0.29887423	<s> w e	-1.2417992
-0.36620942	n w e	-0.40017915
-0.25446162	q w e	-0.21392553
-0.53989077	o w e	-0.2435018
-0.5028645	h w e	-0.29660648
-0.41156423	e w e	-0.4177324
-0.25446162	b w e	-0.21392553
-0.4191606	u w e	-0.2659331
-0.6376701	s w e	-0.2639533
-0.6597901	a w e	-0.32879114
-0.4787187	y w e	-0.2639533
-0.41637057	i w e	-0.5647618
-0.3048478	d w e	-0.27063227
-0.47804087	z w e	-0.43535802
-0.42303142	l w e	-0.4517256
-0.3469718	r w e	-0.2508958
-0.29645818	k w e	-0.40152565
-0.596046	g w e	-0.27063227
-0.6749954	t w e	-0.21392553
-0.25446162	I w e	-0.21392553
-0.5407601	j w e	-0.2674239
-0.35984248	K w e	-0.24368481
-0.45267713	Z w e	-0.21392553
-1.5932056	<s> e e	-1.3847789
-1.3027737	n e e	-0.3482938
-1.5928526	w e e	-0.2664746
-1.7077372	e e e	-0.21392553
-1.5866708	b e e	-0.24324569
-1.5886587	s e e	-0.25618398
-1.5297699	y e e	-0.2508958
-1.6433657	d e e	-0.21392553
-1.590696	S e e	-0.21392553
-1.477967	z e e	-0.25644386
-1.8712218	l e e	-0.21392553
-1.6169035	r e e	-0.21392553
-1.6226608	g e e	-0.21392553
-1.4651905	j e e	-0.21392553
-0.987499	P e e	-0.21392553
-1.3423196	L e e	-0.21392553
-1.0567425	W e e	-0.21392553
-1.2427064	D e e	-0.21392553
-0.37515122	<s> b e	-1.3254535
-0.80225635	m b e	-0.4016505
-0.8698872	o b e	-0.32392505
-0.69730926	e b e	-0.291178
-0.88349545	u b e	-0.3100025
-0.721774	a b e	-0.52836996
-0.8172412	i b e	-0.49708915
-0.3055008	l b e	-0.21392553
-0.51192796	A b e	-0.2639533
-0.6518289	I b e	-0.21392553
-0.46004453	M b e	-0.21392553
-1.0591586	n u e	-0.21392553
-1.8208756	l u e	-0.21392553
-1.8276407	g u e	-0.21392553
-0.5931618	<s> s e	-0.9925711
-0.31656083	U s e	-0.21392553
-0.52445704	m s e	-0.43474314
-0.8353064	n s e	-0.2590812
-0.64718586	o s e	-0.30071983
-0.31656083	w s e	-0.21392553
-0.8338303	e s e	-0.37165862
-0.6536108	u s e	-0.34947896
-0.91607505	s s e	-0.21392553
-0.7534509	a s e	-0.42423248
-0.7752596	i s e	-0.57518727
-0.8709402	k s e	-0.21392553
-0.8192698	t s e	-0.21392553
-0.8461833	I s e	-0.21392553
-0.5552145	E s e	-0.21392553
-2.2895732	h a e	-0.21392553
-1.9392254	r a e	-0.21392553
-0.41128772	<s> y e	-1.1702726
-0.3223716	m y e	-0.2868287
-0.7360169	n y e	-0.38481858
-0.61700207	o y e	-0.2508958
-0.8861707	e y e	-0.22996955
-0.55187005	u y e	-0.3923751
-0.5909867	a y e	-0.48625737
-0.70963246	i y e	-0.31277847
-0.3025525	I y e	-0.21392553
-0.73913354	N y e	-0.21392553
-1.8249022	n i e	-0.21392553
-1.7327853	b i e	-0.21392553
-2.082627	l i e	-0.21392553
-1.3843582	r i e	-0.21392553
-1.7586461	g i e	-0.21392553
-1.7330478	t i e	-0.21392553
-1.4163128	v i e	-0.21392553
-0.78962725	c i e	-0.2508958
-1.0924538	D i e	-0.21392553
-0.49844983	<s> d e	-0.2746895
-0.93839437	n d e	-0.35381946
-1.1729064	o d e	-0.21392553
-0.6524702	e d e	-0.39236262
-0.9173163	u d e	-0.2590812
-0.88728106	a d e	-0.3184376
-0.78720695	i d e	-0.26114365
-0.6424186	r d e	-0.29130855
-1.0803	N d e	-0.21392553
-0.9237852	<s> S e	-0.5080723
-0.2270708	m S e	-0.2639533
-0.4017434	e S e	-0.55721396
-0.7037388	u S e	-0.21392553
-0.2536506	a S e	-0.2639533
-0.46552408	i S e	-0.2639533
-0.6872837	A S e	-0.21392553
-0.98907006	I S e	-0.21392553
-0.9245037	E S e	-0.21392553
-0.49377543	<s> z e	-0.8566982
-0.82627136	n z e	-0.2590812
-0.81655914	o z e	-0.2752404
-0.67704946	e z e	-0.46985564
-0.814237	u z e	-0.34451947
-0.73949885	a z e	-0.33235192
-0.81770533	i z e	-0.32442558
-0.67448103	t z e	-0.21392553
-0.67448103	I z e	-0.21392553
-0.7119377	<s> B e	-0.57840335
-1.0307603	m B e	-0.21392553
-0.48483512	<s> l e	-1.2049396
-0.6544945	m l e	-0.41176745
-0.8464315	n l e	-0.21392553
-0.8019412	o l e	-0.2774998
-0.96586716	p l e	-0.21392553
-0.7882975	h l e	-0.43053627
-0.30521375	w l e	-0.21392553
-0.6486479	e l e	-0.62769425
-0.74286896	u l e	-0.53850174
-0.743236	a l e	-0.5412183
-0.62552494	i l e	-0.53590536
-0.6546061	d l e	-0.3436867
-0.63385576	l l e	-0.24324569
-1.0426666	t l e	-0.29130855
-0.65119195	E l e	-0.21392553
-0.65119195	K l e	-0.21392553
-0.65119195	O l e	-0.21392553
-0.30521375	c l e	-0.21392553
-0.30521375	F l e	-0.21392553
-0.6259229	H l e	-0.5104619
-0.5357408	D l e	-0.21392553
-1.1581113	<s> f e	-0.21392553
-0.63503075	m f e	-0.25618398
-0.68620014	n f e	-0.21392553
-1.0260799	o f e	-0.21392553
-0.7472815	e f e	-0.25618398
-0.94005567	u f e	-0.2639533
-1.0721874	a f e	-0.21392553
-0.9425527	i f e	-0.3102337
-0.9165917	f f e	-0.21392553
-0.3098022	M f e	-0.21392553
-0.15789063	<s> r e	-0.2674239
-0.9759879	m r e	-0.21392553
-1.0529069	o r e	-0.23821944
-0.615771	p r e	-0.21392553
-0.9474297	h r e	-0.21392553
-0.7678948	e r e	-0.31265846
-0.96500015	u r e	-0.2508958
-0.98492426	a r e	-0.2674239
-0.91938597	i r e	-0.24324569
-0.82039154	r r e	-0.21392553
-0.29830492	g r e	-0.40231204
-1.0617777	t r e	-0.21392553
-0.7486924	I r e	-0.21392553
-0.7486924	P r e	-0.21392553
-0.24303223	G r e	-0.3643339
-0.6729321	F r e	-0.21392553
-3.0548499	<s> k e	-0.2508958
-0.92196167	n k e	-0.2508958
-0.6966332	o k e	-0.81149197
-0.7700726	e k e	-0.66421264
-0.8234008	u k e	-0.5086774
-1.0819923	a k e	-0.34548342
-0.814824	i k e	-0.42920193
-0.5939587	r k e	-0.21392553
-0.90005094	c k e	-0.21392553
-0.8510447	n g e	-0.3923685
-0.9817393	o g e	-0.21392553
-0.65208286	e g e	-0.55721396
-0.7529452	a g e	-0.2590812
-1.2713457	i g e	-0.21392553
-0.33159205	d g e	-0.21392553
-0.7120286	A g e	-0.21392553
-0.87110645	r g e	-0.21392553
-0.5815947	I g e	-0.21392553
-0.7219439	N g e	-0.2782639
-0.9635735	n t e	-0.274896
-1.3007803	o t e	-0.21392553
-0.60166126	p t e	-0.21392553
-1.4342146	e t e	-0.21392553
-1.2871109	u t e	-0.21392553
-0.6748713	s t e	-0.25618398
-0.96156687	a t e	-0.36513993
-1.4021716	i t e	-0.24324569
-0.711434	S t e	-0.29130855
-1.1525204	r t e	-0.21392553
-0.39947882	t t e	-0.21392553
-0.62955993	<s> j e	-0.21392553
-0.52328914	n j e	-0.34518138
-0.56144464	o j e	-0.21392553
-0.48762047	e j e	-0.42494044
-0.7718149	a j e	-0.21392553
-0.99444187	i j e	-0.21392553
-0.6268461	t j e	-0.5086775
-1.0291021	T j e	-0.21392553
-0.28095987	N j e	-0.21392553
-0.80227584	<s> C e	-0.63465625
-0.84804267	u C e	-0.21392553
-1.445767	<s> T e	-0.2639533
-1.3091727	e T e	-0.21392553
-1.3181441	i T e	-0.21392553
-0.925648	<s> P e	-0.27906892
-1.1999841	i P e	-0.21392553
-1.4603584	<s> G e	-0.21392553
-0.7824547	e G e	-0.29130855
-1.6024842	<s> E e	-0.2674239
-0.3121327	<s> v e	-0.5104619
-0.24909171	U v e	-0.21392553
-0.7662487	m v e	-0.2746895
-0.44423136	n v e	-0.21392553
-0.3060355	o v e	-0.2793733
-0.35362607	e v e	-0.3134896
-0.58756006	u v e	-0.2886151
-0.4951572	a v e	-0.3662191
-0.46368924	i v e	-0.3421872
-0.53525597	r v e	-0.21392553
-0.44423136	I v e	-0.21392553
-0.44423136	M v e	-0.21392553
-0.9142789	n K e	-0.21392553
-1.5807029	e K e	-0.21392553
-2.262598	<s> N e	-0.21392553
-1.092953	o N e	-0.21392553
-1.2547047	u N e	-0.21392553
-1.3233691	i N e	-0.21392553
-1.7064466	<s> Z e	-0.21392553
-0.59661883	u Z e	-0.21392553
-0.8307212	<s> V e	-0.21392553
-0.75865334	m V e	-0.21392553
-0.72586226	u V e	-0.21392553
-0.6536768	i V e	-0.21392553
-0.80350524	<s> L e	-0.49186254
-0.24195512	o L e	-0.2639533
-1.2868807	e L e	-0.21392553
-0.82334685	u L e	-0.21392553
-0.9559437	i L e	-0.21392553
-1.1467483	<s> c e	-0.21392553
-0.8488407	n c e	-0.2639533
-1.1558578	e c e	-0.21392553
-0.83113927	i c e	-0.460304
-0.3478154	r c e	-0.2674239
-1.1593527	g c e	-0.21392553
-0.7119839	c c e	-0.21392553
-0.3886028	x c e	-0.29130855
-1.0044447	<s> F e	-0.2886151
-0.8814854	m F e	-0.21392553
-0.8634983	a F e	-0.21392553
-0.20436338	<s> R e	-0.6184591
-1.0511762	e R e	-0.21392553
-0.49325395	u R e	-0.21392553
-0.570901	a R e	-0.21392553
-0.29023317	o x e	-0.21392553
-0.29023317	i x e	-0.21392553
-0.61863536	E x e	-0.21392553
-1.8379457	<s> M e	-0.21392553
-0.92937934	o M e	-0.29130855
-1.1497544	e M e	-0.21392553
-1.1519413	u M e	-0.21392553
-1.0832133	a M e	-0.21392553
-0.81049466	i M e	-0.21392553
-0.8311303	<s> H e	-0.41176745
-0.620614	u H e	-0.21392553
-0.3600056	<s> Y e	-0.70928985
-0.3104514	u Y e	-0.21392553
-0.3104514	a Y e	-0.21392553
-0.61874664	<s> W e	-0.46222773
-0.57472545	e W e	-0.21392553
-0.57472545	a W e	-0.21392553
-0.37249193	<s> D e	-0.53299445
-0.70912063	e D e	-0.21392553
-0.70912063	a D e	-0.21392553
-0.23285982	i D e	-0.21392553
-1.2584823	<s> U b	-1.063304
-1.5533748	<s> m b	-0.3643339
-1.4424328	U m b	-0.21392553
-1.2364413	o m b	-0.5829256
-0.97696275	e m b	-0.5091394
-1.0780133	u m b	-0.4862762
-0.90799177	a m b	-0.53927785
-0.7820529	i m b	-0.54447967
-0.95432043	<s> o b	-1.2387038
-1.3859243	m o b	-0.21392553
-0.979835	n o b	-0.46291995
-1.2608485	q o b	-0.21392553
-1.3766326	h o b	-0.21392553
-1.3755931	w o b	-0.21392553
-1.403365	b o b	-0.2508958
-1.0314047	s o b	-0.2746895
-1.4406198	y o b	-0.21392553
-1.4005365	d o b	-0.21392553
-1.3064497	S o b	-0.21392553
-1.1937613	z o b	-0.2639533
-1.2025546	B o b	-0.21392553
-1.1140878	l o b	-0.39290577
-1.237971	r o b	-0.21392553
-1.3246222	k o b	-0.2886151
-1.2209002	g o b	-0.2508958
-1.3764632	t o b	-0.21392553
-1.2773409	K o b	-0.21392553
-0.67994314	N o b	-0.2674239
-0.8742166	W o b	-0.21392553
-1.3240684	<s> e b	-1.2568655
-1.7526344	m e b	-0.21392553
-1.6786287	n e b	-0.24324569
-1.4030454	h e b	-0.2508958
-1.2065566	w e b	-0.39236262
-1.5233779	b e b	-0.2674239
-1.1617943	s e b	-0.4927351
-1.769048	y e b	-0.21392553
-1.4158125	d e b	-0.21392553
-0.9221653	S e b	-0.5086775
-1.6187779	z e b	-0.29130855
-1.5163802	l e b	-0.2752404
-1.6899242	g e b	-0.21392553
-0.5461104	F e b	-0.2639533
-0.7094906	W e b	-0.29130855
-1.2757267	D e b	-0.21392553
-1.1616945	<s> u b	-1.3744408
-0.79209507	q u b	-0.2868287
-0.8206055	p u b	-0.29130855
-1.1350358	h u b	-0.2752404
-1.0325159	w u b	-0.2590812
-1.2999859	b u b	-0.34451947
-1.3916807	z u b	-0.21392553
-1.185226	B u b	-0.29130855
-1.611165	l u b	-0.21392553
-1.5563504	f u b	-0.21392553
-1.2929931	k u b	-0.5997579
-1.3622162	g u b	-0.2639533
-0.64205736	P u b	-0.21392553
-1.4875346	K u b	-0.21392553
-1.1953613	c u b	-0.21392553
-2.1821146	e s b	-0.21392553
-0.54254085	<s> a b	-1.8281305
-1.3828514	m a b	-0.3421872
-1.1348555	n a b	-0.40593463
-1.5316358	q a b	-0.21392553
-1.0795114	h a b	-0.42019832
-1.1399015	w a b	-0.407095
-1.2000743	b a b	-0.3700817
-1.2335359	s a b	-0.34494627
-1.374372	y a b	-0.28906286
-1.2481573	d a b	-0.2746895
-1.0584524	z a b	-0.38485438
-1.4454598	B a b	-0.21392553
-1.2182024	l a b	-0.40593463
-1.2245244	k a b	-0.2752404
-1.3938715	g a b	-0.2639533
-1.326011	j a b	-0.29130855
-0.89421237	G a b	-0.2639533
-0.76486707	N a b	-0.29130855
-1.3958368	L a b	-0.21392553
-1.0045165	c a b	-0.2868287
-1.1390566	R a b	-0.21392553
-1.4012829	<s> i b	-1.1776843
-1.3511206	m i b	-0.32542834
-1.4004754	n i b	-0.21392553
-1.344815	s i b	-0.4714124
-1.2162244	y i b	-0.3355676
-1.4025832	d i b	-0.21392553
-1.4894316	S i b	-0.21392553
-1.2954952	z i b	-0.43711567
-1.4856542	l i b	-0.27545244
-1.2970942	k i b	-0.2868287
-1.3605248	g i b	-0.24884918
-0.81213	K i b	-0.21392553
-1.2582859	Z i b	-0.21392553
-1.3097935	L i b	-0.21392553
-1.0648105	D i b	-0.21392553
-0.68322325	A l b	-0.21392553
-1.0885894	<s> A b	-0.9480757
-0.8126186	w A b	-0.21392553
-0.37069392	s A b	-0.21392553
-1.7929902	e r b	-0.29130855
-1.9083546	o t b	-0.21392553
-2.2509696	<s> I b	-0.2508958
-1.3562654	<s> E b	-0.6548055
-1.686129	<s> M b	-0.2868287
-1.2902297	e M b	-0.21392553
-1.3173069	u M b	-0.21392553
-1.2087371	a M b	-0.21392553
-0.98115605	<s> m u	-0.86889446
-1.3367432	U m u	-0.21392553
-1.0845299	m m u	-0.21392553
-1.2869842	o m u	-0.41668907
-1.5809065	e m u	-0.21392553
-1.2271677	u m u	-0.32521427
-0.92840195	a m u	-0.43305895
-1.3514217	i m u	-0.25618398
-0.3610789	O m u	-0.21392553
-1.7362146	m n u	-0.21392553
-1.5522599	e n u	-0.44351518
-1.9500078	a n u	-0.2639533
-1.3918706	<s> q u	-0.21392553
-0.9440456	n q u	-0.2508958
-1.2321697	e q u	-0.21392553
-0.80778426	u q u	-0.2639533
-1.1259903	i q u	-0.21392553
-0.32605803	c q u	-0.21392553
-1.739056	s o u	-0.21392553
-1.5656059	y o u	-0.21392553
-1.1564951	i o u	-0.21392553
-1.4115348	S o u	-0.21392553
-1.3825607	f o u	-0.21392553
-1.2337686	C o u	-0.21392553
-0.91945827	T o u	-0.21392553
-1.1153712	L o u	-0.21392553
-1.3585691	c o u	-0.21392553
-0.81143713	R o u	-0.21392553
-1.3236736	M o u	-0.21392553
-2.4705637	<s> p u	-0.21392553
-1.4203357	m p u	-0.21392553
-0.9873198	e p u	-0.44351518
-1.162258	i p u	-0.2639533
-0.7590606	I p u	-0.21392553
-0.77331215	M p u	-0.21392553
-0.8497146	p h u	-0.3993039
-0.96231335	b h u	-0.2538257
-0.8875087	B h u	-0.29130855
-0.87515694	l h u	-0.21392553
-0.74264693	r h u	-0.42209432
-0.7082532	k h u	-0.46598452
-0.8096125	t h u	-0.4352476
-0.8847652	j h u	-0.24324569
-0.8879533	T h u	-0.2746895
-1.1045616	P h u	-0.2868287
-0.75299233	K h u	-0.3737879
-0.525782	R h u	-0.3643339
-0.970672	o w u	-0.2639533
-1.0809406	e w u	-0.23985149
-0.8326638	u w u	-0.2508958
-0.6006669	a w u	-0.36773187
-1.3081465	i w u	-0.21392553
-0.35446832	A w u	-0.21392553
-2.2710683	l e u	-0.21392553
-1.3745012	<s> b u	-0.55656177
-0.5363982	U b u	-0.21392553
-0.733647	m b u	-0.41153315
-0.49357423	o b u	-0.46686047
-0.8088979	e b u	-0.28562266
-0.67846507	u b u	-0.3131394
-0.3056003	s b u	-0.21392553
-0.817461	a b u	-0.35828564
-0.7195375	i b u	-0.3940012
-0.86254895	A b u	-0.21392553
-0.3056003	E b u	-0.21392553
-2.8303137	<s> s u	-0.2868287
-0.99425256	m s u	-0.21392553
-1.2513168	n s u	-0.21392553
-1.3429228	o s u	-0.21392553
-1.4738281	e s u	-0.2639533
-1.2314016	u s u	-0.23466457
-1.1838628	a s u	-0.3303546
-1.3261186	i s u	-0.2674239
-1.164853	t s u	-0.21392553
-1.1985546	e a u	-0.21392553
-1.8431365	d a u	-0.21392553
-1.3392543	G a u	-0.21392553
-1.5517068	L a u	-0.21392553
-1.289535	n y u	-0.24324569
-0.2442213	h y u	-0.21392553
-1.3606193	e y u	-0.29130855
-1.7496619	a y u	-0.21392553
-1.5937572	i y u	-0.21392553
-2.010043	n i u	-0.21392553
-1.1938246	n d u	-0.2746895
-1.088821	o d u	-0.2639533
-1.081402	e d u	-0.24324569
-1.0786779	u d u	-0.24324569
-1.079229	a d u	-0.24884918
-1.304113	i d u	-0.29130855
-0.3395515	E d u	-0.21392553
-1.1083207	N d u	-0.21392553
-1.6553116	<s> S u	-0.27920207
-0.8723783	i S u	-0.21392553
-0.78843707	m z u	-0.29130855
-0.933905	n z u	-0.29130855
-1.2427139	o z u	-0.21392553
-1.248077	e z u	-0.25618398
-0.96703744	u z u	-0.25644386
-1.1971734	a z u	-0.41176745
-1.1910385	i z u	-0.3643339
-0.55344343	d z u	-0.2868287
-0.781217	N z u	-0.21392553
-0.8555535	<s> B u	-0.3421872
-0.58322835	m B u	-0.29130855
-0.21557213	o B u	-0.21392553
-0.8115346	e B u	-0.21392553
-0.5009887	u B u	-0.21392553
-0.53139174	a B u	-0.21392553
-0.53893113	i B u	-0.24324569
-2.6477067	<s> l u	-0.5086775
-1.2537419	o l u	-0.21392553
-0.984739	h l u	-0.35127816
-1.348336	e l u	-0.3643339
-0.74217576	b l u	-0.21392553
-0.79487807	u l u	-0.46568185
-1.2691903	a l u	-0.37507755
-1.1335256	i l u	-0.4640356
-0.6851618	d l u	-0.5438876
-0.5903493	f l u	-0.21392553
-0.5903493	g l u	-0.21392553
-0.91772103	I l u	-0.21392553
-1.1609737	H l u	-0.21392553
-2.06855	<s> A u	-0.5086775
-0.5422187	<s> f u	-0.2886151
-0.5301388	U f u	-0.21392553
-0.42065632	m f u	-0.45133168
-0.7294267	o f u	-0.2674239
-0.3019103	w f u	-0.21392553
-0.5246774	e f u	-0.5896451
-0.57051957	u f u	-0.31720284
-0.5938272	a f u	-0.45553085
-0.56226116	i f u	-0.48663294
-0.3019103	r f u	-0.21392553
-0.64389825	I f u	-0.21392553
-1.7041788	o r u	-0.21392553
-1.847385	e r u	-0.21392553
-0.80665386	u r u	-0.2826507
-1.5764984	a r u	-0.21392553
-1.3029671	t r u	-0.21392553
-0.39955142	<s> k u	-1.5753673
-0.75133026	U k u	-0.21392553
-0.9479119	n k u	-0.2793733
-0.6530542	o k u	-0.68678385
-0.9788044	e k u	-0.36989468
-0.80045307	u k u	-0.29341462
-0.934256	a k u	-0.41130114
-1.1338949	i k u	-0.3178529
-0.5539842	A k u	-0.21392553
-0.75133026	I k u	-0.21392553
-0.6751466	E k u	-0.21392553
-0.6751466	N k u	-0.21392553
-0.75133026	O k u	-0.21392553
-0.8039746	m g u	-0.21392553
-1.0476401	n g u	-0.28551754
-1.0234027	o g u	-0.21392553
-0.94217354	e g u	-0.40231204
-0.7610065	u g u	-0.23821944
-1.1865324	a g u	-0.25618398
-0.7613566	i g u	-0.32392505
-1.2351575	N g u	-0.21392553
-1.1541893	<s> t u	-0.41176745
-1.067047	n t u	-0.27545244
-1.0414509	e t u	-0.5878587
-1.829809	a t u	-0.21392553
-1.5377208	i t u	-0.29130855
-1.0409923	S t u	-0.21392553
-0.61725336	l t u	-0.21392553
-0.58304876	N t u	-0.25618398
-1.1166339	c t u	-0.21392553
-1.4956344	e j u	-0.21392553
-1.6171747	t j u	-0.21392553
-1.2837831	<s> C u	-0.36779633
-1.5733805	<s> T u	-0.29130855
-0.6645598	e T u	-0.41176745
-1.6182897	<s> P u	-0.29130855
-1.3346266	e P u	-0.21392553
-1.0513679	<s> G u	-0.2639533
-0.99723035	e G u	-0.21392553
-0.7136516	a G u	-0.21392553
-0.73305565	i G u	-0.21392553
-2.051653	<s> E u	-0.21392553
-0.369597	m v u	-0.3421872
-0.8948341	o v u	-0.21392553
-1.2668833	e v u	-0.21392553
-0.6982745	u v u	-0.2590812
-0.67323536	a v u	-0.4322753
-0.60105103	i v u	-0.43535802
-0.54176736	M v u	-0.21392553
-0.35897556	<s> K u	-0.6540144
-0.3469742	n K u	-0.25618398
-0.55227935	e K u	-0.41176745
-1.0085485	u K u	-0.21392553
-1.093691	i K u	-0.21392553
-0.7928042	I K u	-0.21392553
-0.2518771	<s> X u	-0.21392553
-0.9524719	e Z u	-0.21392553
-0.58993447	u Z u	-0.21392553
-0.72332823	i Z u	-0.21392553
-0.5866835	<s> V u	-0.29130855
-0.325892	m V u	-0.2868287
-0.7264442	u V u	-0.21392553
-0.65416956	i V u	-0.21392553
-1.8909165	<s> L u	-0.21392553
-0.5756944	n L u	-0.21392553
-0.75932723	e L u	-0.2752404
-0.6729769	u L u	-0.2639533
-0.6020634	a L u	-0.2639533
-0.6341975	i L u	-0.21392553
-1.8448732	<s> O u	-0.21392553
-0.89470226	<s> c u	-0.29130855
-0.8594523	e c u	-0.2639533
-1.0148594	u c u	-0.21392553
-1.167408	i c u	-0.2639533
-0.6071591	g c u	-0.3643339
-0.83412606	N c u	-0.21392553
-0.73040736	c c u	-0.21392553
-0.55940986	<s> F u	-0.55007017
-0.29695475	m F u	-0.2868287
-0.27379224	o F u	-0.21392553
-0.2807659	e F u	-0.36779633
-0.49766785	u F u	-0.29130855
-0.64508235	a F u	-0.21392553
-0.33231646	i F u	-0.29130855
-0.48359427	I F u	-0.21392553
-2.1600296	<s> M u	-0.21392553
-1.5235047	<s> H u	-0.21392553
-1.4652245	<s> Y u	-0.21392553
-0.22783686	e Y u	-0.2868287
-1.4555992	<s> J u	-0.21392553
-0.8036247	a D u	-0.21392553
-2.425278	<s> U s	-0.29130855
-0.90455884	<s> m s	-1.1319268
-1.419798	U m s	-0.21392553
-1.269367	o m s	-0.7067566
-1.7428963	e m s	-0.2639533
-1.4493678	u m s	-0.24884918
-1.5446737	a m s	-0.41176745
-1.8659377	i m s	-0.21392553
-3.8377786	<s> n s	-0.21392553
-1.7734519	o n s	-0.21392553
-1.3321996	e n s	-0.44351518
-1.7329005	a n s	-0.2508958
-1.5790942	i n s	-0.2639533
-1.276945	I n s	-0.21392553
-1.61184	<s> o s	-0.6226208
-1.4283246	m o s	-0.21392553
-1.6212767	n o s	-0.21392553
-0.83519447	p o s	-0.2659331
-1.2607867	h o s	-0.24324569
-1.4385273	b o s	-0.29130855
-1.0441303	s o s	-0.3643339
-0.6442621	d o s	-0.38373873
-1.072586	S o s	-0.29130855
-1.3854792	l o s	-0.24368481
-1.3295354	f o s	-0.21392553
-1.2672684	r o s	-0.21392553
-0.98997	k o s	-0.5878587
-1.528457	g o s	-0.21392553
-1.3104037	K o s	-0.21392553
-1.2636561	M o s	-0.21392553
-0.9759649	D o s	-0.21392553
-1.9734163	e p s	-0.21392553
-1.8118027	b h s	-0.21392553
-1.0595734	w w s	-0.21392553
-0.8153706	<s> e s	-2.0657835
-1.609329	m e s	-0.21392553
-1.121765	n e s	-0.3569032
-1.347443	h e s	-0.24324569
-1.2137266	w e s	-0.48571646
-1.4268558	b e s	-0.24884918
-1.2399628	s e s	-0.38608238
-1.453702	y e s	-0.23466457
-0.5232613	i e s	-0.5086775
-1.3419266	d e s	-0.29130855
-1.508899	S e s	-0.21392553
-1.4104761	z e s	-0.25644386
-1.3451393	l e s	-0.31498304
-1.038252	f e s	-0.2508958
-1.0972462	r e s	-0.21392553
-1.5228488	k e s	-0.21392553
-1.3707795	g e s	-0.24324569
-1.4988736	t e s	-0.21392553
-1.3920382	j e s	-0.21392553
-0.879928	T e s	-0.21392553
-1.2934017	v e s	-0.21392553
-0.8785822	L e s	-0.25618398
-0.94200855	c e s	-0.2639533
-0.8909308	F e s	-0.21392553
-1.1758662	R e s	-0.21392553
-0.78030807	x e s	-0.21392553
-1.0192918	W e s	-0.21392553
-1.8528882	o b s	-0.21392553
-2.0802164	a b s	-0.21392553
-2.0336542	<s> u s	-0.74755955
-1.5480196	m u s	-0.21392553
-1.459407	h u s	-0.2508958
-1.2664618	w u s	-0.2746895
-1.2106414	b u s	-0.39566222
-0.9127595	s u s	-0.3643339
-1.3495615	d u s	-0.21392553
-1.1541021	B u s	-0.21392553
-1.3322015	l u s	-0.21392553
-0.9284319	r u s	-0.21392553
-1.3153442	k u s	-0.6020992
-1.5001342	g u s	-0.21392553
-0.6301738	C u s	-0.21392553
-0.9325453	v u s	-0.41176745
-1.4270775	K u s	-0.21392553
-1.1560271	c u s	-0.21392553
-0.6301738	Y u s	-0.21392553
-0.35823843	J u s	-0.21392553
-1.6954448	e s s	-0.21392553
-1.6570386	a s s	-0.21392553
-2.0427747	i s s	-0.21392553
-0.80427265	A s s	-0.21392553
-1.0508504	I s s	-0.21392553
-1.4027975	<s> a s	-1.1013203
-1.2864063	m a s	-0.38604024
-1.1971583	n a s	-0.3737879
-0.629922	o a s	-0.21392553
-1.0573226	p a s	-0.29130855
-1.3765224	h a s	-0.3102337
-1.3432213	w a s	-0.38608238
-1.0709456	e a s	-0.21392553
-1.2920511	b a s	-0.38600418
-1.3038818	s a s	-0.3303546
-0.629922	a a s	-0.21392553
-1.2374853	y a s	-0.32542834
-1.2308213	S a s	-0.21392553
-1.3020911	z a s	-0.2886151
-1.3806026	B a s	-0.21392553
-1.3480102	l a s	-0.31579596
-1.1295413	r a s	-0.3643339
-1.478176	k a s	-0.2639533
-1.3472846	g a s	-0.24368481
-1.4706668	t a s	-0.21392553
-1.0166206	C a s	-0.21392553
-1.2218056	P a s	-0.21392553
-0.3581038	E a s	-0.21392553
-1.3081553	N a s	-0.21392553
-1.340333	c a s	-0.21392553
-0.9610085	F a s	-0.21392553
-1.3967252	M a s	-0.21392553
-0.38041216	S y s	-0.21392553
-0.78028494	<s> i s	-1.9332347
-1.147615	m i s	-0.33189112
-0.98998696	n i s	-0.37880567
-1.2791322	q i s	-0.21392553
-1.0269417	h i s	-0.38604024
-1.0548923	w i s	-0.2674239
-1.2061694	b i s	-0.2720969
-0.87364393	u i s	-0.21392553
-1.2924832	s i s	-0.5091394
-1.3388945	y i s	-0.28981012
-0.9415828	d i s	-0.30426317
-1.1471095	S i s	-0.21392553
-1.2474029	z i s	-0.4837605
-1.2811058	l i s	-0.5265086
-0.6434127	f i s	-0.32298917
-1.1284668	r i s	-0.25644386
-0.8751447	k i s	-0.34545782
-1.138994	g i s	-0.2639533
-1.5072576	t i s	-0.21392553
-0.7501003	j i s	-0.2659331
-1.1806097	Z i s	-0.21392553
-1.2198362	L i s	-0.21392553
-1.0626388	c i s	-0.21392553
-0.627549	F i s	-0.21392553
-0.35683313	x i s	-0.21392553
-1.7769269	n d s	-0.21392553
-1.9898694	a d s	-0.21392553
-1.1000159	r d s	-0.21392553
-2.2538617	e l s	-0.21392553
-2.250559	a l s	-0.21392553
-1.3199396	l l s	-0.21392553
-1.5253912	<s> A s	-0.63465625
-1.1920153	f f s	-0.21392553
-1.5516003	o r s	-0.29130855
-1.1715353	e r s	-0.31579596
-1.8772547	a r s	-0.21392553
-1.6845459	i r s	-0.21392553
-2.0399158	o k s	-0.21392553
-1.5359242	e k s	-0.2746895
-2.2085295	a k s	-0.21392553
-2.0400653	n g s	-0.21392553
-1.4805434	n t s	-0.29130855
-1.3911476	o t s	-0.21392553
-1.2697598	e t s	-0.41176745
-1.3510202	u t s	-0.2639533
-1.4372011	a t s	-0.2508958
-1.1266612	i t s	-0.5878587
-0.7882578	I t s	-0.21392553
-0.79037374	<s> I s	-1.1520305
-1.714488	<s> T s	-0.21392553
-0.9774235	e T s	-0.29130855
-1.1114117	a T s	-0.21392553
-1.279304	i T s	-0.21392553
-0.87663	<s> E s	-0.9441175
-1.2224201	u K s	-0.21392553
-1.4988854	i c s	-0.29130855
-2.2105472	<s> M s	-0.21392553
-0.4027311	<s> m a	-0.7661531
-1.1988257	U m a	-0.21392553
-1.0116442	m m a	-0.21392553
-1.2042545	o m a	-0.34947896
-0.899654	e m a	-0.4137917
-0.7794349	u m a	-0.33010715
-0.7782483	a m a	-0.5828219
-0.7519209	i m a	-0.45051846
-0.34424087	S m a	-0.21392553
-0.34424087	z m a	-0.21392553
-0.60434943	A m a	-0.21392553
-0.7430452	r m a	-0.21392553
-0.9871661	I m a	-0.21392553
-0.94803125	E m a	-0.21392553
-0.35885474	M m a	-0.2674239
-0.61766016	<s> n a	-1.7934489
-1.1470813	m n a	-0.2639533
-0.99979997	o n a	-0.43793562
-1.1281606	e n a	-0.4902591
-1.0017042	u n a	-0.31857643
-1.0033762	a n a	-0.514405
-0.6097519	y n a	-0.21392553
-1.0388551	i n a	-0.4000746
-0.72319037	r n a	-0.21392553
-1.1212269	I n a	-0.21392553
-1.0441166	E n a	-0.21392553
-0.3472007	c n a	-0.21392553
-0.2531458	<s> q a	-0.68476874
-0.7939068	m q a	-0.21392553
-0.88933384	n q a	-0.29130855
-0.32210618	o q a	-0.2746895
-0.8546738	e q a	-0.2508958
-0.48432195	u q a	-0.2720969
-0.49858713	a q a	-0.40732926
-0.4984506	i q a	-0.42509046
-1.3785824	B o a	-0.21392553
-1.3336968	C o a	-0.21392553
-2.1720426	<s> p a	-0.29130855
-0.88271135	m p a	-0.2746895
-1.3145853	o p a	-0.21392553
-0.83245224	e p a	-0.46222773
-0.9937124	u p a	-0.21392553
-1.4037124	a p a	-0.21392553
-1.114899	i p a	-0.25618398
-0.5900094	S p a	-0.21392553
-1.8976864	<s> h a	-0.29130855
-0.82408625	o h a	-0.21392553
-0.6809045	p h a	-0.5131141
-0.7175965	b h a	-0.3441311
-1.0987539	a h a	-0.21392553
-0.5360193	S h a	-0.21392553
-0.6955082	B h a	-0.2508958
-0.6819094	l h a	-0.2746895
-0.64905393	r h a	-0.3378662
-0.6772358	k h a	-0.42306268
-0.791567	g h a	-0.23466457
-0.87150484	t h a	-0.40199748
-0.7974012	j h a	-0.2508958
-0.5418373	C h a	-0.24324569
-0.8105273	T h a	-0.2639533
-0.70156	P h a	-0.37215042
-0.30537757	G h a	-0.21392553
-0.7085461	K h a	-0.26902512
-0.24945554	c h a	-0.2659331
-0.9749089	R h a	-0.21392553
-0.81913936	<s> w a	-1.1110086
-0.36615995	n w a	-0.3559912
-0.80753136	o w a	-0.2241713
-0.31798458	h w a	-0.29708043
-0.65555024	e w a	-0.2752404
-0.64368474	u w a	-0.21392553
-0.2004058	s w a	-0.3134896
-0.70316756	a w a	-0.27333847
-0.35976163	y w a	-0.2674239
-0.41632923	i w a	-0.50254583
-0.5032644	d w a	-0.3421872
-0.31336516	S w a	-0.21392553
-0.4779844	z w a	-0.43876976
-0.33298227	l w a	-0.47571567
-0.6748096	r w a	-0.21392553
-0.4591286	k w a	-0.36659688
-0.34337366	g w a	-0.28938296
-0.34688446	t w a	-0.2639533
-0.26924992	j w a	-0.44351518
-0.47861233	K w a	-0.21392553
-0.4525495	Z w a	-0.21392553
-0.1652909	L w a	-0.2752404
-0.18665339	c w a	-0.2508958
-1.7728162	S e a	-0.21392553
-1.5296496	r e a	-0.2639533
-1.3272597	R e a	-0.21392553
-0.6753117	H e a	-0.21392553
-1.3575165	D e a	-0.21392553
-0.66282403	<s> b a	-1.0878205
-0.5108213	U b a	-0.21392553
-0.7180246	m b a	-0.38529974
-0.55268717	o b a	-0.29328617
-0.73591524	e b a	-0.33263192
-0.71973556	u b a	-0.27786753
-0.68559855	a b a	-0.5410785
-0.80288756	i b a	-0.35127816
-0.8145455	A b a	-0.21392553
-0.2903853	r b a	-0.21392553
-0.2903853	t b a	-0.21392553
-0.6189594	I b a	-0.21392553
-0.7101292	M b a	-0.21392553
-1.4079925	o u a	-0.21392553
-1.8255733	g u a	-0.21392553
-1.5097436	t u a	-0.21392553
-0.99636525	<s> s a	-0.8642227
-0.7399347	n s a	-0.3643339
-0.7862823	o s a	-0.2995832
-0.34026027	h s a	-0.21392553
-0.817993	e s a	-0.44791687
-0.675695	u s a	-0.32246712
-0.73736954	a s a	-0.33300918
-0.6923294	i s a	-0.58460814
-0.95195264	k s a	-0.21392553
-0.9322616	I s a	-0.21392553
-2.172535	k a a	-0.21392553
-1.688089	v a a	-0.21392553
-0.8310123	<s> y a	-1.1185949
-0.7293126	m y a	-0.21392553
-0.50426507	n y a	-0.47446486
-0.75350165	o y a	-0.2508958
-0.6681193	e y a	-0.31777462
-0.81142694	u y a	-0.27639365
-0.8298913	a y a	-0.31388775
-0.46138236	i y a	-0.41582546
-0.51647216	A y a	-0.21392553
-0.7713368	t y a	-0.21392553
-0.4452129	N y a	-0.29130855
-1.9669455	m i a	-0.21392553
-1.8236079	n i a	-0.21392553
-1.7317905	b i a	-0.21392553
-1.7277017	d i a	-0.21392553
-2.0809412	l i a	-0.21392553
-1.513544	r i a	-0.21392553
-1.1425972	t i a	-0.21392553
-0.78947896	c i a	-0.2674239
-1.0920459	D i a	-0.21392553
-1.0882097	<s> d a	-0.21392553
-0.875697	m d a	-0.21392553
-0.7125516	n d a	-0.38604024
-0.7079105	o d a	-0.4057266
-0.9371879	e d a	-0.36779633
-0.707806	u d a	-0.27144533
-0.74935377	a d a	-0.37990108
-1.0153427	i d a	-0.24324569
-0.89292437	r d a	-0.21392553
-0.32034412	I d a	-0.21392553
-0.7949308	N d a	-0.2639533
-1.2695271	<s> S a	-0.3817457
-1.0437411	e S a	-0.21392553
-1.2321432	u S a	-0.21392553
-1.1939052	I S a	-0.21392553
-0.84555113	<s> z a	-0.94948715
-0.2904683	U z a	-0.21392553
-0.47355187	m z a	-0.24884918
-0.86899465	n z a	-0.24324569
-0.77576834	o z a	-0.2538257
-0.6642812	e z a	-0.5675046
-0.7304157	u z a	-0.40017912
-0.72220266	a z a	-0.45798692
-0.60724264	i z a	-0.46199194
-0.6191364	I z a	-0.21392553
-0.2904683	v z a	-0.21392553
-0.2904683	O z a	-0.21392553
-0.40220606	<s> B a	-0.52916914
-0.8657904	m B a	-0.21392553
-0.5678679	e B a	-0.2659331
-0.8826911	u B a	-0.21392553
-0.5507611	a B a	-0.29130855
-0.7122636	i B a	-0.21392553
-0.72464335	<s> l a	-1.2841362
-0.3726478	m l a	-0.5086775
-0.8351895	n l a	-0.21392553
-0.93926215	o l a	-0.31041926
-0.4498721	p l a	-0.2746895
-0.6275929	h l a	-0.5563112
-0.72826195	e l a	-0.5606801
-0.7109523	u l a	-0.45420927
-0.6609914	a l a	-0.546173
-0.828821	i l a	-0.414769
-0.6508671	d l a	-0.4830824
-0.30138975	B l a	-0.21392553
-0.7155365	t l a	-0.28245422
-0.7968279	I l a	-0.21392553
-0.30138975	C l a	-0.21392553
-1.0715063	T l a	-0.21392553
-0.30138975	P l a	-0.21392553
-0.642755	E l a	-0.21392553
-0.642755	K l a	-0.21392553
-0.30138975	M l a	-0.21392553
-0.48754483	H l a	-0.39127743
-0.5292587	D l a	-0.21392553
-0.55743325	U f a	-0.21392553
-0.92843133	m f a	-0.29130855
-0.6132439	o f a	-0.2746895
-1.0105921	e f a	-0.2674239
-0.5891008	u f a	-0.43053627
-0.5509003	a f a	-0.5684539
-0.6897479	i f a	-0.47827727
-0.94199973	f f a	-0.21392553
-0.6797114	I f a	-0.21392553
-0.59972465	m r a	-0.2868287
-0.7993855	o r a	-0.2538257
-0.7150389	h r a	-0.21392553
-0.7725199	e r a	-0.41596738
-0.97543305	u r a	-0.2746895
-0.31912535	s r a	-0.21392553
