\data\
ngram 1=58
ngram 2=1179
ngram 3=6607
ngram 4=20330
ngram 5=41138

\1-grams:
-2.9135747	<unk>	0
0	<s>	-2.4363532
-1.4093361	</s>	0
-1.6924151	A	-0.30657333
-1.9945606	B	-0.4094543
-1.6924151	S	-0.45866793
-2.0325522	G	-0.3304098
-1.8690637	O	-0.3334118
-1.794166	I	-0.30385146
-1.9272947	D	-0.30024657
-1.897204	L	-0.4142684
-1.8177253	b	-0.63779175
-1.3908285	a	-0.95829684
-1.9272947	N	-0.38217974
-1.6100364	t	-0.7515482
-1.4093361	u	-0.7572731
-1.8426363	P	-0.37065214
-1.4924325	h	-0.8328788
-1.3999836	i	-0.8982426
-1.567198	s	-0.70404774
-1.5282084	w	-0.77321786
-1.4093361	e	-0.8757292
-1.7109469	k	-0.61858344
-1.6411388	c	-0.6884036
-1.8426363	d	-0.5855389
-1.5040334	l	-0.77030563
-1.730305	f	-0.59003896
-1.6575673	n	-0.66708976
-1.6924151	m	-0.60495114
-1.567198	y	-0.65834665
-1.730305	p	-0.6212747
-1.6100364	r	-0.583261
-1.730305	z	-0.6468335
-1.3818623	o	-0.89036554
-1.794166	q	-0.7327974
-1.8690637	v	-0.6395051
-1.6924151	g	-0.70152265
-1.8690637	x	-0.6215144
-1.8690637	C	-0.3332333
-1.9596267	W	-0.31413257
-1.8426363	T	-0.32867125
-1.7505662	E	-0.30815107
-1.9945606	F	-0.3144483
-1.9945606	Z	-0.3813159
-1.897204	M	-0.36977658
-1.9945606	K	-0.31942737
-2.0741887	Y	-0.26165506
-1.8690637	H	-0.32481423
-2.2302423	V	-0.2547936
-2.17177	X	-0.26897848
-2.17177	Q	-0.29994765
-1.8426363	j	-0.5884335
-1.9596267	R	-0.3075134
-1.9945606	U	-0.31893188
-2.3779101	J	-0.30782428
-2.7840264	Ã	-0.29920143
-2.2302423	é	-0.5959358
-2.7840264	Â	-0.29920143

\2-grams:
-0.8897351	A </s>	0
-1.1499267	B </s>	0
-1.0107055	S </s>	0
-0.75030917	O </s>	0
-1.0268683	I </s>	0
-1.0244734	D </s>	0
-1.609324	L </s>	0
-1.3447726	b </s>	0
-1.3588723	a </s>	0
-1.582134	N </s>	0
-1.0210931	t </s>	0
-1.2714581	u </s>	0
-0.87301993	P </s>	0
-1.2219161	h </s>	0
-1.338774	i </s>	0
-0.90210503	s </s>	0
-1.4607613	w </s>	0
-1.3084621	e </s>	0
-1.1816169	k </s>	0
-1.479108	c </s>	0
-1.1550515	d </s>	0
-1.0560163	l </s>	0
-1.5681485	f </s>	0
-1.2541852	n </s>	0
-1.30137	m </s>	0
-0.78759366	y </s>	0
-1.1756227	p </s>	0
-1.3846899	r </s>	0
-1.1204691	z </s>	0
-1.3579972	o </s>	0
-1.7639412	q </s>	0
-1.4941406	v </s>	0
-1.0331827	g </s>	0
-1.5795454	x </s>	0
-1.046919	C </s>	0
-1.0820554	T </s>	0
-1.4414613	E </s>	0
-1.3573408	F </s>	0
-1.4767426	Z </s>	0
-1.5981498	M </s>	0
-1.059809	V </s>	0
-0.90193796	j </s>	0
-1.2010138	R </s>	0
-0.94035566	U </s>	0
-0.121289246	é </s>	0
-0.28612778	Â </s>	0
-2.4302428	<s> A	-0.6786022
-1.7782766	A A	-0.22664426
-0.94183606	S A	-0.38876212
-1.5193475	G A	-0.22664426
-1.5052332	O A	-0.22664426
-1.7644954	I A	-0.22664426
-1.523431	D A	-0.31091014
-1.7595309	L A	-0.22664426
-1.845292	N A	-0.22664426
-2.2583666	u A	-0.2809677
-1.4909568	P A	-0.22664426
-2.409585	i A	-0.25295714
-1.9656533	w A	-0.22664426
-1.9648938	e A	-0.4133959
-2.1416702	m A	-0.22664426
-1.6884421	C A	-0.22664426
-0.823694	W A	-0.30698925
-1.4681505	T A	-0.37021416
-1.7001708	E A	-0.22664426
-1.6110637	F A	-0.22664426
-1.6769332	M A	-0.37021416
-1.627801	K A	-0.22664426
-1.3732173	H A	-0.22664426
-1.556214	R A	-0.22664426
-2.857767	<s> B	-0.62383544
-1.7865908	A B	-0.31091014
-2.0309906	S B	-0.22664426
-1.9156758	I B	-0.22664426
-1.8704464	L B	-0.22664426
-2.1120012	a B	-0.4993937
-1.8473369	N B	-0.31091014
-2.3372207	u B	-0.27277863
-2.103945	i B	-0.3861705
-1.8489423	e B	-0.5009679
-1.873363	o B	-0.58397317
-1.662112	T B	-0.31091014
-2.1994586	<s> S	-1.0296062
-1.6701868	A S	-0.22664426
-1.6912986	B S	-0.22664426
-1.8910547	S S	-0.22664426
-1.6649098	G S	-0.22664426
-1.3889494	O S	-0.2809677
-1.2505739	I S	-0.2991235
-1.6625557	D S	-0.22664426
-2.1377354	a S	-0.30872747
-1.845292	N S	-0.22664426
-2.1745555	t S	-0.22664426
-2.2583666	u S	-0.2667366
-1.4909568	P S	-0.22664426
-1.9108679	i S	-0.34881318
-1.8552022	e S	-0.57994884
-1.9973906	d S	-0.22664426
-2.1416702	m S	-0.22664426
-2.0476172	r S	-0.22664426
-1.9449587	o S	-0.2886372
-1.4681505	T S	-0.2809677
-1.1279024	E S	-0.29269812
-1.7629067	M S	-0.22664426
-1.556214	R S	-0.22664426
-1.5363492	U S	-0.2667366
-3.1465306	<s> G	-0.29076976
-1.9500601	A G	-0.22664426
-1.6553916	I G	-0.22664426
-1.8811066	L G	-0.22664426
-2.628357	a G	-0.22664426
-1.7384565	N G	-0.2667366
-2.1699653	u G	-0.29782408
-2.0303836	i G	-0.32582393
-2.203513	e G	-0.2970476
-2.489059	o G	-0.2667366
-1.802243	U G	-0.22664426
-2.7655895	<s> O	-0.56028897
-1.8357191	S O	-0.22664426
-1.5674454	G O	-0.22664426
-1.736354	D O	-0.22664426
-1.1724367	L O	-0.32330245
-2.6444917	a O	-0.22664426
-2.3635602	u O	-0.22664426
-2.589179	e O	-0.22664426
-2.5896144	o O	-0.22664426
-1.7609379	C O	-0.22664426
-1.7878025	T O	-0.22664426
-1.8426616	M O	-0.22664426
-1.5211619	K O	-0.22664426
-1.2823955	Y O	-0.22664426
-1.5926299	H O	-0.22664426
-1.5315402	Q O	-0.22664426
-2.029648	<s> I	-0.83518904
-1.7149632	A I	-0.31091014
-1.8101568	S I	-0.22664426
-1.7066388	G I	-0.22664426
-1.696	I I	-0.2667366
-1.5553681	D I	-0.31091014
-1.9023855	N I	-0.22664426
-2.551729	i I	-0.22664426
-2.4604127	e I	-0.22664426
-2.0477436	d I	-0.22664426
-1.4598817	C I	-0.22664426
-1.3487763	W I	-0.2809677
-1.7571062	T I	-0.22664426
-1.3583174	F I	-0.2809677
-1.0788065	Z I	-0.2667366
-1.9250014	M I	-0.22664426
-1.3943108	H I	-0.31091014
-1.4167255	R I	-0.22664426
-1.1990898	J I	-0.22664426
-3.0361056	<s> D	-0.49430746
-1.6542044	A D	-0.2667366
-1.7528077	G D	-0.22664426
-1.7439914	I D	-0.22664426
-2.579514	a D	-0.22664426
-1.8263513	N D	-0.22664426
-2.1422849	u D	-0.22664426
-2.3040147	i D	-0.30698925
-2.0885694	e D	-0.2970476
-2.5309339	o D	-0.2809677
-1.6125998	C D	-0.22664426
-1.6413852	E D	-0.22664426
-1.9967558	M D	-0.22664426
-1.6269885	R D	-0.22664426
-2.893318	<s> L	-0.56698394
-1.6460793	A L	-0.22664426
-1.5574974	O L	-0.22664426
-1.8726691	I L	-0.22664426
-1.839951	L L	-0.22664426
-2.1909833	a L	-0.3455126
-2.1334367	u L	-0.288262
-2.010855	i L	-0.32963377
-1.8880343	e L	-0.47195196
-2.2740216	m L	-0.22664426
-1.7680826	o L	-0.64715517
-1.1503644	E L	-0.30698925
-1.9814252	M L	-0.22664426
-1.2747524	H L	-0.2809677
-1.2467926	U L	-0.2584166
-1.335082	<s> b	-2.151524
-1.8492559	A b	-0.22664426
-1.7027351	O b	-0.22664426
-1.8335402	I b	-0.22664426
-1.3694117	a b	-0.9448835
-1.3722074	u b	-0.793278
-1.4554881	i b	-0.920864
-1.9621025	s b	-0.22664426
-1.4745805	e b	-0.78545785
-1.9159862	d b	-0.22664426
-2.128128	l b	-0.31091014
-1.5091628	m b	-0.6380118
-2.0404592	p b	-0.22664426
-2.1173048	r b	-0.22664426
-1.4463627	o b	-0.91581714
-2.1882403	g b	-0.22664426
-1.4081451	M b	-0.40649748
-1.730113	U b	-0.22664426
-1.1932896	<s> a	-1.6753997
-1.0156199	B a	-0.35043424
-1.397771	S a	-0.30795667
-1.1350604	G a	-0.22664429
-1.1419773	D a	-0.22664426
-1.0136007	L a	-0.35658547
-0.8335005	b a	-0.6001706
-1.7232467	a a	-0.42093262
-1.261155	N a	-0.2816277
-1.1504881	t a	-0.53501815
-1.8368729	u a	-0.2584166
-0.97099674	P a	-0.2766875
-0.74985576	h a	-0.8091101
-1.5888578	i a	-0.4600658
-1.0609329	s a	-0.6192343
-0.6133324	w a	-0.8091598
-1.670804	e a	-0.2708948
-1.1305068	k a	-0.53455
-1.0544511	c a	-0.59936565
-1.0474633	d a	-0.49170268
-0.8921566	l a	-0.7172293
-0.90417343	f a	-0.5293867
-1.2513474	n a	-0.586958
-1.168454	m a	-0.5682212
-0.8700421	y a	-0.6591759
-0.913322	p a	-0.415549
-0.8863329	r a	-0.41582555
-0.85306317	z a	-0.5535126
-2.1767347	o a	-0.22664426
-0.8551667	q a	-0.61073726
-0.7366368	v a	-0.571755
-1.0653156	g a	-0.5227031
-0.7808751	x a	-0.5942683
-0.8696932	C a	-0.35365388
-1.2462068	W a	-0.2667366
-1.3607175	T a	-0.2584166
-1.2537909	F a	-0.22664426
-0.7053656	Z a	-0.30872747
-1.095641	M a	-0.42246735
-1.2714932	K a	-0.2584166
-1.0617754	Y a	-0.22664426
-1.2841737	H a	-0.2809677
-1.0551319	V a	-0.2809677
-1.19806	X a	-0.22664426
-1.1187897	Q a	-0.32330245
-0.9695983	j a	-0.34252766
-1.4223847	R a	-0.22664426
-0.573077	J a	-0.29269812
-2.182925	<s> N	-1.0254816
-1.7648926	A N	-0.22664426
-1.7682123	B N	-0.22664426
-1.4241111	I N	-0.24400786
-2.1973238	a N	-0.2620947
-2.021554	u N	-0.26860318
-1.8438711	i N	-0.52275914
-1.8420705	e N	-0.60692126
-1.8978138	m N	-0.3455126
-1.8159857	o N	-0.32690904
-1.7811242	C N	-0.22664426
-1.6413852	E N	-0.22664426
-1.6908984	F N	-0.22664426
-1.2499236	U N	-0.30698925
-2.6441863	<s> t	-0.77600044
-1.7268735	A t	-0.22664426
-1.6423945	S t	-0.2970476
-1.714313	I t	-0.22664426
-1.3438275	a t	-0.85935545
-1.1447645	N t	-0.41922197
-1.5143862	t t	-0.2824778
-1.2547644	u t	-0.7569305
-1.9660441	h t	-0.22664426
-1.2988148	i t	-0.8598186
-1.2371908	s t	-0.47147813
-2.0722675	w t	-0.22664426
-1.3710071	e t	-0.7176344
-1.6328092	k t	-0.25295714
-1.270318	c t	-0.32330245
-1.8369222	d t	-0.22664426
-1.9520924	l t	-0.22664426
-1.7416408	f t	-0.22664426
-1.2017101	n t	-0.6203687
-1.477822	m t	-0.5404888
-1.9942977	y t	-0.22664426
-1.94531	p t	-0.22664426
-1.5211158	r t	-0.29008314
-1.9237832	z t	-0.22664426
-1.394424	o t	-0.7686313
-1.8933811	x t	-0.22664426
-1.2744637	M t	-0.57267183
-1.636527	U t	-0.22664426
-0.2922471	Ã t	-0.22664426
-1.0620766	<s> u	-1.6639241
-1.5871453	A u	-0.22664426
-1.0186049	B u	-0.27819335
-1.4042219	S u	-0.2584166
-1.0138116	G u	-0.32624575
-1.5107638	O u	-0.22664426
-1.4055117	D u	-0.22664426
-0.8705522	L u	-0.3843451
-0.86935467	b u	-0.6014963
-2.0298257	a u	-0.2584166
-1.0817765	t u	-0.40434203
-2.015776	u u	-0.2809677
-1.5167465	P u	-0.22664426
-0.92513156	h u	-0.7651644
-2.203923	i u	-0.22664426
-1.2650716	s u	-0.5292914
-1.283961	w u	-0.39146864
-2.0628242	e u	-0.22664426
-0.9792811	k u	-0.6592969
-1.0966051	c u	-0.44151488
-1.0496027	d u	-0.41216978
-1.0286628	l u	-0.6081687
-0.90569466	f u	-0.49948198
-1.5221007	n u	-0.3861705
-1.4334396	m u	-0.50146526
-1.0610219	y u	-0.382745
-1.4714483	p u	-0.2554302
-1.4699767	r u	-0.2584166
-0.9938897	z u	-0.48593158
-1.6553283	o u	-0.36439592
-0.82092494	q u	-0.5180345
-0.8982806	v u	-0.5992997
-1.1438111	g u	-0.49390697
-1.2667385	x u	-0.2820242
-1.4522085	T u	-0.22664426
-0.8441833	F u	-0.4170811
-1.3416094	Z u	-0.31091014
-1.6643614	M u	-0.22664426
-1.0942924	K u	-0.24505118
-0.85872614	Y u	-0.32963377
-1.4248884	H u	-0.22664426
-1.059809	V u	-0.22664426
-1.2043628	X u	-0.22664426
-0.7795565	Q u	-0.42469385
-1.054064	j u	-0.30764025
-1.1278393	J u	-0.22664426
-2.9187458	<s> P	-0.51193285
-1.8623013	A P	-0.22664426
-1.9671289	S P	-0.22664426
-1.608376	I P	-0.22664426
-1.447475	D P	-0.37021416
-2.1785736	a P	-0.4531173
-2.3489308	u P	-0.31091014
-2.0014105	i P	-0.40580806
-1.9977689	e P	-0.5307031
-2.2409298	m P	-0.22664426
-2.049892	o P	-0.67124414
-1.7511859	C P	-0.22664426
-1.5433701	W P	-0.22664426
-1.6182119	E P	-0.22664426
-1.9522976	M P	-0.22664426
-1.5858582	H P	-0.22664426
-1.6045196	R P	-0.22664426
-2.686112	<s> h	-0.72769576
-0.84416807	B h	-0.5307031
-1.312529	S h	-0.3081059
-1.5657419	G h	-0.22664426
-1.0007535	b h	-0.7007948
-1.5157202	a h	-0.7718456
-1.7165934	N h	-0.22664426
-1.0266095	t h	-0.7004139
-1.6514328	u h	-0.588261
-0.8824922	P h	-0.4951529
-1.6073114	i h	-0.6661077
-1.1406839	s h	-0.72305346
-2.0108237	w h	-0.22664426
-1.6040832	e h	-0.60976154
-1.0573556	k h	-0.702587
-0.9589403	c h	-0.6635783
-1.8812729	d h	-0.22664426
-1.9861555	l h	-0.31091014
-1.8791388	n h	-0.32963377
-1.4537618	m h	-0.505725
-1.5488485	y h	-0.2997849
-0.9622878	p h	-0.7406838
-1.1619097	r h	-0.66226
-1.8651912	z h	-0.22664426
-1.5286784	o h	-0.62920856
-1.101327	q h	-0.6327093
-1.7753567	v h	-0.22664426
-1.3042715	g h	-0.52993095
-1.0954806	x h	-0.5673536
-1.062435	C h	-0.4371609
-1.2789103	W h	-0.22664426
-1.00174	T h	-0.4474959
-1.4411709	M h	-0.4951529
-0.7943492	K h	-0.5214818
-1.0543292	X h	-0.2809677
-1.1437668	Q h	-0.2667366
-0.7779367	R h	-0.44824117
-1.5725906	U h	-0.22664426
-1.2000486	<s> i	-1.4717752
-1.3359514	B i	-0.2667366
-1.1272361	S i	-0.31533957
-1.4049348	G i	-0.22664426
-1.5704105	I i	-0.22664429
-1.0225257	D i	-0.2705718
-1.1114873	L i	-0.29260275
-1.1017554	b i	-0.51969635
-1.7253959	a i	-0.32783684
-1.5096636	N i	-0.2667366
-1.0204085	t i	-0.53983164
-1.8413202	u i	-0.2584166
-1.5116203	P i	-0.22664426
-0.9246763	h i	-0.60813814
-1.8799548	i i	-0.3277054
-0.9015242	s i	-0.63223404
-0.7597345	w i	-0.4454037
-1.6136363	e i	-0.29510283
-1.1317056	k i	-0.57037383
-0.9233868	c i	-0.501084
-0.92711407	d i	-0.5857292
-0.912472	l i	-0.64953053
-0.85899127	f i	-0.56139994
-1.147142	n i	-0.5373158
-1.2995429	m i	-0.535772
-0.9741801	y i	-0.63495904
-1.1743046	p i	-0.3353301
-0.88707376	r i	-0.45170388
-0.78064936	z i	-0.64094335
-1.9139979	o i	-0.2809677
-1.0344807	q i	-0.43921307
-0.7370977	v i	-0.41683894
-1.1868538	g i	-0.41261944
-0.90743655	x i	-0.46259648
-1.3399987	C i	-0.22664426
-1.4473403	T i	-0.22664426
-1.3532938	F i	-0.22664426
-0.7898393	Z i	-0.33036208
-1.2242434	M i	-0.29835832
-1.0641066	Y i	-0.30698925
-1.4202749	H i	-0.22664426
-1.2186644	V i	-0.22664426
-1.2012	X i	-0.22664426
-0.91686	Q i	-0.42654377
-0.9011805	j i	-0.45498088
-1.1981409	R i	-0.2824778
-1.1254123	J i	-0.22664426
-1.2229643	<s> s	-2.0772717
-1.6987196	A s	-0.22664426
-1.4635305	O s	-0.31091014
-1.5915109	I s	-0.25295714
-1.6989005	b s	-0.22664426
-1.3264925	a s	-0.8336085
-1.1277181	t s	-0.6842369
-1.3294972	u s	-0.71219486
-2.046412	h s	-0.22664426
-1.3687897	i s	-0.9791073
-1.7052974	s s	-0.25295714
-2.0508058	w s	-0.22664426
-1.367564	e s	-0.8351585
-1.4987211	k s	-0.2809677
-2.0249767	c s	-0.22664426
-1.8176425	d s	-0.31091014
-1.7616436	l s	-0.29269812
-1.7634224	n s	-0.30161947
-1.4696529	m s	-0.5597178
-1.5663735	y s	-0.2667366
-1.9226099	p s	-0.22664426
-1.6301655	r s	-0.3594701
-1.9033616	z s	-0.22664426
-1.4281958	o s	-0.7262206
-2.0533643	g s	-0.22664426
-1.6263343	C s	-0.22664426
-1.45855	W s	-0.22664426
-1.0122778	T s	-0.4679365
-1.1088672	E s	-0.3861705
-1.6955504	M s	-0.2667366
-1.7902586	j s	-0.22664426
-1.6141526	U s	-0.22664426
-1.3736905	<s> w	-2.1080742
-1.6945941	S w	-0.31091014
-1.3631551	D w	-0.2809677
-1.0330651	L w	-0.4573643
-1.9059603	b w	-0.22664426
-1.4769251	a w	-0.92293406
-1.5971715	t w	-0.42654377
-1.6165801	u w	-0.49955112
-1.2778808	h w	-0.69594693
-1.5140212	i w	-0.8183459
-1.2800741	s w	-0.65564185
-1.8055162	w w	-0.24909915
-1.7017549	e w	-0.57499945
-1.1012561	k w	-0.73030156
-1.107103	c w	-0.7567377
-1.2370396	d w	-0.6475933
-1.1975105	l w	-0.7902995
-1.8376867	f w	-0.22664426
-1.552134	n w	-0.6334556
-1.95563	m w	-0.22664426
-1.5575227	y w	-0.40455523
-1.9010376	p w	-0.22664426
-1.7761228	r w	-0.2667366
-1.1326983	z w	-0.5920629
-1.5335103	o w	-0.65567297
-0.9430424	q w	-0.7067944
-1.4530456	g w	-0.45152187
-0.9688612	x w	-0.67124414
-1.4858515	C w	-0.22664426
-1.6223079	T w	-0.22664426
-1.3802583	Z w	-0.31091014
-1.3166435	K w	-0.3353417
-1.2407645	X w	-0.22664426
-1.4261379	Q w	-0.22664426
-1.3111256	j w	-0.3353417
-0.9856003	<s> e	-1.7322797
-1.0186049	B e	-0.3234169
-1.0107055	S e	-0.40899792
-1.3186773	D e	-0.24400786
-1.503395	L e	-0.2667366
-0.994009	b e	-0.5429767
-2.2071602	a e	-0.22664426
-1.5146321	N e	-0.2809677
-1.0817765	t e	-0.48386
-1.8458134	u e	-0.2925233
-1.2956076	P e	-0.2620947
-0.9041454	h e	-0.63771105
-1.6198401	i e	-0.36186847
-1.0313969	s e	-0.5278163
-0.62964803	w e	-0.66456044
-1.417389	e e	-0.55122536
-1.0493367	k e	-0.5393829
-1.0191734	c e	-0.5972159
-0.96482074	d e	-0.4729392
-0.89313304	l e	-0.57376105
-0.90569466	f e	-0.4085222
-1.215932	n e	-0.48898962
-1.171159	m e	-0.5698607
-0.93755686	y e	-0.4968795
-0.8772184	p e	-0.42878133
-0.8410939	r e	-0.4295092
-0.94219166	z e	-0.43016064
-2.1509457	o e	-0.2809677
-0.93651646	q e	-0.6179861
-0.8378544	v e	-0.5667117
-1.0670215	g e	-0.47113794
-0.8618827	x e	-0.4996523
-1.3437563	C e	-0.27277863
-1.3920045	W e	-0.22664426
-1.2021534	T e	-0.25295714
-1.2602453	F e	-0.2809677
-1.3416094	Z e	-0.22664426
-1.407756	M e	-0.288262
-1.3735181	K e	-0.2667366
-1.3229806	Y e	-0.22664426
-1.2909352	H e	-0.2809677
-0.935869	V e	-0.22664426
-1.0367146	X e	-0.22664426
-1.1236714	Q e	-0.29269812
-0.90193796	j e	-0.36609784
-1.3046287	R e	-0.24400786
-1.0378202	<s> k	-2.3564677
-1.6787803	A k	-0.22664426
-1.9011401	S k	-0.22664426
-1.5107392	O k	-0.22664426
-1.7752672	I k	-0.22664426
-1.2923673	a k	-1.0262189
-1.2382404	N k	-0.4411575
-2.1844227	t k	-0.22664426
-1.2804933	u k	-0.8010023
-1.378698	i k	-0.95518315
-1.4253138	s k	-0.27509323
-1.3779763	e k	-0.85991997
-2.0669088	k k	-0.22664426
-1.5348626	c k	-0.3861705
-2.0880532	l k	-0.22664426
-1.3846854	n k	-0.6266045
-1.632977	m k	-0.44011447
-2.0450559	y k	-0.22664426
-1.8511629	r k	-0.32330245
-1.3663843	o k	-0.77631253
-1.7093514	E k	-0.22664426
-1.772111	M k	-0.31091014
-1.6850624	U k	-0.22664426
-2.747342	<s> c	-0.7160883
-1.6453815	A c	-0.2584166
-1.3424801	S c	-0.3861705
-1.5026009	G c	-0.2809677
-1.6313428	O c	-0.22664426
-1.7336959	I c	-0.22664426
-1.9643587	b c	-0.22664426
-1.486763	a c	-0.67309123
-1.2277894	N c	-0.33439466
-2.0299044	t c	-0.31091014
-1.5240415	u c	-0.52542824
-1.4436891	i c	-0.66945934
-2.1118872	s c	-0.22664426
-1.9487737	w c	-0.22664426
-1.5725627	e c	-0.5667539
-1.9155087	k c	-0.2667366
-1.6562715	c c	-0.22664426
-1.9697622	d c	-0.22664426
-2.0584598	l c	-0.22664426
-1.8932098	f c	-0.22664426
-1.4336611	n c	-0.6475933
-1.4833547	m c	-0.4623909
-1.8246826	r c	-0.2584166
-1.5466646	o c	-0.50398916
-1.1636349	g c	-0.6061098
-1.9073818	x c	-0.22664426
-1.6737388	E c	-0.22664426
-2.7957952	<s> d	-0.6958949
-1.6302712	A d	-0.22664426
-1.8461955	I d	-0.22664426
-1.4584497	a d	-0.7638966
-1.3575151	N d	-0.39119324
-1.4807565	u d	-0.6091101
-1.456819	i d	-0.7066344
-1.4760456	e d	-0.6365687
-2.0696418	d d	-0.22664426
-1.8194938	l d	-0.2667366
-1.2171184	n d	-0.6245905
-1.6572157	m d	-0.475776
-1.9996434	r d	-0.24909915
-1.5378774	o d	-0.71530783
-2.1996875	g d	-0.22664426
-1.7689271	E d	-0.22664426
-1.9522976	M d	-0.22664426
-1.2826002	<s> l	-2.1452467
-1.571644	A l	-0.2584166
-1.6081558	B l	-0.22664426
-1.1451188	O l	-0.3861705
-1.644424	I l	-0.22664426
-1.5642774	D l	-0.22664426
-1.2621115	b l	-0.36721662
-1.2096858	a l	-0.9919629
-1.4976445	t l	-0.33039132
-1.1801597	u l	-0.9465039
-1.5658278	P l	-0.22664426
-1.1509876	h l	-0.71530783
-1.2784083	i l	-0.96353525
-2.0266204	s l	-0.22664426
-1.2404743	e l	-0.9503483
-1.6033792	k l	-0.3861705
-1.6233431	c l	-0.22664426
-1.0593626	d l	-0.62235284
-1.3883914	l l	-0.44073147
-1.7017508	f l	-0.22664426
-1.8851831	n l	-0.2809677
-1.5143087	m l	-0.5637168
-1.8243265	y l	-0.22664426
-1.1876694	p l	-0.33838356
-1.8405321	r l	-0.22664426
-1.7453064	z l	-0.31091014
-1.2248033	o l	-1.0112152
-1.8315809	g l	-0.22664426
-1.5915923	C l	-0.22664426
-1.6080587	T l	-0.22664426
-1.5957092	E l	-0.22664426
-1.3955686	F l	-0.31091014
-1.5892727	M l	-0.22664426
-1.3093843	K l	-0.22664426
-0.6659534	H l	-0.50879353
-1.7618922	j l	-0.22664426
-1.5792472	U l	-0.22664426
-3.103892	<s> f	-0.45661807
-1.4105582	A f	-0.42654377
-1.669549	O f	-0.22664426
-1.786313	I f	-0.22664426
-1.5616193	a f	-0.8525893
-1.6097853	u f	-0.59837526
-2.2469628	h f	-0.22664426
-1.6100512	i f	-0.7776673
-2.1268997	w f	-0.22664426
-1.6368179	e f	-0.64694977
-2.0773757	k f	-0.22664426
-2.0168371	d f	-0.22664426
-2.0957778	l f	-0.22664426
-1.6615742	f f	-0.2667366
-2.077311	n f	-0.2667366
-1.4975028	m f	-0.6154086
-2.0034034	p f	-0.22664426
-2.0696268	r f	-0.22664426
-1.4831743	o f	-0.6252426
-1.9444952	x f	-0.22664426
-1.7815148	M f	-0.31091014
-1.6937064	U f	-0.22664426
-0.7611865	<s> n	-2.3400753
-1.6534935	A n	-0.2667366
-1.6387198	O n	-0.22664426
-1.5462059	I n	-0.24400786
-1.9722432	b n	-0.22664426
-1.2169752	a n	-1.008966
-2.0369537	t n	-0.31091014
-1.1609468	u n	-0.82583904
-2.0841417	h n	-0.22664426
-1.2385657	i n	-1.0479382
-2.0948453	w n	-0.22664426
-1.287635	e n	-0.94471467
-2.0369415	k n	-0.22664426
-2.0656712	l n	-0.22664426
-1.5783521	n n	-0.2620947
-1.4316281	m n	-0.5598087
-1.7825261	y n	-0.22664426
-1.9692624	p n	-0.22664426
-1.8311528	r n	-0.33838356
-1.9452126	z n	-0.22664426
-1.2094562	o n	-0.9659005
-1.8404349	v n	-0.22664426
-1.890007	g n	-0.22664426
-1.682372	E n	-0.22664426
-1.496672	M n	-0.2997849
-1.5243622	U n	-0.24622795
-1.8171649	<s> m	-1.1107591
-1.7782766	A m	-0.22664426
-1.8910547	S m	-0.22664426
-1.6538609	O m	-0.22664426
-1.7644954	I m	-0.22664429
-1.2784725	a m	-0.83611983
-2.0514052	t m	-0.31091014
-1.1484649	u m	-0.6199469
-1.4290005	i m	-0.69192266
-1.7359046	s m	-0.22664426
-2.1105769	w m	-0.22664426
-1.428039	e m	-0.7092058
-2.0941713	c m	-0.22664426
-1.9160087	f m	-0.22664426
-1.9725302	n m	-0.2667366
-1.6290655	m m	-0.3472384
-1.9859974	p m	-0.22664426
-1.9371104	r m	-0.22664426
-1.96011	z m	-0.22664426
-1.2744379	o m	-0.81766677
-1.9292672	x m	-0.22664426
-1.7001708	E m	-0.22664426
-1.6769332	M m	-0.30698925
-1.676587	U m	-0.22664426
-1.357482	<s> y	-2.053155
-1.6987196	A y	-0.22664426
-1.8178358	S y	-0.22664426
-1.6867701	I y	-0.22664426
-1.5994952	D y	-0.22664426
-1.9269503	b y	-0.22664426
-1.388351	a y	-0.8808476
-1.2150698	N y	-0.44824117
-1.2069141	t y	-0.68019897
-1.5474173	u y	-0.6854846
-1.9512817	h y	-0.32963377
-1.4562212	i y	-0.76897573
-2.0671644	s y	-0.22664426
-1.5166005	e y	-0.77083266
-1.7934161	k y	-0.37021416
-1.9136386	c y	-0.31091014
-1.5462134	d y	-0.2667366
-1.6377693	l y	-0.42469385
-1.8576853	f y	-0.22664426
-1.2345755	n y	-0.65571713
-1.5295205	m y	-0.5575247
-1.9709829	y y	-0.22664426
-1.9226099	p y	-0.22664426
-1.7937026	r y	-0.37021416
-1.9033616	z y	-0.22664426
-1.6210525	o y	-0.8115777
-1.963792	q y	-0.22664426
-1.6263343	C y	-0.22664426
-1.4293109	T y	-0.2809677
-1.6329739	E y	-0.22664426
-1.6955504	M y	-0.31091014
-1.6141526	U y	-0.22664426
-2.5912836	<s> p	-0.96850145
-1.5930989	A p	-0.2584166
-1.7860159	S p	-0.22664426
-1.669549	O p	-0.22664426
-1.786313	I p	-0.22664426
-1.3983816	a p	-0.6537142
-2.1945195	t p	-0.22664426
-1.534942	u p	-0.66289467
-1.5116686	i p	-0.61606467
-1.9361985	s p	-0.2667366
-1.5567364	e p	-0.6378096
-2.0773757	k p	-0.22664426
-2.2216372	l p	-0.22664426
-1.4975028	m p	-0.61508477
-2.0541236	y p	-0.22664426
-1.7468128	p p	-0.31091014
-1.8580433	r p	-0.2809677
-1.5297736	o p	-0.6478632
-1.9444952	x p	-0.22664426
-1.5821422	E p	-0.22664426
-1.2956774	M p	-0.32017106
-1.6937064	U p	-0.22664426
-3.343072	<s> r	-0.40405822
-1.7268735	A r	-0.22664426
-1.5109284	B r	-0.2667366
-1.4917847	G r	-0.22664426
-1.6169542	O r	-0.22664426
-1.714313	I r	-0.22664426
-1.9490066	b r	-0.22664426
-1.4084016	a r	-0.50294626
-1.3078059	t r	-0.37896615
-1.3792002	u r	-0.40417555
-1.4673156	P r	-0.2584166
-1.9660441	h r	-0.29782408
-1.5232427	i r	-0.58756065
-1.4040203	e r	-0.67447746
-1.4098701	k r	-0.3808873
-1.6494831	c r	-0.2667366
-1.5564266	d r	-0.2667366
-1.1871462	f r	-0.3861705
-1.8010037	m r	-0.3455126
-1.1291345	p r	-0.4679365
-1.8973843	r r	-0.22664426
-1.3277718	o r	-0.46713355
-1.9830215	q r	-0.22664426
-1.3854614	g r	-0.3807863
-1.4742402	W r	-0.22664426
-1.5446005	T r	-0.31091014
-1.5760505	F r	-0.22664426
-1.8095285	M r	-0.22664426
-1.636527	U r	-0.22664426
-1.3987153	<s> z	-2.2056158
-1.8006717	A z	-0.22664426
-1.669549	O z	-0.22664426
-1.786313	I z	-0.22664426
-2.0052955	b z	-0.22664426
-1.3816978	a z	-0.9137216
-1.4698465	N z	-0.42654377
-2.1945195	t z	-0.22664426
-1.3661784	u z	-0.784888
-1.4502045	i z	-0.90214044
-2.1617494	s z	-0.22664426
-1.5105294	e z	-0.9107937
-2.0168371	d z	-0.22664426
-2.2216372	l z	-0.22664426
-1.4445566	n z	-0.54197586
-1.5616424	m z	-0.49291456
-2.0696268	r z	-0.22664426
-1.6106431	o z	-0.7234177
-1.8644915	v z	-0.22664426
-1.7187303	E z	-0.22664426
-1.2956774	M z	-0.54963255
-1.6937064	U z	-0.22664426
-1.3905841	<s> o	-1.434149
-1.0141349	B o	-0.2886372
-1.1238152	S o	-0.3439281
-0.91204447	G o	-0.3594701
-1.4944497	O o	-0.22664426
-1.5570093	I o	-0.22664426
-1.307298	D o	-0.2667366
-1.1078339	L o	-0.2766875
-0.94611186	b o	-0.5043221
-2.2290723	a o	-0.22664426
-1.5649655	N o	-0.22664429
-1.1130779	t o	-0.4538176
-1.0996886	P o	-0.42654377
-0.90284526	h o	-0.6725837
-1.7428364	i o	-0.37896615
-1.0935274	s o	-0.49746546
-1.1559922	w o	-0.34516135
-2.1287599	e o	-0.22664426
-0.9767529	k o	-0.56017816
-0.9829035	c o	-0.45349962
-1.0955437	d o	-0.40994513
-0.8916692	l o	-0.62358344
-0.8576249	f o	-0.47478518
-1.2914578	n o	-0.46380207
-1.4798372	m o	-0.45170388
-0.9726582	y o	-0.5263185
-0.9534921	p o	-0.47545573
-0.9968542	r o	-0.33875656
-0.9914394	z o	-0.50886923
-1.4884483	o o	-0.5326774
-0.8546787	q o	-0.57037383
-0.89628	v o	-0.30150792
-0.97045875	g o	-0.4980826
-1.0159999	x o	-0.48192337
-1.3325796	C o	-0.2766875
-0.93224853	W o	-0.29269812
-1.5311756	T o	-0.22664426
-0.9393772	F o	-0.2925233
-1.2254993	Z o	-0.2584166
-1.2190057	M o	-0.2991235
-1.0877614	K o	-0.32624575
-1.170599	Y o	-0.22664426
-1.4111922	H o	-0.22664426
-1.2119377	V o	-0.22664426
-1.0302889	X o	-0.22664426
-1.2255604	Q o	-0.31091014
-0.78774464	j o	-0.53639996
-1.2937876	R o	-0.22664426
-0.9393347	J o	-0.22664429
-2.9936764	<s> q	-0.49325815
-1.8365909	A q	-0.22664426
-1.209165	G q	-0.2584166
-1.8212433	I q	-0.22664426
-1.6484964	a q	-0.7534309
-1.483584	N q	-0.2667366
-1.5780061	u q	-0.5999092
-1.7090226	i q	-0.7618458
-2.1946685	s q	-0.22664426
-1.74315	e q	-0.6345873
-1.8716859	k q	-0.2809677
-2.1437821	c q	-0.22664426
-1.4512275	n q	-0.56209964
-1.7429749	m q	-0.4430352
-1.6476053	o q	-0.5710082
-1.2195897	g q	-0.6947252
-1.968388	x q	-0.22664426
-1.7159977	M q	-0.3455126
-1.7207214	U q	-0.22664426
-3.0718489	<s> v	-0.5641518
-1.8592306	I v	-0.22664426
-1.6539453	a v	-0.7948856
-1.8406914	u v	-0.5768298
-2.3084655	h v	-0.22664426
-1.4780607	i v	-0.80880064
-1.7147943	e v	-0.6628333
-1.9320465	d v	-0.31091014
-2.0365665	n v	-0.2809677
-1.4570735	m v	-0.63007534
-2.1432621	r v	-0.22664426
-2.0254042	z v	-0.22664426
-1.5654279	o v	-0.70558524
-1.7797023	E v	-0.22664426
-1.7412426	M v	-0.2809677
-1.7495288	U v	-0.22664426
-2.5902324	<s> g	-0.66777575
-1.5790774	A g	-0.32963377
-1.7644954	I g	-0.22664426
-1.988455	b g	-0.22664426
-1.5347441	a g	-0.74201447
-1.2356039	N g	-0.48248452
-1.6938553	u g	-0.4784143
-2.0974836	h g	-0.22664426
-1.5310798	i g	-0.66831446
-1.7359046	s g	-0.30698925
-1.9656533	w g	-0.22664426
-1.6626337	e g	-0.6096077
-1.9379735	k g	-0.31091014
-2.0941713	c g	-0.22664426
-2.201294	l g	-0.22664426
-1.2455997	n g	-0.6877833
-1.5550251	m g	-0.41477084
-2.0361733	y g	-0.22664426
-1.5373788	r g	-0.30698925
-1.5783738	o g	-0.5441716
-1.8611073	q g	-0.2809677
-1.3944495	g g	-0.42054665
-1.5066531	M g	-0.42654377
-1.676587	U g	-0.22664426
-3.0718489	<s> x	-0.44621783
-1.7337472	G x	-0.22664426
-1.8592306	I x	-0.22664426
-1.5966282	a x	-0.78905654
-1.6985177	N x	-0.2667366
-1.9164281	u x	-0.41647995
-1.6823376	i x	-0.7237898
-2.2302892	s x	-0.22664426
-1.7513709	e x	-0.55822295
-2.0042677	k x	-0.2667366
-1.3459204	n x	-0.6785184
-1.6613904	m x	-0.38836196
-1.6539704	o x	-0.6200916
-1.3380162	g x	-0.64131594
-1.6257998	E x	-0.2809677
-1.7495288	U x	-0.22664426
-2.7557142	<s> C	-0.6262014
-1.8757508	A C	-0.22664426
-1.5674454	G C	-0.2809677
-1.7203301	O C	-0.22664426
-1.8592306	I C	-0.22664426
-1.736354	D C	-0.22664426
-2.6444917	a C	-0.22664426
-2.3635602	u C	-0.27277863
-1.708	P C	-0.22664426
-2.080906	i C	-0.2970476
-2.0026753	e C	-0.41946718
-2.5896144	o C	-0.22664426
-1.5988039	C C	-0.22664426
-1.6737142	F C	-0.22664426
-1.692305	K C	-0.22664426
-1.6118808	R C	-0.22664426
-3.3934271	<s> W	-0.34117758
-1.9187949	A W	-0.22664426
-2.0174448	S W	-0.22664426
-1.5970771	D W	-0.22664426
-1.556139	L W	-0.2809677
-2.7017589	a W	-0.22664426
-1.9825726	N W	-0.22664426
-1.7327194	P W	-0.22664426
-2.472459	e W	-0.2809677
-2.185027	k W	-0.22664426
-2.3098445	m W	-0.22664426
-1.6629481	Z W	-0.22664426
-1.5391122	K W	-0.22664426
-2.9796746	<s> T	-0.3584332
-1.8623013	A T	-0.22664426
-1.7157329	S T	-0.22664426
-1.608376	I T	-0.22664426
-1.7264137	D T	-0.22664426
-1.820749	L T	-0.22664426
-2.535613	a T	-0.22664426
-1.9275047	N T	-0.22664426
-2.1162636	u T	-0.3081059
-2.164471	i T	-0.2970476
-1.9977689	e T	-0.34117758
-2.049738	m T	-0.37021416
-2.4851346	o T	-0.22664426
-1.5433701	W T	-0.22664426
-1.5007311	E T	-0.2667366
-1.5858582	H T	-0.22664426
-1.6045196	R T	-0.22664426
-2.8255439	<s> E	-0.4082461
-1.6898861	S E	-0.25295714
-1.536766	G E	-0.31091014
-1.6887827	D E	-0.22664426
-1.634367	L E	-0.22664426
-2.5631814	a E	-0.22664426
-1.7599869	N E	-0.31091014
-2.3710423	u E	-0.22664426
-2.4470236	i E	-0.2809677
-2.5060472	o E	-0.22664426
-1.7142309	C E	-0.22664426
-1.3408699	W E	-0.22664426
-1.7377849	T E	-0.22664426
-1.5891205	E E	-0.22664426
-1.633512	F E	-0.22664426
-1.6099542	Z E	-0.22664426
-1.650882	K E	-0.22664426
-1.1295729	Y E	-0.25295714
-1.3171638	V E	-0.22664426
-1.2919974	X E	-0.22664426
-1.5762622	R E	-0.22664426
-3.0992815	<s> F	-0.43113443
-1.4600782	A F	-0.2584166
-1.6471937	I F	-0.22664426
-1.7785596	D F	-0.22664426
-2.7226586	a F	-0.22664426
-2.4275672	u F	-0.31091014
-2.3231847	i F	-0.2925233
-2.3174918	e F	-0.22664426
-2.3289285	m F	-0.22664426
-2.5643911	o F	-0.22664426
-1.888802	M F	-0.31091014
-1.642641	R F	-0.22664426
-3.0782614	<s> Z	-0.6598417
-1.7865908	A Z	-0.22664426
-1.6471937	I Z	-0.22664426
-2.611458	a Z	-0.2667366
-1.9975041	N Z	-0.22664426
-2.4275672	u Z	-0.2809677
-2.1998749	i Z	-0.3081059
-1.899554	e Z	-0.5667855
-2.3289285	m Z	-0.22664426
-2.5643911	o Z	-0.22664426
-1.8256935	E Z	-0.22664426
-1.7911758	U Z	-0.22664426
-2.7101402	<s> M	-0.6187748
-1.7544369	A M	-0.22664426
-1.743173	G M	-0.22664426
-1.7294024	O M	-0.22664426
-1.7339594	I M	-0.2584166
-1.8456776	a M	-0.4805227
-2.2971215	u M	-0.3362198
-2.010855	i M	-0.30217308
-1.8386749	e M	-0.5593304
-2.2740216	m M	-0.22664426
-1.7274663	o M	-0.54655504
-1.7907516	E M	-0.22664426
-1.6822214	F M	-0.22664426
-1.3434589	V M	-0.22664426
-1.5948055	U M	-0.22664426
-2.3098767	<s> K	-1.0873286
-1.757815	O K	-0.22664426
-1.9156758	I K	-0.22664426
-2.2102895	a K	-0.4531173
-1.8473369	N K	-0.22664426
-2.3372207	u K	-0.32963377
-2.103945	i K	-0.54285794
-2.0228746	e K	-0.44824117
-2.3289285	m K	-0.22664426
-1.873363	o K	-0.5451512
-1.530419	E K	-0.2809677
-1.6161805	U K	-0.22664426
-3.124953	<s> Y	-0.475776
-1.9665793	A Y	-0.22664426
-2.7677412	a Y	-0.22664426
-2.581036	u Y	-0.22664426
-2.7346451	i Y	-0.22664426
-2.6112192	e Y	-0.22664426
-2.369813	m Y	-0.22664426
-2.1885414	o Y	-0.42654377
-1.6782855	T Y	-0.22664426
-1.8506546	E Y	-0.22664426
-3.38353	<s> H	-0.29260275
-1.8757508	A H	-0.22664426
-1.7517012	B H	-0.22664426
-1.979172	S H	-0.22664426
-1.7337472	G H	-0.22664426
-1.5513698	O H	-0.31091014
-2.6444917	a H	-0.22664426
-2.2845378	u H	-0.32963377
-1.708	P H	-0.22664426
-2.4412775	i H	-0.37021416
-2.0026753	e H	-0.51110923
-2.146709	o H	-0.5920629
-1.692305	K H	-0.22664426
-1.4735883	Y H	-0.22664426
-1.3118654	X H	-0.22664426
-1.5879079	U H	-0.2809677
-3.6426048	<s> V	-0.24909915
-1.8215657	I V	-0.31091014
-2.8455758	a V	-0.22664426
-2.6617374	u V	-0.22664426
-2.6837013	i V	-0.22664426
-2.4394095	m V	-0.22664426
-1.6844332	R V	-0.22664426
-3.949036	<s> X	-0.22664426
-1.8155893	G X	-0.22664426
-1.9805686	I X	-0.22664426
-2.8180516	a X	-0.22664426
-2.6331382	u X	-0.22664426
-2.7883847	i X	-0.22664426
-2.653257	e X	-0.31091014
-2.535297	o X	-0.37021416
-3.8184185	<s> Q	-0.2584166
-2.0016315	A Q	-0.22664426
-1.9805686	I Q	-0.22664426
-2.8180516	a Q	-0.22664426
-2.3971884	u Q	-0.2809677
-2.3642669	i Q	-0.32017106
-2.3602786	e Q	-0.3353417
-2.3384075	o Q	-0.29782408
-2.840889	<s> j	-0.6310775
-2.0504966	b j	-0.22664426
-1.6521214	a j	-0.75146425
-1.3575151	N j	-0.32330245
-1.9111464	u j	-0.4327055
-2.297591	h j	-0.22664426
-1.7503642	i j	-0.5857986
-2.2180882	s j	-0.22664426
-1.8805208	e j	-0.42054665
-1.9239421	d j	-0.31091014
-1.4557325	n j	-0.49478564
-1.6572157	m j	-0.4993937
-2.1025412	y j	-0.22664426
-2.016685	z j	-0.22664426
-1.9115376	o j	-0.37104592
-2.1996875	g j	-0.22664426
-1.7397124	U j	-0.22664426
-2.9529567	<s> R	-0.5199239
-1.7756062	A R	-0.22664426
-1.7481362	O R	-0.22664426
-1.900862	I R	-0.22664426
-1.7676175	D R	-0.22664426
-1.6862649	L R	-0.31091014
-2.7017589	a R	-0.22664426
-2.1513171	u R	-0.3861705
-2.566256	i R	-0.2809677
-2.0946248	e R	-0.4371609
-2.1671216	o R	-0.5920629
-1.6493927	E R	-0.22664426
-1.7803837	U R	-0.22664426
-2.0215614	<s> U	-0.95194656
-1.7865908	A U	-0.31091014
-1.693211	L U	-0.22664426
-2.6868289	i U	-0.22664426
-2.6729286	e U	-0.22664426
-1.802295	C U	-0.22664426
-1.5757726	W U	-0.22664426
-1.832428	T U	-0.22664426
-1.5237573	F U	-0.31091014
-1.888802	M U	-0.22664426
-1.5452644	K U	-0.22664426
-1.4256765	H U	-0.22664426
-3.3388991	<s> J	-0.50790095
-2.9064841	a J	-0.22664426
-2.8839846	i J	-0.22664426
-2.7250931	e J	-0.31091014
-2.8627217	o J	-0.22664426
-1.927103	C Ã	-0.22664426
-2.1580553	b é	-0.22664426
-2.4209607	h é	-0.22664426
-2.3589678	s é	-0.22664426
-2.2739623	w é	-0.22664426
-2.4394095	m é	-0.22664426
-2.0269866	y é	-0.31091014
-1.9690615	j é	-0.22664426
-4.590648	<s> Â	-0.22664426

\3-grams:
-1.5038456	<s> A </s>	0
-0.50701827	S A </s>	0
-0.5531721	G A </s>	0
-0.5531721	O A </s>	0
-0.3159795	I A </s>	0
-0.24090008	D A </s>	0
-0.38960403	W A </s>	0
-0.20163168	T A </s>	0
-0.3159795	F A </s>	0
-0.5531721	R A </s>	0
-1.5508288	<s> B </s>	0
-0.34813473	L B </s>	0
-0.26292396	N B </s>	0
-0.26292396	T B </s>	0
-0.71348554	A S </s>	0
-0.58304244	B S </s>	0
-1.0815525	I S </s>	0
-0.3330283	D S </s>	0
-0.58304244	P S </s>	0
-0.40680262	T S </s>	0
-0.88257873	E S </s>	0
-0.58304244	M S </s>	0
-0.3330283	R S </s>	0
-0.5104009	S O </s>	0
-0.2906971	D O </s>	0
-0.4303636	L O </s>	0
-0.2906971	T O </s>	0
-0.5104009	M O </s>	0
-0.6180197	K O </s>	0
-0.5104009	Y O </s>	0
-0.2906971	Q O </s>	0
-1.8109543	<s> I </s>	0
-0.80291706	S I </s>	0
-0.51359016	I I </s>	0
-0.25399688	D I </s>	0
-0.3350104	N I </s>	0
-0.80291706	C I </s>	0
-0.58657354	M I </s>	0
-1.3258225	<s> D </s>	0
-0.5131918	A D </s>	0
-0.5860568	I D </s>	0
-0.5860568	C D </s>	0
-0.5860568	E D </s>	0
-0.3755343	L L </s>	0
-2.0455186	a b </s>	0
-1.862306	u b </s>	0
-1.9836794	i b </s>	0
-1.4926902	m b </s>	0
-1.9563367	o b </s>	0
-2.9300394	<s> a </s>	0
-1.250128	L a </s>	0
-1.2136399	b a </s>	0
-0.4205035	a a </s>	0
-1.0388203	t a </s>	0
-0.64085317	u a </s>	0
-0.9984002	h a </s>	0
-0.4894438	i a </s>	0
-1.0861875	s a </s>	0
-0.9864559	w a </s>	0
-1.1796553	k a </s>	0
-1.006858	c a </s>	0
-0.9357727	d a </s>	0
-1.0153843	l a </s>	0
-0.818774	f a </s>	0
-1.0127087	n a </s>	0
-1.275844	m a </s>	0
-1.0796884	y a </s>	0
-1.379351	p a </s>	0
-0.95931053	r a </s>	0
-1.0816361	z a </s>	0
-0.95431966	q a </s>	0
-0.8393034	v a </s>	0
-1.0801684	g a </s>	0
-0.7396013	x a </s>	0
-0.36395416	X a </s>	0
-1.0767859	j a </s>	0
-0.37456346	B N </s>	0
-1.0258279	U N </s>	0
-1.2387815	a t </s>	0
-0.9674117	t t </s>	0
-1.6359116	u t </s>	0
-0.7165688	h t </s>	0
-1.5272149	i t </s>	0
-0.91057265	s t </s>	0
-1.4939297	e t </s>	0
-0.91732424	k t </s>	0
-0.884535	c t </s>	0
-0.80086195	l t </s>	0
-0.58532363	f t </s>	0
-1.0916724	n t </s>	0
-0.91406536	r t </s>	0
-0.33430958	z t </s>	0
-1.5138571	o t </s>	0
-0.58532363	x t </s>	0
-2.8710644	<s> u </s>	0
-1.381045	b u </s>	0
-0.95530987	a u </s>	0
-0.69321316	t u </s>	0
-0.43314096	u u </s>	0
-0.9915414	h u </s>	0
-0.9237976	s u </s>	0
-1.2610233	w u </s>	0
-1.0020633	e u </s>	0
-1.4135565	k u </s>	0
-1.2527201	c u </s>	0
-1.1278609	d u </s>	0
-1.1036694	l u </s>	0
-0.96778756	f u </s>	0
-0.6042571	n u </s>	0
-0.5391657	m u </s>	0
-0.91123253	p u </s>	0
-1.2337174	z u </s>	0
-1.1371396	q u </s>	0
-1.0704701	v u </s>	0
-1.3518313	g u </s>	0
-0.9524717	j u </s>	0
-0.31328952	S P </s>	0
-0.20014426	D P </s>	0
-0.31328952	C P </s>	0
-0.31328952	W P </s>	0
-0.31328952	H P </s>	0
-0.31328952	R P </s>	0
-1.1105511	t h </s>	0
-1.100247	u h </s>	0
-1.508439	s h </s>	0
-1.2671182	e h </s>	0
-1.515851	k h </s>	0
-1.1257774	c h </s>	0
-1.7003915	p h </s>	0
-1.4756011	o h </s>	0
-1.4985623	g h </s>	0
-1.511923	x h </s>	0
-0.6217956	W h </s>	0
-2.7443767	<s> i </s>	0
-1.2499326	I i </s>	0
-0.95539427	b i </s>	0
-1.3423313	a i </s>	0
-0.8128051	t i </s>	0
-1.0675387	h i </s>	0
-1.1193494	i i </s>	0
-1.1423281	s i </s>	0
-1.0770587	w i </s>	0
-0.83518684	e i </s>	0
-0.7538683	k i </s>	0
-1.1549792	c i </s>	0
-1.0267068	d i </s>	0
-1.1189276	l i </s>	0
-1.0747567	f i </s>	0
-1.0760822	n i </s>	0
-1.0902463	m i </s>	0
-1.2344105	y i </s>	0
-1.195299	p i </s>	0
-0.95230556	r i </s>	0
-1.1718209	z i </s>	0
-1.3218677	q i </s>	0
-1.4866054	v i </s>	0
-1.2520611	g i </s>	0
-0.97266906	x i </s>	0
-1.4053423	M i </s>	0
-0.90338826	j i </s>	0
-1.0861682	R i </s>	0
-0.75450706	A s </s>	0
-0.24224012	O s </s>	0
-1.2012511	a s </s>	0
-0.9056221	t s </s>	0
-1.4144655	u s </s>	0
-1.253062	i s </s>	0
-0.86094314	s s </s>	0
-0.8486613	e s </s>	0
-0.62705296	k s </s>	0
-0.31791487	c s </s>	0
-0.24224012	d s </s>	0
-0.5712921	l s </s>	0
-0.68620735	n s </s>	0
-1.0367244	m s </s>	0
-0.7709941	y s </s>	0
-0.35315138	r s </s>	0
-1.3044573	o s </s>	0
-0.31791487	g s </s>	0
-0.31791487	C s </s>	0
-0.31791487	W s </s>	0
-1.5431077	u w </s>	0
-1.5942737	h w </s>	0
-1.2855575	e w </s>	0
-1.6675695	k w </s>	0
-1.7296193	o w </s>	0
-2.9723408	<s> e </s>	0
-1.1354858	D e </s>	0
-0.8919687	L e </s>	0
-1.1333843	b e </s>	0
-0.78331506	a e </s>	0
-0.812466	t e </s>	0
-0.5060162	u e </s>	0
-1.0169854	h e </s>	0
-1.0018029	i e </s>	0
-1.1516428	s e </s>	0
-0.8956554	w e </s>	0
-0.9468964	e e </s>	0
-0.80356586	k e </s>	0
-0.8251067	c e </s>	0
-0.7801652	d e </s>	0
-0.98890465	l e </s>	0
-0.8012408	f e </s>	0
-1.0583647	n e </s>	0
-0.9165872	m e </s>	0
-1.0626991	y e </s>	0
-0.882506	p e </s>	0
-0.9175367	r e </s>	0
-1.0468882	z e </s>	0
-0.43584457	o e </s>	0
-1.5872748	q e </s>	0
-0.9537074	v e </s>	0
-1.1038698	g e </s>	0
-1.113419	x e </s>	0
-0.8919687	K e </s>	0
-1.0702637	j e </s>	0
-1.6462595	u k </s>	0
-0.6019751	s k </s>	0
-1.6211812	e k </s>	0
-0.3182751	c k </s>	0
-0.615548	l k </s>	0
-1.4750823	n k </s>	0
-1.3439757	m k </s>	0
-0.49746093	r k </s>	0
-1.6426374	o k </s>	0
-0.37030616	b c </s>	0
-1.2412002	i c </s>	0
-0.65172535	w c </s>	0
-0.37030616	f c </s>	0
-1.6436347	o c </s>	0
-0.84414285	A d </s>	0
-1.2834548	a d </s>	0
-1.5626142	u d </s>	0
-1.4990938	i d </s>	0
-0.9588331	e d </s>	0
-0.53241265	l d </s>	0
-1.2131468	n d </s>	0
-0.7316503	r d </s>	0
-3.0283005	<s> l </s>	0
-1.2061983	a l </s>	0
-1.1251774	t l </s>	0
-1.3678426	u l </s>	0
-1.4175653	h l </s>	0
-1.1935183	i l </s>	0
-1.350987	e l </s>	0
-0.98342526	k l </s>	0
-0.87459034	c l </s>	0
-0.5523327	l l </s>	0
-0.59268624	f l </s>	0
-0.7409871	n l </s>	0
-0.25632766	z l </s>	0
-1.3663446	o l </s>	0
-0.81302273	g l </s>	0
-0.59268624	j l </s>	0
-1.6367884	u f </s>	0
-0.65889305	l f </s>	0
-1.7595702	o f </s>	0
-1.1732372	a n </s>	0
-1.8048413	u n </s>	0
-0.7731952	h n </s>	0
-1.295901	i n </s>	0
-0.35690406	w n </s>	0
-1.3942822	e n </s>	0
-1.1212723	n n </s>	0
-0.85647714	r n </s>	0
-0.35690406	z n </s>	0
-1.2850195	o n </s>	0
-0.35690406	v n </s>	0
-1.2550919	a m </s>	0
-1.5139595	u m </s>	0
-1.7471033	i m </s>	0
-0.9548136	s m </s>	0
-1.7756535	e m </s>	0
-0.36027837	c m </s>	0
-0.36027837	f m </s>	0
-1.2881833	m m </s>	0
-0.8817533	r m </s>	0
-1.3944982	o m </s>	0
-0.6327527	x m </s>	0
-2.7426603	<s> y </s>	0
-0.29811823	b y </s>	0
-1.245707	a y </s>	0
-0.9586324	t y </s>	0
-1.0498409	u y </s>	0
-0.2953634	h y </s>	0
-1.4657898	i y </s>	0
-1.3062955	e y </s>	0
-0.19167833	k y </s>	0
-0.2284467	c y </s>	0
-0.66544074	d y </s>	0
-0.28834656	l y </s>	0
-0.29811823	f y </s>	0
-1.0382919	n y </s>	0
-0.29811823	y y </s>	0
-0.19167833	r y </s>	0
-0.29811823	z y </s>	0
-0.29811823	q y </s>	0
-1.4368886	a p </s>	0
-1.4448664	u p </s>	0
-1.6086094	i p </s>	0
-1.6089431	e p </s>	0
-0.350478	k p </s>	0
-0.350478	l p </s>	0
-1.5746055	o p </s>	0
-1.501089	a r </s>	0
-0.83993036	u r </s>	0
-1.3139904	i r </s>	0
-0.8130033	e r </s>	0
-1.3322123	o r </s>	0
-0.36546168	q r </s>	0
-0.3452893	b z </s>	0
-1.5406299	a z </s>	0
-1.6136419	e z </s>	0
-0.3452893	l z </s>	0
-1.4766227	n z </s>	0
-1.1497611	m z </s>	0
-0.3452893	r z </s>	0
-1.2207398	L o </s>	0
-0.97030765	b o </s>	0
-1.075167	N o </s>	0
-0.8549354	t o </s>	0
-1.0381395	h o </s>	0
-1.2822706	i o </s>	0
-1.1106182	s o </s>	0
-0.99698347	w o </s>	0
-0.7916859	e o </s>	0
-1.0779386	k o </s>	0
-1.0602945	c o </s>	0
-1.070145	d o </s>	0
-1.0033664	l o </s>	0
-1.001198	f o </s>	0
-1.2056377	n o </s>	0
-0.8647167	m o </s>	0
-1.1518371	y o </s>	0
-1.1948915	p o </s>	0
-0.8652486	r o </s>	0
-1.2736096	z o </s>	0
-0.9345665	o o </s>	0
-0.89641225	q o </s>	0
-0.88786995	v o </s>	0
-1.1702106	g o </s>	0
-0.8769435	x o </s>	0
-1.8231469	u q </s>	0
-0.380064	x q </s>	0
-1.5650281	<s> v </s>	0
-1.853458	i v </s>	0
-0.3709892	z v </s>	0
-1.5822984	<s> g </s>	0
-0.33576733	b g </s>	0
-1.6684947	a g </s>	0
-0.5879254	h g </s>	0
-1.5992147	i g </s>	0
-0.8961673	s g </s>	0
-0.5879254	w g </s>	0
-1.1466101	e g </s>	0
-0.5879254	c g </s>	0
-0.33576733	l g </s>	0
-1.1911883	n g </s>	0
-0.33576733	y g </s>	0
-0.4090811	r g </s>	0
-1.1923296	g g </s>	0
-1.7969013	i x </s>	0
-1.5890037	e x </s>	0
-1.789958	n x </s>	0
-1.5191044	<s> C </s>	0
-0.33738083	O C </s>	0
-0.33738083	D C </s>	0
-0.5908131	C C </s>	0
-0.33738083	R C </s>	0
-0.34130806	A T </s>	0
-0.7336405	S T </s>	0
-0.34130806	L T </s>	0
-0.52227694	E T </s>	0
-0.34130806	R T </s>	0
-0.64826655	W E </s>	0
-0.64826655	K E </s>	0
-0.6406913	A F </s>	0
-0.36386207	D F </s>	0
-0.37019664	E Z </s>	0
-1.8477057	<s> M </s>	0
-0.3751424	G M </s>	0
-0.96986485	<s> V </s>	0
-0.25662047	I V </s>	0
-0.31788903	b j </s>	0
-0.31788903	h j </s>	0
-0.31788903	s j </s>	0
-0.24222225	d j </s>	0
-1.1361073	n j </s>	0
-0.31788903	y j </s>	0
-0.31788903	z j </s>	0
-1.0593945	o j </s>	0
-1.4810413	<s> R </s>	0
-0.35267258	O R </s>	0
-1.0285574	u R </s>	0
-1.8387966	<s> U </s>	0
-0.24617425	A U </s>	0
-0.32361212	C U </s>	0
-0.32361212	T U </s>	0
-0.56643605	M U </s>	0
-0.7702564	K U </s>	0
-0.06782929	b é </s>	0
-0.06782929	h é </s>	0
-0.06782929	s é </s>	0
-0.06782929	w é </s>	0
-0.06782929	m é </s>	0
-0.055070966	y é </s>	0
-0.06782929	j é </s>	0
-0.14651343	<s> Â </s>	0
-1.6488781	S A A	-0.21327287
-1.1460875	<s> S A	-0.23933847
-0.5668069	B S A	-0.21327287
-0.32382414	S S A	-0.21327287
-0.39718154	O S A	-0.21327287
-0.54644006	I S A	-0.31168118
-0.32382414	N S A	-0.21327287
-0.5668069	P S A	-0.21327287
-1.0101656	i S A	-0.24203315
-0.8553833	e S A	-0.27283406
-0.5668069	M S A	-0.21327287
-0.49827582	U S A	-0.28909436
-0.81395596	I G A	-0.21327287
-0.372085	L G A	-0.21327287
-1.7485992	<s> O A	-0.21327287
-0.65397006	G O A	-0.21327287
-0.836434	R I A	-0.21327287
-1.576083	<s> D A	-0.21327287
-0.65546215	E D A	-0.21327287
-0.669396	U L A	-0.21327287
-0.3818867	C N A	-0.21327287
-3.044024	<s> u A	-0.2623225
-2.084981	g u A	-0.21327287
-1.6373394	<s> P A	-0.21327287
-0.6527587	E P A	-0.21327287
-2.362524	<s> i A	-0.2688623
-2.421805	y i A	-0.21327287
-1.7676958	k w A	-0.21327287
-1.8276937	l w A	-0.21327287
-3.2281249	<s> e A	-0.21327287
-2.1736908	b e A	-0.21327287
-1.9736638	s e A	-0.21327287
-2.3533762	w e A	-0.21327287
-2.222087	l e A	-0.21327287
-2.1643574	n e A	-0.21327287
-2.1701279	y e A	-0.21327287
-2.3452272	u m A	-0.21327287
-0.37804702	K C A	-0.21327287
-0.3048297	S W A	-0.21327287
-0.5340967	D W A	-0.21327287
-0.37735525	L W A	-0.28909436
-0.3048297	N W A	-0.21327287
-0.6486187	K W A	-0.21327287
-1.5233605	<s> T A	-0.21327287
-0.8076478	S T A	-0.21327287
-0.92060274	E T A	-0.21327287
-0.37838316	D E A	-0.21327287
-0.8237337	I F A	-0.21327287
-1.8796425	<s> M A	-0.21327287
-0.9425881	A M A	-0.21327287
-1.4248263	i M A	-0.21327287
-0.66298836	N K A	-0.21327287
-0.36480218	S H A	-0.21327287
-0.36480218	K H A	-0.21327287
-0.27998486	L R A	-0.21327287
-2.1106105	<s> A B	-0.21327287
-1.6513828	S A B	-0.21327287
-1.4138796	I S B	-0.21327287
-2.4571364	<s> I B	-0.21327287
-0.96001565	A L B	-0.21327287
-2.7350295	<s> a B	-0.28909436
-2.3032625	b a B	-0.21327287
-2.22513	w a B	-0.2623225
-2.299874	m a B	-0.21327287
-2.3211298	y a B	-0.21327287
-2.143889	z a B	-0.21327287
-2.4230945	<s> N B	-0.21327287
-0.38192835	F N B	-0.21327287
-2.8731146	<s> u B	-0.31168118
-2.0415623	k u B	-0.2623225
-2.0544374	l u B	-0.28909436
-2.5857692	<s> i B	-0.24203315
-2.1433225	s i B	-0.21327287
-2.118843	w i B	-0.21327287
-2.3707418	l i B	-0.21327287
-2.327172	y i B	-0.21327287
-2.3791308	z i B	-0.21327287
-2.885526	<s> e B	-0.24953105
-1.2736819	D e B	-0.21327287
-2.1161132	b e B	-0.21327287
-1.7780603	s e B	-0.24203315
-1.7690719	w e B	-0.40387148
-2.089995	e e B	-0.21327287
-2.1622832	l e B	-0.21327287
-2.100979	n e B	-0.21327287
-2.1070368	y e B	-0.21327287
-1.7437613	z e B	-0.2623225
-2.664545	<s> o B	-0.21327287
-2.0070915	b o B	-0.21327287
-2.0567372	s o B	-0.21327287
-1.8272514	w o B	-0.21327287
-2.203092	l o B	-0.21327287
-2.062146	n o B	-0.21327287
-2.127313	y o B	-0.21327287
-1.8948407	z o B	-0.28909436
-2.051981	g o B	-0.21327287
-1.208944	i T B	-0.21327287
-1.3289461	e T B	-0.21327287
-1.3182398	S A S	-0.21327287
-0.37750596	N A S	-0.21327287
-0.28299913	A B S	-0.21327287
-0.3827743	G S S	-0.21327287
-1.4884666	<s> G S	-0.21327287
-1.6886587	<s> O S	-0.21327287
-0.3657024	C O S	-0.21327287
-0.3657024	H O S	-0.21327287
-1.4901689	<s> I S	-0.21327287
-0.8697528	C I S	-0.21327287
-0.35663152	T I S	-0.21327287
-0.78268164	F I S	-0.21327287
-0.5436182	Z I S	-0.21327287
-0.665143	I D S	-0.21327287
-3.393147	<s> a S	-0.21327287
-2.5198236	w a S	-0.21327287
-1.9896252	k a S	-0.21327287
-2.0303907	m a S	-0.24953105
-2.1924071	g a S	-0.21327287
-0.67413986	A N S	-0.21327287
-1.4884831	r t S	-0.21327287
-3.2325308	<s> u S	-0.21327287
-2.2211843	k u S	-0.2623225
-0.37084642	A P S	-0.21327287
-0.8105385	I P S	-0.21327287
-1.9889222	<s> i S	-0.36246207
-1.8568256	i i S	-0.21327287
-2.3017044	s i S	-0.21327287
-1.7843063	w i S	-0.21327287
-2.2801623	l i S	-0.21327287
-2.114489	m i S	-0.21327287
-2.2853045	z i S	-0.21327287
-1.860646	g i S	-0.21327287
-2.5488708	<s> e S	-0.34782913
-2.1194189	b e S	-0.21327287
-1.779629	s e S	-0.2371056
-1.9264029	w e S	-0.2623225
-2.1657088	l e S	-0.21327287
-2.1045957	n e S	-0.21327287
-2.110638	y e S	-0.21327287
-1.7455769	z e S	-0.21327287
-1.9971092	g e S	-0.21327287
-2.0431929	n d S	-0.21327287
-1.5497606	U m S	-0.21327287
-1.0641881	P r S	-0.21327287
-2.2380118	l o S	-0.21327287
-2.0986803	n o S	-0.21327287
-2.1640806	y o S	-0.21327287
-2.1590343	z o S	-0.21327287
-2.0184262	o o S	-0.21327287
-2.0848234	g o S	-0.21327287
-1.1334016	F o S	-0.21327287
-0.8076478	S T S	-0.21327287
-0.36979392	N T S	-0.21327287
-0.36979392	H T S	-0.21327287
-1.2517737	<s> E S	-0.28909436
-0.9611045	S E S	-0.21327287
-0.34602386	T E S	-0.21327287
-0.9611045	Y E S	-0.21327287
-0.34602386	R E S	-0.21327287
-0.9512059	A M S	-0.21327287
-0.38003865	V M S	-0.21327287
-0.65800905	A R S	-0.21327287
-1.9846493	<s> U S	-0.21327287
-0.6564869	M U S	-0.21327287
-2.175427	<s> A G	-0.21327287
-2.3056426	<s> I G	-0.21327287
-0.664712	M I G	-0.21327287
-0.8278336	R I G	-0.21327287
-0.9607843	A L G	-0.21327287
-2.407367	k a G	-0.21327287
-2.0973437	m a G	-0.21327287
-0.9065	I N G	-0.21327287
-1.8805641	e N G	-0.21327287
-0.8345588	E N G	-0.21327287
-3.4790893	<s> u G	-0.21327287
-2.0250878	b u G	-0.28909436
-2.4697373	k u G	-0.21327287
-2.0643854	g u G	-0.21327287
-3.244693	<s> i G	-0.21327287
-1.902528	i i G	-0.21327287
-2.1233215	s i G	-0.28909436
-2.0900705	w i G	-0.21327287
-2.3387442	l i G	-0.21327287
-1.6968424	m i G	-0.31168118
-2.345905	z i G	-0.21327287
-3.1116722	<s> e G	-0.21327287
-2.180554	w e G	-0.21327287
-2.3211386	l e G	-0.21327287
-2.2706163	n e G	-0.21327287
-2.2758012	y e G	-0.21327287
-2.255772	s o G	-0.21327287
-1.5618304	o o G	-0.2623225
-2.2479224	g o G	-0.21327287
-0.9546626	K U G	-0.21327287
-2.4084077	<s> S O	-0.21327287
-0.8410589	A S O	-0.21327287
-0.3740141	A G O	-0.21327287
-0.9344332	N G O	-0.21327287
-0.94870645	N D O	-0.21327287
-1.3079824	<s> L O	-0.21327287
-0.8491139	A L O	-0.21327287
-0.8491139	O L O	-0.21327287
-0.4232725	E L O	-0.3501525
-0.42477137	H L O	-0.28909436
-2.4101567	k a O	-0.21327287
-3.5542376	<s> u O	-0.21327287
-2.5439987	k u O	-0.21327287
-2.3844876	y e O	-0.21327287
-2.3053813	n o O	-0.21327287
-1.8815358	<s> C O	-0.21327287
-0.38063362	W T O	-0.21327287
-0.38183284	F M O	-0.21327287
-1.2700133	U M O	-0.21327287
-1.9729278	<s> K O	-0.21327287
-0.81416774	U K O	-0.21327287
-1.4227293	<s> Y O	-0.21327287
-0.35896224	E Y O	-0.21327287
-0.3749452	X H O	-0.21327287
-0.37259358	A Q O	-0.21327287
-2.077487	<s> A I	-0.21327287
-1.3525801	e A I	-0.21327287
-1.3803042	I S I	-0.21327287
-0.6728663	E S I	-0.21327287
-0.9496998	N G I	-0.21327287
-1.9912173	<s> I I	-0.21327287
-0.9486811	I I I	-0.21327287
-0.9275062	N D I	-0.21327287
-0.3735488	M D I	-0.21327287
-2.4418502	<s> N I	-0.21327287
-2.0244877	i i I	-0.21327287
-3.6586218	<s> e I	-0.21327287
-2.1959348	z e I	-0.21327287
-1.9310235	<s> d I	-0.21327287
-1.7635319	<s> C I	-0.21327287
-0.8065666	A C I	-0.21327287
-0.44491467	G C I	-0.21327287
-0.7986419	L W I	-0.21327287
-0.7901873	K W I	-0.21327287
-1.6435356	<s> T I	-0.21327287
-0.9768004	A F I	-0.21327287
-1.0452332	i F I	-0.21327287
-1.0279422	e F I	-0.21327287
-0.59724355	A Z I	-0.21327287
-0.7327738	I Z I	-0.21327287
-0.3409567	N Z I	-0.21327287
-0.3409567	U Z I	-0.21327287
-0.67560697	I M I	-0.21327287
-1.2401388	<s> H I	-0.21327287
-1.1988934	e H I	-0.21327287
-1.3294866	<s> R I	-0.21327287
-0.6458416	A R I	-0.21327287
-1.2931962	<s> J I	-0.21327287
-1.3152921	S A D	-0.2623225
-0.66463995	P A D	-0.21327287
-0.66463995	R A D	-0.21327287
-1.5164883	<s> G D	-0.21327287
-2.361431	<s> I D	-0.21327287
-0.28394738	A I D	-0.28909436
-2.4323363	b a D	-0.21327287
-2.6383219	w a D	-0.21327287
-0.6733659	A N D	-0.21327287
-0.4540317	U N D	-0.24953105
-3.2061622	<s> u D	-0.21327287
-2.3112116	b u D	-0.21327287
-2.1952088	k u D	-0.28909436
-2.3157399	l u D	-0.21327287
-3.0926778	<s> i D	-0.21327287
-1.9801886	i i D	-0.21327287
-2.48322	s i D	-0.21327287
-2.4543426	z i D	-0.21327287
-3.0923784	<s> e D	-0.2623225
-2.270416	s e D	-0.21327287
-2.191059	e e D	-0.21327287
-2.2773838	l e D	-0.21327287
-1.9621584	y e D	-0.21327287
-2.0909173	z e D	-0.21327287
-2.2632568	s o D	-0.21327287
-2.0220568	z o D	-0.21327287
-1.8295736	<s> C D	-0.21327287
-0.66199404	I C D	-0.21327287
-1.094101	S E D	-0.21327287
-0.37660623	V E D	-0.21327287
-0.96808356	A M D	-0.21327287
-1.6746842	<s> R D	-0.21327287
-2.0428529	<s> A L	-0.21327287
-1.1225293	S A L	-0.2623225
-0.37675682	K A L	-0.21327287
-1.7730086	<s> O L	-0.21327287
-0.73618925	L O L	-0.21327287
-0.3824287	G I L	-0.21327287
-0.95771766	A L L	-0.21327287
-3.4126306	<s> a L	-0.21327287
-2.3323834	b a L	-0.21327287
-2.2917295	k a L	-0.21327287
-2.3310473	m a L	-0.21327287
-1.9327083	M a L	-0.21327287
-3.025276	<s> u L	-0.21327287
-2.3079224	b u L	-0.21327287
-2.1930017	k u L	-0.21327287
-2.312467	l u L	-0.21327287
-2.6918874	<s> i L	-0.24953105
-1.4580504	I i L	-0.21327287
-1.6014365	i i L	-0.28909436
-2.356215	s i L	-0.21327287
-1.8089209	w i L	-0.21327287
-2.329733	l i L	-0.21327287
-2.3365645	z i L	-0.21327287
-2.8931253	<s> e L	-0.24953105
-2.136389	b e L	-0.21327287
-1.9489338	s e L	-0.21327287
-2.3109875	w e L	-0.21327287
-1.851688	e e L	-0.21327287
-2.1833084	l e L	-0.21327287
-1.9003729	n e L	-0.2623225
-2.1291635	y e L	-0.21327287
-2.0048654	z e L	-0.21327287
-2.5837798	a m L	-0.21327287
-2.63825	<s> o L	-0.2623225
-1.959092	b o L	-0.21327287
-2.0024693	s o L	-0.21327287
-1.7813702	w o L	-0.21327287
-2.0447197	k o L	-0.21327287
-2.1463978	l o L	-0.21327287
-2.003102	n o L	-0.21327287
-2.0679312	y o L	-0.21327287
-1.8576914	z o L	-0.27283406
-1.9485264	o o L	-0.21327287
-1.998341	g o L	-0.21327287
-0.6103565	L E L	-0.21327287
-0.6103565	E E L	-0.21327287
-0.3481757	Z E L	-0.21327287
-0.9695128	Y E L	-0.21327287
-0.3481757	X E L	-0.21327287
-1.9729561	<s> M L	-0.21327287
-0.35841677	A H L	-0.21327287
-0.26985717	O H L	-0.28909436
-0.4333904	U H L	-0.28909436
-1.9766201	<s> U L	-0.21327287
-0.35634392	W U L	-0.21327287
-0.8688161	K U L	-0.21327287
-0.6254134	H U L	-0.21327287
-0.7426872	<s> A b	-0.9648937
-1.5421823	<s> O b	-0.21327287
-1.8656703	<s> I b	-0.24953105
-0.6392933	<s> a b	-1.6717173
-1.4738883	B a b	-0.21327287
-1.0786667	G a b	-0.21327287
-1.2537091	L a b	-0.21327287
-1.2723064	b a b	-0.463165
-1.3210676	N a b	-0.21327287
-1.5301331	t a b	-0.21327287
-1.5409449	h a b	-0.2716185
-1.3897232	s a b	-0.4371205
-1.098274	w a b	-0.68164146
-1.316014	e a b	-0.21327287
-1.3015312	k a b	-0.4233936
-1.7381468	c a b	-0.21327287
-1.3996524	d a b	-0.25969562
-1.3596493	l a b	-0.3790479
-1.1971499	n a b	-0.44694063
-1.3419166	m a b	-0.46037903
-1.3455608	y a b	-0.4300779
-1.5796452	p a b	-0.21327287
-1.5757447	r a b	-0.21327287
-1.3416716	z a b	-0.3646178
-1.0301632	q a b	-0.43854368
-1.6797231	v a b	-0.21327287
-1.2875253	g a b	-0.33152735
-0.8457146	x a b	-0.49819097
-0.97931737	T a b	-0.21327287
-0.97197485	Y a b	-0.21327287
-0.7196364	Q a b	-0.21327287
-1.0431478	<s> u b	-1.3596768
-1.3335893	b u b	-0.39081207
-1.4899071	t u b	-0.21327287
-0.64115226	P u b	-0.21327287
-0.9997231	h u b	-0.51118886
-1.6226935	s u b	-0.21327287
-1.298211	w u b	-0.2371056
-1.2989208	k u b	-0.65657204
-0.9487289	c u b	-0.31168118
-0.8771051	d u b	-0.5720013
-1.3376422	l u b	-0.3577167
-1.6316377	f u b	-0.21327287
-1.2180095	p u b	-0.21327287
-1.2615141	z u b	-0.28909436
-1.1576368	q u b	-0.2623225
-1.5179644	v u b	-0.21327287
-1.3879943	g u b	-0.25496703
-0.9051118	x u b	-0.2623225
-0.78434134	j u b	-0.2901347
-1.218287	<s> i b	-1.0452828
-1.0133342	S i b	-0.28983715
-1.3024857	I i b	-0.21327287
-0.9517739	D i b	-0.28909436
-1.554109	b i b	-0.21327287
-1.3937662	a i b	-0.21327287
-1.856436	h i b	-0.21327287
-1.4326897	i i b	-0.2623225
-1.3629211	s i b	-0.5558169
-1.6091927	w i b	-0.24953105
-1.7133325	c i b	-0.21327287
-1.039854	d i b	-0.53352994
-1.3090557	l i b	-0.5099985
-1.5028952	n i b	-0.27634218
-1.3206806	m i b	-0.40009606
-1.3125277	y i b	-0.49226972
-1.6419158	r i b	-0.21327287
-1.4483502	z i b	-0.61339396
-1.600938	q i b	-0.21327287
-1.0166668	g i b	-0.37096775
-0.9881243	x i b	-0.25496703
-1.4678626	Z i b	-0.21327287
-1.4699342	M i b	-0.21327287
-2.2646914	a s b	-0.21327287
-2.2310066	e s b	-0.21327287
-2.085653	o s b	-0.21327287
-1.1866356	<s> e b	-1.325329
-0.5820157	S e b	-0.7181293
-1.4725958	b e b	-0.30948237
-1.5336807	t e b	-0.28909436
-1.5745877	h e b	-0.3501525
-1.135846	s e b	-0.56951255
-1.2059469	w e b	-0.4615278
-1.4296051	e e b	-0.47509125
-0.8367273	c e b	-0.4331442
-1.4684379	d e b	-0.28909436
-1.5269983	l e b	-0.28983715
-1.6012405	f e b	-0.21327287
-1.6023957	n e b	-0.300241
-1.3879541	y e b	-0.29649353
-1.7560961	z e b	-0.21327287
-1.1712015	q e b	-0.2623225
-1.326679	g e b	-0.2901347
-1.1422353	x e b	-0.28909436
-0.7852576	C e b	-0.2623225
-0.6513237	W e b	-0.21327287
-0.44564646	F e b	-0.21327287
-1.1918352	R e b	-0.21327287
-2.0237765	e d b	-0.21327287
-2.020197	n d b	-0.21327287
-0.6806754	A l b	-0.28909436
-2.4482477	a l b	-0.21327287
-1.2932909	<s> m b	-0.4371205
-1.116579	I m b	-0.21327287
-1.0739692	a m b	-0.7604532
-1.0922712	u m b	-0.60342014
-0.9576609	i m b	-0.7181293
-1.0638465	e m b	-0.64524233
-1.1467547	o m b	-0.7032343
-1.3737569	U m b	-0.21327287
-1.9715937	i p b	-0.21327287
-1.768786	u r b	-0.21327287
-1.0530125	<s> o b	-1.1331027
-1.1966504	B o b	-0.21327287
-1.3633801	S o b	-0.21327287
-1.2527136	L o b	-0.21327287
-1.3098688	b o b	-0.29957917
-1.4034938	t o b	-0.21327287
-1.2105964	h o b	-0.36123663
-1.7986457	s o b	-0.21327287
-1.602057	w o b	-0.21327287
-1.5503999	k o b	-0.27998582
-1.244552	d o b	-0.28983715
-1.085363	l o b	-0.48341265
-1.2254324	n o b	-0.48456728
-1.6369377	m o b	-0.21327287
-1.166899	y o b	-0.45660785
-1.3155649	r o b	-0.2623225
-1.1702852	z o b	-0.52703184
-0.9983726	q o b	-0.5720013
-1.2704507	g o b	-0.26675186
-0.91369873	Z o b	-0.28909436
-1.2072073	K o b	-0.21327287
-0.80476004	R o b	-0.21327287
-2.2014334	n g b	-0.21327287
-1.5250727	<s> M b	-0.21327287
-1.3333172	u M b	-0.21327287
-1.0572462	i M b	-0.2623225
-1.3170578	e M b	-0.28909436
-1.1420789	o M b	-0.24203315
-1.1736544	<s> U b	-0.82161355
-0.42447093	<s> B a	-0.25496703
-0.25563514	a B a	-0.30681103
-0.70433164	u B a	-0.24953105
-0.7374193	i B a	-0.21327287
-0.5705574	e B a	-0.30706888
-1.1904845	<s> S a	-0.25298244
-1.2677815	I S a	-0.21327287
-1.0170707	i S a	-0.21327287
-0.82571864	e S a	-0.2794953
-1.039399	<s> G a	-0.21327287
-0.7471223	a G a	-0.21327287
-0.6846755	i G a	-0.2623225
-0.59845275	e G a	-0.2623225
-1.3974334	<s> D a	-0.21327287
-0.6089096	a D a	-0.21327287
-0.9061886	u D a	-0.21327287
-0.59946036	e D a	-0.24953105
-0.8569177	<s> L a	-0.21327287
-0.6051293	a L a	-0.28909436
-0.7502738	u L a	-0.28909436
-1.1009895	i L a	-0.21327287
-0.80795324	e L a	-0.2623225
-0.66046226	o L a	-0.6511825
-0.31692988	<s> b a	-1.3192097
-0.5370606	A b a	-0.21327287
-0.65248084	I b a	-0.21327287
-0.63255614	a b a	-0.66703874
-0.7126693	u b a	-0.42172596
-0.6791827	i b a	-0.57544917
-0.65248084	s b a	-0.21327287
-0.6954337	e b a	-0.54392993
-0.5370606	d b a	-0.21327287
-0.80830383	m b a	-0.49767408
-0.30657548	r b a	-0.21327287
-0.65863115	o b a	-0.50700533
-0.49036434	M b a	-0.32469022
-0.65248084	U b a	-0.21327287
-1.9103107	t a a	-0.21327287
-2.2712073	h a a	-0.21327287
-1.6416789	i a a	-0.21327287
-2.3164115	w a a	-0.21327287
-1.911633	d a a	-0.21327287
-1.7807865	l a a	-0.3501525
-1.904225	m a a	-0.21327287
-2.1411188	y a a	-0.21327287
-1.7588378	r a a	-0.21327287
-1.8378707	v a a	-0.21327287
-1.7870917	g a a	-0.21327287
-0.8689151	<s> N a	-0.30843136
-1.1240658	a N a	-0.21327287
-1.2160636	u N a	-0.21327287
-1.3766546	i N a	-0.28909436
-1.6536404	e N a	-0.21327287
-0.8868767	<s> t a	-0.2688623
-0.60068154	S t a	-0.31168118
-1.1955432	a t a	-0.2850018
-1.2552003	u t a	-0.27634218
-1.0286304	i t a	-0.31219184
-0.8300033	s t a	-0.25496703
-1.0416396	e t a	-0.40601048
-0.9695584	k t a	-0.21327287
-0.9733119	n t a	-0.3728897
-1.2639654	m t a	-0.2623225
-1.1850727	r t a	-0.21327287
-0.9179618	o t a	-0.44998387
-2.17233	b u a	-0.21327287
-1.6700664	t u a	-0.21327287
-1.1168828	e u a	-0.21327287
-2.2925014	k u a	-0.21327287
-1.4251908	o u a	-0.21327287
-0.7324121	<s> P a	-0.27634218
-1.0188857	a P a	-0.21327287
-0.91847956	i P a	-0.2623225
-0.3717062	e P a	-0.49425465
-0.3278761	m P a	-0.21327287
-0.5195081	<s> h a	-0.40944263
-0.44070682	B h a	-0.27634218
-0.8368678	S h a	-0.21327287
-0.29060373	G h a	-0.21327287
-0.6412078	b h a	-0.51686656
-0.44823518	a h a	-0.47064322
-0.89006716	t h a	-0.47203854
-0.6656202	u h a	-0.343289
-0.45353144	P h a	-0.37013283
-0.65185314	i h a	-0.5720013
-0.7396021	s h a	-0.39941502
-0.9590884	e h a	-0.3501525
-0.80277354	k h a	-0.52155566
-0.5858167	c h a	-0.5316832
-0.22316128	l h a	-0.21327287
-0.28946185	n h a	-0.21327287
-1.0486696	m h a	-0.21327287
-0.7179488	y h a	-0.21327287
-0.6456672	p h a	-0.5744197
-0.5547893	r h a	-0.37373322
-0.76613325	o h a	-0.21327287
-0.63425404	q h a	-0.39272767
-0.29060373	v h a	-0.21327287
-0.60244465	g h a	-0.34729475
-0.5977573	x h a	-0.45001313
-0.34322226	C h a	-0.26675186
-0.6316435	T h a	-0.28909436
-0.670418	K h a	-0.2571606
-0.6407752	X h a	-0.21327287
-0.45361188	Q h a	-0.21327287
-0.9423475	R h a	-0.21327287
-2.8210363	<s> i a	-0.28909436
-1.2942679	D i a	-0.21327287
-1.8332831	b i a	-0.21327287
-1.289706	t i a	-0.21327287
-1.9342805	h i a	-0.21327287
-1.6935763	i i a	-0.21327287
-1.9444752	s i a	-0.21327287
-1.3756669	e i a	-0.21327287
-1.3640174	c i a	-0.2623225
-1.9580072	d i a	-0.21327287
-2.0824838	l i a	-0.21327287
-1.5417507	n i a	-0.2623225
-1.935082	m i a	-0.21327287
-1.4519044	r i a	-0.21327287
-1.090124	o i a	-0.21327287
-0.71856534	<s> s a	-1.05885
-0.65964186	I s a	-0.21327287
-0.9089561	a s a	-0.46421298
-0.8013421	t s a	-0.41725585
-0.8601711	u s a	-0.43642816
-0.81468385	h s a	-0.21327287
-0.8060685	i s a	-0.64339745
-0.5936856	w s a	-0.21327287
-0.9391955	e s a	-0.47509882
-1.111943	n s a	-0.21327287
-0.82979065	m s a	-0.28983715
-0.33898106	z s a	-0.21327287
-0.7477236	o s a	-0.3955886
-0.7304082	T s a	-0.3501525
-0.18422325	<s> w a	-1.3865637
-0.20044978	S w a	-0.21327287
-0.32939544	D w a	-0.21327287
-0.47842887	L w a	-0.27741805
-0.6565248	a w a	-0.37297136
-0.3341224	t w a	-0.32775348
-0.70905167	u w a	-0.27692115
-0.39793038	h w a	-0.3354366
-0.6049639	i w a	-0.3724405
-0.32432616	s w a	-0.44528458
-0.51829314	e w a	-0.24416226
-0.43377006	k w a	-0.52626085
-0.27806982	c w a	-0.39272767
-0.40666553	d w a	-0.32184
-0.493768	l w a	-0.47694582
-0.25873762	f w a	-0.21327287
-0.40349692	n w a	-0.36931592
-0.4586128	m w a	-0.21327287
-0.3604374	y w a	-0.29957917
-0.411809	r w a	-0.21327287
-0.4236092	z w a	-0.44379902
-0.58087224	o w a	-0.3437507
-0.37547868	q w a	-0.38687113
-0.3389283	g w a	-0.27741805
-0.5549072	x w a	-0.27283406
-0.4586128	C w a	-0.21327287
-0.44564813	K w a	-0.23361978
-0.25873762	Q w a	-0.21327287
-0.58734566	j w a	-0.21327287
-1.58504	S e a	-0.21327287
-2.032642	s e a	-0.21327287
-2.055618	l e a	-0.21327287
-1.8152323	n e a	-0.21327287
-1.9955674	y e a	-0.21327287
-1.6931089	p e a	-0.21327287
-1.3434395	r e a	-0.2623225
-1.900945	g e a	-0.21327287
-1.0986302	T e a	-0.21327287
-0.8291722	Y e a	-0.21327287
-0.8335578	H e a	-0.21327287
-1.2415146	R e a	-0.21327287
-1.3683227	<s> k a	-0.60485923
-0.689214	a k a	-0.58229697
-0.97866684	N k a	-0.30402097
-0.78741986	u k a	-0.44355014
-0.7936076	i k a	-0.48798504
-1.0451581	s k a	-0.21327287
-0.83639795	e k a	-0.5548402
-0.92863166	n k a	-0.37273535
-0.9301464	m k a	-0.27634218
-1.1761591	o k a	-0.3628337
-0.77906984	<s> c a	-0.2310237
-0.59236616	I c a	-0.21327287
-0.7692533	a c a	-0.36261976
-0.8443733	N c a	-0.28909436
-0.6760163	u c a	-0.4023893
-0.75135434	i c a	-0.4598284
-0.6731803	e c a	-0.5357198
-0.7556142	k c a	-0.2623225
-0.87856776	n c a	-0.4691208
-1.2945695	m c a	-0.21327287
-0.58234924	o c a	-0.39534152
-0.7968033	g c a	-0.26927575
-0.5932014	<s> d a	-0.2604105
-0.76170313	a d a	-0.48543903
-0.82060206	N d a	-0.31168118
-0.78232336	u d a	-0.31663868
-0.7254779	i d a	-0.4531969
-1.1850557	e d a	-0.23361978
-0.8812152	n d a	-0.42986968
-0.5750862	m d a	-0.52253455
-0.96416575	r d a	-0.21327287
-0.9369693	o d a	-0.2794953
-1.0105392	<s> l a	-0.83111805
-0.8421436	I l a	-0.21327287
-0.6747344	b l a	-0.27283406
-0.7528852	a l a	-0.714638
-0.54265636	t l a	-0.32279086
-0.8135466	u l a	-0.5980513
-0.5538328	P l a	-0.21327287
-0.6435737	h l a	-0.5865516
-0.8397818	i l a	-0.6002384
-0.7074282	e l a	-0.7018544
-0.9192001	k l a	-0.21327287
-0.8030359	c l a	-0.21327287
-0.7121136	d l a	-0.5547192
-1.1683675	l l a	-0.21327287
-0.38938805	n l a	-0.21327287
-0.60749716	m l a	-0.3508967
-0.60202277	p l a	-0.21327287
-0.80118984	o l a	-0.63052464
-0.7502766	g l a	-0.21327287
-0.67449033	C l a	-0.21327287
-0.67449033	M l a	-0.21327287
-0.67449033	K l a	-0.21327287
-0.5149863	H l a	-0.24953105
-0.7456532	<s> f a	-0.31168118
-0.6787721	I f a	-0.21327287
-0.6297431	a f a	-0.6006353
-0.5845701	u f a	-0.42451793
-0.74866885	i f a	-0.5250348
-0.9359849	e f a	-0.2623225
-0.7718205	f f a	-0.21327287
-0.6740712	m f a	-0.40859118
-0.7347799	o f a	-0.39591002
-0.4995368	M f a	-0.28909436
-1.0023339	<s> n a	-1.3183769
-1.2631968	I n a	-0.21327287
-1.0064996	a n a	-0.638495
-1.2462374	u n a	-0.3894341
-1.1792016	i n a	-0.67507684
-1.2047721	e n a	-0.47154543
-1.1201273	n n a	-0.21327287
-0.9944703	m n a	-0.40601048
-0.77263737	y n a	-0.21327287
-0.66368014	r n a	-0.21327287
-1.0709081	o n a	-0.59847236
-0.27962574	<s> m a	-0.9468388
-0.61339945	A m a	-0.21327287
-0.34983692	S m a	-0.21327287
-0.94984615	a m a	-0.6839741
-0.906735	u m a	-0.4388318
-1.0222273	i m a	-0.47013518
-0.91513664	s m a	-0.21327287
-0.998339	e m a	-0.47894818
-0.8589916	n m a	-0.21327287
-0.81411403	m m a	-0.3501525
-0.84798765	r m a	-0.21327287
-0.34983692	z m a	-0.21327287
-1.0684747	o m a	-0.58548594
-0.9401333	M m a	-0.21327287
-1.1926032	U m a	-0.21327287
-0.5262138	<s> y a	-1.0614669
-0.5476988	I y a	-0.21327287
-0.80415905	a y a	-0.5333215
-0.2897437	N y a	-0.2901347
-0.7311006	t y a	-0.47014374
-0.672902	u y a	-0.38191658
-0.5400476	i y a	-0.5289718
-0.7278406	e y a	-0.37159258
-0.69724804	d y a	-0.2623225
-0.6823982	n y a	-0.62286997
-0.5266549	m y a	-0.5288102
-0.5908873	o y a	-0.40944263
-0.38567114	T y a	-0.21327287
-0.23869538	M y a	-0.28909436
-0.66641	U y a	-0.21327287
-0.9335784	<s> p a	-0.25969562
-0.6819809	S p a	-0.21327287
-0.82733643	a p a	-0.31168118
-0.7702217	u p a	-0.26675186
-0.89311004	i p a	-0.37878656
-0.7754472	s p a	-0.21327287
-0.8683701	e p a	-0.32474384
-0.7887071	m p a	-0.35847396
-1.2465601	o p a	-0.21327287
-0.5594945	x p a	-0.21327287
-0.5594945	E p a	-0.21327287
-0.7299637	M p a	-0.2623225
-1.0545187	<s> r a	-0.21327287
-0.76461506	B r a	-0.21327287
-0.8974287	a r a	-0.2371056
-0.4384669	t r a	-0.26675186
-1.1854433	u r a	-0.21327287
-0.6746683	h r a	-0.28909436
-0.8717436	i r a	-0.24953105
-1.0807825	e r a	-0.24203315
-1.0689284	k r a	-0.21327287
-0.76461506	c r a	-0.21327287
-0.48689005	d r a	-0.21327287
-0.91664326	f r a	-0.21327287
-0.3948964	m r a	-0.2623225
-1.090476	p r a	-0.21327287
-1.0193112	o r a	-0.31168118
-0.61035407	g r a	-0.2623225
-0.24052551	T r a	-0.24953105
-0.74777436	F r a	-0.21327287
-0.8048637	<s> z a	-0.832889
-0.5428347	I z a	-0.21327287
-0.7342591	a z a	-0.70537347
-0.65452427	u z a	-0.5198263
-0.59215665	i z a	-0.60986155
-0.6313263	e z a	-0.56213945
-0.6909618	n z a	-0.3789254
-0.77272815	m z a	-0.300241
-0.7014804	o z a	-0.48777243
-0.3099624	v z a	-0.21327287
-0.20088291	M z a	-0.6511825
-0.3099624	U z a	-0.21327287
-1.3133523	B o a	-0.21327287
-1.3927283	C o a	-0.21327287
-0.82541585	<s> q a	-0.28909436
-0.3103191	A q a	-0.21327287
-0.6788793	a q a	-0.4903101
-0.47997618	N q a	-0.28909436
-0.79777586	u q a	-0.36057943
-0.7020825	i q a	-0.40397888
-0.71830463	e q a	-0.34782913
-0.85122436	k q a	-0.21327287
-0.55550104	n q a	-0.48456728
-0.52522135	m q a	-0.28967202
-0.8232245	o q a	-0.2371056
-0.68812656	g q a	-0.38728562
-0.6608272	U q a	-0.21327287
-0.4491324	<s> v a	-0.2794953
-0.5868579	a v a	-0.4717642
-0.5954319	u v a	-0.40093097
-0.50568265	h v a	-0.21327287
-0.80795574	i v a	-0.44100726
-0.56604743	e v a	-0.40407804
-0.5207444	m v a	-0.5214279
-0.50568265	r v a	-0.21327287
-0.66776276	o v a	-0.34846157
-0.63534194	M v a	-0.21327287
-0.50568265	U v a	-0.21327287
-0.66919106	<s> g a	-0.33622256
-0.7291237	I g a	-0.21327287
-0.89510995	a g a	-0.37616417
-0.6315585	N g a	-0.24953105
-0.95358217	u g a	-0.28983715
-0.8803344	i g a	-0.37297136
-0.7985709	e g a	-0.365415
-0.8658107	n g a	-0.5944422
-0.7400665	m g a	-0.43235248
-0.907455	r g a	-0.21327287
-0.93805933	o g a	-0.28983715
-1.209636	g g a	-0.21327287
-0.2392763	M g a	-0.27634218
-0.5624621	<s> x a	-0.2623225
-0.29681844	G x a	-0.21327287
-0.5206005	I x a	-0.21327287
-0.5969021	a x a	-0.45528862
-0.71433586	u x a	-0.32474384
-0.6198653	i x a	-0.42338455
-0.5144995	e x a	-0.33152735
-0.46187913	k x a	-0.24953105
-0.7321904	n x a	-0.4180297
-0.8345168	m x a	-0.21327287
-0.60249436	o x a	-0.44998387
-0.5740367	g x a	-0.26927575
-0.6311312	U x a	-0.21327287
-0.741659	<s> C a	-0.24953105
-0.54760027	I C a	-0.21327287
-0.6662805	a C a	-0.21327287
-0.66133857	u C a	-0.21327287
-0.5478621	i C a	-0.3501525
-0.52368313	e C a	-0.40859118
-0.3127437	o C a	-0.21327287
-0.9251355	<s> W a	-0.21327287
-0.4311699	e W a	-0.21327287
-1.0818194	<s> T a	-0.21327287
-0.6398707	a T a	-0.21327287
-1.1377846	i T a	-0.21327287
-1.1589692	<s> F a	-0.21327287
-0.99634665	e F a	-0.21327287
-0.62639964	o F a	-0.21327287
-0.915947	<s> Z a	-0.2623225
-0.5977784	I Z a	-0.21327287
-0.68134886	a Z a	-0.21327287
-0.6143649	i Z a	-0.21327287
-1.1032003	e Z a	-0.21327287
-0.28105336	m Z a	-0.21327287
-0.49452212	o Z a	-0.21327287
-0.27268735	<s> M a	-0.5454072
-0.9011116	I M a	-0.21327287
-0.295335	a M a	-0.39236417
-1.0716183	u M a	-0.2794953
-0.8104037	i M a	-0.28983715
-0.8341635	e M a	-0.31663868
-0.6004886	m M a	-0.21327287
-1.0768007	o M a	-0.27634218
-1.3752626	<s> K a	-0.36931592
-1.1138619	a K a	-0.21327287
-1.3518541	e K a	-0.21327287
-0.6674646	<s> Y a	-0.2901347
-0.33907586	a Y a	-0.21327287
-0.72815216	e Y a	-0.21327287
-0.7376833	<s> H a	-0.21327287
-1.1749271	e H a	-0.21327287
-0.33832422	a V a	-0.21327287
-0.33832422	u V a	-0.21327287
-0.8561844	<s> X a	-0.21327287
-0.60826313	<s> Q a	-0.21327287
-0.67726713	u Q a	-0.21327287
-1.059392	i Q a	-0.21327287
-1.1451452	<s> j a	-0.21327287
-1.4525748	a j a	-0.21327287
-0.73753047	u j a	-0.2623225
-1.3342589	i j a	-0.21327287
-0.6287956	e j a	-0.24953105
-0.72905976	n j a	-0.60003
-0.88323015	o j a	-0.21327287
-1.1502013	<s> R a	-0.21327287
-0.7914442	<s> J a	-0.28909436
-0.2478133	a J a	-0.21327287
-0.19255464	e J a	-0.21327287
-0.2478133	o J a	-0.21327287
-1.6447753	S A N	-0.21327287
-0.6706201	P A N	-0.21327287
-0.38016823	S B N	-0.21327287
-1.4192816	<s> I N	-0.31084815
-0.91355205	I I N	-0.21327287
-0.90659404	C I N	-0.21327287
-0.91355205	Z I N	-0.21327287
-3.4148505	<s> a N	-0.21327287
-2.035052	b a N	-0.28909436
-2.541167	w a N	-0.21327287
-2.0423057	m a N	-0.21327287
-2.0391624	y a N	-0.21327287
-2.4856887	<s> u N	-0.34782913
-1.9944676	b u N	-0.21327287
-2.1620555	k u N	-0.24203315
-2.2673824	l u N	-0.21327287
-2.0220263	g u N	-0.21327287
-1.9604415	<s> i N	-0.38728562
-1.4254671	I i N	-0.21327287
-1.3855861	i i N	-0.2453496
-1.9082962	s i N	-0.2901347
-1.7653179	w i N	-0.23361978
-1.8922219	c i N	-0.21327287
-2.0230243	l i N	-0.21327287
-2.0820181	m i N	-0.21327287
-1.6455582	y i N	-0.24203315
-2.2477582	z i N	-0.21327287
-2.4927342	<s> e N	-0.28967202
-2.1124582	b e N	-0.21327287
-1.9326956	s e N	-0.21327287
-1.9230156	w e N	-0.32184
-1.1389226	e e N	-0.5395836
-2.158497	l e N	-0.21327287
-2.0969837	n e N	-0.21327287
-1.8895822	y e N	-0.22901513
-1.7417469	z e N	-0.23361978
-1.9909066	g e N	-0.21327287
-2.4345324	a m N	-0.21327287
-1.9983121	u m N	-0.21327287
-2.279306	e m N	-0.21327287
-2.4379182	o m N	-0.21327287
-3.0189533	<s> o N	-0.21327287
-1.9817166	b o N	-0.21327287
-2.0279512	s o N	-0.21327287
-1.5356869	w o N	-0.21327287
-2.0689955	k o N	-0.21327287
-2.1729796	l o N	-0.21327287
-2.030746	n o N	-0.21327287
-2.0957274	y o N	-0.21327287
-2.0888526	z o N	-0.21327287
-1.6944064	o o N	-0.28909436
-0.83757806	A C N	-0.21327287
-0.66384983	W E N	-0.21327287
-0.737146	Y E N	-0.21327287
-1.5700585	<s> F N	-0.21327287
-1.9784949	<s> U N	-0.21327287
-0.6258564	i U N	-0.21327287
-0.35658225	e U N	-0.21327287
-0.268624	F U N	-0.28909436
-2.0831985	<s> A t	-0.21327287
-1.1603101	<s> S t	-0.37716985
-0.90378	a S t	-0.21327287
-1.5423326	i S t	-0.21327287
-2.3432138	<s> I t	-0.21327287
-1.6626128	<s> a t	-0.74676335
-1.2461443	B a t	-0.28909436
-0.7390992	S a t	-0.40859118
-1.0707332	G a t	-0.21327287
-1.2108973	b a t	-0.43780234
-0.8819184	N a t	-0.24203315
-0.90228283	t a t	-0.37878656
-1.2152221	P a t	-0.21327287
-1.1146448	h a t	-0.5401101
-1.2471282	i a t	-0.28909436
-1.3046621	s a t	-0.44829613
-1.1791561	w a t	-0.5720013
-1.0545933	e a t	-0.21327287
-1.2949979	k a t	-0.39342132
-1.0952691	c a t	-0.28983715
-1.5214876	d a t	-0.24953105
-1.354736	l a t	-0.44473913
-1.2751428	n a t	-0.2542856
-1.2724402	m a t	-0.45796782
-1.4188509	y a t	-0.43097454
-1.0769311	p a t	-0.31168118
-0.8683357	r a t	-0.40407804
-1.4696443	z a t	-0.2901347
-1.1170108	q a t	-0.38574544
-1.5013616	g a t	-0.2623225
-1.5005759	x a t	-0.28909436
-1.3088237	C a t	-0.21327287
-0.86688846	Z a t	-0.28909436
-0.9051065	M a t	-0.3646178
-2.0366058	<s> N t	-0.21327287
-1.0653508	I N t	-0.21327287
-1.0738459	a N t	-0.21327287
-0.7670539	u N t	-0.21327287
-0.9411028	i N t	-0.2623225
-0.7939527	e N t	-0.39591002
-0.4242152	m N t	-0.3501525
-2.0933986	a t t	-0.21327287
-0.81337285	h t t	-0.21327287
-1.8521272	i t t	-0.28909436
-1.5358622	e t t	-0.3501525
-1.8637446	n t t	-0.21327287
-1.9610486	o t t	-0.21327287
-1.598177	<s> u t	-0.88741046
-0.35694757	A u t	-0.21327287
-1.2738535	B u t	-0.21327287
-0.95080066	S u t	-0.21327287
-0.35694757	O u t	-0.21327287
-0.97921234	L u t	-0.2623225
-1.1401726	b u t	-0.51089627
-0.628607	a u t	-0.21327287
-1.2128986	t u t	-0.21327287
-0.99001	h u t	-0.35984886
-1.1921663	s u t	-0.2623225
-1.1254771	w u t	-0.33064783
-1.2746493	k u t	-0.6094117
-1.0883911	c u t	-0.31168118
-1.1231533	d u t	-0.3501525
-1.3079787	l u t	-0.52404815
-0.8769541	f u t	-0.5720013
-1.1707178	y u t	-0.28909436
-0.8057325	o u t	-0.2623225
-1.4182178	q u t	-0.28909436
-1.0677829	v u t	-0.5720013
-1.3453131	g u t	-0.27634218
-0.90819854	F u t	-0.28909436
-1.0372385	K u t	-0.21327287
-1.4465148	<s> h t	-0.3501525
-1.911725	a h t	-0.21327287
-1.764168	g h t	-0.21327287
-1.5966086	<s> i t	-0.7460813
-1.2645072	S i t	-0.2623225
-1.2301477	I i t	-0.21327287
-1.1943904	D i t	-0.21327287
-1.203545	L i t	-0.21327287
-1.3530549	b i t	-0.2623225
-1.3229344	a i t	-0.21327287
-1.042666	t i t	-0.48777243
-0.36010423	P i t	-0.21327287
-1.062048	h i t	-0.28983715
-1.4980832	i i t	-0.21327287
-1.2033192	s i t	-0.47550452
-1.3007555	w i t	-0.26675186
-1.2558022	k i t	-0.24953105
-1.2926608	c i t	-0.21327287
-1.0729162	d i t	-0.40093097
-1.279878	l i t	-0.4120744
-1.0107383	n i t	-0.2901347
-1.0332742	m i t	-0.4603812
-1.2268485	y i t	-0.4758354
-1.181619	p i t	-0.21327287
-0.85757893	r i t	-0.2688623
-1.4078734	z i t	-0.40920794
-1.5142686	q i t	-0.21327287
-1.4646413	v i t	-0.21327287
-1.0974617	g i t	-0.28909436
-1.5103989	x i t	-0.21327287
-0.7815909	C i t	-0.21327287
-0.6324266	T i t	-0.21327287
-1.3854768	Z i t	-0.21327287
-1.0263246	M i t	-0.2623225
-0.36010423	X i t	-0.21327287
-2.7905052	<s> s t	-0.2623225
-0.7698106	b s t	-0.21327287
-1.143269	a s t	-0.28967202
-1.3095715	u s t	-0.24953105
-1.3839688	i s t	-0.27998582
-1.0470235	e s t	-0.30403787
-0.9426109	n s t	-0.28909436
-0.5421766	y s t	-0.28909436
-1.5788684	o s t	-0.21327287
-1.0382555	E s t	-0.21327287
-1.890765	o w t	-0.21327287
-1.8074716	<s> e t	-0.7206687
-1.2428085	B e t	-0.21327287
-0.870003	S e t	-0.47509125
-1.2678623	b e t	-0.52624375
-1.3497102	t e t	-0.2623225
-1.164614	P e t	-0.21327287
-1.0238967	h e t	-0.52586967
-1.2669702	s e t	-0.47774222
-1.2681197	w e t	-0.50273365
-1.529867	e e t	-0.24203315
-0.9479367	k e t	-0.43689796
-1.4999512	c e t	-0.28909436
-1.6315466	d e t	-0.21327287
-1.2594234	l e t	-0.38672936
-1.1724476	f e t	-0.21327287
-1.2798425	n e t	-0.35847396
-1.3572558	m e t	-0.3501525
-1.4476177	y e t	-0.36931592
-1.3293711	p e t	-0.21327287
-1.4195516	r e t	-0.21327287
-1.3026178	z e t	-0.2901347
-0.8018511	o e t	-0.21327287
-1.2994313	g e t	-0.25496703
-1.5529941	x e t	-0.21327287
-1.0926211	C e t	-0.21327287
-0.8018511	F e t	-0.21327287
-1.1382382	M e t	-0.21327287
-0.9375368	O k t	-0.21327287
-2.2419806	a k t	-0.21327287
-1.919725	e k t	-0.21327287
-2.0669298	o k t	-0.21327287
-0.95500594	A c t	-0.21327287
-1.345489	a c t	-0.2623225
-1.7700145	i c t	-0.21327287
-1.0919688	e c t	-0.24203315
-0.6286751	l c t	-0.21327287
-1.6623154	n c t	-0.21327287
-0.95500594	r c t	-0.21327287
-1.5355743	o c t	-0.21327287
-1.9988418	e d t	-0.21327287
-1.9947894	n d t	-0.21327287
-2.0867608	a l t	-0.28909436
-1.9866735	u l t	-0.21327287
-2.372481	e l t	-0.21327287
-1.996759	a f t	-0.21327287
-1.9460578	i f t	-0.21327287
-2.0630803	<s> n t	-0.7745421
-0.8675705	A n t	-0.21327287
-1.0332105	I n t	-0.24203315
-1.1211908	a n t	-0.542038
-1.1419107	u n t	-0.38546562
-1.1506432	i n t	-0.61975956
-1.0268067	e n t	-0.76053774
-1.0993719	n n t	-0.21327287
-0.9865234	m n t	-0.4331442
-0.7623955	y n t	-0.21327287
-1.2070109	o n t	-0.40601048
-0.8571672	E n t	-0.21327287
-1.1416253	M n t	-0.21327287
-1.5990858	<s> m t	-0.34533665
-1.1088384	I m t	-0.21327287
-1.3129945	a m t	-0.6746636
-1.7039685	u m t	-0.2976539
-1.5626042	i m t	-0.31168118
-1.495034	e m t	-0.39898163
-1.3348467	o m t	-0.7070645
-1.3598619	U m t	-0.21327287
-1.7458194	i y t	-0.21327287
-1.9133811	m p t	-0.21327287
-0.3721596	A r t	-0.21327287
-1.5520393	a r t	-0.24953105
-1.5867447	u r t	-0.21327287
-1.1144409	e r t	-0.31084815
-1.5291989	o r t	-0.24953105
-2.2165184	a z t	-0.21327287
-1.6277412	<s> o t	-0.60421604
-0.6737533	B o t	-0.2623225
-0.9010913	O o t	-0.21327287
-1.2974331	b o t	-0.32469022
-0.95975095	h o t	-0.37163028
-1.2662426	s o t	-0.48777243
-1.393162	w o t	-0.2623225
-1.1428939	k o t	-0.33064783
-0.95035064	c o t	-0.40387148
-1.5874554	d o t	-0.21327287
-1.218175	l o t	-0.28255725
-1.3864831	n o t	-0.2794953
-0.9599542	m o t	-0.31421885
-1.2810699	y o t	-0.43689796
-0.82863635	p o t	-0.37589636
-1.297243	r o t	-0.21327287
-1.3589013	z o t	-0.4233633
-0.8840215	o o t	-0.49819097
-1.6827493	q o t	-0.21327287
-0.89382213	v o t	-0.24953105
-1.4899385	g o t	-0.24953105
-1.5090352	x o t	-0.21327287
-0.942034	C o t	-0.28909436
-1.2013484	Z o t	-0.21327287
-1.3009257	e x t	-0.21327287
-1.679468	<s> M t	-0.21327287
-1.1407952	u M t	-0.3501525
-1.6289078	e M t	-0.21327287
-0.6292342	m M t	-0.21327287
-0.9021227	o M t	-0.5288102
-1.1150985	U M t	-0.21327287
-1.7458137	<s> U t	-0.2901347
-0.14913586	C Ã t	-0.21327287
-2.011059	<s> A u	-0.21327287
-1.0071785	<s> B u	-0.21327287
-0.7051075	u B u	-0.24953105
-1.1351464	i B u	-0.21327287
-1.1376711	e B u	-0.2623225
-0.37642324	o B u	-0.3516421
-1.996827	<s> S u	-0.21327287
-1.4420087	i S u	-0.21327287
-1.3931402	e S u	-0.28909436
-1.1840245	o S u	-0.21327287
-0.853357	<s> G u	-0.21327287
-0.7144129	a G u	-0.21327287
-0.71026796	u G u	-0.21327287
-0.8297486	i G u	-0.21327287
-0.511396	o G u	-0.28909436
-1.7512562	<s> O u	-0.21327287
-1.5296528	<s> D u	-0.21327287
-0.6447006	a D u	-0.21327287
-0.52174556	<s> L u	-0.22741501
-0.3925633	a L u	-0.2623225
-0.7051286	u L u	-0.21327287
-0.6851295	i L u	-0.2623225
-0.9263504	e L u	-0.28909436
-0.31288496	m L u	-0.21327287
-0.570684	o L u	-0.5618367
-0.8079206	U L u	-0.21327287
-1.1506987	<s> b u	-0.64893496
-0.54750454	O b u	-0.21327287
-0.8356087	a b u	-0.51058966
-0.7954127	u b u	-0.40738127
-0.8328229	i b u	-0.45920435
-0.6661547	s b u	-0.21327287
-0.96328855	e b u	-0.2835832
-0.54750454	d b u	-0.21327287
-0.81584245	m b u	-0.44813365
-0.31268796	p b u	-0.21327287
-0.7521259	o b u	-0.5854712
-0.89956194	M b u	-0.2623225
-0.6661547	U b u	-0.21327287
-3.348905	<s> a u	-0.21327287
-1.1963766	G a u	-0.21327287
-1.0631487	u a u	-0.21327287
-1.516907	e a u	-0.21327287
-2.3144877	l a u	-0.21327287
-1.3558986	<s> t u	-0.21327287
-1.0332785	S t u	-0.21327287
-1.8156666	a t u	-0.21327287
-0.8566544	N t u	-0.3501525
-1.5124722	u t u	-0.21327287
-1.5530516	i t u	-0.24953105
-1.3816761	s t u	-0.21327287
-1.6702994	e t u	-0.21327287
-0.7381295	c t u	-0.2623225
-0.59782344	d t u	-0.21327287
-0.8215886	l t u	-0.21327287
-0.96160537	n t u	-0.37922436
-1.2369719	m t u	-0.28909436
-0.341278	p t u	-0.21327287
-0.852079	u u u	-0.21327287
-1.849406	s u u	-0.21327287
-1.711898	z u u	-0.21327287
-1.3732018	<s> P u	-0.21327287
-1.1215197	<s> h u	-0.21327287
-0.46207744	B h u	-0.47081828
-0.68926954	S h u	-0.28909436
-0.7781021	b h u	-0.31943718
-1.5154533	a h u	-0.21327287
-0.839209	t h u	-0.5365229
-0.6818326	P h u	-0.30402097
-1.4117677	i h u	-0.21327287
-0.8777903	s h u	-0.38055703
-0.7853002	k h u	-0.5564433
-0.9572427	c h u	-0.26675186
-0.7909491	y h u	-0.21327287
-0.7140783	p h u	-0.5773084
-0.6379392	r h u	-0.37589636
-0.66079515	q h u	-0.43235248
-0.63387173	g h u	-0.4386336
-0.78234833	x h u	-0.47509125
-0.8240349	T h u	-0.21327287
-0.7081616	K h u	-0.300241
-0.7800607	Q h u	-0.21327287
-0.29461575	R h u	-0.5720013
-3.3319826	<s> i u	-0.21327287
-2.0564568	b i u	-0.21327287
-2.0869236	<s> s u	-0.43131933
-1.2080418	a s u	-0.44937283
-1.4875824	t s u	-0.2371056
-1.1185849	u s u	-0.3764053
-0.8732876	h s u	-0.21327287
-1.38796	i s u	-0.3979983
-1.58413	e s u	-0.28983715
-1.5448112	m s u	-0.21327287
-1.1766583	o s u	-0.37096775
-2.6963105	<s> w u	-0.2623225
-0.49126205	a w u	-0.4715972
-0.870433	u w u	-0.25834638
-1.1735945	i w u	-0.26604748
-0.5982421	e w u	-0.32279086
-1.6666725	l w u	-0.21327287
-0.77960443	o w u	-0.2716185
-3.500875	<s> e u	-0.21327287
-1.9950666	l e u	-0.21327287
-1.9512582	n e u	-0.21327287
-1.9999449	m e u	-0.21327287
-0.355837	<s> k u	-1.4426413
-0.575878	A k u	-0.21327287
-0.7854531	O k u	-0.21327287
-0.76279694	a k u	-0.7434636
-0.9347829	N k u	-0.30402097
-0.74489886	u k u	-0.39561135
-0.93660975	i k u	-0.43992695
-1.0912982	e k u	-0.36469176
-0.32898507	k k u	-0.21327287
-0.9681739	n k u	-0.34089231
-0.32898507	y k u	-0.21327287
-0.7563008	o k u	-0.70996475
-0.575878	E k u	-0.21327287
-0.7854531	U k u	-0.21327287
-1.2946726	a c u	-0.24953105
-1.1094283	N c u	-0.21327287
-0.9521529	u c u	-0.30402097
-1.3937011	i c u	-0.2623225
-1.3311678	e c u	-0.21327287
-0.7666774	k c u	-0.28909436
-0.89000326	c c u	-0.21327287
-0.9721832	n c u	-0.37682217
-0.9444281	m c u	-0.3501525
-1.251276	o c u	-0.21327287
-1.0779754	g c u	-0.2371056
-1.3674722	<s> d u	-0.21327287
-0.9423319	a d u	-0.31084815
-1.045927	u d u	-0.2542856
-1.0819274	i d u	-0.40387148
-1.5644175	e d u	-0.21327287
-1.0852739	n d u	-0.2794953
-0.9360199	m d u	-0.3501525
-1.4147135	o d u	-0.21327287
-0.33769083	E d u	-0.21327287
-0.33769083	M d u	-0.21327287
-0.81639934	<s> l u	-0.89845407
-0.8763118	A l u	-0.21327287
-0.3352265	B l u	-0.21327287
-0.9737171	O l u	-0.21327287
-0.9089808	I l u	-0.21327287
-1.112648	b l u	-0.21327287
-0.954444	a l u	-0.40982816
-0.88956344	t l u	-0.24203315
-0.87938565	u l u	-0.5055345
-0.8012055	h l u	-0.45813867
-1.0772041	i l u	-0.40721256
-1.2793401	e l u	-0.3371764
-0.6688554	d l u	-0.57996273
-0.8984684	m l u	-0.47509125
-0.9294101	o l u	-0.47257525
-1.2361844	H l u	-0.21327287
-0.5869593	U l u	-0.21327287
-0.55367357	<s> f u	-0.36931592
-0.62985647	a f u	-0.605051
-0.52264214	u f u	-0.46103138
-0.80163735	i f u	-0.51674455
-0.31846786	w f u	-0.21327287
-0.8296165	e f u	-0.34846157
-0.5396754	m f u	-0.43765518
-0.31846786	r f u	-0.21327287
-0.8039893	o f u	-0.40387148
-0.49982923	M f u	-0.24953105
-2.0135612	a n u	-0.21327287
-1.7729211	u n u	-0.21327287
-2.1758828	i n u	-0.28909436
-1.7032256	e n u	-0.2901347
-1.8048291	m n u	-0.21327287
-0.9306304	M n u	-0.28909436
-2.4078653	<s> m u	-0.21327287
-2.1422305	a m u	-0.21327287
-1.6854962	u m u	-0.2623225
-1.8170478	i m u	-0.21327287
-0.9863575	s m u	-0.21327287
-2.0006423	e m u	-0.21327287
-1.3409206	m m u	-0.21327287
-2.1347811	o m u	-0.21327287
-2.6351898	<s> y u	-0.2623225
-1.6071036	a y u	-0.21327287
-0.7992396	N y u	-0.28909436
-1.1326838	t y u	-0.37096775
-1.2367224	i y u	-0.30402097
-1.2895206	e y u	-0.31168118
-1.0094874	d y u	-0.21327287
-0.9372565	n y u	-0.46807736
-1.1515294	m y u	-0.28909436
-0.3389911	p y u	-0.21327287
-1.778701	i p u	-0.21327287
-1.5084391	e p u	-0.21327287
-0.85005015	m p u	-0.39145717
-0.84172994	M p u	-0.28909436
-0.36988014	b r u	-0.21327287
-1.3183771	t r u	-0.21327287
-1.5625416	u r u	-0.21327287
-1.124055	h r u	-0.21327287
-1.716028	o r u	-0.21327287
-2.985713	<s> z u	-0.21327287
-1.0518594	a z u	-0.52624375
-0.234958	N z u	-0.31168118
-0.9115623	u z u	-0.2542856
-1.074515	i z u	-0.3354295
-1.5608113	e z u	-0.24953105
-0.78515923	n z u	-0.47509125
-0.80610967	m z u	-0.40859118
-1.1986063	o z u	-0.3501525
-2.9175954	<s> o u	-0.21327287
-1.1068858	S o u	-0.28909436
-1.312853	L o u	-0.21327287
-1.3652899	i o u	-0.21327287
-1.5824438	s o u	-0.2623225
-1.7332239	c o u	-0.21327287
-1.6964353	f o u	-0.21327287
-1.6412462	r o u	-0.21327287
-0.827828	T o u	-0.21327287
-1.3469018	M o u	-0.21327287
-0.827828	R o u	-0.21327287
-1.1474776	J o u	-0.21327287
-1.0563321	<s> q u	-0.21327287
-0.5332514	I q u	-0.21327287
-0.9664097	a q u	-0.3000431
-0.73667383	N q u	-0.21327287
-0.5727685	u q u	-0.40387148
-0.8521591	i q u	-0.4068153
-0.7123158	e q u	-0.42165387
-0.60292435	k q u	-0.2623225
-0.3043309	c q u	-0.21327287
-0.8583234	n q u	-0.2794953
-0.6273676	m q u	-0.40859118
-1.0328952	o q u	-0.21327287
-0.7421935	g q u	-0.40859118
-0.56437254	M q u	-0.28909436
-0.6036855	<s> v u	-0.30402097
-0.6024663	a v u	-0.6553995
-0.6220671	u v u	-0.37096775
-0.67074955	i v u	-0.51858723
-0.9161549	e v u	-0.29632604
-0.60265386	m v u	-0.41752616
-0.5266238	o v u	-0.36106566
-0.5554918	U v u	-0.21327287
-1.138608	<s> g u	-0.24203315
-0.74923164	I g u	-0.21327287
-0.9924536	a g u	-0.4023893
-1.1668572	N g u	-0.21327287
-0.9724375	u g u	-0.28267148
-0.98844284	i g u	-0.39653006
-0.86119443	e g u	-0.3534207
-1.0731235	n g u	-0.46238524
-1.3575759	m g u	-0.21327287
-0.7957541	o g u	-0.45243347
-0.60922796	U g u	-0.21327287
-1.1814896	<s> x u	-0.21327287
-0.54530734	N x u	-0.28909436
-1.15846	u x u	-0.28909436
-0.7253597	n x u	-0.52392036
-1.543308	g x u	-0.21327287
-1.5153565	<s> T u	-0.21327287
-1.2752757	e T u	-0.21327287
-0.7384613	<s> F u	-0.24953105
-0.30844066	a F u	-0.21327287
-0.23566273	u F u	-0.2623225
-0.44392627	i F u	-0.2623225
-0.8161139	e F u	-0.21327287
-0.30844066	m F u	-0.21327287
-1.0942796	i Z u	-0.21327287
-1.4229676	e Z u	-0.21327287
-1.4212811	i M u	-0.21327287
-0.3932431	<s> K u	-0.52514887
-0.85597414	u K u	-0.21327287
-1.2669283	e K u	-0.21327287
-1.196564	o K u	-0.21327287
-0.3109195	i Y u	-0.21327287
-0.662174	e Y u	-0.21327287
-0.3109195	m Y u	-0.21327287
-0.87560815	o Y u	-0.21327287
-1.2508234	<s> H u	-0.21327287
-0.96986485	<s> V u	-0.21327287
-0.59345794	i V u	-0.21327287
-0.8578776	<s> X u	-0.21327287
-0.29656142	I Q u	-0.21327287
-0.29656142	a Q u	-0.21327287
-0.6834127	i Q u	-0.28909436
-0.49134117	e Q u	-0.2623225
-0.84843504	o Q u	-0.21327287
-0.7563029	<s> j u	-0.26675186
-1.0732248	a j u	-0.21327287
-1.177287	u j u	-0.21327287
-1.2036433	e j u	-0.21327287
-1.212949	n j u	-0.28909436
-1.1358637	m j u	-0.21327287
-1.2643169	<s> J u	-0.21327287
-1.6726882	S A P	-0.21327287
-0.84792495	A S P	-0.21327287
-2.274361	<s> I P	-0.21327287
-0.93938166	Z I P	-0.21327287
-0.37550145	J I P	-0.21327287
-0.36879313	G D P	-0.21327287
-0.91071326	N D P	-0.21327287
-0.36879313	R D P	-0.21327287
-3.4082248	<s> a P	-0.21327287
-2.0317535	b a P	-0.28909436
-2.3636916	l a P	-0.21327287
-2.3263755	m a P	-0.21327287
-2.205881	g a P	-0.21327287
-3.0549803	<s> u P	-0.3501525
-2.2379467	k u P	-0.28909436
-2.4824784	<s> i P	-0.2623225
-1.4564668	I i P	-0.21327287
-1.9455959	s i P	-0.2901347
-2.0779154	w i P	-0.21327287
-2.3252964	l i P	-0.21327287
-2.2845225	y i P	-0.21327287
-1.740164	z i P	-0.47509125
-2.701271	<s> e P	-0.48777243
-2.2271168	s e P	-0.21327287
-2.1296186	w e P	-0.21327287
-2.1565316	e e P	-0.21327287
-2.1809251	n e P	-0.21327287
-2.1866136	y e P	-0.21327287
-2.0547547	z e P	-0.21327287
-2.3718743	i m P	-0.21327287
-2.8788538	<s> o P	-0.28909436
-2.0737486	b o P	-0.21327287
-2.2839015	l o P	-0.21327287
-2.14691	n o P	-0.21327287
-2.2126503	y o P	-0.21327287
-1.9448329	z o P	-0.28909436
-0.83918357	G C P	-0.21327287
-0.3730741	P W P	-0.21327287
-1.6966165	<s> E P	-0.21327287
-0.2814823	N E P	-0.28909436
-1.9659063	<s> M P	-0.21327287
-0.37469992	B H P	-0.21327287
-0.37536702	I R P	-0.21327287
-1.2045153	<s> B h	-0.21327287
-0.308438	I B h	-0.21327287
-1.0432938	a B h	-0.21327287
-0.8713518	u B h	-0.21327287
-0.43307623	i B h	-0.36931592
-0.54738265	e B h	-0.39591002
-0.59143966	o B h	-0.5720013
-1.9610205	<s> S h	-0.21327287
-1.1605498	a S h	-0.21327287
-1.3947874	i S h	-0.21327287
-1.3677195	e S h	-0.21327287
-0.6650203	o S h	-0.3501525
-1.452046	<s> G h	-0.21327287
-1.8773016	<s> b h	-0.51118886
-0.7104827	I b h	-0.21327287
-0.91023254	a b h	-0.5449179
-0.9109817	u b h	-0.59319055
-0.8455135	i b h	-0.69257516
-0.71231145	e b h	-0.66836095
-0.83954644	m b h	-0.2976539
-0.7986589	o b h	-0.5757543
-0.95005834	M b h	-0.2623225
-0.7104827	U b h	-0.21327287
-1.9141442	<s> a h	-0.87303126
-1.5508205	B a h	-0.21327287
-1.1240441	S a h	-0.2623225
-1.450681	b a h	-0.4289597
-1.0081575	u a h	-0.21327287
-1.6792485	h a h	-0.28909436
-1.5282477	s a h	-0.40387148
-1.6568023	w a h	-0.47081828
-1.5156809	k a h	-0.2901347
-1.7961252	d a h	-0.21327287
-1.146185	l a h	-0.70490146
-1.9061548	n a h	-0.21327287
-1.5556858	m a h	-0.32469022
-1.457503	y a h	-0.47081828
-1.2701254	p a h	-0.24953105
-1.6746937	z a h	-0.2623225
-1.7537168	v a h	-0.21327287
-1.8732655	g a h	-0.21327287
-1.4588199	M a h	-0.28909436
-2.3720517	<s> N h	-0.21327287
-0.4859216	<s> t h	-0.41552594
-0.33497918	A t h	-0.21327287
-0.68092966	a t h	-0.78880244
-0.48215622	u t h	-0.8264396
-0.693333	i t h	-0.9209548
-1.1814743	s t h	-0.28909436
-0.33497918	w t h	-0.21327287
-0.6636383	e t h	-0.67865705
-0.65179515	k t h	-0.28909436
-0.8028254	l t h	-0.21327287
-1.414314	n t h	-0.21327287
-0.6619577	m t h	-0.5262438
-0.9162677	r t h	-0.21327287
-0.5757497	o t h	-0.7724675
-0.15516657	M t h	-0.49425465
-0.7181852	U t h	-0.21327287
-1.9472846	<s> u h	-0.96994126
-1.4476228	B u h	-0.21327287
-1.2373263	L u h	-0.28909436
-1.3104628	b u h	-0.6127112
-1.8324054	h u h	-0.28909436
-1.3751667	w u h	-0.2623225
-1.4383852	k u h	-0.62878346
-1.3141268	l u h	-0.52404815
-1.1376406	K u h	-0.28909436
-0.7949206	<s> P h	-0.5720013
-0.23827557	a P h	-0.2901347
-0.24009952	u P h	-0.28909436
-0.4714564	i P h	-0.38574544
-0.90718436	e P h	-0.21327287
-0.08897146	o P h	-0.4289597
-1.9011469	<s> i h	-0.6353828
-1.2036757	S i h	-0.3501525
-1.0225474	u i h	-0.21327287
-1.944261	h i h	-0.21327287
-1.7045249	i i h	-0.21327287
-1.5160258	s i h	-0.42101225
-1.865174	w i h	-0.21327287
-1.762228	d i h	-0.24953105
-1.5472467	l i h	-0.43689796
-0.9800569	f i h	-0.5720013
-1.914096	n i h	-0.21327287
-1.6094912	m i h	-0.3501525
-1.6016866	y i h	-0.38574544
-1.5621597	z i h	-0.44379902
-1.5422766	M i h	-0.21327287
-2.2976806	<s> s h	-0.4289597
-0.9659224	I s h	-0.21327287
-0.91655374	a s h	-0.5749226
-0.66257334	t s h	-0.714564
-0.9690856	u s h	-0.38650265
-0.95866996	i s h	-0.6230201
-0.8096614	e s h	-0.6263589
-0.8417463	m s h	-0.37096775
-0.8514483	y s h	-0.21327287
-0.8841588	o s h	-0.39342132
-0.34313816	T s h	-0.39898163
-0.8514483	M s h	-0.21327287
-2.9868429	<s> w h	-0.28909436
-1.956657	<s> e h	-0.7428453
-1.3973346	b e h	-0.47081828
-1.9914558	h e h	-0.21327287
-1.3810098	s e h	-0.6511825
-1.7135344	w e h	-0.40387148
-1.7587761	e e h	-0.21327287
-1.8003106	k e h	-0.21327287
-1.759197	d e h	-0.21327287
-1.8402793	l e h	-0.2623225
-1.9429545	n e h	-0.21327287
-1.4070534	m e h	-0.31168118
-1.6592251	y e h	-0.2901347
-1.3639842	z e h	-0.47509125
-1.8613967	g e h	-0.21327287
-0.82305276	V e h	-0.21327287
-1.8526089	<s> k h	-0.6933193
-0.59295934	A k h	-0.21327287
-0.59295934	I k h	-0.21327287
-0.7895633	a k h	-0.8691916
-1.0274882	u k h	-0.5483324
-0.81634104	i k h	-0.7279778
-1.011735	s k h	-0.21327287
-0.91449124	e k h	-0.6260136
-0.5524148	m k h	-0.5462241
-0.89824927	o k h	-0.56999004
-0.5251256	M k h	-0.28909436
-0.81347644	U k h	-0.21327287
-0.7683096	<s> c h	-0.31168118
-0.94715655	S c h	-0.21327287
-0.57102406	I c h	-0.21327287
-0.7114584	a c h	-0.52744967
-0.24797602	t c h	-0.21327287
-0.6628871	u c h	-0.45653856
-0.8932476	i c h	-0.4988199
-0.32622918	s c h	-0.21327287
-0.66130334	e c h	-0.30403787
-0.83403504	c c h	-0.21327287
-0.7595826	m c h	-0.40859118
-0.84789044	r c h	-0.21327287
-0.9322157	o c h	-0.28983715
-0.32622918	x c h	-0.21327287
-0.69733405	E c h	-0.21327287
-2.013211	e d h	-0.21327287
-3.4183	<s> l h	-0.21327287
-0.38434964	T l h	-0.21327287
-2.2754242	a n h	-0.21327287
-2.5583222	i n h	-0.21327287
-2.4826286	e n h	-0.21327287
-1.6959978	<s> m h	-0.6127112
-1.450944	a m h	-0.77612126
-1.5674274	u m h	-0.31168118
-1.6949235	i m h	-0.31168118
-1.593333	e m h	-0.47509125
-1.0513538	m m h	-0.28909436
-1.3321465	o m h	-0.7510139
-1.3488148	U m h	-0.21327287
-2.7453074	<s> y h	-0.2623225
-0.99035317	t y h	-0.35962856
-1.9483024	i y h	-0.21327287
-1.3833791	n y h	-0.2623225
-0.21650113	<s> p h	-0.7320045
-0.849317	A p h	-0.21327287
-0.69841886	I p h	-0.21327287
-0.4202463	a p h	-0.94227046
-0.23065133	u p h	-0.692393
-0.47744116	i p h	-0.83681905
-0.5353657	e p h	-0.63645923
-0.7972222	m p h	-0.5025658
-0.41117656	o p h	-0.7538448
-0.5730076	M p h	-0.3501525
-0.3266904	U p h	-0.21327287
-0.7361009	<s> r h	-0.21327287
-0.61231077	I r h	-0.21327287
-0.74425477	a r h	-0.38625014
-0.8083654	u r h	-0.3646178
-0.4226949	i r h	-0.41353402
-0.8394183	e r h	-0.7096212
-0.62785137	m r h	-0.27283406
-0.61146736	o r h	-0.6433714
-0.3492432	M r h	-0.21327287
-0.3492432	U r h	-0.21327287
-2.1040723	i z h	-0.21327287
-2.117997	<s> o h	-0.77612126
-0.56600565	D o h	-0.28909436
-1.8263664	b o h	-0.21327287
-1.9945189	h o h	-0.21327287
-1.4017797	s o h	-0.31168118
-1.6534559	w o h	-0.21327287
-1.4306799	k o h	-0.47509125
-1.6638865	d o h	-0.21327287
-1.9946951	l o h	-0.21327287
-1.6453834	f o h	-0.21327287
-1.8464736	n o h	-0.21327287
-1.3913344	y o h	-0.5720013
-1.6671157	p o h	-0.21327287
-1.3931915	z o h	-0.4289597
-1.8531674	g o h	-0.21327287
-1.3120384	M o h	-0.21327287
-1.1211894	J o h	-0.21327287
-0.49161652	<s> q h	-0.35139352
-0.7842787	a q h	-0.453559
-0.84124583	u q h	-0.45141327
-0.96608907	i q h	-0.42657533
-0.60156184	s q h	-0.21327287
-0.9146126	e q h	-0.28967202
-0.98415315	o q h	-0.31421885
-0.7386845	U q h	-0.21327287
-1.6371902	<s> v h	-0.21327287
-1.2796365	<s> g h	-0.24953105
-1.0642878	a g h	-0.34846157
-1.2617301	u g h	-0.3085087
-1.0090581	i g h	-0.3247232
-1.5163828	e g h	-0.21327287
-0.89301956	m g h	-0.27283406
-1.2506573	o g h	-0.24953105
-0.7917821	q g h	-0.21327287
-0.9708187	<s> x h	-0.2623225
-0.5810881	a x h	-0.5462241
-0.6820429	u x h	-0.385845
-0.77011406	i x h	-0.40859118
-1.1632072	e x h	-0.24203315
-0.78199583	m x h	-0.2901347
-0.9818083	o x h	-0.37096775
-0.9864546	<s> C h	-0.32469022
-0.7283336	a C h	-0.21327287
-0.71605283	u C h	-0.28909436
-1.0244431	i C h	-0.21327287
-0.8306355	e C h	-0.28909436
-1.2150542	<s> W h	-0.21327287
-0.3587146	k W h	-0.21327287
-0.8404088	<s> T h	-0.21327287
-0.7098191	u T h	-0.27283406
-0.57614756	i T h	-0.21327287
-0.5334933	e T h	-0.24953105
-0.21035075	m T h	-0.3501525
-0.7107825	o T h	-0.21327287
-1.7735934	<s> M h	-0.21327287
-1.3458383	u M h	-0.28909436
-1.7252108	e M h	-0.21327287
-1.4145617	o M h	-0.3501525
-1.5702659	<s> K h	-0.2623225
-0.23053464	a K h	-0.27741805
-0.2963748	u K h	-0.24953105
-0.32314575	i K h	-0.4170993
-0.45313966	e K h	-0.32775348
-0.29940888	m K h	-0.21327287
-0.20911649	o K h	-0.57996273
-0.59234124	u X h	-0.21327287
-0.3382327	i X h	-0.21327287
-0.9174701	<s> Q h	-0.21327287
-0.97727674	u Q h	-0.21327287
-0.74653697	e Q h	-0.21327287
-1.191205	<s> R h	-0.21327287
-0.29624486	a R h	-0.21327287
-0.28231788	u R h	-0.40387148
-0.5131705	e R h	-0.3501525
-0.10411553	o R h	-0.4170993
-0.29624486	U R h	-0.21327287
-2.1418393	<s> U h	-0.28909436
-1.2308241	<s> B i	-0.2623225
-1.2770033	i B i	-0.21327287
-1.5017103	e B i	-0.21327287
-0.24586244	<s> S i	-0.7292134
-1.1466142	I S i	-0.21327287
-0.8231648	a S i	-0.28909436
-0.52872247	u S i	-0.21327287
-1.097493	i S i	-0.2371056
-0.6078127	e S i	-0.43405145
-1.0780096	o S i	-0.21327287
-1.3814253	<s> G i	-0.21327287
-0.8306978	e G i	-0.21327287
-0.75510913	<s> I i	-0.5293391
-0.5079975	<s> D i	-0.2688623
-0.8611939	u D i	-0.21327287
-0.4078185	i D i	-0.2623225
-1.0055348	e D i	-0.21327287
-0.40832537	o D i	-0.28909436
-1.1359942	<s> L i	-0.21327287
-1.0425972	u L i	-0.21327287
-0.74564075	i L i	-0.24953105
-0.36178002	e L i	-0.6127112
-1.2215861	o L i	-0.21327287
-2.2644475	<s> b i	-0.25496703
-0.85493755	a b i	-0.5979027
-0.9229415	u b i	-0.36123663
-0.7235024	i b i	-0.5214516
-1.0015419	e b i	-0.34905759
-0.92572755	m b i	-0.46648514
-1.2177095	o b i	-0.2623225
-0.9827047	M b i	-0.28909436
-2.1101613	b a i	-0.21327287
-1.4528239	N a i	-0.21327287
-1.9470439	l a i	-0.2623225
-1.7564579	f a i	-0.21327287
-1.7896187	n a i	-0.21327287
-2.0963037	m a i	-0.21327287
-1.765852	p a i	-0.21327287
-1.2988957	r a i	-0.2623225
-2.0050945	g a i	-0.21327287
-1.11003	H a i	-0.21327287
-0.83357817	R a i	-0.21327287
-1.8787292	<s> N i	-0.2623225
-1.3193173	u N i	-0.21327287
-1.7111843	i N i	-0.21327287
-0.7918274	a t i	-0.45988724
-1.0379497	u t i	-0.2794953
-0.9000551	i t i	-0.39759463
-0.80618316	s t i	-0.26706895
-0.9114543	e t i	-0.36931592
-0.91702294	k t i	-0.21327287
-0.7241646	c t i	-0.24953105
-0.80061716	l t i	-0.21327287
-0.5851746	f t i	-0.21327287
-1.0914793	n t i	-0.34782913
-1.3868095	m t i	-0.21327287
-0.5851746	y t i	-0.21327287
-0.76486725	r t i	-0.24203315
-0.9030936	o t i	-0.34533665
-0.5851746	x t i	-0.21327287
-0.7163672	U t i	-0.21327287
-1.2842025	G u i	-0.21327287
-1.0493146	a u i	-0.21327287
-2.2952785	k u i	-0.21327287
-1.8913589	q u i	-0.21327287
-1.9413987	v u i	-0.21327287
-1.6461245	<s> P i	-0.21327287
-1.1213857	<s> h i	-0.31168118
-0.51662654	S h i	-0.3501525
-0.8485985	b h i	-0.35271898
-1.3341299	a h i	-0.21327287
-0.8391345	t h i	-0.5051149
-1.2317967	i h i	-0.21327287
-0.64078027	s h i	-0.5142494
-0.32132828	w h i	-0.21327287
-1.164064	e h i	-0.21327287
-0.96088386	k h i	-0.3702046
-0.8073552	c h i	-0.33064783
-0.32132828	d h i	-0.21327287
-0.9987032	y h i	-0.21327287
-0.82757163	p h i	-0.49136657
-0.32132828	z h i	-0.21327287
-0.8189047	q h i	-0.30402097
-1.1526414	g h i	-0.28909436
-1.3304088	x h i	-0.21327287
-0.53863794	C h i	-0.24203315
-0.5624491	W h i	-0.21327287
-0.8239061	T h i	-0.3501525
-1.0813138	<s> i i	-0.77176815
-1.9635465	b i i	-0.21327287
-1.391291	i i i	-0.28909436
-2.2837048	s i i	-0.21327287
-1.4348832	w i i	-0.2537532
-1.5139768	z i i	-0.2781412
-1.6227078	Z i i	-0.21327287
-0.3160026	<s> s i	-1.3985416
-0.75426155	A s i	-0.21327287
-0.8606479	I s i	-0.21327287
-0.67783463	b s i	-0.21327287
-0.77803206	a s i	-0.60458773
-0.7799582	t s i	-0.31496504
-0.7976475	u s i	-0.35568237
-0.75426155	h s i	-0.21327287
-0.7949737	i s i	-0.59572995
-0.8606479	s s i	-0.21327287
-0.76121825	e s i	-0.6610979
-0.62689143	k s i	-0.28909436
-0.8378584	l s i	-0.21327287
-0.83018327	n s i	-0.21327287
-0.7996847	m s i	-0.33125567
-0.9472578	r s i	-0.21327287
-0.6649332	o s i	-0.37359518
-0.9232726	E s i	-0.21327287
-0.77076167	M s i	-0.21327287
-0.5563636	j s i	-0.21327287
-2.636295	<s> w i	-0.28909436
-0.51143	L w i	-0.47509125
-1.4086707	a w i	-0.2623225
-0.97559655	t w i	-0.21327287
-1.0021735	u w i	-0.28909436
-0.94599026	h w i	-0.24953105
-1.0676833	i w i	-0.2623225
-0.80667883	w w i	-0.21327287
-1.1992304	e w i	-0.21327287
-0.7691234	k w i	-0.31592327
-1.2754449	c w i	-0.21327287
-1.1663004	d w i	-0.21327287
-0.55713993	l w i	-0.39965898
-0.92326236	y w i	-0.21327287
-0.7083336	r w i	-0.21327287
-0.7980296	z w i	-0.2623225
-1.0709199	o w i	-0.3501525
-1.0411425	q w i	-0.21327287
-0.78586996	g w i	-0.2623225
-0.6451064	K w i	-0.22153592
-0.6451064	j w i	-0.2623225
-1.3140584	B e i	-0.21327287
-1.0941423	N e i	-0.21327287
-1.816738	t e i	-0.21327287
-1.9967978	h e i	-0.21327287
-1.9928299	s e i	-0.21327287
-1.9589959	e e i	-0.21327287
-1.8046197	k e i	-0.21327287
-1.8400842	c e i	-0.21327287
-2.0177703	l e i	-0.21327287
-1.9496939	n e i	-0.21327287
-1.9562896	y e i	-0.21327287
-1.7473124	r e i	-0.21327287
-1.6639296	g e i	-0.28909436
-1.4450326	j e i	-0.21327287
-3.1162715	<s> k i	-0.21327287
-0.3463953	S k i	-0.21327287
-1.4055296	a k i	-0.34270215
-0.9846766	u k i	-0.42101225
-0.9497244	i k i	-0.485204
-1.0456806	s k i	-0.21327287
-0.8911704	e k i	-0.70232606
-1.1858809	n k i	-0.29798862
-0.93042046	m k i	-0.2623225
-1.4929632	o k i	-0.24953105
-1.2134017	<s> c i	-0.21327287
-0.2988554	S c i	-0.31168118
-0.3943747	G c i	-0.2623225
-0.80380833	a c i	-0.3965572
-1.0182067	N c i	-0.21327287
-1.0405248	u c i	-0.2901347
-0.8434934	i c i	-0.41489986
-0.56211644	w c i	-0.21327287
-1.0056295	e c i	-0.2901347
-0.9379046	k c i	-0.21327287
-0.81785005	c c i	-0.21327287
-0.7876355	n c i	-0.38120747
-0.7515837	m c i	-0.31168118
-0.832348	r c i	-0.21327287
-0.9214346	o c i	-0.31168118
-0.5009934	g c i	-0.5547192
-0.47613865	<s> d i	-0.343289
-0.7495066	a d i	-0.5517457
-0.6393257	N d i	-0.25969562
-0.70528156	u d i	-0.35707593
-0.6750457	i d i	-0.39542925
-0.69237125	e d i	-0.35941112
-0.321688	d d i	-0.21327287
-0.78082776	l d i	-0.21327287
-0.81066287	n d i	-0.600864
-0.6466777	m d i	-0.2310237
-0.9040219	r d i	-0.21327287
-0.847814	o d i	-0.2976539
-0.321688	g d i	-0.21327287
-0.72144115	<s> l i	-0.9355964
-0.8274325	A l i	-0.21327287
-0.29777828	O l i	-0.31168118
-0.8527692	I l i	-0.21327287
-0.5230637	b l i	-0.21327287
-0.8086495	a l i	-0.6364563
-1.0407284	t l i	-0.21327287
-0.84130645	u l i	-0.5134048
-0.99533033	h l i	-0.33544248
-0.7397503	i l i	-0.57601494
-0.8415918	e l i	-0.61346495
-0.29777828	k l i	-0.31168118
-0.8127362	c l i	-0.21327287
-0.8680695	d l i	-0.23361978
-1.1821736	l l i	-0.21327287
-0.68140906	m l i	-0.37682217
