\data\
ngram 1=59
ngram 2=1201
ngram 3=6917
ngram 4=23549
ngram 5=52438

\1-grams:
-2.926517	<unk>	0
0	<s>	-2.5417914
-1.4081626	</s>	0
-1.7007381	A	-0.28518802
-2.0031788	B	-0.38598695
-1.6829529	S	-0.4314132
-2.0031788	G	-0.31015843
-1.8261465	O	-0.31778008
-1.8025664	I	-0.28818282
-1.9358284	D	-0.28960463
-1.9057039	L	-0.39187405
-1.7386546	b	-0.60374177
-1.3990043	a	-0.9436171
-1.9358284	N	-0.35815436
-1.6183084	t	-0.7199598
-1.4175183	u	-0.7900685
-1.8261465	P	-0.34259275
-1.5006471	h	-0.83876354
-1.4081626	i	-0.9049121
-1.5892696	s	-0.6565627
-1.5241776	w	-0.7925698
-1.4175183	e	-0.867207
-1.7192826	k	-0.6073864
-1.649429	c	-0.6687195
-1.7386546	d	-0.5970762
-1.5122529	l	-0.73333097
-1.7007381	f	-0.59478235
-1.6829529	n	-0.66363955
-1.7192826	m	-0.5671216
-1.5892696	y	-0.6511504
-1.7192826	p	-0.6045433
-1.6035464	r	-0.5517464
-1.7589313	z	-0.62129277
-1.3900352	o	-0.87940544
-1.8025664	q	-0.7467436
-1.8261465	v	-0.62982243
-1.7007381	g	-0.67887425
-1.9057039	x	-0.6178454
-1.8261465	C	-0.30464497
-1.9681994	W	-0.2958902
-1.8261465	T	-0.31443912
-1.7589313	E	-0.2896641
-2.0031788	F	-0.29317436
-2.0031788	Z	-0.3583017
-1.9057039	M	-0.34538338
-1.9681994	K	-0.29627964
-2.0829256	Y	-0.23760265
-1.8510807	H	-0.3002241
-2.1806855	V	-0.24135305
-2.1806855	X	-0.25714833
-2.1806855	Q	-0.2754153
-1.8261465	j	-0.62413573
-1.9358284	R	-0.29210263
-2.0031788	U	-0.30228627
-2.3873649	J	-0.2913205
-2.4859896	é	-0.32533857
-2.795696	Ã	-0.3028014
-2.795696	_	-0.3028014
-2.795696	Â	-0.3028014

\2-grams:
-0.89634633	A </s>	0
-1.1625023	B </s>	0
-1.0169168	S </s>	0
-0.77522755	O </s>	0
-1.0310266	I </s>	0
-1.0423372	D </s>	0
-1.5934238	L </s>	0
-1.4893794	b </s>	0
-1.3381927	a </s>	0
-1.5793482	N </s>	0
-1.0820559	t </s>	0
-1.3045954	u </s>	0
-0.90004313	P </s>	0
-1.2442973	h </s>	0
-1.3673118	i </s>	0
-0.93974936	s </s>	0
-1.10144	w </s>	0
-1.3255259	e </s>	0
-1.1184076	k </s>	0
-1.840146	c </s>	0
-1.0525321	d </s>	0
-1.0511518	l </s>	0
-1.5999385	f </s>	0
-1.2920814	n </s>	0
-1.3600146	m </s>	0
-0.8241178	y </s>	0
-1.2049516	p </s>	0
-1.3805906	r </s>	0
-1.0903728	z </s>	0
-1.3592045	o </s>	0
-1.9003849	q </s>	0
-1.5535107	v </s>	0
-1.2501334	g </s>	0
-1.4211664	x </s>	0
-1.0679375	C </s>	0
-1.1101454	T </s>	0
-1.4471078	E </s>	0
-1.3672483	F </s>	0
-1.4630275	Z </s>	0
-1.5926064	M </s>	0
-1.425959	H </s>	0
-1.1058993	V </s>	0
-0.9673271	j </s>	0
-1.2352462	R </s>	0
-0.95551306	U </s>	0
-0.2630549	é </s>	0
-0.28275365	Â </s>	0
-2.5632238	<s> A	-0.6800366
-1.7712122	A A	-0.22375493
-0.9504869	S A	-0.39467177
-1.5466532	G A	-0.22375493
-1.5423137	O A	-0.22375493
-1.7586946	I A	-0.22375493
-1.5524266	D A	-0.3288573
-1.7511911	L A	-0.22375493
-1.8345131	N A	-0.22375493
-2.3156013	u A	-0.29092598
-1.4175819	P A	-0.22375493
-2.4411435	i A	-0.2560431
-2.0232987	w A	-0.22375493
-1.9859215	e A	-0.41203728
-2.111714	m A	-0.22375493
-1.6870103	C A	-0.22375493
-0.8378952	W A	-0.30673894
-1.5145818	T A	-0.37242693
-1.6932713	E A	-0.22375493
-1.6036803	F A	-0.22375493
-1.6947956	M A	-0.37242693
-1.6263998	K A	-0.22375493
-1.4207615	H A	-0.22375493
-1.5610185	R A	-0.22375493
-2.9915261	<s> B	-0.6271026
-1.8109502	A B	-0.3288573
-2.0247154	S B	-0.22375493
-1.9106429	I B	-0.22375493
-1.8638756	L B	-0.22375493
-2.1300058	a B	-0.50585866
-1.8675194	N B	-0.3288573
-2.4109442	u B	-0.28067032
-2.1411445	i B	-0.3859202
-1.8712598	e B	-0.50597256
-1.8967222	o B	-0.58549917
-1.7079303	T B	-0.3288573
-2.3321562	<s> S	-1.0342464
-1.6763861	A S	-0.22375493
-1.6760663	B S	-0.22375493
-1.8711052	S S	-0.22375493
-1.6553503	G S	-0.22375493
-1.431461	O S	-0.29092598
-1.2588513	I S	-0.2973121
-1.6563518	D S	-0.22375493
-2.1477373	a S	-0.3164305
-1.8238165	N S	-0.22375493
-2.1649616	t S	-0.22375493
-2.30364	u S	-0.2731344
-1.5222782	P S	-0.22375493
-1.939751	i S	-0.35131034
-1.8720016	e S	-0.5852096
-1.99474	d S	-0.22375493
-2.0992236	m S	-0.22375493
-1.9857363	p S	-0.22375493
-2.0190158	r S	-0.22375493
-1.9620358	o S	-0.29148176
-1.5088863	T S	-0.29092598
-1.1377003	E S	-0.3057034
-1.762448	M S	-0.22375493
-1.5543531	R S	-0.22375493
-1.5567049	U S	-0.2731344
-3.2792706	<s> G	-0.2989087
-1.9298267	A G	-0.22375493
-1.6787422	I G	-0.22375493
-1.8638756	L G	-0.22375493
-2.6330152	a G	-0.22375493
-1.759518	N G	-0.2731344
-2.2268586	u G	-0.3121938
-2.0613291	i G	-0.32994968
-2.2227278	e G	-0.3007414
-2.5107973	o G	-0.2731344
-1.730799	K G	-0.22375493
-1.7930248	U G	-0.22375493
-2.897385	<s> O	-0.56398284
-1.8377448	S O	-0.22375493
-1.5857638	G O	-0.22375493
-1.7116631	O O	-0.22375493
-1.7196437	D O	-0.22375493
-1.1815163	L O	-0.3297674
-2.6078649	a O	-0.22375493
-2.3952425	u O	-0.22375493
-2.5566838	e O	-0.22375493
-2.5570228	o O	-0.22375493
-1.7427726	C O	-0.22375493
-1.7771025	T O	-0.22375493
-1.8341913	M O	-0.22375493
-1.5419157	K O	-0.22375493
-1.3022451	Y O	-0.22375493
-1.5950783	H O	-0.22375493
-1.5123731	Q O	-0.22375493
-1.603313	R O	-0.22375493
-2.1625738	<s> I	-0.8387895
-1.7333727	A I	-0.3288573
-1.8286246	S I	-0.22375493
-1.7062588	G I	-0.22375493
-1.7143509	I I	-0.2731344
-1.5868729	D I	-0.3288573
-1.8923446	N I	-0.22375493
-2.5697591	i I	-0.22375493
-2.4804134	e I	-0.22375493
-2.052641	d I	-0.22375493
-1.502995	C I	-0.22375493
-1.3764672	W I	-0.29092598
-1.7667341	T I	-0.22375493
-1.3910956	F I	-0.29092598
-1.0989552	Z I	-0.2731344
-1.9142094	M I	-0.22375493
-1.4453065	H I	-0.3288573
-1.4552969	R I	-0.22375493
-1.1949236	J I	-0.22375493
-3.1702006	<s> D	-0.49571294
-1.6860927	A D	-0.2731344
-1.7537763	G D	-0.22375493
-1.7654831	I D	-0.22375493
-2.599009	a D	-0.22375493
-1.8447577	N D	-0.22375493
-2.207523	u D	-0.22375493
-2.2236724	i D	-0.2917599
-2.113143	e D	-0.3007414
-2.5554059	o D	-0.29092598
-1.6494851	C D	-0.22375493
-1.6652333	E D	-0.22375493
-1.9869725	M D	-0.22375493
-1.633986	R D	-0.22375493
-3.0270114	<s> L	-0.57224464
-1.6770846	A L	-0.22375493
-1.6006385	O L	-0.22375493
-1.8673898	I L	-0.22375493
-1.8328474	L L	-0.22375493
-2.2098293	a L	-0.35447124
-2.1981688	u L	-0.30010277
-2.0460494	i L	-0.33022317
-1.9101955	e L	-0.47607768
-2.2440097	m L	-0.22375493
-1.7901	o L	-0.6516036
-1.1639632	E L	-0.30673894
-1.9714118	M L	-0.22375493
-1.338883	H L	-0.29092598
-1.2752464	U L	-0.2627991
-1.3872097	<s> b	-2.2035472
-1.7939429	A b	-0.22375493
-1.6772393	O b	-0.22375493
-1.7806072	I b	-0.22375493
-2.0024407	b b	-0.22375493
-1.3767484	a b	-0.9943176
-2.0979924	t b	-0.22375493
-1.3971997	u b	-0.9043591
-2.2844684	h b	-0.22375493
-1.4269397	i b	-0.9545913
-1.9620739	s b	-0.22375493
-1.4500589	e b	-0.8511759
-1.9903303	k b	-0.22375493
-2.0227263	d b	-0.22375493
-2.2156188	l b	-0.22375493
-2.1180274	n b	-0.22375493
-1.4201002	m b	-0.68797326
-2.0520563	r b	-0.22375493
-1.3707559	o b	-0.92964274
-2.1417205	g b	-0.22375493
-1.4018292	M b	-0.41704276
-1.6934311	U b	-0.22375493
-1.1222292	<s> a	-1.877637
-1.0262812	B a	-0.35554245
-1.4087489	S a	-0.31304753
-1.1564728	G a	-0.22375488
-1.1648693	D a	-0.22375493
-1.0213536	L a	-0.3550388
-0.82133216	b a	-0.65107954
-1.812107	a a	-0.29134277
-1.2670676	N a	-0.28671858
-1.1124103	t a	-0.5661217
-1.7711036	u a	-0.24774323
-1.0002494	P a	-0.27835602
-0.81376487	h a	-0.87309843
-1.6184154	i a	-0.45320457
-1.1090306	s a	-0.6762929
-0.6358166	w a	-0.90345776
-1.6881351	e a	-0.2772803
-1.1608819	k a	-0.57947856
-1.0608832	c a	-0.6277954
-0.92832506	d a	-0.61196345
-0.95599157	l a	-0.7255133
-0.8699136	f a	-0.5643063
-1.2526311	n a	-0.6047579
-1.2042564	m a	-0.605613
-0.8813315	y a	-0.6611777
-0.9425857	p a	-0.45101136
-0.9624612	r a	-0.43768606
-0.891194	z a	-0.5688997
-2.06341	o a	-0.22375493
-0.88412005	q a	-0.6544251
-0.78583086	v a	-0.6312532
-0.98426914	g a	-0.64107007
-0.834976	x a	-0.56210655
-0.8911475	C a	-0.35828957
-1.2656448	W a	-0.2731344
-1.3950558	T a	-0.2627991
-1.276306	F a	-0.22375493
-0.71297336	Z a	-0.3164305
-1.0984335	M a	-0.42594153
-1.2998163	K a	-0.2627991
-1.0891093	Y a	-0.22375493
-1.3190975	H a	-0.29092598
-1.1032602	V a	-0.29092598
-1.194441	X a	-0.22375493
-1.1452912	Q a	-0.3297674
-0.90608716	j a	-0.5637218
-1.4239241	R a	-0.22375493
-0.59393525	J a	-0.3057034
-2.315936	<s> N	-1.028453
-1.787336	A N	-0.22375493
-1.7615219	B N	-0.22375493
-1.4425299	I N	-0.2450115
-2.2165563	a N	-0.26736224
-2.0835252	u N	-0.26949596
-1.8773423	i N	-0.5264765
-1.8640205	e N	-0.6091235
-1.8877448	m N	-0.35447124
-1.8384986	o N	-0.3300278
-1.7843696	C N	-0.22375493
-1.6652333	E N	-0.22375493
-1.6847075	F N	-0.22375493
-1.2786576	U N	-0.30673894
-2.385987	<s> t	-1.026955
-1.7191024	A t	-0.22375493
-1.6642643	S t	-0.3007414
-1.7083112	I t	-0.22375493
-1.8410457	b t	-0.22375493
-1.2983533	a t	-0.85916954
-1.1508186	N t	-0.42392057
-1.5496994	t t	-0.35870665
-1.2410367	u t	-0.8203172
-1.8478417	h t	-0.22375493
-1.3289372	i t	-0.8564957
-1.2083988	s t	-0.50368667
-2.1024349	w t	-0.22375493
-1.4061282	e t	-0.75261205
-1.5430334	k t	-0.28067032
-1.2796801	c t	-0.3300278
-1.6725448	l t	-0.3007414
-1.7733445	f t	-0.22375493
-1.2089547	n t	-0.6571978
-1.4566996	m t	-0.52397877
-1.9970165	y t	-0.22375493
-1.9522666	p t	-0.22375493
-1.523451	r t	-0.29650763
-1.9330786	z t	-0.22375493
-1.3962803	o t	-0.786414
-1.7854073	x t	-0.22375493
-1.2808701	M t	-0.5732612
-1.635214	U t	-0.22375493
-0.28901386	Ã t	-0.22375493
-1.0542811	<s> u	-1.8033617
-1.5778306	A u	-0.22375493
-1.029452	B u	-0.2827511
-1.4156681	S u	-0.2627991
-1.032726	G u	-0.3248871
-1.5137135	O u	-0.22375493
-1.4267803	D u	-0.22375493
-0.87618715	L u	-0.387585
-0.9687245	b u	-0.6361539
-1.9732038	a u	-0.26736224
-1.1141993	t u	-0.47137037
-2.1076047	u u	-0.22375493
-1.5144912	P u	-0.22375493
-0.8761521	h u	-0.8129766
-2.2603154	i u	-0.22375493
-1.2791278	s u	-0.5648059
-1.2593558	w u	-0.5276302
-1.8922318	e u	-0.28136832
-1.0432107	k u	-0.6630378
-1.0254225	c u	-0.5051885
-1.0535653	d u	-0.56634146
-1.0262231	l u	-0.67395025
-0.82915646	f u	-0.58722633
-1.4336613	n u	-0.40905583
-1.466963	m u	-0.5356852
-1.0740626	y u	-0.4069927
-1.2851324	p u	-0.37442523
-1.4693666	r u	-0.2627991
-1.0325509	z u	-0.61592
-1.67322	o u	-0.3649853
-0.8167163	q u	-0.6439163
-0.83444196	v u	-0.6607134
-1.1576657	g u	-0.54148346
-1.0372978	x u	-0.37511957
-1.4773458	T u	-0.22375493
-0.8528913	F u	-0.42644972
-1.3588612	Z u	-0.3288573
-1.6510462	M u	-0.22375493
-1.1173322	K u	-0.2462949
-0.8757634	Y u	-0.33022317
-1.4308163	H u	-0.22375493
-1.1085546	V u	-0.22375493
-1.2007463	X u	-0.22375493
-0.7915796	Q u	-0.43365246
-1.0386426	j u	-0.40784702
-1.1230185	J u	-0.22375493
-3.0512185	<s> P	-0.51668197
-1.8433181	A P	-0.22375493
-1.9470409	S P	-0.22375493
-1.6284432	I P	-0.22375493
-1.4833068	D P	-0.37242693
-2.1902523	a P	-0.452867
-2.3952425	u P	-0.3288573
-2.0312889	i P	-0.4133732
-2.015418	e P	-0.53720915
-2.1952944	m P	-0.22375493
-2.0683331	o P	-0.6734569
-1.9205014	v P	-0.22375493
-1.6186097	C P	-0.22375493
-1.5319792	W P	-0.22375493
-1.6321782	E P	-0.22375493
-1.9278194	M P	-0.22375493
-1.5950783	H P	-0.22375493
-1.603313	R P	-0.22375493
-2.467672	<s> h	-1.1146656
-0.8516921	B h	-0.53720915
-1.3239696	S h	-0.31294438
-1.5620483	G h	-0.22375493
-1.0220225	b h	-0.7042686
-1.4641641	a h	-0.7251597
-1.7044705	N h	-0.22375493
-1.0599687	t h	-0.71374834
-1.4950861	u h	-0.57964486
-0.9119521	P h	-0.49736565
-1.5945803	h h	-0.41752034
-1.5857785	i h	-0.6676477
-1.1194031	s h	-0.8001707
-2.0406225	w h	-0.22375493
-1.5961087	e h	-0.65645605
-1.0883893	k h	-0.7251628
-0.9350115	c h	-0.6583077
-1.7269812	d h	-0.37242693
-1.9270653	l h	-0.29092598
-1.5841808	n h	-0.46784633
-1.4905634	m h	-0.480719
-1.7591141	y h	-0.28136832
-0.9924452	p h	-0.7157876
-1.1587815	r h	-0.581894
-1.8710109	z h	-0.22375493
-1.5475637	o h	-0.6439376
-1.0188347	q h	-0.70482117
-1.3197519	g h	-0.5018628
-1.1154826	x h	-0.60452336
-1.08723	C h	-0.43937373
-1.3007549	W h	-0.22375493
-1.0322944	T h	-0.44917563
-1.4490774	M h	-0.49736565
-0.81236917	K h	-0.5236946
-1.0822834	X h	-0.29092598
-1.1729527	Q h	-0.2731344
-0.8018905	R h	-0.45470613
-1.5702705	U h	-0.22375493
-1.1464868	<s> i	-1.6726551
-1.3586684	B i	-0.2731344
-1.1355413	S i	-0.31808585
-1.4227604	G i	-0.22375493
-1.5639461	I i	-0.22375488
-1.0423372	D i	-0.27791482
-1.1212854	L i	-0.29804245
-1.0646485	b i	-0.52640355
-1.7357371	a i	-0.38318777
-1.5203874	N i	-0.2731344
-0.99989176	t i	-0.5847803
-2.1001568	u i	-0.22375493
-1.5091522	P i	-0.22375493
-0.9285189	h i	-0.6216378
-1.8174136	i i	-0.3541464
-0.98944867	s i	-0.6423358
-0.75654054	w i	-0.52868026
-1.759273	e i	-0.3161446
-1.1621772	k i	-0.5385188
-0.92904407	c i	-0.572342
-0.9664779	d i	-0.5907546
-0.9565958	l i	-0.68109304
-0.82853657	f i	-0.5861493
-1.1283954	n i	-0.55994856
-1.276114	m i	-0.5401988
-0.91403043	y i	-0.6515983
-1.138527	p i	-0.32335776
-0.90756065	r i	-0.444653
-0.85375774	z i	-0.63780683
-1.8751175	o i	-0.28067032
-1.0127876	q i	-0.4956536
-0.7435245	v i	-0.48908427
-1.1164117	g i	-0.5680576
-0.92446023	x i	-0.44389302
-1.3668773	C i	-0.22375493
-1.4721155	T i	-0.22375493
-1.3672483	F i	-0.22375493
-0.79913193	Z i	-0.3311492
-1.2281046	M i	-0.30611733
-1.0916858	Y i	-0.30673894
-1.425959	H i	-0.22375493
-1.2345412	V i	-0.22375493
-1.1975822	X i	-0.22375493
-0.93337864	Q i	-0.4271332
-0.9067798	j i	-0.4757633
-1.2352462	R i	-0.28136832
-1.120571	J i	-0.22375493
-1.2241827	<s> s	-2.1709754
-1.6998916	A s	-0.22375493
-1.5018127	O s	-0.3288573
-1.6117228	I s	-0.2560431
-1.7367129	b s	-0.22375493
-1.3238496	a s	-0.8714228
-1.1627238	t s	-0.6501847
-1.3431188	u s	-0.8288417
-2.1130424	h s	-0.22375493
-1.400043	i s	-1.0012312
-1.6022791	s s	-0.2731344
-2.0879185	w s	-0.22375493
-1.3569758	e s	-0.8238861
-1.5368415	k s	-0.31294438
-1.9358083	c s	-0.22375493
-1.9436584	d s	-0.22375493
-1.6663023	l s	-0.43365246
-1.4668384	n s	-0.51329684
-1.4511269	m s	-0.54273564
-1.7928476	y s	-0.29092598
-1.9364518	p s	-0.22375493
-1.6389285	r s	-0.33936024
-1.9184991	z s	-0.22375493
-1.3939091	o s	-0.78305054
-2.056236	g s	-0.22375493
-1.629885	C s	-0.22375493
-1.4577413	W s	-0.22375493
-1.0457187	T s	-0.4685259
-1.1226726	E s	-0.3859202
-1.7091701	M s	-0.2731344
-1.5193787	U s	-0.3288573
-1.3640879	<s> w	-2.2263312
-1.6972374	S w	-0.3288573
-1.3919507	D w	-0.29092598
-1.0402472	L w	-0.45957708
-1.8912005	b w	-0.22375493
-1.4864608	a w	-0.86977094
-1.3892516	t w	-0.6341192
-1.6286392	u w	-0.5884339
-1.216626	h w	-0.7851784
-1.5426755	i w	-0.86843354
-1.1587425	s w	-0.72788966
-1.8634937	w w	-0.2512809
-1.6000003	e w	-0.7152479
-1.0531888	k w	-0.7168082
-1.1594355	c w	-0.6652031
-1.242873	d w	-0.6486333
-1.1832619	l w	-0.7561919
-1.8391966	f w	-0.22375493
-1.5176653	n w	-0.5388687
-1.9813379	m w	-0.22375493
-1.3460252	y w	-0.54410547
-1.8992646	p w	-0.22375493
-1.7780327	r w	-0.33022317
-1.0419742	z w	-0.71921444
-1.5041429	o w	-0.69747293
-1.02019	q w	-0.7404037
-1.8090068	v w	-0.22375493
-1.3229268	g w	-0.6772696
-0.98599845	x w	-0.70821905
-1.5017325	C w	-0.22375493
-1.6202799	T w	-0.22375493
-1.3966677	Z w	-0.3288573
-1.345928	K w	-0.34699753
-1.2337244	X w	-0.22375493
-1.4124733	Q w	-0.22375493
-1.1344277	j w	-0.45470613
-0.93444496	<s> e	-1.9195787
-1.029452	B e	-0.32560626
-1.0183113	S e	-0.41051847
-1.1703302	D e	-0.2428384
-1.5146616	L e	-0.2731344
-0.9273099	b e	-0.5554201
-2.2182963	a e	-0.22375493
-1.5256732	N e	-0.29092598
-1.1479434	t e	-0.5389996
-1.9006321	u e	-0.30673894
-1.3320397	P e	-0.26736224
-0.9480981	h e	-0.73285395
-1.5064393	i e	-0.4984565
-1.0464659	s e	-0.5510742
-0.6674895	w e	-0.71303135
-1.4722157	e e	-0.55528086
-1.1195822	k e	-0.5542481
-1.0254225	c e	-0.5765208
-0.9673252	d e	-0.54939544
-0.879497	l e	-0.609344
-0.9702003	f e	-0.5269004
-1.2554473	n e	-0.48805785
-1.1467187	m e	-0.55296093
-0.8825619	y e	-0.5227015
-0.8396885	p e	-0.5045172
-0.8360216	r e	-0.4336569
-0.98070264	z e	-0.4420748
-2.0746007	o e	-0.2731344
-0.9663334	q e	-0.608792
-0.83444196	v e	-0.5023059
-1.0805585	g e	-0.5947861
-0.92519337	x e	-0.5621618
-1.3710707	C e	-0.28067032
-1.3853809	W e	-0.22375493
-1.1124104	T e	-0.2512809
-1.2833191	F e	-0.29092598
-1.3588612	Z e	-0.22375493
-1.4138179	M e	-0.30010277
-1.3925606	K e	-0.2731344
-1.3138314	Y e	-0.22375493
-1.2309448	H e	-0.2731344
-0.99507904	V e	-0.22375493
-1.0633613	X e	-0.22375493
-1.1506844	Q e	-0.3057034
-0.854264	j e	-0.45065358
-1.3323108	R e	-0.2450115
-1.0538371	<s> k	-2.4268992
-1.6945633	A k	-0.22375493
-1.8914808	S k	-0.22375493
-1.5484205	O k	-0.22375493
-1.7695127	I k	-0.22375493
-1.2901423	a k	-1.0067829
-1.2463671	N k	-0.44488674
-2.1855938	t k	-0.22375493
-1.2798544	u k	-0.92630476
-1.3630029	i k	-0.95083565
-1.4444113	s k	-0.29148176
-1.3660041	e k	-0.9136591
-1.5498687	c k	-0.3297674
-2.0213294	l k	-0.22375493
-1.427596	n k	-0.63116837
-1.6147106	m k	-0.4108046
-2.048009	y k	-0.22375493
-1.8921316	p k	-0.22375493
-1.8654163	r k	-0.3297674
-1.386225	o k	-0.9304359
-1.7025282	E k	-0.22375493
-1.7817658	M k	-0.3288573
-1.6846212	U k	-0.22375493
-2.7150362	<s> c	-0.82627594
-1.6589392	A c	-0.2627991
-1.3561954	S c	-0.3859202
-1.5283439	G c	-0.29092598
-1.6377243	O c	-0.22375493
-1.7277689	I c	-0.22375493
-1.9593686	b c	-0.22375493
-1.5419247	a c	-0.78036594
-1.2353266	N c	-0.33723927
-2.145265	t c	-0.22375493
-1.5459446	u c	-0.6130841
-1.4045898	i c	-0.78157574
-2.0084052	s c	-0.29092598
-2.1174533	w c	-0.22375493
-1.5672467	e c	-0.57734334
-1.9487215	k c	-0.28067032
-1.963422	c c	-0.22375493
-1.9941258	l c	-0.22375493
-1.476131	n c	-0.65905994
-1.5252619	m c	-0.5174374
-2.0133576	y c	-0.22375493
-1.6569785	r c	-0.2917599
-1.5180799	o c	-0.6076509
-1.8611859	v c	-0.22375493
-1.1366841	g c	-0.72993827
-1.9140537	x c	-0.22375493
-1.6666285	E c	-0.22375493
-2.704757	<s> d	-0.8280588
-1.6187731	A d	-0.22375493
-1.7806072	I d	-0.22375493
-1.4837834	a d	-0.7811378
-1.3508911	N d	-0.39589185
-1.4199986	u d	-0.69221365
-1.4621708	i d	-0.84447443
-2.1460958	s d	-0.22375493
-1.4687257	e d	-0.85394335
-1.9129024	d d	-0.22375493
-2.0284052	l d	-0.29092598
-1.9386351	f d	-0.22375493
-1.3323145	n d	-0.66495126
-1.6187643	m d	-0.5208306
-2.0571218	y d	-0.22375493
-2.012648	p d	-0.22375493
-1.9598215	r d	-0.2512809
-1.9883456	z d	-0.22375493
-1.5753835	o d	-0.8283588
-2.040193	g d	-0.22375493
-1.7119868	E d	-0.22375493
-1.8757657	M d	-0.22375493
-1.2718573	<s> l	-2.286601
-1.5808877	A l	-0.2627991
-1.5987501	B l	-0.22375493
-1.1789727	O l	-0.3859202
-1.6381783	I l	-0.22375493
-1.5655719	D l	-0.22375493
-1.2034941	b l	-0.37736723
-1.2092158	a l	-0.97145975
-1.4532127	t l	-0.3768594
-1.1895357	u l	-0.9997337
-1.5657489	P l	-0.22375493
-1.118758	h l	-0.8425993
-1.3213243	i l	-0.98433083
-1.8643368	s l	-0.29092598
-1.2589852	e l	-0.97116727
-1.3479171	k l	-0.49998367
-1.6394068	c l	-0.2560431
-1.0629771	d l	-0.6810384
-1.554536	l l	-0.35281268
-1.7317597	f l	-0.3288573
-1.9262321	n l	-0.29092598
-1.4936057	m l	-0.53382784
-1.937184	y l	-0.22375493
-1.3010176	p l	-0.3121938
-1.8393751	r l	-0.22375493
-1.8774852	z l	-0.22375493
-1.2318618	o l	-1.011994
-2.007361	g l	-0.22375493
-1.5862694	C l	-0.22375493
-1.6130279	T l	-0.22375493
-1.5880466	E l	-0.22375493
-1.4124024	F l	-0.3288573
-1.6006745	M l	-0.22375493
-1.3418927	K l	-0.22375493
-0.7036426	H l	-0.5089055
-1.8124174	j l	-0.22375493
-1.5770252	U l	-0.22375493
-3.0584671	<s> f	-0.67880404
-1.4193298	A f	-0.4271332
-1.6609994	O f	-0.22375493
-1.7586946	I f	-0.22375493
-1.5462482	a f	-0.8539995
-2.0810566	t f	-0.22375493
-1.6207882	u f	-0.6488408
-2.264741	h f	-0.22375493
-1.5180572	i f	-0.8360179
-2.124325	s f	-0.22375493
-2.141002	w f	-0.22375493
-1.6241113	e f	-0.7255671
-2.0663369	k f	-0.22375493
-2.0038698	d f	-0.22375493
-2.1015668	l f	-0.22375493
-1.6934928	f f	-0.30673894
-2.0979106	n f	-0.29092598
-1.4709523	m f	-0.65873367
-1.9945228	p f	-0.22375493
-2.0297523	r f	-0.22375493
-1.478815	o f	-0.6728601
-2.121217	g f	-0.22375493
-1.7719994	M f	-0.3288573
-1.6759864	U f	-0.22375493
-0.8600017	<s> n	-2.3231187
-1.6763861	A n	-0.2731344
-1.6531016	O n	-0.22375493
-1.5762922	I n	-0.2450115
-1.8667737	b n	-0.22375493
-1.2283815	a n	-1.0253842
-2.07283	t n	-0.22375493
-1.2297674	u n	-0.856645
-2.1558893	h n	-0.22375493
-1.2695231	i n	-1.0326585
-2.1138358	s n	-0.22375493
-2.0171905	w n	-0.22375493
-1.2946407	e n	-1.0028386
-2.0560555	k n	-0.22375493
-2.0075147	l n	-0.22375493
-1.7205738	n n	-0.3057034
-1.4124354	m n	-0.5383201
-1.8240061	y n	-0.22375493
-1.8507744	r n	-0.32994968
-1.963794	z n	-0.22375493
-1.241743	o n	-0.94353414
-2.0159545	g n	-0.22375493
-1.6842074	E n	-0.22375493
-1.513285	M n	-0.30622086
-1.5567049	U n	-0.24774323
-1.8215464	<s> m	-1.2312864
-1.7824289	A m	-0.22375493
-1.8914808	S m	-0.22375493
-1.6690434	O m	-0.22375493
-1.7695127	I m	-0.22375488
-1.2773793	a m	-0.88789564
-2.089442	t m	-0.3288573
-1.2024262	u m	-0.7070505
-1.3932388	i m	-0.78415793
-2.0422065	s m	-0.22375493
-2.1491442	w m	-0.22375493
-1.4308356	e m	-0.7468373
-2.0977614	c m	-0.22375493
-2.0304735	n m	-0.29092598
-1.7070551	m m	-0.42956647
-2.048009	y m	-0.22375493
-2.003491	p m	-0.22375493
-1.950665	r m	-0.2560431
-1.9800066	z m	-0.22375493
-1.2815508	o m	-0.86133385
-1.7025282	E m	-0.22375493
-1.7029562	M m	-0.30673894
-1.6846212	U m	-0.22375493
-1.3495691	<s> y	-2.308562
-1.6998916	A y	-0.22375493
-1.8151541	S y	-0.22375493
-1.689688	I y	-0.22375493
-1.6085942	D y	-0.22375493
-1.368014	a y	-0.9663517
-1.2245601	N y	-0.45470613
-1.2881153	t y	-0.615465
-1.4542495	u y	-0.80201524
-1.8405188	h y	-0.4271332
-1.400043	i y	-0.93497294
-1.9770455	s y	-0.22375493
-2.0879185	w y	-0.22375493
-1.5600566	e y	-0.794383
-1.5368415	k y	-0.59427565
-1.9358083	c y	-0.3288573
-1.8502944	d y	-0.2731344
-1.4227537	l y	-0.39169902
-1.2771722	n y	-0.6729977
-1.5835749	m y	-0.48447022
-1.981268	y y	-0.22375493
-1.9364518	p y	-0.22375493
-1.8095961	r y	-0.37242693
-1.8132389	z y	-0.22375493
-1.6130912	o y	-0.7210595
-2.056236	g y	-0.22375493
-1.629885	C y	-0.22375493
-1.476198	T y	-0.29092598
-1.633471	E y	-0.22375493
-1.7091701	M y	-0.3288573
-1.6199198	U y	-0.22375493
-2.3088353	<s> p	-1.3645061
-1.611047	A p	-0.2627991
-1.7030332	S p	-0.2731344
-1.6690434	O p	-0.22375493
-1.7695127	I p	-0.22375493
-1.3918381	a p	-0.69222844
-2.1855938	t p	-0.22375493
-1.46781	u p	-0.66367394
-1.5195436	i p	-0.650264
-1.9548274	s p	-0.2627991
-1.5284234	e p	-0.707578
-2.076867	k p	-0.22375493
-2.0977614	c p	-0.22375493
-1.4738598	m p	-0.63216585
-2.048009	y p	-0.22375493
-1.7911297	p p	-0.3288573
-1.8654163	r p	-0.2731344
-1.480255	o p	-0.6908958
-2.1313477	g p	-0.22375493
-1.943649	x p	-0.22375493
-1.5941108	E p	-0.22375493
-1.2999864	M p	-0.32953972
-1.6846212	U p	-0.22375493
-3.5125797	<s> r	-0.4271332
-1.7093908	A r	-0.22375493
-1.5254042	B r	-0.2731344
-1.5107754	G r	-0.22375493
-1.6156332	O r	-0.22375493
-1.6988997	I r	-0.22375493
-1.834845	b r	-0.22375493
-1.454527	a r	-0.48672143
-1.3410028	t r	-0.3854021
-1.3856473	u r	-0.41708192
-1.4957584	P r	-0.2627991
-1.8441648	h r	-0.30010277
-1.5998788	i r	-0.5192074
-2.0648828	s r	-0.22375493
-1.4048792	e r	-0.63657194
-1.6666347	k r	-0.2627991
-1.5310307	c r	-0.30673894
-1.7678616	d r	-0.33022317
-1.2032884	f r	-0.3859202
-1.983233	m r	-0.3288573
-1.1600748	p r	-0.5027128
-1.891465	r r	-0.22375493
-1.3461792	o r	-0.4742117
-1.9981787	q r	-0.22375493
-1.4007907	g r	-0.3813757
-1.4630225	W r	-0.22375493
-1.5709344	T r	-0.3288573
-1.5614511	F r	-0.22375493
-1.7873083	M r	-0.22375493
-1.6274996	U r	-0.22375493
-1.3676734	<s> z	-2.3057058
-1.8057704	A z	-0.22375493
-1.6855929	O z	-0.22375493
-1.7919925	I z	-0.22375493
-1.3621656	a z	-0.9497986
-1.4888242	N z	-0.4271332
-2.1067147	t z	-0.22375493
-1.3175846	u z	-0.91411406
-1.5019418	i z	-0.94607073
-2.1574047	s z	-0.22375493
-1.5317512	e z	-0.94493985
-1.4904537	n z	-0.54643863
-1.6228563	m z	-0.44488674
-2.063653	r z	-0.22375493
-1.996848	z z	-0.22375493
-1.551698	o z	-0.786414
-1.8998163	v z	-0.22375493
-2.1523468	g z	-0.22375493
-1.7216561	E z	-0.22375493
-1.3065501	M z	-0.55859125
-1.7024235	U z	-0.22375493
-1.2946321	<s> o	-1.6670074
-1.0247046	B o	-0.29148176
-1.1318973	S o	-0.3479013
-0.9289507	G o	-0.35870665
-1.4970058	O o	-0.22375493
-1.5505092	I o	-0.22375493
-1.3361871	D o	-0.2731344
-1.117424	L o	-0.27835602
-0.9662179	b o	-0.532993
-2.2338948	a o	-0.22375493
-1.5674764	N o	-0.22375488
-1.0513523	t o	-0.50312257
-1.1307383	P o	-0.4271332
-0.946705	h o	-0.74769014
-1.7363933	i o	-0.32610488
-1.1440533	s o	-0.5151335
-1.1976479	w o	-0.4141036
-1.9926567	e o	-0.2627991
-1.0068043	k o	-0.57265663
-0.95721275	c o	-0.53382784
-1.0504729	d o	-0.5556768
-0.89607793	l o	-0.6603933
-0.8692328	f o	-0.46007884
-1.289018	n o	-0.49988607
-1.4039513	m o	-0.45858282
-1.0258344	y o	-0.5892559
-0.9828352	p o	-0.5023121
-0.96153116	r o	-0.32573658
-0.9782279	z o	-0.529063
-1.5535959	o o	-0.5060985
-0.9221996	q o	-0.58686835
-0.9465634	v o	-0.42318046
-0.9835392	g o	-0.5729742
-0.9751615	x o	-0.5732612
-1.35861	C o	-0.27835602
-0.94962084	W o	-0.3057034
-1.5343126	T o	-0.22375493
-0.95009816	F o	-0.2917599
-1.2511307	Z o	-0.2627991
-1.2226187	M o	-0.2973121
-1.1102062	K o	-0.3248871
-1.188454	Y o	-0.22375493
-1.4164042	H o	-0.22375493
-1.2274792	V o	-0.22375493
-1.0564727	X o	-0.22375493
-1.2425385	Q o	-0.3288573
-0.8524251	j o	-0.4625943
-1.3205703	R o	-0.22375493
-0.9671415	J o	-0.22375488
-2.8151789	<s> q	-0.74629533
-1.8304381	A q	-0.22375493
-1.2371331	G q	-0.2627991
-1.8156997	I q	-0.22375493
-1.6313939	a q	-0.76679313
-1.4987069	N q	-0.2731344
-1.4747524	u q	-0.72958964
-1.6472762	i q	-0.79206187
-2.1809459	s q	-0.22375493
-1.7277062	e q	-0.75703394
-2.0173542	k q	-0.29092598
-2.1384554	c q	-0.22375493
-1.4953349	n q	-0.5895911
-1.6311576	m q	-0.48299527
-1.6684912	o q	-0.6173693
-1.2358986	g q	-0.71221554
-1.7372248	M q	-0.35447124
-1.9266111	j q	-0.22375493
-1.7209868	U q	-0.22375493
-2.84137	<s> v	-0.8563354
-1.828057	I v	-0.22375493
-2.0402653	b v	-0.22375493
-1.6055236	a v	-0.86843354
-1.6760151	u v	-0.6434937
-2.211886	h v	-0.22375493
-1.467421	i v	-0.9287294
-1.665717	e v	-0.79839563
-1.9439151	d v	-0.3288573
-1.7504357	n v	-0.2560431
-1.4886968	m v	-0.6101297
-2.0956142	y v	-0.22375493
-2.1004257	r v	-0.22375493
-1.5826261	o v	-0.7343896
-1.7520264	E v	-0.22375493
-1.7462318	M v	-0.29092598
-1.9339287	j v	-0.22375493
-1.7305748	U v	-0.22375493
-2.3296747	<s> g	-1.0958691
-1.603456	A g	-0.33022317
-1.7586946	I g	-0.22375493
-1.984696	b g	-0.22375493
-1.5462482	a g	-0.8345316
-1.2435806	N g	-0.48748916
-1.5851268	u g	-0.64756167
-1.4976734	i g	-0.77005273
-1.5241356	s g	-0.2917599
-2.141002	w g	-0.22375493
-1.6241113	e g	-0.7199402
-1.6922431	k g	-0.3288573
-2.088157	c g	-0.22375493
-2.0038698	d g	-0.22375493
-2.1941996	l g	-0.22375493
-1.2153479	n g	-0.6718584
-1.5352268	m g	-0.53372604
-1.5407304	r g	-0.30673894
-1.5985376	o g	-0.63861954
-1.219438	q g	-0.3007414
-1.4957324	g g	-0.48043638
-1.936059	x g	-0.22375493
-1.5186409	M g	-0.4271332
-1.6759864	U g	-0.22375493
-3.1329563	<s> x	-0.5174374
-1.7438477	G x	-0.22375493
-1.8673898	I x	-0.22375493
-1.6384999	a x	-0.68224764
-1.7330083	N x	-0.2731344
-1.9036541	u x	-0.44456294
-1.7510388	i x	-0.6335143
-1.7042166	e x	-0.51812863
-2.056219	k x	-0.3288573
-1.3916075	n x	-0.70683277
-1.6482521	m x	-0.5063144
-1.7118767	o x	-0.5937932
-1.3577449	g x	-0.611309
-1.6567307	E x	-0.29092598
-1.7606783	U x	-0.22375493
-2.8875327	<s> C	-0.6269856
-1.8433181	A C	-0.22375493
-1.5857638	G C	-0.29092598
-1.7116631	O C	-0.22375493
-1.828057	I C	-0.22375493
-1.7196437	D C	-0.22375493
-2.6078649	a C	-0.22375493
-2.3952425	u C	-0.28067032
-1.6991451	P C	-0.22375493
-2.1052876	i C	-0.3007414
-2.015418	e C	-0.42114693
-2.5570228	o C	-0.22375493
-1.6186097	C C	-0.22375493
-1.7771025	T C	-0.22375493
-1.6504624	F C	-0.22375493
-1.6754699	K C	-0.22375493
-1.3524196	V C	-0.22375493
-1.603313	R C	-0.22375493
-3.5292897	<s> W	-0.34761354
-1.9141585	A W	-0.22375493
-2.0107663	S W	-0.22375493
-1.6321746	D W	-0.22375493
-1.5902555	L W	-0.29092598
-2.7005424	a W	-0.22375493
-1.9737494	N W	-0.22375493
-1.7423139	P W	-0.22375493
-2.506425	e W	-0.29092598
-2.199171	k W	-0.22375493
-2.2798142	m W	-0.22375493
-1.6570497	Z W	-0.22375493
-1.5749732	K W	-0.22375493
-3.1120927	<s> T	-0.35884738
-1.7436422	A T	-0.22375493
-1.7382138	S T	-0.22375493
-1.7116631	O T	-0.22375493
-1.6284432	I T	-0.22375493
-1.7196437	D T	-0.22375493
-1.8038889	L T	-0.22375493
-2.5380738	a T	-0.22375493
-1.904896	N T	-0.22375493
-2.1712573	u T	-0.31294438
-2.1945376	i T	-0.3007414
-2.015418	e T	-0.34761354
-2.0361745	m T	-0.37242693
-2.4917164	o T	-0.22375493
-1.5319792	W T	-0.22375493
-1.5252491	E T	-0.2731344
-1.5950783	H T	-0.22375493
-1.603313	R T	-0.22375493
-2.9588656	<s> E	-0.4143332
-1.7167654	S E	-0.2560431
-1.5657684	G E	-0.3288573
-1.6913823	D E	-0.22375493
-1.6550281	L E	-0.22375493
-2.5604737	a E	-0.22375493
-1.7733493	N E	-0.3288573
-2.4141285	u E	-0.22375493
-2.4801326	i E	-0.29092598
-2.5082302	o E	-0.22375493
-1.7139971	C E	-0.22375493
-1.3678467	W E	-0.22375493
-1.7467117	T E	-0.22375493
-1.6089399	E E	-0.22375493
-1.6264417	F E	-0.22375493
-1.6030022	Z E	-0.22375493
-1.6502421	K E	-0.22375493
-1.1646792	Y E	-0.2560431
-1.3386312	V E	-0.22375493
-1.2884222	X E	-0.22375493
-1.581651	R E	-0.22375493
-3.2337294	<s> F	-0.4333315
-1.4828539	A F	-0.2627991
-1.6787422	I F	-0.22375493
-1.782365	D F	-0.22375493
-2.7217119	a F	-0.22375493
-2.4928432	u F	-0.3288573
-2.3655386	i F	-0.2917599
-2.3472383	e F	-0.22375493
-2.298888	m F	-0.22375493
-2.5911343	o F	-0.22375493
-1.9068019	M F	-0.3288573
-1.6501752	R F	-0.22375493
-3.2126327	<s> Z	-0.6652031
-1.8109502	A Z	-0.22375493
-1.6787422	I Z	-0.22375493
-2.6330152	a Z	-0.2731344
-1.988934	N Z	-0.22375493
-2.4928432	u Z	-0.29092598
-2.2390072	i Z	-0.31294438
-1.9223408	e Z	-0.56689745
-2.298888	m Z	-0.22375493
-2.5911343	o Z	-0.22375493
-1.819993	E Z	-0.22375493
-1.7930248	U Z	-0.22375493
-2.8435378	<s> M	-0.61971325
-1.7759936	A M	-0.22375493
-1.7438477	G M	-0.22375493
-1.7393988	O M	-0.22375493
-1.7547637	I M	-0.2627991
-1.8596922	a M	-0.48336726
-2.367841	u M	-0.34337014
-2.0460494	i M	-0.3063935
-1.8604455	e M	-0.5632071
-2.2440097	m M	-0.22375493
-1.7492296	o M	-0.54858506
-1.7846816	E M	-0.22375493
-1.6758897	F M	-0.22375493
-1.3666602	V M	-0.22375493
-1.6270717	U M	-0.22375493
-2.4426851	<s> K	-1.0922068
-1.7589251	O K	-0.22375493
-1.8957413	I K	-0.22375493
-2.223389	a K	-0.452867
-1.8559895	N K	-0.22375493
-2.396096	u K	-0.33022317
-1.7423139	P K	-0.22375493
-2.134959	i K	-0.54410547
-2.041628	e K	-0.45470613
-2.2798142	m K	-0.22375493
-1.8929752	o K	-0.55161613
-1.5575217	E K	-0.29092598
-1.6426246	U K	-0.22375493
-3.259664	<s> Y	-0.47979593
-1.9629685	A Y	-0.22375493
-2.767423	a Y	-0.22375493
-2.6255348	u Y	-0.22375493
-2.7544305	i Y	-0.22375493
-2.6400208	e Y	-0.22375493
-2.3397489	m Y	-0.22375493
-2.2171836	o Y	-0.4271332
-1.7262058	T Y	-0.22375493
-1.8452371	E Y	-0.22375493
-3.5154583	<s> H	-0.29804245
-1.8565918	A H	-0.22375493
-1.7364997	B H	-0.22375493
-1.9590598	S H	-0.22375493
-1.7246467	G H	-0.22375493
-1.5869837	O H	-0.3288573
-2.6248853	a H	-0.22375493
-2.3413126	u H	-0.33022317
-1.7074424	P H	-0.22375493
-2.4723265	i H	-0.37242693
-2.020535	e H	-0.51085895
-2.1653125	o H	-0.59427565
-1.7877245	T H	-0.22375493
-1.6842157	K H	-0.22375493
-1.4612266	Y H	-0.22375493
-1.3042517	X H	-0.22375493
-1.6120566	U H	-0.29092598
-3.7762234	<s> V	-0.2512809
-1.8360319	I V	-0.3288573
-2.8185172	a V	-0.22375493
-2.6781073	u V	-0.22375493
-2.7070959	i V	-0.22375493
-2.3848574	m V	-0.22375493
-1.9975713	v V	-0.22375493
-1.6844848	R V	-0.22375493
-4.0956674	<s> X	-0.22375493
-1.818646	G X	-0.22375493
-1.9759573	I X	-0.22375493
-2.8185172	a X	-0.22375493
-2.6781073	u X	-0.22375493
-2.8088448	i X	-0.22375493
-2.6851497	e X	-0.3288573
-2.5775788	o X	-0.37242693
-3.961424	<s> Q	-0.2627991
-1.9988499	A Q	-0.22375493
-1.9759573	I Q	-0.22375493
-2.8185172	a Q	-0.22375493
-2.476002	u Q	-0.29092598
-2.409463	i Q	-0.32953972
-2.3932798	e Q	-0.34699753
-2.372125	o Q	-0.3121938
-2.7265863	<s> j	-0.9495328
-1.6626743	a j	-0.68847686
-1.3653538	N j	-0.3297674
-2.2419193	t j	-0.22375493
-1.8897866	u j	-0.5208306
-2.211886	h j	-0.3288573
-1.6219267	i j	-0.69747293
-2.193213	s j	-0.22375493
-2.192315	w j	-0.22375493
-1.6968261	e j	-0.6085161
-2.0630887	d j	-0.22375493
-2.1554286	l j	-0.3288573
-1.4977962	n j	-0.5658184
-1.8584888	m j	-0.32994968
-1.5469975	z j	-0.49736565
-1.7412643	o j	-0.47508928
-2.1858816	g j	-0.22375493
-1.7305748	U j	-0.22375493
-3.0856204	<s> R	-0.5238506
-1.787336	A R	-0.22375493
-1.7490522	O R	-0.22375493
-1.8813343	I R	-0.22375493
-1.7604358	D R	-0.22375493
-1.7040958	L R	-0.3288573
-2.6803572	a R	-0.22375493
-2.207523	u R	-0.3859202
-2.5875745	i R	-0.29092598
-2.113143	e R	-0.43937373
-2.186789	o R	-0.59427565
-1.6652333	E R	-0.22375493
-1.7711949	U R	-0.22375493
-0.2943006	_ R	-0.22375493
-2.1545308	<s> U	-0.95740706
-1.8109502	A U	-0.3288573
-1.7191974	L U	-0.22375493
-2.7060812	i U	-0.22375493
-2.6783867	e U	-0.22375493
-1.665787	C U	-0.22375493
-1.5710517	W U	-0.22375493
-1.8451201	T U	-0.22375493
-1.5514184	F U	-0.3288573
-1.9068019	M U	-0.22375493
-1.5818979	K U	-0.22375493
-1.4821812	H U	-0.22375493
-3.475485	<s> J	-0.5115948
-2.9085734	a J	-0.22375493
-2.9058752	i J	-0.22375493
-2.7630763	e J	-0.3288573
-2.8715048	o J	-0.22375493
-2.3495927	k é	-0.22375493
-2.4792273	l é	-0.22375493
-2.5150585	n é	-0.22375493
-2.2659094	y é	-0.22375493
-1.9402357	C Ã	-0.22375493
-1.8949358	G _	-0.22375493
-4.7170076	<s> Â	-0.22375493

\3-grams:
-1.5113657	<s> A </s>	0
-0.5087617	S A </s>	0
-0.557279	G A </s>	0
-0.557279	O A </s>	0
-0.3201473	I A </s>	0
-0.22872798	D A </s>	0
-0.38920397	W A </s>	0
-0.20089895	T A </s>	0
-0.3201473	F A </s>	0
-0.557279	R A </s>	0
-1.5619806	<s> B </s>	0
-0.3528926	L B </s>	0
-0.24926735	N B </s>	0
-0.24926735	T B </s>	0
-0.7174587	A S </s>	0
-0.58708787	B S </s>	0
-1.0858917	I S </s>	0
-0.33716404	D S </s>	0
-0.58708787	P S </s>	0
-0.39443263	T S </s>	0
-0.8924486	E S </s>	0
-0.58708787	M S </s>	0
-0.33716404	R S </s>	0
-0.52064294	S O </s>	0
-0.29855093	D O </s>	0
-0.43601695	L O </s>	0
-0.29855093	T O </s>	0
-0.52064294	M O </s>	0
-0.62996125	K O </s>	0
-0.52064294	Y O </s>	0
-0.29855093	Q O </s>	0
-1.8183224	<s> I </s>	0
-0.80610955	S I </s>	0
-0.5014729	I I </s>	0
-0.24056196	D I </s>	0
-0.33890122	N I </s>	0
-0.80610955	C I </s>	0
-0.59018135	M I </s>	0
-1.3396446	<s> D </s>	0
-0.503235	A D </s>	0
-0.59260494	I D </s>	0
-0.59260494	C D </s>	0
-0.59260494	E D </s>	0
-0.37896717	L L </s>	0
-1.2889304	a b </s>	0
-1.7573904	u b </s>	0
-1.5410044	m b </s>	0
-1.6422023	o b </s>	0
-3.1171746	<s> a </s>	0
-1.2451279	L a </s>	0
-1.2541023	b a </s>	0
-0.776201	a a </s>	0
-1.0032979	t a </s>	0
-0.7994128	u a </s>	0
-1.0969905	h a </s>	0
-0.49220267	i a </s>	0
-1.2412094	s a </s>	0
-1.0324019	w a </s>	0
-0.85573965	e a </s>	0
-1.2233039	k a </s>	0
-1.0386636	c a </s>	0
-0.9721773	d a </s>	0
-1.1281477	l a </s>	0
-0.87996036	f a </s>	0
-1.0810695	n a </s>	0
-1.3025942	m a </s>	0
-1.0858194	y a </s>	0
-1.2820367	p a </s>	0
-0.8792406	r a </s>	0
-1.0639251	z a </s>	0
-0.89253235	o a </s>	0
-0.95653087	q a </s>	0
-0.8858911	v a </s>	0
-1.115739	g a </s>	0
-0.7196706	x a </s>	0
-0.3664843	X a </s>	0
-1.0674247	j a </s>	0
-0.3784459	B N </s>	0
-1.029074	U N </s>	0
-0.7359811	b t </s>	0
-1.4686537	a t </s>	0
-0.8235917	h t </s>	0
-1.6794654	i t </s>	0
-0.9207999	s t </s>	0
-1.5712078	e t </s>	0
-0.99612314	k t </s>	0
-0.94089085	c t </s>	0
-0.58948696	l t </s>	0
-0.60073054	f t </s>	0
-1.1721596	n t </s>	0
-0.92927206	r t </s>	0
-0.3447844	z t </s>	0
-1.4576343	o t </s>	0
-0.7359811	x t </s>	0
-3.0397344	<s> u </s>	0
-1.2327962	b u </s>	0
-0.83922684	a u </s>	0
-0.7427211	t u </s>	0
-0.7855969	u u </s>	0
-1.1963797	h u </s>	0
-1.1441857	s u </s>	0
-1.3152713	w u </s>	0
-1.3715422	k u </s>	0
-1.1027931	c u </s>	0
-1.0627495	d u </s>	0
-1.1327016	l u </s>	0
-1.0073932	f u </s>	0
-0.66652495	n u </s>	0
-1.059612	m u </s>	0
-1.0908726	y u </s>	0
-1.0828478	p u </s>	0
-1.2019432	z u </s>	0
-1.0517976	q u </s>	0
-0.97995687	v u </s>	0
-1.2239566	g u </s>	0
-1.4155304	x u </s>	0
-1.2311782	j u </s>	0
-0.32073116	S P </s>	0
-0.2012139	D P </s>	0
-0.55828744	C P </s>	0
-0.32073116	W P </s>	0
-0.32073116	H P </s>	0
-0.32073116	R P </s>	0
-1.6856959	b h </s>	0
-1.758477	a h </s>	0
-1.0483145	t h </s>	0
-1.5593905	u h </s>	0
-1.681639	i h </s>	0
-1.422317	s h </s>	0
-1.1613458	k h </s>	0
-1.3004572	c h </s>	0
-0.9009794	n h </s>	0
-1.1763711	p h </s>	0
-1.2420238	g h </s>	0
-0.62828475	W h </s>	0
-2.968127	<s> i </s>	0
-1.264401	I i </s>	0
-1.0132322	b i </s>	0
-1.3506243	a i </s>	0
-0.9247748	t i </s>	0
-1.0836706	h i </s>	0
-1.0358495	i i </s>	0
-1.2633154	s i </s>	0
-0.96118456	w i </s>	0
-0.96164703	e i </s>	0
-0.8845699	k i </s>	0
-1.3111155	c i </s>	0
-1.15074	d i </s>	0
-1.1986767	l i </s>	0
-1.1289687	f i </s>	0
-1.1419945	n i </s>	0
-1.1131717	m i </s>	0
-1.2642158	y i </s>	0
-0.90209866	p i </s>	0
-0.9641579	r i </s>	0
-1.210954	z i </s>	0
-1.2530433	q i </s>	0
-1.1909379	v i </s>	0
-1.226535	g i </s>	0
-0.919572	x i </s>	0
-1.4280981	M i </s>	0
-0.8709843	j i </s>	0
-1.0970534	R i </s>	0
-0.77138394	A s </s>	0
-0.23291221	O s </s>	0
-1.3148658	a s </s>	0
-1.0570298	t s </s>	0
-1.5159639	u s </s>	0
-1.2124702	i s </s>	0
-0.71217686	s s </s>	0
-1.0183703	e s </s>	0
-0.5190495	k s </s>	0
-0.5687312	c s </s>	0
-0.3267442	d s </s>	0
-0.30373922	l s </s>	0
-1.0797907	n s </s>	0
-1.3419285	m s </s>	0
-0.4050414	r s </s>	0
-1.4034429	o s </s>	0
-0.3267442	g s </s>	0
-0.3267442	C s </s>	0
-0.3267442	W s </s>	0
-1.408899	a w </s>	0
-1.458385	u w </s>	0
-1.3044646	h w </s>	0
-1.509774	s w </s>	0
-1.385572	e w </s>	0
-1.5499853	k w </s>	0
-1.1844894	c w </s>	0
-1.5773866	l w </s>	0
-1.3033445	n w </s>	0
-1.6013781	o w </s>	0
-1.4458985	g w </s>	0
-3.174332	<s> e </s>	0
-1.172116	D e </s>	0
-0.9001351	L e </s>	0
-1.2126583	b e </s>	0
-0.8897893	a e </s>	0
-0.82994866	t e </s>	0
-0.43321034	u e </s>	0
-1.05451	h e </s>	0
-0.60352015	i e </s>	0
-1.2018969	s e </s>	0
-0.9579718	w e </s>	0
-1.0600542	e e </s>	0
-0.9080491	k e </s>	0
-0.9535898	c e </s>	0
-0.8931787	d e </s>	0
-1.0078936	l e </s>	0
-0.7910813	f e </s>	0
-1.1404253	n e </s>	0
-1.1494781	m e </s>	0
-1.0312321	y e </s>	0
-1.0264295	p e </s>	0
-0.91199183	r e </s>	0
-1.1042384	z e </s>	0
-0.5365359	o e </s>	0
-1.2610803	q e </s>	0
-0.9663755	v e </s>	0
-1.2776343	g e </s>	0
-0.781339	x e </s>	0
-0.9001351	K e </s>	0
-0.9679634	j e </s>	0
-1.6986879	a k </s>	0
-1.736647	u k </s>	0
-1.9337722	i k </s>	0
-0.63667583	s k </s>	0
-1.7482821	e k </s>	0
-0.49008605	c k </s>	0
-0.7454736	l k </s>	0
-1.3361288	n k </s>	0
-0.60766256	p k </s>	0
-0.49008605	r k </s>	0
-1.6083621	o k </s>	0
-1.3719296	i c </s>	0
-1.0498431	l c </s>	0
-0.8136419	A d </s>	0
-1.4340025	a d </s>	0
-1.311175	u d </s>	0
-1.5650295	i d </s>	0
-0.3414553	s d </s>	0
-1.1319574	e d </s>	0
-0.39862671	l d </s>	0
-1.1112262	n d </s>	0
-0.3414553	p d </s>	0
-0.69593143	r d </s>	0
-3.1685157	<s> l </s>	0
-1.1745107	a l </s>	0
-1.2311629	u l </s>	0
-1.3911223	h l </s>	0
-1.2505628	i l </s>	0
-0.39846978	s l </s>	0
-0.9649167	e l </s>	0
-1.188873	k l </s>	0
-0.9340475	c l </s>	0
-1.3699278	d l </s>	0
-0.78825444	l l </s>	0
-0.39846978	n l </s>	0
-1.3881179	m l </s>	0
-0.34129468	y l </s>	0
-0.34129468	z l </s>	0
-1.4757173	o l </s>	0
-0.5944595	j l </s>	0
-1.6985619	u f </s>	0
-0.6649007	l f </s>	0
-1.8124366	o f </s>	0
-1.2123569	a n </s>	0
-1.7773647	u n </s>	0
-0.78330725	h n </s>	0
-1.490365	i n </s>	0
-0.8822404	w n </s>	0
-1.384764	e n </s>	0
-0.8812267	n n </s>	0
-1.6700355	m n </s>	0
-0.88577974	r n </s>	0
-0.3633936	z n </s>	0
-1.3262895	o n </s>	0
-1.4944096	a m </s>	0
-1.52655	u m </s>	0
-1.7387818	i m </s>	0
-0.64323014	s m </s>	0
-1.7363207	e m </s>	0
-0.36784342	c m </s>	0
-0.36784342	y m </s>	0
-1.0394737	r m </s>	0
-1.5084168	o m </s>	0
-1.0032485	a y </s>	0
-0.9027769	t y </s>	0
-1.310343	u y </s>	0
-0.2207276	h y </s>	0
-1.6319844	i y </s>	0
-1.255876	e y </s>	0
-0.105884284	k y </s>	0
-0.22087716	c y </s>	0
-0.4616107	d y </s>	0
-0.4589681	l y </s>	0
-1.1867354	n y </s>	0
-1.165515	m y </s>	0
-0.30786684	y y </s>	0
-0.19422919	r y </s>	0
-0.53629124	z y </s>	0
-1.4078897	o y </s>	0
-0.30786684	g y </s>	0
-1.4902716	a p </s>	0
-1.299683	u p </s>	0
-1.654163	i p </s>	0
-1.5011175	e p </s>	0
-0.35665387	k p </s>	0
-1.6360646	m p </s>	0
-1.6325383	o p </s>	0
-1.1932731	a r </s>	0
-0.8533123	u r </s>	0
-1.0878267	i r </s>	0
-0.87767416	e r </s>	0
-1.331965	o r </s>	0
-0.36906743	q r </s>	0
-1.6026832	a z </s>	0
-1.494263	u z </s>	0
-1.6515585	i z </s>	0
-1.29158	e z </s>	0
-1.4478234	n z </s>	0
-1.1110766	m z </s>	0
-0.34568647	r z </s>	0
-1.6832639	o z </s>	0
-1.2244606	L o </s>	0
-1.0363855	b o </s>	0
-1.077574	N o </s>	0
-0.82095456	t o </s>	0
-1.0465887	h o </s>	0
-1.2872623	i o </s>	0
-1.0157167	s o </s>	0
-0.9305756	w o </s>	0
-0.98128515	e o </s>	0
-1.0618709	k o </s>	0
-0.99853814	c o </s>	0
-1.0466309	d o </s>	0
-1.0619174	l o </s>	0
-0.9459622	f o </s>	0
-1.2455822	n o </s>	0
-0.91131943	m o </s>	0
-1.1616096	y o </s>	0
-1.2186611	p o </s>	0
-1.260295	r o </s>	0
-1.1641048	z o </s>	0
-1.0151441	o o </s>	0
-0.97151554	q o </s>	0
-0.65356135	v o </s>	0
-1.1093763	g o </s>	0
-1.0476533	x o </s>	0
-1.3736033	j o </s>	0
-1.5291364	a q </s>	0
-1.9228362	<s> v </s>	0
-1.6620878	m v </s>	0
-1.8246721	o v </s>	0
-2.154348	<s> g </s>	0
-1.7517447	a g </s>	0
-1.8606241	i g </s>	0
-1.6138651	e g </s>	0
-0.5347954	k g </s>	0
-0.3603043	l g </s>	0
-1.2611305	n g </s>	0
-0.42803517	r g </s>	0
-0.3603043	x g </s>	0
-1.71192	i x </s>	0
-1.6034325	e x </s>	0
-1.698331	n x </s>	0
-1.6873311	o x </s>	0
-1.5355922	<s> C </s>	0
-0.34321746	O C </s>	0
-0.34321746	D C </s>	0
-0.59790975	C C </s>	0
-0.34321746	R C </s>	0
-0.60612804	A T </s>	0
-0.7433675	S T </s>	0
-0.34777007	L T </s>	0
-0.51301783	E T </s>	0
-0.34777007	R T </s>	0
-0.6523753	W E </s>	0
-0.6523753	K E </s>	0
-0.62735903	A F </s>	0
-0.36827993	D F </s>	0
-0.37345752	E Z </s>	0
-1.8481505	<s> M </s>	0
-0.37893733	G M </s>	0
-0.6503033	T H </s>	0
-0.9937301	<s> V </s>	0
-0.24581885	I V </s>	0
-0.2353804	h j </s>	0
-1.5116217	i j </s>	0
-0.33065292	s j </s>	0
-0.33065292	d j </s>	0
-0.2353804	l j </s>	0
-1.1042837	n j </s>	0
-0.14499645	z j </s>	0
-0.33065292	g j </s>	0
-1.5044848	<s> R </s>	0
-0.35913986	O R </s>	0
-1.0408221	u R </s>	0
-1.8574855	<s> U </s>	0
-0.2343405	A U </s>	0
-0.5726849	C U </s>	0
-0.32900453	T U </s>	0
-0.5726849	M U </s>	0
-0.7777057	K U </s>	0
-0.13750659	k é </s>	0
-0.13750659	l é </s>	0
-0.13750659	n é </s>	0
-0.13750659	y é </s>	0
-0.14620957	<s> Â </s>	0
-1.651483	S A A	-0.22396652
-1.1478007	<s> S A	-0.25594386
-0.571436	B S A	-0.22396652
-0.32829145	S S A	-0.22396652
-0.3857581	O S A	-0.22396652
-0.54698366	I S A	-0.31671396
-0.32829145	N S A	-0.22396652
-0.571436	P S A	-0.22396652
-1.0079441	i S A	-0.25927505
-0.85774595	e S A	-0.29771027
-0.571436	M S A	-0.22396652
-0.48775345	U S A	-0.31828362
-0.82051796	I G A	-0.22396652
-0.37717053	L G A	-0.22396652
-1.770073	<s> O A	-0.22396652
-0.6606465	G O A	-0.22396652
-0.83976674	R I A	-0.22396652
-1.5896121	<s> D A	-0.22396652
-0.6614314	E D A	-0.22396652
-0.6534592	U L A	-0.22396652
-0.3857651	C N A	-0.22396652
-3.1903079	<s> u A	-0.28451693
-2.200675	g u A	-0.22396652
-1.6086735	<s> P A	-0.22396652
-0.37113518	v P A	-0.22396652
-0.64945716	E P A	-0.22396652
-2.5500054	<s> i A	-0.2927157
-2.4569383	y i A	-0.22396652
-1.8295258	k w A	-0.22396652
-1.8463787	l w A	-0.22396652
-3.4091308	<s> e A	-0.22396652
-2.2035255	b e A	-0.22396652
-2.012684	s e A	-0.22396652
-2.4214141	w e A	-0.22396652
-2.277499	l e A	-0.22396652
-2.1694348	n e A	-0.22396652
-2.217484	y e A	-0.22396652
-2.4195848	u m A	-0.22396652
-0.3820474	K C A	-0.22396652
-0.31034157	S W A	-0.22396652
-0.540487	D W A	-0.22396652
-0.36819696	L W A	-0.31828362
-0.31034157	N W A	-0.22396652
-0.6556563	K W A	-0.22396652
-1.54828	<s> T A	-0.22396652
-0.8167983	S T A	-0.22396652
-0.93196064	E T A	-0.22396652
-0.38223144	D E A	-0.22396652
-0.8265575	I F A	-0.22396652
-1.8894185	<s> M A	-0.22396652
-0.9479999	A M A	-0.22396652
-1.4339811	i M A	-0.22396652
-0.66668534	N K A	-0.22396652
-0.37130526	S H A	-0.22396652
-0.37130526	K H A	-0.22396652
-0.264466	L R A	-0.22396652
-2.124252	<s> A B	-0.22396652
-1.6632581	S A B	-0.22396652
-1.4166163	I S B	-0.22396652
-2.4584887	<s> I B	-0.22396652
-0.96325254	A L B	-0.22396652
-2.9395764	<s> a B	-0.31828362
-2.3589325	b a B	-0.22396652
-2.3014596	w a B	-0.28451693
-2.3429105	m a B	-0.22396652
-2.3372588	y a B	-0.22396652
-2.192142	z a B	-0.22396652
-2.4339635	<s> N B	-0.22396652
-0.38644123	F N B	-0.22396652
-3.0178654	<s> u B	-0.31671396
-2.0461702	k u B	-0.28451693
-2.1124406	l u B	-0.31828362
-2.77665	<s> i B	-0.25927505
-2.1491804	s i B	-0.22396652
-2.2391176	w i B	-0.22396652
-2.4253786	l i B	-0.22396652
-2.3669574	y i B	-0.22396652
-2.392973	z i B	-0.22396652
-3.0738034	<s> e B	-0.2685697
-1.3191903	D e B	-0.22396652
-2.1470757	b e B	-0.22396652
-1.8281406	s e B	-0.25927505
-1.8319107	w e B	-0.4177414
-2.0878022	e e B	-0.22396652
-2.2185552	l e B	-0.22396652
-2.1087904	n e B	-0.22396652
-2.1550689	y e B	-0.22396652
-1.7883354	z e B	-0.28451693
-2.8984091	<s> o B	-0.22396652
-2.0729077	b o B	-0.22396652
-2.0860171	s o B	-0.22396652
-1.9225547	w o B	-0.22396652
-2.2658846	l o B	-0.22396652
-2.115061	n o B	-0.22396652
-2.202682	y o B	-0.22396652
-1.9020842	z o B	-0.31828362
-2.1654475	g o B	-0.22396652
-1.2209033	i T B	-0.22396652
-1.3429252	e T B	-0.22396652
-1.3068067	S A S	-0.22396652
-0.3817292	N A S	-0.22396652
-0.2668671	A B S	-0.22396652
-0.3865117	G S S	-0.22396652
-1.4907757	<s> G S	-0.22396652
-1.7154318	<s> O S	-0.22396652
-0.37186903	C O S	-0.22396652
-0.37186903	H O S	-0.22396652
-1.4927816	<s> I S	-0.22396652
-0.8742848	C I S	-0.22396652
-0.36096925	T I S	-0.22396652
-0.7893939	F I S	-0.22396652
-0.5303345	Z I S	-0.22396652
-0.6685865	I D S	-0.22396652
-3.6029644	<s> a S	-0.22396652
-2.614137	w a S	-0.22396652
-2.0265746	k a S	-0.22396652
-2.0509727	m a S	-0.2685697
-2.330081	g a S	-0.22396652
-0.6772096	A N S	-0.22396652
-1.4919448	r t S	-0.22396652
-3.3684533	<s> u S	-0.22396652
-2.215419	k u S	-0.28451693
-0.3761579	A P S	-0.22396652
-0.8177132	I P S	-0.22396652
-2.1769829	<s> i S	-0.37266436
-1.8868104	i i S	-0.22396652
-2.3295298	s i S	-0.22396652
-1.8870983	w i S	-0.22396652
-2.3331552	l i S	-0.22396652
-2.1436872	m i S	-0.22396652
-2.2986467	z i S	-0.22396652
-2.1443067	g i S	-0.22396652
-2.734371	<s> e S	-0.36061397
-2.147465	b e S	-0.22396652
-1.8283293	s e S	-0.2531873
-1.9881225	w e S	-0.28451693
-2.2189608	l e S	-0.22396652
-2.109207	n e S	-0.22396652
-2.1554966	y e S	-0.22396652
-1.7885567	z e S	-0.22396652
-2.162126	g e S	-0.22396652
-2.071585	n d S	-0.22396652
-1.5461075	U m S	-0.22396652
-1.8961611	o p S	-0.22396652
-1.0667571	P r S	-0.22396652
-2.2980592	l o S	-0.22396652
-2.1479893	n o S	-0.22396652
-2.235473	y o S	-0.22396652
-2.18341	z o S	-0.22396652
-1.9801912	o o S	-0.22396652
-2.196637	g o S	-0.22396652
-1.1385905	F o S	-0.22396652
-0.81611204	S T S	-0.22396652
-0.375578	N T S	-0.22396652
-0.375578	H T S	-0.22396652
-1.2518022	<s> E S	-0.31828362
-0.96861976	S E S	-0.22396652
-0.3505354	T E S	-0.22396652
-0.96861976	Y E S	-0.22396652
-0.3505354	R E S	-0.22396652
-0.9547564	A M S	-0.22396652
-0.38410202	V M S	-0.22396652
-0.661579	A R S	-0.22396652
-1.9914355	<s> U S	-0.22396652
-0.66175836	M U S	-0.22396652
-2.1714203	<s> A G	-0.22396652
-2.3245869	<s> I G	-0.22396652
-0.66992944	M I G	-0.22396652
-0.833492	R I G	-0.22396652
-0.96325254	A L G	-0.22396652
-2.4598482	k a G	-0.22396652
-2.1132152	m a G	-0.22396652
-0.89311767	I N G	-0.22396652
-1.891242	e N G	-0.22396652
-0.839826	E N G	-0.22396652
-3.6460075	<s> u G	-0.22396652
-2.0556223	b u G	-0.31828362
-2.4965165	k u G	-0.22396652
-2.179481	g u G	-0.22396652
-3.4576998	<s> i G	-0.22396652
-1.9304662	i i G	-0.22396652
-2.1293044	s i G	-0.31828365
-2.2077754	w i G	-0.22396652
-2.391592	l i G	-0.22396652
-1.7186799	m i G	-0.31671396
-2.3583624	z i G	-0.22396652
-3.2976487	<s> e G	-0.22396652
-2.2306442	w e G	-0.22396652
-2.3756113	l e G	-0.22396652
-2.2709632	n e G	-0.22396652
-2.3226128	y e G	-0.22396652
-2.2780764	s o G	-0.22396652
-1.504914	o o G	-0.28451693
-2.369996	g o G	-0.22396652
-0.3832821	P K G	-0.22396652
-0.9575114	K U G	-0.22396652
-2.413501	<s> S O	-0.22396652
-0.8450017	A S O	-0.22396652
-0.3786855	A G O	-0.22396652
-0.9412103	N G O	-0.22396652
-0.38275737	R O O	-0.22396652
-0.95059216	N D O	-0.22396652
-1.3026551	<s> L O	-0.22396652
-0.8539111	A L O	-0.22396652
-0.8539111	O L O	-0.22396652
-0.42254472	E L O	-0.35262355
-0.41148615	H L O	-0.31828362
-2.4552958	k a O	-0.22396652
-3.7078319	<s> u O	-0.22396652
-2.556955	k u O	-0.22396652
-2.4209669	y e O	-0.22396652
-2.3431895	n o O	-0.22396652
-1.8789179	<s> C O	-0.22396652
-0.3844624	W T O	-0.22396652
-0.38575828	F M O	-0.22396652
-1.271749	U M O	-0.22396652
-1.9658288	<s> K O	-0.22396652
-0.8199837	U K O	-0.22396652
-1.4359326	<s> Y O	-0.22396652
-0.3641014	E Y O	-0.22396652
-0.37902737	X H O	-0.22396652
-0.37573063	A Q O	-0.22396652
-0.37932375	_ R O	-0.22396652
-2.0891993	<s> A I	-0.22396652
-1.3589505	e A I	-0.22396652
-1.3868445	I S I	-0.22396652
-0.6580659	E S I	-0.22396652
-0.9541185	N G I	-0.22396652
-1.9962529	<s> I I	-0.22396652
-0.9548755	I I I	-0.22396652
-0.9350828	N D I	-0.22396652
-0.37872657	M D I	-0.22396652
-2.442372	<s> N I	-0.22396652
-2.0416195	i i I	-0.22396652
-3.8524215	<s> e I	-0.22396652
-2.2576892	z e I	-0.22396652
-2.1404335	<s> d I	-0.22396652
-1.7861977	<s> C I	-0.22396652
-0.8153938	A C I	-0.22396652
-0.43168792	G C I	-0.22396652
-0.80766237	L W I	-0.22396652
-0.7977426	K W I	-0.22396652
-1.6497318	<s> T I	-0.22396652
-0.98837507	A F I	-0.22396652
-1.0562055	i F I	-0.22396652
-1.0391532	e F I	-0.22396652
-0.60401154	A Z I	-0.22396652
-0.7404671	I Z I	-0.22396652
-0.3466013	N Z I	-0.22396652
-0.3466013	U Z I	-0.22396652
-0.65942574	I M I	-0.22396652
-1.2623324	<s> H I	-0.22396652
-1.2118989	e H I	-0.22396652
-1.3268427	<s> R I	-0.22396652
-0.6531534	A R I	-0.22396652
-1.29562	<s> J I	-0.22396652
-1.3084618	S A D	-0.28451693
-0.83411425	P A D	-0.22396652
-0.67035633	R A D	-0.22396652
-1.5221771	<s> G D	-0.22396652
-2.3781857	<s> I D	-0.22396652
-0.26834676	A I D	-0.31828362
-2.4837708	b a D	-0.22396652
-2.7311714	w a D	-0.22396652
-0.6780818	A N D	-0.22396652
-0.45279935	U N D	-0.2685697
-3.349242	<s> u D	-0.22396652
-2.3717303	b u D	-0.22396652
-2.1967504	k u D	-0.31828362
-2.4058	l u D	-0.22396652
-3.252005	<s> i D	-0.22396652
-1.9772347	i i D	-0.22396652
-2.4651902	s i D	-0.22396652
-2.055878	k i D	-0.22396652
-2.4250314	z i D	-0.22396652
-3.2801795	<s> e D	-0.28451693
-2.323529	s e D	-0.22396652
-2.1824205	e e D	-0.22396652
-2.3340867	l e D	-0.22396652
-1.9947253	y e D	-0.22396652
-2.1478827	z e D	-0.22396652
-2.2857196	s o D	-0.22396652
-2.0176995	z o D	-0.22396652
-1.8465456	<s> C D	-0.22396652
-0.66816145	I C D	-0.22396652
-1.1018676	S E D	-0.22396652
-0.3813869	V E D	-0.22396652
-0.9713777	A M D	-0.22396652
-1.6811738	<s> R D	-0.22396652
-2.0616071	<s> A L	-0.22396652
-1.1254299	S A L	-0.28451693
-0.38175032	K A L	-0.22396652
-1.7959964	<s> O L	-0.22396652
-0.72411567	L O L	-0.22396652
-0.3864387	G I L	-0.22396652
-0.96084386	A L L	-0.22396652
-3.6254096	<s> a L	-0.22396652
-2.3874328	b a L	-0.22396652
-2.3487306	k a L	-0.22396652
-2.3734822	m a L	-0.22396652
-1.940667	M a L	-0.22396652
-3.1747	<s> u L	-0.22396652
-2.3685524	b u L	-0.22396652
-2.194751	k u L	-0.22396652
-2.402649	l u L	-0.22396652
-2.8852148	<s> i L	-0.2685697
-1.46684	I i L	-0.22396652
-1.6054769	i i L	-0.31828362
-2.385725	s i L	-0.22396652
-1.9125545	w i L	-0.22396652
-2.3847134	l i L	-0.22396652
-2.3513238	z i L	-0.22396652
-3.0810077	<s> e L	-0.2685697
-2.167092	b e L	-0.22396652
-1.988626	s e L	-0.22396652
-2.3798084	w e L	-0.22396652
-1.8211678	e e L	-0.22396652
-2.2394178	l e L	-0.22396652
-1.8861345	n e L	-0.28451693
-2.1771033	y e L	-0.22396652
-2.056858	z e L	-0.22396652
-2.6350744	a m L	-0.22396652
-2.873047	<s> o L	-0.28451693
-2.0227735	b o L	-0.22396652
-2.0323973	s o L	-0.22396652
-1.8757423	w o L	-0.22396652
-2.0837278	k o L	-0.22396652
-2.2081008	l o L	-0.22396652
-2.0560591	n o L	-0.22396652
-2.1439018	y o L	-0.22396652
-1.8673264	z o L	-0.29771027
-1.9165124	o o L	-0.22396652
-2.1092644	g o L	-0.22396652
-0.6157066	L E L	-0.22396652
-0.6157066	E E L	-0.22396652
-0.35302773	Z E L	-0.22396652
-0.97830224	Y E L	-0.22396652
-0.35302773	X E L	-0.22396652
-1.9740269	<s> M L	-0.22396652
-0.3665283	A H L	-0.22396652
-0.25764906	O H L	-0.31828362
-0.4231126	U H L	-0.31828362
-1.9896463	<s> U L	-0.22396652
-0.36218688	W U L	-0.22396652
-0.8782678	K U L	-0.22396652
-0.63262653	H U L	-0.22396652
-0.7415818	<s> A b	-0.9699265
-1.5246766	<s> O b	-0.22396652
-1.8566681	<s> I b	-0.2685697
-2.2522964	o b b	-0.22396652
-0.66814804	<s> a b	-1.8119146
-1.4827715	B a b	-0.22396652
-1.0829778	G a b	-0.22396652
-1.2584788	L a b	-0.22396652
-1.2609446	b a b	-0.5845733
-1.3291246	N a b	-0.22396652
-1.1682482	t a b	-0.2745195
-1.2518992	h a b	-0.4275099
-1.452401	s a b	-0.41517058
-1.135687	w a b	-0.809508
-1.309606	e a b	-0.22396652
-1.2308261	k a b	-0.5277822
-0.9254306	c a b	-0.48841563
-1.0300366	d a b	-0.48894405
-1.2115183	l a b	-0.5420215
-1.1465163	n a b	-0.48258406
-1.3752851	m a b	-0.48317218
-1.2874438	y a b	-0.5123244
-1.6334715	p a b	-0.22396652
-1.281552	z a b	-0.39935017
-1.0146809	q a b	-0.45250347
-1.7397969	v a b	-0.22396652
-1.2758278	g a b	-0.37609243
-0.8914437	x a b	-0.45752397
-0.9852355	T a b	-0.22396652
-0.9762732	Y a b	-0.22396652
-0.70627	Q a b	-0.22396652
-0.9073813	j a b	-0.55178463
-2.3303523	i t b	-0.22396652
-2.15151	n t b	-0.22396652
-1.1007911	<s> u b	-1.4462706
-1.3070434	b u b	-0.5104328
-1.4040835	t u b	-0.22396652
-0.6473361	P u b	-0.22396652
-1.0762475	h u b	-0.5237575
-1.421306	s u b	-0.2685697
-1.1533378	w u b	-0.39247862
-1.3452957	k u b	-0.66344875
-0.83649457	c u b	-0.4426402
-0.9847672	d u b	-0.3744723
-1.2316079	l u b	-0.53239024
-1.5814198	f u b	-0.28451693
-1.4174087	m u b	-0.28451693
-1.5217766	y u b	-0.22396652
-1.5044755	p u b	-0.22396652
-0.9230618	q u b	-0.37395
-1.4309832	v u b	-0.35262355
-1.0895749	g u b	-0.41242892
-0.8681431	x u b	-0.39066154
-0.81327695	j u b	-0.3756934
-2.0354433	p h b	-0.22396652
-1.3341962	<s> i b	-1.1191378
-1.007866	S i b	-0.30262202
-1.2914894	I i b	-0.22396652
-0.93448675	D i b	-0.31828362
-1.2903666	b i b	-0.413624
-1.8325509	t i b	-0.22396652
-1.2747175	h i b	-0.32871482
-1.4273697	i i b	-0.28451693
-1.2734239	s i b	-0.64584297
-1.2703085	w i b	-0.34378067
-1.7473539	k i b	-0.22396652
-1.3244224	c i b	-0.47756228
-1.0986629	d i b	-0.54747635
-1.4001788	l i b	-0.5132174
-1.7817978	f i b	-0.22396652
-1.3050245	n i b	-0.3897337
-1.3313687	m i b	-0.440274
-1.3322828	y i b	-0.5139928
-1.6288223	r i b	-0.22396652
-1.4366648	z i b	-0.5712093
-1.6621165	q i b	-0.22396652
-1.7079813	v i b	-0.22396652
-1.1075195	g i b	-0.45063528
-1.2651006	x i b	-0.2685697
-1.456426	Z i b	-0.22396652
-1.4609821	M i b	-0.22396652
-1.2506757	s s b	-0.22396652
-2.2786639	e s b	-0.22396652
-2.1810129	o s b	-0.22396652
-1.4393907	<s> e b	-1.2587191
-0.58037037	S e b	-0.72060037
-1.6127785	b e b	-0.33456972
-1.4337934	t e b	-0.35262355
-1.248757	h e b	-0.5006321
-1.6296823	i e b	-0.22396652
-1.1809909	s e b	-0.5730745
-1.1976681	w e b	-0.5318934
-1.399581	e e b	-0.47756228
-1.0413735	c e b	-0.46507576
-1.0728328	d e b	-0.31723654
-1.3884811	l e b	-0.34312755
-1.5821904	n e b	-0.29651216
-1.6404923	m e b	-0.22396652
-1.2776911	y e b	-0.3621686
-1.7062149	p e b	-0.22396652
-1.7657691	z e b	-0.22396652
-1.1139747	q e b	-0.31723654
-1.385613	g e b	-0.35049492
-1.643773	x e b	-0.22396652
-0.7687516	C e b	-0.28451693
-0.6526572	W e b	-0.22396652
-0.4292499	F e b	-0.22396652
-1.1876428	R e b	-0.22396652
-3.7677522	<s> k b	-0.22396652
-2.3699567	i k b	-0.22396652
-2.1832726	e d b	-0.22396652
-0.66607654	A l b	-0.31828362
-2.6686163	i n b	-0.22396652
-2.5565765	o n b	-0.22396652
-1.0085726	<s> m b	-0.7736295
-1.0956931	I m b	-0.22396652
-1.105899	a m b	-0.8961421
-1.0140256	u m b	-0.7470048
-0.8986125	i m b	-0.8552473
-1.0432924	e m b	-0.7871659
-1.0941217	m m b	-0.31828362
-1.1958816	o m b	-0.7692653
-1.3335737	U m b	-0.22396652
-1.7742748	u r b	-0.22396652
-1.0365422	<s> o b	-1.2893522
-1.177168	B o b	-0.22396652
-1.3376629	S o b	-0.22396652
-1.2288864	L o b	-0.22396652
-1.3509766	b o b	-0.30262202
-0.7968376	a o b	-0.22396652
-1.1609572	t o b	-0.28451693
-1.1212674	h o b	-0.50445235
-1.1949263	s o b	-0.3686506
-1.6293972	w o b	-0.22396652
-1.4216908	k o b	-0.37995282
-1.2009052	c o b	-0.28451693
-1.6939193	d o b	-0.22396652
-1.0313269	l o b	-0.5553855
-1.5958825	f o b	-0.22396652
-1.2483668	n o b	-0.43099263
-1.2670231	m o b	-0.28451693
-1.2699754	y o b	-0.48664373
-1.2646041	r o b	-0.31828362
-1.1662616	z o b	-0.42694652
-1.0466521	q o b	-0.4144081
-1.2194277	g o b	-0.45001155
-1.640554	x o b	-0.22396652
-0.88787216	Z o b	-0.31828362
-1.1878208	K o b	-0.22396652
-0.9576151	j o b	-0.29651216
-0.7968376	R o b	-0.22396652
-2.2101367	n g b	-0.22396652
-1.5120509	<s> M b	-0.22396652
-1.3234686	u M b	-0.22396652
-1.0439146	i M b	-0.28451693
-1.315241	e M b	-0.31828362
-1.1407759	o M b	-0.25927505
-1.172478	<s> U b	-0.82799107
-0.42509854	<s> B a	-0.27533266
-0.25599432	a B a	-0.3188873
-0.69670355	u B a	-0.2685697
-0.73836315	i B a	-0.22396652
-0.571864	e B a	-0.31702745
-1.1911004	<s> S a	-0.27286118
-1.2738565	I S a	-0.22396652
-1.0182108	i S a	-0.22396652
-0.8262863	e S a	-0.29197502
-1.041233	<s> G a	-0.22396652
-0.7547976	a G a	-0.22396652
-0.68747073	i G a	-0.28451693
-0.60063624	e G a	-0.28451693
-1.4131376	<s> D a	-0.22396652
-0.6158597	a D a	-0.22396652
-0.915807	u D a	-0.22396652
-0.6017947	e D a	-0.2685697
-0.85872847	<s> L a	-0.22396652
-0.59430766	a L a	-0.31828362
-0.7436169	u L a	-0.31828362
-1.1075783	i L a	-0.22396652
-0.8091207	e L a	-0.28451693
-0.66112685	o L a	-0.65365356
-0.3312616	<s> b a	-1.3830718
-0.5354316	A b a	-0.22396652
-0.6490773	I b a	-0.22396652
-0.66821283	a b a	-0.73307896
-0.7154091	u b a	-0.52659005
-0.30735862	h b a	-0.22396652
-0.72220546	i b a	-0.6203094
-0.724177	e b a	-0.4534073
-0.5354316	k b a	-0.22396652
-0.30735862	d b a	-0.22396652
-0.8231187	m b a	-0.506867
-0.30735862	r b a	-0.22396652
-0.67254007	o b a	-0.5662886
-0.48945218	M b a	-0.33856013
-0.6490773	U b a	-0.22396652
-2.2102447	b a a	-0.22396652
-1.2288455	u a a	-0.22396652
-2.1517725	h a a	-0.22396652
-2.0586307	d a a	-0.22396652
-2.0261512	l a a	-0.31828362
-2.090834	n a a	-0.22396652
-1.8111761	r a a	-0.22396652
-1.9211491	v a a	-0.22396652
-2.1822705	g a a	-0.22396652
-0.8691262	<s> N a	-0.32178387
-1.1310676	a N a	-0.22396652
-1.2215537	u N a	-0.22396652
-1.370204	i N a	-0.31828362
-1.6602458	e N a	-0.22396652
-1.2071941	<s> t a	-0.2838708
-0.5942315	S t a	-0.31671396
-1.0406344	a t a	-0.33407125
-1.5812968	u t a	-0.25927505
-1.014011	i t a	-0.38398004
-0.81605947	s t a	-0.2531873
-1.0997572	e t a	-0.33790484
-1.0089144	k t a	-0.22396652
-1.1879985	c t a	-0.22396652
-0.9766813	n t a	-0.47260043
-1.0078709	m t a	-0.22396652
-1.1690222	r t a	-0.22396652
-1.0191897	o t a	-0.34312755
-0.7439478	x t a	-0.22396652
-3.3989599	<s> u a	-0.22396652
-2.1719413	b u a	-0.22396652
-1.8084959	t u a	-0.22396652
-2.253422	k u a	-0.22396652
-1.9535669	m u a	-0.22396652
-1.4170139	o u a	-0.22396652
-1.7490749	g u a	-0.22396652
-0.7377621	<s> P a	-0.28354812
-1.0327053	a P a	-0.22396652
-0.9198114	i P a	-0.28451693
-0.37370172	e P a	-0.5006321
-0.33504733	m P a	-0.22396652
-0.6825273	<s> h a	-0.42398202
-0.44954616	B h a	-0.28354812
-0.87872547	S h a	-0.22396652
-0.30596447	G h a	-0.22396652
-0.677691	b h a	-0.513198
-0.56166595	a h a	-0.56969833
-0.8679445	t h a	-0.5638929
-0.7254947	u h a	-0.33790758
-0.46304703	P h a	-0.37343958
-0.48817983	h h a	-0.26810247
-0.8742312	i h a	-0.41414657
-0.81498075	s h a	-0.5460454
-0.79146576	e h a	-0.4104555
-0.87280726	k h a	-0.571984
-0.61050045	c h a	-0.5063297
-0.6720514	l h a	-0.22396652
-1.0336274	n h a	-0.22396652
-1.1359189	m h a	-0.22396652
-0.48532158	y h a	-0.22396652
-0.68266267	p h a	-0.6109028
-0.49414662	r h a	-0.45501667
-0.53396714	o h a	-0.4144081
-0.67341954	q h a	-0.46555275
-0.58423734	g h a	-0.3960197
-0.6148965	x h a	-0.425856
-0.35119447	C h a	-0.2745195
-0.64773	T h a	-0.31828362
-0.68526536	K h a	-0.27806762
-0.6720514	X h a	-0.22396652
-0.45919302	Q h a	-0.22396652
-0.9820446	R h a	-0.22396652
-3.0248494	<s> i a	-0.31828362
-1.3071654	D i a	-0.22396652
-1.8832124	b i a	-0.22396652
-1.5592616	t i a	-0.22396652
-1.8046668	h i a	-0.31828362
-1.7317302	i i a	-0.22396652
-1.7105774	s i a	-0.31671396
-1.358458	c i a	-0.31671396
-1.9841465	d i a	-0.22396652
-1.9605511	l i a	-0.22396652
-1.7492994	n i a	-0.31828362
-1.5699179	p i a	-0.22396652
-1.2853925	r i a	-0.28451693
-1.1540712	o i a	-0.22396652
-1.9756728	g i a	-0.22396652
-0.88782614	<s> s a	-1.0140544
-0.65727055	I s a	-0.22396652
-0.9097696	a s a	-0.4941113
-0.76877326	t s a	-0.37266436
-0.7628481	u s a	-0.45620435
-0.84929603	i s a	-0.6889039
-0.6059191	w s a	-0.22396652
-1.003031	e s a	-0.565424
-1.0016489	n s a	-0.31013504
-0.96848094	m s a	-0.28451693
-0.34765482	z s a	-0.22396652
-0.8169218	o s a	-0.33990932
-0.7363951	T s a	-0.35262355
-0.18296355	<s> w a	-1.5331147
-0.1941549	S w a	-0.22396652
-0.3256938	D w a	-0.22396652
-0.48382884	L w a	-0.30348966
-0.4691749	b w a	-0.22396652
-0.65077907	a w a	-0.5300313
-0.3609746	t w a	-0.3686506
-0.52297556	u w a	-0.34576127
-0.46995848	h w a	-0.37138513
-0.6229112	i w a	-0.4430392
-0.32571185	s w a	-0.47658896
-0.48070636	e w a	-0.39679572
-0.4084411	k w a	-0.5605933
-0.34998322	c w a	-0.40800345
-0.41021654	d w a	-0.42581168
-0.5040658	l w a	-0.48986912
-0.26696143	f w a	-0.22396652
-0.41788846	n w a	-0.38926202
-0.26696143	m w a	-0.22396652
-0.30465475	y w a	-0.413624
-0.26762095	r w a	-0.22396652
-0.4807976	z w a	-0.5287148
-0.61124104	o w a	-0.36475125
-0.3871924	q w a	-0.45271215
-0.4329935	g w a	-0.4365511
-0.38834926	x w a	-0.3678665
-0.4691749	C w a	-0.22396652
-0.4549318	K w a	-0.24889061
-0.26696143	Q w a	-0.22396652
-0.26192585	j w a	-0.3949332
-1.5939114	S e a	-0.22396652
-1.7279668	i e a	-0.22396652
-2.0785303	s e a	-0.22396652
-1.9073262	c e a	-0.22396652
-1.9112978	l e a	-0.22396652
-1.8050513	n e a	-0.22396652
-2.0402634	y e a	-0.22396652
-1.3377991	r e a	-0.28451693
-1.1610551	T e a	-0.22396652
-0.83428544	Y e a	-0.22396652
-0.9523759	H e a	-0.22396652
-1.2487165	R e a	-0.22396652
-1.161663	<s> k a	-0.8394629
-0.73053074	a k a	-0.6988311
-0.98587745	N k a	-0.31723654
-0.78599226	u k a	-0.53367394
-0.83817255	i k a	-0.53318864
-1.0967734	s k a	-0.22396652
-0.8199152	e k a	-0.63011223
-0.9584754	n k a	-0.4227267
-1.0306302	m k a	-0.2531873
-0.876481	o k a	-0.48710737
-0.83803254	<s> c a	-0.3296283
-0.5964726	I c a	-0.22396652
-0.7460573	a c a	-0.43150634
-0.8350832	N c a	-0.31828362
-0.7129097	u c a	-0.3939813
-0.76262754	i c a	-0.57224804
-0.7019661	e c a	-0.4930291
-0.70494074	k c a	-0.28451693
-0.81743616	n c a	-0.44088623
-0.88172096	m c a	-0.28354812
-0.68732035	o c a	-0.4110542
-0.8072097	g c a	-0.28876305
-0.75626993	<s> d a	-0.31013504
-0.73827505	a d a	-0.51058716
-0.7889862	N d a	-0.31671396
-0.89882547	u d a	-0.343827
-0.8651008	i d a	-0.46043643
-0.93231493	e d a	-0.39747873
-0.5657982	d d a	-0.22396652
-0.93929726	n d a	-0.4686447
-0.56555873	m d a	-0.41242892
-0.90781444	r d a	-0.22396652
-0.3250617	z d a	-0.22396652
-0.7878983	o d a	-0.3626456
-0.5657982	g d a	-0.22396652
-0.86702526	<s> l a	-0.9831993
-0.8754549	I l a	-0.22396652
-0.6416095	b l a	-0.29197502
-0.7748991	a l a	-0.75925034
-0.50485843	t l a	-0.39320406
-0.78354514	u l a	-0.6051719
-0.5728032	P l a	-0.22396652
-0.72371536	h l a	-0.7149649
-0.8047107	i l a	-0.630814
-0.7763891	e l a	-0.70827496
-0.88926035	k l a	-0.2685697
-0.89117825	c l a	-0.22396652
-0.7545831	d l a	-0.5146274
-0.71932167	n l a	-0.22396652
-0.6117238	m l a	-0.37886986
-0.68686783	p l a	-0.22396652
-0.8396803	o l a	-0.63308084
-0.6982818	C l a	-0.22396652
-0.6982818	M l a	-0.22396652
-0.6982818	K l a	-0.22396652
-0.5221161	H l a	-0.2685697
-0.5977152	<s> f a	-0.2685697
-0.6679484	I f a	-0.22396652
-0.74351776	a f a	-0.5653533
-0.5498846	t f a	-0.22396652
-0.56775194	u f a	-0.46850422
-0.66728187	i f a	-0.5765939
-0.6836038	e f a	-0.4407833
-0.83236927	f f a	-0.22396652
-0.7153038	m f a	-0.48664373
-0.60758173	o f a	-0.49311873
-0.4830803	M f a	-0.31828362
-0.9403058	<s> n a	-1.4865868
-1.2662964	I n a	-0.22396652
-1.1041607	a n a	-0.6645069
-1.1371081	u n a	-0.505199
-1.142257	i n a	-0.6705533
-0.77572846	s n a	-0.22396652
-1.3084828	e n a	-0.49066994
-1.1680605	n n a	-0.22396652
-1.1118912	m n a	-0.4117665
-0.77572846	y n a	-0.22396652
-0.70139545	r n a	-0.22396652
-1.1182525	o n a	-0.581254
-0.44886225	<s> m a	-0.8809703
-0.6222606	A m a	-0.22396652
-0.35659495	S m a	-0.22396652
-0.94730055	a m a	-0.7456006
-0.9053431	u m a	-0.5429681
-0.98014987	i m a	-0.5629803
-1.0227541	e m a	-0.48641574
-0.71287286	m m a	-0.413624
-0.99244684	r m a	-0.22396652
-0.35659495	z m a	-0.22396652
-1.1067	o m a	-0.54396325
-0.95327955	M m a	-0.22396652
-1.2146131	U m a	-0.22396652
-0.50506353	<s> y a	-1.2031922
-0.55311847	I y a	-0.22396652
-0.8337538	a y a	-0.517721
-0.29068604	N y a	-0.29651216
-0.77411354	t y a	-0.4165263
-0.45895112	u y a	-0.4389304
-0.4947421	i y a	-0.6336298
-0.70341855	e y a	-0.44458303
-1.0741668	l y a	-0.22396652
-0.7083232	n y a	-0.6303321
-0.65645903	m y a	-0.4928052
-0.5513478	o y a	-0.47042087
-0.3754297	T y a	-0.22396652
-0.22719054	M y a	-0.31828362
-0.67219746	U y a	-0.22396652
-0.87453455	<s> p a	-0.37803897
-0.7918016	S p a	-0.22396652
-0.83042777	a p a	-0.3296283
-0.92515635	u p a	-0.29651216
-0.99308455	i p a	-0.29197502
-0.84513867	s p a	-0.22396652
-0.8978642	e p a	-0.2685697
-0.82832646	m p a	-0.387834
-1.4704338	o p a	-0.22396652
-0.5694505	x p a	-0.22396652
-0.5694505	E p a	-0.22396652
-0.7300223	M p a	-0.28451693
-0.7991838	B r a	-0.22396652
-0.9805764	a r a	-0.2927157
-0.4491546	t r a	-0.2745195
-1.0030046	u r a	-0.28451693
-0.7272565	h r a	-0.31828362
-0.9910515	i r a	-0.22396652
-0.9753405	e r a	-0.24889061
-0.8536981	k r a	-0.22396652
-0.8718344	c r a	-0.22396652
-0.31621626	d r a	-0.22396652
-0.9510156	f r a	-0.22396652
-0.97096056	o r a	-0.30262202
-0.6248133	g r a	-0.28451693
-0.23495524	T r a	-0.2685697
-0.7804486	F r a	-0.22396652
-0.7287042	<s> z a	-1.0139437
-0.55586296	I z a	-0.22396652
-0.70906067	a z a	-0.7653973
-0.662961	u z a	-0.6712841
-0.65549624	i z a	-0.6172782
-0.6935066	e z a	-0.6273347
-0.6077652	n z a	-0.4643673
-0.76930696	m z a	-0.32943124
-0.69649017	o z a	-0.48710737
-0.31932652	v z a	-0.22396652
-0.20313226	M z a	-0.65365356
-0.31932652	U z a	-0.22396652
-1.3084481	B o a	-0.22396652
-2.360466	h o a	-0.22396652
-1.4553155	i o a	-0.22396652
-1.385579	C o a	-0.22396652
-0.8811274	<s> q a	-0.24889061
-0.31818625	A q a	-0.22396652
-0.71530706	a q a	-0.47544706
-0.47477615	N q a	-0.31828362
-0.7548433	u q a	-0.3816189
-0.7056741	i q a	-0.47829437
-0.6968948	e q a	-0.48952678
-0.696725	k q a	-0.22396652
-0.67248344	n q a	-0.50097185
-0.68824023	m q a	-0.28354812
-0.8070993	o q a	-0.24126203
-0.8470476	g q a	-0.41270807
-0.67322457	U q a	-0.22396652
-0.44691527	<s> v a	-0.42653045
-0.6822339	a v a	-0.4412225
-0.5567755	u v a	-0.41565508
-0.7425298	i v a	-0.56730366
-0.77151555	e v a	-0.3000658
-0.80158204	n v a	-0.22396652
-0.5980683	m v a	-0.413624
-0.63446295	r v a	-0.22396652
-0.5348732	o v a	-0.43143153
-0.6615254	M v a	-0.22396652
-0.5241388	U v a	-0.22396652
-0.6262874	<s> g a	-0.42214116
-0.7074119	I g a	-0.22396652
-0.86092895	a g a	-0.4946897
-0.62108207	N g a	-0.2685697
-0.8525544	u g a	-0.37099755
-0.960689	i g a	-0.45088014
-0.92057484	s g a	-0.22396652
-0.80329657	e g a	-0.4875031
-0.33295035	d g a	-0.22396652
-0.8375045	n g a	-0.61981547
-0.8103852	m g a	-0.39412832
-0.8804381	r g a	-0.22396652
-0.75869864	o g a	-0.36299405
-0.99051845	q g a	-0.22396652
-0.90234214	g g a	-0.25927505
-0.23339558	M g a	-0.28354812
-0.82588047	<s> x a	-0.2685697
-0.3098226	G x a	-0.22396652
-0.53960574	I x a	-0.22396652
-0.63125646	a x a	-0.5028284
-0.7532334	u x a	-0.33251143
-0.6756371	i x a	-0.43097082
-0.62844586	e x a	-0.4117665
-0.22213279	k x a	-0.2685697
-0.6825604	n x a	-0.44902575
-0.6088753	o x a	-0.41586497
-0.74678946	g x a	-0.2993717
-0.6545077	U x a	-0.22396652
-0.7451445	<s> C a	-0.2685697
-0.5558502	I C a	-0.22396652
-0.6757945	a C a	-0.22396652
-0.65945774	u C a	-0.22396652
-0.5525174	i C a	-0.35262355
-0.52693266	e C a	-0.413624
-0.3193191	o C a	-0.22396652
-0.91751987	<s> W a	-0.22396652
-0.4181842	e W a	-0.22396652
-1.0883034	<s> T a	-0.22396652
-0.64710784	a T a	-0.22396652
-1.1519642	i T a	-0.22396652
-1.1543485	<s> F a	-0.22396652
-1.0055819	e F a	-0.22396652
-0.6327705	o F a	-0.22396652
-0.9194449	<s> Z a	-0.28451693
-0.6022463	I Z a	-0.22396652
-0.6905669	a Z a	-0.22396652
-0.6091878	i Z a	-0.22396652
-1.1097993	e Z a	-0.22396652
-0.28540936	m Z a	-0.22396652
-0.49894425	o Z a	-0.22396652
-0.2727159	<s> M a	-0.55178463
-0.9063913	I M a	-0.22396652
-0.2952303	a M a	-0.40229106
-1.074995	u M a	-0.29197502
-0.8109866	i M a	-0.30262202
-0.8347448	e M a	-0.3249868
-0.6039118	m M a	-0.22396652
-1.0775536	o M a	-0.28354812
-1.3780555	<s> K a	-0.3756934
-1.1238313	a K a	-0.22396652
-1.3689338	e K a	-0.22396652
-0.6709014	<s> Y a	-0.29651216
-0.34555042	a Y a	-0.22396652
-0.737869	e Y a	-0.22396652
-0.74188364	<s> H a	-0.22396652
-1.1862788	e H a	-0.22396652
-0.34705412	a V a	-0.22396652
-0.34705412	u V a	-0.22396652
-0.8575038	<s> X a	-0.22396652
-0.59948105	<s> Q a	-0.22396652
-0.670325	u Q a	-0.22396652
-1.0765588	i Q a	-0.22396652
-0.54261345	<s> j a	-0.41274312
-0.5495611	a j a	-0.4423167
-0.65016365	u j a	-0.3176551
-0.69780684	i j a	-0.35126886
-0.3216768	w j a	-0.22396652
-0.55307794	e j a	-0.31013504
-0.77261615	n j a	-0.54953086
-0.63674384	m j a	-0.29771027
-0.8778182	o j a	-0.22396652
-1.1497024	<s> R a	-0.22396652
-0.7955406	<s> J a	-0.31828362
-0.2558706	a J a	-0.22396652
-0.18676043	e J a	-0.22396652
-0.2558706	o J a	-0.22396652
-1.6563523	S A N	-0.22396652
-0.84176695	P A N	-0.22396652
-0.38407883	S B N	-0.22396652
-1.4220811	<s> I N	-0.31902155
-0.921171	I I N	-0.22396652
-0.91285694	C I N	-0.22396652
-0.921171	Z I N	-0.22396652
-3.6277194	<s> a N	-0.22396652
-2.0689266	b a N	-0.31828362
-2.638048	w a N	-0.22396652
-2.0637894	m a N	-0.22396652
-2.0365758	y a N	-0.22396652
-2.629606	<s> u N	-0.36061397
-2.029937	b u N	-0.22396652
-2.1673539	k u N	-0.25927505
-2.3602748	l u N	-0.22396652
-2.1377838	g u N	-0.22396652
-2.1488507	<s> i N	-0.39748794
-1.4355427	I i N	-0.22396652
-1.4007859	i i N	-0.26338148
-1.925161	s i N	-0.29651216
-1.8698465	w i N	-0.24889061
-2.0425766	c i N	-0.22396652
-2.0606058	l i N	-0.22396652
-2.113797	m i N	-0.22396652
-1.6748737	y i N	-0.25927505
-2.2646978	z i N	-0.22396652
-2.678518	<s> e N	-0.3060539
-2.1432579	b e N	-0.22396652
-1.9725204	s e N	-0.22396652
-1.9860895	w e N	-0.32621676
-1.1093811	e e N	-0.5467896
-2.2145808	l e N	-0.22396652
-2.1047094	n e N	-0.22396652
-1.9239435	y e N	-0.24322698
-1.7861615	z e N	-0.24889061
-2.1581502	g e N	-0.22396652
-2.487414	a m N	-0.22396652
-2.0666833	u m N	-0.22396652
-2.3210564	e m N	-0.22396652
-2.4842832	o m N	-0.22396652
-3.2651134	<s> o N	-0.22396652
-2.0463386	b o N	-0.22396652
-2.057547	s o N	-0.22396652
-1.6157802	w o N	-0.22396652
-2.1085114	k o N	-0.22396652
-2.235135	l o N	-0.22396652
-2.0836425	n o N	-0.22396652
-2.1713855	y o N	-0.22396652
-2.1181982	z o N	-0.22396652
-1.6353463	o o N	-0.31828362
-0.84156543	A C N	-0.22396652
-0.66912705	W E N	-0.22396652
-0.72354233	Y E N	-0.22396652
-1.5719811	<s> F N	-0.22396652
-1.9915924	<s> U N	-0.22396652
-0.63308895	i U N	-0.22396652
-0.36243492	e U N	-0.22396652
-0.25514358	F U N	-0.31828362
-2.0823765	<s> A t	-0.22396652
-1.1608468	<s> S t	-0.39683634
-0.89122605	a S t	-0.22396652
-1.5536338	i S t	-0.22396652
-2.3433163	<s> I t	-0.22396652
-1.983557	a b t	-0.22396652
-0.6779302	n b t	-0.22396652
-1.8180045	<s> a t	-0.82859737
-1.2209941	B a t	-0.31828362
-0.73305625	S a t	-0.413624
-1.0576371	G a t	-0.22396652
-1.2464919	b a t	-0.43504363
-1.2271339	a a t	-0.22396652
-0.87302697	N a t	-0.25927505
-0.79304713	t a t	-0.47042087
-1.1999345	P a t	-0.22396652
-1.2090365	h a t	-0.56874985
-1.1804903	i a t	-0.31828362
-1.2905521	s a t	-0.4015165
-1.3243642	w a t	-0.4421753
-1.2723749	e a t	-0.22396652
-1.3299755	k a t	-0.4928052
-1.033759	c a t	-0.35147607
-1.473408	d a t	-0.22396652
-1.4149039	l a t	-0.44181406
-1.6554576	f a t	-0.22396652
-1.5103803	n a t	-0.2531873
-1.2931654	m a t	-0.43097082
-1.2724444	y a t	-0.43099263
-1.0201657	p a t	-0.33856013
-0.8739791	r a t	-0.41242892
-1.4873481	z a t	-0.29771027
-1.225072	q a t	-0.33856013
-1.6957744	v a t	-0.22396652
-1.400831	g a t	-0.33790484
-1.6574564	x a t	-0.22396652
-1.2940806	C a t	-0.22396652
-0.8468396	Z a t	-0.31828362
-0.89856964	M a t	-0.3744723
-1.4613904	j a t	-0.31828362
-2.0443618	<s> N t	-0.22396652
-1.0709326	I N t	-0.22396652
-1.0813673	a N t	-0.22396652
-0.76733977	u N t	-0.22396652
-0.9423023	i N t	-0.28451693
-0.79448074	e N t	-0.39838102
-0.42398304	m N t	-0.35262355
-1.8969495	a t t	-0.22396652
-0.92994434	h t t	-0.22396652
-1.875382	i t t	-0.31828362
-1.6048422	e t t	-0.35262355
-1.9390042	n t t	-0.22396652
-2.018513	o t t	-0.22396652
-1.6466745	<s> u t	-0.8991593
-0.35959715	A u t	-0.22396652
-1.270663	B u t	-0.22396652
-0.9512854	S u t	-0.22396652
-0.35959715	O u t	-0.22396652
-0.97562265	L u t	-0.28451693
-1.1719472	b u t	-0.45063528
-0.8267428	a u t	-0.22396652
-1.210968	t u t	-0.22396652
-1.0626564	h u t	-0.515273
-1.048164	s u t	-0.65365356
-1.2003022	w u t	-0.4928052
-1.0577389	e u t	-0.22396652
-1.4035381	k u t	-0.5461338
-0.82064	c u t	-0.41957036
-1.2052325	l u t	-0.63277173
-1.0684991	f u t	-0.5287148
-1.048416	m u t	-0.559752
-1.0747827	y u t	-0.35262355
-1.2064108	p u t	-0.2685697
-0.8023078	o u t	-0.28451693
-1.383514	q u t	-0.35262355
-1.132866	v u t	-0.5744723
-1.4252095	g u t	-0.25927505
-1.1525611	x u t	-0.22396652
-0.8937743	F u t	-0.31828362
-1.0221245	K u t	-0.22396652
-1.209148	j u t	-0.22396652
-1.7963829	<s> h t	-0.35262355
-2.027637	a h t	-0.22396652
-1.7621297	t h t	-0.31828362
-1.7126011	g h t	-0.22396652
-1.5962769	<s> i t	-0.77928615
-1.269392	S i t	-0.28451693
-1.2458904	I i t	-0.22396652
-1.2123399	D i t	-0.22396652
-1.2203429	L i t	-0.22396652
-1.2671123	b i t	-0.29651216
-1.3349341	a i t	-0.22396652
-1.0211256	t i t	-0.5006321
-0.3658883	P i t	-0.22396652
-1.2565955	h i t	-0.3326696
-1.5430299	i i t	-0.22396652
-1.2561792	s i t	-0.5201402
-1.4150937	w i t	-0.3756934
-1.1025833	k i t	-0.36458802
-1.3017796	c i t	-0.22396652
-1.2127177	d i t	-0.34378067
-1.3246351	l i t	-0.44902575
-1.7216206	f i t	-0.22396652
-1.0771176	n i t	-0.29651216
-1.1067768	m i t	-0.41242892
-1.2572147	y i t	-0.43481585
-1.0520401	p i t	-0.22396652
-0.86957794	r i t	-0.2927157
-1.4115202	z i t	-0.4253201
-1.605607	q i t	-0.22396652
-1.326118	v i t	-0.28451693
-1.2981981	g i t	-0.3744723
-0.7898986	C i t	-0.22396652
-0.6395514	T i t	-0.22396652
-1.4047374	Z i t	-0.22396652
-1.0349548	M i t	-0.28451693
-0.3658883	X i t	-0.22396652
-3.029284	<s> s t	-0.31828362
-0.7665496	b s t	-0.22396652
-1.2291042	a s t	-0.27533266
-1.5080227	u s t	-0.22396652
-1.3652998	i s t	-0.3060539
-1.2155132	e s t	-0.26786906
-1.314418	n s t	-0.31828362
-0.4137575	y s t	-0.31828362
-0.6229059	p s t	-0.22396652
-1.5119708	o s t	-0.22396652
-1.0336038	E s t	-0.22396652
-1.9691632	o w t	-0.22396652
-1.834037	<s> e t	-0.910999
-1.258461	B e t	-0.22396652
-0.87342954	S e t	-0.47756228
-1.2287425	b e t	-0.49891666
-1.1630985	t e t	-0.31723654
-1.1808188	P e t	-0.22396652
-1.1006385	h e t	-0.60058707
-1.3210293	s e t	-0.484249
-1.2938515	w e t	-0.4562088
-1.8137857	e e t	-0.22396652
-1.0325681	k e t	-0.3808027
-1.2408489	c e t	-0.413624
-1.1610248	l e t	-0.40125874
-1.1827761	f e t	-0.22396652
-1.2771887	n e t	-0.38024426
-1.2483836	m e t	-0.4928052
-1.332165	y e t	-0.38366395
-1.0381489	p e t	-0.29771027
-1.419497	r e t	-0.22396652
-1.3614035	z e t	-0.29651216
-0.9151186	o e t	-0.22396652
-1.4100643	v e t	-0.22396652
-1.4750721	g e t	-0.28354812
-1.107423	C e t	-0.22396652
-0.8116407	F e t	-0.22396652
-1.1549214	M e t	-0.22396652
-0.9289822	O k t	-0.22396652
-2.2413025	a k t	-0.22396652
-1.2263999	s k t	-0.22396652
-1.9186916	e k t	-0.22396652
-2.1535556	o k t	-0.22396652
-0.96177065	A c t	-0.22396652
-1.4524224	a c t	-0.28451693
-1.8855953	i c t	-0.22396652
-1.1198442	e c t	-0.25927505
-0.95117307	l c t	-0.22396652
-1.6803043	n c t	-0.22396652
-1.0271916	r c t	-0.22396652
-1.417378	o c t	-0.22396652
-1.8653681	a l t	-0.28451693
-2.000264	u l t	-0.22396652
-1.7861499	i l t	-0.28451693
-2.3184314	e l t	-0.22396652
-2.24201	o l t	-0.22396652
-2.0081239	a f t	-0.22396652
-2.0376885	i f t	-0.22396652
-2.1311076	<s> n t	-0.6104794
-0.8741573	A n t	-0.22396652
-1.0261225	I n t	-0.25927505
-0.6229921	b n t	-0.22396652
-1.1398028	a n t	-0.66034025
-1.1322366	u n t	-0.43130755
-1.1608666	i n t	-0.6483382
-1.0997609	e n t	-0.7550805
-0.8639781	n n t	-0.22396652
-1.1023755	m n t	-0.43147972
-0.76666963	y n t	-0.22396652
-1.1420784	o n t	-0.39753738
-0.8614467	E n t	-0.22396652
-1.149969	M n t	-0.22396652
-1.6820662	<s> m t	-0.5280364
-1.1057429	I m t	-0.22396652
-1.4580929	a m t	-0.5275673
-1.650618	u m t	-0.3678665
-1.4431326	i m t	-0.48664373
-1.6403762	e m t	-0.413624
-1.428852	o m t	-0.6688965
-1.3511027	U m t	-0.22396652
-1.902764	o y t	-0.22396652
-1.9519427	m p t	-0.22396652
-0.3762079	A r t	-0.22396652
-1.5311158	a r t	-0.2685697
-1.6040033	u r t	-0.22396652
-1.133707	e r t	-0.31902155
-1.5215355	o r t	-0.2685697
-2.3007362	a z t	-0.22396652
-1.6369436	<s> o t	-0.7969491
-0.67273223	B o t	-0.28451693
-0.904331	O o t	-0.22396652
-1.3579746	b o t	-0.31671396
-0.96223897	t o t	-0.3756934
-1.1661574	h o t	-0.41242892
-1.5109304	s o t	-0.31671396
-1.4671539	w o t	-0.22396652
-1.1781774	k o t	-0.36614966
-1.0030929	c o t	-0.47756228
-1.1791836	l o t	-0.36018082
-1.1886389	n o t	-0.5053969
-1.1194477	m o t	-0.3060539
-1.2179356	y o t	-0.5289642
-0.8526406	p o t	-0.38366395
-1.4954705	r o t	-0.22396652
-1.3697702	z o t	-0.4421753
-0.8294778	o o t	-0.5053969
-1.139549	q o t	-0.5744723
-1.044512	v o t	-0.2685697
-1.2912506	g o t	-0.36061397
-1.6530575	x o t	-0.22396652
-0.9292089	C o t	-0.31828362
-1.2063017	Z o t	-0.22396652
-1.386453	j o t	-0.22396652
-1.3939047	e x t	-0.22396652
-1.8222268	o x t	-0.22396652
-1.6856079	<s> M t	-0.22396652
-1.1442484	u M t	-0.35262355
-1.6369127	e M t	-0.22396652
-0.6333872	m M t	-0.22396652
-0.9027608	o M t	-0.5426801
-1.1190481	U M t	-0.22396652
-1.745757	<s> U t	-0.29651216
-0.14892928	C Ã t	-0.22396652
-2.0085196	<s> A u	-0.22396652
-1.0096043	<s> B u	-0.22396652
-0.69747925	u B u	-0.2685697
-1.1427969	i B u	-0.22396652
-1.1343129	e B u	-0.28451693
-0.37675294	o B u	-0.37192824
-1.9919648	<s> S u	-0.22396652
-1.450969	i S u	-0.22396652
-1.3849235	e S u	-0.31828362
-1.1913621	o S u	-0.22396652
-0.8616556	<s> G u	-0.22396652
-0.7221378	a G u	-0.22396652
-0.7057156	u G u	-0.22396652
-0.8250975	i G u	-0.22396652
-0.50174016	o G u	-0.31828362
-1.7566518	<s> O u	-0.22396652
-1.5416648	<s> D u	-0.22396652
-0.6503855	a D u	-0.22396652
-0.5227685	<s> L u	-0.24126203
-0.39332446	a L u	-0.28451693
-0.7002872	u L u	-0.22396652
-0.68587846	i L u	-0.28451693
-0.9197422	e L u	-0.31828362
-0.31688887	m L u	-0.22396652
-0.57137287	o L u	-0.565825
-0.81491584	U L u	-0.22396652
-1.0202357	<s> b u	-0.7530672
-0.5759163	O b u	-0.22396652
-0.79626584	a b u	-0.6975398
-0.86478543	u b u	-0.49204156
-0.88667625	i b u	-0.5597503
-0.7024428	s b u	-0.22396652
-0.93250024	e b u	-0.38504
-0.84965724	m b u	-0.47999483
-0.8492155	o b u	-0.6471574
-0.93181854	M b u	-0.28451693
-0.7024428	U b u	-0.22396652
-3.2594366	<s> a u	-0.22396652
-1.1946884	G a u	-0.22396652
-1.249176	u a u	-0.22396652
-2.2926996	s a u	-0.22396652
-1.488665	e a u	-0.22396652
-2.0697184	l a u	-0.22396652
-1.3898431	<s> t u	-0.22396652
-1.0516218	S t u	-0.22396652
-1.4792174	a t u	-0.22396652
-0.8635093	N t u	-0.35262355
-1.3099017	u t u	-0.22396652
-1.3596792	i t u	-0.2927157
-1.420341	s t u	-0.22396652
-1.4756801	e t u	-0.22396652
-0.79767156	c t u	-0.28451693
-1.0516218	l t u	-0.22396652
-0.9259002	n t u	-0.4747137
-1.008291	m t u	-0.28451693
-0.34818688	p t u	-0.22396652
-1.755916	o t u	-0.22396652
-3.3254213	<s> u u	-0.22396652
-1.8622646	z u u	-0.22396652
-1.3608371	<s> P u	-0.22396652
-0.98846674	<s> h u	-0.31671396
-0.4569001	B h u	-0.48468813
-0.6646956	S h u	-0.31828362
-0.79731447	b h u	-0.4211442
-0.98366463	a h u	-0.2774946
-0.83784443	t h u	-0.5652492
-1.1662129	u h u	-0.22396652
-0.6720776	P h u	-0.31723654
-0.8971683	h h u	-0.22396652
-0.96699744	i h u	-0.29771027
-0.8243128	s h u	-0.491455
-1.2362738	e h u	-0.22396652
-0.7920738	k h u	-0.59099925
-0.9576574	c h u	-0.3060539
-0.37459865	l h u	-0.31828362
-0.85407835	m h u	-0.22396652
-0.89586306	y h u	-0.22396652
-0.7368581	p h u	-0.66263807
-0.56308806	r h u	-0.4426402
-1.1831263	o h u	-0.22396652
-0.62876165	q h u	-0.53584033
-0.66360724	g h u	-0.43159842
-0.6948699	x h u	-0.45365354
-0.8089922	T h u	-0.22396652
-0.6984066	K h u	-0.31749806
-0.7655639	Q h u	-0.22396652
-0.2902169	R h u	-0.5744723
-2.2402697	n i u	-0.22396652
-2.3366976	<s> s u	-0.29651216
-1.0741515	a s u	-0.50829667
-1.4448398	t s u	-0.25927505
-1.0952979	u s u	-0.29549554
-1.3129504	i s u	-0.48805788
-1.1106731	e s u	-0.42608234
-0.9220274	n s u	-0.41708276
-0.9986911	m s u	-0.33790484
-1.3857883	o s u	-0.33251143
-2.0854752	<s> w u	-0.27954745
-0.60404366	a w u	-0.524768
-0.83174235	u w u	-0.29234523
-1.0616946	i w u	-0.31830183
-0.7009828	e w u	-0.37556717
-1.6530517	l w u	-0.22396652
-1.3690059	n w u	-0.22396652
-0.7289308	o w u	-0.26454353
-3.5936399	<s> e u	-0.22396652
-2.2087169	s e u	-0.22396652
-2.0301726	k e u	-0.22396652
-1.9854776	c e u	-0.22396652
-2.2299004	l e u	-0.22396652
-2.1204445	n e u	-0.22396652
-2.0706975	m e u	-0.22396652
-0.3750678	<s> k u	-1.5455464
-0.59279007	A k u	-0.22396652
-0.81040686	O k u	-0.22396652
-0.818543	a k u	-0.7254587
-0.9546015	N k u	-0.31723654
-0.71546465	u k u	-0.5719644
-1.0678095	i k u	-0.48750973
-1.0482216	e k u	-0.42060518
-0.9390877	n k u	-0.44902575
-0.34036192	y k u	-0.22396652
-0.8984964	o k u	-0.7213005
-0.59279007	E k u	-0.22396652
-0.81040686	U k u	-0.22396652
-1.5205379	<s> c u	-0.22396652
-1.0537039	a c u	-0.35842016
-1.0775464	N c u	-0.22396652
-0.8410263	u c u	-0.2685697
-1.2543391	i c u	-0.31902155
-1.3089429	e c u	-0.22396652
-0.69649273	k c u	-0.31828362
-0.7199911	c c u	-0.22396652
-0.8637035	l c u	-0.22396652
-0.9691495	n c u	-0.28451693
-0.87435365	m c u	-0.47756228
-1.054458	o c u	-0.22396652
-1.0752741	g c u	-0.29651216
-0.80636555	<s> d u	-0.33790484
-0.99619323	a d u	-0.4273506
-0.7599433	u d u	-0.44128248
-1.111231	i d u	-0.37629208
-1.1321309	e d u	-0.29711083
-0.9641289	n d u	-0.41544914
-0.946868	m d u	-0.31828365
-1.1235079	o d u	-0.413624
-0.34157524	E d u	-0.22396652
-0.34157524	M d u	-0.22396652
-0.8850546	<s> l u	-0.9532459
-0.8796654	A l u	-0.22396652
-0.33831537	B l u	-0.22396652
-0.97544205	O l u	-0.22396652
-0.9088904	I l u	-0.22396652
-0.81067115	b l u	-0.22396652
-0.89728826	a l u	-0.55725485
-0.93782824	t l u	-0.22396652
-0.8750837	u l u	-0.62511027
-0.8596125	h l u	-0.5309483
-1.0101527	i l u	-0.49172527
-1.1105405	e l u	-0.42685044
-1.0489722	k l u	-0.22396652
-0.76316786	d l u	-0.4349998
-0.8909157	m l u	-0.31671396
-0.9719195	o l u	-0.48051342
-1.2371358	H l u	-0.22396652
-0.589137	U l u	-0.22396652
-0.49219602	<s> f u	-0.45752397
-0.50585973	a f u	-0.595154
-0.5378365	t f u	-0.22396652
-0.50969803	u f u	-0.43715727
-0.7770884	i f u	-0.50591266
-0.3087794	w f u	-0.22396652
-0.73832476	e f u	-0.35631987
-0.57758087	m f u	-0.44577006
-0.3087794	r f u	-0.22396652
-0.7578038	o f u	-0.3744723
-0.3087794	g f u	-0.22396652
-0.47493377	M f u	-0.2685697
-3.399391	<s> n u	-0.22396652
-1.7111715	a n u	-0.30262202
-0.6510685	t n u	-0.22396652
-1.3716172	u n u	-0.37929422
-2.3137898	i n u	-0.22396652
-1.6029019	e n u	-0.5006321
-1.40911	m n u	-0.29651216
-0.9051501	M n u	-0.31828362
-1.3041016	<s> m u	-0.38052335
-1.2064078	a m u	-0.48979703
-1.2958127	u m u	-0.37072083
-1.3121748	i m u	-0.37918273
-1.22674	e m u	-0.3869429
-1.4218826	m m u	-0.22396652
-1.2839177	o m u	-0.56600225
-2.6600132	<s> y u	-0.2685697
-0.78953695	N y u	-0.31828362
-1.0686564	t y u	-0.38418332
-0.95054406	h y u	-0.22396652
-1.189709	i y u	-0.28451693
-1.0898626	e y u	-0.31723654
-0.8926348	n y u	-0.45990404
-1.3296777	m y u	-0.22396652
-0.34390283	p y u	-0.22396652
-1.3567741	o y u	-0.22396652
-1.2233052	<s> p u	-0.25544885
-1.5199502	a p u	-0.22396652
-1.3292273	i p u	-0.22396652
-1.1082393	e p u	-0.35049492
-0.87303424	m p u	-0.34480077
-0.8039826	M p u	-0.31828362
-0.65445966	b r u	-0.22396652
-1.3230922	t r u	-0.22396652
-1.5782447	u r u	-0.22396652
-1.1717807	h r u	-0.22396652
-1.7216105	o r u	-0.22396652
-2.9286766	<s> z u	-0.22396652
-0.92809755	a z u	-0.526961
-0.23643912	N z u	-0.31671396
-1.0719382	u z u	-0.36969295
-1.0289153	i z u	-0.45776048
-1.0648926	e z u	-0.4631555
-0.84513503	n z u	-0.48468813
-0.80332243	m z u	-0.3326696
-1.1825734	o z u	-0.2685697
-3.1625924	<s> o u	-0.22396652
-1.0951241	S o u	-0.31828362
-1.3207351	L o u	-0.22396652
-1.3873547	i o u	-0.22396652
-1.6011025	s o u	-0.28451693
-1.8644197	c o u	-0.22396652
-1.7458757	f o u	-0.22396652
-1.6380447	r o u	-0.22396652
-0.8330182	T o u	-0.22396652
-1.3540437	M o u	-0.22396652
-0.8330182	R o u	-0.22396652
-1.1536907	J o u	-0.22396652
-1.0101938	<s> q u	-0.25927505
-0.5339988	I q u	-0.22396652
-0.8275488	a q u	-0.38713467
-0.7400052	N q u	-0.22396652
-0.5559844	u q u	-0.50480604
-0.82017595	i q u	-0.49051714
-0.8429378	e q u	-0.4104555
-0.3644469	k q u	-0.28451693
-0.30651057	c q u	-0.22396652
-0.6611099	n q u	-0.4088341
-0.67322886	m q u	-0.44088623
-0.9642536	o q u	-0.22396652
-0.83425033	g q u	-0.34343478
-0.5530953	M q u	-0.31828362
-0.30651057	j q u	-0.22396652
-0.75713885	<s> v u	-0.2838708
-0.5366796	a v u	-0.607571
-0.62375045	u v u	-0.42424914
-0.6657333	i v u	-0.5279822
-0.6171288	e v u	-0.40507424
-0.60545504	m v u	-0.45501667
-0.3097273	y v u	-0.22396652
-0.7188061	o v u	-0.32451224
-0.3097273	j v u	-0.22396652
-0.539444	U v u	-0.22396652
-1.0417174	<s> g u	-0.3621686
-0.75507987	I g u	-0.22396652
-1.0550022	a g u	-0.42398202
-1.1623162	N g u	-0.22396652
-0.9895389	u g u	-0.33290768
-1.0308086	i g u	-0.42480487
-0.8602292	e g u	-0.4117665
-1.0934527	n g u	-0.46581715
-1.3160427	m g u	-0.31828362
-0.9403108	o g u	-0.44357163
-0.6146357	U g u	-0.22396652
-0.54268736	<s> x u	-0.24569577
-1.5276821	a x u	-0.22396652
-0.5024547	N x u	-0.31828362
-1.0901915	u x u	-0.28451693
-1.3072522	i x u	-0.29771027
-1.3845257	e x u	-0.22396652
-0.6415782	n x u	-0.48894405
-0.68977004	g x u	-0.4426402
-1.5302694	<s> T u	-0.22396652
-1.2876343	e T u	-0.22396652
-0.7408603	<s> F u	-0.2685697
-0.3129628	a F u	-0.22396652
-0.22414467	u F u	-0.28451693
-0.44421571	i F u	-0.28451693
-0.8212365	e F u	-0.22396652
-0.3129628	m F u	-0.22396652
-1.1034232	i Z u	-0.22396652
-1.4314637	e Z u	-0.22396652
-1.4216878	i M u	-0.22396652
-0.39362758	<s> K u	-0.5324567
-0.86538136	u K u	-0.22396652
-1.2843848	e K u	-0.22396652
-1.2097555	o K u	-0.22396652
-0.316819	i Y u	-0.22396652
-0.6701341	e Y u	-0.22396652
-0.316819	m Y u	-0.22396652
-0.8850186	o Y u	-0.22396652
-1.2574918	<s> H u	-0.22396652
-0.994878	<s> V u	-0.22396652
-0.60582983	i V u	-0.22396652
-0.85922855	<s> X u	-0.22396652
-0.3017616	I Q u	-0.22396652
-0.3017616	a Q u	-0.22396652
-0.6810593	i Q u	-0.31828362
-0.49559474	e Q u	-0.28451693
-0.8656192	o Q u	-0.22396652
-1.0808951	<s> j u	-0.2531873
-0.89152294	a j u	-0.29651216
-0.57848597	u j u	-0.38888505
-0.986851	i j u	-0.40848687
-0.95658046	e j u	-0.2531873
-1.2580068	n j u	-0.28451693
-0.8268051	m j u	-0.2685697
-1.2662736	<s> J u	-0.22396652
-1.6722983	S A P	-0.22396652
-0.85091126	A S P	-0.22396652
-2.2916682	<s> I P	-0.22396652
-0.94615155	Z I P	-0.22396652
-0.3801955	J I P	-0.22396652
-0.37442157	G D P	-0.22396652
-0.9197786	N D P	-0.22396652
-0.37442157	R D P	-0.22396652
-3.6185534	<s> a P	-0.22396652
-2.0646374	b a P	-0.31828362
-2.4336624	l a P	-0.22396652
-2.366304	m a P	-0.22396652
-2.3443985	g a P	-0.22396652
-3.1989694	<s> u P	-0.35262355
-2.2303154	k u P	-0.31828362
-2.6728199	<s> i P	-0.28451693
-1.464483	I i P	-0.22396652
-1.9594523	s i P	-0.29651216
-2.1950636	w i P	-0.22396652
-2.3779418	l i P	-0.22396652
-2.322426	y i P	-0.22396652
-1.7380038	z i P	-0.47756228
-2.8867273	<s> e P	-0.4928052
-2.2761908	s e P	-0.22396652
-2.181178	w e P	-0.22396652
-2.1480274	e e P	-0.22396652
-2.1838138	n e P	-0.22396652
-2.2323215	y e P	-0.22396652
-2.1069725	z e P	-0.22396652
-2.4401655	i m P	-0.22396652
-3.1007733	<s> o P	-0.31828362
-2.1402	b o P	-0.22396652
-2.3452055	l o P	-0.22396652
-2.1963487	n o P	-0.22396652
-2.2836106	y o P	-0.22396652
-1.9467529	z o P	-0.31828362
-1.1321536	n v P	-0.22396652
-0.834088	G C P	-0.22396652
-0.37986016	V C P	-0.22396652
-0.37656745	P W P	-0.22396652
-1.7081904	<s> E P	-0.22396652
-0.26602378	N E P	-0.31828362
-1.963092	<s> M P	-0.22396652
-0.37902737	B H P	-0.22396652
-0.37932375	I R P	-0.22396652
-1.2026843	<s> B h	-0.22396652
-0.3127559	I B h	-0.22396652
-1.0523953	a B h	-0.22396652
-0.88191015	u B h	-0.22396652
-0.43358925	i B h	-0.3756934
-0.548938	e B h	-0.39838102
-0.5920964	o B h	-0.5744723
-1.9577777	<s> S h	-0.22396652
-1.1698992	a S h	-0.22396652
-1.4042555	i S h	-0.22396652
-1.3608805	e S h	-0.22396652
-0.6651977	o S h	-0.35262355
-1.456374	<s> G h	-0.22396652
-1.4722234	<s> b h	-0.85777354
-0.71898305	I b h	-0.22396652
-0.9031352	a b h	-0.77271247
-0.9125004	u b h	-0.67854166
-0.8227097	i b h	-0.75202787
-0.74266624	e b h	-0.7514593
-0.85755	m b h	-0.44149235
-0.82091177	o b h	-0.62369037
-0.949822	M b h	-0.28451693
-0.71898305	U b h	-0.22396652
-1.8838272	<s> a h	-0.94510293
-1.5298041	B a h	-0.22396652
-1.1013999	S a h	-0.28451693
-1.4834064	b a h	-0.4144081
-1.8117235	t a h	-0.22396652
-1.5018418	h a h	-0.30262202
-1.3897195	s a h	-0.48664373
-1.5219436	w a h	-0.4709793
-1.3708806	k a h	-0.41708276
-1.8613019	c a h	-0.22396652
-1.874101	d a h	-0.22396652
-1.2686638	l a h	-0.57146734
-1.7507149	f a h	-0.22396652
-1.8922541	n a h	-0.22396652
-1.474543	m a h	-0.38418332
-1.5575837	y a h	-0.38418332
-1.3174552	p a h	-0.28451693
-1.6506073	r a h	-0.22396652
-1.5489928	z a h	-0.31671396
-1.9626399	g a h	-0.22396652
-1.4315964	M a h	-0.31828362
-1.0837345	j a h	-0.31749806
-2.3705356	<s> N h	-0.22396652
-0.29868543	<s> t h	-0.9486094
-0.34231284	A t h	-0.22396652
-0.6992389	a t h	-0.84180516
-1.0193	t t h	-0.22396652
-0.47081786	u t h	-0.8591713
-0.68952185	i t h	-0.9345255
-0.34231284	w t h	-0.22396652
-0.7614959	e t h	-0.86509407
-0.7047294	k t h	-0.31828362
-0.7536531	l t h	-0.2685697
-1.4794657	n t h	-0.22396652
-0.5605382	m t h	-0.5744723
-0.92129314	r t h	-0.22396652
-0.6560904	o t h	-0.81502277
-0.15576491	M t h	-0.5006321
-0.72992253	U t h	-0.22396652
-1.798626	<s> u h	-0.9982687
-1.3940197	B u h	-0.22396652
-1.1960224	L u h	-0.31828362
-1.3238218	b u h	-0.4708141
-0.81441605	u u h	-0.22396652
-1.3332711	h u h	-0.41957036
-1.823826	s u h	-0.22396652
-1.2556478	w u h	-0.38418332
-1.4124995	k u h	-0.510661
-1.356876	l u h	-0.5390853
-1.8451855	f u h	-0.22396652
-1.290087	m u h	-0.47756228
-1.5546391	p u h	-0.22396652
-1.8507031	g u h	-0.22396652
-1.0935913	K u h	-0.31828362
-0.8026945	<s> P h	-0.5744723
-0.239838	a P h	-0.29651216
-0.23027612	u P h	-0.31828362
-0.4762506	i P h	-0.3897337
-0.90638447	e P h	-0.22396652
-0.08944177	o P h	-0.4421753
-1.0248865	<s> h h	-0.3962087
-1.4739317	a h h	-0.29771027
-1.3991914	u h h	-0.28451693
-1.1972473	i h h	-0.47756228
-1.4645227	e h h	-0.28451693
-1.5117828	m h h	-0.22396652
-1.8448045	<s> i h	-0.7301454
-1.1987102	S i h	-0.35262355
-1.8650404	b i h	-0.22396652
-1.7924038	h i h	-0.31828362
-1.712687	i i h	-0.22396652
-1.6015583	s i h	-0.41606262
-1.9465197	w i h	-0.22396652
-1.8363996	k i h	-0.22396652
-1.4270616	l i h	-0.48468813
-1.1554792	f i h	-0.4928052
-1.7368592	n i h	-0.28451693
-1.6181338	m i h	-0.31671396
-1.5137318	y i h	-0.38366076
-1.7124454	r i h	-0.22396652
-1.4691756	z i h	-0.4250045
-1.7509208	g i h	-0.25927505
-1.5386292	M i h	-0.22396652
-1.6613109	<s> s h	-0.68361676
-0.96165425	I s h	-0.22396652
-0.77704155	a s h	-0.8966916
-0.5836875	t s h	-0.74730057
-0.832519	u s h	-0.65365356
-0.91383606	i s h	-0.84994817
-0.81507266	e s h	-0.7601089
-0.60784584	c s h	-0.22396652
-0.77082723	m s h	-0.41516343
-0.7617424	y s h	-0.22396652
-0.72620165	o s h	-0.72868484
-0.34142599	T s h	-0.4117665
-0.85029566	M s h	-0.22396652
-3.488322	<s> w h	-0.22396652
-1.769887	<s> e h	-1.0878974
-1.3299345	b e h	-0.5426801
-1.4908129	h e h	-0.33856013
-1.5083712	s e h	-0.4117665
-1.5176613	w e h	-0.45580077
-1.7275112	e e h	-0.22396652
-1.3368987	k e h	-0.31671396
-1.415782	l e h	-0.65365356
-1.9336622	n e h	-0.22396652
-1.1887885	m e h	-0.65365356
-1.4557596	y e h	-0.4421753
-1.7825584	p e h	-0.22396652
-1.3077011	z e h	-0.5744723
-2.0037432	g e h	-0.22396652
-0.82579595	V e h	-0.22396652
-1.3527993	j e h	-0.22396652
-1.6276242	<s> k h	-0.95468354
-0.6019722	A k h	-0.22396652
-0.6019722	I k h	-0.22396652
-0.86489457	a k h	-0.9233918
-1.1109704	u k h	-0.565825
-0.811606	i k h	-0.8197332
-0.9484878	e k h	-0.6924105
-1.4378865	n k h	-0.22396652
-0.48526156	m k h	-0.5132174
-0.9021205	o k h	-0.6283691
-0.517445	M k h	-0.31828362
-0.82566804	U k h	-0.22396652
-0.5437503	<s> c h	-0.48979703
-0.9398121	S c h	-0.22396652
-0.5675218	I c h	-0.22396652
-0.77234286	a c h	-0.59125465
-0.32605103	t c h	-0.22396652
-0.8252923	u c h	-0.39247862
-0.9072774	i c h	-0.5651489
-0.38356704	s c h	-0.31828362
-0.73605365	e c h	-0.34604058
-0.8241827	l c h	-0.22396652
-0.74801373	m c h	-0.47756228
-0.32605103	y c h	-0.22396652
-0.89815545	r c h	-0.22396652
-1.028715	o c h	-0.28451693
-0.32605103	x c h	-0.22396652
-0.69124544	E c h	-0.22396652
-2.0601385	<s> d h	-0.22396652
-2.0827255	a d h	-0.22396652
-1.985195	n d h	-0.22396652
-2.4075928	a l h	-0.22396652
-2.380279	u l h	-0.22396652
-0.3875406	T l h	-0.22396652
-2.7074914	<s> n h	-0.87550235
-1.7345196	a n h	-0.5426801
-2.0211694	u n h	-0.31828362
-2.0662286	i n h	-0.31671396
-1.5042549	e n h	-0.5390853
-2.0968957	o n h	-0.31828362
-1.3989427	<s> m h	-0.8276162
-1.4155717	a m h	-0.6809828
-1.6607298	u m h	-0.413624
-1.534531	i m h	-0.4928052
-1.7872312	e m h	-0.2685697
-1.35334	o m h	-0.6440729
-1.3666376	U m h	-0.22396652
-3.459224	<s> y h	-0.22396652
-1.1601515	t y h	-0.30262202
-1.6175928	n y h	-0.22396652
-0.21307097	<s> p h	-1.1562773
-0.8661907	A p h	-0.22396652
-0.70997715	I p h	-0.22396652
-0.4347747	a p h	-0.956164
-0.27579367	u p h	-0.77271247
-0.41504753	i p h	-0.91009605
-0.5410264	e p h	-0.8255949
-0.8368553	m p h	-0.5890394
-0.38902503	o p h	-0.83929014
-0.57910585	M p h	-0.35262355
-0.3340316	U p h	-0.22396652
-0.70183235	<s> r h	-0.22396652
-0.6148264	I r h	-0.22396652
-0.89047855	a r h	-0.36061397
-0.82159626	u r h	-0.3678665
-0.60191125	i r h	-0.3326696
-0.9035908	e r h	-0.8297448
-0.2490534	m r h	-0.28451693
-0.6844138	o r h	-0.6688965
-0.35254672	M r h	-0.22396652
-0.35254672	U r h	-0.22396652
-2.1874557	i z h	-0.22396652
-1.9236612	<s> o h	-0.73584324
-0.55186963	D o h	-0.31828362
-1.54319	b o h	-0.35262355
-1.9032995	h o h	-0.31828362
-1.6973279	s o h	-0.31828362
-1.5293618	w o h	-0.22396652
-1.4677366	k o h	-0.47756228
-1.755489	l o h	-0.2685697
-1.4227996	f o h	-0.31828362
-1.89876	n o h	-0.22396652
-1.4685555	m o h	-0.31828362
-1.45452	y o h	-0.4426402
-1.4068536	z o h	-0.48468813
-1.8523763	q o h	-0.22396652
-1.957911	g o h	-0.22396652
-1.3201604	M o h	-0.22396652
-1.12814	J o h	-0.22396652
-0.6974317	<s> q h	-0.45501667
-0.80991423	a q h	-0.565825
-0.8855583	u q h	-0.44149235
-0.9005218	i q h	-0.5890394
-0.3374031	s q h	-0.22396652
-0.9460312	e q h	-0.3962087
-0.9722678	m q h	-0.22396652
-0.9165007	o q h	-0.3949332
-1.2689852	g q h	-0.2685697
-0.71803284	U q h	-0.22396652
-1.2853631	<s> g h	-0.3686506
-0.3652849	b g h	-0.22396652
-1.1191604	a g h	-0.5139928
-1.0840261	u g h	-0.413624
-1.1026664	i g h	-0.2774946
-1.6431562	e g h	-0.22396652
-1.2363474	o g h	-0.2685697
-1.1290722	q g h	-0.22396652
-1.1929126	<s> x h	-0.31828362
-0.56556517	a x h	-0.5683505
-0.8195535	u x h	-0.3511324
-0.7732847	i x h	-0.41606262
-1.0924385	e x h	-0.25927505
-0.47559693	m x h	-0.3060539
-0.91983783	o x h	-0.4421753
-0.9907997	<s> C h	-0.33856013
-0.73736817	a C h	-0.22396652
-0.7108833	u C h	-0.31828362
-1.0397327	i C h	-0.22396652
-0.83511746	e C h	-0.31828362
-1.2286037	<s> W h	-0.22396652
-0.3639986	k W h	-0.22396652
-0.8487969	<s> T h	-0.22396652
-0.7057888	u T h	-0.29771027
-0.5810828	i T h	-0.22396652
-0.53814054	e T h	-0.2685697
-0.2109993	m T h	-0.35262355
-0.7220117	o T h	-0.22396652
-1.7802147	<s> M h	-0.22396652
-1.3407613	u M h	-0.31828362
-1.733442	e M h	-0.22396652
-1.4159869	o M h	-0.35262355
-1.5804334	<s> K h	-0.28451693
-0.23152456	a K h	-0.30348966
-0.2976895	u K h	-0.2685697
-0.3244321	i K h	-0.41957036
-0.45651788	e K h	-0.33174175
-0.30570516	m K h	-0.22396652
-0.21042484	o K h	-0.5938327
-0.6007754	u X h	-0.22396652
-0.3448093	i X h	-0.22396652
-0.93110853	<s> Q h	-0.22396652
-0.9936623	u Q h	-0.22396652
-0.74010384	e Q h	-0.22396652
-1.2138296	<s> R h	-0.22396652
-0.3037366	a R h	-0.22396652
-0.2844502	u R h	-0.4177414
-0.5169162	e R h	-0.35262355
-0.10477516	o R h	-0.41957036
-0.3037366	U R h	-0.22396652
-2.1333742	<s> U h	-0.31828362
-1.2342108	<s> B i	-0.28451693
-1.2877034	i B i	-0.22396652
-1.5166514	e B i	-0.22396652
-0.24598798	<s> S i	-0.7373086
-1.1520418	I S i	-0.22396652
-0.814379	a S i	-0.31828362
-0.51635617	u S i	-0.22396652
-1.0922099	i S i	-0.2531873
-0.60853916	e S i	-0.44182682
-1.0854163	o S i	-0.22396652
-1.3960717	<s> G i	-0.22396652
-0.8191297	e G i	-0.22396652
-0.7549771	<s> I i	-0.54335517
-0.50965077	<s> D i	-0.2927157
-0.8705868	u D i	-0.22396652
-0.4759505	i D i	-0.28451693
-1.0190227	e D i	-0.22396652
-0.397457	o D i	-0.31828362
-1.1390793	<s> L i	-0.22396652
-1.0544031	u L i	-0.22396652
-0.7464011	i L i	-0.2685697
-0.36213884	e L i	-0.61774397
-1.2137985	o L i	-0.22396652
-2.2207062	<s> b i	-0.26338148
-0.93672943	a b i	-0.6657562
-0.96435094	u b i	-0.41586497
-0.79474926	i b i	-0.563973
-0.73122495	s b i	-0.22396652
-1.0579958	e b i	-0.3748304
-0.86329067	m b i	-0.46555275
-0.9745396	o b i	-0.39900908
-0.96318674	M b i	-0.31828362
-1.4601675	N a i	-0.22396652
-2.1721253	s a i	-0.22396652
-2.0011683	l a i	-0.22396652
-1.8729131	f a i	-0.22396652
-1.6393651	n a i	-0.28451693
-2.1391296	m a i	-0.22396652
-1.8270137	p a i	-0.22396652
-1.1353137	r a i	-0.31828362
-2.139682	g a i	-0.22396652
-1.1162866	H a i	-0.22396652
-0.8380727	R a i	-0.22396652
-1.8804278	<s> N i	-0.28451693
-1.3261149	u N i	-0.22396652
-1.7202693	i N i	-0.22396652
-1.0681287	<s> t i	-0.3005687
-0.7122848	b t i	-0.22396652
-0.77312815	a t i	-0.52129453
-1.0975231	u t i	-0.29197502
-0.9292184	i t i	-0.36321092
-0.7961676	s t i	-0.26338148
-0.9281348	e t i	-0.40507424
-0.95887935	k t i	-0.22396652
-0.7691237	c t i	-0.2685697
-0.998378	l t i	-0.22396652
-0.58324975	f t i	-0.22396652
-1.0115072	n t i	-0.33049732
-1.3238816	m t i	-0.22396652
-0.33500114	y t i	-0.22396652
-0.75964755	r t i	-0.25927505
-0.9062204	o t i	-0.3619436
-0.7122848	x t i	-0.22396652
-0.7122848	U t i	-0.22396652
-1.3143084	G u i	-0.22396652
-2.075557	q u i	-0.22396652
-1.6495488	<s> P i	-0.22396652
-0.5169538	S h i	-0.35262355
-0.80552036	b h i	-0.4665617
-1.2925297	a h i	-0.28451693
-0.8466647	t h i	-0.5083647
-1.3603541	u h i	-0.22396652
-1.1317277	h h i	-0.22396652
-1.0789839	i h i	-0.2685697
-0.7045054	s h i	-0.56969833
-0.3250906	w h i	-0.22396652
-1.4331511	e h i	-0.22396652
-0.8951247	k h i	-0.49623987
-0.76411784	c h i	-0.38453203
-1.0947003	n h i	-0.22396652
-0.92374647	y h i	-0.22396652
-0.85521346	p h i	-0.5202529
-1.3219395	r h i	-0.22396652
-0.3250906	z h i	-0.22396652
-1.3959419	o h i	-0.22396652
-1.2842711	q h i	-0.31828362
-1.1165849	g h i	-0.22396652
-1.3596613	x h i	-0.22396652
-0.5381477	C h i	-0.25927505
-0.56584847	W h i	-0.22396652
-0.82428277	T h i	-0.35262355
