\data\
ngram 1=59
ngram 2=1201
ngram 3=6917
ngram 4=23549
ngram 5=52438

\1-grams:
-2.926517	<unk>	0
0	<s>	-2.782486
-1.4081626	</s>	0
-1.8025664	I	-0.28596207
-1.6829529	n	-0.6592439
-1.8261465	j	-0.6199187
-1.3900352	o	-0.87510306
-1.7007381	g	-0.6751507
-1.5892696	y	-0.6474335
-1.4175183	e	-0.8628174
-1.3990043	a	-0.9396829
-1.5892696	s	-0.65281105
-1.9057039	M	-0.34220248
-1.7589313	z	-0.61779743
-1.6183084	t	-0.71647733
-1.4081626	i	-0.90065116
-1.7007381	A	-0.28338158
-1.7007381	f	-0.5909549
-1.6035464	r	-0.54796946
-1.7192826	k	-0.6037117
-1.4175183	u	-0.7861419
-1.8261465	v	-0.62597245
-1.5122529	l	-0.72917694
-1.7192826	m	-0.56300765
-1.5006471	h	-0.83503205
-1.7386546	b	-0.60028994
-1.5241776	w	-0.7894832
-1.649429	c	-0.6651874
-1.9057039	L	-0.38892448
-1.7192826	p	-0.6008603
-1.7386546	d	-0.5936658
-1.8025664	q	-0.7423415
-1.9057039	x	-0.6138645
-1.9358284	N	-0.35481653
-1.8261465	C	-0.30197453
-1.8261465	P	-0.33950472
-2.0031788	B	-0.38220766
-1.9358284	D	-0.2868495
-1.9681994	W	-0.2943602
-2.0031788	Z	-0.35550377
-1.8261465	T	-0.31167126
-2.0031788	G	-0.3084271
-1.7589313	E	-0.28792998
-1.8261465	O	-0.3164258
-2.1806855	X	-0.25714833
-1.6829529	S	-0.42782962
-2.1806855	V	-0.24024403
-1.9358284	R	-0.29029882
-2.0031788	U	-0.3010954
-1.9681994	K	-0.29342818
-2.3873649	J	-0.28938684
-1.8510807	H	-0.2983208
-2.0031788	F	-0.29060602
-2.0829256	Y	-0.23436993
-2.1806855	Q	-0.2716105
-2.795696	Ã	-0.3028014
-2.795696	Â	-0.3028014
-2.795696	_	-0.3028014
-2.4859896	é	-0.32064825

\2-grams:
-1.0319147	I </s>	0
-1.2921641	n </s>	0
-0.9682975	j </s>	0
-1.359021	o </s>	0
-1.2506613	g </s>	0
-0.82445663	y </s>	0
-1.3253124	e </s>	0
-1.3381066	a </s>	0
-0.9399489	s </s>	0
-1.5904081	M </s>	0
-1.0912619	z </s>	0
-1.0823607	t </s>	0
-1.3671296	i </s>	0
-0.8969822	A </s>	0
-1.6032944	f </s>	0
-1.3811903	r </s>	0
-1.1187952	k </s>	0
-1.30446	u </s>	0
-1.5576698	v </s>	0
-1.0513551	l </s>	0
-1.3599625	m </s>	0
-1.2447195	h </s>	0
-1.4913024	b </s>	0
-1.1020951	w </s>	0
-1.8380946	c </s>	0
-1.5915885	L </s>	0
-1.2058506	p </s>	0
-1.0531279	d </s>	0
-1.8979295	q </s>	0
-1.4233569	x </s>	0
-1.5771751	N </s>	0
-1.0695525	C </s>	0
-0.9014728	P </s>	0
-1.1648635	B </s>	0
-1.0439636	D </s>	0
-1.4616339	Z </s>	0
-1.1116387	T </s>	0
-1.4461334	E </s>	0
-0.77637345	O </s>	0
-1.0174415	S </s>	0
-1.1055819	V </s>	0
-1.2399378	R </s>	0
-0.95709515	U </s>	0
-1.4249647	H </s>	0
-1.3660564	F </s>	0
-0.28275365	Â </s>	0
-0.26699886	é </s>	0
-2.0144238	<s> I	-1.1778014
-1.713416	I I	-0.27276704
-2.47757	e I	-0.22479911
-1.9123496	M I	-0.22479911
-2.566652	i I	-0.22479911
-1.732573	A I	-0.32669854
-2.0511036	d I	-0.22479911
-1.8905423	N I	-0.22479911
-1.508404	C I	-0.22479911
-1.5860103	D I	-0.32669854
-1.3761766	W I	-0.29001066
-1.1025891	Z I	-0.27276704
-1.7654964	T I	-0.22479911
-1.7055789	G I	-0.22479911
-1.827212	S I	-0.22479911
-1.4548824	R I	-0.22479911
-1.1946791	J I	-0.22479911
-1.4448869	H I	-0.32669854
-1.397083	F I	-0.29001066
-0.8726669	<s> n	-2.5532944
-1.5802153	I n	-0.24546711
-1.72172	n n	-0.3043161
-1.2417853	o n	-0.9412883
-2.0142715	g n	-0.22479911
-1.828433	y n	-0.22479911
-1.2946581	e n	-1.0002965
-1.2284544	a n	-1.0229949
-2.1116006	s n	-0.22479911
-1.5152515	M n	-0.30512214
-1.9621944	z n	-0.22479911
-2.071198	t n	-0.22479911
-1.2695593	i n	-1.0303628
-1.6754625	A n	-0.27276704
-1.8539387	r n	-0.3283976
-2.0539093	k n	-0.22479911
-1.2298523	u n	-0.8542876
-2.0108035	l n	-0.22479911
-1.4129071	m n	-0.5362614
-2.154278	h n	-0.22479911
-1.8654579	b n	-0.22479911
-2.0161138	w n	-0.22479911
-1.6833141	E n	-0.22479911
-1.6524928	O n	-0.22479911
-1.5562605	U n	-0.24812116
-2.8347394	<s> j	-1.0835165
-1.4986582	n j	-0.56335187
-1.7415814	o j	-0.47254705
-2.1840918	g j	-0.22479911
-1.6970438	e j	-0.60597396
-1.6629927	a j	-0.6860379
-2.1912827	s j	-0.22479911
-1.5502654	z j	-0.49482346
-2.2401872	t j	-0.22479911
-1.622138	i j	-0.69541425
-1.8904645	u j	-0.51834804
-2.1537855	l j	-0.32669854
-1.8602804	m j	-0.3283976
-2.2105675	h j	-0.32669854
-2.1911561	w j	-0.22479911
-2.061597	d j	-0.22479911
-1.3672831	N j	-0.328114
-1.730098	U j	-0.22479911
-1.2860888	<s> o	-1.8997878
-1.5488532	I o	-0.22479911
-1.2890692	n o	-0.49857265
-0.85315776	j o	-0.46082136
-1.5532748	o o	-0.50457853
-0.9838122	g o	-0.5713428
-1.026359	y o	-0.58743614
-1.9915679	e o	-0.26274022
-2.230765	a o	-0.22479911
-1.1443537	s o	-0.51355714
-1.2231427	M o	-0.2975996
-0.9789011	z o	-0.5271382
-1.0516237	t o	-0.5012056
-1.7359188	i o	-0.32542256
-0.8698426	f o	-0.45823961
-0.96174335	r o	-0.32409567
-1.0070885	k o	-0.57083887
-0.9475745	v o	-0.421952
-0.89621013	l o	-0.65864414
-1.4038464	m o	-0.45694837
-0.94690967	h o	-0.7455241
-0.9667801	b o	-0.5315945
-1.1984526	w o	-0.4129408
-0.95755863	c o	-0.53160137
-1.1190337	L o	-0.278091
-0.9833593	p o	-0.50035113
-1.0510496	d o	-0.55444187
-0.92275834	q o	-0.58448666
-0.97592944	x o	-0.5718615
-1.5652719	N o	-0.22479911
-1.3617185	C o	-0.278091
-1.133141	P o	-0.42573348
-1.026395	B o	-0.29087728
-1.3393407	D o	-0.27276704
-0.95280397	W o	-0.3043161
-1.2557446	Z o	-0.26274022
-1.5324401	T o	-0.22479911
-0.9304625	G o	-0.358258
-1.4961718	O o	-0.22479911
-1.0564727	X o	-0.22479911
-1.1325512	S o	-0.34737194
-1.2270414	V o	-0.22479911
-1.3197849	R o	-0.22479911
-1.1125599	K o	-0.32485664
-0.96676743	J o	-0.22479911
-1.4153901	H o	-0.22479911
-0.9519642	F o	-0.29131123
-1.1872753	Y o	-0.22479911
-1.2410976	Q o	-0.32669854
-2.5539832	<s> g	-1.1149116
-1.7573863	I g	-0.22479911
-1.2157189	n g	-0.67002743
-1.5986526	o g	-0.6361313
-1.4971329	g g	-0.47857362
-1.6241693	e g	-0.7176142
-1.5464126	a g	-0.83242387
-1.525436	s g	-0.29131123
-1.5206715	M g	-0.42573348
-1.4977484	i g	-0.7677974
-1.6074327	A g	-0.32882345
-1.5423081	r g	-0.30592963
-1.6945603	k g	-0.32669854
-1.5853397	u g	-0.64533097
-2.1918037	l g	-0.22479911
-1.5358849	m g	-0.53121614
-1.9830396	b g	-0.22479911
-2.1396277	w g	-0.22479911
-2.0863051	c g	-0.22479911
-2.0021331	d g	-0.22479911
-1.2208208	q g	-0.2998914
-1.9344047	x g	-0.22479911
-1.2449083	N g	-0.4858991
-1.6754252	U g	-0.22479911
-1.2889394	<s> y	-2.612668
-1.6882454	I y	-0.22479911
-1.2774941	n y	-0.6708748
-1.6130738	o y	-0.7191583
-2.0539465	g y	-0.22479911
-1.9792176	y y	-0.22479911
-1.5599798	e y	-0.79232424
-1.3680618	a y	-0.96478564
-1.9750211	s y	-0.22479911
-1.7072747	M y	-0.32669854
-1.8118354	z y	-0.22479911
-1.2887778	t y	-0.6129228
-1.4000248	i y	-0.93274647
-1.6986822	A y	-0.22479911
-1.812128	r y	-0.36988473
-1.5382769	k y	-0.59173346
-1.454301	u y	-0.79984945
-1.4235046	l y	-0.39044017
-1.5840598	m y	-0.48285902
-1.8426911	h y	-0.42573348
-2.0863469	w y	-0.22479911
-1.9341227	c y	-0.32669854
-1.9344116	p y	-0.22479911
-1.8487179	d y	-0.27276704
-1.2256869	N y	-0.45305273
-1.6284289	C y	-0.22479911
-1.6071134	D y	-0.22479911
-1.4802161	T y	-0.29001066
-1.6324848	E y	-0.22479911
-1.8129182	S y	-0.22479911
-1.6192821	U y	-0.22479911
-0.9938385	<s> e	-2.0824265
-1.2555377	n e	-0.4865281
-0.85501784	j e	-0.4489829
-2.0737045	o e	-0.27276704
-1.0809236	g e	-0.5929444
-0.88295496	y e	-0.5212501
-1.4719312	e e	-0.5535683
-2.2177064	a e	-0.22479911
-1.0467288	s e	-0.54931164
-1.4147257	M e	-0.2988962
-0.9813998	z e	-0.4406354
-1.1483059	t e	-0.5372159
-1.5062026	i e	-0.49761617
-0.97099274	f e	-0.5244338
-0.83619875	r e	-0.43195274
-1.1199807	k e	-0.5521798
-1.9001406	u e	-0.30592963
-0.8352383	v e	-0.5002174
-0.87963885	l e	-0.60790575
-1.1466998	m e	-0.5509004
-0.94831556	h e	-0.73055464
-0.92784214	b e	-0.55329716
-0.66773254	w e	-0.7108652
-1.0258473	c e	-0.57469624
-1.5131627	L e	-0.27276704
-0.8400812	p e	-0.5027743
-0.96782154	d e	-0.54753506
-0.9669703	q e	-0.6062863
-0.9258981	x e	-0.5601645
-1.5273119	N e	-0.29001066
-1.3743486	C e	-0.2800735
-1.3359418	P e	-0.26716802
-1.0312028	B e	-0.32519093
-1.1725329	D e	-0.24335547
-1.3846612	W e	-0.22479911
-1.3577878	Z e	-0.22479911
-1.1139262	T e	-0.25155753
-1.0633613	X e	-0.22479911
-1.0188494	S e	-0.40969098
-1.0011791	V e	-0.22479911
-1.3315532	R e	-0.24546711
-1.3911974	K e	-0.27276704
-1.2357703	H e	-0.27276704
-1.2874117	F e	-0.29001066
-1.3123552	Y e	-0.22479911
-1.155348	Q e	-0.3043161
-1.2002267	<s> a	-2.0261095
-1.2526923	n a	-0.60261214
-0.906923	j a	-0.56138444
-2.0624268	o a	-0.22479911
-0.98454887	g a	-0.6391418
-0.8817128	y a	-0.6588651
-1.6876191	e a	-0.2771689
-1.8118268	a a	-0.29066044
-1.1093165	s a	-0.67410994
-1.0988424	M a	-0.42450052
-0.8917503	z a	-0.5668507
-1.1127299	t a	-0.5641952
-1.618072	i a	-0.4519048
-0.8705304	f a	-0.5629066
-0.96268195	r a	-0.4361911
-1.1612983	k a	-0.5774544
-1.770676	u a	-0.24812116
-0.78653353	v a	-0.6298534
-0.95614904	l a	-0.72319233
-1.204205	m a	-0.60340834
-0.81391853	h a	-0.87068146
-0.8217396	b a	-0.6490439
-0.63603896	w a	-0.90118843
-1.0613296	c a	-0.6256575
-1.0226539	L a	-0.35514042
-0.9430701	p a	-0.44901404
-0.9287664	d a	-0.61008674
-0.8846369	q a	-0.6522582
-0.83553743	x a	-0.5605454
-1.2679249	N a	-0.28611752
-0.8922131	C a	-0.35760725
-1.0020391	P a	-0.278091
-1.0279917	B a	-0.35450152
-1.1670098	D a	-0.22479911
-1.2650747	W a	-0.27276704
-0.71430993	Z a	-0.3150379
-1.39791	T a	-0.26274022
-1.1590389	G a	-0.22479911
-1.194441	X a	-0.22479911
-1.4100151	S a	-0.31244648
-1.1029379	V a	-0.29001066
-1.4229481	R a	-0.22479911
-1.303488	K a	-0.26274022
-0.59768635	J a	-0.3043161
-1.3183033	H a	-0.29001066
-1.2802912	F a	-0.22479911
-1.0939794	Y a	-0.22479911
-1.1498492	Q a	-0.328114
-1.3462808	<s> s	-2.281836
-1.610517	I s	-0.25618204
-1.4673365	n s	-0.5111739
-1.3938986	o s	-0.7811253
-2.0539465	g s	-0.22479911
-1.7967058	y s	-0.29001066
-1.3569278	e s	-0.82200676
-1.3238927	a s	-0.8691616
-1.6036419	s s	-0.27276704
-1.7072747	M s	-0.27276704
-1.9167114	z s	-0.22479911
-1.16322	t s	-0.647679
-1.4000248	i s	-0.99912655
-1.6986822	A s	-0.22479911
-1.640636	r s	-0.33915475
-1.5382769	k s	-0.31176296
-1.3431585	u s	-0.82651234
-1.667619	l s	-0.43127292
-1.4514844	m s	-0.5404654
-2.1112316	h s	-0.22479911
-1.7407497	b s	-0.22479911
-2.0863469	w s	-0.22479911
-1.9341227	c s	-0.22479911
-1.9344116	p s	-0.22479911
-1.9417046	d s	-0.22479911
-1.6284289	C s	-0.22479911
-1.4571687	W s	-0.22479911
-1.0472056	T s	-0.46712616
-1.1247387	E s	-0.38511088
-1.5012795	O s	-0.32669854
-1.5188727	U s	-0.32669854
-2.767846	<s> M	-0.84770983
-1.7539544	I M	-0.26274022
-1.7496326	o M	-0.5468065
-1.8608713	e M	-0.56123143
-1.8602749	a M	-0.4827628
-2.0467591	i M	-0.3053911
-1.7752978	A M	-0.22479911
-2.3702567	u M	-0.34135234
-2.241576	m M	-0.22479911
-1.743263	G M	-0.22479911
-1.7840071	E M	-0.22479911
-1.7389542	O M	-0.22479911
-1.3664762	V M	-0.22479911
-1.6267588	U M	-0.22479911
-1.6751179	F M	-0.22479911
-1.3975692	<s> z	-2.518659
-1.790757	I z	-0.22479911
-1.491227	n z	-0.5446405
-1.5518521	o z	-0.78435534
-2.1504133	g z	-0.22479911
-1.531849	e z	-0.94282025
-1.3622991	a z	-0.94798386
-2.15533	s z	-0.22479911
-1.3078682	M z	-0.55621165
-1.9953988	z z	-0.22479911
-2.1052332	t z	-0.22479911
-1.5020597	i z	-0.94380045
-1.8047261	A z	-0.22479911
-2.0615103	r z	-0.22479911
-1.3177328	u z	-0.9117964
-1.8985636	v z	-0.22479911
-1.6237792	m z	-0.44266027
-1.4912761	N z	-0.42573348
-1.7208383	E z	-0.22479911
-1.6850421	O z	-0.22479911
-1.7019018	U z	-0.22479911
-2.5378082	<s> t	-1.1186082
-1.7069027	I t	-0.22479911
-1.2092556	n t	-0.6549751
-1.3962934	o t	-0.78435534
-1.9950278	y t	-0.22479911
-1.4060997	e t	-0.75078756
-1.2984089	a t	-0.8569469
-1.2089709	s t	-0.5018885
-1.2819287	M t	-0.5718615
-1.9313495	z t	-0.22479911
-1.5509496	t t	-0.358258
-1.3289407	i t	-0.8544523
-1.71792	A t	-0.22479911
-1.7719501	f t	-0.22479911
-1.5248185	r t	-0.29562926
-1.5445426	k t	-0.2800735
-1.2410867	u t	-0.81819427
-1.6739413	l t	-0.2998914
-1.4571152	m t	-0.52236754
-1.8501151	h t	-0.22479911
-1.8396068	b t	-0.22479911
-2.100915	w t	-0.22479911
-1.2806488	c t	-0.32851925
-1.9502875	p t	-0.22479911
-1.783993	x t	-0.22479911
-1.1518039	N t	-0.421438
-1.6675268	S t	-0.2998914
-1.6345963	U t	-0.22479911
-0.28901386	Ã t	-0.22479911
-1.0664862	<s> i	-1.9766603
-1.5623078	I i	-0.22479911
-1.1284522	n i	-0.5578014
-0.9076238	j i	-0.47387376
-1.8745157	o i	-0.2800735
-1.1167995	g i	-0.5659813
-0.91444725	y i	-0.64946043
-1.7586938	e i	-0.31587955
-1.7355225	a i	-0.38202268
-0.9896725	s i	-0.6402346
-1.228676	M i	-0.3049608
-0.8542731	z i	-0.63599646
-1.0001439	t i	-0.5827959
-1.8169001	i i	-0.3530419
-0.8291028	f i	-0.58460784
-0.9077624	r i	-0.4430528
-1.1626059	k i	-0.53716415
-2.0970209	u i	-0.22479911
-0.74416614	v i	-0.48743698
-0.95675933	l i	-0.67932403
-1.2760711	m i	-0.5380486
-0.9287229	h i	-0.61941636
-1.0653707	b i	-0.52504057
-0.75683653	w i	-0.52741814
-0.929379	c i	-0.5702011
-1.122936	L i	-0.29717425
-1.1392983	p i	-0.32231683
-0.96696657	d i	-0.5885307
-1.0134897	q i	-0.4941451
-0.92515695	x i	-0.44234094
-1.5219655	N i	-0.27276704
-1.3700978	C i	-0.22479911
-1.507379	P i	-0.22479911
-1.3623836	B i	-0.27276704
-1.0439636	D i	-0.27740237
-0.80076885	Z i	-0.33063376
-1.4705586	T i	-0.22479911
-1.4218829	G i	-0.22479911
-1.1975822	X i	-0.22479911
-1.1362311	S i	-0.31717905
-1.2341143	V i	-0.22479911
-1.2399378	R i	-0.2811628
-1.1200603	J i	-0.22479911
-1.4249647	H i	-0.22479911
-1.3660564	F i	-0.22479911
-1.0966046	Y i	-0.30592963
-0.93618566	Q i	-0.42573348
-2.127819	<s> A	-1.3029886
-1.7573863	I A	-0.22479911
-1.9860551	e A	-0.41200683
-1.6978455	M A	-0.36988473
-2.4382215	i A	-0.25618204
-1.7701095	A A	-0.22479911
-2.3129742	u A	-0.29001066
-2.1088383	m A	-0.22479911
-2.0222504	w A	-0.22479911
-1.7498449	L A	-0.22479911
-1.8325189	N A	-0.22479911
-1.6857253	C A	-0.22479911
-1.4230207	P A	-0.22479911
-1.5514194	D A	-0.32669854
-0.840466	W A	-0.30592963
-1.5192325	T A	-0.36988473
-1.5460579	G A	-0.22479911
-1.6923956	E A	-0.22479911
-1.5418608	O A	-0.22479911
-0.9511652	S A	-0.3936949
-1.5603502	R A	-0.22479911
-1.6251829	K A	-0.22479911
-1.4202603	H A	-0.22479911
-1.6026326	F A	-0.22479911
-3.0410905	<s> f	-0.9169628
-1.7573863	I f	-0.22479911
-2.0955253	n f	-0.29001066
-1.4789023	o f	-0.6708628
-2.1191592	g f	-0.22479911
-1.6241693	e f	-0.72333145
-1.5464126	a f	-0.8520223
-2.122127	s f	-0.22479911
-1.7703044	M f	-0.32669854
-2.07946	t f	-0.22479911
-1.5181358	i f	-0.83445185
-1.4219282	A f	-0.42573348
-1.6985931	f f	-0.30592963
-2.0274868	r f	-0.22479911
-2.064227	k f	-0.22479911
-1.6210195	u f	-0.6469781
-2.0996299	l f	-0.22479911
-1.4715197	m f	-0.65619147
-2.2627547	h f	-0.22479911
-2.1396277	w f	-0.22479911
-1.9927182	p f	-0.22479911
-2.0021331	d f	-0.22479911
-1.6604043	O f	-0.22479911
-1.6754252	U f	-0.22479911
-3.3915348	<s> r	-0.8059447
-1.6974739	I r	-0.22479911
-1.3461802	o r	-0.47253165
-1.4018172	g r	-0.37997597
-1.4048382	e r	-0.6344642
-1.454596	a r	-0.48458505
-2.062486	s r	-0.22479911
-1.7851133	M r	-0.22479911
-1.3417634	t r	-0.3843034
-1.5998677	i r	-0.5170425
-1.7081946	A r	-0.22479911
-1.2048533	f r	-0.38511088
-1.8894035	r r	-0.22479911
-1.6686066	k r	-0.26274022
-1.3857042	u r	-0.41587374
-1.9805566	m r	-0.32669854
-1.8463871	h r	-0.2988962
-1.8333775	b r	-0.22479911
-1.5327386	c r	-0.30592963
-1.161074	p r	-0.50085
-1.7716877	d r	-0.32882345
-1.9962164	q r	-0.22479911
-1.4946612	P r	-0.26274022
-1.5241024	B r	-0.27276704
-1.4624617	W r	-0.22479911
-1.5696874	T r	-0.32669854
-1.51009	G r	-0.22479911
-1.6149628	O r	-0.22479911
-1.6268717	U r	-0.22479911
-1.5602623	F r	-0.22479911
-0.9308131	<s> k	-2.793117
-1.7682273	I k	-0.22479911
-1.4282222	n k	-0.628801
-1.3863071	o k	-0.9284176
-2.046236	y k	-0.22479911
-1.3660477	e k	-0.9114942
-1.2902408	a k	-1.0045815
-1.4455127	s k	-0.29087728
-1.7801046	M k	-0.32669854
-2.1836486	t k	-0.22479911
-1.3630681	i k	-0.94893444
-1.6936774	A k	-0.22479911
-1.8688207	r k	-0.328114
-1.27997	u k	-0.9244215
-2.0248609	l k	-0.22479911
-1.6155393	m k	-0.40940982
-1.5518104	c k	-0.328114
-1.8907648	p k	-0.22479911
-1.247725	N k	-0.44266027
-1.701671	E k	-0.22479911
-1.5479805	O k	-0.22479911
-1.8895043	S k	-0.22479911
-1.6840726	U k	-0.22479911
-1.0221837	<s> u	-2.0664687
-1.4337977	n u	-0.40805346
-1.0397956	j u	-0.40645307
-1.6728642	o u	-0.36358556
-1.1581016	g u	-0.5402717
-1.0746734	y u	-0.40513286
-1.891484	e u	-0.2811628
-1.9728683	a u	-0.26716802
-1.2795773	s u	-0.56340796
-1.6485854	M u	-0.22479911
-1.0333365	z u	-0.6136371
-1.1145347	t u	-0.46934256
-2.2566197	i u	-0.22479911
-1.5764748	A u	-0.22479911
-0.8297291	f u	-0.5851159
-1.4701287	r u	-0.26274022
-1.043545	k u	-0.660821
-2.104483	u u	-0.22479911
-0.8352383	v u	-0.65833133
-1.0264219	l u	-0.6721501
-1.4669237	m u	-0.53359395
-0.87633634	h u	-0.81058574
-0.9693101	b u	-0.63411826
-1.2603062	w u	-0.5253254
-1.0258473	c u	-0.50352144
-0.87713265	L u	-0.3868663
-1.2862287	p u	-0.3730281
-1.0541707	d u	-0.56441617
-0.8171675	q u	-0.6418885
-1.0382104	x u	-0.3733494
-1.5127344	P u	-0.22479911
-1.0312028	B u	-0.28226066
-1.4253334	D u	-0.22479911
-1.3577878	Z u	-0.32669854
-1.4758037	T u	-0.22479911
-1.0346698	G u	-0.32485664
-1.5128999	O u	-0.22479911
-1.2007463	X u	-0.22479911
-1.4170127	S u	-0.26274022
-1.108242	V u	-0.22479911
-1.1197726	K u	-0.24671404
-1.1225158	J u	-0.22479911
-1.4298322	H u	-0.22479911
-0.8544059	F u	-0.4246697
-0.8787604	Y u	-0.32882345
-0.7936133	Q u	-0.43127292
-3.0530748	<s> v	-0.88752353
-1.8269068	I v	-0.22479911
-1.7519791	n v	-0.25618204
-1.9326401	j v	-0.22479911
-1.5828462	o v	-0.73241234
-2.0940669	y v	-0.22479911
-1.6659195	e v	-0.79585344
-1.6058027	a v	-0.86589134
-1.7500714	M v	-0.29001066
-1.4675691	i v	-0.9261872
-2.0984278	r v	-0.22479911
-1.6764294	u v	-0.6409515
-1.4894606	m v	-0.60796386
-2.2105675	h v	-0.22479911
-2.0388546	b v	-0.22479911
-1.9427811	d v	-0.32669854
-1.7512752	E v	-0.22479911
-1.730098	U v	-0.22479911
-1.280853	<s> l	-2.520761
-1.6366487	I l	-0.22479911
-1.9272633	n l	-0.29001066
-1.8104123	j l	-0.22479911
-1.2318059	o l	-1.0100504
-2.0049183	g l	-0.22479911
-1.9349724	y l	-0.22479911
-1.2588925	e l	-0.9691699
-1.2092125	a l	-0.96997035
-1.8665264	s l	-0.29001066
-1.6025033	M l	-0.22479911
-1.8755434	z l	-0.22479911
-1.4540873	t l	-0.37559134
-1.3212534	i l	-0.9821261
-1.5797895	A l	-0.26274022
-1.7301426	f l	-0.32669854
-1.8371195	r l	-0.22479911
-1.348744	k l	-0.49771342
-1.1895143	u l	-0.99785036
-1.5554152	l l	-0.35141787
-1.4938256	m l	-0.53160137
-1.1191336	h l	-0.8400571
-1.2046037	b l	-0.37527868
-1.6414059	c l	-0.25618204
-1.302293	p l	-0.31059426
-1.0636709	d l	-0.6787681
-1.5846971	C l	-0.22479911
-1.5641592	P l	-0.22479911
-1.5968496	B l	-0.22479911
-1.5639708	D l	-0.22479911
-1.6113335	T l	-0.22479911
-1.5869861	E l	-0.22479911
-1.1819645	O l	-0.38511088
-1.5763355	U l	-0.22479911
-1.3462336	K l	-0.22479911
-0.7051064	H l	-0.50784147
-1.4113616	F l	-0.32669854
-1.8677305	<s> m	-1.4231279
-1.7682273	I m	-0.22479911
-2.0329888	n m	-0.29001066
-1.2816154	o m	-0.85905135
-2.046236	y m	-0.22479911
-1.4308863	e m	-0.7446706
-1.277475	a m	-0.8854828
-2.0404623	s m	-0.22479911
-1.7061253	M m	-0.30592963
-1.9784794	z m	-0.22479911
-2.087882	t m	-0.32669854
-1.3933086	i m	-0.7818243
-1.7813445	A m	-0.22479911
-1.9488546	r m	-0.25618204
-1.2025229	u m	-0.7046631
-1.7080804	m m	-0.4278025
-2.1478024	w m	-0.22479911
-2.0959473	c m	-0.22479911
-2.0017254	p m	-0.22479911
-1.701671	E m	-0.22479911
-1.6684625	O m	-0.22479911
-1.8895043	S m	-0.22479911
-1.6840726	U m	-0.22479911
-2.6023962	<s> h	-1.2237567
-1.584619	n h	-0.4666649
-1.5474312	o h	-0.64275616
-1.3204942	g h	-0.4996986
-1.7624017	y h	-0.2811628
-1.5958878	e h	-0.6545253
-1.4641474	a h	-0.7233736
-1.1197871	s h	-0.797853
-1.4503328	M h	-0.49482346
-1.8690461	z h	-0.22479911
-1.0603157	t h	-0.7118879
-1.585631	i h	-0.6655281
-1.1592563	r h	-0.5800313
-1.0888346	k h	-0.7227977
-1.495026	u h	-0.5779915
-1.9290864	l h	-0.29001066
-1.4907528	m h	-0.478955
-1.5956872	h h	-0.41544414
-1.0227451	b h	-0.7022713
-2.0388942	w h	-0.22479911
-0.9354002	c h	-0.6561881
-0.99306387	p h	-0.7139249
-1.7301521	d h	-0.36988473
-1.0196087	q h	-0.70232815
-1.1166593	x h	-0.60228777
-1.7021283	N h	-0.22479911
-1.0890406	C h	-0.4368315
-0.91350806	P h	-0.49482346
-0.85292816	B h	-0.53477025
-1.3002658	W h	-0.22479911
-1.0336512	T h	-0.4470087
-1.5610712	G h	-0.22479911
-1.0822834	X h	-0.29001066
-1.3252457	S h	-0.31176296
-0.80365825	R h	-0.45305273
-1.5695732	U h	-0.22479911
-0.81363934	K h	-0.5211524
-1.1780664	Q h	-0.27276704
-1.4916109	<s> b	-2.3257952
-1.7793461	I b	-0.22479911
-2.1157377	n b	-0.22479911
-1.3708464	o b	-0.92769915
-2.1397433	g b	-0.22479911
-1.4501259	e b	-0.8490997
-1.3768777	a b	-0.991835
-1.9657758	s b	-0.22479911
-1.403441	M b	-0.41470185
-2.096471	t b	-0.22479911
-1.4270271	i b	-0.9524717
-1.7928779	A b	-0.22479911
-2.0498705	r b	-0.22479911
-1.9887066	k b	-0.22479911
-1.3973645	u b	-0.90185344
-2.213312	l b	-0.22479911
-1.420654	m b	-0.6854676
-2.2825637	h b	-0.22479911
-2.0008595	b b	-0.22479911
-2.021064	d b	-0.22479911
-1.6766732	O b	-0.22479911
-1.6928957	U b	-0.22479911
-1.4747727	<s> w	-2.3590295
-1.5180938	n w	-0.5378047
-1.1359802	j w	-0.45305273
-1.5040534	o w	-0.69541425
-1.3237021	g w	-0.6752109
-1.3473231	y w	-0.5422427
-1.5998169	e w	-0.71302146
-1.4864662	a w	-0.86748797
-1.159183	s w	-0.7263376
-1.0428542	z w	-0.7166722
-1.3900199	t w	-0.63168025
-1.5425729	i w	-0.86589134
-1.8371826	f w	-0.22479911
-1.7801193	r w	-0.32882345
-1.0536166	k w	-0.7150442
-1.6286029	u w	-0.5865328
-1.8072629	v w	-0.22479911
-1.1836454	l w	-0.7547922
-1.9781408	m w	-0.22479911
-1.2171042	h w	-0.78271186
-1.8891958	b w	-0.22479911
-1.8676327	w w	-0.25155753
-1.1601057	c w	-0.6627365
-1.0417374	L w	-0.45703492
-1.8970894	p w	-0.22479911
-1.2439358	d w	-0.64609116
-1.0209804	q w	-0.7378615
-0.9868871	x w	-0.70567685
-1.500473	C w	-0.22479911
-1.39592	D w	-0.29001066
-1.3957516	Z w	-0.32669854
-1.6186036	T w	-0.22479911
-1.2337244	X w	-0.22479911
-1.695257	S w	-0.32669854
-1.3503366	K w	-0.34468377
-1.4109089	Q w	-0.22479911
-2.861281	<s> c	-0.92330444
-1.7263978	I c	-0.22479911
-1.4767357	n c	-0.65719724
-1.5181285	o c	-0.60576135
-1.1372694	g c	-0.72739613
-2.0114353	y c	-0.22479911
-1.5672424	e c	-0.57526046
-1.5420483	a c	-0.77802175
-2.0065103	s c	-0.29001066
-2.1431832	t c	-0.22479911
-1.4046165	i c	-0.77975124
-1.6579809	A c	-0.26274022
-1.6589203	r c	-0.29131123
-1.94691	k c	-0.2800735
-1.546083	u c	-0.61076635
-1.8597116	v c	-0.22479911
-1.9971867	l c	-0.22479911
-1.5258111	m c	-0.5152109
-1.9576102	b c	-0.22479911
-2.1159885	w c	-0.22479911
-1.9618578	c c	-0.22479911
-1.9122841	x c	-0.22479911
-1.2365662	N c	-0.33663476
-1.5277016	G c	-0.29001066
-1.6657016	E c	-0.22479911
-1.6370895	O c	-0.22479911
-1.357848	S c	-0.38511088
-2.739379	<s> L	-1.0806384
-1.8663412	I L	-0.22479911
-1.7905428	o L	-0.6495274
-1.9106729	e L	-0.47452566
-2.2111356	a L	-0.3520917
-1.9697384	M L	-0.22479911
-2.0467591	i L	-0.32882345
-1.6821381	A L	-0.22479911
-2.1998017	u L	-0.2988962
-2.241576	m L	-0.22479911
-1.8318335	L L	-0.22479911
-1.1664102	E L	-0.30592963
-1.6003153	O L	-0.22479911
-1.2788574	U L	-0.26274022
-1.3456262	H L	-0.29001066
-2.1547103	<s> p	-1.741978
-1.7682273	I p	-0.22479911
-1.4803569	o p	-0.6897802
-2.1293294	g p	-0.22479911
-2.046236	y p	-0.22479911
-1.5284868	e p	-0.70510244
-1.3919626	a p	-0.6903686
-1.958405	s p	-0.26274022
-1.3012366	M p	-0.3277597
-2.1836486	t p	-0.22479911
-1.5196371	i p	-0.6485339
-1.6151264	A p	-0.26274022
-1.8688207	r p	-0.27276704
-2.074796	k p	-0.22479911
-1.4679883	u p	-0.6615854
-1.4744588	m p	-0.63043565
-2.0959473	c p	-0.22479911
-1.7957531	p p	-0.32669854
-1.9420359	x p	-0.22479911
-1.5934429	E p	-0.22479911
-1.6684625	O p	-0.22479911
-1.7069407	S p	-0.27276704
-1.6840726	U p	-0.22479911
-2.90752	<s> d	-0.84016967
-1.7793461	I d	-0.22479911
-1.3328345	n d	-0.663026
-1.5755284	o d	-0.82581663
-2.0386274	g d	-0.22479911
-2.05539	y d	-0.22479911
-1.4687957	e d	-0.8515991
-1.4839485	a d	-0.7791195
-2.1439779	s d	-0.22479911
-1.8737938	M d	-0.22479911
-1.9868567	z d	-0.22479911
-1.4622656	i d	-0.842171
-1.6229588	A d	-0.22479911
-1.937089	f d	-0.22479911
-1.9580531	r d	-0.25155753
-1.4201722	u d	-0.6900467
-2.032064	l d	-0.29001066
-1.6196398	m d	-0.51834804
-2.0109236	p d	-0.22479911
-1.911611	d d	-0.22479911
-1.3526468	N d	-0.39340928
-1.711149	E d	-0.22479911
-3.0137115	<s> q	-0.7905538
-1.8145195	I q	-0.22479911
-1.4961671	n q	-0.5873081
-1.9252734	j q	-0.22479911
-1.6687373	o q	-0.615099
-1.2367243	g q	-0.7098978
-1.7279131	e q	-0.75453377
-1.631674	a q	-0.76444894
-2.1789646	s q	-0.22479911
-1.7409194	M q	-0.3520917
-1.6474805	i q	-0.78955615
-1.8294383	A q	-0.22479911
-2.0158625	k q	-0.29001066
-1.474997	u q	-0.7272719
-1.6321783	m q	-0.48083037
-2.1368105	c q	-0.22479911
-1.501293	N q	-0.27276704
-1.2405815	G q	-0.26274022
-1.7204944	U q	-0.22479911
-2.5770574	<s> x	-1.3070635
-1.8663412	I x	-0.22479911
-1.3923415	n x	-0.70497
-1.7122465	o x	-0.5919305
-1.3588979	g x	-0.6087668
-1.7045137	e x	-0.5161744
-1.63885	a x	-0.68002117
-1.7513984	i x	-0.63129497
-2.054932	k x	-0.32669854
-1.9044821	u x	-0.44215724
-1.6494802	m x	-0.5049147
-1.7377205	N x	-0.27276704
-1.743263	G x	-0.22479911
-1.6562283	E x	-0.29001066
-1.7602527	U x	-0.22479911
-2.229103	<s> N	-1.3048146
-1.4457027	I N	-0.24546711
-1.8390265	o N	-0.32851925
-1.8644862	e N	-0.60753626
-2.2179449	a N	-0.26716802
-1.8778569	i N	-0.5247125
-1.7866696	A N	-0.22479911
-2.0848434	u N	-0.26945442
-1.889951	m N	-0.3520917
-1.7834334	C N	-0.22479911
-1.7604784	B N	-0.22479911
-1.6647553	E N	-0.22479911
-1.2823066	U N	-0.30592963
-1.6839725	F N	-0.22479911
-2.915316	<s> C	-0.7890224
-1.8269068	I C	-0.22479911
-2.5539622	o C	-0.22479911
-2.0158715	e C	-0.41897997
-2.6051512	a C	-0.22479911
-2.105931	i C	-0.2998914
-1.8423426	A C	-0.22479911
-2.3928773	u C	-0.2800735
-1.6177869	C C	-0.22479911
-1.6980953	P C	-0.22479911
-1.7185348	D C	-0.22479911
-1.7759018	T C	-0.22479911
-1.5852758	G C	-0.29001066
-1.7111621	O C	-0.22479911
-1.3522056	V C	-0.22479911
-1.602761	R C	-0.22479911
-1.6744488	K C	-0.22479911
-1.6495881	F C	-0.22479911
-2.9997475	<s> P	-0.7934416
-1.6331565	I P	-0.22479911
-2.069007	o P	-0.6709147
-2.0158715	e P	-0.53477025
-2.1913261	a P	-0.45205766
-1.9260015	M P	-0.22479911
-2.0318315	i P	-0.41139978
-1.8423426	A P	-0.22479911
-2.3928773	u P	-0.32669854
-1.9193758	v P	-0.22479911
-2.192682	m P	-0.22479911
-1.6177869	C P	-0.22479911
-1.4888656	D P	-0.36988473
-1.5315855	W P	-0.22479911
-1.631608	E P	-0.22479911
-1.9452841	S P	-0.22479911
-1.602761	R P	-0.22479911
-1.5945175	H P	-0.22479911
-2.9427183	<s> B	-0.86438185
-1.9097172	I B	-0.22479911
-1.8974011	o B	-0.58344054
-1.8718076	e B	-0.5043825
-2.1312444	a B	-0.5042052
-2.1422126	i B	-0.38511088
-1.8103476	A B	-0.32669854
-2.414027	u B	-0.2800735
-1.8630054	L B	-0.22479911
-1.866446	N B	-0.32669854
-1.7072488	T B	-0.32669854
-2.0233173	S B	-0.22479911
-3.1562808	<s> D	-0.6936927
-1.7647092	I D	-0.22479911
-2.5530353	o D	-0.29001066
-2.11397	e D	-0.2998914
-2.596942	a D	-0.22479911
-1.9853541	M D	-0.22479911
-2.2248156	i D	-0.29131123
-1.6912912	A D	-0.27276704
-2.2092779	u D	-0.22479911
-1.8435683	N D	-0.22479911
-1.6487987	C D	-0.22479911
-1.7532182	G D	-0.22479911
-1.6647553	E D	-0.22479911
-1.6335258	R D	-0.22479911
-3.662707	<s> W	-0.42262486
-2.508634	e W	-0.29001066
-2.6981194	a W	-0.22479911
-1.9133303	A W	-0.22479911
-2.1976225	k W	-0.22479911
-2.2775252	m W	-0.22479911
-1.596473	L W	-0.29001066
-1.9722642	N W	-0.22479911
-1.7414776	P W	-0.22479911
-1.6315206	D W	-0.22479911
-1.6564492	Z W	-0.22479911
-2.009299	S W	-0.22479911
-1.5743889	K W	-0.22479911
-3.1001058	<s> Z	-0.9808996
-1.6843147	I Z	-0.22479911
-2.5889297	o Z	-0.22479911
-1.9229571	e Z	-0.56583345
-2.6311004	a Z	-0.27276704
-2.240346	i Z	-0.31176296
-1.8103476	A Z	-0.22479911
-2.4908726	u Z	-0.29001066
-2.296681	m Z	-0.22479911
-1.987515	N Z	-0.22479911
-1.8194084	E Z	-0.22479911
-1.7926584	U Z	-0.22479911
-3.0218055	<s> T	-0.60929847
-1.6331565	I T	-0.22479911
-2.4890819	o T	-0.22479911
-2.0158715	e T	-0.34651482
-2.5357618	a T	-0.22479911
-2.195328	i T	-0.2998914
-1.7428666	A T	-0.22479911
-2.1725543	u T	-0.31176296
-2.0388746	m T	-0.36988473
-1.8027499	L T	-0.22479911
-1.9031388	N T	-0.22479911
-1.7185348	D T	-0.22479911
-1.5315855	W T	-0.22479911
-1.5308166	E T	-0.27276704
-1.7111621	O T	-0.22479911
-1.7427591	S T	-0.22479911
-1.602761	R T	-0.22479911
-1.5945175	H T	-0.22479911
-3.2495704	<s> G	-0.5059
-1.6843147	I G	-0.22479911
-2.513595	o G	-0.27276704
-2.2239592	e G	-0.2998914
-2.6311004	a G	-0.22479911
-2.062218	i G	-0.3283976
-1.9290346	A G	-0.22479911
-2.228874	u G	-0.31059426
-1.8630054	L G	-0.22479911
-1.7647419	N G	-0.27276704
-1.7926584	U G	-0.22479911
-1.7300273	K G	-0.22479911
-2.8238478	<s> E	-0.76310104
-2.5050375	o E	-0.22479911
-2.5576336	a E	-0.22479911
-2.4773366	i E	-0.29001066
-2.4112468	u E	-0.22479911
-1.6540841	L E	-0.22479911
-1.7718335	N E	-0.32669854
-1.7128011	C E	-0.22479911
-1.6901696	D E	-0.22479911
-1.3675317	W E	-0.22479911
-1.602144	Z E	-0.22479911
-1.745405	T E	-0.22479911
-1.5652243	G E	-0.32669854
-1.6083089	E E	-0.22479911
-1.2884222	X E	-0.22479911
-1.7209156	S E	-0.25618204
-1.3383892	V E	-0.22479911
-1.5810381	R E	-0.22479911
-1.6491177	K E	-0.22479911
-1.6254761	F E	-0.22479911
-1.1711066	Y E	-0.25618204
-2.6866257	<s> O	-0.9590102
-2.5539622	o O	-0.22479911
-2.5534751	e O	-0.22479911
-2.6051512	a O	-0.22479911
-1.8327255	M O	-0.22479911
-2.3928773	u O	-0.22479911
-1.1838553	L O	-0.328114
-1.7416778	C O	-0.22479911
-1.7185348	D O	-0.22479911
-1.7759018	T O	-0.22479911
-1.5852758	G O	-0.22479911
-1.7111621	O O	-0.22479911
-1.8363783	S O	-0.22479911
-1.602761	R O	-0.22479911
-1.5411646	K O	-0.22479911
-1.5945175	H O	-0.22479911
-1.3016835	Y O	-0.22479911
-1.5113901	Q O	-0.22479911
-3.09412	<s> X	-1.21213
-1.9752423	I X	-0.22479911
-2.5815682	o X	-0.36988473
-2.6832402	e X	-0.32669854
-2.8165672	a X	-0.22479911
-2.8065865	i X	-0.22479911
-2.6761012	u X	-0.22479911
-1.8182771	G X	-0.22479911
-2.348843	<s> S	-1.2227967
-1.2607358	I S	-0.2975996
-1.962258	o S	-0.29087728
-1.8720672	e S	-0.5829903
-2.1483417	a S	-0.3150379
-1.7607205	M S	-0.22479911
-2.1629448	t S	-0.22479911
-1.9399198	i S	-0.3508062
-1.6754625	A S	-0.22479911
-2.0167131	r S	-0.22479911
-2.3009775	u S	-0.27276704
-2.0963128	m S	-0.22479911
-1.9838939	p S	-0.22479911
-1.9929686	d S	-0.22479911
-1.8217897	N S	-0.22479911
-1.5213065	P S	-0.22479911
-1.6745329	B S	-0.22479911
-1.6550193	D S	-0.22479911
-1.5134394	T S	-0.29001066
-1.654554	G S	-0.22479911
-1.1399008	E S	-0.3043161
-1.4370048	O S	-0.29001066
-1.8690549	S S	-0.22479911
-1.5536675	R S	-0.22479911
-1.5562605	U S	-0.27276704
-3.8401942	<s> V	-0.30512214
-1.8355137	I V	-0.32669854
-2.8165672	a V	-0.22479911
-2.7053084	i V	-0.22479911
-2.6761012	u V	-0.22479911
-1.9969769	v V	-0.22479911
-2.3830688	m V	-0.22479911
-1.6841906	R V	-0.22479911
-3.0724072	<s> R	-0.75970954
-1.880324	I R	-0.22479911
-2.1879673	o R	-0.59173346
-2.11397	e R	-0.4368315
-2.6778655	a R	-0.22479911
-2.5851905	i R	-0.29001066
-1.7866696	A R	-0.22479911
-2.2092779	u R	-0.38511088
-1.7033924	L R	-0.32669854
-1.7594895	D R	-0.22479911
-1.6647553	E R	-0.22479911
-1.748628	O R	-0.22479911
-1.7707882	U R	-0.22479911
-0.2943006	_ R	-0.22479911
-2.0873957	<s> U	-1.2249026
-2.6755605	e U	-0.22479911
-1.905649	M U	-0.22479911
-2.7034001	i U	-0.22479911
-1.8103476	A U	-0.32669854
-1.7185736	L U	-0.22479911
-1.6651766	C U	-0.22479911
-1.5707651	W U	-0.22479911
-1.8441856	T U	-0.22479911
-1.58135	K U	-0.22479911
-1.4818934	H U	-0.22479911
-1.5509552	F U	-0.32669854
-2.3269775	<s> K	-1.4348338
-1.894772	I K	-0.22479911
-1.893611	o K	-0.54996276
-2.0423841	e K	-0.45305273
-2.2248626	a K	-0.45205766
-2.1359513	i K	-0.5422427
-2.3989413	u K	-0.32882345
-2.2775252	m K	-0.22479911
-1.8548566	N K	-0.22479911
-1.7414776	P K	-0.22479911
-1.5636575	E K	-0.29001066
-1.7585222	O K	-0.22479911
-1.6423438	U K	-0.22479911
-3.3588612	<s> J	-0.7446145
-2.8697681	o J	-0.22479911
-2.7616558	e J	-0.32669854
-2.9070816	a J	-0.22479911
-2.9041197	i J	-0.22479911
-3.4299655	<s> H	-0.54411906
-2.1662247	o H	-0.59173346
-2.0210462	e H	-0.51004964
-2.6222205	a H	-0.22479911
-2.4739585	i H	-0.36988473
-1.8556422	A H	-0.22479911
-2.34335	u H	-0.32882345
-1.706432	P H	-0.22479911
-1.7353026	B H	-0.22479911
-1.7865627	T H	-0.22479911
-1.7240124	G H	-0.22479911
-1.5866286	O H	-0.32669854
-1.3042517	X H	-0.22479911
-1.9573544	S H	-0.22479911
-1.6117139	U H	-0.29001066
-1.683232	K H	-0.22479911
-1.4604622	Y H	-0.22479911
-3.1280863	<s> F	-0.6561881
-1.6843147	I F	-0.22479911
-2.5889297	o F	-0.22479911
-2.3488796	e F	-0.22479911
-2.7193646	a F	-0.22479911
-1.905649	M F	-0.32669854
-2.3673308	i F	-0.29131123
-1.4861501	A F	-0.26274022
-2.4908726	u F	-0.32669854
-2.296681	m F	-0.22479911
-1.7815125	D F	-0.22479911
-1.6497661	R F	-0.22479911
-3.2032745	<s> Y	-0.74619436
-2.2187617	o Y	-0.42573348
-2.6378658	e Y	-0.22479911
-2.765252	a Y	-0.22479911
-2.751936	i Y	-0.22479911
-1.9622569	A Y	-0.22479911
-2.6233094	u Y	-0.22479911
-2.3377304	m Y	-0.22479911
-1.7256142	T Y	-0.22479911
-1.8447216	E Y	-0.22479911
-3.712131	<s> Q	-0.5806083
-1.9752423	I Q	-0.22479911
-2.3746066	o Q	-0.31059426
-2.3956008	e Q	-0.34468377
-2.8165672	a Q	-0.22479911
-2.4119046	i Q	-0.3277597
-1.9982327	A Q	-0.22479911
-2.4802282	u Q	-0.29001066
-1.9400505	C Ã	-0.22479911
-4.961246	<s> Â	-0.22479911
-1.8948292	G _	-0.22479911
-2.514035	n é	-0.22479911
-2.2654076	y é	-0.22479911
-2.3489275	k é	-0.22479911
-2.4784687	l é	-0.22479911

\3-grams:
-1.285946	<s> I </s>	0
-0.50316834	I I </s>	0
-0.589387	M I </s>	0
-0.33777708	N I </s>	0
-0.8057992	C I </s>	0
-0.24223451	D I </s>	0
-0.8057992	S I </s>	0
-0.88252187	n n </s>	0
-1.3263483	o n </s>	0
-1.3847532	e n </s>	0
-1.2123542	a n </s>	0
-0.36203653	z n </s>	0
-1.4903985	i n </s>	0
-0.8870719	r n </s>	0
-1.7774745	u n </s>	0
-1.6681927	m n </s>	0
-0.78225595	h n </s>	0
-0.8813154	w n </s>	0
-1.1049044	n j </s>	0
-0.32959738	g j </s>	0
-0.32959738	s j </s>	0
-0.14605504	z j </s>	0
-1.5103977	i j </s>	0
-0.23702513	l j </s>	0
-0.23702513	h j </s>	0
-0.32959738	d j </s>	0
-1.2457364	n o </s>	0
-1.3741351	j o </s>	0
-1.0154927	o o </s>	0
-1.1094595	g o </s>	0
-1.161633	y o </s>	0
-0.980038	e o </s>	0
-1.0158342	s o </s>	0
-1.1640973	z o </s>	0
-0.8212017	t o </s>	0
-1.2859889	i o </s>	0
-0.94644505	f o </s>	0
-1.2608	r o </s>	0
-1.0619636	k o </s>	0
-0.6540919	v o </s>	0
-1.0619501	l o </s>	0
-0.9116949	m o </s>	0
-1.0466362	h o </s>	0
-1.0365798	b o </s>	0
-0.93086714	w o </s>	0
-0.99882895	c o </s>	0
-1.2233391	L o </s>	0
-1.2196238	p o </s>	0
-1.0471914	d o </s>	0
-0.9717493	q o </s>	0
-1.048482	x o </s>	0
-1.0767792	N o </s>	0
-2.173899	<s> g </s>	0
-1.2615261	n g </s>	0
-1.6141413	e g </s>	0
-1.7520328	a g </s>	0
-1.8589528	i g </s>	0
-0.4297564	r g </s>	0
-0.53638935	k g </s>	0
-0.35899878	l g </s>	0
-0.35899878	x g </s>	0
-1.1868197	n y </s>	0
-1.4063323	o y </s>	0
-0.30685347	g y </s>	0
-0.30685347	y y </s>	0
-1.2561916	e y </s>	0
-1.0034515	a y </s>	0
-0.53564596	z y </s>	0
-0.9027527	t y </s>	0
-1.6301837	i y </s>	0
-0.19570348	r y </s>	0
-0.10660543	k y </s>	0
-1.3104457	u y </s>	0
-0.45952538	l y </s>	0
-1.1641661	m y </s>	0
-0.22170849	h y </s>	0
-0.22235414	c y </s>	0
-0.4630755	d y </s>	0
-2.4844537	<s> e </s>	0
-1.1404345	n e </s>	0
-0.96867496	j e </s>	0
-0.5382344	o e </s>	0
-1.2776954	g e </s>	0
-1.0312343	y e </s>	0
-1.060172	e e </s>	0
-0.88876384	a e </s>	0
-1.2018092	s e </s>	0
-1.1043224	z e </s>	0
-0.83010125	t e </s>	0
-0.6038514	i e </s>	0
-0.7914749	f e </s>	0
-0.91230756	r e </s>	0
-0.90818006	k e </s>	0
-0.43490854	u e </s>	0
-0.9668089	v e </s>	0
-1.0079225	l e </s>	0
-1.1496109	m e </s>	0
-1.0545326	h e </s>	0
-1.2126004	b e </s>	0
-0.9579045	w e </s>	0
-0.95386267	c e </s>	0
-0.89878315	L e </s>	0
-1.0268552	p e </s>	0
-0.89346945	d e </s>	0
-1.2619821	q e </s>	0
-0.78179836	x e </s>	0
-1.1713127	D e </s>	0
-0.89878315	K e </s>	0
-3.1491132	<s> a </s>	0
-1.081178	n a </s>	0
-1.0678122	j a </s>	0
-0.8915223	o a </s>	0
-1.1157835	g a </s>	0
-1.0858188	y a </s>	0
-0.85725975	e a </s>	0
-0.777711	a a </s>	0
-1.241227	s a </s>	0
-1.0640312	z a </s>	0
-1.00354	t a </s>	0
-0.49259126	i a </s>	0
-0.88033193	f a </s>	0
-0.8796392	r a </s>	0
-1.2232612	k a </s>	0
-0.80106235	u a </s>	0
-0.8862883	v a </s>	0
-1.1281352	l a </s>	0
-1.3025066	m a </s>	0
-1.0969881	h a </s>	0
-1.2541046	b a </s>	0
-1.03239	w a </s>	0
-1.0388997	c a </s>	0
-1.2441386	L a </s>	0
-1.2826817	p a </s>	0
-0.9723462	d a </s>	0
-0.9567043	q a </s>	0
-0.719909	x a </s>	0
-0.36509883	X a </s>	0
-1.0800577	n s </s>	0
-1.4035921	o s </s>	0
-0.32560453	g s </s>	0
-1.0183727	e s </s>	0
-1.3147997	a s </s>	0
-0.71343344	s s </s>	0
-1.0571929	t s </s>	0
-1.2124548	i s </s>	0
-0.7709676	A s </s>	0
-0.40607253	r s </s>	0
-0.52040166	k s </s>	0
-1.5156136	u s </s>	0
-0.30464235	l s </s>	0
-1.3400033	m s </s>	0
-0.5678938	c s </s>	0
-0.32560453	d s </s>	0
-0.32560453	C s </s>	0
-0.32560453	W s </s>	0
-0.23446928	O s </s>	0
-1.8596877	<s> M </s>	0
-0.37740692	G M </s>	0
-1.44669	n z </s>	0
-1.6819594	o z </s>	0
-1.2920715	e z </s>	0
-1.603538	a z </s>	0
-1.652112	i z </s>	0
-0.3445145	r z </s>	0
-1.49512	u z </s>	0
-1.1117643	m z </s>	0
-1.1722734	n t </s>	0
-1.4581012	o t </s>	0
-1.5712471	e t </s>	0
-1.4687952	a t </s>	0
-0.92140913	s t </s>	0
-0.34355536	z t </s>	0
-1.6793647	i t </s>	0
-0.59975505	f t </s>	0
-0.9303013	r t </s>	0
-0.99511665	k t </s>	0
-0.5909778	l t </s>	0
-0.8229982	h t </s>	0
-0.73521364	b t </s>	0
-0.9417497	c t </s>	0
-0.73521364	x t </s>	0
-1.6359731	<s> i </s>	0
-1.263989	I i </s>	0
-1.1420851	n i </s>	0
-0.8715409	j i </s>	0
-1.2266445	g i </s>	0
-1.2642041	y i </s>	0
-0.9631132	e i </s>	0
-1.3491582	a i </s>	0
-1.2632099	s i </s>	0
-1.4266704	M i </s>	0
-1.2109452	z i </s>	0
-0.92490774	t i </s>	0
-1.0362748	i i </s>	0
-1.1294503	f i </s>	0
-0.96465147	r i </s>	0
-0.8848598	k i </s>	0
-1.1914748	v i </s>	0
-1.1986867	l i </s>	0
-1.113201	m i </s>	0
-1.0837386	h i </s>	0
-1.0135204	b i </s>	0
-0.9612838	w i </s>	0
-1.3114777	c i </s>	0
-0.9028962	p i </s>	0
-1.1508422	d i </s>	0
-1.2540458	q i </s>	0
-0.9203868	x i </s>	0
-1.0958333	R i </s>	0
-1.630277	<s> A </s>	0
-0.3191122	I A </s>	0
-0.23029552	D A </s>	0
-0.3907702	W A </s>	0
-0.20245604	T A </s>	0
-0.55661434	G A </s>	0
-0.55661434	O A </s>	0
-0.50910825	S A </s>	0
-0.55661434	R A </s>	0
-0.3191122	F A </s>	0
-1.8118955	o f </s>	0
-1.6978709	u f </s>	0
-0.6637659	l f </s>	0
-1.3329564	o r </s>	0
-0.8779095	e r </s>	0
-1.1938851	a r </s>	0
-1.0891758	i r </s>	0
-0.85401523	u r </s>	0
-0.36770767	q r </s>	0
-1.3365165	n k </s>	0
-1.6089671	o k </s>	0
-1.7482724	e k </s>	0
-1.6991823	a k </s>	0
-0.6382036	s k </s>	0
-1.9322501	i k </s>	0
-0.49162066	r k </s>	0
-1.7368809	u k </s>	0
-0.7446804	l k </s>	0
-0.49162066	c k </s>	0
-0.60666484	p k </s>	0
-2.6084366	<s> u </s>	0
-0.6672157	n u </s>	0
-1.2319533	j u </s>	0
-1.2242973	g u </s>	0
-1.0918233	y u </s>	0
-0.84072596	a u </s>	0
-1.1446033	s u </s>	0
-1.2030001	z u </s>	0
-0.74295795	t u </s>	0
-1.0075921	f u </s>	0
-1.3713046	k u </s>	0
-0.7844949	u u </s>	0
-0.98020375	v u </s>	0
-1.132711	l u </s>	0
-1.0598149	m u </s>	0
-1.1964455	h u </s>	0
-1.2327577	b u </s>	0
-1.3153551	w u </s>	0
-1.1033949	c u </s>	0
-1.0838624	p u </s>	0
-1.0631635	d u </s>	0
-1.052122	q u </s>	0
-1.4137894	x u </s>	0
-1.9558423	<s> v </s>	0
-1.8244064	o v </s>	0
-1.6616547	m v </s>	0
-3.4030626	<s> l </s>	0
-0.4000852	n l </s>	0
-0.59349614	j l </s>	0
-1.4761488	o l </s>	0
-0.34007448	y l </s>	0
-0.9649474	e l </s>	0
-1.174647	a l </s>	0
-0.4000852	s l </s>	0
-0.34007448	z l </s>	0
-1.2507071	i l </s>	0
-1.1890546	k l </s>	0
-1.2313173	u l </s>	0
-0.7893902	l l </s>	0
-1.3862691	m l </s>	0
-1.3916736	h l </s>	0
-0.9333009	c l </s>	0
-1.3701093	d l </s>	0
-1.5083524	o m </s>	0
-0.36645263	y m </s>	0
-1.736451	e m </s>	0
-1.4943708	a m </s>	0
-0.6419756	s m </s>	0
-1.738981	i m </s>	0
-1.0383608	r m </s>	0
-1.526465	u m </s>	0
-0.36645263	c m </s>	0
-0.9024806	n h </s>	0
-1.2427903	g h </s>	0
-1.7570435	a h </s>	0
-1.4232947	s h </s>	0
-1.048634	t h </s>	0
-1.6800045	i h </s>	0
-1.1617782	k h </s>	0
-1.5580164	u h </s>	0
-1.6841346	b h </s>	0
-1.3014421	c h </s>	0
-1.1771283	p h </s>	0
-0.62717426	W h </s>	0
-1.643766	o b </s>	0
-1.2894254	a b </s>	0
-1.7587273	u b </s>	0
-1.5423415	m b </s>	0
-1.3023223	n w </s>	0
-1.599923	o w </s>	0
-1.4444195	g w </s>	0
-1.386192	e w </s>	0
-1.4098169	a w </s>	0
-1.5085396	s w </s>	0
-1.5486757	k w </s>	0
-1.4570155	u w </s>	0
-1.5762614	l w </s>	0
-1.3054016	h w </s>	0
-1.1854262	c w </s>	0
-1.3725326	i c </s>	0
-1.0483505	l c </s>	0
-0.37744996	L L </s>	0
-1.6317174	o p </s>	0
-1.5016754	e p </s>	0
-1.4910578	a p </s>	0
-1.6530672	i p </s>	0
-0.3554036	k p </s>	0
-1.3007585	u p </s>	0
-1.634969	m p </s>	0
-1.1115515	n d </s>	0
-1.1322341	e d </s>	0
-1.4345652	a d </s>	0
-0.3402795	s d </s>	0
-1.5652542	i d </s>	0
-0.8131921	A d </s>	0
-0.69758934	r d </s>	0
-1.3117816	u d </s>	0
-0.40028778	l d </s>	0
-0.3402795	p d </s>	0
-1.5305291	a q </s>	0
-1.6974816	n x </s>	0
-1.6866661	o x </s>	0
-1.6027088	e x </s>	0
-1.7110631	i x </s>	0
-0.3769169	B N </s>	0
-1.0273292	U N </s>	0
-1.2958074	<s> C </s>	0
-0.59721273	C C </s>	0
-0.34214413	D C </s>	0
-0.34214413	O C </s>	0
-0.34214413	R C </s>	0
-0.55783194	C P </s>	0
-0.20284136	D P </s>	0
-0.31981647	W P </s>	0
-0.31981647	S P </s>	0
-0.31981647	R P </s>	0
-0.31981647	H P </s>	0
-1.204186	<s> B </s>	0
-0.35180402	L B </s>	0
-0.2510845	N B </s>	0
-0.2510845	T B </s>	0
-1.3676847	<s> D </s>	0
-0.5919509	I D </s>	0
-0.5050492	A D </s>	0
-0.5919509	C D </s>	0
-0.5919509	E D </s>	0
-0.37197086	E Z </s>	0
-0.60534453	A T </s>	0
-0.34664512	L T </s>	0
-0.5148268	E T </s>	0
-0.7428672	S T </s>	0
-0.34664512	R T </s>	0
-0.65098506	W E </s>	0
-0.65098506	K E </s>	0
-0.52033615	M O </s>	0
-0.43738613	L O </s>	0
-0.29774818	D O </s>	0
-0.29774818	T O </s>	0
-0.52033615	S O </s>	0
-0.6300094	K O </s>	0
-0.52033615	Y O </s>	0
-0.29774818	Q O </s>	0
-1.0857388	I S </s>	0
-0.58623266	M S </s>	0
-0.71684515	A S </s>	0
-0.58623266	P S </s>	0
-0.58623266	B S </s>	0
-0.336007	D S </s>	0
-0.39606592	T S </s>	0
-0.8911572	E S </s>	0
-0.336007	R S </s>	0
-1.1010132	<s> V </s>	0
-0.2474487	I V </s>	0
-1.7501036	<s> R </s>	0
-1.0406972	u R </s>	0
-0.35816926	O R </s>	0
-1.9980848	<s> U </s>	0
-0.57216847	M U </s>	0
-0.23603326	A U </s>	0
-0.57216847	C U </s>	0
-0.32804623	T U </s>	0
-0.7778108	K U </s>	0
-0.64891803	T H </s>	0
-0.62895876	A F </s>	0
-0.36681885	D F </s>	0
-0.14579228	<s> Â </s>	0
-0.13887258	n é </s>	0
-0.13887258	y é </s>	0
-0.13887258	k é </s>	0
-0.13887258	l é </s>	0
-2.0296943	<s> I I	-0.31593773
-0.95335335	I I I	-0.22886051
-4.029833	<s> e I	-0.22886051
-2.2555506	z e I	-0.22886051
-0.66122425	I M I	-0.22886051
-2.039724	i i I	-0.22886051
-2.4859934	<s> A I	-0.31799966
-1.3575226	e A I	-0.22886051
-1.6158838	<s> d I	-0.3478509
-2.7529097	<s> N I	-0.22886051
-1.5484616	<s> C I	-0.3478509
-0.81482214	A C I	-0.22886051
-0.433715	G C I	-0.22886051
-0.37724566	M D I	-0.22886051
-0.9337677	N D I	-0.22886051
-0.8061645	L W I	-0.22886051
-0.79655933	K W I	-0.22886051
-0.7405421	I Z I	-0.22886051
-0.6036493	A Z I	-0.22886051
-0.34570992	N Z I	-0.22886051
-0.34570992	U Z I	-0.22886051
-1.9513427	<s> T I	-0.22886051
-0.95262074	N G I	-0.22886051
-1.3853763	I S I	-0.22886051
-0.659823	E S I	-0.22886051
-1.5778117	<s> R I	-0.22886051
-0.65181315	A R I	-0.22886051
-1.3074685	<s> J I	-0.31799966
-1.5555757	<s> H I	-0.22886051
-1.2104112	e H I	-0.22886051
-1.0398704	e F I	-0.22886051
-1.0563239	i F I	-0.22886051
-0.9884339	A F I	-0.22886051
-0.6256867	<s> I n	-0.87532824
-0.6621453	e I n	-0.22886051
-0.37703076	i I n	-0.22886051
-2.3885267	o n n	-0.22886051
-1.8426232	a n n	-0.26235396
-2.1016946	i n n	-0.22886051
-1.915603	m n n	-0.22886051
-0.8356534	h n n	-0.22886051
-1.0516696	<s> o n	-1.1664892
-1.1537786	n o n	-0.39334115
-0.71638465	j o n	-0.54753464
-0.9968069	o o n	-0.37546358
-1.0067699	g o n	-0.4461105
-1.1873119	y o n	-0.44978413
-0.6147992	e o n	-0.22886051
-0.95339566	s o n	-0.47315976
-0.59253883	M o n	-0.47278965
-1.139296	z o n	-0.45424044
-0.9415852	t o n	-0.29394186
-0.62651116	i o n	-0.30237728
-1.1856686	f o n	-0.28620994
-1.0827404	r o n	-0.22886051
-1.0440933	k o n	-0.43154204
-1.406071	v o n	-0.22886051
-1.0472969	l o n	-0.52703804
-0.82388234	m o n	-0.3733423
-1.1470628	h o n	-0.39819276
-0.96789163	b o n	-0.5584618
-0.9118837	w o n	-0.46165454
-0.98189694	c o n	-0.31593773
-0.7291707	L o n	-0.22886051
-1.0380139	p o n	-0.30237728
-0.75247127	d o n	-0.3881978
-0.8428941	q o n	-0.5196465
-1.036802	N o n	-0.22886051
-1.1743075	C o n	-0.22886051
-0.83321583	B o n	-0.22886051
-0.61994034	W o n	-0.22886051
-1.1444737	Z o n	-0.22886051
-1.0817623	G o n	-0.22886051
-1.0166144	S o n	-0.22886051
-1.1425464	K o n	-0.22886051
-1.036802	J o n	-0.22886051
-0.77252626	Y o n	-0.22886051
-2.2983434	a g n	-0.22886051
-2.228781	i g n	-0.22886051
-2.1805706	a y n	-0.22886051
-0.38414598	C y n	-0.22886051
-0.38414598	D y n	-0.22886051
-0.9204556	<s> e n	-1.4994359
-1.1869229	n e n	-0.47782132
-0.9637339	j e n	-0.28493115
-1.0548981	g e n	-0.36071485
-1.1002016	y e n	-0.4536619
-1.0042882	e e n	-0.58468145
-1.1156008	s e n	-0.50937396
-1.1602259	z e n	-0.37416062
-0.9883188	t e n	-0.30237728
-0.88988763	i e n	-0.298648
-0.9992847	f e n	-0.26235396
-1.101223	r e n	-0.29628235
-0.95771015	k e n	-0.35124
-0.9624337	v e n	-0.35124
-1.1436678	l e n	-0.4814712
-0.8767816	m e n	-0.5252946
-0.9843987	h e n	-0.43923151
-1.1508143	b e n	-0.49553514
-0.99156094	w e n	-0.59403557
-0.9502819	c e n	-0.40923193
-0.89248145	L e n	-0.22886051
-0.934171	p e n	-0.30669573
-0.8274554	d e n	-0.30858335
-1.0938808	q e n	-0.29628235
-1.1583232	x e n	-0.3356631
-1.0298152	N e n	-0.22886051
-0.75036246	C e n	-0.31799966
-1.0647262	T e n	-0.22886051
-1.1822538	S e n	-0.22886051
-0.78271425	V e n	-0.22886051
-0.53547585	K e n	-0.22886051
-0.89248145	H e n	-0.22886051
-0.78271425	Y e n	-0.22886051
-0.97473216	Q e n	-0.22886051
-0.93145305	<s> a n	-1.3602777
-1.0642744	n a n	-0.48805824
-0.96348447	j a n	-0.33704528
-1.0233015	g a n	-0.4418519
-1.1539918	y a n	-0.5462601
-1.2354245	e a n	-0.22886051
-1.194275	a a n	-0.22886051
-1.128669	s a n	-0.46089876
-0.8174894	M a n	-0.34694314
-0.9963004	z a n	-0.52785957
-0.87586117	t a n	-0.34647045
-1.4062471	i a n	-0.22886051
-0.8685982	f a n	-0.49465314
-1.0555943	r a n	-0.26235396
-1.1108207	k a n	-0.5156614
-0.876074	v a n	-0.39031425
-1.0495667	l a n	-0.5430514
-1.135188	m a n	-0.5914181
-1.0874509	h a n	-0.568722
-1.0670667	b a n	-0.5914181
-1.0614508	w a n	-0.6881062
-0.96401405	c a n	-0.39293027
-1.2019104	L a n	-0.22886051
-1.0065043	p a n	-0.24714828
-1.0111512	d a n	-0.335617
-0.998125	q a n	-0.43877637
-0.75993794	x a n	-0.42511496
-1.0147249	N a n	-0.2711471
-0.5351428	C a n	-0.56969965
-1.168241	P a n	-0.22886051
-0.7986613	B a n	-0.30714244
-0.989021	D a n	-0.22886051
-0.83535796	Z a n	-0.31799966
-1.0317987	G a n	-0.22886051
-1.2794361	S a n	-0.22886051
-0.94660294	K a n	-0.22886051
-0.61833864	J a n	-0.28620994
-0.86572057	F a n	-0.22886051
-0.9354335	Y a n	-0.22886051
-3.173201	<s> s n	-0.22886051
-1.4333987	o M n	-0.28620994
-1.4099675	a M n	-0.22886051
-1.5997009	u M n	-0.22886051
-1.2000346	U M n	-0.22886051
-0.38661948	s z n	-0.22886051
-2.3221653	i t n	-0.22886051
-1.4835273	c t n	-0.22886051
-0.70356643	<s> i n	-1.6514281
-1.2153982	I i n	-0.22886051
-1.0170797	n i n	-0.5675842
-0.76876175	j i n	-0.326317
-0.74650794	o i n	-0.22886051
-1.0836431	g i n	-0.47563854
-1.1971171	y i n	-0.4812175
-0.5975057	e i n	-0.22886051
-0.6911499	a i n	-0.22886051
-1.2439265	s i n	-0.54095656
-1.1615771	M i n	-0.22886051
-1.193641	z i n	-0.55934477
-0.9611548	t i n	-0.38584447
-1.0141932	i i n	-0.35793775
-0.95491844	f i n	-0.34076804
-1.2049576	r i n	-0.2711471
-1.006956	k i n	-0.37327206
-0.90860355	v i n	-0.36677408
-1.147905	l i n	-0.5274242
-1.1513617	m i n	-0.40558046
-0.983998	h i n	-0.4493703
-1.068248	b i n	-0.3842735
-0.8024974	w i n	-0.45919883
-0.8308783	c i n	-0.43572608
-0.73642296	L i n	-0.28620994
-1.0374223	p i n	-0.22886051
-0.98006487	d i n	-0.49530506
-0.6871434	q i n	-0.565926
-0.6969146	x i n	-0.29746357
-0.88705397	N i n	-0.22886051
-0.77800274	C i n	-0.22886051
-0.5330819	B i n	-0.22886051
-1.1863214	D i n	-0.22886051
-1.0004914	Z i n	-0.2711471
-1.1164314	S i n	-0.24714828
-0.9690371	Y i n	-0.22886051
-0.24860203	Q i n	-0.3356631
-2.031562	<s> A n	-0.298648
-1.1021075	i A n	-0.22886051
-1.3813598	e r n	-0.26235396
-1.6167635	a r n	-0.22886051
-1.2027092	u r n	-0.22886051
-2.0172644	e k n	-0.31799966
-1.0945127	<s> u n	-1.349308
-1.1041821	n u n	-0.22886051
-1.2057418	j u n	-0.31799966
-0.80188483	o u n	-0.28620994
-0.90897316	g u n	-0.47451285
-0.80679446	y u n	-0.37546358
-0.8641661	s u n	-0.4118204
-1.0253206	z u n	-0.4118204
-1.2080361	t u n	-0.28620994
-0.884274	f u n	-0.55644095
-0.9470014	r u n	-0.22886051
-1.1977175	k u n	-0.5817089
-1.0442533	v u n	-0.41268227
-1.0216905	l u n	-0.5044862
-1.0464585	m u n	-0.39222795
-1.0615227	h u n	-0.45348665
-1.2170212	b u n	-0.45723364
-1.1972468	w u n	-0.26484817
-1.3658526	c u n	-0.22886051
-0.52790576	L u n	-0.5377865
-1.0635939	p u n	-0.2711471
-1.0506142	d u n	-0.26624006
-0.8538975	q u n	-0.39673734
-1.0012457	x u n	-0.28620994
-0.8796734	B u n	-0.31799966
-0.6250053	T u n	-0.22886051
-0.48136315	G u n	-0.47278965
-1.243027	K u n	-0.22886051
-0.40434125	F u n	-0.44241038
-0.6822623	j l n	-0.22886051
-2.4450912	e l n	-0.22886051
-2.4313796	a l n	-0.22886051
-1.1367894	<s> m n	-0.7926478
-0.8110534	n m n	-0.22886051
-1.3821645	o m n	-0.5326587
-1.6281587	e m n	-0.30799332
-1.4064231	a m n	-0.40240276
-1.436015	i m n	-0.3757661
-1.3390424	u m n	-0.40826753
-0.36947832	O m n	-0.22886051
-1.3297694	U m n	-0.22886051
-1.8220454	o h n	-0.22886051
-1.9858527	c h n	-0.22886051
-2.1398957	e b n	-0.22886051
-0.384907	b b n	-0.22886051
-3.6172671	<s> w n	-0.22886051
-1.386876	o w n	-0.22886051
-0.7816354	<s> E n	-0.5384934
-1.6160841	<s> O n	-0.47278965
-1.4045377	<s> U n	-0.44707423
-0.66037655	i U n	-0.22886051
-1.4677945	<s> n j	-1.7768532
-1.3928359	I n j	-0.22886051
-1.5850179	o n j	-0.29628235
-1.2373904	e n j	-0.5976566
-1.3374199	a n j	-0.60586965
-1.3152788	i n j	-0.62662035
-1.2767032	u n j	-0.49836072
-0.8136344	l n j	-0.22886051
-3.1091957	<s> o j	-0.28620994
-2.0256886	n o j	-0.22886051
-1.1190931	j o j	-0.29628235
-1.8940755	o o j	-0.22886051
-1.5511065	g o j	-0.29628235
-2.1133213	y o j	-0.22886051
-2.0592082	z o j	-0.22886051
-1.4667586	f o j	-0.22886051
-1.369512	r o j	-0.31799966
-2.178008	l o j	-0.22886051
-2.215869	h o j	-0.22886051
-1.8509369	w o j	-0.22886051
-1.1506404	s g j	-0.22886051
-2.5643425	<s> e j	-0.43928087
-1.6751329	n e j	-0.22886051
-1.6858531	j e j	-0.22886051
-1.8463621	g e j	-0.26235396
-1.8593584	y e j	-0.22886051
-1.7635843	e e j	-0.31799966
-2.0829701	s e j	-0.22886051
-1.5887682	z e j	-0.3478509
-1.784907	r e j	-0.22886051
-1.7784495	l e j	-0.2711471
-1.2923021	m e j	-0.49100167
-1.7831452	h e j	-0.28620994
-1.6974066	b e j	-0.22886051
-2.0650601	w e j	-0.31799966
-2.6038544	<s> a j	-0.4133623
-1.4013284	j a j	-0.3478509
-1.8861288	g a j	-0.2711471
-1.7568123	y a j	-0.29628235
-2.1268442	s a j	-0.22886051
-1.9858658	z a j	-0.22886051
-1.8778592	k a j	-0.31799966
-1.9748249	l a j	-0.298648
-1.7706227	m a j	-0.30408964
-2.3166509	h a j	-0.22886051
-1.9201169	b a j	-0.298648
-1.7700517	w a j	-0.34363028
-1.9962599	q a j	-0.22886051
-1.8470126	x a j	-0.22886051
-0.6531386	J a j	-0.31799966
-2.2309287	o s j	-0.22886051
-1.6847867	n z j	-0.22886051
-1.9168385	o z j	-0.22886051
-2.1105273	e z j	-0.22886051
-2.1622825	a z j	-0.22886051
-1.8185546	n t j	-0.22886051
-2.3724442	<s> i j	-0.50113434
-1.7510883	n i j	-0.28620994
-1.1920488	g i j	-0.4308297
-1.6292391	y i j	-0.28620994
-1.3448046	e i j	-0.22886051
-1.7118897	s i j	-0.30799332
-1.5601869	z i j	-0.326317
-1.7325715	i i j	-0.22886051
-1.8840289	f i j	-0.22886051
-1.8533063	k i j	-0.22886051
-1.9624841	l i j	-0.2711471
-1.6298008	m i j	-0.22886051
-2.0218139	h i j	-0.22886051
-1.9695258	w i j	-0.22886051
-1.5231332	c i j	-0.28620994
-1.9844121	d i j	-0.22886051
-1.6310852	S i j	-0.22886051
-2.5734942	<s> u j	-0.4286221
-2.063655	g u j	-0.22886051
-2.0074415	s u j	-0.22886051
-1.6007793	k u j	-0.45260322
-2.0175536	l u j	-0.2711471
-1.8234551	b u j	-0.26235396
-2.0541697	w u j	-0.22886051
-2.1305516	e l j	-0.31799966
-2.467201	a l j	-0.22886051
-2.7426488	<s> m j	-0.22886051
-1.8030753	o m j	-0.37546358
-2.0685165	a m j	-0.28620994
-2.058938	u m j	-0.2711471
-1.8046457	t h j	-0.31799966
-2.126139	k h j	-0.22886051
-1.7931947	u w j	-0.22886051
-2.086252	n d j	-0.22886051
-1.1650428	<s> N j	-1.1107904
-1.1593423	I N j	-0.22886051
-1.4802424	e N j	-0.31799966
-1.4060694	i N j	-0.31799966
-1.2662961	u N j	-0.22886051
-2.7158368	<s> U j	-0.22886051
-2.5907412	<s> I o	-0.22886051
-0.80975395	<s> n o	-1.4291719
-1.2869016	I n o	-0.22886051
-1.2116319	o n o	-0.45528296
-1.3843693	e n o	-0.4406914
-1.3519436	a n o	-0.45187
-0.7816842	s n o	-0.22886051
-1.2991159	i n o	-0.48515642
-0.36181915	k n o	-0.22886051
-1.3514304	u n o	-0.39248434
-1.3650553	m n o	-0.3356631
-1.0994402	U n o	-0.22886051
-0.61193806	<s> j o	-0.4532131
-0.7615007	n j o	-0.4118204
-0.52921426	o j o	-0.25658923
-1.044676	e j o	-0.2711471
-0.77542806	a j o	-0.29247776
-0.6909462	i j o	-0.4963485
-0.74834627	u j o	-0.34363028
-0.6237419	m j o	-0.3149104
-0.4528042	N j o	-0.3478509
-0.3119088	U j o	-0.22886051
-1.8742675	<s> o o	-0.6207923
-1.7331259	n o o	-0.25658923
-1.8002008	o o o	-0.22886051
-1.9602262	g o o	-0.22886051
-1.9893651	y o o	-0.22886051
-1.5675522	s o o	-0.22886051
-1.3208555	M o o	-0.22886051
-1.933708	z o o	-0.22886051
-1.51712	t o o	-0.22886051
-1.7500634	k o o	-0.24714828
-1.5141093	l o o	-0.33068866
-1.886773	b o o	-0.22886051
-1.7472007	w o o	-0.22886051
-1.2883819	L o o	-0.22886051
-1.7899128	d o o	-0.22886051
-1.4033148	S o o	-0.22886051
-1.1463131	<s> g o	-0.32749033
-0.70653933	I g o	-0.22886051
-1.1166673	n g o	-0.4431184
-0.9114713	o g o	-0.28970176
-0.7504654	g g o	-0.25251794
-1.0947493	e g o	-0.27673247
-1.0309393	a g o	-0.40331116
-0.46886998	s g o	-0.3478509
-0.920703	i g o	-0.3812244
-0.5040838	k g o	-0.22886051
-0.95799947	u g o	-0.3278733
-0.8103534	m g o	-0.39854804
-0.33168933	w g o	-0.22886051
-0.7346891	q g o	-0.22886051
-1.2884047	N g o	-0.22886051
-0.57858014	U g o	-0.22886051
-0.49502695	<s> y o	-1.4457923
-0.8857941	n y o	-0.35470176
-1.1990879	o y o	-0.25569302
-0.7601362	e y o	-0.36611158
-0.66429186	a y o	-0.4903563
-1.0569676	t y o	-0.26235396
-0.703236	i y o	-0.515773
-0.8207085	u y o	-0.34217063
-0.7680162	l y o	-0.28620994
-0.9474612	m y o	-0.28620994
-0.33710375	E y o	-0.22886051
-2.2188656	y e o	-0.22886051
-2.1372504	e e o	-0.22886051
-2.2621446	s e o	-0.22886051
-2.2787125	l e o	-0.22886051
-1.297507	P e o	-0.22886051
-2.0287337	g a o	-0.22886051
-2.3544922	k a o	-0.22886051
-0.9045359	<s> s o	-1.0838908
-1.1556491	n s o	-0.29628235
-0.9839041	o s o	-0.28978047
-0.96907157	e s o	-0.45682412
-0.9127182	a s o	-0.5615817
-1.0516868	s s o	-0.22886051
-1.108135	t s o	-0.27753875
-0.99074554	i s o	-0.564495
-1.0804099	u s o	-0.3575361
-0.6929304	l s o	-0.31799966
-0.9760896	m s o	-0.29394186
-1.2132733	T s o	-0.22886051
-1.4603246	<s> M o	-0.22886051
-1.4644691	o M o	-0.31799966
-1.1217179	e M o	-0.2711471
-1.0213125	a M o	-0.22886051
-1.1247402	u M o	-0.3478509
-1.0939577	U M o	-0.22886051
-0.60675013	<s> z o	-1.3169154
-1.0772651	n z o	-0.31593773
-1.0648172	o z o	-0.3203796
-0.8780345	e z o	-0.5333295
-0.8909952	a z o	-0.47177988
-0.33103412	z z o	-0.22886051
-0.87960005	i z o	-0.4387825
-0.9042879	u z o	-0.37704837
-0.7917864	m z o	-0.31593773
-0.577424	E z o	-0.22886051
-1.2055146	<s> t o	-0.4532131
-1.0226703	n t o	-0.49698645
-1.3172402	o t o	-0.2842932
-1.2327038	e t o	-0.22886051
-1.0736127	a t o	-0.4294017
-1.1909888	s t o	-0.22886051
-1.0148507	t t o	-0.22886051
-1.2004311	i t o	-0.30265704
-1.1318649	r t o	-0.22886051
-0.70410985	k t o	-0.22886051
-1.4311432	u t o	-0.22886051
-1.3542138	m t o	-0.22886051
-0.8126757	h t o	-0.22886051
-0.726762	b t o	-0.22886051
-0.7837687	c t o	-0.3478509
-1.0221823	S t o	-0.22886051
-2.0423243	g i o	-0.22886051
-2.0164504	s i o	-0.22886051
-1.2947742	t i o	-0.56969965
-1.5393887	i i o	-0.22886051
-1.7766558	r i o	-0.22886051
-2.214592	l i o	-0.22886051
-2.0867913	h i o	-0.22886051
-1.9421295	b i o	-0.22886051
-2.0412667	w i o	-0.22886051
-1.3061501	p i o	-0.31799966
-0.67166567	V i o	-0.22886051
-0.54672325	<s> f o	-0.6613992
-0.6673468	I f o	-0.22886051
-0.37502706	n f o	-0.22886051
-1.0141625	o f o	-0.22886051
-0.68374383	e f o	-0.39470777
-1.1590043	a f o	-0.25658923
-0.78228366	i f o	-0.4294017
-1.3482162	u f o	-0.22886051
-0.5490583	l f o	-0.22886051
-0.80118906	m f o	-0.35495996
-0.31472304	p f o	-0.22886051
-1.4696848	<s> r o	-0.22886051
-1.3524859	o r o	-0.22886051
-1.0437162	g r o	-0.22886051
-1.2567734	a r o	-0.22886051
-0.8755194	t r o	-0.22886051
-1.1220447	i r o	-0.22886051
-0.8524797	k r o	-0.22886051
-1.2566075	u r o	-0.22886051
-0.97723764	h r o	-0.22886051
-0.57330555	b r o	-0.22886051
-0.4001431	c r o	-0.22886051
-0.3909828	p r o	-0.31552652
-0.5668459	P r o	-0.25251794
-0.57330555	G r o	-0.22886051
-0.779638	F r o	-0.22886051
-1.1126009	<s> k o	-1.2683648
-0.9322013	n k o	-0.43855342
-0.6797399	o k o	-0.5966859
-0.8834886	e k o	-0.54398423
-1.095993	a k o	-0.43007004
-1.0211358	s k o	-0.22886051
-0.50763744	M k o	-0.31799966
-0.9599134	i k o	-0.5269801
-1.0545377	u k o	-0.46134177
-0.7137313	l k o	-0.22886051
-1.1966754	m k o	-0.22886051
-0.601984	N k o	-0.3149104
-0.7968459	O k o	-0.22886051
-0.7968459	U k o	-0.22886051
-1.1871709	<s> v o	-0.2711471
-0.32670066	I v o	-0.22886051
-1.2017437	o v o	-0.28620994
-0.9544737	e v o	-0.4118204
-1.0245116	a v o	-0.29628235
-0.9233677	i v o	-0.26624006
-0.91033715	u v o	-0.2711471
-1.1739943	m v o	-0.22886051
-0.6151704	<s> l o	-1.3246782
-0.84458685	I l o	-0.22886051
-0.60866517	o l o	-0.6204888
-0.55640405	g l o	-0.22886051
-0.9252178	e l o	-0.6242056
-0.8241286	a l o	-0.71441627
-0.6993672	s l o	-0.22886051
-0.67701805	M l o	-0.22886051
-0.8893806	t l o	-0.26235396
-0.8230939	i l o	-0.5591836
-0.67701805	r l o	-0.22886051
-0.6922311	k l o	-0.25658923
-0.8645052	u l o	-0.5476264
-1.0685233	l l o	-0.22886051
-0.75667393	m l o	-0.3457819
-0.7566468	h l o	-0.65471333
-0.9065358	b l o	-0.22886051
-0.86091024	c l o	-0.22886051
-0.67127234	p l o	-0.22886051
-0.9540817	d l o	-0.3603692
-0.55640405	P l o	-0.22886051
-0.55640405	E l o	-0.22886051
-0.9220326	O l o	-0.22886051
-0.42414472	H l o	-0.36760482
-1.685359	<s> m o	-0.34200957
-1.2482415	o m o	-0.5171234
-1.1398474	e m o	-0.3766448
-1.2295887	a m o	-0.5746393
-1.2517507	i m o	-0.42946985
-1.0495383	r m o	-0.22886051
-1.2869099	u m o	-0.48050144
-1.3980603	m m o	-0.22886051
-1.1878673	<s> h o	-0.26235396
-1.214883	o h o	-0.22886051
-1.0023502	g h o	-0.2711471
-0.9322989	y h o	-0.22886051
-0.684753	e h o	-0.3247929
-0.9329377	a h o	-0.31552652
-0.8860659	s h o	-0.50679296
-0.94312567	t h o	-0.54947495
-0.83531964	i h o	-0.30951783
-0.9940301	r h o	-0.28620994
-0.8476572	k h o	-0.5914181
-1.0777513	u h o	-0.3478509
-0.7244221	m h o	-0.30237728
-0.77919346	h h o	-0.2842932
-0.6947292	b h o	-0.3953698
-0.89432865	c h o	-0.4114069
-0.79866606	p h o	-0.4765131
-0.823932	q h o	-0.2711471
-0.7059648	x h o	-0.34055907
-0.84266925	P h o	-0.3478509
-0.9168515	B h o	-0.28620994
-0.3867744	X h o	-0.22886051
-0.5971286	K h o	-0.36666772
-0.90004796	<s> b o	-1.0292355
-0.70110655	I b o	-0.22886051
-0.84911877	o b o	-0.5654667
-0.3293893	g b o	-0.22886051
-0.8860042	e b o	-0.4413427
-0.9606393	a b o	-0.5594
-0.88657576	i b o	-0.57029897
-0.57452744	A b o	-0.22886051
-0.9068905	u b o	-0.4267467
-0.84943795	m b o	-0.48456606
-0.57452744	O b o	-0.22886051
-0.74563056	<s> w o	-1.1041517
-0.9206767	o w o	-0.3595951
-1.1045744	e w o	-0.22886051
-0.73440933	a w o	-0.46286088
-1.5520167	s w o	-0.22886051
-0.7118554	i w o	-0.49867192
-1.3342931	k w o	-0.22886051
-0.8260543	u w o	-0.3164523
-0.35477662	T w o	-0.22886051
-1.0263213	<s> c o	-0.26975772
-0.74338573	n c o	-0.40131676
-0.78642607	o c o	-0.2711471
-0.867177	g c o	-0.29982728
-1.1648786	e c o	-0.28620994
-1.2202009	a c o	-0.28493115
-0.71842766	s c o	-0.22886051
-1.1607614	i c o	-0.30714244
-0.9371106	k c o	-0.22886051
-1.1480088	u c o	-0.24948934
-1.1287897	m c o	-0.22886051
-0.6981043	c c o	-0.22886051
-1.0400074	N c o	-0.22886051
-0.6981043	E c o	-0.22886051
-0.94779706	S c o	-0.22886051
-0.73524994	<s> L o	-0.61968285
-1.4701242	o L o	-0.22886051
-1.2647545	e L o	-0.22886051
-1.159087	i L o	-0.22886051
-0.7685954	u L o	-0.22886051
-2.081074	<s> p o	-0.47278965
-0.7063967	I p o	-0.22886051
-0.64901304	o p o	-0.4307394
-0.9734398	e p o	-0.29394186
-0.8367197	a p o	-0.3164523
-0.861527	s p o	-0.22886051
-0.85364425	i p o	-0.29746357
-0.5715093	A p o	-0.31799966
-0.49512932	r p o	-0.22886051
-0.9338988	u p o	-0.2711471
-0.8355461	m p o	-0.3501642
-1.0500638	<s> d o	-0.27753875
-1.0312132	n d o	-0.43277237
-0.7996692	o d o	-0.33704528
-0.59343266	g d o	-0.22886051
-1.0614933	e d o	-0.33068866
-1.0549371	a d o	-0.3008195
-1.195553	i d o	-0.34363028
-1.1757364	u d o	-0.3149104
-0.7879489	m d o	-0.41484436
-0.97293717	N d o	-0.22886051
-0.87534165	<s> q o	-0.3603692
-0.8322522	n q o	-0.30237728
-0.5455052	o q o	-0.42946985
-0.6962491	g q o	-0.4842307
-1.0134952	e q o	-0.29075935
-0.8954633	a q o	-0.43128344
-0.4011098	M q o	-0.3478509
-0.8357932	i q o	-0.42203754
-0.8711454	u q o	-0.3733423
-0.6963314	m q o	-0.38671494
-0.7831357	N q o	-0.22886051
-0.6863831	U q o	-0.22886051
-1.7987456	<s> x o	-0.22886051
-0.68054456	o x o	-0.38288453
-0.8839499	g x o	-0.2711471
-1.1710222	e x o	-0.28620994
-0.762942	a x o	-0.41152173
-0.69562906	i x o	-0.45653996
-0.79096884	u x o	-0.30580068
-0.46465233	m x o	-0.34019354
-0.704043	U x o	-0.22886051
-1.3442942	<s> N o	-0.5459754
-1.3805715	o N o	-0.22886051
-0.50294125	<s> C o	-0.5254216
-0.8819647	e C o	-0.2711471
-1.1408349	i C o	-0.22886051
-1.1377248	<s> P o	-0.4118204
-0.7482486	I P o	-0.22886051
-1.0772077	a P o	-0.22886051
-1.224593	i P o	-0.22886051
-0.77988875	<s> B o	-0.49254355
-0.90056705	o B o	-0.28620994
-1.3344636	e B o	-0.22886051
-1.1400113	i B o	-0.22886051
-0.9702066	u B o	-0.22886051
-1.4703376	<s> D o	-0.22886051
-1.1339668	e D o	-0.22886051
-1.0421493	i D o	-0.22886051
-0.42105693	<s> W o	-0.49100167
-0.7170163	e W o	-0.22886051
-0.32744288	a W o	-0.22886051
-0.32744288	m W o	-0.22886051
-0.30991113	<s> Z o	-0.72862864
-0.73265034	e Z o	-0.29628235
-1.0716377	i Z o	-0.22886051
-0.85288817	<s> T o	-0.43968716
-0.844978	<s> G o	-0.4118204
-0.6890318	I G o	-0.22886051
-0.9612043	e G o	-0.22886051
-0.6890318	a G o	-0.22886051
-0.6438007	i G o	-0.3478509
-0.93882155	u G o	-0.22886051
-1.3844137	<s> O o	-0.2842932
-0.21411969	o X o	-0.3478509
-0.3406643	a X o	-0.22886051
-1.2046814	<s> S o	-0.43928087
-0.80908614	o S o	-0.22886051
-1.1559135	e S o	-0.2711471
-1.0938015	a S o	-0.22886051
-1.2905216	i S o	-0.22886051
-0.8528131	u S o	-0.22886051
-0.8528131	U S o	-0.22886051
-1.1563209	<s> V o	-0.22886051
-1.2172873	<s> R o	-0.3149104
-1.0601181	u R o	-0.22886051
-0.84858054	<s> K o	-0.89504045
-0.34673932	I K o	-0.22886051
-0.7051289	e K o	-0.47278965
-0.56959176	i K o	-0.31799966
-0.23592682	<s> J o	-0.52673125
-0.32938755	i J o	-0.22886051
-1.2445008	<s> H o	-0.31799966
-0.9766668	<s> F o	-0.56969965
-0.69626194	I F o	-0.22886051
-0.87319577	e F o	-0.22886051
-0.90498644	i F o	-0.22886051
-0.84830034	A F o	-0.22886051
-1.0893912	<s> Y o	-0.3149104
-0.7609345	e Y o	-0.22886051
-0.7468313	o Q o	-0.31799966
-1.0142118	u Q o	-0.22886051
-1.417645	<s> I g	-0.7553362
-0.34436262	<s> n g	-2.4108179
-1.2439193	I n g	-0.22886051
-0.8666648	n n g	-0.31799966
-0.9406506	o n g	-0.7991647
-1.1002375	e n g	-0.8463703
-1.049223	a n g	-0.90141934
-0.7671259	s n g	-0.22886051
-1.1515194	M n g	-0.22886051
-0.93783796	i n g	-0.90324026
-0.52750653	A n g	-0.31799966
-0.9278738	u n g	-0.7417384
-0.9528377	m n g	-0.5076925
-0.86239237	w n g	-0.22886051
-1.0712138	U n g	-0.22886051
-2.0529902	<s> o g	-0.46165454
-1.3787025	n o g	-0.27592772
-1.4195487	o o g	-0.29628235
-1.1924912	g o g	-0.44241038
-1.3794658	y o g	-0.35815403
-1.3337609	M o g	-0.22886051
-1.5234004	z o g	-0.28012195
-1.7120774	f o g	-0.22886051
-1.1711588	r o g	-0.3478509
-1.970954	k o g	-0.22886051
-1.773529	l o g	-0.2711471
-1.7451732	m o g	-0.22886051
-1.5151229	h o g	-0.27753875
-1.7022661	b o g	-0.22886051
-1.2849048	q o g	-0.29628235
-0.9354246	O o g	-0.22886051
-1.1393541	n g g	-0.39594257
-1.9477215	e g g	-0.22886051
-1.8500693	a g g	-0.22886051
-1.4677027	i g g	-0.26235396
-1.4780413	u g g	-0.28620994
-1.0918101	m g g	-0.29628235
-1.8800076	<s> e g	-0.8451761
-1.4058863	n e g	-0.3467339
-1.4186869	g e g	-0.34363028
-1.9945806	y e g	-0.22886051
-1.6172222	s e g	-0.27022037
-1.699326	z e g	-0.26235396
-1.3121035	t e g	-0.22886051
-1.750388	r e g	-0.22886051
-1.6621755	k e g	-0.31799966
-1.4205745	l e g	-0.3285479
-1.9351695	m e g	-0.22886051
-1.4047145	h e g	-0.25251794
-1.5301474	b e g	-0.28012195
-1.9112425	w e g	-0.28620994
-1.3909317	x e g	-0.22886051
-0.88276565	R e g	-0.22886051
-1.8594595	<s> a g	-0.64674926
-1.595296	n a g	-0.28620994
-1.5665752	g a g	-0.30729812
-1.5787098	y a g	-0.33252713
-1.4894446	s a g	-0.31063923
-1.7016727	M a g	-0.22886051
-1.5750433	z a g	-0.29075935
-1.8578055	t a g	-0.22886051
-1.5466008	i a g	-0.22886051
-1.4697881	k a g	-0.29181945
-1.1768032	u a g	-0.22886051
-1.6563582	l a g	-0.26235396
-1.4116195	m a g	-0.38275373
-1.3971678	h a g	-0.32612175
-1.5015442	b a g	-0.3467339
-1.432063	w a g	-0.43746525
-1.6651138	c a g	-0.22886051
-1.3803582	q a g	-0.37546358
-0.7194084	H a g	-0.31799966
-3.5170856	<s> s g	-0.22886051
-1.6900394	n s g	-0.22886051
-2.089727	e s g	-0.22886051
-2.2521808	i s g	-0.22886051
-0.9252247	A s g	-0.22886051
-1.1926918	r s g	-0.22886051
-0.9899964	o M g	-0.7158277
-1.7678877	e M g	-0.22886051
-1.211017	u M g	-0.3356631
-1.2015909	U M g	-0.22886051
-1.5900614	<s> i g	-0.98800826
-1.426779	n i g	-0.25658923
-1.1162639	g i g	-0.37603387
-1.4135112	y i g	-0.36921656
-1.4363883	s i g	-0.46904612
-1.4960343	M i g	-0.22886051
-1.385154	z i g	-0.4460813
-1.8762907	t i g	-0.22886051
-1.6571337	i i g	-0.22886051
-1.6663123	r i g	-0.22886051
-1.5617218	l i g	-0.40540978
-1.3470068	m i g	-0.37649316
-1.8116091	b i g	-0.22886051
-1.722092	w i g	-0.22886051
-1.2776273	L i g	-0.22886051
-1.5132267	p i g	-0.22886051
-1.7164108	d i g	-0.2711471
-1.6980245	q i g	-0.22886051
-1.5683141	x i g	-0.22886051
-1.5654691	S i g	-0.22886051
-1.1286565	R i g	-0.22886051
-0.37365407	H i g	-0.22886051
-1.7923892	<s> A g	-0.47278965
-1.3344641	e A g	-0.22886051
-1.0913373	i A g	-0.22886051
-1.7622579	o r g	-0.22886051
-1.9084301	e r g	-0.22886051
-1.5378886	a r g	-0.31799966
-1.611197	u r g	-0.22886051
-0.37555474	O r g	-0.22886051
-1.9441108	n k g	-0.22886051
-2.2414153	e k g	-0.22886051
-2.2255657	u k g	-0.22886051
-0.6694411	p k g	-0.22886051
-1.8459185	<s> u g	-0.73717123
-1.5993576	j u g	-0.22886051
-1.1121378	g u g	-0.32963187
-1.2295909	a u g	-0.22886051
-1.8724619	s u g	-0.22886051
-1.4274642	k u g	-0.5527271
-1.4415781	l u g	-0.29075935
-1.8594679	m u g	-0.22886051
-1.7829955	h u g	-0.298648
-1.4942186	b u g	-0.36883727
-1.2702235	w u g	-0.29075935
-1.6333824	q u g	-0.22886051
-1.1205379	B u g	-0.22886051
-1.9390228	e l g	-0.3478509
-1.7800965	<s> m g	-0.39854804
-1.537469	o m g	-0.47761485
-1.8033073	e m g	-0.29746357
-1.6517061	a m g	-0.29075935
-1.9359254	i m g	-0.22886051
-1.5705212	u m g	-0.32509816
-1.3859571	U m g	-0.22886051
-0.6814612	k b g	-0.22886051
-1.2091107	w w g	-0.22886051
-2.2436664	i c g	-0.22886051
-2.1652555	a d g	-0.22886051
-1.7801535	<s> q g	-0.22886051
-1.5500284	n q g	-0.22886051
-1.5981852	o q g	-0.22886051
-1.6994976	g q g	-0.22886051
-1.7757602	a q g	-0.22886051
-1.4206815	i q g	-0.3149104
-1.7168717	u q g	-0.22886051
-1.8570845	o x g	-0.22886051
-0.37281287	<s> N g	-1.405347
-0.8251982	o N g	-0.28620994
-0.8672712	e N g	-0.4283846
-0.8290244	a N g	-0.22886051
-0.8696813	i N g	-0.3569192
-0.9510462	u N g	-0.22886051
-2.4698243	<s> U g	-0.22886051
-2.221646	<s> I y	-0.3149104
-2.0177557	<s> n y	-1.0746895
-1.280319	I n y	-0.22886051
-0.8796485	n n y	-0.31799966
-1.1203011	o n y	-0.7027797
-1.1957705	e n y	-0.683738
-1.1249042	a n y	-0.81685424
-1.1768458	M n y	-0.22886051
-1.2403837	i n y	-0.6572862
-1.0498295	u n y	-0.69340765
-0.90129584	m n y	-0.4875855
-0.8778765	E n y	-0.22886051
-1.0951798	U n y	-0.22886051
-1.5194196	<s> o y	-1.201227
-1.760807	n o y	-0.28620994
-1.449185	j o y	-0.31799966
-2.0002778	g o y	-0.22886051
-1.718117	y o y	-0.3478509
-1.7249045	s o y	-0.22886051
-1.4203995	z o y	-0.31593773
-1.4820828	k o y	-0.38288453
-1.2580712	v o y	-0.22886051
-1.4388839	l o y	-0.3660629
-0.93635935	m o y	-0.5162848
-1.4272943	h o y	-0.38853464
-1.7075932	b o y	-0.22886051
-1.5533184	w o y	-0.28620994
-1.8176544	d o y	-0.22886051
-2.1849205	n g y	-0.22886051
-1.9996234	n y y	-0.22886051
-1.2896237	<s> e y	-1.6956413
-1.6278235	n e y	-0.25658923
-1.6333066	j e y	-0.22886051
-1.6603725	g e y	-0.27592772
-1.4479834	y e y	-0.41479772
-1.3135642	e e y	-0.56969965
-1.5000272	s e y	-0.3818572
-0.83560693	M e y	-0.31799966
-1.5454657	z e y	-0.3149104
-1.6777333	i e y	-0.22886051
-1.7174536	r e y	-0.22886051
-1.4541925	v e y	-0.31799966
-1.4100266	l e y	-0.39295083
-1.685253	m e y	-0.22886051
-1.4857541	h e y	-0.26235396
-1.4093368	b e y	-0.326317
-1.5794286	w e y	-0.4294017
-1.7989236	d e y	-0.22886051
-1.0310625	<s> a y	-1.818898
-1.2153077	n a y	-0.4532131
-1.3411068	g a y	-0.382613
-1.3529967	y a y	-0.5049958
-0.9583783	a a y	-0.31799966
-1.3041557	s a y	-0.5117544
-1.5967777	M a y	-0.22886051
-1.1280005	z a y	-0.468569
-1.2765524	t a y	-0.31799966
-0.9583922	f a y	-0.3164523
-1.5926148	r a y	-0.22886051
-1.348613	k a y	-0.43710354
-1.7336253	v a y	-0.22886051
-1.21041	l a y	-0.6037146
-1.3730819	m a y	-0.48601788
-1.1537628	h a y	-0.66673756
-1.381898	b a y	-0.47877586
-1.1350619	w a y	-0.8308095
-1.8003356	c a y	-0.22886051
-1.2545539	L a y	-0.22886051
-1.1432536	p a y	-0.37546358
-1.090806	d a y	-0.48544466
-1.2376698	q a y	-0.31593773
-1.6982565	x a y	-0.22886051
-1.3239771	N a y	-0.22886051
-1.4766012	B a y	-0.22886051
-1.0320829	D a y	-0.22886051
-0.97327214	Y a y	-0.22886051
-3.691384	<s> s y	-0.22886051
-2.2810023	e s y	-0.22886051
-1.9138258	o M y	-0.22886051
-1.2472694	U M y	-0.22886051
-0.38378364	g z y	-0.22886051
-2.2007046	e z y	-0.22886051
-2.0019076	<s> t y	-0.31799966
-1.4683514	n t y	-0.26235396
-0.983979	o t y	-0.43928087
-1.0093771	e t y	-0.30689302
-1.1490445	a t y	-0.39875996
-0.890739	i t y	-0.54775065
-0.9932556	r t y	-0.31799966
-0.9447397	u t y	-0.44797593
-1.4812847	m t y	-0.22886051
-0.7816302	U t y	-0.22886051
-1.47762	<s> i y	-1.4072881
-1.2994964	n i y	-0.326317
-1.1620934	j i y	-0.28620994
-1.315252	g i y	-0.4134672
-1.4720795	y i y	-0.41487405
-1.4151309	s i y	-0.565926
-1.5056309	z i y	-0.41398412
-1.4998033	t i y	-0.28620994
-1.5920918	i i y	-0.22886051
-1.7642521	f i y	-0.22886051
-1.6116521	r i y	-0.22886051
-1.37955	k i y	-0.31799966
-1.4875914	v i y	-0.31799966
-1.3384563	l i y	-0.4991186
-1.663544	m i y	-0.28620994
-1.270239	h i y	-0.44087645
-1.7489625	b i y	-0.22886051
-1.8108311	w i y	-0.22886051
-1.5986954	c i y	-0.22886051
-1.462269	p i y	-0.22886051
-1.4134179	d i y	-0.3164523
-1.6456116	q i y	-0.22886051
-1.5240859	x i y	-0.22886051
-1.4417646	Z i y	-0.22886051
-0.8002153	G i y	-0.22886051
-1.5077724	S i y	-0.22886051
-0.9978625	Y i y	-0.22886051
-2.7230592	<s> A y	-0.22886051
-1.8922514	o r y	-0.22886051
-1.3975766	t r y	-0.22886051
-0.84202284	r r y	-0.22886051
-2.237089	a k y	-0.22886051
-2.1945639	i k y	-0.22886051
-2.1555045	u k y	-0.22886051
-0.81832	l k y	-0.22886051
-1.0918051	c k y	-0.22886051
-1.3149905	<s> u y	-1.7127144
-1.8223671	g u y	-0.22886051
-1.1945938	a u y	-0.22886051
-1.798223	s u y	-0.22886051
-1.4235177	t u y	-0.31799966
-1.1894075	f u y	-0.28620994
-1.4048433	k u y	-0.5852312
-1.0701147	v u y	-0.30408964
-1.5997081	l u y	-0.37348136
-1.7825426	m u y	-0.22886051
-1.8828555	h u y	-0.22886051
-1.317337	b u y	-0.6303975
-1.6282948	w u y	-0.28620994
-1.472929	L u y	-0.22886051
-1.5329379	p u y	-0.22886051
-1.0939822	B u y	-0.31799966
-1.3597729	K u y	-0.22886051
-2.8903642	<s> l y	-0.26235396
-1.8278085	e l y	-0.28620994
-2.1739485	a l y	-0.22886051
-2.140155	i l y	-0.22886051
-1.7817216	u l y	-0.3149104
-1.034709	l l y	-0.31799966
-1.118221	p l y	-0.22886051
-1.7673836	d l y	-0.22886051
-2.0376956	<s> m y	-0.3603692
-1.6043502	o m y	-0.4118204
-1.852065	a m y	-0.2711471
-2.1613677	i m y	-0.22886051
-1.8263477	u m y	-0.31552652
-1.4056375	U m y	-0.22886051
-1.8506819	e h y	-0.22886051
-2.0245495	a h y	-0.22886051
-2.0796719	t h y	-0.22886051
-1.3446847	k h y	-0.4118204
-1.9414837	e w y	-0.22886051
-1.9222909	n c y	-0.22886051
-2.202228	i c y	-0.22886051
-1.9461256	m p y	-0.22886051
-1.5235786	n d y	-0.2711471
-1.99535	u d y	-0.22886051
-0.9853109	o N y	-0.22886051
-1.6330397	e N y	-0.22886051
-1.113266	a N y	-0.22886051
-1.5548942	i N y	-0.22886051
-1.2002443	u N y	-0.22886051
-0.62357664	m N y	-0.31799966
-1.154478	u C y	-0.22886051
-1.8416563	<s> D y	-0.22886051
-1.4226091	<s> T y	-0.3478509
-1.1732805	i T y	-0.22886051
-1.1315464	u T y	-0.22886051
-1.3477536	<s> E y	-0.56969965
-2.1386073	<s> S y	-0.3478509
-1.8872718	<s> U y	-0.44241038
-0.81353587	<s> n e	-1.4064013
-1.1677608	n n e	-0.22886051
-1.2428988	o n e	-0.52716136
-0.6287131	g n e	-0.22886051
-1.1461699	e n e	-0.62455314
-1.1234037	a n e	-0.6699354
-0.6287131	t n e	-0.22886051
-1.1214464	i n e	-0.6614342
-0.70320857	r n e	-0.22886051
-1.1374139	u n e	-0.4780656
-0.77527314	l n e	-0.22886051
-1.1127577	m n e	-0.31593773
-0.91817415	<s> j e	-0.33885625
-0.76191163	n j e	-0.52453333
-0.72081167	o j e	-0.2711471
-0.9124528	e j e	-0.26235396
-1.2227905	a j e	-0.22886051
-0.5447856	t j e	-0.22886051
-0.86829555	i j e	-0.328723
-1.0213712	u j e	-0.22886051
-0.97486615	m j e	-0.22886051
-0.8763498	N j e	-0.22886051
-2.2427619	g o e	-0.22886051
-2.208312	k o e	-0.22886051
-1.3852996	C o e	-0.22886051
-1.20237	J o e	-0.22886051
-0.6280417	<s> g e	-0.4768872
-0.97273755	n g e	-0.50632185
-0.9975651	o g e	-0.29075935
-0.7676953	g g e	-0.26235396
-0.85227185	e g e	-0.34360385
-0.87060815	a g e	-0.4896057
-1.0203179	i g e	-0.364834
-0.3289127	A g e	-0.3478509
-0.9141861	r g e	-0.22886051
-0.91865575	u g e	-0.3633742
-1.1568449	m g e	-0.22886051
-0.59074503	q g e	-0.22886051
-0.63390034	N g e	-0.2889512
-0.4820133	<s> y e	-1.3351974
-0.55275154	I y e	-0.22886051
-0.8036424	n y e	-0.54220444
-0.82621545	o y e	-0.30580068
-0.7455357	e y e	-0.45068273
-0.70790684	a y e	-0.53675765
-0.8407233	t y e	-0.42952824
-0.69391	i y e	-0.54302025
-0.7429058	u y e	-0.42048612
-0.87088144	l y e	-0.22886051
-0.7629814	m y e	-0.31593773
-0.31687236	w y e	-0.22886051
-0.76729983	d y e	-0.22886051
-1.0148488	N y e	-0.22886051
-0.67220265	U y e	-0.22886051
-2.4570177	<s> e e	-0.65290797
-1.2924036	n e e	-0.37384266
-1.5940374	j e e	-0.22886051
-1.917369	g e e	-0.22886051
-1.7463428	y e e	-0.24052818
-1.9167563	s e e	-0.22886051
-1.5125226	z e e	-0.25439227
-1.5840399	t e e	-0.31799966
-1.6388263	i e e	-0.22886051
-1.4440022	r e e	-0.31799966
-1.8172354	k e e	-0.22886051
-1.9558727	l e e	-0.22886051
-1.8411717	m e e	-0.22886051
-2.033079	h e e	-0.22886051
-1.737044	b e e	-0.25658923
-1.8474479	w e e	-0.27898693
-1.1997601	P e e	-0.22886051
-1.2782946	B e e	-0.22886051
-1.224253	D e e	-0.22886051
-0.6533839	W e e	-0.22886051
-1.5128427	S e e	-0.22886051
-2.0268269	g a e	-0.31799966
-2.2380624	h a e	-0.22886051
-2.1471965	c a e	-0.22886051
-0.5277368	<s> s e	-1.3548347
-0.9313406	I s e	-0.22886051
-0.9861983	n s e	-0.37705582
-0.8462386	o s e	-0.45581183
-0.9952668	e s e	-0.5012726
-0.9041244	a s e	-0.6131273
-0.74450433	s s e	-0.22886051
-0.50547475	M s e	-0.31799966
-0.97982574	t s e	-0.30237728
-0.8657487	i s e	-0.72777236
-0.82656735	u s e	-0.48890474
-0.7610308	m s e	-0.4532131
-0.59253144	h s e	-0.22886051
-0.59253144	w s e	-0.22886051
-0.24334998	U s e	-0.22886051
-1.3847535	<s> M e	-0.26235396
-1.7557194	o M e	-0.22886051
-1.3191315	e M e	-0.28620994
-1.0479721	i M e	-0.31799966
-0.6598584	<s> z e	-1.149531
-0.83555806	n z e	-0.47696713
-0.6662177	o z e	-0.7623786
-0.75129426	e z e	-0.58245873
-0.7820966	a z e	-0.6717376
-0.5780135	t z e	-0.22886051
-0.713079	i z e	-0.57556516
-0.6957142	u z e	-0.6597162
-0.9361286	m z e	-0.3478509
-0.9209106	N z e	-0.22886051
-1.215019	<s> t e	-0.25821662
-1.0409979	n t e	-0.3855824
-1.023929	o t e	-0.5239422
-0.71375847	e t e	-0.47251824
-1.0447468	a t e	-0.41018924
-0.6583363	s t e	-0.43786746
-0.37705207	t t e	-0.2842932
-1.158609	i t e	-0.34694314
-1.1881443	r t e	-0.22886051
-1.0498446	u t e	-0.39470777
-0.8715157	N t e	-0.29628235
-0.77520066	S t e	-0.31799966
-0.35025993	Ã t e	-0.22886051
-3.390657	<s> i e	-0.22886051
-1.7042099	n i e	-0.22886051
-1.6288636	j i e	-0.22886051
-1.7178446	g i e	-0.22886051
-1.852725	y i e	-0.22886051
-2.017789	z i e	-0.22886051
-1.8815535	t i e	-0.22886051
-1.6625273	i i e	-0.22886051
-1.8250201	f i e	-0.22886051
-1.4239557	r i e	-0.22886051
-1.792137	k i e	-0.22886051
-1.7537435	v i e	-0.22886051
-1.7923146	l i e	-0.22886051
-1.6277823	h i e	-0.22886051
-1.6045732	b i e	-0.31799966
-1.8895698	w i e	-0.22886051
-1.6407032	c i e	-0.22886051
-1.5173771	p i e	-0.22886051
-1.7199981	d i e	-0.22886051
-1.2741568	D i e	-0.22886051
-1.4925681	<s> f e	-0.31799966
-0.7024638	I f e	-0.22886051
-1.0418708	o f e	-0.2711471
-0.640427	e f e	-0.27898693
-0.8555071	a f e	-0.3569192
-0.7932186	i f e	-0.4247978
-0.87397766	f f e	-0.22886051
-1.0678996	u f e	-0.30408964
-0.9303868	m f e	-0.298648
-0.51885474	<s> r e	-0.3603692
-0.539211	I r e	-0.22886051
-0.85956615	o r e	-0.2842932
-0.97598726	g r e	-0.22886051
-0.9986536	e r e	-0.27753875
-0.869079	a r e	-0.31593773
-1.0275278	t r e	-0.22886051
-0.5636257	i r e	-0.29247776
-0.28954855	f r e	-0.47278965
-0.6544618	r r e	-0.22886051
-0.53594977	k r e	-0.2711471
-0.7448149	u r e	-0.2842932
-0.6873143	h r e	-0.22886051
-0.81558716	c r e	-0.22886051
-1.063352	p r e	-0.22886051
-0.7710783	d r e	-0.22886051
-0.79468846	P r e	-0.22886051
-0.46577382	B r e	-0.22886051
-0.539211	G r e	-0.22886051
-0.72604537	F r e	-0.22886051
-1.8114985	<s> k e	-1.0728898
-0.9523282	n k e	-0.35124
-0.93745494	o k e	-0.58791167
-0.73409414	e k e	-0.69851017
-0.866743	a k e	-0.56866395
-0.80599755	s k e	-0.22886051
-0.8359554	i k e	-0.60504735
-0.9872427	r k e	-0.22886051
-0.8329126	u k e	-0.7351791
-1.0193582	m k e	-0.22886051
-0.67393214	c k e	-0.28620994
-1.5819535	n u e	-0.22886051
-1.7819282	g u e	-0.31799966
-2.3321652	k u e	-0.22886051
-2.2756295	l u e	-0.22886051
-2.0225253	q u e	-0.22886051
-0.79076564	<s> v e	-0.28620994
-0.82867914	n v e	-0.22886051
-0.62025523	o v e	-0.44159156
-0.49978894	e v e	-0.42380825
-0.6873339	a v e	-0.5155101
-0.36915514	M v e	-0.31799966
-0.56640023	i v e	-0.46898454
-0.7792142	u v e	-0.47278965
-0.6760202	m v e	-0.5579484
-0.5389219	h v e	-0.22886051
-0.7229219	<s> l e	-1.2003617
-0.8357395	I l e	-0.22886051
-0.92286307	o l e	-0.5443228
-0.55182505	g l e	-0.22886051
-0.7546732	e l e	-0.83763707
-0.8225981	a l e	-0.7545253
-1.0735415	t l e	-0.22886051
-0.7361669	i l e	-0.72609365
-0.81570536	A l e	-0.22886051
-0.22850266	f l e	-0.22886051
-0.6709834	r l e	-0.22886051
-0.7690021	k l e	-0.26235396
-0.7779605	u l e	-0.7698797
-0.59684277	l l e	-0.2711471
-0.98929995	m l e	-0.31593773
-0.7966628	h l e	-0.64426124
-0.89930654	b l e	-0.2711471
-0.6031455	c l e	-0.22886051
-0.6663781	p l e	-0.22886051
-0.69229805	d l e	-0.47755486
-0.6709834	C l e	-0.22886051
-0.31633392	D l e	-0.22886051
-0.6709834	K l e	-0.22886051
-1.1559166	H l e	-0.22886051
-0.22850266	F l e	-0.22886051
-1.3240527	<s> m e	-0.7744236
-0.9989843	I m e	-0.22886051
-0.40999722	n m e	-0.31799966
-1.2429503	o m e	-0.57556516
-1.0154728	e m e	-0.5322509
-1.062388	a m e	-0.64495176
-0.61164635	s m e	-0.22886051
-0.4210727	M m e	-0.3478509
-0.2500196	t m e	-0.31799966
-0.97409046	i m e	-0.54246515
-0.61164635	A m e	-0.22886051
-0.94020003	u m e	-0.5939233
-0.7063439	m m e	-0.37546358
-0.35010728	p m e	-0.22886051
-1.1786218	U m e	-0.22886051
-1.1068221	<s> h e	-0.39594257
-1.4077194	o h e	-0.22886051
-0.8652436	g h e	-0.2842932
-1.1460618	e h e	-0.2711471
-1.1763389	a h e	-0.22886051
-0.8338491	s h e	-0.5215842
-0.8096207	t h e	-0.6233233
-1.0851204	i h e	-0.29247776
-1.3329154	r h e	-0.22886051
-0.8478687	k h e	-0.47550535
-1.2019879	u h e	-0.22886051
-1.0171332	m h e	-0.28620994
-0.7795601	h h e	-0.22886051
-0.8086093	b h e	-0.51430166
-0.97581166	c h e	-0.30237728
-0.7988589	p h e	-0.5924437
-0.82414186	q h e	-0.36677408
-0.7931767	x h e	-0.25658923
-0.84302276	P h e	-0.26235396
-0.5642563	T h e	-0.30408964
-0.94820195	S h e	-0.22886051
-0.7123744	K h e	-0.3356631
-0.79284644	Q h e	-0.22886051
-0.52198344	<s> b e	-1.1919135
-0.56479853	n b e	-0.22886051
-0.75521916	o b e	-0.56868094
-0.67696184	e b e	-0.52794206
-0.8412403	a b e	-0.6038372
-0.6881344	s b e	-0.22886051
-0.77393293	M b e	-0.28620994
-0.56479853	t b e	-0.22886051
-0.9208717	i b e	-0.6366016
-0.696524	u b e	-0.5803823
-0.32383004	l b e	-0.22886051
-0.84307015	m b e	-0.49808285
-0.5725668	<s> w e	-1.1310595
-0.42370725	n w e	-0.49100167
-0.8988426	j w e	-0.22886051
-0.5779953	o w e	-0.44470108
-0.49787712	g w e	-0.3881978
-0.51014185	y w e	-0.38288453
-0.63845086	e w e	-0.34573543
-0.724683	a w e	-0.5345523
-0.4569819	s w e	-0.5310512
-0.42335653	z w e	-0.5832865
-0.43788806	t w e	-0.337675
-0.43921694	i w e	-0.7239314
-0.6950536	r w e	-0.22886051
-0.49118882	k w e	-0.4708578
-0.6492614	u w e	-0.36143783
-0.46655065	l w e	-0.429828
-0.43107727	h w e	-0.46716583
-0.48134488	b w e	-0.22886051
-0.51325864	c w e	-0.33983555
-0.63566273	L w e	-0.2711471
-0.4145229	d w e	-0.4875855
-0.39049467	q w e	-0.29706943
-0.31666622	x w e	-0.4133623
-0.48134488	C w e	-0.22886051
-0.6109997	D w e	-0.22886051
-0.20066899	Z w e	-0.28620994
-0.27397534	X w e	-0.22886051
-0.60513276	K w e	-0.22886051
-1.0352454	<s> c e	-0.2711471
-0.75196725	n c e	-0.57754195
-0.8673091	o c e	-0.25658923
-0.87689835	g c e	-0.3008195
-0.87835544	e c e	-0.30237728
-0.78187	a c e	-0.49100164
-0.7873544	i c e	-0.64019567
-0.4751746	r c e	-0.2711471
-0.9699541	k c e	-0.22886051
-1.0323137	u c e	-0.33885625
-0.67714924	m c e	-0.4118204
-0.7193354	c c e	-0.22886051
-0.50114524	N c e	-0.47278965
-0.38253918	<s> L e	-1.1557229
-1.3182136	i L e	-0.22886051
-1.138394	<s> p e	-0.5412205
-0.6559802	I p e	-0.22886051
-0.8132414	o p e	-0.28620994
-0.30963963	y p e	-0.22886051
-0.7280605	e p e	-0.43078044
-0.93223196	a p e	-0.27753875
-0.5370083	s p e	-0.31799966
-1.0556589	i p e	-0.26235396
-0.796611	A p e	-0.22886051
-0.74925596	r p e	-0.22886051
-1.3426111	u p e	-0.22886051
-0.8081451	m p e	-0.4134672
-0.47826156	p p e	-0.22886051
-0.30963963	O p e	-0.22886051
-0.46665365	S p e	-0.22886051
-0.88000023	<s> d e	-0.3720745
-0.32953218	I d e	-0.22886051
-0.8415761	n d e	-0.500312
-1.3492248	o d e	-0.22886051
-0.32953218	y d e	-0.22886051
-0.71368587	e d e	-0.53822136
-0.77426726	a d e	-0.46261373
-0.721855	i d e	-0.5669248
-0.78200954	A d e	-0.22886051
-0.92787755	r d e	-0.22886051
-0.973591	u d e	-0.42952824
-0.8008224	N d e	-0.28620994
-1.0111022	<s> q e	-0.37546358
-0.57457334	I q e	-0.22886051
-1.0880167	n q e	-0.2711471
-0.8227923	o q e	-0.50040233
-0.86082244	g q e	-0.3517296
-0.62385637	e q e	-0.45395228
-0.9611712	a q e	-0.3162317
-0.89387643	i q e	-0.37063015
-1.0307773	u q e	-0.3603692
-1.0881236	m q e	-0.28620994
-0.85469145	G q e	-0.22886051
-1.0406469	<s> x e	-0.74579096
-0.5642955	I x e	-0.22886051
-0.5773396	n x e	-0.45949143
-0.88309586	o x e	-0.29394186
-0.76378864	g x e	-0.31799966
-0.5324427	e x e	-0.49867192
-0.9112563	a x e	-0.38288453
-0.7489823	i x e	-0.4118204
-0.7786322	u x e	-0.29628235
-1.1502372	m x e	-0.22886051
-1.6375946	<s> N e	-0.3660629
-1.3685707	o N e	-0.22886051
-1.2150443	a N e	-0.22886051
-0.8594445	<s> C e	-0.3757661
-0.8835393	e C e	-0.28620994
-1.0975424	u C e	-0.22886051
-0.87296087	<s> P e	-0.326317
-0.6195578	e P e	-0.2711471
-0.8233484	i P e	-0.28620994
-0.86236674	<s> B e	-0.50614196
-1.3182667	o B e	-0.22886051
-1.1355307	e B e	-0.22886051
-0.833763	a B e	-0.22886051
-0.97241664	u B e	-0.22886051
-0.34779778	<s> D e	-0.5493391
-0.78023297	e D e	-0.31799966
-0.9926285	i D e	-0.22886051
-0.9176869	u D e	-0.22886051
-1.0404186	<s> W e	-0.22886051
-1.4013718	<s> Z e	-0.3478509
-1.4297291	e Z e	-0.22886051
-1.1817157	<s> T e	-0.2711471
-0.74344915	I T e	-0.22886051
-0.74344915	o T e	-0.22886051
-1.0211471	u T e	-0.22886051
-0.60576844	O T e	-0.22886051
-0.24456112	e X e	-0.31799966
-0.5959621	u X e	-0.22886051
-0.997229	<s> S e	-0.52329797
-1.0865686	I S e	-0.22886051
-1.0273135	o S e	-0.22886051
-0.7855962	e S e	-0.50040233
-0.6244111	a S e	-0.3478509
-0.58967215	i S e	-0.35124
-0.8178389	u S e	-0.22886051
-0.33618146	m S e	-0.22886051
-0.8178389	U S e	-0.22886051
-1.0467091	<s> V e	-0.22886051
-0.5825892	i V e	-0.22886051
-0.33395544	m V e	-0.22886051
-0.23684043	<s> R e	-0.6021521
-0.7997255	i R e	-0.22886051
-2.2848444	<s> K e	-0.22886051
-1.0947407	e K e	-0.22886051
-1.0391521	<s> H e	-0.28620994
-0.89188147	u H e	-0.22886051
-0.6258763	T H e	-0.22886051
-0.943119	<s> F e	-0.6488809
-0.6330596	o F e	-0.22886051
-1.0083764	e F e	-0.22886051
-0.5472806	<s> Y e	-0.6764936
-0.7322221	o Q e	-0.31799966
-0.7383176	e Q e	-0.31799966
-0.6057809	i Q e	-0.22886051
-0.8919495	<s> n a	-1.7286613
-1.2659608	I n a	-0.22886051
-1.166605	n n a	-0.22886051
-1.1182714	o n a	-0.5804095
-0.7747105	y n a	-0.22886051
-1.308447	e n a	-0.4888237
-1.1041436	a n a	-0.66210914
-0.7747105	s n a	-0.22886051
-1.1422566	i n a	-0.66743255
-0.702833	r n a	-0.22886051
-1.1371098	u n a	-0.5016542
-1.1121603	m n a	-0.41152173
-0.6791834	<s> j a	-0.4116789
-0.7728389	n j a	-0.54572266
-0.8785714	o j a	-0.22886051
-0.5532653	e j a	-0.31197178
-0.54975456	a j a	-0.4413427
-0.6980225	i j a	-0.35142708
-0.65061295	u j a	-0.31676134
-0.63797104	m j a	-0.298648
-0.32066306	w j a	-0.22886051
-1.4537567	i o a	-0.22886051
-2.3583522	h o a	-0.22886051
-1.384067	C o a	-0.22886051
-1.3068995	B o a	-0.22886051
-0.6251324	<s> g a	-0.441236
-0.706771	I g a	-0.22886051
-0.8375251	n g a	-0.61607265
-0.7587169	o g a	-0.36169517
-0.9032725	g g a	-0.26235396
-0.80330336	e g a	-0.48726863
-0.8609374	a g a	-0.49345243
-0.9196365	s g a	-0.22886051
-0.23443313	M g a	-0.2842932
-0.9606825	i g a	-0.44817284
-0.87928754	r g a	-0.22886051
-0.8525794	u g a	-0.37076303
-0.8104987	m g a	-0.39443713
-0.33178708	d g a	-0.22886051
-0.98946816	q g a	-0.22886051
-0.6214868	N g a	-0.2711471
-0.621632	<s> y a	-1.3777047
-0.55240506	I y a	-0.22886051
-0.70839316	n y a	-0.6275133
-0.55151635	o y a	-0.4696203
-0.7035374	e y a	-0.44285902
-0.8339121	a y a	-0.51600635
-0.22872044	M y a	-0.31799966
-0.7741626	t y a	-0.41395277
-0.49480295	i y a	-0.6292881
-0.45906675	u y a	-0.43642595
-1.073044	l y a	-0.22886051
-0.6569193	m y a	-0.49100167
-0.29136387	N y a	-0.29628235
-0.37695315	T y a	-0.22886051
-0.6717466	U y a	-0.22886051
-1.805277	n e a	-0.22886051
-2.038433	y e a	-0.22886051
-2.0764785	s e a	-0.22886051
-1.7264876	i e a	-0.22886051
-1.3390043	r e a	-0.28620994
-1.9116186	l e a	-0.22886051
-1.9054317	c e a	-0.22886051
-1.1597276	T e a	-0.22886051
-1.5924296	S e a	-0.22886051
-1.2474784	R e a	-0.22886051
-0.95089597	H e a	-0.22886051
-0.83291376	Y e a	-0.22886051
-2.0888731	n a a	-0.22886051
-2.18037	g a a	-0.22886051
-1.8095474	r a a	-0.22886051
-1.2275429	u a a	-0.22886051
-1.9195639	v a a	-0.22886051
-2.0266707	l a a	-0.31799966
-2.152332	h a a	-0.22886051
-2.2082691	b a a	-0.22886051
-2.056822	d a a	-0.22886051
-0.93623465	<s> s a	-1.0849763
-0.6588935	I s a	-0.22886051
-1.0021131	n s a	-0.31197178
-0.81703705	o s a	-0.3394044
-1.0031378	e s a	-0.5626492
-0.9098346	a s a	-0.4928011
-0.3464068	z s a	-0.22886051
-0.7689789	t s a	-0.37327206
-0.849344	i s a	-0.6845234
-0.7629491	u s a	-0.4542528
-0.96901184	m s a	-0.28620994
-0.6049122	w s a	-0.22886051
-0.7378444	T s a	-0.3478509
-0.17883852	<s> M a	-0.8132291
-0.9055105	I M a	-0.22886051
-1.07782	o M a	-0.2842932
-0.8349931	e M a	-0.3227753
-0.29567784	a M a	-0.40051672
-0.8122369	i M a	-0.30237728
-1.0753738	u M a	-0.29247776
-0.602939	m M a	-0.22886051
-0.74538285	<s> z a	-1.2085505
-0.5551842	I z a	-0.22886051
-0.60799223	n z a	-0.46134856
-0.6966317	o z a	-0.48453385
-0.69357383	e z a	-0.624585
-0.70912	a z a	-0.7623786
-0.20367658	M z a	-0.6488809
-0.6555644	i z a	-0.6146097
-0.66302526	u z a	-0.66699106
-0.3182839	v z a	-0.22886051
-0.7697205	m z a	-0.32772386
-0.3182839	U z a	-0.22886051
-1.3011676	<s> t a	-0.28493115
-0.9767787	n t a	-0.4693711
-1.0193784	o t a	-0.34363028
-1.0999678	e t a	-0.337675
-1.0407053	a t a	-0.33316875
-0.81655765	s t a	-0.25658923
-1.0141159	i t a	-0.38373926
-1.1680447	r t a	-0.22886051
-1.0078926	k t a	-0.22886051
-1.5815526	u t a	-0.26235396
-1.0090046	m t a	-0.22886051
-1.1866518	c t a	-0.22886051
-0.74314505	x t a	-0.22886051
-0.59574693	S t a	-0.3149104
-3.2325072	<s> i a	-0.3478509
-1.7495692	n i a	-0.31799966
-1.1526352	o i a	-0.22886051
-1.9735895	g i a	-0.22886051
-1.7107413	s i a	-0.3149104
-1.5601847	t i a	-0.22886051
-1.7302412	i i a	-0.22886051
-1.2866342	r i a	-0.28620994
-1.9606166	l i a	-0.22886051
-1.8049327	h i a	-0.31799966
-1.8815793	b i a	-0.22886051
-1.3591067	c i a	-0.3149104
-1.5684414	p i a	-0.22886051
-1.9819926	d i a	-0.22886051
-1.305798	D i a	-0.22886051
-0.8050025	<s> f a	-0.28493115
-0.6676038	I f a	-0.22886051
-0.6077499	o f a	-0.49161777
-0.68382853	e f a	-0.43746525
-0.74370813	a f a	-0.5642891
-0.48432824	M f a	-0.31799966
-0.54925406	t f a	-0.22886051
-0.66744626	i f a	-0.5730397
-0.83143616	f f a	-0.22886051
-0.5680408	u f a	-0.4672054
-0.71558815	m f a	-0.48362496
-0.971033	o r a	-0.30237728
-0.6261095	g r a	-0.28620994
-0.9753225	e r a	-0.25251794
-0.9804984	a r a	-0.29394186
-0.4498047	t r a	-0.27592772
-0.99169374	i r a	-0.22886051
-0.94985366	f r a	-0.22886051
-0.852878	k r a	-0.22886051
-1.0036787	u r a	-0.28620994
-0.7283241	h r a	-0.31799966
-0.8706724	c r a	-0.22886051
-0.3177745	d r a	-0.22886051
-0.7981504	B r a	-0.22886051
-0.23653083	T r a	-0.2711471
-0.7800056	F r a	-0.22886051
-1.1833308	<s> k a	-1.1281276
-0.95867205	n k a	-0.4206089
-0.87660515	o k a	-0.48453385
-0.8199906	e k a	-0.6294195
-0.7305918	a k a	-0.69551224
-1.0958264	s k a	-0.22886051
-0.8382666	i k a	-0.5312598
-0.7860927	u k a	-0.53164166
-1.0317111	m k a	-0.25658923
-0.98687106	N k a	-0.31593773
-3.6660352	<s> u a	-0.22886051
-1.4154152	o u a	-0.22886051
-1.7500162	g u a	-0.22886051
-1.8066157	t u a	-0.22886051
-2.2511516	k u a	-0.22886051
-1.9515901	m u a	-0.22886051
-2.169862	b u a	-0.22886051
-0.45676717	<s> v a	-0.44885725
-0.80140805	n v a	-0.22886051
-0.5350123	o v a	-0.42762333
-0.7717112	e v a	-0.29982728
-0.6823695	a v a	-0.43832543
-0.6604923	M v a	-0.22886051
-0.74266535	i v a	-0.56398696
-0.6343029	r v a	-0.22886051
-0.55694604	u v a	-0.41391745
-0.59831125	m v a	-0.4118204
-0.5236678	U v a	-0.22886051
-0.93194634	<s> l a	-1.138659
-0.87527096	I l a	-0.22886051
-0.71801037	n l a	-0.22886051
-0.83975106	o l a	-0.6303587
-0.7763808	e l a	-0.7054885
-0.7749324	a l a	-0.75645256
-0.6976416	M l a	-0.22886051
-0.50543475	t l a	-0.39295083
-0.8047302	i l a	-0.6270276
-0.8895532	k l a	-0.2711471
-0.7835748	u l a	-0.6023494
-0.6119408	m l a	-0.3773286
-0.7237911	h l a	-0.7107627
-0.64216405	b l a	-0.29247776
-0.8905121	c l a	-0.22886051
-0.6879003	p l a	-0.22886051
-0.7547246	d l a	-0.5131025
-0.6976416	C l a	-0.22886051
-0.5719359	P l a	-0.22886051
-0.6976416	K l a	-0.22886051
-0.52278435	H l a	-0.2711471
-0.4305329	<s> m a	-1.08788
-1.106597	o m a	-0.5421825
-1.0227003	e m a	-0.48487768
-0.94723624	a m a	-0.7412518
-0.9519242	M m a	-0.22886051
-0.35526502	z m a	-0.22886051
-0.9801139	i m a	-0.5605325
-0.62111187	A m a	-0.22886054
-0.9914573	r m a	-0.22886051
-0.90525013	u m a	-0.5403036
-0.7137024	m m a	-0.4118204
-0.35526502	S m a	-0.22886051
-1.214619	U m a	-0.22886051
-0.572998	<s> h a	-0.62587774
-1.0323747	n h a	-0.22886051
-0.53421444	o h a	-0.4133623
-0.58432466	g h a	-0.39396667
-0.4867282	y h a	-0.22886051
-0.7916352	e h a	-0.4102257
-0.5616907	a h a	-0.5675842
-0.8149893	s h a	-0.5435204
-0.8678979	t h a	-0.56057554
-0.8742612	i h a	-0.41284776
-0.49435368	r h a	-0.4532131
-0.8727073	k h a	-0.5677189
-0.7257109	u h a	-0.34044564
-0.67079574	l h a	-0.22886051
-1.1343286	m h a	-0.22886051
-0.4885451	h h a	-0.27022037
-0.67778337	b h a	-0.51104724
-0.61051714	c h a	-0.5038554
-0.68273795	p h a	-0.60737467
-0.673498	q h a	-0.463155
-0.6150458	x h a	-0.42159086
-0.35193545	C h a	-0.27592772
-0.4632963	P h a	-0.3696314
-0.45002016	B h a	-0.2842932
-0.6481419	T h a	-0.31799966
-0.30492738	G h a	-0.22886051
-0.67079574	X h a	-0.22886051
-0.87747276	S h a	-0.22886051
-0.98052317	R h a	-0.22886051
-0.68565667	K h a	-0.28012195
-0.46060574	Q h a	-0.22886051
-0.33522046	<s> b a	-1.5154893
-0.64873403	I b a	-0.22886051
-0.67257935	o b a	-0.5637151
-0.7242149	e b a	-0.45228854
-0.6681917	a b a	-0.72934026
-0.48982227	M b a	-0.3356631
-0.722242	i b a	-0.6176105
-0.5348115	A b a	-0.22886051
-0.3063605	r b a	-0.22886051
-0.5348115	k b a	-0.22886051
-0.71541697	u b a	-0.5249057
-0.8231354	m b a	-0.5044862
-0.3063605	h b a	-0.22886051
-0.3063605	d b a	-0.22886051
-0.64873403	U b a	-0.22886051
-0.26537094	<s> w a	-1.5696996
-0.4183074	n w a	-0.3881978
-0.26245478	j w a	-0.39134607
-0.61119336	o w a	-0.3643254
-0.43316975	g w a	-0.43286458
-0.3050308	y w a	-0.4118204
-0.480675	e w a	-0.39443374
-0.6507286	a w a	-0.52718353
-0.32586458	s w a	-0.47495344
-0.48097777	z w a	-0.5239422
-0.3611973	t w a	-0.36760482
-0.6228953	i w a	-0.44319746
-0.26613328	f w a	-0.22886051
-0.26888895	r w a	-0.22886051
-0.40853354	k w a	-0.5573069
-0.5230273	u w a	-0.3452314
-0.5042369	l w a	-0.48760298
-0.26613328	m w a	-0.22886051
-0.47003683	h w a	-0.36988416
-0.4687722	b w a	-0.22886051
-0.3500615	c w a	-0.40588567
-0.48415878	L w a	-0.30408964
-0.41039667	d w a	-0.4250889
-0.38733068	q w a	-0.44972503
-0.38870218	x w a	-0.3660629
-0.4687722	C w a	-0.22886051
-0.32695413	D w a	-0.22886051
-0.19541459	S w a	-0.22886051
-0.45563197	K w a	-0.25251794
-0.26613328	Q w a	-0.22886051
-0.65003675	<s> c a	-0.5155101
-0.5955486	I c a	-0.22886051
-0.8177543	n c a	-0.43786746
-0.68754554	o c a	-0.4114069
-0.8074993	g c a	-0.28978047
-0.70214754	e c a	-0.49144164
-0.7461827	a c a	-0.42900193
-0.7627147	i c a	-0.5679292
-0.7063783	k c a	-0.28620994
-0.71313417	u c a	-0.39222795
-0.88231313	m c a	-0.2842932
-0.8364305	N c a	-0.31799966
-0.8253466	<s> L a	-0.5820071
-0.6616712	o L a	-0.6488809
-0.8105648	e L a	-0.28620994
-0.5957264	a L a	-0.31799966
-1.106857	i L a	-0.22886051
-0.74505	u L a	-0.31799966
-1.1865269	<s> p a	-0.3990815
-1.4695165	o p a	-0.22886051
-0.89797753	e p a	-0.2711471
-0.8306183	a p a	-0.33068866
-0.84445244	s p a	-0.22886051
-0.7310137	M p a	-0.28620994
-0.99342287	i p a	-0.29247776
-0.9257636	u p a	-0.29628235
-0.8285678	m p a	-0.38670352
-0.56868136	x p a	-0.22886051
-0.56868136	E p a	-0.22886051
-0.79088223	S p a	-0.22886051
-0.79599845	<s> d a	-0.31197178
-0.9394084	n d a	-0.4658504
-0.78800386	o d a	-0.3610101
-0.56503713	g d a	-0.22886051
-0.9324061	e d a	-0.39772955
-0.73833394	a d a	-0.50829566
-0.323967	z d a	-0.22886051
-0.8651958	i d a	-0.45911047
-0.90747845	r d a	-0.22886051
-0.89895636	u d a	-0.34278122
-0.56588805	m d a	-0.41162834
-0.56503713	d d a	-0.22886051
-0.7897209	N d a	-0.3149104
-0.9278478	<s> q a	-0.25251794
-0.67268085	n q a	-0.49698645
-0.80729187	o q a	-0.24528444
-0.8471919	g q a	-0.4121782
-0.6969983	e q a	-0.4875202
-0.715362	a q a	-0.47315976
-0.70573086	i q a	-0.47639486
-0.31714416	A q a	-0.22886051
-0.695561	k q a	-0.22886051
-0.7549553	u q a	-0.38064486
-0.68858266	m q a	-0.2842932
-0.4763241	N q a	-0.31799966
-0.6728189	U q a	-0.22886051
-0.100025624	<s> x a	-1.5443135
-0.53901196	I x a	-0.22886051
-0.6828685	n x a	-0.44707423
-0.60903436	o x a	-0.4134672
-0.7470896	g x a	-0.29948008
-0.6286427	e x a	-0.41152173
-0.63140494	a x a	-0.5033311
-0.67577416	i x a	-0.42946985
-0.22364505	k x a	-0.2711471
-0.753519	u x a	-0.3339197
-0.3088379	G x a	-0.22886051
-0.65420234	U x a	-0.22886051
-0.7780729	<s> N a	-0.64274424
-1.6591965	e N a	-0.22886051
-1.1303937	a N a	-0.22886051
-1.3710525	i N a	-0.31799966
-1.2211502	u N a	-0.22886051
-0.9025453	<s> C a	-0.28620994
-0.55531114	I C a	-0.22886051
-0.31835747	o C a	-0.22886051
-0.52748007	e C a	-0.4118204
-0.67557585	a C a	-0.22886051
-0.5540169	i C a	-0.3478509
-0.660928	u C a	-0.22886051
-0.8459693	<s> P a	-0.46038446
-0.3742969	e P a	-0.50040233
-1.032118	a P a	-0.22886051
-0.92105234	i P a	-0.28620994
-0.33406565	m P a	-0.22886051
-0.3735602	<s> B a	-0.4922347
-0.57238203	e B a	-0.31552652
-0.2566479	a B a	-0.3203796
-0.7400375	i B a	-0.22886051
-0.69842213	u B a	-0.2711471
-1.6349179	<s> D a	-0.22886051
-0.60359615	e D a	-0.2711471
-0.6151095	a D a	-0.22886051
-0.91584873	u D a	-0.22886051
-0.8435194	<s> W a	-0.28620994
-0.41985142	e W a	-0.22886051
-0.5861037	<s> Z a	-0.7506365
-0.6025144	I Z a	-0.22886051
-0.49882802	o Z a	-0.22886051
-1.1094823	e Z a	-0.22886051
-0.6902934	a Z a	-0.22886051
-0.6104281	i Z a	-0.22886051
-0.28473774	m Z a	-0.22886051
-0.90067816	<s> T a	-0.50040233
-0.6461409	a T a	-0.22886051
-1.1514312	i T a	-0.22886051
-1.2853233	<s> G a	-0.22886051
-0.60249555	e G a	-0.28620994
-0.7544686	a G a	-0.22886051
-0.6892151	i G a	-0.28620994
-0.0370061	<s> X a	-1.5428275
-1.169307	<s> S a	-0.39031425
-1.2734547	I S a	-0.22886051
-0.82686156	e S a	-0.29247776
-1.0198901	i S a	-0.22886051
-0.34574628	a V a	-0.22886051
-0.34574628	u V a	-0.22886051
-1.401844	<s> R a	-0.22886051
-1.4905826	<s> K a	-0.48362496
-1.3688519	e K a	-0.22886051
-1.1233184	a K a	-0.22886051
-1.0797135	<s> J a	-0.31799966
-0.25605565	o J a	-0.22886051
-0.1886165	e J a	-0.22886051
-0.25605565	a J a	-0.22886051
-0.4057687	<s> H a	-0.5377865
-1.1847208	e H a	-0.22886051
-0.74617904	<s> F a	-0.6670929
-0.6321124	o F a	-0.22886051
-1.0061319	e F a	-0.22886051
-0.5386239	<s> Y a	-0.5162848
-0.7382965	e Y a	-0.22886051
-0.3448038	a Y a	-0.22886051
-0.21293549	<s> Q a	-0.59093565
-1.0767367	i Q a	-0.22886051
-0.672536	u Q a	-0.22886051
-0.9708103	<s> I s	-1.0815971
-0.6642568	e I s	-0.22886051
-2.7792559	<s> n s	-0.4283846
-1.3786069	I n s	-0.22886051
-1.5084783	o n s	-0.39961565
-1.4029578	e n s	-0.48093095
-1.3682743	a n s	-0.4107554
-1.5657698	i n s	-0.53752905
-1.594574	u n s	-0.38288453
-1.781426	m n s	-0.22886051
-1.6246234	<s> o s	-0.92101675
-1.6493248	n o s	-0.25658923
-1.3863137	j o s	-0.31799966
-1.3684797	o o s	-0.28620994
-1.2238696	g o s	-0.39443713
-1.2176147	y o s	-0.49100167
-1.3806828	s o s	-0.31593773
-1.267454	M o s	-0.22886051
-1.227194	z o s	-0.38762382
-1.2736624	r o s	-0.22886051
-1.2466444	k o s	-0.3285479
-1.48348	v o s	-0.22886051
-1.39889	l o s	-0.298648
-1.4187392	m o s	-0.28620994
-1.0495791	h o s	-0.511645
-1.1014683	b o s	-0.49202898
-1.4665836	w o s	-0.28620994
-1.0928103	c o s	-0.30237728
-0.9457875	p o s	-0.25658923
-1.7059505	d o s	-0.22886051
-1.4069837	q o s	-0.3149104
-0.8366144	x o s	-0.6488809
-1.1833593	B o s	-0.22886051
-0.39120135	G o s	-0.47278965
-1.3460032	S o s	-0.22886051
-2.1849205	n g s	-0.22886051
-2.0033689	e y s	-0.22886051
-0.674591	s y s	-0.22886051
-0.38344136	S y s	-0.22886051
-0.8343611	<s> e s	-2.015228
-1.1469816	n e s	-0.3842735
-1.5360557	j e s	-0.22886051
-0.90492016	o e s	-0.22886051
-1.2180067	g e s	-0.41134614
-1.3915771	y e s	-0.3497981
-1.3699223	s e s	-0.42943716
-1.3450098	z e s	-0.31593773
-1.537187	t e s	-0.22886051
-0.7274406	i e s	-0.7158277
-0.84354377	r e s	-0.27753875
-1.4329935	k e s	-0.2711471
-0.9890787	u e s	-0.22886051
-1.2449417	v e s	-0.28620994
-1.2475122	l e s	-0.4134672
-1.238604	m e s	-0.28620994
-1.3651406	h e s	-0.5579484
-1.2843348	b e s	-0.46225744
-1.2502726	w e s	-0.52896774
-1.2321	c e s	-0.25658923
-1.1445779	p e s	-0.2711471
-1.4735525	d e s	-0.22886051
-0.8128122	q e s	-0.7158277
