\data\
ngram 1=61
ngram 2=1829
ngram 3=14262
ngram 4=47454
ngram 5=102776

\1-grams:
-3.108399	<unk>	0
0	<s>	-3.0372171
-1.5146077	</s>	0
-1.6097256	A	-0.7221565
-1.8009404	B	-0.61570895
-1.7861795	N	-0.5926155
-1.832058	G	-0.57073903
-1.9019043	K	-0.5804556
-1.7861795	F	-0.58066666
-1.7190773	E	-0.6380139
-1.832058	L	-0.6325358
-1.6609688	I	-0.6331183
-1.7446879	T	-0.5807761
-1.671985	O	-0.5940895
-1.771904	M	-0.57623357
-1.9851778	Z	-0.5528586
-1.7068169	S	-0.64508295
-1.7861795	C	-0.57062536
-1.7580827	D	-0.63346404
-1.771904	P	-0.5463945
-1.5638956	o	-1.0054417
-1.9212741	V	-0.5389165
-1.8009404	R	-0.56524175
-1.771904	H	-0.5803578
-1.7316939	U	-0.5352994
-1.7446879	W	-0.57265764
-2.0601342	Y	-0.48125193
-1.8655785	J	-0.5775177
-1.5468372	a	-1.071605
-1.6948932	n	-0.7682962
-1.5816516	t	-0.86782354
-2.1184185	x	-0.47638726
-1.8655785	f	-0.7406198
-1.7068169	g	-0.7194052
-2.033685	Q	-0.4418748
-1.619502	r	-0.7957629
-1.5385529	i	-1.0219184
-1.7068169	k	-0.78565526
-1.6097256	l	-0.8494911
-1.7580827	b	-0.7381916
-1.5468372	e	-1.0764687
-1.671985	s	-0.80769306
-1.5726829	h	-0.8888971
-1.771904	m	-0.72711366
-1.619502	w	-0.81931454
-1.5385529	u	-0.9354223
-1.8655785	q	-0.77506924
-1.7580827	p	-0.72941947
-1.7580827	z	-0.7293662
-1.7861795	d	-0.7541191
-1.6948932	y	-0.6996681
-1.7190773	c	-0.75896525
-1.832058	v	-0.7597037
-1.8833617	j	-0.7007103
-2.3632145	Â	-0.6664001
-2.3632145	Ã	-0.3692956
-2.0087545	_	-0.41622737
-2.2654831	X	-0.3459494
-2.977783	Å	-0.30953392
-2.977783	ž	-0.30953392
-2.977783	â	-0.30953392

\2-grams:
-1.0998504	A </s>	0
-0.9250263	B </s>	0
-1.2286433	N </s>	0
-1.0840935	G </s>	0
-1.0850526	K </s>	0
-0.81432694	F </s>	0
-1.0295315	E </s>	0
-1.0740184	L </s>	0
-1.1062648	I </s>	0
-1.0622151	T </s>	0
-1.0325099	O </s>	0
-1.2297764	M </s>	0
-1.3008401	Z </s>	0
-1.0771204	S </s>	0
-0.95566916	C </s>	0
-1.0621297	D </s>	0
-1.028943	P </s>	0
-1.3852272	o </s>	0
-0.90885556	V </s>	0
-1.0835421	R </s>	0
-1.3424658	H </s>	0
-1.117463	U </s>	0
-0.9783257	W </s>	0
-1.1952422	Y </s>	0
-0.931032	J </s>	0
-1.4616115	a </s>	0
-1.3189943	n </s>	0
-1.2716162	t </s>	0
-0.7994588	x </s>	0
-1.2645266	f </s>	0
-1.4083205	g </s>	0
-1.4544704	Q </s>	0
-1.4601562	r </s>	0
-1.4330164	i </s>	0
-1.2651393	k </s>	0
-1.340269	l </s>	0
-1.3954282	b </s>	0
-1.4853262	e </s>	0
-0.9949076	s </s>	0
-1.2364211	h </s>	0
-1.4801838	m </s>	0
-1.3280066	w </s>	0
-1.3397233	u </s>	0
-1.2820454	q </s>	0
-1.3175012	p </s>	0
-1.2384593	z </s>	0
-1.2693927	d </s>	0
-0.95792013	y </s>	0
-1.3181252	c </s>	0
-1.2157271	v </s>	0
-1.5928009	j </s>	0
-0.10181481	Â </s>	0
-1.1567832	Ã </s>	0
-1.0471495	_ </s>	0
-0.7082927	X </s>	0
-0.2800995	â </s>	0
-1.7992201	<s> A	-1.521149
-1.9916825	A A	-0.2761337
-1.248641	B A	-0.38196558
-1.3377241	N A	-0.41486678
-1.3839825	G A	-0.2912125
-1.461157	K A	-0.3057693
-1.1462435	F A	-0.36434516
-1.5010854	E A	-0.29057714
-1.1527382	L A	-0.43808314
-1.6605576	I A	-0.28707466
-1.4345654	T A	-0.34292164
-1.7737194	O A	-0.2983174
-1.3656826	M A	-0.3869976
-1.1328013	Z A	-0.31487533
-1.0656122	S A	-0.53715825
-1.5324947	C A	-0.31303373
-1.190856	D A	-0.45972353
-1.3242285	P A	-0.33940917
-2.216589	o A	-0.27182975
-1.3229537	V A	-0.26972973
-1.1693711	R A	-0.3446897
-1.1412328	H A	-0.40348482
-1.8653417	U A	-0.25916812
-0.8219494	W A	-0.39601666
-1.0241461	Y A	-0.29279166
-1.1639222	J A	-0.3667477
-2.3825855	a A	-0.25209528
-2.2636554	n A	-0.23490122
-1.7304094	x A	-0.23490122
-1.8791463	f A	-0.23490122
-2.1540282	g A	-0.23490122
-1.1507058	Q A	-0.25502834
-2.0102465	i A	-0.31173137
-1.9708902	b A	-0.23490122
-1.9906559	e A	-0.4243443
-1.9558117	s A	-0.29781607
-2.1135156	m A	-0.23490122
-1.7286298	w A	-0.25916812
-2.1468124	u A	-0.29370368
-2.143047	p A	-0.23490122
-1.5989372	z A	-0.2761337
-2.1861377	d A	-0.23490122
-2.0982647	y A	-0.23490122
-1.8015168	j A	-0.23490122
-1.0584613	_ A	-0.23490122
-2.147938	<s> B	-1.5095469
-1.4232924	A B	-0.44183972
-1.7518871	B B	-0.2844828
-2.0474553	N B	-0.2761337
-1.892046	G B	-0.23490122
-1.8016849	F B	-0.2983174
-1.9304421	E B	-0.25916812
-1.7448146	L B	-0.25916812
-1.4546432	I B	-0.31761
-1.9865909	T B	-0.29781607
-1.4217513	O B	-0.4660244
-1.6388475	M B	-0.28283957
-2.086977	S B	-0.23490122
-1.4244635	C B	-0.50389147
-2.198423	D B	-0.23490122
-1.930575	P B	-0.2983174
-1.817258	o B	-0.53366977
-1.9639734	V B	-0.23490122
-2.1159573	R B	-0.23490122
-2.1095169	H B	-0.23490122
-1.6729069	U B	-0.2733204
-1.8671863	Y B	-0.23490122
-1.9044787	a B	-0.5143904
-2.0489013	i B	-0.41318437
-1.8859915	e B	-0.6190423
-1.7400241	m B	-0.48383456
-1.945183	u B	-0.40170214
-2.3033576	d B	-0.23490122
-1.7399137	_ B	-0.23490122
-1.6802588	<s> N	-1.7066323
-1.260688	A N	-0.49639484
-1.7486502	B N	-0.26545283
-2.0356786	N N	-0.2983174
-1.5859482	G N	-0.31177855
-1.2923553	E N	-0.36005142
-2.1537378	L N	-0.23490122
-1.2709981	I N	-0.43707657
-1.3250703	O N	-0.3577063
-2.0515997	M N	-0.25916812
-1.9573121	Z N	-0.23490122
-2.2561278	S N	-0.23490122
-1.9515038	C N	-0.23490122
-1.9809797	D N	-0.2761337
-1.9305083	P N	-0.2761337
-1.8485724	o N	-0.528265
-2.1075993	R N	-0.23490122
-1.2075696	U N	-0.3391612
-1.7064604	J N	-0.2983174
-1.9708246	a N	-0.44013417
-2.2207768	n N	-0.23490122
-2.2636633	g N	-0.23490122
-1.8087791	Q N	-0.23490122
-1.8836291	i N	-0.4192388
-2.266255	b N	-0.23490122
-1.8561329	e N	-0.5993342
-1.7993873	m N	-0.4274268
-1.9427614	u N	-0.45762825
-2.284089	c N	-0.23490122
-1.43603	_ N	-0.25916812
-3.0336425	<s> G	-0.74235094
-1.6883975	A G	-0.37824306
-1.4968698	N G	-0.44127867
-1.9115539	K G	-0.2844828
-2.0748441	F G	-0.23490122
-1.6544003	E G	-0.2759219
-1.9345663	L G	-0.23490122
-2.1350992	I G	-0.25916812
-2.0141013	O G	-0.23490122
-2.2426307	M G	-0.23490122
-2.2862375	S G	-0.23490122
-1.9630678	C G	-0.2983174
-1.9481109	P G	-0.2761337
-2.3992848	o G	-0.25502834
-1.9767982	V G	-0.23490122
-1.8823882	H G	-0.2983174
-1.9679492	U G	-0.23490122
-2.3751824	a G	-0.27366355
-2.2466657	n G	-0.2468652
-2.4619193	t G	-0.23490122
-2.1522295	r G	-0.2983174
-2.3237348	i G	-0.31034857
-1.9883562	e G	-0.50678825
-1.9702319	m G	-0.37824306
-2.4716868	u G	-0.27600664
-2.2254214	z G	-0.23490122
-2.3086379	c G	-0.23490122
-1.9139982	<s> K	-1.6618003
-1.4599618	A K	-0.5272529
-2.084417	N K	-0.23490122
-1.4449891	E K	-0.38513327
-1.5991826	I K	-0.38227138
-2.0244644	T K	-0.2761337
-1.1574608	O K	-0.5319708
-2.1043396	M K	-0.2761337
-2.128292	S K	-0.23490122
-1.9871706	C K	-0.2983174
-1.9367884	o K	-0.37682068
-2.1605868	H K	-0.23490122
-1.2946714	U K	-0.30278432
-1.9032927	Y K	-0.23490122
-2.0309508	J K	-0.23490122
-1.9142846	a K	-0.57942724
-2.1096272	n K	-0.27164102
-2.0643325	i K	-0.41031918
-1.9263785	e K	-0.6053714
-2.2208786	s K	-0.23490122
-1.895284	m K	-0.4519073
-2.2413964	u K	-0.3584778
-1.7710215	_ K	-0.23490122
-3.1086178	<s> F	-0.73542064
-1.869519	A F	-0.26972973
-2.1504765	B F	-0.23490122
-1.887208	N F	-0.39472607
-2.0531678	F F	-0.23490122
-1.8118715	E F	-0.36366403
-2.1537378	L F	-0.23490122
-1.6382939	I F	-0.29578745
-2.1701753	T F	-0.23490122
-2.1846356	O F	-0.23490122
-2.0515997	M F	-0.26545283
-2.2561278	S F	-0.23490122
-1.9458297	C F	-0.23490122
-1.6805949	D F	-0.2848717
-1.4032599	P F	-0.44592896
-2.3819923	o F	-0.26999825
-1.9577001	V F	-0.23490122
-1.5850118	R F	-0.2844828
-1.8746719	H F	-0.2761337
-1.9490749	U F	-0.25502834
-1.86145	Y F	-0.23490122
-2.361083	a F	-0.29279166
-2.392426	n F	-0.23490122
-1.8087791	Q F	-0.23490122
-2.3096917	i F	-0.31594822
-2.0209177	e F	-0.52102053
-2.3797796	s F	-0.23490122
-1.8714676	m F	-0.36492988
-2.0557945	u F	-0.37257493
-2.246836	p F	-0.23490122
-2.215501	<s> E	-1.045908
-2.1680734	A E	-0.26545283
-1.1344312	B E	-0.37761784
-1.4818934	N E	-0.33407733
-1.3333298	G E	-0.40094537
-1.4009491	K E	-0.3361157
-1.7850959	F E	-0.32099023
-1.4705145	E E	-0.36434516
-1.2992316	L E	-0.37475216
-1.8398075	I E	-0.25080764
-1.4518628	T E	-0.31073698
-2.1406887	O E	-0.23490122
-1.3449361	M E	-0.31680545
-1.4666234	Z E	-0.2759219
-1.2257067	S E	-0.436949
-1.3582183	C E	-0.2844828
-1.4303322	D E	-0.26833984
-1.5349327	P E	-0.23490122
-2.3546188	o E	-0.2979831
-1.6653906	V E	-0.23490122
-1.3989979	R E	-0.2468652
-1.3051778	H E	-0.30339628
-2.0886126	U E	-0.23490122
-1.079992	W E	-0.3956825
-1.2218504	Y E	-0.3191577
-1.3606592	J E	-0.2848717
-2.4341156	a E	-0.2499084
-2.1617453	f E	-0.23490122
-2.5060842	i E	-0.26302487
-2.3677192	l E	-0.23490122
-2.1474903	e E	-0.41045904
-2.2821543	w E	-0.23490122
-2.4068286	u E	-0.26302487
-2.1696355	z E	-0.23490122
-2.0883033	j E	-0.23490122
-2.2221832	<s> L	-1.5285078
-1.3484918	A L	-0.4858296
-1.6174513	N L	-0.47407436
-1.2124869	E L	-0.6957561
-2.1780598	L L	-0.23490122
-1.3875794	I L	-0.40152746
-1.7057917	T L	-0.36366403
-1.6264626	O L	-0.29263932
-2.2426307	M L	-0.23490122
-1.9757769	Z L	-0.23490122
-1.9375082	S L	-0.23490122
-1.7942623	C L	-0.26545283
-1.590215	D L	-0.29781607
-1.9481109	P L	-0.26545283
-2.1349914	o L	-0.2759219
-1.9767982	V L	-0.23490122
-1.9066956	R L	-0.2761337
-1.0765685	H L	-0.46264523
-1.3848629	U L	-0.39482626
-2.0581646	W L	-0.23490122
-2.219914	a L	-0.39605445
-2.241453	n L	-0.2848717
-2.1073675	i L	-0.39806145
-1.9526768	e L	-0.55004877
-1.8815151	m L	-0.5842317
-2.3295226	u L	-0.2911476
-2.3086379	c L	-0.23490122
-1.7051073	<s> I	-1.4490732
-1.5733802	A I	-0.31303373
-1.5036538	B I	-0.2981168
-1.5256888	N I	-0.31594822
-1.8404946	G I	-0.23490122
-1.6839194	K I	-0.26545283
-1.2770823	F I	-0.28467715
-2.0194333	E I	-0.26545283
-1.1977519	L I	-0.45619115
-2.046682	I I	-0.25092757
-1.2963649	T I	-0.39485133
-1.9348335	O I	-0.23490122
-1.452947	M I	-0.4325602
-1.2201817	Z I	-0.2781102
-1.4582014	S I	-0.3368952
-1.3509986	C I	-0.31472644
-1.2725736	D I	-0.50866944
-1.5235207	P I	-0.26545283
-2.1600995	o I	-0.24576382
-1.3302351	V I	-0.2761337
-1.560846	R I	-0.2499084
-1.1455739	H I	-0.3527856
-1.6384536	U I	-0.41674128
-1.9727353	W I	-0.23490122
-1.0283101	Y I	-0.30403537
-1.6823728	J I	-0.26545283
-2.1228983	a I	-0.24341315
-2.1582034	n I	-0.23490122
-2.1875892	g I	-0.23490122
-1.7567551	Q I	-0.23490122
-2.0713248	i I	-0.29481825
-2.1459167	l I	-0.23490122
-1.9916674	b I	-0.23490122
-2.0405416	e I	-0.45278963
-2.1665719	u I	-0.25690517
-2.13809	z I	-0.23490122
-2.21949	d I	-0.23490122
-2.1290572	y I	-0.23490122
-1.4045454	_ I	-0.24189886
-1.4184102	X I	-0.23490122
-2.7572722	<s> T	-0.82027566
-1.3425068	A T	-0.44414455
-1.7633201	N T	-0.2681696
-1.4029248	G T	-0.34276286
-2.0325222	F T	-0.23490122
-1.4737558	E T	-0.3530592
-1.9069064	L T	-0.2761337
-1.293252	I T	-0.41261646
-1.9630605	T T	-0.26545283
-1.5358014	O T	-0.28839076
-1.7843	M T	-0.29806665
-1.5179714	S T	-0.28675815
-1.5594106	C T	-0.3361157
-1.9654057	D T	-0.23490122
-1.9135915	P T	-0.26545283
-1.9588795	o T	-0.56656456
-1.9394066	V T	-0.23490122
-1.8705937	R T	-0.23490122
-2.0785282	H T	-0.23490122
-1.4305907	U T	-0.40929723
-1.7667892	W T	-0.2983174
-2.0906277	a T	-0.42050964
-1.9516925	n T	-0.2885309
-2.2101712	t T	-0.2983174
-1.7848215	x T	-0.23490122
-2.1487343	i T	-0.39709508
-2.301391	k T	-0.23490122
-2.3836699	l T	-0.23490122
-2.0146942	e T	-0.56989723
-1.7303481	m T	-0.56684417
-2.2961638	w T	-0.23490122
-1.9875046	u T	-0.39862052
-1.4210348	_ T	-0.23490122
-2.6641726	<s> O	-0.8249456
-2.142333	A O	-0.23490122
-1.362305	B O	-0.35493958
-1.8470147	N O	-0.27164102
-1.5643617	G O	-0.24407488
-1.472119	K O	-0.31073698
-1.586613	F O	-0.29781607
-2.0206819	E O	-0.2983174
-1.3523446	L O	-0.399593
-1.8247834	I O	-0.23490122
-1.5810056	T O	-0.3463827
-2.1084764	O O	-0.23490122
-1.6806555	M O	-0.36366403
-1.2212869	Z O	-0.36434516
-1.4597483	S O	-0.39472607
-1.352433	C O	-0.27868557
-1.3681297	D O	-0.2761337
-1.6153823	P O	-0.3277217
-2.453214	o O	-0.26545283
-1.9049808	V O	-0.23490122
-1.3925686	R O	-0.28133303
-1.1464472	H O	-0.35729146
-2.0559168	U O	-0.23490122
-1.5660832	W O	-0.26972973
-1.5468627	Y O	-0.23490122
-2.528713	a O	-0.25916812
-2.137394	f O	-0.23490122
-1.4981493	Q O	-0.23490122
-2.2807107	r O	-0.23490122
-2.3617435	i O	-0.30595818
-2.2570214	k O	-0.23490122
-2.3374746	l O	-0.23490122
-2.1995585	b O	-0.23490122
-2.087067	e O	-0.38044256
-2.306537	s O	-0.23490122
-2.2817917	m O	-0.23490122
-2.3795803	u O	-0.2499084
-1.9149268	z O	-0.23490122
-1.6925589	_ O	-0.23490122
-2.3914373	<s> M	-0.989503
-1.3217412	A M	-0.43810725
-1.9193155	B M	-0.23490122
-2.029142	N M	-0.23490122
-1.7096794	G M	-0.2983174
-2.0461762	F M	-0.23490122
-1.2620659	E M	-0.46529302
-1.9221989	L M	-0.2761337
-1.4154809	I M	-0.36285445
-1.8115891	T M	-0.26545283
-1.2118304	O M	-0.32016227
-2.0445623	M M	-0.2761337
-1.8054055	S M	-0.36558878
-1.4867165	C M	-0.5988461
-2.1813235	D M	-0.23490122
-1.7583	P M	-0.25502834
-1.8141898	o M	-0.57924527
-1.4850724	R M	-0.43061087
-2.0937462	H M	-0.23490122
-1.1723653	U M	-0.2977242
-1.9800863	J M	-0.23490122
-1.8427119	a M	-0.40389073
-2.3825462	n M	-0.23490122
-2.4261334	t M	-0.23490122
-2.2554276	g M	-0.23490122
-1.9170924	i M	-0.37603703
-1.9131371	e M	-0.48603663
-2.371004	s M	-0.23490122
-1.8511943	u M	-0.38599837
-2.276205	c M	-0.23490122
-1.7300206	_ M	-0.23490122
-2.5733724	<s> Z	-1.3780235
-1.7063383	A Z	-0.47390732
-1.9807957	B Z	-0.2983174
-1.9419929	N Z	-0.26999825
-2.2166688	K Z	-0.23490122
-1.6070634	E Z	-0.4215142
-1.905712	I Z	-0.29035822
-2.0451982	T Z	-0.2983174
-2.3005626	O Z	-0.23490122
-2.2957628	D Z	-0.23490122
-2.3307514	o Z	-0.2981168
-2.0322578	V Z	-0.23490122
-1.6069666	U Z	-0.29339212
-2.2475002	a Z	-0.30248803
-2.301947	n Z	-0.26545283
-2.3635676	i Z	-0.30551755
-2.0445313	e Z	-0.57335776
-2.0048227	m Z	-0.28839076
-2.1681714	u Z	-0.3446897
-1.9876238	<s> S	-1.5258046
-1.5801761	A S	-0.3579888
-1.901864	B S	-0.26545283
-1.8600035	N S	-0.25916812
-1.8585405	G S	-0.2761337
-2.0698571	K S	-0.23490122
-1.7748798	F S	-0.2983174
-1.3862897	E S	-0.39605445
-2.1088345	L S	-0.23490122
-1.1766834	I S	-0.48080584
-1.9462135	T S	-0.2761337
-1.3615943	O S	-0.27267367
-1.3107265	M S	-0.5399497
-1.4644223	S S	-0.2846124
-1.3567647	C S	-0.31472644
-1.4288473	D S	-0.29057714
-1.3931321	P S	-0.35082227
-2.107108	o S	-0.38815632
-1.662225	V S	-0.23490122
-1.2233838	R S	-0.37772733
-1.6716279	H S	-0.25916812
-1.3211768	U S	-0.2963353
-1.7557912	W S	-0.23490122
-1.4953213	J S	-0.27581602
-1.9596727	a S	-0.39100876
-2.0466778	n S	-0.28467715
-1.7768233	Q S	-0.23490122
-1.9453152	i S	-0.38638824
-2.2786398	k S	-0.23490122
-2.3599582	l S	-0.23490122
-2.2206728	b S	-0.23490122
-1.8476385	e S	-0.6280931
-2.3736455	h S	-0.23490122
-1.7828785	m S	-0.43611875
-1.9795469	u S	-0.3927116
-2.043239	d S	-0.23490122
-2.7701058	<s> C	-0.8078308
-1.4509676	A C	-0.39979675
-1.5223973	B C	-0.4886028
-1.3980203	N C	-0.28050795
-1.3402575	G C	-0.4976648
-2.0531678	F C	-0.23490122
-1.5833974	E C	-0.29035822
-2.1537378	L C	-0.23490122
-1.4530717	I C	-0.32704797
-1.5260637	T C	-0.43061087
-1.6188549	O C	-0.36366403
-1.7959566	M C	-0.542839
-1.7180761	S C	-0.29781607
-1.3150162	C C	-0.43051317
-1.4378338	D C	-0.3463827
-1.9305083	P C	-0.23490122
-2.5176942	o C	-0.2761337
-1.6815745	V C	-0.23490122
-1.2813598	R C	-0.5397553
-1.8746719	H C	-0.2761337
-1.9490749	U C	-0.26545283
-2.0369062	W C	-0.23490122
-1.7064604	J C	-0.23490122
-2.361083	a C	-0.28095827
-2.392426	n C	-0.23490122
-2.5438821	i C	-0.26535982
-2.4087512	l C	-0.23490122
-1.8844627	e C	-0.52281183
-2.2102385	m C	-0.2761337
-2.1256807	u C	-0.2904677
-2.9085658	<s> D	-0.6667661
-1.6299634	A D	-0.26288256
-1.4387676	N D	-0.45421687
-1.8773688	G D	-0.2983174
-2.1002042	K D	-0.23490122
-2.0392954	F D	-0.23490122
-1.5242112	E D	-0.27182975
-1.6078666	L D	-0.2761337
-1.380886	I D	-0.4131028
-1.9688246	T D	-0.23490122
-1.6138561	O D	-0.26972973
-1.6306962	M D	-0.43061087
-1.5750039	S D	-0.28133303
-1.4194052	C D	-0.4976648
-1.9647313	D D	-0.23490122
-1.5419266	P D	-0.26999825
-2.2699296	o D	-0.27990887
-1.5800699	R D	-0.29781607
-1.865419	H D	-0.29781607
-1.9369329	U D	-0.23490122
-1.8501997	Y D	-0.23490122
-2.1448197	a D	-0.40515038
-2.2123387	n D	-0.26999825
-2.180949	f D	-0.23490122
-2.1519258	i D	-0.2964106
-2.3092473	k D	-0.23490122
-2.0583913	e D	-0.48720905
-2.4036577	h D	-0.23490122
-2.1914756	m D	-0.25916812
-2.200185	u D	-0.33122453
-2.0435755	c D	-0.23490122
-2.1222854	v D	-0.23490122
-2.7383068	<s> P	-0.79767746
-1.5496465	A P	-0.3728849
-2.142417	B P	-0.23490122
-1.8825539	N P	-0.27581602
-1.5834961	G P	-0.39472607
-1.7119223	K P	-0.23490122
-1.4329771	E P	-0.33531794
-1.915932	L P	-0.23490122
-1.5339882	I P	-0.31233957
-1.9692293	T P	-0.23490122
-1.6163483	O P	-0.2761337
-1.7920363	M P	-0.2761337
-1.5770292	S P	-0.37824306
-1.6582363	C P	-0.2979831
-1.2030222	D P	-0.63859004
-1.4670823	P P	-0.2759219
-2.1917365	o P	-0.29035822
-1.8802942	R P	-0.23490122
-1.863754	H P	-0.2983174
-1.783052	U P	-0.28839076
-1.774279	W P	-0.23490122
-2.0072064	a P	-0.38196558
-2.3825462	n P	-0.23490122
-2.4261334	t P	-0.23490122
-2.342995	r P	-0.23490122
-2.0438771	i P	-0.35599232
-2.1904101	l P	-0.2983174
-1.9806708	e P	-0.63459694
-1.796592	m P	-0.51983184
-2.3066022	u P	-0.3032835
-2.2390895	p P	-0.23490122
-1.4262695	<s> o	-1.9308348
-1.1994876	B o	-0.46274194
-1.4551331	N o	-0.45838708
-1.25807	G o	-0.27990887
-1.1662508	K o	-0.48138678
-1.1418989	F o	-0.5082584
-2.0917428	E o	-0.23490122
-1.4781966	L o	-0.2706035
-2.1017244	I o	-0.23490122
-1.6384609	T o	-0.2681696
-1.4797355	M o	-0.3643452
-1.0600914	Z o	-0.46448204
-1.4888464	S o	-0.44941643
-1.2894225	C o	-0.40068612
-1.3058419	D o	-0.33880803
-1.3703805	P o	-0.39364666
-1.4805771	o o	-0.48872635
-1.3157924	V o	-0.2844828
-1.5379543	R o	-0.287565
-1.4260186	H o	-0.29593995
-1.3220649	W o	-0.2900226
-1.334286	Y o	-0.28192967
-1.032388	J o	-0.38964304
-1.8434649	a o	-0.3940752
-1.3473724	n o	-0.5077149
-1.2102052	t o	-0.54943746
-1.2553098	x o	-0.36366403
-0.9175655	f o	-0.5607479
-0.87186015	g o	-0.56346154
-1.4693899	Q o	-0.23490122
-1.0048722	r o	-0.6760525
-1.6520039	i o	-0.44432333
-1.0660132	k o	-0.59983844
-0.99442756	l o	-0.7204258
-0.95443785	b o	-0.62071943
-1.8284414	e o	-0.4332288
-1.1238344	s o	-0.64893264
-0.91822296	h o	-0.72378284
-1.3274655	m o	-0.5150053
-1.0575589	w o	-0.5164268
-1.9972644	u o	-0.27597487
-0.9777575	q o	-0.5646401
-1.0527959	p o	-0.6192687
-1.0228592	z o	-0.53245026
-1.057817	d o	-0.57400787
-1.1001868	y o	-0.50451577
-0.98801464	c o	-0.61119705
-0.94546896	v o	-0.40052056
-1.0302985	j o	-0.39633226
-1.1656061	Ã o	-0.23490122
-3.4441493	<s> V	-0.5342798
-2.2695415	A V	-0.2761337
-2.2209785	B V	-0.23490122
-2.1821551	G V	-0.23490122
-2.1868885	K V	-0.23490122
-2.113564	F V	-0.23490122
-2.339836	E V	-0.23490122
-2.011066	I V	-0.2617451
-1.849562	T V	-0.44592896
-2.0465095	O V	-0.23490122
-2.112425	M V	-0.26545283
-2.341582	S V	-0.23490122
-1.9934113	C V	-0.2983174
-2.0188859	D V	-0.2983174
-2.4297302	o V	-0.26999825
-1.9335716	R V	-0.23490122
-2.001352	U V	-0.23490122
-2.511791	a V	-0.2761337
-2.3481991	i V	-0.28254178
-2.2483392	e V	-0.3590919
-1.822423	m V	-0.41185963
-2.5145473	u V	-0.28467715
-3.0472975	<s> R	-0.809771
-1.5528505	A R	-0.27096382
-1.9289767	B R	-0.23490122
-2.0423152	N R	-0.23490122
-1.8085283	F R	-0.26545283
-1.6494966	E R	-0.29057714
-1.3649828	L R	-0.35127503
-1.7030389	I R	-0.26545283
-1.6995044	T R	-0.2761337
-1.3263502	O R	-0.30595818
-1.7999128	M R	-0.27581602
-1.928295	S R	-0.2848717
-1.6640859	C R	-0.25209528
-1.9802806	D R	-0.23490122
-1.9362969	P R	-0.25502834
-2.5254874	o R	-0.29781607
-1.8902164	R R	-0.23490122
-1.3128048	H R	-0.29279166
-1.5798274	U R	-0.25209528
-1.7819003	W R	-0.2983174
-2.2132828	a R	-0.3632809
-2.22756	n R	-0.23490122
-2.360069	r R	-0.23490122
-2.2313075	i R	-0.30317074
-2.0652785	e R	-0.51379776
-2.0712323	m R	-0.39472607
-2.3179111	u R	-0.31487533
-1.7399137	_ R	-0.23490122
-1.4504236	X R	-0.23490122
-3.0190356	<s> H	-0.7669564
-1.9517466	A H	-0.2844828
-1.618557	B H	-0.2759219
-1.6813674	N H	-0.32958308
-2.1025705	G H	-0.23490122
-1.2299879	K H	-0.5517611
-2.2437406	E H	-0.23490122
-2.145924	L H	-0.23490122
-1.8553699	I H	-0.26529783
-1.4024563	T H	-0.5050705
-1.9898106	O H	-0.26545283
-2.0445623	M H	-0.2761337
-2.2465382	S H	-0.23490122
-1.9458334	C H	-0.23490122
-1.9698529	D H	-0.23490122
-1.2943116	P H	-0.46861783
-2.3763778	o H	-0.34276286
-1.4055239	R H	-0.30759683
-2.0937462	H H	-0.23490122
-1.783052	U H	-0.44592896
-1.7810671	W H	-0.29781607
-1.7032768	J H	-0.23490122
-2.275196	a H	-0.4196357
-2.2189906	n H	-0.26545283
-2.4261334	t H	-0.23490122
-1.1680508	Q H	-0.31177855
-2.0438771	i H	-0.36884993
-2.106982	e H	-0.44737217
-1.8681694	m H	-0.62202024
-2.2045755	u H	-0.32606983
-2.2390895	p H	-0.23490122
-1.648326	<s> U	-1.5767642
-1.9398258	A U	-0.39472607
-1.5148026	B U	-0.2873589
-2.0148726	N U	-0.23490122
-1.6999793	G U	-0.23490122
-1.4814702	K U	-0.34283432
-1.3660834	F U	-0.43061087
-1.797924	E U	-0.36558878
-1.2030189	L U	-0.5020363
-2.0808234	I U	-0.23490122
-1.957372	T U	-0.29781607
-1.6998966	O U	-0.23490122
-1.6253458	M U	-0.27990887
-1.6637905	Z U	-0.2983174
-2.0553172	S U	-0.23490122
-2.1137166	C U	-0.23490122
-1.7914342	D U	-0.26545283
-2.0913613	P U	-0.23490122
-2.2612848	o U	-0.27581602
-1.2354845	V U	-0.4886028
-1.8658235	R U	-0.2983174
-1.4534987	H U	-0.32435453
-1.0807563	W U	-0.41551587
-2.2639592	a U	-0.2499084
-1.7872161	Q U	-0.23490122
-2.3185797	r U	-0.23490122
-2.036448	i U	-0.28620246
-2.293674	k U	-0.23490122
-2.2353415	b U	-0.23490122
-1.9749947	e U	-0.44132414
-2.4180062	u U	-0.23490122
-2.2166457	p U	-0.23490122
-2.2632196	d U	-0.23490122
-1.7155912	_ U	-0.23490122
-2.2925107	<s> W	-1.4246663
-1.6280472	A W	-0.387937
-1.9098645	B W	-0.23490122
-2.0163562	N W	-0.23490122
-1.8785151	G W	-0.29781607
-1.5803978	K W	-0.41674128
-2.0325222	F W	-0.23490122
-2.0565062	E W	-0.2983174
-1.3598833	L W	-0.43611875
-1.7628484	I W	-0.30037755
-1.6871963	T W	-0.2848717
-2.1811135	M W	-0.23490122
-1.9396003	Z W	-0.23490122
-2.0614672	S W	-0.29781607
-1.9292499	C W	-0.2983174
-1.5775062	D W	-0.47390732
-1.9081591	P W	-0.23490122
-2.6297946	o W	-0.23490122
-1.9394066	V W	-0.23490122
-1.8705937	R W	-0.2983174
-1.8547285	H W	-0.26545283
-2.1059325	U W	-0.23490122
-1.7734604	W W	-0.23490122
-1.844682	Y W	-0.23490122
-1.9682494	J W	-0.23490122
-2.571576	a W	-0.26522034
-2.3634362	n W	-0.23490122
-2.409289	t W	-0.23490122
-2.3940737	i W	-0.28269064
-2.301391	k W	-0.23490122
-2.0561194	e W	-0.42122748
-2.395958	h W	-0.23490122
-2.4252806	u W	-0.25502834
-2.435644	<s> Y	-1.4130918
-1.6158488	A Y	-0.42649308
-1.8276627	N Y	-0.36558878
-2.1777709	E Y	-0.23490122
-1.6733097	I Y	-0.40086067
-2.0820906	O Y	-0.2983174
-2.0328648	C Y	-0.23490122
-2.8454416	o Y	-0.23490122
-1.7174957	U Y	-0.29806665
-2.3362062	a Y	-0.25502834
-2.1477258	n Y	-0.26545283
-2.5014076	i Y	-0.2761337
-2.0964544	e Y	-0.62202024
-2.3192265	m Y	-0.2983174
-2.566454	u Y	-0.23490122
-1.8103758	_ Y	-0.23490122
-3.2929628	<s> J	-0.64343506
-2.245118	A J	-0.32099023
-2.193182	B J	-0.23490122
-2.0754046	N J	-0.2761337
-2.0899205	F J	-0.23490122
-1.8299603	E J	-0.2761337
-2.1452928	I J	-0.23490122
-1.4698777	T J	-0.42463169
-2.2335355	O J	-0.23490122
-2.2652383	M J	-0.23490122
-1.8265189	S J	-0.542839
-1.974952	C J	-0.2983174
-1.6562085	P J	-0.542839
-2.5581386	o J	-0.26999825
-2.1510968	R J	-0.23490122
-1.8090172	U J	-0.2617451
-2.2985818	a J	-0.34180322
-2.2611938	n J	-0.23490122
-2.4809823	t J	-0.23490122
-2.4413037	i J	-0.32606983
-2.1763947	e J	-0.3725764
-2.4265306	s J	-0.23490122
-1.9786247	m J	-0.4579066
-2.1444812	u J	-0.34624267
-2.338373	d J	-0.23490122
-1.0510709	<s> a	-2.2718189
-2.071301	A a	-0.23490122
-1.2415606	B a	-0.4146481
-1.3285788	N a	-0.40954712
-1.3105694	G a	-0.37432003
-1.2082895	K a	-0.3773986
-1.197321	F a	-0.39364666
-1.834725	E a	-0.26972973
-1.1472664	L a	-0.46482658
-1.9784842	I a	-0.24407488
-1.3705823	T a	-0.37785804
-1.4759493	M a	-0.52887416
-1.058567	Z a	-0.30622545
-1.2946191	S a	-0.42281893
-1.6011482	C a	-0.34496596
-1.2603351	D a	-0.35050207
-1.2247683	P a	-0.41408613
-1.7548102	o a	-0.39356852
-1.2147356	V a	-0.32958308
-1.3097074	R a	-0.30868754
-1.228709	H a	-0.33871228
-1.319406	W a	-0.29281557
-1.0998398	Y a	-0.27597487
-0.89144486	J a	-0.46605828
-1.596848	a a	-0.5694464
-1.187569	n a	-0.6285001
-1.2513133	t a	-0.59518045
-1.0144289	x a	-0.25673938
-0.94161355	f a	-0.5513195
-1.0741721	g a	-0.59316295
-1.0412874	Q a	-0.39652985
-0.918501	r a	-0.71958214
-1.6120584	i a	-0.55103326
-1.0263642	k a	-0.6199298
-0.92032105	l a	-0.7893794
-0.9726542	b a	-0.65359014
-1.5374811	e a	-0.65488446
-1.122852	s a	-0.71744454
-0.9550926	h a	-0.8481876
-1.1921773	m a	-0.67097044
-0.74695957	w a	-0.83200127
-1.5656941	u a	-0.41800308
-0.82367325	q a	-0.6405558
-1.0776439	p a	-0.58728695
-0.8767615	z a	-0.64223737
-1.1257946	d a	-0.57582873
-1.010153	y a	-0.68956673
-1.0279266	c a	-0.5765843
-0.8535079	v a	-0.64033896
-0.81443465	j a	-0.62156457
-1.1626452	Ã a	-0.23490122
-1.3859838	X a	-0.23490122
-0.85355777	<s> n	-2.7641554
-1.7782385	A n	-0.29283035
-1.9918619	N n	-0.2761337
-1.8576981	K n	-0.23490122
-1.7877498	E n	-0.299403
-1.5227944	I n	-0.37526688
-1.3602064	O n	-0.37761784
-1.5576963	M n	-0.4228383
-1.3191442	o n	-0.90006125
-2.053206	R n	-0.23490122
-1.4859244	U n	-0.37010583
-1.3693452	a n	-1.0528892
-1.6211363	n n	-0.41339043
-1.9173826	t n	-0.26545283
-1.7659165	x n	-0.23490122
-1.4899591	f n	-0.24284047
-1.8464271	g n	-0.33695197
-1.8235313	r n	-0.34215647
-1.3458068	i n	-0.9219626
-1.7835352	k n	-0.2979831
-1.8840973	l n	-0.2979831
-1.714754	b n	-0.25209528
-1.3911161	e n	-0.96704113
-1.6358463	s n	-0.28467715
-1.7743967	h n	-0.2844828
-1.6221427	m n	-0.6024239
-1.3428112	w n	-0.33897004
-1.2597154	u n	-0.938521
-1.8304379	q n	-0.23490122
-1.98696	p n	-0.2761337
-1.742911	z n	-0.3277217
-1.8754355	d n	-0.26545283
-1.4459869	y n	-0.26195014
-1.634156	c n	-0.26999825
-2.0768623	j n	-0.23490122
-0.8141519	Ã n	-0.23490122
-1.4115357	_ n	-0.2983174
-2.8822157	<s> t	-0.94262445
-1.5233266	A t	-0.4529328
-1.8500168	B t	-0.32099023
-1.4128948	N t	-0.45447016
-1.9832233	G t	-0.23490122
-1.8108624	K t	-0.2983174
-1.9418653	F t	-0.23490122
-1.6054803	E t	-0.44329274
-1.6899987	L t	-0.29781607
-1.5474851	I t	-0.3728673
-1.5057235	O t	-0.36213037
-1.4388762	M t	-0.41385
-1.8604876	Z t	-0.23490122
-1.5438203	S t	-0.45969287
-1.8546951	C t	-0.2983174
-1.8376731	P t	-0.2761337
-1.4018372	o t	-0.7861244
-1.9794921	R t	-0.23490122
-1.6150092	U t	-0.33248556
-1.545528	W t	-0.29781607
-1.7693657	Y t	-0.23490122
-1.4122516	a t	-0.98857826
-1.427974	n t	-0.6188948
-1.5221043	t t	-0.36443505
-1.4587016	x t	-0.26545283
-1.5727762	f t	-0.26288256
-1.965636	g t	-0.2848717
-1.4690171	r t	-0.40362737
-1.3918347	i t	-0.9130732
-1.6683179	k t	-0.35370496
-1.6334817	l t	-0.29452908
-1.6906862	b t	-0.26999825
-1.4785713	e t	-0.8428706
-1.1839805	s t	-0.63459593
-1.5598011	h t	-0.28355324
-1.5250264	m t	-0.5290921
-1.7228869	w t	-0.23490122
-1.3445693	u t	-0.74339354
-1.7949985	q t	-0.2983174
-1.3747345	p t	-0.37824306
-2.0919466	z t	-0.23490122
-1.1538161	d t	-0.6957561
-2.0807858	y t	-0.23490122
-1.4191713	c t	-0.52031046
-2.042526	v t	-0.23490122
-1.3792245	j t	-0.44329274
-1.1685874	Ã t	-0.23490122
-1.3965259	X t	-0.23490122
-4.1611056	<s> x	-0.3277217
-2.4074743	N x	-0.23490122
-2.201287	E x	-0.26999825
-2.3566167	o x	-0.2759219
-2.3450289	a x	-0.29806665
-1.8429685	n x	-0.5988461
-1.0172552	t x	-1.3879371
-1.8879297	x x	-0.23490122
-2.1380825	g x	-0.23490122
-2.5159743	i x	-0.26545283
-2.0557046	e x	-0.37719774
-2.5933602	u x	-0.2761337
-2.3348515	z x	-0.23490122
-2.3381212	y x	-0.23490122
-3.020404	<s> f	-0.9158948
-1.7483026	A f	-0.3991962
-2.1149218	E f	-0.25916812
-2.1504536	I f	-0.24821512
-1.728056	O f	-0.3463827
-1.9313263	M f	-0.27581602
-2.3075366	S f	-0.23490122
-1.5643954	o f	-0.6715758
-2.1830752	U f	-0.23490122
-1.5304021	a f	-0.8993841
-1.8130065	n f	-0.34788206
-1.851923	t f	-0.27581602
-1.4215715	f f	-0.3377065
-2.1694908	r f	-0.25916812
-1.6008395	i f	-0.7722377
-2.3686233	k f	-0.23490122
-1.9161057	l f	-0.26522034
-1.6479498	e f	-0.76749974
-2.2087529	s f	-0.26545283
-2.2154486	h f	-0.23490122
-1.8136408	m f	-0.6550278
-2.0960512	w f	-0.23490122
-1.8235286	u f	-0.5470824
-2.2877877	p f	-0.23490122
-2.2372007	y f	-0.23490122
-3.3140378	<s> g	-0.6135219
-1.8499634	A g	-0.38558438
-1.313786	N g	-0.56145614
-1.8585405	G g	-0.2983174
-1.4777056	K g	-0.47407436
-2.1983094	E g	-0.23490122
-2.2125208	I g	-0.23490122
-1.772948	M g	-0.37628114
-2.0432723	S g	-0.32099023
-2.075017	P g	-0.23490122
-1.5727526	o g	-0.5849863
-2.080205	U g	-0.23490122
-1.5500097	a g	-0.85683554
-1.2329488	n g	-0.7160682
-2.2001834	t g	-0.23490122
-1.9095882	f g	-0.2983174
-1.7280667	g g	-0.2979831
-1.7322966	r g	-0.3125115
-1.5121629	i g	-0.81372964
-1.3142558	k g	-0.6904666
-2.1706362	l g	-0.26545283
-2.0149126	b g	-0.2761337
-1.6220206	e g	-0.7522267
-1.8700022	s g	-0.31177855
-1.8722959	h g	-0.28839076
-1.6707933	m g	-0.47083458
-2.0492673	w g	-0.23490122
-1.5610516	u g	-0.5985262
-1.8259045	q g	-0.2983174
-1.9912779	p g	-0.23490122
-1.9259871	z g	-0.23490122
-1.8785865	d g	-0.44592896
-2.1553662	y g	-0.23490122
-2.0315683	c g	-0.2761337
-2.100931	v g	-0.23490122
-2.082545	j g	-0.23490122
-3.6048403	<s> Q	-0.50879467
-2.1372273	A Q	-0.26545283
-2.1373568	N Q	-0.25916812
-2.169619	E Q	-0.23490122
-2.2179544	I Q	-0.23490122
-2.3105206	T Q	-0.23490122
-2.3696706	M Q	-0.23490122
-2.4050236	S Q	-0.23490122
-2.3181524	D Q	-0.23490122
-2.829317	o Q	-0.23490122
-2.2769449	U Q	-0.23490122
-2.7122073	a Q	-0.2979831
-2.3184855	n Q	-0.28867105
-2.374124	i Q	-0.34180322
-2.2663438	e Q	-0.48468542
-2.1392183	m Q	-0.34276286
-2.7594526	u Q	-0.23490122
-3.104717	<s> r	-0.90816873
-1.7028512	A r	-0.396923
-1.5885466	B r	-0.3137271
-2.0913062	N r	-0.23490122
-1.3211317	G r	-0.43045628
-1.6720307	K r	-0.26545283
-1.3518324	F r	-0.4576997
-2.1342568	E r	-0.23490122
-1.8067061	I r	-0.2761337
-1.4977022	T r	-0.4974031
-1.5850146	O r	-0.2759219
-1.6658126	M r	-0.4886028
-1.622021	C r	-0.3361157
-1.6450377	D r	-0.26972973
-1.3799857	P r	-0.55254394
-1.3577232	o r	-0.7790034
-1.6376978	V r	-0.2983174
-2.018231	U r	-0.23490122
-1.7338499	W r	-0.32099023
-1.3943775	a r	-0.8773364
-1.7071314	n r	-0.36492988
-1.2559314	t r	-0.7781278
-1.3327276	f r	-0.4388981
-1.3284959	g r	-0.639749
-1.5226753	r r	-0.31879225
-1.4404218	i r	-0.74230003
-1.5355632	k r	-0.47390732
-1.9794414	l r	-0.27581602
-1.4650704	b r	-0.35587958
-1.437031	e r	-0.7969195
-1.7605671	s r	-0.27581602
-1.3576963	h r	-0.55476457
-1.6092823	m r	-0.52915543
-1.7305611	w r	-0.2844828
-1.3107069	u r	-0.69297385
-1.1096623	p r	-0.64710176
-1.3561633	d r	-0.52200305
-2.104251	y r	-0.23490122
-1.3734658	c r	-0.4215142
-1.8107064	v r	-0.2761337
-2.039038	j r	-0.23490122
-0.809547	Ã r	-0.23490122
-1.6706867	_ r	-0.23490122
-1.4073302	X r	-0.23490122
-1.2055714	<s> i	-1.9424913
-1.8710915	A i	-0.2844828
-1.4069648	B i	-0.39588204
-1.621593	N i	-0.26118362
-1.2546163	G i	-0.37042755
-1.6464144	K i	-0.26082298
-1.2620035	F i	-0.39485133
-2.0719507	E i	-0.23490122
-1.2798316	L i	-0.40569776
-1.8634932	I i	-0.2896391
-1.4212071	T i	-0.37824306
-1.4740684	M i	-0.39110178
-0.947484	Z i	-0.38851127
-1.3975382	S i	-0.51271874
-1.8368033	C i	-0.25502834
-1.4043511	D i	-0.32951692
-1.4951811	P i	-0.2935244
-1.5945508	o i	-0.44531855
-1.0079508	V i	-0.41158557
-1.4436761	R i	-0.37257493
-1.6244758	H i	-0.25209528
-1.9576803	U i	-0.23490122
-1.3180828	W i	-0.4215142
-1.0988543	Y i	-0.27953637
-1.156654	J i	-0.4215142
-1.5518259	a i	-0.5933996
-1.2213383	n i	-0.6257452
-1.2507395	t i	-0.60542727
-1.01361	x i	-0.27164102
-0.9953945	f i	-0.5548656
-1.1505452	g i	-0.5345031
-1.1410968	Q i	-0.39472607
-0.9732986	r i	-0.6706602
-1.6111352	i i	-0.52863634
-1.2071109	k i	-0.5612161
-0.99343413	l i	-0.7545901
-1.0577371	b i	-0.5604639
-1.6238451	e i	-0.5733
-1.0705786	s i	-0.7407646
-1.0569576	h i	-0.65397197
-1.3029283	m i	-0.5880072
-0.9384224	w i	-0.6123972
-1.6321708	u i	-0.38851127
-0.9087292	q i	-0.50249964
-1.133864	p i	-0.5489903
-0.83715814	z i	-0.72654927
-1.1508461	d i	-0.57899404
-0.95921314	y i	-0.5800777
-1.0066714	c i	-0.53282917
-0.777905	v i	-0.5585609
-0.89355046	j i	-0.55201066
-0.94733506	_ i	-0.47390732
-1.0762286	X i	-0.32099023
-1.0989913	<s> k	-2.6618636
-1.9320564	A k	-0.36213037
-1.7528929	N k	-0.3926677
-1.8622174	K k	-0.23490122
-2.0382247	E k	-0.25209528
-1.9381723	I k	-0.2681696
-2.1180785	T k	-0.23490122
-1.6040279	O k	-0.3075026
-1.6200606	M k	-0.4974031
-1.9225829	Z k	-0.23490122
-1.5126877	S k	-0.40875
-1.4089941	o k	-0.87963444
-1.370006	U k	-0.44246134
-1.3983902	a k	-1.0159005
-1.5799174	n k	-0.47546783
-2.2001834	t k	-0.23490122
-1.7705661	x k	-0.23490122
-1.84962	g k	-0.27581602
-1.7322966	r k	-0.30656117
-1.3875983	i k	-0.99685043
-1.6906291	k k	-0.37772733
-1.8866764	l k	-0.32785085
-2.2206728	b k	-0.23490122
-1.4742873	e k	-0.9529403
-1.375182	s k	-0.4371687
-1.6976036	h k	-0.28467715
-1.6240113	m k	-0.592979
-2.0492673	w k	-0.23490122
-1.3393589	u k	-0.8981947
-2.1052513	q k	-0.23490122
-2.202303	p k	-0.23490122
-1.6150593	z k	-0.36366403
-2.2481487	d k	-0.23490122
-1.9353487	y k	-0.23490122
-1.4902549	c k	-0.37257493
-1.8293433	j k	-0.23490122
-1.3424946	<s> l	-2.2985983
-1.700586	A l	-0.3057693
-1.5863218	B l	-0.33930895
-2.0838838	N l	-0.23490122
-1.8189431	G l	-0.2983174
-1.8284316	K l	-0.26545283
-1.742682	F l	-0.26545283
-1.5530728	E l	-0.40624437
-2.0491416	L l	-0.23490122
-1.8970441	I l	-0.28008372
-1.3809493	T l	-0.60504466
-1.6677883	O l	-0.3788742
-1.8352195	M l	-0.28839076
-1.7597998	S l	-0.2848717
-1.6193564	C l	-0.28467715
-1.360464	D l	-0.50662684
-1.5989956	P l	-0.387937
-1.3683387	o l	-0.90031177
-1.634727	V l	-0.2983174
-1.2361691	H l	-0.66341287
-2.0110707	U l	-0.23490122
-1.9438874	W l	-0.23490122
-1.3655909	a l	-0.93645567
-1.9102666	n l	-0.3238831
-1.3281422	t l	-0.7546458
-1.2218282	f l	-0.38971332
-1.6160219	g l	-0.2979163
-2.0696204	r l	-0.2761337
-1.3826662	i l	-0.89091045
-1.3843212	k l	-0.5669131
-1.4134188	l l	-0.51753086
-1.5285728	b l	-0.50890666
-1.396631	e l	-0.941404
-1.6232426	s l	-0.39472604
-1.0278516	h l	-1.0328892
-1.6524165	m l	-0.6500379
-1.7286298	w l	-0.36492988
-1.2987009	u l	-0.9732395
-1.1704992	p l	-0.5734198
-1.8936167	z l	-0.2983174
-1.1556078	d l	-0.7742381
-1.6084312	y l	-0.23490122
-1.327695	c l	-0.4070321
-1.7950678	j l	-0.26545283
-1.1730981	Ã l	-0.23490122
-1.2855449	<s> b	-2.475439
-1.6299634	A b	-0.4208763
-2.234266	E b	-0.23490122
-2.098932	I b	-0.2499084
-2.1521065	T b	-0.23490122
-2.1665199	O b	-0.23490122
-1.6306962	M b	-0.5157606
-1.712494	S b	-0.40075478
-1.3991104	o b	-0.9243555
-1.9316941	U b	-0.25209528
-1.4418927	a b	-0.9566043
-1.7326154	n b	-0.2981502
-2.2154257	t b	-0.23490122
-1.9238344	f b	-0.23490122
-2.038378	g b	-0.26545283
-1.9594606	r b	-0.2761337
-1.5008224	i b	-0.86290264
-1.9209113	k b	-0.25916812
-1.8016882	l b	-0.31769744
-1.8531054	b b	-0.27581602
-1.5250536	e b	-0.8352243
-1.7869142	s b	-0.29197428
-2.0081632	h b	-0.29781607
-1.3941766	m b	-0.6931736
-2.0657024	w b	-0.23490122
-1.3544266	u b	-0.7786215
-2.008992	p b	-0.23490122
-1.8914247	d b	-0.2848717
-1.7646593	y b	-0.26545283
-2.1222854	v b	-0.23490122
-1.8352281	j b	-0.23490122
-1.7251574	_ b	-0.23490122
-1.0277624	<s> e	-2.1152077
-1.4084356	B e	-0.3268843
-1.6241388	N e	-0.30173334
-1.3105694	G e	-0.34385198
-1.5374807	K e	-0.27600664
-1.197321	F e	-0.36425287
-1.9519199	E e	-0.23490122
-1.3364464	L e	-0.30483076
-1.9750041	I e	-0.23490122
-1.4822903	T e	-0.3463827
-1.4320081	M e	-0.4332288
-1.3061893	Z e	-0.286151
-1.3266708	S e	-0.51970655
-1.8412083	C e	-0.26545283
-1.5395527	D e	-0.34476414
-1.4972967	P e	-0.31102607
-1.5954738	o e	-0.39314556
-1.0086505	V e	-0.4486161
-1.3723071	R e	-0.30945808
-1.2842684	H e	-0.32397366
-1.9640061	U e	-0.23490122
-1.2413721	W e	-0.2945832
-1.2001863	Y e	-0.2747003
-1.0897052	J e	-0.42649308
-1.7433915	a e	-0.40989408
-1.187569	n e	-0.6191683
-1.2297263	t e	-0.6160636
-0.93129337	x e	-0.26195014
-1.0256941	f e	-0.6264145
-1.0741721	g e	-0.47500888
-1.4578103	Q e	-0.2983174
-0.95919687	r e	-0.71456283
-1.5148506	i e	-0.52803653
-1.1305941	k e	-0.60146135
-0.9434493	l e	-0.6904062
-1.0133392	b e	-0.592149
-1.4761806	e e	-0.69487065
-1.1817273	s e	-0.6466478
-0.98192674	h e	-0.7413694
-1.2263	m e	-0.62874067
-0.8061905	w e	-0.69211274
-1.658471	u e	-0.41468745
-0.97700083	q e	-0.47091526
-1.1051267	p e	-0.5639262
-1.0219268	z e	-0.47912169
-1.1514385	d e	-0.57000494
-0.98416513	y e	-0.522512
-1.122981	c e	-0.46831396
-0.82690996	v e	-0.6092578
-0.8657777	j e	-0.50941205
-1.6378328	_ e	-0.23490122
-0.28098798	ž e	-0.23490122
-1.3168519	<s> s	-2.4134865
-1.7728683	A s	-0.2874619
-2.0828195	B s	-0.23490122
-1.980114	N s	-0.23490122
-1.8487982	K s	-0.2848717
-1.6257752	E s	-0.41443262
-1.6171885	I s	-0.32789934
-1.5076201	T s	-0.31835398
-1.7958175	O s	-0.29781607
-1.6122513	M s	-0.40182218
-1.8978763	C s	-0.2983174
-2.1189554	D s	-0.23490122
-1.8816148	P s	-0.2761337
-1.3950151	o s	-0.7931451
-2.038839	R s	-0.23490122
-1.6414753	U s	-0.26195014
-1.9345596	J s	-0.23490122
-1.4273577	a s	-0.9004861
-1.5366659	n s	-0.4819319
-1.2819672	t s	-0.6482081
-1.899202	f s	-0.23490122
-1.7208599	g s	-0.36366403
-1.6500953	r s	-0.3413284
-1.3648905	i s	-0.94780475
-1.4853897	k s	-0.39605445
-1.7870487	l s	-0.37271166
-1.5374553	b s	-0.31177855
-1.439763	e s	-0.87099516
-1.4432399	s s	-0.48691785
-1.6271409	h s	-0.25502834
-1.5767143	m s	-0.5833774
-1.7403487	w s	-0.27581602
-1.2798191	u s	-0.88944525
-1.6826657	p s	-0.31303373
-2.1442182	z s	-0.23490122
-1.5131184	d s	-0.4976648
-1.2209417	y s	-0.3756698
-1.5525659	c s	-0.26522034
-2.065715	j s	-0.23490122
-3.0618207	<s> h	-0.91839993
-2.0839572	A h	-0.2983174
-1.2937717	B h	-0.6019805
-1.9257157	N h	-0.2983174
-1.8024404	G h	-0.2983174
-1.0565666	K h	-0.70138085
-2.0985456	E h	-0.23490122
-2.1087663	I h	-0.23490122
-1.1783246	T h	-0.71634805
-2.0370657	O h	-0.23490122
-1.6514602	M h	-0.4519073
-1.9722028	S h	-0.27613375
-1.4528409	C h	-0.3933099
-2.051804	D h	-0.23490122
-1.318571	P h	-0.6463589
-1.5982542	o h	-0.50873023
-1.2095569	R h	-0.650049
-1.9728574	H h	-0.23490122
-1.9835557	U h	-0.23490122
-1.711111	W h	-0.23490122
-1.76478	Y h	-0.23490122
-1.8836379	J h	-0.23490122
-1.5408198	a h	-0.6596441
-1.6464878	n h	-0.41443262
-1.1040303	t h	-0.86698955
-1.4494754	x h	-0.2761337
-2.0818932	f h	-0.23490122
-1.416518	g h	-0.4541104
-0.892539	Q h	-0.39497668
-1.2018628	r h	-0.7910516
-1.5797477	i h	-0.66584855
-0.991939	k h	-0.8090756
-1.5776123	l h	-0.4480717
-1.059724	b h	-0.73415184
-1.5395452	e h	-0.7488055
-1.4331	s h	-0.56295896
-2.1139627	h h	-0.26545283
-1.5602362	m h	-0.555395
-1.627503	w h	-0.33248556
-1.7178296	u h	-0.5311521
-1.0589558	q h	-0.5842317
-0.94274384	p h	-0.8177528
-2.0865088	z h	-0.23490122
-1.3514402	d h	-0.5572361
-1.8797239	y h	-0.23490122
-1.1521508	c h	-0.5984296
-1.6057594	v h	-0.2983174
-1.4772514	j h	-0.31659612
-0.8586401	X h	-0.44592896
-2.1301441	<s> m	-1.189109
-1.7947596	A m	-0.3032835
-2.2014942	N m	-0.23490122
-1.7188277	E m	-0.2711659
-1.7692983	I m	-0.27096382
-1.9843899	O m	-0.25209528
-1.7055126	M m	-0.41206014
-2.0740347	S m	-0.29781607
-1.3760737	o m	-0.94289637
-1.5745972	U m	-0.26109388
-1.400917	a m	-0.9524933
-1.7974951	n m	-0.2681696
-1.9336526	t m	-0.3463827
-1.8659465	g m	-0.2761337
-1.7426779	r m	-0.31879225
-1.4485894	i m	-0.7626901
-1.9241656	k m	-0.23490122
-1.8038204	l m	-0.28157434
-2.037966	b m	-0.23490122
-1.42343	e m	-0.813423
-1.4925195	s m	-0.3822085
-2.1924028	h m	-0.23490122
-1.6334772	m m	-0.50144565
-2.0699103	w m	-0.23490122
-1.2840377	u m	-0.7039559
-1.8291124	p m	-0.25502834
-1.9517763	z m	-0.2761337
-2.0730329	d m	-0.2761337
-1.4540045	y m	-0.25209528
-2.0543985	c m	-0.23490122
-2.112131	j m	-0.23490122
-1.3956813	<s> w	-2.528639
-2.1159635	A w	-0.27581602
-1.3855299	G w	-0.36558878
-1.2662041	K w	-0.5582481
-2.1342568	E w	-0.23490122
-1.5817475	L w	-0.4579066
-2.0227394	I w	-0.26999825
-2.0571077	T w	-0.23490122
-2.0713048	O w	-0.23490122
-1.3170893	Z w	-0.2979831
-1.8648	S w	-0.30759683
-1.8733588	C w	-0.23490122
-2.084083	D w	-0.23490122
-1.4294628	o w	-0.7462786
-1.8207994	R w	-0.2983174
-2.003205	H w	-0.23490122
-2.018231	U w	-0.23490122
-1.663883	J w	-0.2983174
-1.5583314	a w	-0.9081871
-1.6094507	n w	-0.5311831
-1.4501225	t w	-0.506473
-1.7346922	x w	-0.23490122
-1.8824252	f w	-0.23490122
-1.2172807	g w	-0.72151476
-1.7375735	Q w	-0.23490122
-1.5781176	r w	-0.4739073
-1.551279	i w	-0.93703455
-1.2422328	k w	-0.6981603
-1.2925729	l w	-0.6784286
-1.9803975	b w	-0.2979831
-1.6654409	e w	-0.7372203
-1.3370746	s w	-0.72151476
-1.2428107	h w	-0.7526799
-2.1193352	m w	-0.29806665
-1.5570619	w w	-0.28971478
-1.5531026	u w	-0.6144392
-1.2214042	q w	-0.5764422
-1.9523284	p w	-0.23490122
-0.99761724	z w	-0.86787415
-1.4006947	d w	-0.63002867
-1.5149769	y w	-0.54168004
-1.2878937	c w	-0.6677777
-2.061135	v w	-0.23490122
-1.1741403	j w	-0.57081735
-1.1319722	<s> u	-2.061357
-1.8710915	A u	-0.29057714
-1.2892694	B u	-0.4722971
-1.9094778	N u	-0.23490122
-1.53278	G u	-0.31890914
-1.3107924	K u	-0.34285355
-1.19634	F u	-0.41185975
-1.9508541	E u	-0.32099023
-1.3352472	L u	-0.43952015
-2.0812588	I u	-0.23490122
-1.6304008	T u	-0.33257812
-2.011494	O u	-0.23490122
-1.5227376	M u	-0.42148134
-1.0578068	Z u	-0.36492988
-1.3975382	S u	-0.40913355
-1.8368033	C u	-0.28157434
-1.4043511	D u	-0.28474197
-1.5780662	P u	-0.3258755
-1.4238262	o u	-0.57098436
-1.2136115	V u	-0.43317902
-1.6412301	R u	-0.23490122
-1.7785813	H u	-0.29781607
-1.9576803	U u	-0.23490122
-1.9013801	W u	-0.23490122
-1.0988543	Y u	-0.47407436
-1.2369205	J u	-0.3926677
-1.6453	a u	-0.4570509
-1.5545149	n u	-0.40136027
-1.322694	t u	-0.47069538
-1.6975871	x u	-0.23490122
-0.9953945	f u	-0.6356415
-1.1795388	g u	-0.4921055
-0.9586203	Q u	-0.33467612
-1.22491	r u	-0.43634453
-1.7127415	i u	-0.44844973
-1.0448729	k u	-0.7027756
-1.098452	l u	-0.61811596
-1.0347359	b u	-0.6822857
-1.8507102	e u	-0.40362737
-1.3013023	s u	-0.57559437
-1.0911713	h u	-0.69714534
-1.3971461	m u	-0.570855
-1.187054	w u	-0.58073634
-1.9370159	u u	-0.31472644
-0.9087292	q u	-0.4749231
-1.1652857	p u	-0.48033753
-1.0830208	z u	-0.5263317
-1.1252363	d u	-0.55544704
-1.1325202	y u	-0.3868938
-1.3207144	c u	-0.31349576
-0.8815271	v u	-0.6907433
-0.9908252	j u	-0.41727307
-1.3833878	X u	-0.23490122
-3.549646	<s> q	-0.5420009
-2.4174855	A q	-0.23490122
-1.6225091	N q	-0.47407436
-1.4977192	G q	-0.31521007
-2.3053868	E q	-0.23490122
-2.3250947	I q	-0.23490122
-2.0886064	M q	-0.2983174
-2.3075366	S q	-0.23490122
-1.9327526	o q	-0.47673923
-2.1830752	U q	-0.23490122
-1.7301319	a q	-0.86306304
-1.4853454	n q	-0.5589918
-1.9499485	f q	-0.2983174
-1.2669146	g q	-0.5484537
-2.3963737	r q	-0.23490122
-1.7992233	i q	-0.71611524
-2.3686233	k q	-0.23490122
-2.2228253	l q	-0.23490122
-2.0607245	b q	-0.23490122
-1.7640653	e q	-0.8060804
-2.2087529	s q	-0.32099023
-1.8136408	m q	-0.5050705
-1.7872713	u q	-0.5571257
-1.856307	q q	-0.23490122
-2.076826	c q	-0.23490122
-2.8012772	<s> p	-1.0833703
-1.7919621	A p	-0.33275494
-2.0627751	E p	-0.25916812
-2.098932	I p	-0.25690517
-1.7059983	O p	-0.34921917
-1.7023267	M p	-0.41674128
-1.6383307	S p	-0.41212007
-1.4935322	o p	-0.6706519
-2.091351	R p	-0.23490122
-1.9316941	U p	-0.2761337
-1.4529134	a p	-0.8150949
-2.2123387	n p	-0.23490122
-2.2210958	t p	-0.23490122
-1.489177	x p	-0.26999825
-2.180949	f p	-0.23490122
-2.247345	g p	-0.23490122
-1.9594606	r p	-0.26999825
-1.5151097	i p	-0.6345309
-2.0919228	k p	-0.23490122
-2.1910028	l p	-0.2979163
-2.027128	b p	-0.23490122
-1.5124425	e p	-0.88296723
-1.5869035	s p	-0.425515
-2.0081632	h p	-0.23490122
-1.5137199	m p	-0.54525787
-2.3033419	w p	-0.23490122
-1.5447118	u p	-0.6352502
-1.5184441	p p	-0.31472644
-2.1897252	z p	-0.23490122
-1.8914247	d p	-0.2844828
-1.9520065	y p	-0.26545283
-1.7251574	_ p	-0.23490122
-1.4885944	<s> z	-2.596017
-1.8629022	A z	-0.4519073
-1.6050587	N z	-0.4257219
-2.234266	E z	-0.23490122
-2.098932	I z	-0.25209528
-2.1665199	O z	-0.23490122
-1.7881509	M z	-0.3277217
-2.2371554	S z	-0.23490122
-2.1306257	C z	-0.23490122
-1.6753336	D z	-0.30759683
-1.5948974	o z	-0.83661646
-1.9316941	U z	-0.23490122
-1.4877597	a z	-0.96358865
-1.5465279	n z	-0.53608686
-1.7584788	t z	-0.36307213
-2.180949	f z	-0.23490122
-2.038378	g z	-0.2761337
-2.334703	r z	-0.23490122
-1.4237548	i z	-1.0030255
-2.097922	k z	-0.23490122
-2.1852353	l z	-0.23490122
-2.027128	b z	-0.23490122
-1.5124425	e z	-0.9339065
-1.8811063	s z	-0.25916812
-1.6792173	m z	-0.5740078
-2.3033419	w z	-0.23490122
-1.4392298	u z	-0.9450542
-1.9478316	z z	-0.2844828
-1.5227674	d z	-0.46365777
-2.1833725	y z	-0.23490122
-2.0497355	c z	-0.2761337
-2.1222854	v z	-0.23490122
-3.0716543	<s> d	-0.7900555
-2.063567	A d	-0.27909717
-1.3213485	N d	-0.6354242
-2.075591	E d	-0.23490122
-2.1130395	I d	-0.25673938
-1.712187	O d	-0.2979831
-1.7959566	M d	-0.3663626
-1.4383787	o d	-0.76275855
-2.1015599	H d	-0.23490122
-2.1332808	U d	-0.23490122
-1.5013008	a d	-0.8537328
-1.2759199	n d	-0.66995317
-2.2319422	t d	-0.23490122
-2.0423057	g d	-0.2983174
-1.8416218	r d	-0.33411267
-1.4492241	i d	-0.8082402
-2.10778	k d	-0.2761337
-1.602432	l d	-0.40432706
-2.0364647	b d	-0.23490122
-1.4778627	e d	-0.9009176
-2.1740952	s d	-0.23490122
-2.0144584	h d	-0.23490122
-1.6353954	m d	-0.5376986
-2.0741591	w d	-0.23490122
-1.4253606	u d	-0.7513793
-2.246836	p d	-0.23490122
-2.2036536	z d	-0.23490122
-1.5930644	d d	-0.28467715
-1.7702103	y d	-0.23490122
-2.0528188	c d	-0.23490122
-1.3955057	<s> y	-2.6521935
-2.1550126	A y	-0.25502834
-1.4782287	N y	-0.5572361
-1.8576981	K y	-0.2983174
-2.189767	E y	-0.23490122
-2.101782	L y	-0.23490122
-2.0612981	I y	-0.25916812
-2.124284	O y	-0.23490122
-2.0002801	M y	-0.23490122
-2.0326748	S y	-0.23490122
-1.9080844	C y	-0.23490122
-2.133728	D y	-0.23490122
-1.5372059	o y	-0.81927776
-2.053206	R y	-0.23490122
-1.9030819	U y	-0.25916812
-1.407833	a y	-1.0003179
-1.4400709	n y	-0.6787543
-1.6847278	t y	-0.39842615
-2.149399	f y	-0.23490122
-1.8464271	g y	-0.2844828
-1.4815037	r y	-0.38558438
-1.4972607	i y	-0.95281804
-1.904996	k y	-0.2983174
-1.3861988	l y	-0.50553054
-1.4740243	b y	-0.46249878
-1.5757499	e y	-0.8520228
-1.9833853	s y	-0.25916812
-1.8700163	h y	-0.26999825
-1.720883	m y	-0.46060205
-2.2685826	w y	-0.23490122
-1.5399097	u y	-0.7527611
-1.98696	p y	-0.25209528
-2.1567411	z y	-0.23490122
-1.7541494	d y	-0.27581602
-2.148638	y y	-0.23490122
-1.7302365	c y	-0.39472607
-1.8226919	v y	-0.2983174
-3.0458417	<s> c	-0.7843407
-2.1723962	A c	-0.28157434
-1.5977893	N c	-0.39652985
-1.478099	G c	-0.44592896
-2.2070234	E c	-0.23490122
-2.0742168	I c	-0.23490122
-1.9616642	O c	-0.25916812
-2.0130749	M c	-0.23490122
-2.049253	S c	-0.26999825
-1.6529247	o c	-0.45660707
-2.0886126	U c	-0.23490122
-1.4740278	a c	-0.7007317
-1.4731414	n c	-0.5748114
-1.7529758	t c	-0.34921917
-1.4819018	x c	-0.25502834
-2.1617453	f c	-0.23490122
-1.3372716	g c	-0.51084536
-1.5342228	r c	-0.35757852
-1.4986819	i c	-0.7129612
-2.077737	k c	-0.23490122
-1.8892709	l c	-0.25209528
-2.0194263	b c	-0.23490122
-1.6561561	e c	-0.636824
-1.7039087	s c	-0.3124356
-2.1737065	h c	-0.23490122
-1.7855868	m c	-0.41674128
-1.8766496	w c	-0.23490122
-1.6803466	u c	-0.4935394
-1.828582	q c	-0.2983174
-1.9895862	p c	-0.23490122
-2.1696355	z c	-0.23490122
-1.758925	d c	-0.25916812
-1.9332076	y c	-0.23490122
-1.5585116	c c	-0.2846124
-2.1061718	v c	-0.23490122
-3.3457456	<s> v	-0.7422394
-2.3945549	A v	-0.23490122
-2.2838511	E v	-0.23490122
-2.1350992	I v	-0.26545283
-2.0141013	O v	-0.2761337
-1.9207003	M v	-0.2848717
-1.5995352	o v	-0.6492013
-2.1624672	U v	-0.23490122
-1.8788913	Y v	-0.23490122
-1.5857903	a v	-0.91473496
-1.9739879	n v	-0.30759683
-2.248737	t v	-0.23490122
-1.8148178	x v	-0.23490122
-1.9771227	r v	-0.29781607
-1.5817688	i v	-0.8939601
-2.3508146	k v	-0.23490122
-1.8124555	l v	-0.30788976
-1.6813978	e v	-0.8856616
-2.0205126	s v	-0.23490122
-1.6899823	m v	-0.5842317
-2.0871615	w v	-0.23490122
-1.783908	u v	-0.64243865
-2.2254214	z v	-0.23490122
-2.0869515	d v	-0.26999825
-2.2211287	y v	-0.23490122
-2.3086379	c v	-0.23490122
-1.6440464	v v	-0.23490122
-3.984329	<s> j	-0.31303373
-2.2531075	A j	-0.23490122
-2.0826821	N j	-0.25209528
-1.8336704	E j	-0.36366403
-2.1530845	I j	-0.23490122
-1.3623878	T j	-0.5422064
-1.9367384	M j	-0.44592896
-1.8950237	o j	-0.4331552
-2.1937578	U j	-0.23490122
-1.558669	a j	-0.8068651
-1.5987875	n j	-0.62842864
-1.1657411	t j	-0.7708981
-2.0733552	g j	-0.23490122
-2.1687255	r j	-0.23490122
-1.6791774	i j	-0.6384844
-2.0657434	b j	-0.23490122
-1.7228662	e j	-0.7074176
-2.2085488	s j	-0.23490122
-2.470727	h j	-0.23490122
-1.8165486	m j	-0.5020363
-1.724199	u j	-0.5047376
-2.0467467	p j	-0.2761337
-2.2483385	z j	-0.23490122
-2.2454655	y j	-0.23490122
-5.045064	<s> Â	-0.23490122
-2.4437037	T Â	-0.23490122
-2.015776	o Â	-0.843869
-2.0143554	a Â	-0.9230502
-2.4018579	n Â	-0.2983174
-2.1054943	i Â	-0.7981115
-2.169918	e Â	-0.7981115
-2.4587786	u Â	-0.44592896
-5.045064	<s> Ã	-0.23490122
-2.4116497	C Ã	-0.23490122
-2.3911512	P Ã	-0.23490122
-2.1223235	V Ã	-0.23490122
-3.0303047	i Ã	-0.23490122
-2.6574585	l Ã	-0.23490122
-3.090645	e Ã	-0.23490122
-2.396461	z Ã	-0.23490122
-4.5019236	<s> _	-0.29781607
-2.1596973	S _	-0.23490122
-2.81377	o _	-0.23490122
-2.2203934	R _	-0.23490122
-2.2640402	U _	-0.23490122
-2.70195	a _	-0.2761337
-2.3101375	n _	-0.23490122
-2.4682746	r _	-0.23490122
-2.8379025	i _	-0.23490122
-2.4374223	k _	-0.23490122
-2.2626827	e _	-0.2499084
-2.2459733	s _	-0.2468652
-2.3010466	m _	-0.23490122
-2.546608	u _	-0.23490122
-2.4073932	d _	-0.23490122
-2.2986572	y _	-0.23490122
-2.391901	c _	-0.23490122
-0.97652686	_ _	-0.42292184
-4.5611687	<s> X	-0.23490122
-2.5138967	E X	-0.23490122
-2.5494912	I X	-0.23490122
-2.957236	o X	-0.23490122
-2.3799343	U X	-0.23490122
-3.0353427	a X	-0.23490122
-2.73355	i X	-0.23490122
-2.8022354	e X	-0.23490122
-2.646985	m X	-0.23490122
-2.8874247	u X	-0.23490122
-3.1032586	u Å	-0.23490122
-0.2922499	Å ž	-0.23490122
-5.221609	<s> â	-0.23490122

\3-grams:
-2.5761898	<s> A </s>	0
-0.6825706	A A </s>	0
-0.6511454	B A </s>	0
-0.6297565	N A </s>	0
-0.85578763	G A </s>	0
-0.7916794	K A </s>	0
-0.5103872	F A </s>	0
-0.6678621	E A </s>	0
-0.8527029	L A </s>	0
-0.6957492	I A </s>	0
-0.53627175	T A </s>	0
-0.5399857	O A </s>	0
-0.65986836	M A </s>	0
-0.6539058	Z A </s>	0
-0.69634855	S A </s>	0
-0.56535894	C A </s>	0
-0.62860423	D A </s>	0
-1.0886319	P A </s>	0
-0.84811956	o A </s>	0
-0.9897856	V A </s>	0
-0.6838432	R A </s>	0
-0.7478373	H A </s>	0
-0.6152932	U A </s>	0
-0.6821231	W A </s>	0
-0.793016	Y A </s>	0
-0.7192194	J A </s>	0
-1.1289586	a A </s>	0
-0.59321	f A </s>	0
-0.94387007	Q A </s>	0
-0.59321	b A </s>	0
-1.0960673	u A </s>	0
-0.73161083	j A </s>	0
-2.3709307	<s> B </s>	0
-0.8208237	A B </s>	0
-0.40431395	N B </s>	0
-0.5558352	G B </s>	0
-0.5780981	L B </s>	0
-1.127246	I B </s>	0
-0.34514233	T B </s>	0
-0.8588502	M B </s>	0
-0.6809992	S B </s>	0
-1.123639	C B </s>	0
-0.5558352	D B </s>	0
-0.25440916	P B </s>	0
-1.2988578	o B </s>	0
-0.3125076	R B </s>	0
-1.0484358	U B </s>	0
-1.2087518	a B </s>	0
-1.2378193	i B </s>	0
-1.3104516	e B </s>	0
-1.0610974	u B </s>	0
-0.5558352	d B </s>	0
-2.8669648	<s> N </s>	0
-1.4669521	A N </s>	0
-0.8648779	B N </s>	0
-0.2785302	N N </s>	0
-0.4656079	G N </s>	0
-0.34471148	L N </s>	0
-1.3132282	I N </s>	0
-0.9469308	O N </s>	0
-0.34471148	Z N </s>	0
-0.34471148	S N </s>	0
-0.85750747	C N </s>	0
-0.76819503	D N </s>	0
-0.76819503	P N </s>	0
-1.4229258	U N </s>	0
-0.2785302	J N </s>	0
-1.7131624	<s> G </s>	0
-1.11768	A G </s>	0
-1.3542445	N G </s>	0
-0.33185804	F G </s>	0
-1.045428	E G </s>	0
-0.8169722	L G </s>	0
-0.33185804	M G </s>	0
-0.73782533	P G </s>	0
-0.937686	o G </s>	0
-0.26895675	H G </s>	0
-0.9991562	U G </s>	0
-1.11768	m G </s>	0
-1.1457396	u G </s>	0
-2.6716697	<s> K </s>	0
-1.4163184	A K </s>	0
-0.5904891	N K </s>	0
-0.42622668	T K </s>	0
-1.1833683	O K </s>	0
-0.7278731	S K </s>	0
-0.2690305	C K </s>	0
-1.290433	o K </s>	0
-0.33195674	H K </s>	0
-1.0427368	U K </s>	0
-0.33195674	Y K </s>	0
-0.33195674	J K </s>	0
-1.066707	n K </s>	0
-1.475106	<s> F </s>	0
-0.8474558	A F </s>	0
-0.2949509	B F </s>	0
-0.3060337	E F </s>	0
-0.2949509	L F </s>	0
-0.9964818	I F </s>	0
-0.2949509	T F </s>	0
-0.2949509	O F </s>	0
-0.2949509	S F </s>	0
-0.5255422	C F </s>	0
-0.55544555	D F </s>	0
-0.42499214	P F </s>	0
-0.84761155	o F </s>	0
-0.2949509	V F </s>	0
-0.40546733	R F </s>	0
-0.38463745	H F </s>	0
-0.2949509	Q F </s>	0
-0.8311451	u F </s>	0
-2.0417407	<s> E </s>	0
-0.8092707	A E </s>	0
-0.8072659	B E </s>	0
-0.9942128	N E </s>	0
-1.0614829	G E </s>	0
-0.5231312	K E </s>	0
-0.7933261	E E </s>	0
-0.76562154	L E </s>	0
-0.61408764	T E </s>	0
-0.32591045	O E </s>	0
-0.7609116	M E </s>	0
-0.7961291	Z E </s>	0
-1.0000417	S E </s>	0
-0.68768454	C E </s>	0
-0.85169214	D E </s>	0
-0.9064962	P E </s>	0
-0.511066	o E </s>	0
-1.0236756	R E </s>	0
-0.9928212	H E </s>	0
-0.7098294	W E </s>	0
-0.7448997	Y E </s>	0
-0.6068976	J E </s>	0
-0.97976714	a E </s>	0
-1.3100866	e E </s>	0
-0.8947411	u E </s>	0
-0.5795851	j E </s>	0
-2.496814	<s> L </s>	0
-1.2169801	A L </s>	0
-1.2880493	N L </s>	0
-1.5960811	E L </s>	0
-1.1692755	I L </s>	0
-1.1468143	T L </s>	0
-1.1242257	O L </s>	0
-0.3308094	M L </s>	0
-0.3308094	Z L </s>	0
-0.8137757	S L </s>	0
-0.5313601	C L </s>	0
-1.023656	D L </s>	0
-1.0405161	o L </s>	0
-0.42493048	R L </s>	0
-2.5238411	<s> I </s>	0
-0.70741373	B I </s>	0
-0.8859747	N I </s>	0
-0.8238296	G I </s>	0
-1.0236037	K I </s>	0
-1.0839348	F I </s>	0
-0.83288753	E I </s>	0
-0.8883608	L I </s>	0
-0.9578828	I I </s>	0
-0.79612267	T I </s>	0
-1.0906342	M I </s>	0
-0.9221305	Z I </s>	0
-0.93136376	S I </s>	0
-1.168946	C I </s>	0
-0.2761727	D I </s>	0
-1.0236037	P I </s>	0
-0.6838624	V I </s>	0
-1.016561	R I </s>	0
-0.8485574	H I </s>	0
-0.6900623	U I </s>	0
-0.9957387	Y I </s>	0
-0.5362217	J I </s>	0
-1.1276001	a I </s>	0
-0.5943661	n I </s>	0
-1.2535261	i I </s>	0
-1.8105819	<s> T </s>	0
-1.0597777	A T </s>	0
-0.7230302	N T </s>	0
-1.0041997	G T </s>	0
-0.32955283	F T </s>	0
-0.99764687	E T </s>	0
-0.4235115	L T </s>	0
-0.8622863	I T </s>	0
-0.5295028	T T </s>	0
-0.72916245	O T </s>	0
-0.7559974	S T </s>	0
-0.5276795	C T </s>	0
-0.80996627	D T </s>	0
-0.81968355	P T </s>	0
-0.7219157	R T </s>	0
-1.1282402	n T </s>	0
-0.32955283	x T </s>	0
-1.2952071	u T </s>	0
-1.8015476	<s> O </s>	0
-0.58019876	A O </s>	0
-0.67338437	B O </s>	0
-0.6853324	N O </s>	0
-1.0704238	G O </s>	0
-0.9143189	K O </s>	0
-0.3579478	F O </s>	0
-0.2647591	E O </s>	0
-0.5855795	L O </s>	0
-0.44043344	T O </s>	0
-0.3296988	M O </s>	0
-0.7940713	Z O </s>	0
-0.7805209	S O </s>	0
-0.9694075	C O </s>	0
-0.87961596	D O </s>	0
-0.43824196	P O </s>	0
-0.6117764	R O </s>	0
-0.6362674	H O </s>	0
-0.56261045	W O </s>	0
-0.7138152	Y O </s>	0
-2.151684	<s> M </s>	0
-1.0132496	A M </s>	0
-0.6140643	B M </s>	0
-0.5558373	G M </s>	0
-0.6140643	F M </s>	0
-1.4671702	E M </s>	0
-0.44076368	L M </s>	0
-1.3869888	I M </s>	0
-0.55221313	T M </s>	0
-1.4036368	O M </s>	0
-0.6140643	D M </s>	0
-0.98980105	P M </s>	0
-0.27450994	R M </s>	0
-0.34479758	H M </s>	0
-0.34479758	J M </s>	0
-1.5088968	a M </s>	0
-0.28230047	B Z </s>	0
-0.28230047	T Z </s>	0
-0.34980047	D Z </s>	0
-1.2775465	a Z </s>	0
-1.2969685	u Z </s>	0
-2.538151	<s> S </s>	0
-0.96672285	A S </s>	0
-0.82425666	B S </s>	0
-0.8872141	N S </s>	0
-0.73615164	G S </s>	0
-0.3311346	K S </s>	0
-1.0658076	E S </s>	0
-1.0432225	L S </s>	0
-1.1842251	I S </s>	0
-0.42529783	T S </s>	0
-1.1144959	O S </s>	0
-0.25518164	M S </s>	0
-0.95968753	S S </s>	0
-0.8166707	C S </s>	0
-0.8144588	D S </s>	0
-0.475459	P S </s>	0
-0.58899915	V S </s>	0
-0.44442827	R S </s>	0
-0.8872141	H S </s>	0
-0.9680773	U S </s>	0
-0.9431151	J S </s>	0
-1.3633682	a S </s>	0
-1.368697	u S </s>	0
-1.7062534	<s> C </s>	0
-0.4691134	A C </s>	0
-0.21690084	B C </s>	0
-0.8521801	N C </s>	0
-1.1135858	G C </s>	0
-0.31673223	F C </s>	0
-0.6365681	E C </s>	0
-0.5632605	L C </s>	0
-1.050813	I C </s>	0
-0.25907373	T C </s>	0
-0.32254526	O C </s>	0
-0.59910446	S C </s>	0
-0.4761005	C C </s>	0
-0.43085447	D C </s>	0
-0.4090632	o C </s>	0
-0.5632605	V C </s>	0
-0.18671569	R C </s>	0
-0.7035647	H C </s>	0
-0.5106968	U C </s>	0
-0.5632605	J C </s>	0
-0.95099896	u C </s>	0
-1.6573722	<s> D </s>	0
-0.77499723	A D </s>	0
-1.1722455	N D </s>	0
-0.32954362	K D </s>	0
-0.83647346	E D </s>	0
-0.6746601	L D </s>	0
-0.74276924	I D </s>	0
-0.721893	T D </s>	0
-0.9736535	O D </s>	0
-0.6174997	S D </s>	0
-0.23336905	C D </s>	0
-0.5861226	D D </s>	0
-0.7246726	P D </s>	0
-0.8669907	o D </s>	0
-0.6205503	R D </s>	0
-1.0533458	U D </s>	0
-1.2430964	u D </s>	0
-1.7653608	<s> P </s>	0
-0.9751349	A P </s>	0
-0.25871038	G P </s>	0
-0.6447215	E P </s>	0
-0.5794634	L P </s>	0
-1.2056192	I P </s>	0
-0.5794634	T P </s>	0
-0.9238561	O P </s>	0
-0.9238561	M P </s>	0
-0.4024195	S P </s>	0
-0.51097614	C P </s>	0
-0.22719434	D P </s>	0
-0.6503073	P P </s>	0
-0.5794634	R P </s>	0
-0.26445162	H P </s>	0
-0.7209726	U P </s>	0
-0.5794634	W P </s>	0
-3.226807	<s> o </s>	0
-1.6942487	N o </s>	0
-1.3913702	G o </s>	0
-1.3703883	F o </s>	0
-1.4034523	L o </s>	0
-1.3975952	C o </s>	0
-1.4313049	D o </s>	0
-1.3937135	o o </s>	0
-1.3796026	H o </s>	0
-1.3967254	W o </s>	0
-0.785269	a o </s>	0
-1.214703	n o </s>	0
-0.95821625	t o </s>	0
-1.0582122	x o </s>	0
-1.2666879	f o </s>	0
-1.2495067	g o </s>	0
-1.2402883	r o </s>	0
-1.1515232	i o </s>	0
-1.2289408	k o </s>	0
-1.1575984	l o </s>	0
-1.4070907	b o </s>	0
-1.2940356	e o </s>	0
-1.1805798	s o </s>	0
-1.0822545	h o </s>	0
-1.1200547	m o </s>	0
-0.9501539	w o </s>	0
-1.2469469	u o </s>	0
-1.1382854	q o </s>	0
-1.300923	p o </s>	0
-1.1116905	z o </s>	0
-1.0806373	d o </s>	0
-1.097681	y o </s>	0
-1.0255811	c o </s>	0
-1.340986	v o </s>	0
-0.7322538	j o </s>	0
-0.6328987	Ã o </s>	0
-1.3247942	<s> V </s>	0
-0.3101728	K V </s>	0
-0.3101728	E V </s>	0
-0.6167805	I V </s>	0
-0.16366072	T V </s>	0
-0.3101728	S V </s>	0
-0.25264302	C V </s>	0
-0.25264302	D V </s>	0
-0.67556435	R V </s>	0
-0.75384444	U V </s>	0
-1.0155009	i V </s>	0
-1.760065	<s> R </s>	0
-1.1625272	A R </s>	0
-0.66472554	E R </s>	0
-1.105019	L R </s>	0
-1.1494633	I R </s>	0
-0.94572574	T R </s>	0
-0.59391433	O R </s>	0
-0.61697334	S R </s>	0
-0.97530544	C R </s>	0
-0.788858	H R </s>	0
-1.2195659	a R </s>	0
-0.73593867	i R </s>	0
-1.3246233	e R </s>	0
-1.9179454	<s> H </s>	0
-1.2255741	I H </s>	0
-1.5357208	T H </s>	0
-0.78695905	M H </s>	0
-1.095157	o H </s>	0
-1.0173217	J H </s>	0
-1.2259912	u H </s>	0
-2.6564586	<s> U </s>	0
-0.26422262	A U </s>	0
-0.8272017	N U </s>	0
-0.8272017	G U </s>	0
-1.055568	F U </s>	0
-0.45123756	E U </s>	0
-0.30366346	L U </s>	0
-0.36624938	T U </s>	0
-0.9428923	O U </s>	0
-0.8847495	M U </s>	0
-0.59635097	C U </s>	0
-0.53783923	D U </s>	0
-1.11356	V U </s>	0
-1.2264673	H U </s>	0
-0.9503108	W U </s>	0
-2.3220866	<s> W </s>	0
-0.80971783	A W </s>	0
-0.56849915	B W </s>	0
-0.319694	F W </s>	0
-1.1164125	L W </s>	0
-1.0427939	I W </s>	0
-0.5963685	T W </s>	0
-0.9791137	D W </s>	0
-0.56849915	P W </s>	0
-0.69797695	W W </s>	0
-0.8818453	i W </s>	0
-1.2797478	e W </s>	0
-2.4452484	<s> Y </s>	0
-1.2861431	A Y </s>	0
-0.6090235	C Y </s>	0
-0.97845244	a Y </s>	0
-0.9183138	u Y </s>	0
-1.4599979	<s> J </s>	0
-0.31335592	B J </s>	0
-0.8804452	E J </s>	0
-1.0661786	T J </s>	0
-0.31335592	M J </s>	0
-0.25505027	C J </s>	0
-0.31335592	R J </s>	0
-0.95635426	U J </s>	0
-0.6829837	n J </s>	0
-1.0301155	i J </s>	0
-1.1028053	u J </s>	0
-3.6360352	<s> a </s>	0
-1.6958287	B a </s>	0
-1.5645449	N a </s>	0
-1.6276549	K a </s>	0
-1.0526029	F a </s>	0
-1.3449169	L a </s>	0
-1.0171221	I a </s>	0
-1.8622625	M a </s>	0
-1.3920449	S a </s>	0
-1.2493411	o a </s>	0
-1.468511	H a </s>	0
-0.9708754	a a </s>	0
-1.1527916	n a </s>	0
-1.0152552	t a </s>	0
-1.2433207	x a </s>	0
-1.0324433	f a </s>	0
-1.2392997	g a </s>	0
-1.1695915	r a </s>	0
-0.8212545	i a </s>	0
-1.3459604	k a </s>	0
-1.3406912	l a </s>	0
-1.3952812	b a </s>	0
-1.6992133	e a </s>	0
-1.2535844	s a </s>	0
-1.2302291	h a </s>	0
-1.4067292	m a </s>	0
-1.1194526	w a </s>	0
-1.057919	u a </s>	0
-1.214579	q a </s>	0
-1.1849369	p a </s>	0
-1.0685366	z a </s>	0
-1.1653275	d a </s>	0
-1.2049068	y a </s>	0
-1.287124	c a </s>	0
-1.0349774	v a </s>	0
-1.0211879	j a </s>	0
-0.35864705	Ã a </s>	0
-3.9506068	<s> n </s>	0
-1.3532267	A n </s>	0
-1.5204995	I n </s>	0
-1.4078436	O n </s>	0
-1.5061862	M n </s>	0
-1.2022042	o n </s>	0
-1.2221226	a n </s>	0
-1.3047539	n n </s>	0
-1.2178811	f n </s>	0
-1.3170155	g n </s>	0
-0.9816598	r n </s>	0
-1.4051175	i n </s>	0
-1.3185515	e n </s>	0
-1.1759068	h n </s>	0
-1.75745	m n </s>	0
-1.3320357	w n </s>	0
-2.1377342	u n </s>	0
-1.068317	c n </s>	0
-0.625592	Ã n </s>	0
-1.4007254	A t </s>	0
-1.0763813	S t </s>	0
-1.6797436	o t </s>	0
-1.194003	a t </s>	0
-1.2648124	n t </s>	0
-1.0788248	t t </s>	0
-0.8745945	x t </s>	0
-0.8245588	f t </s>	0
-0.92701036	r t </s>	0
-1.2665228	i t </s>	0
-1.0998672	l t </s>	0
-1.2323024	e t </s>	0
-1.0602822	s t </s>	0
-1.148398	h t </s>	0
-1.1942534	u t </s>	0
-1.3636858	p t </s>	0
-1.4993733	d t </s>	0
-0.7603448	c t </s>	0
-0.3478348	v t </s>	0
-0.8967629	<s> x </s>	0
-0.6351715	N x </s>	0
-0.6436254	E x </s>	0
-0.88444257	o x </s>	0
-0.6901495	a x </s>	0
-0.5210364	x x </s>	0
-0.71997285	i x </s>	0
-0.6671158	e x </s>	0
-0.29229566	y x </s>	0
-1.9622798	<s> f </s>	0
-1.112795	I f </s>	0
-1.423566	o f </s>	0
-0.8877905	f f </s>	0
-0.94501734	r f </s>	0
-1.8309577	i f </s>	0
-0.6469463	l f </s>	0
-1.4399241	e f </s>	0
-1.5731341	u f </s>	0
-1.7438766	<s> g </s>	0
-1.8776127	a g </s>	0
-1.4136364	n g </s>	0
-0.73215383	g g </s>	0
-0.93189067	r g </s>	0
-1.7632324	k g </s>	0
-0.9008867	l g </s>	0
-1.7834452	e g </s>	0
-1.6153682	u g </s>	0
-0.90833634	A Q </s>	0
-0.6395408	E Q </s>	0
-0.3583164	D Q </s>	0
-2.0190682	<s> r </s>	0
-0.6400447	N r </s>	0
-0.6152217	D r </s>	0
-1.2438776	P r </s>	0
-1.0962117	o r </s>	0
-1.3983861	a r </s>	0
-1.6324441	i r </s>	0
-1.0497843	e r </s>	0
-1.635664	h r </s>	0
-1.3051518	u r </s>	0
-3.3120303	<s> i </s>	0
-1.4158436	N i </s>	0
-1.4466984	F i </s>	0
-1.6635385	L i </s>	0
-1.4686807	D i </s>	0
-1.3314209	P i </s>	0
-1.4637384	o i </s>	0
-1.424422	R i </s>	0
-1.095127	H i </s>	0
-1.4503589	Y i </s>	0
-1.285011	a i </s>	0
-1.098342	n i </s>	0
-1.0544226	t i </s>	0
-0.75330997	x i </s>	0
-1.2693179	f i </s>	0
-1.1191144	g i </s>	0
-1.2163724	r i </s>	0
-0.9472455	i i </s>	0
-1.1385342	k i </s>	0
-1.3084152	l i </s>	0
-1.1420186	b i </s>	0
-1.1600682	e i </s>	0
-1.3485975	s i </s>	0
-1.139973	h i </s>	0
-1.4740968	m i </s>	0
-0.8431131	w i </s>	0
-1.6015525	u i </s>	0
-1.3105202	q i </s>	0
-0.9730081	p i </s>	0
-1.2988747	z i </s>	0
-1.2337769	d i </s>	0
-1.4042872	y i </s>	0
-1.3233517	c i </s>	0
-1.6485099	v i </s>	0
-1.0756266	j i </s>	0
-3.7691402	<s> k </s>	0
-0.34738222	T k </s>	0
-1.1641284	O k </s>	0
-1.7855523	o k </s>	0
-1.5928643	a k </s>	0
-1.3784921	n k </s>	0
-0.7906581	r k </s>	0
-1.5932598	i k </s>	0
-1.0372683	l k </s>	0
-1.9548087	e k </s>	0
-1.2061503	s k </s>	0
-1.4486591	u k </s>	0
-1.03089	z k </s>	0
-0.6761574	c k </s>	0
-3.4941137	<s> l </s>	0
-1.0748163	E l </s>	0
-1.1838044	C l </s>	0
-1.4289217	o l </s>	0
-1.1182978	a l </s>	0
-1.3710221	n l </s>	0
-1.2291366	r l </s>	0
-1.2132553	i l </s>	0
-0.8526165	l l </s>	0
-1.0976939	e l </s>	0
-1.6900489	m l </s>	0
-1.3133596	u l </s>	0
-1.88011	d l </s>	0
-0.9580167	y l </s>	0
-0.56348157	j l </s>	0
-3.6689625	<s> b </s>	0
-1.5907147	o b </s>	0
-1.4717523	a b </s>	0
-1.8395575	i b </s>	0
-1.0412171	b b </s>	0
-2.0326366	e b </s>	0
-1.5283346	m b </s>	0
-1.5343353	u b </s>	0
-0.89868474	y b </s>	0
-3.5303297	<s> e </s>	0
-1.610987	B e </s>	0
-1.5723128	N e </s>	0
-1.3450949	K e </s>	0
-1.4327966	L e </s>	0
-0.90838325	I e </s>	0
-1.8208263	S e </s>	0
-0.8738664	D e </s>	0
-1.4396253	o e </s>	0
-1.4509145	H e </s>	0
-0.35970843	U e </s>	0
-1.5496908	W e </s>	0
-1.665201	a e </s>	0
-1.25752	n e </s>	0
-1.0702021	t e </s>	0
-1.0476694	f e </s>	0
-1.2045711	g e </s>	0
-1.1667972	r e </s>	0
-0.8782573	i e </s>	0
-1.0327905	k e </s>	0
-1.2323734	l e </s>	0
-1.1772196	b e </s>	0
-1.1957256	e e </s>	0
-1.3403966	s e </s>	0
-1.126985	h e </s>	0
-1.1240721	m e </s>	0
-1.1228846	w e </s>	0
-0.7162878	u e </s>	0
-1.2722822	q e </s>	0
-1.1129586	p e </s>	0
-1.1451771	z e </s>	0
-1.0496258	d e </s>	0
-1.1661873	y e </s>	0
-1.1513007	c e </s>	0
-1.0343412	v e </s>	0
-1.0984646	j e </s>	0
-3.3222754	<s> s </s>	0
-0.9808962	A s </s>	0
-0.32177794	B s </s>	0
-0.5998865	K s </s>	0
-1.1165521	T s </s>	0
-0.35378212	O s </s>	0
-1.058328	M s </s>	0
-0.2613986	C s </s>	0
-0.32177794	D s </s>	0
-0.7148268	P s </s>	0
-1.0724787	o s </s>	0
-0.99237424	U s </s>	0
-1.1405665	a s </s>	0
-0.9340536	n s </s>	0
-0.76553017	t s </s>	0
-0.57220167	f s </s>	0
-0.32634148	g s </s>	0
-0.64054036	r s </s>	0
-1.2217584	i s </s>	0
-0.9095953	k s </s>	0
-0.5973289	l s </s>	0
-0.8276117	b s </s>	0
-0.99747276	e s </s>	0
-0.96462876	s s </s>	0
-1.0406909	h s </s>	0
-0.8608947	m s </s>	0
-0.5019049	w s </s>	0
-1.1267554	u s </s>	0
-0.54881436	p s </s>	0
-0.22995381	d s </s>	0
-0.69237024	y s </s>	0
-0.6005679	c s </s>	0
-1.9280005	<s> h </s>	0
-1.1744806	M h </s>	0
-1.1127206	S h </s>	0
-1.3178946	o h </s>	0
-0.8594213	W h </s>	0
-0.91230375	a h </s>	0
-1.2163379	t h </s>	0
-1.4453273	g h </s>	0
-1.8334169	r h </s>	0
-1.6604933	k h </s>	0
-1.4272618	l h </s>	0
-1.77118	b h </s>	0
-1.3258817	s h </s>	0
-1.1342953	w h </s>	0
-1.4874443	u h </s>	0
-1.6080178	p h </s>	0
-0.858426	c h </s>	0
-1.3108962	j h </s>	0
-2.5688832	<s> m </s>	0
-1.0493567	M m </s>	0
-1.6894537	o m </s>	0
-1.625031	a m </s>	0
-1.1730896	t m </s>	0
-0.9873188	r m </s>	0
-1.4892793	i m </s>	0
-0.9075862	k m </s>	0
-1.1578381	l m </s>	0
-1.8747973	e m </s>	0
-1.4167742	s m </s>	0
-1.4198073	m m </s>	0
-1.5598273	u m </s>	0
-1.048145	o w </s>	0
-1.522508	a w </s>	0
-1.9330305	i w </s>	0
-1.5022987	l w </s>	0
-1.3772883	e w </s>	0
-1.649779	s w </s>	0
-1.4712777	h w </s>	0
-1.3959643	w w </s>	0
-1.4932264	u w </s>	0
-1.4814584	d w </s>	0
-1.3159354	y w </s>	0
-3.3438313	<s> u </s>	0
-1.1558688	A u </s>	0
-1.5193014	B u </s>	0
-1.345287	G u </s>	0
-1.5332041	K u </s>	0
-1.2724397	T u </s>	0
-1.0457965	D u </s>	0
-1.6321942	o u </s>	0
-0.95788485	R u </s>	0
-0.8824922	W u </s>	0
-1.4398222	a u </s>	0
-0.848954	n u </s>	0
-0.9836171	t u </s>	0
-1.169566	f u </s>	0
-1.1396909	g u </s>	0
-1.3096702	Q u </s>	0
-1.075432	r u </s>	0
-1.715337	k u </s>	0
-1.3600793	l u </s>	0
-1.5203855	b u </s>	0
-1.5695096	e u </s>	0
-1.3766863	s u </s>	0
-1.0988944	h u </s>	0
-1.3007412	m u </s>	0
-1.2976447	w u </s>	0
-0.6870967	u u </s>	0
-1.2512275	q u </s>	0
-1.0329895	p u </s>	0
-1.2316989	z u </s>	0
-0.99544847	d u </s>	0
-1.2551482	y u </s>	0
-1.4019898	c u </s>	0
-1.249787	v u </s>	0
-1.0099756	j u </s>	0
-1.5316391	<s> q </s>	0
-1.7369512	a q </s>	0
-0.28137547	f q </s>	0
-1.7568994	i q </s>	0
-0.77040166	l q </s>	0
-1.6202114	u q </s>	0
-0.6210668	c q </s>	0
-2.1815023	<s> p </s>	0
-1.2424845	o p </s>	0
-0.44765484	U p </s>	0
-1.9450948	a p </s>	0
-0.7751706	r p </s>	0
-1.5607513	i p </s>	0
-1.1803296	l p </s>	0
-1.7271771	e p </s>	0
-0.95240885	h p </s>	0
-1.3651533	u p </s>	0
-1.4436003	a z </s>	0
-1.420801	n z </s>	0
-1.2005973	t z </s>	0
-1.7564766	i z </s>	0
-0.7622602	k z </s>	0
-1.7703588	e z </s>	0
-0.6372483	s z </s>	0
-1.3585968	m z </s>	0
-1.7827518	u z </s>	0
-0.9448187	z z </s>	0
-1.8671503	<s> d </s>	0
-0.99594074	E d </s>	0
-1.1690607	I d </s>	0
-1.3638986	o d </s>	0
-1.6199889	a d </s>	0
-1.1580628	n d </s>	0
-0.7681064	t d </s>	0
-0.8647332	r d </s>	0
-1.1881833	i d </s>	0
-0.65801376	l d </s>	0
-0.91079414	e d </s>	0
-0.99594074	w d </s>	0
-1.7083939	u d </s>	0
-1.6192012	o y </s>	0
-1.0575724	a y </s>	0
-1.0884887	n y </s>	0
-0.40301022	t y </s>	0
-0.31703252	f y </s>	0
-0.4309745	g y </s>	0
-0.40156147	r y </s>	0
-1.7813412	i y </s>	0
-0.5173181	k y </s>	0
-0.26926166	l y </s>	0
-0.30564028	b y </s>	0
-1.1076548	e y </s>	0
-0.9250085	h y </s>	0
-0.8848978	m y </s>	0
-1.5719125	u y </s>	0
-0.6911809	p y </s>	0
-0.49537972	d y </s>	0
-0.25346464	c y </s>	0
-0.25782534	v y </s>	0
-1.903468	<s> c </s>	0
-1.0680548	S c </s>	0
-1.4046884	o c </s>	0
-1.5065459	a c </s>	0
-1.4693013	n c </s>	0
-0.87967056	t c </s>	0
-1.0128553	i c </s>	0
-1.0625708	l c </s>	0
-1.7762833	e c </s>	0
-1.3634561	s c </s>	0
-1.2772676	c c </s>	0
-1.6968455	<s> v </s>	0
-1.4846778	o v </s>	0
-1.6981806	i v </s>	0
-1.8402677	e v </s>	0
-1.1982753	m v </s>	0
-0.7577448	w v </s>	0
-1.5825373	u v </s>	0
-1.0345157	d v </s>	0
-1.297571	<s> j </s>	0
-1.6075894	t j </s>	0
-1.9340272	e j </s>	0
-1.1275513	h j </s>	0
-0.056346238	<s> Â </s>	0
-0.056346238	T Â </s>	0
-0.013201194	o Â </s>	0
-0.010972913	a Â </s>	0
-0.048248187	n Â </s>	0
-0.014693038	i Â </s>	0
-0.014693038	e Â </s>	0
-0.033787243	u Â </s>	0
-0.3388078	<s> Ã </s>	0
-0.82498056	<s> _ </s>	0
-0.3279041	U _ </s>	0
-0.583167	i _ </s>	0
-0.583167	u _ </s>	0
-0.31893855	_ _ </s>	0
-0.6607172	<s> X </s>	0
-0.27430192	E X </s>	0
-0.27430192	o X </s>	0
-0.27430192	U X </s>	0
-0.27430192	u X </s>	0
-0.14070795	<s> â </s>	0
-1.8579781	N A A	-0.19729008
-1.8773512	M A A	-0.19729008
-1.7030575	S A A	-0.24448207
-1.8045284	i A A	-0.19729008
-1.8229516	<s> B A	-0.24522474
-0.6587509	A B A	-0.2646582
-1.1639652	I B A	-0.19729008
-1.2420828	O B A	-0.19729008
-0.9752978	M B A	-0.19729008
-1.2504668	U B A	-0.19729008
-1.4720869	i B A	-0.19729008
-1.3287866	e B A	-0.29974583
-0.6166761	d B A	-0.19729008
-0.34620062	_ B A	-0.19729008
-2.013671	<s> N A	-0.3023931
-0.99868405	A N A	-0.53250223
-1.4902295	E N A	-0.19729008
-1.1062255	I N A	-0.21689081
-0.7883566	O N A	-0.29974583
-0.88208526	C N A	-0.19729008
-0.44906896	D N A	-0.19729008
-0.35211113	R N A	-0.19729008
-1.3323256	U N A	-0.19729008
-1.4170185	a N A	-0.19729008
-1.4641627	i N A	-0.22024539
-1.2841733	e N A	-0.39297152
-1.9237145	<s> G A	-0.19729008
-0.9330683	A G A	-0.19729008
-0.6841724	N G A	-0.2639815
-0.8784488	E G A	-0.19729008
-0.89112675	L G A	-0.19729008
-0.91322553	I G A	-0.19729008
-0.7870009	O G A	-0.19729008
-2.693877	<s> K A	-0.19729008
-0.7080769	A K A	-0.23551145
-0.6539313	E K A	-0.35660216
-0.8997468	I K A	-0.19729008
-1.5596207	O K A	-0.19729008
-1.1745237	U K A	-0.19729008
-1.7347031	<s> F A	-0.19729008
-0.58122736	A F A	-0.19729008
-0.74770385	I F A	-0.2701517
-0.8440753	M F A	-0.19729008
-0.91861266	D F A	-0.19729008
-0.91849315	R F A	-0.19729008
-0.6875757	U F A	-0.2701517
-1.2286072	i F A	-0.19729008
-1.3831106	e F A	-0.19729008
-2.4539325	<s> E A	-0.19729008
-1.4760098	G E A	-0.19729008
-1.0454034	E E A	-0.2701517
-1.6527573	S E A	-0.19729008
-1.235369	C E A	-0.19729008
-0.9692205	D E A	-0.2701517
-1.2244381	R E A	-0.19729008
-1.4304535	Y E A	-0.19729008
-1.3067125	i E A	-0.19729008
-2.017375	<s> L A	-0.22024539
-0.5106552	A L A	-0.3437858
-0.7316045	E L A	-0.43377054
-1.0864196	I L A	-0.3400788
-1.1853235	T L A	-0.19729008
-0.80568355	O L A	-0.23219465
-0.63571435	D L A	-0.22498572
-0.45270082	H L A	-0.33161268
-0.67564034	U L A	-0.31982714
-1.326783	i L A	-0.19729008
-1.5525869	e L A	-0.19729008
-1.2450968	u L A	-0.19729008
-2.2948778	<s> I A	-0.21091716
-1.3133143	A I A	-0.19729008
-1.5273837	T I A	-0.19729008
-1.6576635	M I A	-0.19729008
-1.1932914	P I A	-0.19729008
-1.2976909	o I A	-0.19729008
-0.8648473	R I A	-0.2701517
-1.6975381	<s> T A	-0.19729008
-1.2380276	N T A	-0.19729008
-1.1170266	G T A	-0.19729008
-1.3724568	E T A	-0.19729008
-1.1392615	I T A	-0.29974583
-0.9052045	T T A	-0.19729008
-0.8250347	S T A	-0.19729008
-0.7940904	R T A	-0.19729008
-2.353869	<s> O A	-0.19729008
-1.3795072	G O A	-0.19729008
-1.2500958	I O A	-0.19729008
-1.6589199	e O A	-0.19729008
-1.6415714	<s> M A	-0.2566356
-0.52709043	A M A	-0.297263
-0.63084483	F M A	-0.19729008
-0.87396425	E M A	-0.2772297
-0.5818314	I M A	-0.22817491
-1.2008299	O M A	-0.19729008
-0.4509257	M M A	-0.2701517
-0.15071973	C M A	-0.70805556
-1.3768855	U M A	-0.19729008
-1.3246564	i M A	-0.19729008
-1.3640708	e M A	-0.23219465
-1.6300999	u M A	-0.19729008
-2.3347945	<s> Z A	-0.19729008
-1.2251363	A Z A	-0.19729008
-0.7410827	N Z A	-0.23219465
-1.0048643	E Z A	-0.19729008
-1.0748858	I Z A	-0.19729008
-0.33663025	V Z A	-0.19729008
-0.8477955	U Z A	-0.19729008
-1.5369487	<s> S A	-0.31374264
-0.6992771	A S A	-0.39665586
-0.5300417	B S A	-0.2701517
-0.6089132	N S A	-0.19729008
-0.93168586	E S A	-0.3400788
-1.0369873	L S A	-0.19729008
-0.7356075	I S A	-0.37311295
-0.91246456	O S A	-0.19729008
-1.3186831	M S A	-0.19729008
-0.95509106	S S A	-0.2701517
-1.1457258	C S A	-0.19729008
-0.66116595	D S A	-0.3400788
-0.91669965	P S A	-0.2701517
-1.2849551	o S A	-0.19729008
-0.8983588	R S A	-0.24448207
-0.8830871	H S A	-0.19729008
-0.82266426	U S A	-0.2772297
-0.586798	W S A	-0.19729008
-1.2439157	a S A	-0.19729008
-0.8416012	n S A	-0.19729008
-1.1676698	i S A	-0.24812317
-0.93585014	e S A	-0.49407184
-0.586798	h S A	-0.19729008
-1.3595546	u S A	-0.19729008
-2.1551304	<s> C A	-0.19729008
-1.1822051	A C A	-0.19729008
-1.1434554	I C A	-0.25456858
-0.67632926	S C A	-0.24448207
-1.4831117	C C A	-0.19729008
-1.8510141	e C A	-0.19729008
-1.660956	<s> D A	-0.2701517
-1.1719015	A D A	-0.19729008
-0.92910993	N D A	-0.22498572
-0.8734356	E D A	-0.19729008
-1.1223316	I D A	-0.19729008
-0.587475	O D A	-0.24448207
-0.6083585	D D A	-0.19729008
-1.025552	P D A	-0.19729008
-0.3417189	Y D A	-0.19729008
-1.025552	n D A	-0.19729008
-1.0322297	i D A	-0.29974583
-1.0278437	e D A	-0.56192756
-1.3300719	u D A	-0.19729008
-1.4915901	<s> P A	-0.24448207
-1.3193324	A P A	-0.19729008
-0.879299	K P A	-0.19729008
-0.8733616	E P A	-0.19729008
-1.2017652	I P A	-0.19729008
-1.0235339	O P A	-0.19729008
-1.3073756	i P A	-0.24448207
-0.9422733	e P A	-0.5539424
-1.3298831	u P A	-0.19729008
-1.6788731	D o A	-0.19729008
-2.3422186	n o A	-0.19729008
-2.1206472	g o A	-0.23219465
-2.1443427	k o A	-0.19729008
-2.180286	m o A	-0.19729008
-1.3898752	<s> V A	-0.19729008
-1.1400342	I V A	-0.19729008
-0.8852572	M V A	-0.19729008
-1.2445922	i V A	-0.19729008
-1.0649854	e V A	-0.3400788
-1.5572703	<s> R A	-0.19729008
-1.0234905	A R A	-0.19729008
-0.6050177	B R A	-0.19729008
-0.5448859	F R A	-0.2701517
-0.5422806	L R A	-0.3899249
-0.9768385	T R A	-0.19729008
-1.1656756	O R A	-0.19729008
-0.9767306	M R A	-0.19729008
-0.9695495	P R A	-0.19729008
-0.9549018	H R A	-0.2701517
-1.0106775	U R A	-0.19729008
-1.7783005	<s> H A	-0.19729008
-0.6728002	B H A	-0.2701517
-1.1634575	N H A	-0.19729008
-0.59816664	K H A	-0.27604198
-0.942065	T H A	-0.27519557
-0.74156755	C H A	-0.19729008
-0.60042685	D H A	-0.19729008
-0.7128306	P H A	-0.26575133
-0.9519971	J H A	-0.19729008
-1.1693982	i H A	-0.2701517
-1.1937153	e H A	-0.24448207
-2.9785697	<s> U A	-0.19729008
-0.41357842	W U A	-0.6411088
-1.0386182	u U A	-0.19729008
-1.7353029	<s> W A	-0.21439183
-0.6107277	A W A	-0.46501753
-0.32999203	G W A	-0.24448207
-0.34285492	K W A	-0.22817491
-0.32751843	L W A	-0.2870931
-0.94526833	I W A	-0.19729008
-0.7911615	T W A	-0.19729008
-0.52781063	Z W A	-0.19729008
-0.32999203	S W A	-0.23219465
-0.24208921	C W A	-0.19729008
-0.19033091	D W A	-0.35641095
-0.24208921	R W A	-0.19729008
-0.48121724	H W A	-0.19729008
-0.6440028	W W A	-0.19729008
-0.29628348	Y W A	-0.19729008
-0.29628348	J W A	-0.19729008
-1.0592955	e W A	-0.2701517
-1.6198546	<s> Y A	-0.3058213
-1.1987327	A Y A	-0.19729008
-0.62582856	N Y A	-0.29974583
-0.5784669	E Y A	-0.19729008
-0.91939384	I Y A	-0.19729008
-0.2640344	O Y A	-0.2701517
-0.76488435	U Y A	-0.19729008
-1.626782	<s> J A	-0.19729008
-0.25555006	A J A	-0.19729008
-0.43468598	N J A	-0.2701517
-0.33943513	F J A	-0.19729008
-0.6948087	E J A	-0.24448207
-1.1702709	T J A	-0.19729008
-1.0760088	U J A	-0.19729008
-2.1535015	k a A	-0.25456858
-2.3859935	l a A	-0.19729008
-1.7531766	m a A	-0.32950383
-2.499667	w a A	-0.19729008
-2.6743538	o n A	-0.19729008
-1.5983891	e x A	-0.19729008
-1.195703	A f A	-0.2701517
-1.2686003	I f A	-0.19729008
-1.71311	N g A	-0.19729008
-1.4205519	<s> Q A	-0.19729008
-0.54243547	A Q A	-0.19729008
-0.33826628	T Q A	-0.19729008
-0.33826628	S Q A	-0.19729008
-0.33826628	U Q A	-0.19729008
-2.3184655	<s> i A	-0.27853486
-2.3304636	n i A	-0.19729008
-2.3312664	r i A	-0.19729008
-2.518231	l i A	-0.19729008
-2.1785972	b i A	-0.19729008
-2.2092297	s i A	-0.2772297
-2.1142228	h i A	-0.19729008
-2.2464595	d i A	-0.19729008
-2.0149915	y i A	-0.19729008
-2.4710248	a b A	-0.19729008
-2.2640116	u b A	-0.19729008
-3.1772022	<s> e A	-0.2528499
-2.3800876	n e A	-0.19729008
-2.2031226	g e A	-0.19729008
-2.2291472	k e A	-0.19729008
-2.2678764	l e A	-0.19729008
-2.118788	b e A	-0.25456858
-2.097777	s e A	-0.19729008
-2.3033638	w e A	-0.24137746
-1.7592347	u e A	-0.19729008
-2.040897	z e A	-0.21689081
-1.9307985	y e A	-0.2069799
-3.8915381	<s> s A	-0.19729008
-1.6313955	I s A	-0.19729008
-2.2656932	i s A	-0.24448207
-1.5811366	e s A	-0.43076006
-2.7718666	o m A	-0.19729008
-2.4574332	a m A	-0.19729008
-2.508797	u m A	-0.19729008
-1.2198968	G w A	-0.19729008
-2.0701754	o w A	-0.19729008
-1.553147	k w A	-0.21689081
-1.8860992	l w A	-0.19729008
-1.8780425	u w A	-0.19729008
-2.8305254	<s> u A	-0.25356522
-1.8126123	a u A	-0.2701517
-2.00514	g u A	-0.19729008
-2.0580292	k u A	-0.20861606
-2.2233918	b u A	-0.24448207
-1.057924	E p A	-0.19729008
-1.1321057	I z A	-0.19729008
-1.1746942	U z A	-0.19729008
-2.2485943	i z A	-0.19729008
-1.8802078	e z A	-0.29974583
-2.1527178	u z A	-0.19729008
-2.383979	i d A	-0.19729008
-2.235431	e y A	-0.19729008
-1.032693	A j A	-0.19729008
-1.164187	N j A	-0.19729008
-1.1165448	E j A	-0.19729008
-0.58540636	S _ A	-0.19729008
-0.7209142	n _ A	-0.19729008
-0.99403644	e _ A	-0.19729008
-1.0396043	s _ A	-0.19729008
-0.32914677	d _ A	-0.19729008
-2.336951	<s> A B	-0.23741816
-1.611498	N A B	-0.19729008
-1.0991901	G A B	-0.25456858
-1.4202436	L A B	-0.2701517
-1.4308515	M A B	-0.19729008
-1.3070444	S A B	-0.42722896
-1.2492589	C A B	-0.19729008
-1.4937571	D A B	-0.19729008
-1.3282977	H A B	-0.19729008
-0.9815999	U A B	-0.19729008
-1.4171436	W A B	-0.2701517
-1.0192319	Y A B	-0.19729008
-1.2928017	a A B	-0.19729008
-1.440354	e A B	-0.19729008
-1.2296175	u A B	-0.19729008
-1.0381225	_ A B	-0.19729008
-2.9477072	<s> B B	-0.19729008
-0.49123782	B B B	-0.3400788
-1.7924073	a B B	-0.19729008
-1.765424	e B B	-0.19729008
-3.4272752	<s> N B	-0.19729008
-2.0321844	A N B	-0.19729008
-1.979014	i N B	-0.19729008
-0.95114475	L G B	-0.19729008
-0.37137637	S G B	-0.19729008
-2.086638	<s> F B	-0.19729008
-1.3959829	a F B	-0.19729008
-2.5736237	<s> E B	-0.19729008
-1.6898371	L E B	-0.19729008
-0.76274323	S E B	-0.76604754
-1.3535388	D E B	-0.19729008
-1.7032211	A L B	-0.19729008
-1.2129046	N L B	-0.2701517
-1.5819336	i L B	-0.19729008
-1.521527	u L B	-0.19729008
-1.9010046	<s> I B	-0.43572602
-0.9035075	G I B	-0.19729008
-1.1470875	K I B	-0.19729008
-1.3363914	M I B	-0.19729008
-1.4045985	Z I B	-0.19729008
-1.2858126	S I B	-0.2772297
-1.4816574	H I B	-0.19729008
-0.35832447	W I B	-0.19729008
-1.3610992	Y I B	-0.19729008
-1.4701499	i I B	-0.19729008
-0.7967125	b I B	-0.19729008
-1.2410303	u I B	-0.19729008
-2.4066827	<s> T B	-0.19729008
-1.4536096	i T B	-0.2701517
-1.3141488	e T B	-0.3899249
-1.9912318	<s> O B	-0.19729008
-1.2073635	N O B	-0.19729008
-1.2698494	G O B	-0.19729008
-1.2954187	K O B	-0.19729008
-1.4975809	L O B	-0.19729008
-1.3142561	Z O B	-0.19729008
-1.4419266	S O B	-0.19729008
-1.4680189	H O B	-0.19729008
-1.0967554	W O B	-0.19729008
-2.321391	<s> M B	-0.19729008
-1.42477	A M B	-0.2701517
-1.6616752	E M B	-0.19729008
-1.1674144	I M B	-0.24448207
-1.0948603	O M B	-0.23219465
-0.7486284	P M B	-0.2701517
-1.3609133	U M B	-0.19729008
-0.3001749	F S B	-0.2701517
-2.0531106	I S B	-0.19729008
-1.4149576	P S B	-0.19729008
-1.9342359	<s> C B	-0.19729008
-1.5317482	A C B	-0.19729008
-1.4789435	I C B	-0.19729008
-1.0659281	O C B	-0.19729008
-1.3673989	a C B	-0.19729008
-1.0052664	i C B	-0.29974583
-0.8021316	e C B	-0.8438139
-1.1279266	u C B	-0.2701517
-2.03087	<s> D B	-0.19729008
-2.3842833	<s> P B	-0.19729008
-1.3307987	S P B	-0.19729008
-1.7145051	N o B	-0.19729008
-1.5186914	S o B	-0.29974583
-1.5718569	W o B	-0.19729008
-1.4460064	Y o B	-0.19729008
-2.1311953	n o B	-0.19729008
-2.1772773	g o B	-0.19729008
-1.8950704	k o B	-0.24448207
-2.3307164	l o B	-0.19729008
-2.0516891	b o B	-0.19729008
-2.3217125	h o B	-0.19729008
-2.0268555	m o B	-0.19729008
-1.7906758	w o B	-0.2701517
-1.8848385	z o B	-0.2701517
-2.0724335	y o B	-0.19729008
-1.839653	<s> V B	-0.19729008
-1.5190529	I R B	-0.19729008
-0.66236776	N H B	-0.46501753
-2.3634815	<s> U B	-0.25456858
-1.4822017	B U B	-0.19729008
-1.042293	K U B	-0.23987451
-0.81924427	S U B	-0.19729008
-1.477916	H U B	-0.19729008
-0.663966	C Y B	-0.19729008
-3.4533858	<s> a B	-0.29974583
-1.7272563	G a B	-0.19729008
-2.3011014	n a B	-0.19729008
-2.2310104	g a B	-0.19729008
-2.0863254	i a B	-0.19729008
-2.0448976	k a B	-0.29366344
-2.4597666	l a B	-0.19729008
-2.184093	b a B	-0.24448207
-2.3633792	s a B	-0.19729008
-1.7115899	m a B	-0.37989205
-2.3576248	w a B	-0.22024539
-2.0696492	z a B	-0.19729008
-2.1504202	d a B	-0.19729008
-2.324789	y a B	-0.19729008
-2.265323	<s> i B	-0.48560864
-2.206828	g i B	-0.19729008
-2.0946603	r i B	-0.2701517
-2.3281653	l i B	-0.24448207
-1.9339057	s i B	-0.3228977
-2.3662267	h i B	-0.19729008
-1.9764758	m i B	-0.28469676
-2.2676935	z i B	-0.19729008
-2.3726256	y i B	-0.19729008
-2.3805625	<s> e B	-0.60490566
-1.8179538	B e B	-0.19729008
-1.7712259	N e B	-0.19729008
-2.0385203	S e B	-0.19729008
-1.6713561	Y e B	-0.19729008
-2.1428115	n e B	-0.20966052
-2.1428454	g e B	-0.19729008
-2.224417	l e B	-0.21245801
-1.9507121	b e B	-0.21689081
-2.351936	s e B	-0.19729008
-2.363602	h e B	-0.19729008
-2.1419806	w e B	-0.25902396
-1.9989076	z e B	-0.22817491
-2.1542754	d e B	-0.19729008
-2.2067707	y e B	-0.19729008
-2.6016736	<s> m B	-0.19729008
-1.5881532	E m B	-0.19729008
-1.6842632	o m B	-0.60332024
-1.5307778	U m B	-0.23219465
-2.503744	a m B	-0.19729008
-1.8671297	i m B	-0.25456858
-1.684079	e m B	-0.3103795
-2.1338544	u m B	-0.24448207
-2.6608253	<s> u B	-0.31848502
-1.997432	B u B	-0.19729008
-2.1141558	o u B	-0.19729008
-2.027512	a u B	-0.19729008
-2.1647813	g u B	-0.19729008
-1.7671309	i u B	-0.19729008
-1.8153391	k u B	-0.39625305
-2.371788	b u B	-0.19729008
-2.1877759	w u B	-0.19729008
-1.9079281	<s> d B	-0.19729008
-1.2832828	s _ B	-0.19729008
-2.4118555	<s> A N	-0.2772297
-0.7659639	B A N	-0.22024539
-0.97450763	N A N	-0.21689081
-1.3552796	G A N	-0.19729008
-0.9923676	K A N	-0.23219465
-0.9993358	F A N	-0.2701517
-0.6891381	L A N	-0.5105992
-1.0182177	T A N	-0.19729008
-1.2473346	M A N	-0.21689081
-1.0107558	Z A N	-0.19729008
-1.3611717	S A N	-0.2646582
-1.419921	D A N	-0.19729008
-1.1531497	P A N	-0.2701517
-0.7078139	R A N	-0.29974583
-0.9809372	H A N	-0.19729008
-0.9787835	W A N	-0.2528499
-1.2211642	Y A N	-0.19729008
-0.55234724	J A N	-0.23219465
-0.61829346	f A N	-0.19729008
-0.7664953	g A N	-0.19729008
-1.2819453	i A N	-0.2701517
-1.369287	e A N	-0.3400788
-0.7664953	j A N	-0.19729008
-2.9461324	<s> B N	-0.19729008
-0.82495	S B N	-0.19729008
-0.48162052	C B N	-0.56192756
-2.0126004	e B N	-0.19729008
-3.4216864	<s> N N	-0.19729008
-2.0285249	A N N	-0.19729008
-2.0390534	<s> G N	-0.19729008
-1.2787179	A G N	-0.19729008
-0.46220273	P G N	-0.2701517
-1.5826088	e G N	-0.2701517
-1.3809818	u G N	-0.19729008
-1.983786	<s> E N	-0.19729008
-1.3939388	B E N	-0.19729008
-1.0878484	N E N	-0.23219465
-1.3856195	G E N	-0.19729008
-0.52803636	E E N	-0.2528499
-1.2341268	L E N	-0.2701517
-1.1291206	M E N	-0.19729008
-1.0732411	S E N	-0.24448207
-1.1657617	C E N	-0.19729008
-1.0029348	P E N	-0.19729008
-1.1507738	R E N	-0.19729008
-1.3135879	H E N	-0.19729008
-0.7495661	W E N	-0.35641095
-0.9585124	J E N	-0.19729008
-0.6223636	j E N	-0.19729008
-3.0476453	<s> L N	-0.19729008
-1.6244565	<s> I N	-0.37511957
-1.1935608	A I N	-0.19729008
-1.0739648	N I N	-0.24448207
-1.157426	F I N	-0.19729008
-1.0357616	L I N	-0.22498572
-1.237195	I I N	-0.19729008
-0.7643811	M I N	-0.27519557
-1.1083038	Z I N	-0.19729008
-1.2197639	S I N	-0.2628424
-1.253377	C I N	-0.19729008
-1.3120762	D I N	-0.19729008
-0.712214	V I N	-0.19729008
-0.88354367	H I N	-0.19729008
-0.7280041	Y I N	-0.23219465
-0.34779188	Q I N	-0.19729008
-1.3640767	i I N	-0.19729008
-1.4503669	e I N	-0.19729008
-1.2574958	_ I N	-0.19729008
-1.9349135	<s> O N	-0.19729008
-0.71658313	B O N	-0.22498572
-1.1733665	N O N	-0.19729008
-1.257537	K O N	-0.19729008
-1.1309892	I O N	-0.19729008
-1.2791744	Z O N	-0.19729008
-1.3984641	S O N	-0.19729008
-1.0790551	C O N	-0.19729008
-0.96713746	D O N	-0.19729008
-1.2063125	H O N	-0.2701517
-0.7778068	Q O N	-0.19729008
-2.7153084	<s> M N	-0.19729008
-1.5071529	O M N	-0.2701517
-1.606353	U M N	-0.19729008
-0.37244153	K Z N	-0.19729008
-1.3946724	R S N	-0.19729008
-1.4120625	A C N	-0.19729008
-1.6832256	I C N	-0.19729008
-0.9566021	U C N	-0.19729008
-2.252395	<s> D N	-0.19729008
-1.2389238	S D N	-0.19729008
-1.6706516	i D N	-0.19729008
-1.6492218	I P N	-0.19729008
-1.2787244	P P N	-0.19729008
-0.66611993	R P N	-0.19729008
-3.0739584	<s> o N	-0.23219465
-1.6063019	Z o N	-0.19729008
-1.3392559	S o N	-0.46501753
-1.5807528	W o N	-0.19729008
-1.5666335	n o N	-0.28396326
-2.1966136	g o N	-0.19729008
-2.0358648	k o N	-0.25456858
-2.1606169	l o N	-0.19729008
-1.5617297	b o N	-0.42299947
-1.8677244	s o N	-0.19729008
-2.0374923	w o N	-0.19729008
-1.8953229	z o N	-0.19729008
-2.089791	y o N	-0.19729008
-1.5412582	A R N	-0.19729008
-1.5553607	<s> U N	-0.7573886
-0.94124043	B U N	-0.19729008
-1.1953161	K U N	-0.22498572
-0.2735739	F U N	-0.2528499
-0.93004566	L U N	-0.3400788
-0.975805	O U N	-0.19729008
-0.75687045	M U N	-0.24448207
-0.98934656	o U N	-0.19729008
-1.2790905	H U N	-0.19729008
-1.0600009	a U N	-0.19729008
-0.34307218	Q U N	-0.19729008
-0.90560454	i U N	-0.24448207
-0.8154764	e U N	-0.38434008
-1.903026	<s> J N	-0.19729008
-1.4563357	u J N	-0.19729008
-3.7755418	<s> a N	-0.19729008
-1.3998641	N a N	-0.46501753
-1.9387293	M a N	-0.2701517
-2.128703	n a N	-0.19729008
-1.7881689	k a N	-0.36836988
-2.2860467	l a N	-0.24448207
-1.9159075	b a N	-0.26648164
-2.1757498	s a N	-0.19729008
-2.5136712	h a N	-0.19729008
-1.7948339	m a N	-0.28184775
-2.384134	w a N	-0.23219469
-1.928385	d a N	-0.19729008
-1.760348	f n N	-0.19729008
-2.735915	i n N	-0.19729008
-2.4100828	n g N	-0.19729008
-1.6802492	<s> Q N	-0.19729008
-2.104804	<s> i N	-0.38427165
-1.4106551	I i N	-0.19729008
-1.6394837	Y i N	-0.19729008
-2.263205	n i N	-0.19729008
-1.6472485	i i N	-0.21689081
-2.2655816	l i N	-0.23219465
-1.7444044	s i N	-0.5105992
-2.074649	h i N	-0.19729008
-1.562019	m i N	-0.38160676
-2.0942543	w i N	-0.19729008
-2.079666	z i N	-0.2772297
-2.184353	d i N	-0.19729008
-2.100484	y i N	-0.21245801
-4.009632	<s> b N	-0.19729008
-2.5366983	<s> e N	-0.4677845
-1.8056792	B e N	-0.19729008
-1.7288008	W e N	-0.19729008
-1.8444127	a e N	-0.19729008
-1.8579429	n e N	-0.22966915
-2.1245332	g e N	-0.19729008
-2.2108862	l e N	-0.20773424
-2.0677373	b e N	-0.21091716
-1.222372	e e N	-0.51123035
-1.9050331	s e N	-0.24506551
-2.1828418	m e N	-0.19729008
-1.7919413	w e N	-0.302762
-1.7958752	q e N	-0.19729008
-1.9858063	z e N	-0.24448207
-2.0144851	y e N	-0.20861606
-2.0208235	j e N	-0.19729008
-2.1477225	<s> m N	-0.35641095
-1.6096231	E m N	-0.19729008
-1.5206931	o m N	-0.63230073
-1.404141	U m N	-0.2701517
-2.352684	i m N	-0.19729008
-2.2491705	e m N	-0.24448207
-2.0432234	u m N	-0.27519557
-2.007943	<s> u N	-0.84543145
-1.8630745	K u N	-0.19729008
-1.4279957	a u N	-0.3165749
-1.9484729	g u N	-0.23952532
-1.8149822	k u N	-0.29171526
-2.2416408	l u N	-0.19729008
-1.6375554	b u N	-0.3449326
-1.2281977	e u N	-0.23219465
-1.6147033	m u N	-0.39665586
-2.263999	<s> c N	-0.19729008
-0.35743836	r _ N	-0.19729008
-0.8391534	e _ N	-0.19729008
-0.9203572	s _ N	-0.19729008
-3.056819	<s> A G	-0.19729008
-1.4354368	I A G	-0.19729008
-1.4073287	T A G	-0.19729008
-1.5227453	M A G	-0.2701517
-1.6420165	S A G	-0.3400788
-1.4304225	R A G	-0.19729008
-1.6838422	i A G	-0.19729008
-1.5259384	e A G	-0.2701517
-1.566529	u A G	-0.19729008
-1.8641537	<s> N G	-0.6829626
-1.0185969	A N G	-0.39665583
-1.2218382	E N G	-0.19729008
-0.90353006	I N G	-0.37424326
-0.8051818	O N G	-0.29974583
-1.6630428	o N G	-0.19729008
-1.0946501	U N G	-0.35660216
-1.6852303	a N G	-0.19729008
-1.7164363	i N G	-0.19729008
-1.252691	A K G	-0.23219465
-1.6336273	I K G	-0.19729008
-1.5687507	U K G	-0.19729008
-2.1651962	<s> F G	-0.19729008
-2.4428477	<s> E G	-0.19729008
-1.5485426	B E G	-0.19729008
-1.6051365	L E G	-0.19729008
-1.0833849	P E G	-0.19729008
-1.2649678	R E G	-0.19729008
-1.4655972	H E G	-0.19729008
-1.4865777	Y E G	-0.19729008
-1.7514405	A L G	-0.19729008
-0.95565474	P L G	-0.19729008
-2.2176208	<s> I G	-0.2694504
-1.5857322	S I G	-0.2701517
-0.9373982	C I G	-0.3400788
-1.6868064	L O G	-0.19729008
-1.1968791	C O G	-0.2701517
-1.6643618	H O G	-0.19729008
-1.1378282	P M G	-0.19729008
-1.9436197	a S G	-0.19729008
-1.6861328	I C G	-0.19729008
-2.0677829	e C G	-0.19729008
-2.1446538	<s> P G	-0.2701517
-1.0550537	G P G	-0.19729008
-1.5403886	u P G	-0.19729008
-2.408967	n o G	-0.19729008
-2.446571	g o G	-0.19729008
-2.4716384	k o G	-0.19729008
-2.5970047	l o G	-0.19729008
-1.3255687	u V G	-0.19729008
-2.183828	<s> H G	-0.19729008
-0.9545013	W H G	-0.19729008
-2.7318766	<s> U G	-0.19729008
-0.95581555	G U G	-0.19729008
-1.5610807	K U G	-0.19729008
-4.161237	<s> a G	-0.19729008
-2.1524458	k a G	-0.23219465
-1.9707056	b a G	-0.29974583
-2.4097874	m a G	-0.21689081
-2.7709453	w a G	-0.19729008
-1.7653537	f n G	-0.19729008
-2.4768696	i n G	-0.24448207
-2.7877345	e n G	-0.19729008
-2.565776	e t G	-0.19729008
-2.4384758	o r G	-0.19729008
-2.3356152	u r G	-0.19729008
-2.5978417	<s> i G	-0.25136146
-2.6678238	l i G	-0.19729008
-1.8635424	s i G	-0.40402162
-2.4654531	m i G	-0.19729008
-2.240751	y i G	-0.22024539
-2.852967	<s> e G	-0.36379737
-1.8563334	B e G	-0.19729008
-1.807665	N e G	-0.19729008
-1.8602928	L e G	-0.19729008
-2.3787313	n e G	-0.19729008
-2.2018647	g e G	-0.19729008
-2.4574475	l e G	-0.19729008
-2.3254578	b e G	-0.19729008
-2.2278354	s e G	-0.19729008
-2.3024023	w e G	-0.24903783
-2.0400388	z e G	-0.21689081
-2.2682328	y e G	-0.19729008
-2.9031246	<s> m G	-0.19729008
-1.747402	o m G	-0.49778345
-1.8519546	U m G	-0.19729008
-2.524478	e m G	-0.19729008
-2.2315552	u m G	-0.24448207
-3.110696	<s> u G	-0.2528499
-2.3689637	g u G	-0.19729008
-1.9641027	k u G	-0.31111568
-2.4655437	e z G	-0.19729008
-2.3478231	a c G	-0.19729008
-2.486019	<s> A K	-0.22498572
-1.4976106	B A K	-0.19729008
-1.6328818	N A K	-0.19729008
-1.4710494	G A K	-0.19729008
-1.4312853	K A K	-0.19729008
-0.86788785	F A K	-0.3400788
-1.1234065	L A K	-0.24448207
-1.1546711	M A K	-0.22498572
-1.0566273	Z A K	-0.19729008
-1.8368797	S A K	-0.19729008
-1.0794806	D A K	-0.24448207
-1.5658944	H A K	-0.19729008
-1.1328934	W A K	-0.46501753
-0.85937226	Y A K	-0.23219465
-0.7330676	Q A K	-0.2701517
-2.0432315	A N K	-0.19729008
-0.37411347	Q N K	-0.19729008
-2.1309395	<s> E K	-0.23219465
-1.2202969	B E K	-0.23219465
-1.4934363	N E K	-0.19729008
-1.4541186	G E K	-0.19729008
-0.9576892	L E K	-0.2646582
-1.1842035	Z E K	-0.19729008
-1.2731661	S E K	-0.29974583
-1.2416322	D E K	-0.19729008
-1.2068607	R E K	-0.19729008
-1.1363411	H E K	-0.19729008
-1.1644385	W E K	-0.3400788
-1.6940717	<s> I K	-0.67456275
-0.95062214	B I K	-0.19729008
-1.1511143	N I K	-0.24448207
-0.9490816	F I K	-0.24448207
-1.0853574	L I K	-0.2701517
-1.6341257	M I K	-0.19729008
-1.3259847	S I K	-0.23219465
-1.4133385	Y I K	-0.19729008
-1.4090153	_ I K	-0.19729008
-2.4213607	<s> T K	-0.19729008
-1.2442849	M T K	-0.19729008
-2.1023364	e T K	-0.19729008
-1.7552181	<s> O K	-0.19729008
-1.2322241	B O K	-0.19729008
-1.1023351	N O K	-0.19729008
-1.1438398	G O K	-0.19729008
-0.95676965	K O K	-0.2701517
-1.3522227	L O K	-0.19729008
-1.0779772	T O K	-0.19729008
-0.5164298	Z O K	-0.2987537
-0.6852666	S O K	-0.39665586
-1.3189987	H O K	-0.19729008
-1.0128914	W O K	-0.19729008
-0.7452783	Y O K	-0.19729008
-1.0964129	a O K	-0.19729008
-0.9183934	e O K	-0.46501753
-0.6031049	z O K	-0.19729008
-0.33886775	_ O K	-0.19729008
-2.739421	<s> M K	-0.19729008
-1.8194436	A M K	-0.19729008
-1.6154227	U M K	-0.2701517
-1.6526103	A S K	-0.19729008
-1.767676	I S K	-0.2701517
-0.37458718	Q S K	-0.19729008
-2.3944683	<s> C K	-0.19729008
-1.7326401	A C K	-0.19729008
-2.9679255	<s> o K	-0.56192756
-2.003946	N o K	-0.19729008
-1.6269051	L o K	-0.19729008
-2.203825	n o K	-0.19729008
-2.2481706	g o K	-0.19729008
-2.067895	k o K	-0.19729008
-2.4009876	l o K	-0.19729008
-1.9578402	b o K	-0.29974583
-1.8216846	w o K	-0.22024539
-2.1551623	z o K	-0.19729008
-1.9060881	y o K	-0.19729008
-2.2605534	<s> H K	-0.19729008
-1.9154913	<s> U K	-0.70060533
-0.9829725	A U K	-0.19729008
-1.317245	B U K	-0.19729008
-0.87295276	N U K	-0.19729008
-1.2316365	K U K	-0.25456858
-1.1896898	M U K	-0.19729008
-0.772638	S U K	-0.19729008
-1.325586	H U K	-0.19729008
-1.072092	i U K	-0.2701517
-1.0375394	e U K	-0.2701517
-0.9465603	_ U K	-0.19729008
-2.794348	<s> Y K	-0.19729008
-1.9935164	<s> J K	-0.19729008
-3.7554169	<s> a K	-0.2701517
-1.5765342	N a K	-0.29974583
-2.1478193	M a K	-0.19729008
-2.3068237	n a K	-0.19729008
-2.2362902	g a K	-0.19729008
-1.8928834	k a K	-0.35641095
-2.266239	l a K	-0.19729008
-1.9042506	b a K	-0.2628424
-2.157582	s a K	-0.2701517
-1.7863282	m a K	-0.46184152
-2.3616965	w a K	-0.22498572
-2.1166298	q a K	-0.19729008
-2.0728936	z a K	-0.19729008
-2.1139321	y a K	-0.2701517
-2.6182284	o n K	-0.19729008
-1.7359616	f n K	-0.19729008
-2.4452822	i n K	-0.24448207
-2.486528	e n K	-0.21689081
-2.1953847	<s> i K	-0.70840967
-1.921493	o i K	-0.19729008
-2.190697	l i K	-0.23219465
-1.7643425	s i K	-0.4467939
-2.3732667	h i K	-0.19729008
-1.8030168	m i K	-0.39665586
-2.2724285	z i K	-0.2701517
-2.2701924	d i K	-0.19729008
-2.1697798	y i K	-0.25075862
-2.3496408	<s> e K	-0.6559319
-1.8337725	B e K	-0.19729008
-1.8363769	L e K	-0.19729008
-1.7540721	W e K	-0.19729008
-2.1598868	n e K	-0.23219465
-1.969462	g e K	-0.22498572
-1.9596117	l e K	-0.24448207
-2.0956173	b e K	-0.22498572
-1.9217265	s e K	-0.22817491
-2.3851383	h e K	-0.19729008
-1.8925287	w e K	-0.2929345
-1.8881025	z e K	-0.28965536
-2.0434735	y e K	-0.21439183
-2.0511863	j e K	-0.19729008
-2.4031549	o s K	-0.19729008
-2.1388383	i s K	-0.29974583
-1.6125491	k s K	-0.19729008
-2.8599913	<s> m K	-0.19729008
-1.6404645	E m K	-0.19729008
-1.7418523	o m K	-0.5638724
-1.5773898	U m K	-0.2701517
-1.8720425	e m K	-0.56192756
-2.2029939	u m K	-0.2701517
-2.6987605	<s> u K	-0.35338455
-1.8675065	n u K	-0.19729008
-2.2978992	g u K	-0.19729008
-2.071986	k u K	-0.3186224
-1.8924774	b u K	-0.3400788
-1.2892655	s _ K	-0.19729008
-2.9890568	<s> A F	-0.19729008
-1.6380632	B A F	-0.19729008
-1.8198135	N A F	-0.19729008
-1.5755669	K A F	-0.19729008
-1.8350081	M A F	-0.19729008
-1.819838	W A F	-0.19729008
-1.0582575	L B F	-0.19729008
-3.3443928	<s> N F	-0.19729008
-1.9229176	I N F	-0.19729008
-1.9201398	i N F	-0.19729008
-1.7661812	e N F	-0.3400788
-1.1908776	A F F	-0.19729008
-2.5227826	<s> E F	-0.19729008
-1.1857729	N E F	-0.3400788
-1.4014714	T E F	-0.19729008
-0.96614033	R E F	-0.2701517
-1.7292542	e E F	-0.19729008
-0.37484097	L L F	-0.19729008
-2.14769	<s> I F	-0.25589627
-0.7729398	F I F	-0.3400788
-1.6993846	L I F	-0.19729008
-1.5206634	T I F	-0.19729008
-1.4813436	Z I F	-0.19729008
-1.4792179	S I F	-0.19729008
-0.3923463	U I F	-0.56192756
-1.4230704	_ I F	-0.19729008
-1.5359904	E T F	-0.19729008
-2.5397367	<s> O F	-0.19729008
-1.7703921	E M F	-0.19729008
-1.5071529	O M F	-0.19729008
-1.1274745	P M F	-0.19729008
-1.1327254	C S F	-0.2701517
-2.3775563	<s> C F	-0.19729008
-1.3037549	R C F	-0.19729008
-2.1058958	<s> D F	-0.19729008
-1.6419857	N D F	-0.19729008
-1.6668417	I D F	-0.19729008
-1.1494427	P D F	-0.19729008
-1.5777042	u D F	-0.19729008
-2.067823	<s> P F	-0.19729008
-1.0430403	N P F	-0.19729008
-1.317882	E P F	-0.19729008
-0.6347216	L P F	-0.19729008
-1.4441895	I P F	-0.19729008
-0.73161393	C P F	-0.2701517
-1.339131	i P F	-0.2701517
-1.3968825	e P F	-0.46501753
-2.4033988	n o F	-0.19729008
-2.1518779	g o F	-0.24448207
-2.4958644	b o F	-0.19729008
-2.3170283	z o F	-0.19729008
-0.3724474	F V F	-0.19729008
-1.1403376	A R F	-0.2701517
-0.81137115	N R F	-0.19729008
-1.129411	C R F	-0.19729008
-1.4456471	a R F	-0.19729008
-1.7632427	e R F	-0.19729008
-2.181171	<s> H F	-0.19729008
-0.8637138	N H F	-0.3400788
-0.37106526	S H F	-0.19729008
-3.0055847	<s> U F	-0.24448207
-1.2357966	B U F	-0.2701517
-1.1975296	K U F	-0.28965536
-1.4814345	A Y F	-0.19729008
-4.156579	<s> a F	-0.19729008
-2.3127613	k a F	-0.22498572
-2.3237422	b a F	-0.24448207
-2.556318	s a F	-0.19729008
-2.247961	m a F	-0.23741816
-1.7893752	f n F	-0.19729008
-0.6834037	N Q F	-0.2701517
-2.7232025	<s> i F	-0.2883273
-2.3993134	l i F	-0.19729008
-2.2762926	s i F	-0.2772297
-2.6047435	z i F	-0.19729008
-2.4976726	y i F	-0.19729008
-3.1163094	<s> e F	-0.2646582
-1.8997322	a e F	-0.19729008
-2.3976617	n e F	-0.19729008
-2.2193937	g e F	-0.19729008
-2.0871866	i e F	-0.19729008
-2.4767144	l e F	-0.19729008
-2.0680885	e e F	-0.2701517
-2.2402968	s e F	-0.23219465
-2.3157408	w e F	-0.23219469
-2.0519242	z e F	-0.22498572
-2.2865567	y e F	-0.19729008
-1.6259269	k s F	-0.19729008
-2.629653	o m F	-0.19729008
-1.8079635	U m F	-0.19729008
-2.5841894	a m F	-0.19729008
-2.3957608	i m F	-0.19729008
-2.467348	e m F	-0.19729008
-2.3731875	u m F	-0.19729008
-2.9122624	<s> u F	-0.3023931
-2.0708046	a u F	-0.19729008
-1.9822239	g u F	-0.24448207
-2.0419667	k u F	-0.3369028
-2.1989877	b u F	-0.23219465
-1.9079608	e u F	-0.19729008
-2.2354517	m u F	-0.19729008
-1.486987	p p F	-0.19729008
-1.7252668	S A E	-0.19729008
-1.5097373	R A E	-0.19729008
-2.1411817	<s> B E	-0.22498572
-0.87085193	A B E	-0.35641095
-0.9148272	B B E	-0.19729008
-0.621332	E B E	-0.24448207
-0.9973051	I B E	-0.24448207
-1.2001696	O B E	-0.19729008
-0.9404376	M B E	-0.19729008
-0.99475574	U B E	-0.2701517
-0.33678174	Y B E	-0.19729008
-1.4793862	a B E	-0.19729008
-1.2461765	i B E	-0.2701517
-1.1940186	e B E	-0.56192756
-1.339051	u B E	-0.19729008
-2.2480302	<s> N E	-0.25356522
-1.0169846	A N E	-0.29223293
-1.573863	E N E	-0.19729008
-1.1569217	O N E	-0.19729008
-1.091895	U N E	-0.29974583
-1.6767793	a N E	-0.19729008
-1.531661	i N E	-0.19729008
-1.5084375	e N E	-0.25456858
-1.7093396	u N E	-0.19729008
-1.7218773	<s> G E	-0.2701517
-0.9774334	N G E	-0.2694504
-0.70170873	E G E	-0.19729008
-1.1717721	I G E	-0.19729008
-1.3306346	a G E	-0.19729008
-1.253055	i G E	-0.2701517
-0.87335765	e G E	-0.5528968
-1.2803739	u G E	-0.19729008
-1.5896751	A K E	-0.19729008
-0.6344918	N K E	-0.19729008
-1.0574483	E K E	-0.29974583
-1.0725259	I K E	-0.25456858
-0.7950974	T K E	-0.19729008
-0.6946965	O K E	-0.6411088
-1.3907253	U K E	-0.19729008
-1.5015534	I F E	-0.19729008
-1.4881356	i F E	-0.19729008
-1.4402205	e F E	-0.3400788
-2.3317878	<s> E E	-0.19729008
-0.6540494	B E E	-0.47583708
-1.4642936	G E E	-0.19729008
-1.330105	E E E	-0.19729008
-1.636639	S E E	-0.19729008
-1.226537	C E E	-0.19729008
-1.2150522	R E E	-0.19729008
-1.3198915	W E E	-0.19729008
-1.4177327	Y E E	-0.19729008
-1.2958027	i E E	-0.19729008
-1.9722922	<s> L E	-0.2528499
-1.3051486	A L E	-0.24448207
-0.6958032	E L E	-0.45963588
-0.8448739	I L E	-0.31074366
-1.2386045	O L E	-0.19729008
-0.8739541	S L E	-0.19729008
-1.1106381	D L E	-0.19729008
-1.1739913	H L E	-0.19729008
-1.0813266	U L E	-0.19729008
-2.135793	<s> I E	-0.24171166
-1.4441137	I I E	-0.19729008
-1.5732639	T I E	-0.19729008
-1.6307392	i I E	-0.19729008
-1.9186248	e I E	-0.19729008
-2.113273	<s> T E	-0.19729008
-1.3169886	A T E	-0.19729008
-1.2438831	N T E	-0.19729008
-1.0234711	I T E	-0.19729008
-0.84770405	M T E	-0.2701517
-1.2751626	S T E	-0.19729008
-1.2360467	C T E	-0.19729008
-1.8277692	e T E	-0.19729008
-0.8817894	S O E	-0.46501753
-2.2482405	<s> M E	-0.19729008
-1.3400129	A M E	-0.19729008
-0.62857246	N M E	-0.19729008
-1.5315719	E M E	-0.19729008
-1.4550562	I M E	-0.19729008
-0.8895241	T M E	-0.19729008
-1.1939293	O M E	-0.24448207
-0.78732216	M M E	-0.19729008
-0.66675955	S M E	-0.24448207
-1.2615674	U M E	-0.19729008
-1.5044676	i M E	-0.19729008
-1.487194	e M E	-0.24448207
-1.6143286	u M E	-0.19729008
-1.3345953	A Z E	-0.19729008
-1.1077955	N Z E	-0.19729008
